<?xml version="1.0"?>
<opencv_storage>
<my_nn type_id="opencv-ml-ann-mlp">
  <layer_sizes type_id="opencv-matrix">
    <rows>1</rows>
    <cols>3</cols>
    <dt>i</dt>
    <data>
      1558 50 2</data></layer_sizes>
  <activation_function>SIGMOID_SYM</activation_function>
  <f_param1>5.9999999999999998e-01</f_param1>
  <f_param2>1.</f_param2>
  <min_val>-9.4999999999999996e-01</min_val>
  <max_val>9.4999999999999996e-01</max_val>
  <min_val1>-9.7999999999999998e-01</min_val1>
  <max_val1>9.7999999999999998e-01</max_val1>
  <training_params>
    <train_method>BACKPROP</train_method>
    <dw_scale>1.0000000000000001e-01</dw_scale>
    <moment_scale>1.0000000000000001e-01</moment_scale>
    <term_criteria><epsilon>9.9999999747524271e-07</epsilon>
      <iterations>1000</iterations></term_criteria></training_params>
  <input_scale>
    1.8300191378858788e-02 -1.1539702932589051e+00
    7.8304672878783538e-03 -1.1857029409908404e+00
    1.9390390195944518e-01 -7.1541311034052679e-01
    2.3540320703752764e+00 -1.7977951803663625e+00
    2.0054986879841749e+01 -4.9987504685547732e-02 1. 0.
    1.1607793383580484e+01 -8.6798056208228933e-02
    1.3541386566673944e+01 -7.4254861532110361e-02
    1.3541386566673944e+01 -7.4254861532110361e-02
    7.8615904616149717e+00 -1.2932825784311769e-01
    1.4963067721862023e+01 -6.7132407525801699e-02
    1.1242021179530175e+01 -8.9667167932444058e-02
    9.6017137476335748e+00 -1.0530294239677898e-01 1. 0.
    1.1242021179530175e+01 -8.9667167932444058e-02
    1.3541386566673944e+01 -7.4254861532110361e-02
    2.2416556336823863e+01 -4.4699015626767417e-02
    1.2968141143619201e+01 -7.7576118506196626e-02
    1.1607793383580484e+01 -8.6798056208228933e-02
    1.6958034388522272e+01 -5.9175593579090677e-02
    1.4198767904999364e+01 -7.0781495039877185e-02
    1.1607793383580484e+01 -8.6798056208228933e-02
    1.2462512392675762e+01 -8.0764038437081215e-02
    1.2012191406989986e+01 -8.3833838333928115e-02
    1.4198767904999364e+01 -7.0781495039877185e-02
    1.5866757828995944e+01 -6.3277199716833266e-02
    3.1685974783869160e+01 -3.1591201180328175e-02
    1.0065290382967309e+01 -1.0035184828481863e-01
    1.6958034388522272e+01 -5.9175593579090677e-02
    4.4799559135700399e+01 -2.2332781224177665e-02
    1.6958034388522272e+01 -5.9175593579090677e-02
    1.2968141143619201e+01 -7.7576118506196626e-02
    1.6958034388522272e+01 -5.9175593579090677e-02 1. 0.
    6.4144806782925263e+00 -1.5988236984776985e-01
    1.2462512392675762e+01 -8.0764038437081215e-02
    1.4198767904999364e+01 -7.0781495039877185e-02
    1.3541386566673944e+01 -7.4254861532110361e-02 1. 0.
    1.3541386566673944e+01 -7.4254861532110361e-02
    1.3541386566673944e+01 -7.4254861532110361e-02
    1.2462512392675762e+01 -8.0764038437081215e-02
    8.5239083087336400e+00 -1.1897778297335090e-01
    1.2012191406989986e+01 -8.3833838333928115e-02
    1.6958034388522272e+01 -5.9175593579090677e-02 1. 0.
    1.6958034388522272e+01 -5.9175593579090677e-02
    9.0140235127796835e+00 -1.1233827907252845e-01
    2.5877947453769135e+01 -3.8700818724480265e-02
    1.2012191406989986e+01 -8.3833838333928115e-02
    1.0909103859096174e+01 -9.2450032704204863e-02
    1.4963067721862023e+01 -6.7132407525801699e-02
    1.0604409402243963e+01 -9.5154221954332679e-02 1. 0.
    1.3541386566673944e+01 -7.4254861532110361e-02
    1.6958034388522272e+01 -5.9175593579090677e-02
    6.6109638401973907e+00 -1.5489297133064672e-01
    1.2968141143619201e+01 -7.7576118506196626e-02
    1.3541386566673944e+01 -7.4254861532110361e-02
    1.4198767904999364e+01 -7.0781495039877185e-02
    4.4799559135700399e+01 -2.2332781224177665e-02 1. 0. 1. 0.
    1.3541386566673944e+01 -7.4254861532110361e-02
    3.8018616885482004e+00 -2.8428676634208877e-01
    1.2012191406989986e+01 -8.3833838333928115e-02
    1.4198767904999364e+01 -7.0781495039877185e-02
    7.2426324346772191e+00 -1.4080890575892899e-01 1. 0.
    1.1242021179530175e+01 -8.9667167932444058e-02
    1.1242021179530175e+01 -8.9667167932444058e-02
    1.0324171130043423e+01 -9.7786266934608693e-02
    1.3541386566673944e+01 -7.4254861532110361e-02
    1.0324171130043423e+01 -9.7786266934608693e-02
    7.3354469957392476e+00 -1.3895662304989601e-01
    1.4198767904999364e+01 -7.0781495039877185e-02
    4.4799559135700399e+01 -2.2332781224177665e-02 1. 0. 1. 0.
    1.8312190839256051e+01 -5.4772255750516606e-02
    1.0909103859096174e+01 -9.2450032704204863e-02 1. 0. 1. 0.
    8.8412090500664817e+00 -1.1459194182538809e-01
    1.1607793383580484e+01 -8.6798056208228933e-02
    1.2012191406989986e+01 -8.3833838333928115e-02
    1.3541386566673944e+01 -7.4254861532110361e-02
    1.6958034388522272e+01 -5.9175593579090677e-02
    1.1242021179530175e+01 -8.9667167932444058e-02
    1.3541386566673944e+01 -7.4254861532110361e-02
    4.4799559135700399e+01 -2.2332781224177665e-02
    1.2462512392675762e+01 -8.0764038437081215e-02 1. 0.
    1.4963067721862023e+01 -6.7132407525801699e-02
    1.3541386566673944e+01 -7.4254861532110361e-02
    1.3541386566673944e+01 -7.4254861532110361e-02
    1.2462512392675762e+01 -8.0764038437081215e-02
    1.4963067721862023e+01 -6.7132407525801699e-02
    2.0054986879841749e+01 -4.9987504685547732e-02
    1.0065290382967309e+01 -1.0035184828481863e-01
    1.8312190839256051e+01 -5.4772255750516606e-02
    1.8312190839256051e+01 -5.4772255750516606e-02
    1.1607793383580484e+01 -8.6798056208228933e-02
    1.4198767904999364e+01 -7.0781495039877185e-02
    3.1685974783869160e+01 -3.1591201180328175e-02
    6.6109638401973907e+00 -1.5489297133064672e-01
    1.6958034388522272e+01 -5.9175593579090677e-02
    1.0324171130043423e+01 -9.7786266934608693e-02
    2.0054986879841749e+01 -4.9987504685547732e-02
    1.3541386566673944e+01 -7.4254861532110361e-02
    1.0909103859096174e+01 -9.2450032704204863e-02 1. 0.
    9.1975780678481218e+00 -1.1004081437106428e-01
    9.0140235127796835e+00 -1.1233827907252845e-01
    1.8312190839256051e+01 -5.4772255750516606e-02 1. 0. 1. 0.
    1.0065290382967309e+01 -1.0035184828481863e-01
    9.8251915436238537e+00 -1.0285594337791672e-01
    1.0324171130043423e+01 -9.7786266934608693e-02
    6.9845035393091228e+00 -1.4623586672531563e-01 1. 0.
    1.3541386566673944e+01 -7.4254861532110361e-02
    1.2968141143619201e+01 -7.7576118506196626e-02
    1.3541386566673944e+01 -7.4254861532110361e-02 1. 0.
    1.4963067721862023e+01 -6.7132407525801699e-02
    4.4799559135700399e+01 -2.2332781224177665e-02
    1.1607793383580484e+01 -8.6798056208228933e-02
    1.8312190839256051e+01 -5.4772255750516606e-02
    1.1607793383580484e+01 -8.6798056208228933e-02
    1.2968141143619201e+01 -7.7576118506196626e-02
    1.0324171130043423e+01 -9.7786266934608693e-02
    6.4144806782925263e+00 -1.5988236984776985e-01
    1.1607793383580484e+01 -8.6798056208228933e-02
    1.2462512392675762e+01 -8.0764038437081215e-02
    2.0054986879841749e+01 -4.9987504685547732e-02
    4.4799559135700399e+01 -2.2332781224177665e-02
    1.1607793383580484e+01 -8.6798056208228933e-02
    9.3930287922664117e+00 -1.0769674088839853e-01
    1.6958034388522272e+01 -5.9175593579090677e-02
    1.2462512392675762e+01 -8.0764038437081215e-02
    1.4963067721862023e+01 -6.7132407525801699e-02
    1.3541386566673944e+01 -7.4254861532110361e-02
    1.2012191406989986e+01 -8.3833838333928115e-02
    6.1786577897286383e+00 -1.6632478596477890e-01 1. 0.
    1.1607793383580484e+01 -8.6798056208228933e-02
    1.4198767904999364e+01 -7.0781495039877185e-02
    1.4198767904999364e+01 -7.0781495039877185e-02
    1.5866757828995944e+01 -6.3277199716833266e-02
    9.1975780678481218e+00 -1.1004081437106428e-01
    1.3541386566673944e+01 -7.4254861532110361e-02
    1.0324171130043423e+01 -9.7786266934608693e-02
    1.4198767904999364e+01 -7.0781495039877185e-02
    1.2968141143619201e+01 -7.7576118506196626e-02
    1.0909103859096174e+01 -9.2450032704204863e-02
    1.1607793383580484e+01 -8.6798056208228933e-02
    1.1242021179530175e+01 -8.9667167932444058e-02
    2.5877947453769135e+01 -3.8700818724480265e-02
    2.5877947453769135e+01 -3.8700818724480265e-02 1. 0. 1. 0.
    1.2462512392675762e+01 -8.0764038437081215e-02 1. 0.
    2.2416556336823863e+01 -4.4699015626767417e-02
    1.4963067721862023e+01 -6.7132407525801699e-02
    8.6781299569933310e+00 -1.1680434139522429e-01
    1.3541386566673944e+01 -7.4254861532110361e-02
    1.2462512392675762e+01 -8.0764038437081215e-02 1. 0.
    1.2968141143619201e+01 -7.7576118506196626e-02
    5.6900532260917345e+00 -1.8153709195905832e-01
    8.5239083087336400e+00 -1.1897778297335090e-01
    2.2416556336823863e+01 -4.4699015626767417e-02
    2.5877947453769135e+01 -3.8700818724480265e-02
    1.4198767904999364e+01 -7.0781495039877185e-02
    1.2012191406989986e+01 -8.3833838333928115e-02
    1.0604409402243963e+01 -9.5154221954332679e-02 1. 0.
    1.4198767904999364e+01 -7.0781495039877185e-02
    1.4198767904999364e+01 -7.0781495039877185e-02
    1.6958034388522272e+01 -5.9175593579090677e-02
    4.4799559135700399e+01 -2.2332781224177665e-02 1. 0. 1. 0.
    9.0140235127796835e+00 -1.1233827907252845e-01
    2.1481246981231843e+00 -6.8213132238507901e-01
    1.4198767904999364e+01 -7.0781495039877185e-02
    1.2968141143619201e+01 -7.7576118506196626e-02
    8.6781299569933310e+00 -1.1680434139522429e-01
    1.4198767904999364e+01 -7.0781495039877185e-02
    2.6003136563288560e+00 -4.6924902472135888e-01
    1.3541386566673944e+01 -7.4254861532110361e-02
    1.8312190839256051e+01 -5.4772255750516606e-02
    9.8251915436238537e+00 -1.0285594337791672e-01
    4.4799559135700399e+01 -2.2332781224177665e-02
    1.4198767904999364e+01 -7.0781495039877185e-02
    1.6958034388522272e+01 -5.9175593579090677e-02
    9.6017137476335748e+00 -1.0530294239677898e-01
    1.1607793383580484e+01 -8.6798056208228933e-02
    1.2968141143619201e+01 -7.7576118506196626e-02
    1.5866757828995944e+01 -6.3277199716833266e-02 1. 0.
    1.1242021179530175e+01 -8.9667167932444058e-02
    1.3541386566673944e+01 -7.4254861532110361e-02
    1.2012191406989986e+01 -8.3833838333928115e-02 1. 0.
    1.1607793383580484e+01 -8.6798056208228933e-02
    1.3541386566673944e+01 -7.4254861532110361e-02
    1.0065290382967309e+01 -1.0035184828481863e-01
    1.4198767904999364e+01 -7.0781495039877185e-02
    1.1242021179530175e+01 -8.9667167932444058e-02
    1.0065290382967309e+01 -1.0035184828481863e-01
    1.6958034388522272e+01 -5.9175593579090677e-02
    1.3541386566673944e+01 -7.4254861532110361e-02
    1.2968141143619201e+01 -7.7576118506196626e-02
    1.3541386566673944e+01 -7.4254861532110361e-02
    9.1975780678481218e+00 -1.1004081437106428e-01 1. 0.
    1.1607793383580484e+01 -8.6798056208228933e-02
    4.4799559135700399e+01 -2.2332781224177665e-02
    1.4198767904999364e+01 -7.0781495039877185e-02
    1.3541386566673944e+01 -7.4254861532110361e-02
    1.2462512392675762e+01 -8.0764038437081215e-02
    1.2968141143619201e+01 -7.7576118506196626e-02
    9.8251915436238537e+00 -1.0285594337791672e-01
    1.4963067721862023e+01 -6.7132407525801699e-02
    1.0604409402243963e+01 -9.5154221954332679e-02
    1.0324171130043423e+01 -9.7786266934608693e-02
    1.3541386566673944e+01 -7.4254861532110361e-02
    7.8615904616149717e+00 -1.2932825784311769e-01
    4.4799559135700399e+01 -2.2332781224177665e-02
    9.1975780678481218e+00 -1.1004081437106428e-01
    6.6109638401973907e+00 -1.5489297133064672e-01
    7.0673682802187265e+00 -1.4444770662461007e-01
    1.1607793383580484e+01 -8.6798056208228933e-02
    2.0054986879841749e+01 -4.9987504685547732e-02
    1.0324171130043423e+01 -9.7786266934608693e-02
    1.5866757828995944e+01 -6.3277199716833266e-02
    1.4198767904999364e+01 -7.0781495039877185e-02
    6.5434074821684707e+00 -1.5657206338189761e-01 1. 0.
    1.2968141143619201e+01 -7.7576118506196626e-02 1. 0.
    8.5239083087336400e+00 -1.1897778297335090e-01
    1.0909103859096174e+01 -9.2450032704204863e-02
    1.2968141143619201e+01 -7.7576118506196626e-02
    1.4198767904999364e+01 -7.0781495039877185e-02 1. 0.
    1.4963067721862023e+01 -6.7132407525801699e-02
    1.0909103859096174e+01 -9.2450032704204863e-02
    1.4963067721862023e+01 -6.7132407525801699e-02
    2.5877947453769135e+01 -3.8700818724480265e-02
    1.2462512392675762e+01 -8.0764038437081215e-02 1. 0.
    1.1607793383580484e+01 -8.6798056208228933e-02
    1.1242021179530175e+01 -8.9667167932444058e-02
    2.0054986879841749e+01 -4.9987504685547732e-02
    3.1685974783869160e+01 -3.1591201180328175e-02
    1.4198767904999364e+01 -7.0781495039877185e-02 1. 0.
    1.2462512392675762e+01 -8.0764038437081215e-02
    1.0065290382967309e+01 -1.0035184828481863e-01
    6.7528309066313392e+00 -1.5148424267119157e-01
    6.5434074821684707e+00 -1.5657206338189761e-01 1. 0.
    1.2968141143619201e+01 -7.7576118506196626e-02
    1.2968141143619201e+01 -7.7576118506196626e-02
    1.3541386566673944e+01 -7.4254861532110361e-02
    1.2012191406989986e+01 -8.3833838333928115e-02
    1.3541386566673944e+01 -7.4254861532110361e-02
    1.3541386566673944e+01 -7.4254861532110361e-02
    2.0054986879841749e+01 -4.9987504685547732e-02
    2.6003136563288560e+00 -4.6924902472135888e-01
    8.5239083087336400e+00 -1.1897778297335090e-01
    3.1685974783869160e+01 -3.1591201180328175e-02 1. 0.
    1.2462512392675762e+01 -8.0764038437081215e-02 1. 0. 1. 0.
    1.2462512392675762e+01 -8.0764038437081215e-02
    9.8251915436238537e+00 -1.0285594337791672e-01 1. 0.
    2.0054986879841749e+01 -4.9987504685547732e-02
    1.2012191406989986e+01 -8.3833838333928115e-02
    1.2462512392675762e+01 -8.0764038437081215e-02
    1.1242021179530175e+01 -8.9667167932444058e-02
    1.4963067721862023e+01 -6.7132407525801699e-02 1. 0.
    1.4963067721862023e+01 -6.7132407525801699e-02
    1.4198767904999364e+01 -7.0781495039877185e-02
    1.3541386566673944e+01 -7.4254861532110361e-02
    1.4198767904999364e+01 -7.0781495039877185e-02
    1.4198767904999364e+01 -7.0781495039877185e-02
    9.6017137476335748e+00 -1.0530294239677898e-01
    1.3541386566673944e+01 -7.4254861532110361e-02
    8.3777731219601375e+00 -1.2111436716692123e-01
    1.5866757828995944e+01 -6.3277199716833266e-02
    9.1975780678481218e+00 -1.1004081437106428e-01
    1.3541386566673944e+01 -7.4254861532110361e-02
    1.0065290382967309e+01 -1.0035184828481863e-01
    1.4198767904999364e+01 -7.0781495039877185e-02
    9.1975780678481218e+00 -1.1004081437106428e-01
    1.1242021179530175e+01 -8.9667167932444058e-02
    1.5866757828995944e+01 -6.3277199716833266e-02
    1.4198767904999364e+01 -7.0781495039877185e-02
    4.4799559135700399e+01 -2.2332781224177665e-02 1. 0.
    1.4198767904999364e+01 -7.0781495039877185e-02
    1.2012191406989986e+01 -8.3833838333928115e-02
    1.3541386566673944e+01 -7.4254861532110361e-02
    1.2462512392675762e+01 -8.0764038437081215e-02
    1.2012191406989986e+01 -8.3833838333928115e-02 1. 0.
    1.4198767904999364e+01 -7.0781495039877185e-02
    2.5877947453769135e+01 -3.8700818724480265e-02
    9.3930287922664117e+00 -1.0769674088839853e-01
    2.0054986879841749e+01 -4.9987504685547732e-02
    6.6109638401973907e+00 -1.5489297133064672e-01
    1.6958034388522272e+01 -5.9175593579090677e-02
    1.2462512392675762e+01 -8.0764038437081215e-02
    1.0065290382967309e+01 -1.0035184828481863e-01
    1.0065290382967309e+01 -1.0035184828481863e-01
    1.3541386566673944e+01 -7.4254861532110361e-02
    4.4799559135700399e+01 -2.2332781224177665e-02
    1.2462512392675762e+01 -8.0764038437081215e-02
    1.8312190839256051e+01 -5.4772255750516606e-02
    1.6958034388522272e+01 -5.9175593579090677e-02
    1.1242021179530175e+01 -8.9667167932444058e-02
    8.3777731219601375e+00 -1.2111436716692123e-01
    1.1607793383580484e+01 -8.6798056208228933e-02
    1.3541386566673944e+01 -7.4254861532110361e-02
    1.3541386566673944e+01 -7.4254861532110361e-02
    1.2462512392675762e+01 -8.0764038437081215e-02 1. 0.
    5.6900532260917345e+00 -1.8153709195905832e-01
    1.4198767904999364e+01 -7.0781495039877185e-02
    9.8251915436238537e+00 -1.0285594337791672e-01
    1.2462512392675762e+01 -8.0764038437081215e-02
    7.4320257992567234e+00 -1.3708123358549290e-01
    1.2012191406989986e+01 -8.3833838333928115e-02
    2.2416556336823863e+01 -4.4699015626767417e-02
    1.2968141143619201e+01 -7.7576118506196626e-02
    1.4963067721862023e+01 -6.7132407525801699e-02 1. 0.
    6.1786577897286383e+00 -1.6632478596477890e-01
    6.5434074821684707e+00 -1.5657206338189761e-01
    1.5866757828995944e+01 -6.3277199716833266e-02
    2.0054986879841749e+01 -4.9987504685547732e-02
    1.2012191406989986e+01 -8.3833838333928115e-02
    4.3925369109434662e+00 -2.4086692931394879e-01
    1.3541386566673944e+01 -7.4254861532110361e-02 1. 0.
    2.2416556336823863e+01 -4.4699015626767417e-02
    1.4198767904999364e+01 -7.0781495039877185e-02
    1.1242021179530175e+01 -8.9667167932444058e-02
    1.0324171130043423e+01 -9.7786266934608693e-02
    1.3541386566673944e+01 -7.4254861532110361e-02
    5.6900532260917345e+00 -1.8153709195905832e-01
    1.2968141143619201e+01 -7.7576118506196626e-02
    6.6109638401973907e+00 -1.5489297133064672e-01
    1.0909103859096174e+01 -9.2450032704204863e-02
    1.1242021179530175e+01 -8.9667167932444058e-02
    1.3541386566673944e+01 -7.4254861532110361e-02
    1.3541386566673944e+01 -7.4254861532110361e-02
    6.7528309066313392e+00 -1.5148424267119157e-01
    1.2012191406989986e+01 -8.3833838333928115e-02 1. 0.
    1.3541386566673944e+01 -7.4254861532110361e-02
    4.4799559135700399e+01 -2.2332781224177665e-02
    6.6109638401973907e+00 -1.5489297133064672e-01
    4.4799559135700399e+01 -2.2332781224177665e-02
    1.4963067721862023e+01 -6.7132407525801699e-02
    1.4198767904999364e+01 -7.0781495039877185e-02
    1.4198767904999364e+01 -7.0781495039877185e-02
    1.0065290382967309e+01 -1.0035184828481863e-01
    6.6109638401973907e+00 -1.5489297133064672e-01
    1.1607793383580484e+01 -8.6798056208228933e-02
    3.1685974783869160e+01 -3.1591201180328175e-02
    1.4198767904999364e+01 -7.0781495039877185e-02
    1.0324171130043423e+01 -9.7786266934608693e-02 1. 0.
    1.2462512392675762e+01 -8.0764038437081215e-02
    8.5239083087336400e+00 -1.1897778297335090e-01
    1.1242021179530175e+01 -8.9667167932444058e-02
    7.9814604390183508e+00 -1.2732140281584606e-01 1. 0. 1. 0.
    1.1607793383580484e+01 -8.6798056208228933e-02 1. 0.
    1.1607793383580484e+01 -8.6798056208228933e-02
    1.5866757828995944e+01 -6.3277199716833266e-02
    1.1607793383580484e+01 -8.6798056208228933e-02
    2.0054986879841749e+01 -4.9987504685547732e-02
    1.4198767904999364e+01 -7.0781495039877185e-02
    1.4198767904999364e+01 -7.0781495039877185e-02
    1.2012191406989986e+01 -8.3833838333928115e-02
    6.9045686351696496e+00 -1.4800421301709618e-01
    1.6958034388522272e+01 -5.9175593579090677e-02
    1.4198767904999364e+01 -7.0781495039877185e-02
    4.4799559135700399e+01 -2.2332781224177665e-02
    1.1607793383580484e+01 -8.6798056208228933e-02
    1.1242021179530175e+01 -8.9667167932444058e-02
    1.3541386566673944e+01 -7.4254861532110361e-02
    1.1607793383580484e+01 -8.6798056208228933e-02
    3.1685974783869160e+01 -3.1591201180328175e-02
    1.1242021179530175e+01 -8.9667167932444058e-02
    1.0065290382967309e+01 -1.0035184828481863e-01
    1.2462512392675762e+01 -8.0764038437081215e-02
    4.4799559135700399e+01 -2.2332781224177665e-02
    9.8251915436238537e+00 -1.0285594337791672e-01
    1.6958034388522272e+01 -5.9175593579090677e-02 1. 0. 1. 0.
    1.0909103859096174e+01 -9.2450032704204863e-02
    1.3541386566673944e+01 -7.4254861532110361e-02
    1.4963067721862023e+01 -6.7132407525801699e-02
    1.4198767904999364e+01 -7.0781495039877185e-02
    1.2462512392675762e+01 -8.0764038437081215e-02
    4.0475725769778741e+00 -2.6432303468798679e-01 1. 0.
    1.4198767904999364e+01 -7.0781495039877185e-02
    1.6958034388522272e+01 -5.9175593579090677e-02
    1.4198767904999364e+01 -7.0781495039877185e-02
    1.2968141143619201e+01 -7.7576118506196626e-02
    2.5877947453769135e+01 -3.8700818724480265e-02
    1.2968141143619201e+01 -7.7576118506196626e-02
    2.5877947453769135e+01 -3.8700818724480265e-02
    4.4699348737505122e+00 -2.3619795444544081e-01
    1.2968141143619201e+01 -7.7576118506196626e-02
    2.2416556336823863e+01 -4.4699015626767417e-02
    1.2968141143619201e+01 -7.7576118506196626e-02
    1.8312190839256051e+01 -5.4772255750516606e-02
    6.6109638401973907e+00 -1.5489297133064672e-01
    1.2012191406989986e+01 -8.3833838333928115e-02
    4.4799559135700399e+01 -2.2332781224177665e-02
    1.4198767904999364e+01 -7.0781495039877185e-02 1. 0.
    1.8312190839256051e+01 -5.4772255750516606e-02
    1.2968141143619201e+01 -7.7576118506196626e-02
    9.0140235127796835e+00 -1.1233827907252845e-01
    1.3541386566673944e+01 -7.4254861532110361e-02
    1.4198767904999364e+01 -7.0781495039877185e-02
    1.4198767904999364e+01 -7.0781495039877185e-02
    1.4198767904999364e+01 -7.0781495039877185e-02
    1.4198767904999364e+01 -7.0781495039877185e-02 1. 0.
    1.3541386566673944e+01 -7.4254861532110361e-02
    1.2012191406989986e+01 -8.3833838333928115e-02
    1.2462512392675762e+01 -8.0764038437081215e-02
    1.5866757828995944e+01 -6.3277199716833266e-02
    1.4963067721862023e+01 -6.7132407525801699e-02
    1.4198767904999364e+01 -7.0781495039877185e-02 1. 0.
    3.8018616885482004e+00 -2.8428676634208877e-01
    3.1685974783869160e+01 -3.1591201180328175e-02
    5.3401514198301356e+00 -1.9433252923609165e-01
    1.3541386566673944e+01 -7.4254861532110361e-02
    1.4963067721862023e+01 -6.7132407525801699e-02 1. 0.
    2.5877947453769135e+01 -3.8700818724480265e-02 1. 0.
    1.2968141143619201e+01 -7.7576118506196626e-02
    1.5866757828995944e+01 -6.3277199716833266e-02
    1.0065290382967309e+01 -1.0035184828481863e-01 1. 0. 1. 0.
    1.3541386566673944e+01 -7.4254861532110361e-02 1. 0.
    1.2462512392675762e+01 -8.0764038437081215e-02
    1.2012191406989986e+01 -8.3833838333928115e-02
    1.4198767904999364e+01 -7.0781495039877185e-02
    1.4198767904999364e+01 -7.0781495039877185e-02
    3.1685974783869160e+01 -3.1591201180328175e-02
    1.4963067721862023e+01 -6.7132407525801699e-02
    1.3541386566673944e+01 -7.4254861532110361e-02
    1.2462512392675762e+01 -8.0764038437081215e-02
    1.6958034388522272e+01 -5.9175593579090677e-02
    1.4198767904999364e+01 -7.0781495039877185e-02
    1.4198767904999364e+01 -7.0781495039877185e-02
    1.2462512392675762e+01 -8.0764038437081215e-02
    1.4198767904999364e+01 -7.0781495039877185e-02
    2.2416556336823863e+01 -4.4699015626767417e-02
    2.0054986879841749e+01 -4.9987504685547732e-02
    1.4198767904999364e+01 -7.0781495039877185e-02 1. 0. 1. 0.
    2.5877947453769135e+01 -3.8700818724480265e-02
    1.4963067721862023e+01 -6.7132407525801699e-02
    1.4963067721862023e+01 -6.7132407525801699e-02
    4.4799559135700399e+01 -2.2332781224177665e-02
    2.0054986879841749e+01 -4.9987504685547732e-02
    1.0065290382967309e+01 -1.0035184828481863e-01 1. 0.
    1.1607793383580484e+01 -8.6798056208228933e-02
    3.1685974783869160e+01 -3.1591201180328175e-02
    1.5866757828995944e+01 -6.3277199716833266e-02 1. 0.
    1.2012191406989986e+01 -8.3833838333928115e-02
    9.0140235127796835e+00 -1.1233827907252845e-01
    1.0065290382967309e+01 -1.0035184828481863e-01
    1.2012191406989986e+01 -8.3833838333928115e-02
    1.4963067721862023e+01 -6.7132407525801699e-02 1. 0.
    1.5866757828995944e+01 -6.3277199716833266e-02
    9.3930287922664117e+00 -1.0769674088839853e-01
    1.5866757828995944e+01 -6.3277199716833266e-02
    2.0054986879841749e+01 -4.9987504685547732e-02
    1.6958034388522272e+01 -5.9175593579090677e-02
    4.4799559135700399e+01 -2.2332781224177665e-02
    1.2462512392675762e+01 -8.0764038437081215e-02
    1.8312190839256051e+01 -5.4772255750516606e-02
    1.0909103859096174e+01 -9.2450032704204863e-02
    1.0065290382967309e+01 -1.0035184828481863e-01 1. 0.
    1.4963067721862023e+01 -6.7132407525801699e-02
    1.0604409402243963e+01 -9.5154221954332679e-02
    1.4198767904999364e+01 -7.0781495039877185e-02
    1.4198767904999364e+01 -7.0781495039877185e-02
    3.6910938608345885e+00 -2.9440429597883061e-01
    6.6109638401973907e+00 -1.5489297133064672e-01
    1.4198767904999364e+01 -7.0781495039877185e-02
    1.0324171130043423e+01 -9.7786266934608693e-02
    1.3541386566673944e+01 -7.4254861532110361e-02
    8.8412090500664817e+00 -1.1459194182538809e-01
    1.5866757828995944e+01 -6.3277199716833266e-02
    2.5877947453769135e+01 -3.8700818724480265e-02
    1.2968141143619201e+01 -7.7576118506196626e-02
    1.0604409402243963e+01 -9.5154221954332679e-02
    6.6109638401973907e+00 -1.5489297133064672e-01
    1.4963067721862023e+01 -6.7132407525801699e-02 1. 0.
    1.4198767904999364e+01 -7.0781495039877185e-02
    3.1685974783869160e+01 -3.1591201180328175e-02
    3.1685974783869160e+01 -3.1591201180328175e-02
    1.2012191406989986e+01 -8.3833838333928115e-02
    1.3541386566673944e+01 -7.4254861532110361e-02
    9.8251915436238537e+00 -1.0285594337791672e-01
    1.8312190839256051e+01 -5.4772255750516606e-02
    5.6900532260917345e+00 -1.8153709195905832e-01
    1.4963067721862023e+01 -6.7132407525801699e-02
    1.4198767904999364e+01 -7.0781495039877185e-02 1. 0.
    1.3541386566673944e+01 -7.4254861532110361e-02
    9.8251915436238537e+00 -1.0285594337791672e-01
    1.4198767904999364e+01 -7.0781495039877185e-02
    4.4799559135700399e+01 -2.2332781224177665e-02
    2.5702976574365763e+00 -4.7792673291318194e-01
    2.2416556336823863e+01 -4.4699015626767417e-02
    9.8251915436238537e+00 -1.0285594337791672e-01
    6.6109638401973907e+00 -1.5489297133064672e-01 1. 0.
    1.0324171130043423e+01 -9.7786266934608693e-02
    5.4870835481283429e+00 -1.8873816790670772e-01
    1.2462512392675762e+01 -8.0764038437081215e-02
    5.6900532260917345e+00 -1.8153709195905832e-01
    2.5877947453769135e+01 -3.8700818724480265e-02
    1.0604409402243963e+01 -9.5154221954332679e-02
    1.0065290382967309e+01 -1.0035184828481863e-01
    1.6958034388522272e+01 -5.9175593579090677e-02
    1.2012191406989986e+01 -8.3833838333928115e-02
    2.2416556336823863e+01 -4.4699015626767417e-02
    1.5866757828995944e+01 -6.3277199716833266e-02
    1.0065290382967309e+01 -1.0035184828481863e-01
    1.4963067721862023e+01 -6.7132407525801699e-02
    1.5866757828995944e+01 -6.3277199716833266e-02
    4.4799559135700399e+01 -2.2332781224177665e-02 1. 0. 1. 0.
    2.0054986879841749e+01 -4.9987504685547732e-02
    1.0909103859096174e+01 -9.2450032704204863e-02
    1.4198767904999364e+01 -7.0781495039877185e-02
    3.3679342586173946e+00 -3.2907034630558790e-01 1. 0.
    1.3541386566673944e+01 -7.4254861532110361e-02
    1.2462512392675762e+01 -8.0764038437081215e-02 1. 0. 1. 0.
    8.5239083087336400e+00 -1.1897778297335090e-01
    2.0054986879841749e+01 -4.9987504685547732e-02 1. 0.
    1.2968141143619201e+01 -7.7576118506196626e-02
    1.4963067721862023e+01 -6.7132407525801699e-02
    1.0909103859096174e+01 -9.2450032704204863e-02
    1.2012191406989986e+01 -8.3833838333928115e-02
    1.2462512392675762e+01 -8.0764038437081215e-02
    1.1607793383580484e+01 -8.6798056208228933e-02
    1.5866757828995944e+01 -6.3277199716833266e-02
    9.6017137476335748e+00 -1.0530294239677898e-01 1. 0.
    8.5239083087336400e+00 -1.1897778297335090e-01
    1.0604409402243963e+01 -9.5154221954332679e-02
    1.6958034388522272e+01 -5.9175593579090677e-02
    1.2968141143619201e+01 -7.7576118506196626e-02 1. 0.
    2.5877947453769135e+01 -3.8700818724480265e-02
    1.4198767904999364e+01 -7.0781495039877185e-02
    2.0054986879841749e+01 -4.9987504685547732e-02
    1.5866757828995944e+01 -6.3277199716833266e-02
    1.0324171130043423e+01 -9.7786266934608693e-02
    3.1685974783869160e+01 -3.1591201180328175e-02
    4.7804199294350740e+00 -2.1924159197807916e-01
    1.4198767904999364e+01 -7.0781495039877185e-02
    1.0324171130043423e+01 -9.7786266934608693e-02
    2.5877947453769135e+01 -3.8700818724480265e-02 1. 0.
    1.2968141143619201e+01 -7.7576118506196626e-02
    1.0065290382967309e+01 -1.0035184828481863e-01
    1.2012191406989986e+01 -8.3833838333928115e-02
    1.3541386566673944e+01 -7.4254861532110361e-02
    1.0324171130043423e+01 -9.7786266934608693e-02
    1.5866757828995944e+01 -6.3277199716833266e-02
    1.4198767904999364e+01 -7.0781495039877185e-02
    3.1685974783869160e+01 -3.1591201180328175e-02
    2.5877947453769135e+01 -3.8700818724480265e-02
    1.4198767904999364e+01 -7.0781495039877185e-02
    9.0140235127796835e+00 -1.1233827907252845e-01
    1.1607793383580484e+01 -8.6798056208228933e-02
    1.3541386566673944e+01 -7.4254861532110361e-02
    1.4198767904999364e+01 -7.0781495039877185e-02
    1.3541386566673944e+01 -7.4254861532110361e-02
    1.1607793383580484e+01 -8.6798056208228933e-02
    1.2462512392675762e+01 -8.0764038437081215e-02
    3.1685974783869160e+01 -3.1591201180328175e-02
    1.3541386566673944e+01 -7.4254861532110361e-02
    2.0054986879841749e+01 -4.9987504685547732e-02
    1.0604409402243963e+01 -9.5154221954332679e-02
    1.2462512392675762e+01 -8.0764038437081215e-02 1. 0.
    6.6109638401973907e+00 -1.5489297133064672e-01 1. 0. 1. 0.
    1.2968141143619201e+01 -7.7576118506196626e-02
    3.1685974783869160e+01 -3.1591201180328175e-02
    1.4963067721862023e+01 -6.7132407525801699e-02
    1.8312190839256051e+01 -5.4772255750516606e-02
    1.4198767904999364e+01 -7.0781495039877185e-02
    1.0604409402243963e+01 -9.5154221954332679e-02
    1.6958034388522272e+01 -5.9175593579090677e-02
    1.4963067721862023e+01 -6.7132407525801699e-02
    4.4799559135700399e+01 -2.2332781224177665e-02
    1.0909103859096174e+01 -9.2450032704204863e-02
    1.4963067721862023e+01 -6.7132407525801699e-02
    1.2012191406989986e+01 -8.3833838333928115e-02
    9.0140235127796835e+00 -1.1233827907252845e-01
    8.6781299569933310e+00 -1.1680434139522429e-01
    3.1685974783869160e+01 -3.1591201180328175e-02
    6.4144806782925263e+00 -1.5988236984776985e-01
    1.2968141143619201e+01 -7.7576118506196626e-02
    7.2426324346772191e+00 -1.4080890575892899e-01
    6.6109638401973907e+00 -1.5489297133064672e-01
    9.3930287922664117e+00 -1.0769674088839853e-01 1. 0.
    1.2462512392675762e+01 -8.0764038437081215e-02
    8.3777731219601375e+00 -1.2111436716692123e-01
    2.2416556336823863e+01 -4.4699015626767417e-02
    1.0604409402243963e+01 -9.5154221954332679e-02
    1.1607793383580484e+01 -8.6798056208228933e-02
    2.5877947453769135e+01 -3.8700818724480265e-02
    3.1685974783869160e+01 -3.1591201180328175e-02
    1.1242021179530175e+01 -8.9667167932444058e-02
    4.4799559135700399e+01 -2.2332781224177665e-02
    1.2462512392675762e+01 -8.0764038437081215e-02
    1.3541386566673944e+01 -7.4254861532110361e-02
    1.8312190839256051e+01 -5.4772255750516606e-02
    1.4198767904999364e+01 -7.0781495039877185e-02 1. 0.
    1.4198767904999364e+01 -7.0781495039877185e-02
    1.3541386566673944e+01 -7.4254861532110361e-02
    3.1685974783869160e+01 -3.1591201180328175e-02
    1.8312190839256051e+01 -5.4772255750516606e-02
    2.2416556336823863e+01 -4.4699015626767417e-02
    1.1607793383580484e+01 -8.6798056208228933e-02
    1.2012191406989986e+01 -8.3833838333928115e-02
    2.0054986879841749e+01 -4.9987504685547732e-02
    9.3930287922664117e+00 -1.0769674088839853e-01
    1.8312190839256051e+01 -5.4772255750516606e-02
    1.4198767904999364e+01 -7.0781495039877185e-02
    9.3930287922664117e+00 -1.0769674088839853e-01
    9.8251915436238537e+00 -1.0285594337791672e-01
    1.6958034388522272e+01 -5.9175593579090677e-02
    1.2968141143619201e+01 -7.7576118506196626e-02
    1.4198767904999364e+01 -7.0781495039877185e-02
    1.4963067721862023e+01 -6.7132407525801699e-02
    1.0909103859096174e+01 -9.2450032704204863e-02
    2.2416556336823863e+01 -4.4699015626767417e-02
    1.4198767904999364e+01 -7.0781495039877185e-02
    1.2462512392675762e+01 -8.0764038437081215e-02
    1.5866757828995944e+01 -6.3277199716833266e-02
    1.1607793383580484e+01 -8.6798056208228933e-02
    2.2416556336823863e+01 -4.4699015626767417e-02 1. 0.
    1.2012191406989986e+01 -8.3833838333928115e-02
    1.0909103859096174e+01 -9.2450032704204863e-02
    1.3541386566673944e+01 -7.4254861532110361e-02
    1.5866757828995944e+01 -6.3277199716833266e-02
    1.0909103859096174e+01 -9.2450032704204863e-02
    1.4198767904999364e+01 -7.0781495039877185e-02
    1.0065290382967309e+01 -1.0035184828481863e-01
    7.3354469957392476e+00 -1.3895662304989601e-01
    9.6017137476335748e+00 -1.0530294239677898e-01
    1.5866757828995944e+01 -6.3277199716833266e-02
    1.2968141143619201e+01 -7.7576118506196626e-02
    1.4198767904999364e+01 -7.0781495039877185e-02 1. 0.
    1.1607793383580484e+01 -8.6798056208228933e-02
    1.4198767904999364e+01 -7.0781495039877185e-02
    1.6958034388522272e+01 -5.9175593579090677e-02
    1.4198767904999364e+01 -7.0781495039877185e-02
    4.4799559135700399e+01 -2.2332781224177665e-02
    1.4198767904999364e+01 -7.0781495039877185e-02
    1.3541386566673944e+01 -7.4254861532110361e-02
    1.5866757828995944e+01 -6.3277199716833266e-02
    1.2012191406989986e+01 -8.3833838333928115e-02
    9.8251915436238537e+00 -1.0285594337791672e-01
    1.0909103859096174e+01 -9.2450032704204863e-02
    1.0604409402243963e+01 -9.5154221954332679e-02 1. 0.
    1.4198767904999364e+01 -7.0781495039877185e-02
    1.2462512392675762e+01 -8.0764038437081215e-02
    1.2462512392675762e+01 -8.0764038437081215e-02
    1.2968141143619201e+01 -7.7576118506196626e-02
    1.2462512392675762e+01 -8.0764038437081215e-02
    1.2462512392675762e+01 -8.0764038437081215e-02
    7.3354469957392476e+00 -1.3895662304989601e-01
    4.4799559135700399e+01 -2.2332781224177665e-02
    1.6958034388522272e+01 -5.9175593579090677e-02
    1.2462512392675762e+01 -8.0764038437081215e-02
    1.4198767904999364e+01 -7.0781495039877185e-02
    3.1685974783869160e+01 -3.1591201180328175e-02
    4.4799559135700399e+01 -2.2332781224177665e-02 1. 0. 1. 0.
    1.2012191406989986e+01 -8.3833838333928115e-02 1. 0.
    1.3541386566673944e+01 -7.4254861532110361e-02 1. 0.
    1.0909103859096174e+01 -9.2450032704204863e-02 1. 0.
    1.4198767904999364e+01 -7.0781495039877185e-02
    1.3541386566673944e+01 -7.4254861532110361e-02
    1.4963067721862023e+01 -6.7132407525801699e-02
    1.1607793383580484e+01 -8.6798056208228933e-02
    1.4198767904999364e+01 -7.0781495039877185e-02 1. 0.
    1.4963067721862023e+01 -6.7132407525801699e-02
    1.0909103859096174e+01 -9.2450032704204863e-02 1. 0.
    1.5866757828995944e+01 -6.3277199716833266e-02
    1.3541386566673944e+01 -7.4254861532110361e-02
    1.2462512392675762e+01 -8.0764038437081215e-02
    1.6958034388522272e+01 -5.9175593579090677e-02
    1.5866757828995944e+01 -6.3277199716833266e-02 1. 0. 1. 0.
    1.3541386566673944e+01 -7.4254861532110361e-02
    1.0909103859096174e+01 -9.2450032704204863e-02
    9.6017137476335748e+00 -1.0530294239677898e-01
    6.4144806782925263e+00 -1.5988236984776985e-01
    1.3541386566673944e+01 -7.4254861532110361e-02
    1.0324171130043423e+01 -9.7786266934608693e-02
    1.2462512392675762e+01 -8.0764038437081215e-02
    1.0324171130043423e+01 -9.7786266934608693e-02
    3.1685974783869160e+01 -3.1591201180328175e-02
    2.2416556336823863e+01 -4.4699015626767417e-02
    1.2012191406989986e+01 -8.3833838333928115e-02
    1.4963067721862023e+01 -6.7132407525801699e-02
    4.4799559135700399e+01 -2.2332781224177665e-02
    1.2462512392675762e+01 -8.0764038437081215e-02 1. 0.
    8.5239083087336400e+00 -1.1897778297335090e-01
    1.2462512392675762e+01 -8.0764038437081215e-02
    1.4198767904999364e+01 -7.0781495039877185e-02
    1.4198767904999364e+01 -7.0781495039877185e-02
    1.4198767904999364e+01 -7.0781495039877185e-02
    1.4198767904999364e+01 -7.0781495039877185e-02
    1.4963067721862023e+01 -6.7132407525801699e-02
    1.3541386566673944e+01 -7.4254861532110361e-02
    1.4198767904999364e+01 -7.0781495039877185e-02
    1.0604409402243963e+01 -9.5154221954332679e-02
    1.8312190839256051e+01 -5.4772255750516606e-02 1. 0.
    1.4198767904999364e+01 -7.0781495039877185e-02 1. 0. 1. 0.
    1.3541386566673944e+01 -7.4254861532110361e-02
    1.8312190839256051e+01 -5.4772255750516606e-02
    4.4799559135700399e+01 -2.2332781224177665e-02
    9.8251915436238537e+00 -1.0285594337791672e-01
    1.4198767904999364e+01 -7.0781495039877185e-02
    1.3541386566673944e+01 -7.4254861532110361e-02 1. 0.
    8.5239083087336400e+00 -1.1897778297335090e-01
    1.8312190839256051e+01 -5.4772255750516606e-02
    1.4198767904999364e+01 -7.0781495039877185e-02
    1.4198767904999364e+01 -7.0781495039877185e-02
    8.5239083087336400e+00 -1.1897778297335090e-01
    4.4799559135700399e+01 -2.2332781224177665e-02
    1.8312190839256051e+01 -5.4772255750516606e-02
    1.4198767904999364e+01 -7.0781495039877185e-02
    1.3541386566673944e+01 -7.4254861532110361e-02
    2.5877947453769135e+01 -3.8700818724480265e-02
    1.8312190839256051e+01 -5.4772255750516606e-02
    1.3541386566673944e+01 -7.4254861532110361e-02
    1.4963067721862023e+01 -6.7132407525801699e-02
    1.2968141143619201e+01 -7.7576118506196626e-02
    1.0604409402243963e+01 -9.5154221954332679e-02
    1.0324171130043423e+01 -9.7786266934608693e-02
    8.6781299569933310e+00 -1.1680434139522429e-01
    1.2968141143619201e+01 -7.7576118506196626e-02
    1.4198767904999364e+01 -7.0781495039877185e-02
    1.2968141143619201e+01 -7.7576118506196626e-02
    1.2462512392675762e+01 -8.0764038437081215e-02 1. 0.
    1.5866757828995944e+01 -6.3277199716833266e-02
    1.2968141143619201e+01 -7.7576118506196626e-02
    1.4963067721862023e+01 -6.7132407525801699e-02
    9.3930287922664117e+00 -1.0769674088839853e-01
    1.0604409402243963e+01 -9.5154221954332679e-02
    2.5877947453769135e+01 -3.8700818724480265e-02
    3.1685974783869160e+01 -3.1591201180328175e-02
    2.0054986879841749e+01 -4.9987504685547732e-02
    1.0065290382967309e+01 -1.0035184828481863e-01
    1.4198767904999364e+01 -7.0781495039877185e-02
    1.4198767904999364e+01 -7.0781495039877185e-02
    1.2462512392675762e+01 -8.0764038437081215e-02
    1.3541386566673944e+01 -7.4254861532110361e-02
    1.4963067721862023e+01 -6.7132407525801699e-02
    1.1607793383580484e+01 -8.6798056208228933e-02
    1.2968141143619201e+01 -7.7576118506196626e-02
    1.4963067721862023e+01 -6.7132407525801699e-02
    1.2968141143619201e+01 -7.7576118506196626e-02
    1.0324171130043423e+01 -9.7786266934608693e-02
    1.1607793383580484e+01 -8.6798056208228933e-02
    1.0065290382967309e+01 -1.0035184828481863e-01
    1.4963067721862023e+01 -6.7132407525801699e-02
    1.2462512392675762e+01 -8.0764038437081215e-02
    1.4198767904999364e+01 -7.0781495039877185e-02
    2.0054986879841749e+01 -4.9987504685547732e-02
    1.2462512392675762e+01 -8.0764038437081215e-02
    1.1607793383580484e+01 -8.6798056208228933e-02
    1.5866757828995944e+01 -6.3277199716833266e-02
    1.2462512392675762e+01 -8.0764038437081215e-02
    2.5877947453769135e+01 -3.8700818724480265e-02
    1.2462512392675762e+01 -8.0764038437081215e-02
    1.2968141143619201e+01 -7.7576118506196626e-02 1. 0.
    1.4963067721862023e+01 -6.7132407525801699e-02
    1.6958034388522272e+01 -5.9175593579090677e-02
    1.0065290382967309e+01 -1.0035184828481863e-01
    9.6017137476335748e+00 -1.0530294239677898e-01
    1.0909103859096174e+01 -9.2450032704204863e-02
    2.0054986879841749e+01 -4.9987504685547732e-02
    1.0909103859096174e+01 -9.2450032704204863e-02
    1.4198767904999364e+01 -7.0781495039877185e-02
    1.1607793383580484e+01 -8.6798056208228933e-02
    1.0065290382967309e+01 -1.0035184828481863e-01
    1.2968141143619201e+01 -7.7576118506196626e-02
    1.4963067721862023e+01 -6.7132407525801699e-02
    1.4963067721862023e+01 -6.7132407525801699e-02
    1.3541386566673944e+01 -7.4254861532110361e-02 1. 0.
    1.2968141143619201e+01 -7.7576118506196626e-02
    1.8312190839256051e+01 -5.4772255750516606e-02
    1.0909103859096174e+01 -9.2450032704204863e-02
    1.1607793383580484e+01 -8.6798056208228933e-02
    1.2968141143619201e+01 -7.7576118506196626e-02
    1.2968141143619201e+01 -7.7576118506196626e-02
    9.1975780678481218e+00 -1.1004081437106428e-01
    1.4198767904999364e+01 -7.0781495039877185e-02
    1.0065290382967309e+01 -1.0035184828481863e-01
    1.2462512392675762e+01 -8.0764038437081215e-02
    1.4198767904999364e+01 -7.0781495039877185e-02
    8.3777731219601375e+00 -1.2111436716692123e-01 1. 0.
    1.2968141143619201e+01 -7.7576118506196626e-02
    4.4799559135700399e+01 -2.2332781224177665e-02
    1.2968141143619201e+01 -7.7576118506196626e-02
    1.2968141143619201e+01 -7.7576118506196626e-02
    3.1685974783869160e+01 -3.1591201180328175e-02
    1.6958034388522272e+01 -5.9175593579090677e-02
    1.6958034388522272e+01 -5.9175593579090677e-02
    1.4963067721862023e+01 -6.7132407525801699e-02
    6.4144806782925263e+00 -1.5988236984776985e-01
    1.0065290382967309e+01 -1.0035184828481863e-01
    2.5877947453769135e+01 -3.8700818724480265e-02
    1.2968141143619201e+01 -7.7576118506196626e-02
    3.1685974783869160e+01 -3.1591201180328175e-02
    1.6958034388522272e+01 -5.9175593579090677e-02
    1.2012191406989986e+01 -8.3833838333928115e-02
    1.2012191406989986e+01 -8.3833838333928115e-02
    9.3930287922664117e+00 -1.0769674088839853e-01 1. 0.
    4.4799559135700399e+01 -2.2332781224177665e-02
    1.4963067721862023e+01 -6.7132407525801699e-02
    1.0065290382967309e+01 -1.0035184828481863e-01
    2.0054986879841749e+01 -4.9987504685547732e-02
    1.4963067721862023e+01 -6.7132407525801699e-02
    1.5866757828995944e+01 -6.3277199716833266e-02
    1.4198767904999364e+01 -7.0781495039877185e-02
    1.2012191406989986e+01 -8.3833838333928115e-02
    1.0065290382967309e+01 -1.0035184828481863e-01
    4.4799559135700399e+01 -2.2332781224177665e-02 1. 0. 1. 0.
    1.8312190839256051e+01 -5.4772255750516606e-02
    1.2968141143619201e+01 -7.7576118506196626e-02
    1.0604409402243963e+01 -9.5154221954332679e-02
    1.2012191406989986e+01 -8.3833838333928115e-02
    3.1685974783869160e+01 -3.1591201180328175e-02
    1.4963067721862023e+01 -6.7132407525801699e-02
    2.0054986879841749e+01 -4.9987504685547732e-02
    1.3541386566673944e+01 -7.4254861532110361e-02
    5.6900532260917345e+00 -1.8153709195905832e-01
    2.2416556336823863e+01 -4.4699015626767417e-02
    6.6109638401973907e+00 -1.5489297133064672e-01
    2.5702976574365763e+00 -4.7792673291318194e-01
    1.4963067721862023e+01 -6.7132407525801699e-02
    7.3354469957392476e+00 -1.3895662304989601e-01
    1.0909103859096174e+01 -9.2450032704204863e-02
    9.8251915436238537e+00 -1.0285594337791672e-01 1. 0.
    1.8312190839256051e+01 -5.4772255750516606e-02
    1.2968141143619201e+01 -7.7576118506196626e-02
    1.3541386566673944e+01 -7.4254861532110361e-02
    1.0065290382967309e+01 -1.0035184828481863e-01
    1.2968141143619201e+01 -7.7576118506196626e-02
    2.5877947453769135e+01 -3.8700818724480265e-02
    1.0065290382967309e+01 -1.0035184828481863e-01
    1.2462512392675762e+01 -8.0764038437081215e-02
    2.5877947453769135e+01 -3.8700818724480265e-02
    7.3354469957392476e+00 -1.3895662304989601e-01 1. 0.
    1.2462512392675762e+01 -8.0764038437081215e-02
    2.2416556336823863e+01 -4.4699015626767417e-02
    1.4963067721862023e+01 -6.7132407525801699e-02
    1.2462512392675762e+01 -8.0764038437081215e-02
    4.7804199294350740e+00 -2.1924159197807916e-01
    2.0054986879841749e+01 -4.9987504685547732e-02 1. 0.
    1.2012191406989986e+01 -8.3833838333928115e-02
    1.4198767904999364e+01 -7.0781495039877185e-02
    1.4198767904999364e+01 -7.0781495039877185e-02
    1.4198767904999364e+01 -7.0781495039877185e-02
    3.1685974783869160e+01 -3.1591201180328175e-02
    1.3541386566673944e+01 -7.4254861532110361e-02
    4.0914584947770756e+00 -2.6107013326593503e-01
    1.4198767904999364e+01 -7.0781495039877185e-02
    1.5866757828995944e+01 -6.3277199716833266e-02
    6.6807308761788189e+00 -1.5319721849662296e-01
    1.3541386566673944e+01 -7.4254861532110361e-02
    1.3541386566673944e+01 -7.4254861532110361e-02
    9.3930287922664117e+00 -1.0769674088839853e-01
    1.5866757828995944e+01 -6.3277199716833266e-02
    1.4198767904999364e+01 -7.0781495039877185e-02
    1.1607793383580484e+01 -8.6798056208228933e-02 1. 0.
    1.5866757828995944e+01 -6.3277199716833266e-02
    1.1607793383580484e+01 -8.6798056208228933e-02
    9.1975780678481218e+00 -1.1004081437106428e-01
    1.3541386566673944e+01 -7.4254861532110361e-02
    6.3529064442863525e+00 -1.6151457061744964e-01
    1.4198767904999364e+01 -7.0781495039877185e-02
    1.3541386566673944e+01 -7.4254861532110361e-02
    9.1975780678481218e+00 -1.1004081437106428e-01 1. 0.
    9.1975780678481218e+00 -1.1004081437106428e-01
    4.9366358040689517e+00 -2.1164041832000491e-01
    3.1685974783869160e+01 -3.1591201180328175e-02
    2.0054986879841749e+01 -4.9987504685547732e-02
    1.2968141143619201e+01 -7.7576118506196626e-02
    8.8412090500664817e+00 -1.1459194182538809e-01
    1.8312190839256051e+01 -5.4772255750516606e-02
    1.2968141143619201e+01 -7.7576118506196626e-02
    1.2968141143619201e+01 -7.7576118506196626e-02
    1.4198767904999364e+01 -7.0781495039877185e-02
    6.6109638401973907e+00 -1.5489297133064672e-01
    1.2462512392675762e+01 -8.0764038437081215e-02
    1.5866757828995944e+01 -6.3277199716833266e-02 1. 0.
    9.3930287922664117e+00 -1.0769674088839853e-01
    9.3930287922664117e+00 -1.0769674088839853e-01
    9.3930287922664117e+00 -1.0769674088839853e-01
    1.2462512392675762e+01 -8.0764038437081215e-02
    1.5866757828995944e+01 -6.3277199716833266e-02
    1.4198767904999364e+01 -7.0781495039877185e-02
    1.2012191406989986e+01 -8.3833838333928115e-02 1. 0.
    1.8312190839256051e+01 -5.4772255750516606e-02
    1.0065290382967309e+01 -1.0035184828481863e-01
    1.6958034388522272e+01 -5.9175593579090677e-02
    1.2968141143619201e+01 -7.7576118506196626e-02
    1.0324171130043423e+01 -9.7786266934608693e-02
    1.1242021179530175e+01 -8.9667167932444058e-02
    9.8251915436238537e+00 -1.0285594337791672e-01
    1.3541386566673944e+01 -7.4254861532110361e-02
    1.6958034388522272e+01 -5.9175593579090677e-02
    5.0211389569762197e+00 -2.0775400470041189e-01
    1.6958034388522272e+01 -5.9175593579090677e-02
    8.8412090500664817e+00 -1.1459194182538809e-01
    2.5877947453769135e+01 -3.8700818724480265e-02
    1.2012191406989986e+01 -8.3833838333928115e-02
    1.2012191406989986e+01 -8.3833838333928115e-02 1. 0.
    1.3541386566673944e+01 -7.4254861532110361e-02
    6.5434074821684707e+00 -1.5657206338189761e-01
    2.5877947453769135e+01 -3.8700818724480265e-02
    1.3541386566673944e+01 -7.4254861532110361e-02
    1.5866757828995944e+01 -6.3277199716833266e-02
    1.4198767904999364e+01 -7.0781495039877185e-02
    4.4799559135700399e+01 -2.2332781224177665e-02 1. 0.
    1.6958034388522272e+01 -5.9175593579090677e-02
    1.4963067721862023e+01 -6.7132407525801699e-02
    6.1237993063275518e+00 -1.6790077858824295e-01
    1.3541386566673944e+01 -7.4254861532110361e-02
    1.4198767904999364e+01 -7.0781495039877185e-02
    6.5434074821684707e+00 -1.5657206338189761e-01
    9.0140235127796835e+00 -1.1233827907252845e-01 1. 0.
    1.3541386566673944e+01 -7.4254861532110361e-02
    7.8615904616149717e+00 -1.2932825784311769e-01
    1.2968141143619201e+01 -7.7576118506196626e-02
    1.2462512392675762e+01 -8.0764038437081215e-02
    1.2968141143619201e+01 -7.7576118506196626e-02
    6.1237993063275518e+00 -1.6790077858824295e-01
    1.5866757828995944e+01 -6.3277199716833266e-02
    1.0324171130043423e+01 -9.7786266934608693e-02
    1.6958034388522272e+01 -5.9175593579090677e-02
    1.6958034388522272e+01 -5.9175593579090677e-02
    9.1975780678481218e+00 -1.1004081437106428e-01
    4.4799559135700399e+01 -2.2332781224177665e-02 1. 0. 1. 0.
    1.0065290382967309e+01 -1.0035184828481863e-01
    1.2012191406989986e+01 -8.3833838333928115e-02 1. 0.
    9.1975780678481218e+00 -1.1004081437106428e-01
    1.1242021179530175e+01 -8.9667167932444058e-02
    8.6781299569933310e+00 -1.1680434139522429e-01
    1.8312190839256051e+01 -5.4772255750516606e-02
    1.4198767904999364e+01 -7.0781495039877185e-02
    5.8706188609216472e+00 -1.7559179045628057e-01
    1.6958034388522272e+01 -5.9175593579090677e-02
    1.2462512392675762e+01 -8.0764038437081215e-02
    1.0909103859096174e+01 -9.2450032704204863e-02
    5.5655055836125396e+00 -1.8588677672085749e-01
    1.4198767904999364e+01 -7.0781495039877185e-02
    1.2968141143619201e+01 -7.7576118506196626e-02
    1.0604409402243963e+01 -9.5154221954332679e-02
    1.5866757828995944e+01 -6.3277199716833266e-02
    9.8251915436238537e+00 -1.0285594337791672e-01
    1.8312190839256051e+01 -5.4772255750516606e-02
    1.2968141143619201e+01 -7.7576118506196626e-02
    1.3541386566673944e+01 -7.4254861532110361e-02
    1.5866757828995944e+01 -6.3277199716833266e-02
    1.2012191406989986e+01 -8.3833838333928115e-02
    6.6109638401973907e+00 -1.5489297133064672e-01
    1.0604409402243963e+01 -9.5154221954332679e-02
    8.2390441710735765e+00 -1.2321601452253603e-01 1. 0.
    6.6109638401973907e+00 -1.5489297133064672e-01
    1.6958034388522272e+01 -5.9175593579090677e-02
    2.0054986879841749e+01 -4.9987504685547732e-02
    1.4198767904999364e+01 -7.0781495039877185e-02
    1.3541386566673944e+01 -7.4254861532110361e-02
    1.0909103859096174e+01 -9.2450032704204863e-02 1. 0. 1. 0. 1. 0.
    1.1607793383580484e+01 -8.6798056208228933e-02
    1.5866757828995944e+01 -6.3277199716833266e-02
    1.2012191406989986e+01 -8.3833838333928115e-02
    6.6807308761788189e+00 -1.5319721849662296e-01
    1.2968141143619201e+01 -7.7576118506196626e-02 1. 0.
    1.4198767904999364e+01 -7.0781495039877185e-02
    4.4799559135700399e+01 -2.2332781224177665e-02
    1.4198767904999364e+01 -7.0781495039877185e-02
    1.0604409402243963e+01 -9.5154221954332679e-02
    1.4198767904999364e+01 -7.0781495039877185e-02
    9.3930287922664117e+00 -1.0769674088839853e-01
    1.1607793383580484e+01 -8.6798056208228933e-02
    1.6958034388522272e+01 -5.9175593579090677e-02
    1.2462512392675762e+01 -8.0764038437081215e-02
    1.2968141143619201e+01 -7.7576118506196626e-02
    4.4799559135700399e+01 -2.2332781224177665e-02
    1.8312190839256051e+01 -5.4772255750516606e-02
    7.0673682802187265e+00 -1.4444770662461007e-01
    2.0054986879841749e+01 -4.9987504685547732e-02
    2.0054986879841749e+01 -4.9987504685547732e-02
    1.4198767904999364e+01 -7.0781495039877185e-02
    1.2968141143619201e+01 -7.7576118506196626e-02
    2.0054986879841749e+01 -4.9987504685547732e-02 1. 0.
    9.6017137476335748e+00 -1.0530294239677898e-01
    3.1685974783869160e+01 -3.1591201180328175e-02
    1.3541386566673944e+01 -7.4254861532110361e-02
    1.0324171130043423e+01 -9.7786266934608693e-02
    1.2012191406989986e+01 -8.3833838333928115e-02
    1.0604409402243963e+01 -9.5154221954332679e-02
    1.1242021179530175e+01 -8.9667167932444058e-02
    3.1685974783869160e+01 -3.1591201180328175e-02
    1.3541386566673944e+01 -7.4254861532110361e-02
    2.5877947453769135e+01 -3.8700818724480265e-02 1. 0. 1. 0.
    5.6900532260917345e+00 -1.8153709195905832e-01
    1.6958034388522272e+01 -5.9175593579090677e-02
    1.2012191406989986e+01 -8.3833838333928115e-02
    1.4198767904999364e+01 -7.0781495039877185e-02
    1.1607793383580484e+01 -8.6798056208228933e-02
    1.5866757828995944e+01 -6.3277199716833266e-02 1. 0.
    2.0054986879841749e+01 -4.9987504685547732e-02
    1.1607793383580484e+01 -8.6798056208228933e-02
    1.4963067721862023e+01 -6.7132407525801699e-02
    5.6900532260917345e+00 -1.8153709195905832e-01
    1.1607793383580484e+01 -8.6798056208228933e-02 1. 0.
    1.3541386566673944e+01 -7.4254861532110361e-02
    6.6807308761788189e+00 -1.5319721849662296e-01
    9.3930287922664117e+00 -1.0769674088839853e-01
    1.5866757828995944e+01 -6.3277199716833266e-02
    2.2416556336823863e+01 -4.4699015626767417e-02
    1.2968141143619201e+01 -7.7576118506196626e-02 1. 0.
    1.3541386566673944e+01 -7.4254861532110361e-02
    1.4198767904999364e+01 -7.0781495039877185e-02
    1.4198767904999364e+01 -7.0781495039877185e-02
    3.1685974783869160e+01 -3.1591201180328175e-02
    1.8312190839256051e+01 -5.4772255750516606e-02
    1.4963067721862023e+01 -6.7132407525801699e-02
    1.6958034388522272e+01 -5.9175593579090677e-02
    1.1607793383580484e+01 -8.6798056208228933e-02
    2.6716191967216809e+00 -4.5015318469188842e-01
    1.6958034388522272e+01 -5.9175593579090677e-02
    1.8312190839256051e+01 -5.4772255750516606e-02
    6.1786577897286383e+00 -1.6632478596477890e-01
    7.6375416985962579e+00 -1.3325720810113112e-01
    1.2462512392675762e+01 -8.0764038437081215e-02 1. 0.
    5.3053190653853060e+00 -1.9570967639008607e-01
    9.6017137476335748e+00 -1.0530294239677898e-01
    1.8312190839256051e+01 -5.4772255750516606e-02
    8.6781299569933310e+00 -1.1680434139522429e-01
    1.2968141143619201e+01 -7.7576118506196626e-02
    1.5866757828995944e+01 -6.3277199716833266e-02
    1.1607793383580484e+01 -8.6798056208228933e-02
    6.3529064442863525e+00 -1.6151457061744964e-01 1. 0.
    1.3541386566673944e+01 -7.4254861532110361e-02
    5.2377585931815558e+00 -1.9843950801684856e-01
    5.6060645744136854e+00 -1.8444679058389993e-01
    1.3541386566673944e+01 -7.4254861532110361e-02
    1.1607793383580484e+01 -8.6798056208228933e-02
    1.4198767904999364e+01 -7.0781495039877185e-02
    1.3541386566673944e+01 -7.4254861532110361e-02
    1.0065290382967309e+01 -1.0035184828481863e-01
    2.2416556336823863e+01 -4.4699015626767417e-02
    1.3541386566673944e+01 -7.4254861532110361e-02
    1.4198767904999364e+01 -7.0781495039877185e-02
    1.3541386566673944e+01 -7.4254861532110361e-02
    1.3541386566673944e+01 -7.4254861532110361e-02
    7.6375416985962579e+00 -1.3325720810113112e-01
    1.5866757828995944e+01 -6.3277199716833266e-02
    2.2416556336823863e+01 -4.4699015626767417e-02
    1.4198767904999364e+01 -7.0781495039877185e-02
    1.2462512392675762e+01 -8.0764038437081215e-02
    1.4198767904999364e+01 -7.0781495039877185e-02
    1.5866757828995944e+01 -6.3277199716833266e-02
    1.0324171130043423e+01 -9.7786266934608693e-02
    1.0604409402243963e+01 -9.5154221954332679e-02
    1.4198767904999364e+01 -7.0781495039877185e-02
    1.3541386566673944e+01 -7.4254861532110361e-02
    2.0054986879841749e+01 -4.9987504685547732e-02
    1.4198767904999364e+01 -7.0781495039877185e-02
    1.1607793383580484e+01 -8.6798056208228933e-02
    2.5877947453769135e+01 -3.8700818724480265e-02
    1.0604409402243963e+01 -9.5154221954332679e-02 1. 0.
    1.0065290382967309e+01 -1.0035184828481863e-01
    1.2968141143619201e+01 -7.7576118506196626e-02
    6.6109638401973907e+00 -1.5489297133064672e-01
    1.4198767904999364e+01 -7.0781495039877185e-02
    1.0604409402243963e+01 -9.5154221954332679e-02
    1.1607793383580484e+01 -8.6798056208228933e-02
    9.1975780678481218e+00 -1.1004081437106428e-01
    7.7470795387236313e+00 -1.3130643285972257e-01
    1.1607793383580484e+01 -8.6798056208228933e-02
    1.5866757828995944e+01 -6.3277199716833266e-02 1. 0. 1. 0.
    1.4198767904999364e+01 -7.0781495039877185e-02
    6.5434074821684707e+00 -1.5657206338189761e-01 1. 0.
    8.8412090500664817e+00 -1.1459194182538809e-01
    5.6060645744136854e+00 -1.8444679058389993e-01
    1.3541386566673944e+01 -7.4254861532110361e-02
    1.4198767904999364e+01 -7.0781495039877185e-02
    1.2968141143619201e+01 -7.7576118506196626e-02 1. 0.
    1.1607793383580484e+01 -8.6798056208228933e-02
    3.1685974783869160e+01 -3.1591201180328175e-02
    8.1071187003698473e+00 -1.2528448639654299e-01
    2.0054986879841749e+01 -4.9987504685547732e-02
    6.7528309066313392e+00 -1.5148424267119157e-01
    1.2012191406989986e+01 -8.3833838333928115e-02
    1.5866757828995944e+01 -6.3277199716833266e-02 1. 0.
    1.1242021179530175e+01 -8.9667167932444058e-02 1. 0.
    1.0065290382967309e+01 -1.0035184828481863e-01
    1.2462512392675762e+01 -8.0764038437081215e-02
    1.0065290382967309e+01 -1.0035184828481863e-01
    1.5866757828995944e+01 -6.3277199716833266e-02
    1.1607793383580484e+01 -8.6798056208228933e-02
    5.6060645744136854e+00 -1.8444679058389993e-01
    1.4198767904999364e+01 -7.0781495039877185e-02
    1.4198767904999364e+01 -7.0781495039877185e-02
    9.6017137476335748e+00 -1.0530294239677898e-01 1. 0.
    1.1607793383580484e+01 -8.6798056208228933e-02
    1.2968141143619201e+01 -7.7576118506196626e-02
    1.8312190839256051e+01 -5.4772255750516606e-02
    1.4198767904999364e+01 -7.0781495039877185e-02
    1.2968141143619201e+01 -7.7576118506196626e-02
    1.1607793383580484e+01 -8.6798056208228933e-02
    5.6900532260917345e+00 -1.8153709195905832e-01
    1.4198767904999364e+01 -7.0781495039877185e-02
    1.4963067721862023e+01 -6.7132407525801699e-02
    1.2968141143619201e+01 -7.7576118506196626e-02
    1.3541386566673944e+01 -7.4254861532110361e-02
    1.4198767904999364e+01 -7.0781495039877185e-02
    3.1685974783869160e+01 -3.1591201180328175e-02
    1.2462512392675762e+01 -8.0764038437081215e-02
    1.6958034388522272e+01 -5.9175593579090677e-02
    1.3541386566673944e+01 -7.4254861532110361e-02
    1.4963067721862023e+01 -6.7132407525801699e-02
    2.7241558446648111e+00 -4.3727725921339439e-01
    9.8251915436238537e+00 -1.0285594337791672e-01 1. 0.
    3.7562118382362577e+00 -2.8836322187855618e-01 1. 0.
    1.6958034388522272e+01 -5.9175593579090677e-02 1. 0.
    9.0140235127796835e+00 -1.1233827907252845e-01
    1.3541386566673944e+01 -7.4254861532110361e-02 1. 0.
    1.5866757828995944e+01 -6.3277199716833266e-02
    1.5866757828995944e+01 -6.3277199716833266e-02
    1.4963067721862023e+01 -6.7132407525801699e-02
    4.3738595393498017e+00 -2.4202313502882750e-01
    7.2426324346772191e+00 -1.4080890575892899e-01
    1.4198767904999364e+01 -7.0781495039877185e-02
    1.3541386566673944e+01 -7.4254861532110361e-02
    1.4198767904999364e+01 -7.0781495039877185e-02
    1.8312190839256051e+01 -5.4772255750516606e-02
    1.3541386566673944e+01 -7.4254861532110361e-02
    1.3541386566673944e+01 -7.4254861532110361e-02
    1.4963067721862023e+01 -6.7132407525801699e-02
    2.2416556336823863e+01 -4.4699015626767417e-02
    6.5434074821684707e+00 -1.5657206338189761e-01
    1.1607793383580484e+01 -8.6798056208228933e-02
    1.3541386566673944e+01 -7.4254861532110361e-02
    1.4198767904999364e+01 -7.0781495039877185e-02
    1.0909103859096174e+01 -9.2450032704204863e-02 1. 0.
    1.4963067721862023e+01 -6.7132407525801699e-02
    1.2462512392675762e+01 -8.0764038437081215e-02
    1.0604409402243963e+01 -9.5154221954332679e-02
    1.3541386566673944e+01 -7.4254861532110361e-02
    1.8312190839256051e+01 -5.4772255750516606e-02 1. 0.
    1.1242021179530175e+01 -8.9667167932444058e-02
    2.0054986879841749e+01 -4.9987504685547732e-02
    2.5877947453769135e+01 -3.8700818724480265e-02
    2.9533070774182941e+00 -3.9014275947948551e-01
    1.0065290382967309e+01 -1.0035184828481863e-01
    1.0065290382967309e+01 -1.0035184828481863e-01
    1.2462512392675762e+01 -8.0764038437081215e-02
    1.8312190839256051e+01 -5.4772255750516606e-02
    1.1242021179530175e+01 -8.9667167932444058e-02
    1.1607793383580484e+01 -8.6798056208228933e-02
    1.1607793383580484e+01 -8.6798056208228933e-02 1. 0.
    1.4198767904999364e+01 -7.0781495039877185e-02
    9.1975780678481218e+00 -1.1004081437106428e-01
    6.6807308761788189e+00 -1.5319721849662296e-01
    1.5866757828995944e+01 -6.3277199716833266e-02
    6.6109638401973907e+00 -1.5489297133064672e-01
    1.5866757828995944e+01 -6.3277199716833266e-02
    9.6017137476335748e+00 -1.0530294239677898e-01
    1.4963067721862023e+01 -6.7132407525801699e-02
    8.1071187003698473e+00 -1.2528448639654299e-01
    1.2012191406989986e+01 -8.3833838333928115e-02
    1.4198767904999364e+01 -7.0781495039877185e-02
    2.0054986879841749e+01 -4.9987504685547732e-02
    2.2416556336823863e+01 -4.4699015626767417e-02
    1.4198767904999364e+01 -7.0781495039877185e-02 1. 0.
    1.2462512392675762e+01 -8.0764038437081215e-02
    7.7470795387236313e+00 -1.3130643285972257e-01
    1.5866757828995944e+01 -6.3277199716833266e-02
    2.0054986879841749e+01 -4.9987504685547732e-02
    1.8312190839256051e+01 -5.4772255750516606e-02
    1.5866757828995944e+01 -6.3277199716833266e-02
    2.0054986879841749e+01 -4.9987504685547732e-02
    8.6781299569933310e+00 -1.1680434139522429e-01
    1.1607793383580484e+01 -8.6798056208228933e-02
    1.4198767904999364e+01 -7.0781495039877185e-02
    1.1607793383580484e+01 -8.6798056208228933e-02
    6.6807308761788189e+00 -1.5319721849662296e-01
    1.2012191406989986e+01 -8.3833838333928115e-02
    1.1607793383580484e+01 -8.6798056208228933e-02
    1.5866757828995944e+01 -6.3277199716833266e-02
    1.2462512392675762e+01 -8.0764038437081215e-02
    1.3541386566673944e+01 -7.4254861532110361e-02
    6.5434074821684707e+00 -1.5657206338189761e-01
    1.3541386566673944e+01 -7.4254861532110361e-02
    3.1685974783869160e+01 -3.1591201180328175e-02
    9.6017137476335748e+00 -1.0530294239677898e-01
    1.5866757828995944e+01 -6.3277199716833266e-02
    1.2012191406989986e+01 -8.3833838333928115e-02
    1.4198767904999364e+01 -7.0781495039877185e-02
    2.5877947453769135e+01 -3.8700818724480265e-02
    6.6109638401973907e+00 -1.5489297133064672e-01
    7.5326287797751830e+00 -1.3518177271779991e-01
    1.5866757828995944e+01 -6.3277199716833266e-02
    1.6958034388522272e+01 -5.9175593579090677e-02
    1.1607793383580484e+01 -8.6798056208228933e-02 1. 0.
    2.2416556336823863e+01 -4.4699015626767417e-02
    1.6958034388522272e+01 -5.9175593579090677e-02
    8.6781299569933310e+00 -1.1680434139522429e-01
    4.4799559135700399e+01 -2.2332781224177665e-02
    1.4198767904999364e+01 -7.0781495039877185e-02
    1.2012191406989986e+01 -8.3833838333928115e-02
    1.1607793383580484e+01 -8.6798056208228933e-02 1. 0.
    1.0604409402243963e+01 -9.5154221954332679e-02
    1.0324171130043423e+01 -9.7786266934608693e-02
    8.8412090500664817e+00 -1.1459194182538809e-01
    5.0801092528451939e+00 -2.0512903762734833e-01
    1.4198767904999364e+01 -7.0781495039877185e-02
    1.2012191406989986e+01 -8.3833838333928115e-02 1. 0.
    1.2012191406989986e+01 -8.3833838333928115e-02
    1.3541386566673944e+01 -7.4254861532110361e-02
    9.8251915436238537e+00 -1.0285594337791672e-01
    5.1413423763353503e+00 -2.0247559707402427e-01
    3.1685974783869160e+01 -3.1591201180328175e-02
    3.1685974783869160e+01 -3.1591201180328175e-02
    1.5866757828995944e+01 -6.3277199716833266e-02
    1.1607793383580484e+01 -8.6798056208228933e-02
    1.4198767904999364e+01 -7.0781495039877185e-02
    1.4198767904999364e+01 -7.0781495039877185e-02
    3.1685974783869160e+01 -3.1591201180328175e-02
    1.0324171130043423e+01 -9.7786266934608693e-02
    1.4198767904999364e+01 -7.0781495039877185e-02
    1.3541386566673944e+01 -7.4254861532110361e-02
    6.9845035393091228e+00 -1.4623586672531563e-01
    1.5866757828995944e+01 -6.3277199716833266e-02
    4.4799559135700399e+01 -2.2332781224177665e-02
    1.1607793383580484e+01 -8.6798056208228933e-02
    6.6109638401973907e+00 -1.5489297133064672e-01
    5.9679126186516660e+00 -1.7255181050937021e-01
    1.3541386566673944e+01 -7.4254861532110361e-02
    1.0065290382967309e+01 -1.0035184828481863e-01
    1.2968141143619201e+01 -7.7576118506196626e-02
    4.4799559135700399e+01 -2.2332781224177665e-02
    1.5866757828995944e+01 -6.3277199716833266e-02
    7.0673682802187265e+00 -1.4444770662461007e-01
    1.2968141143619201e+01 -7.7576118506196626e-02
    1.4198767904999364e+01 -7.0781495039877185e-02
    9.6017137476335748e+00 -1.0530294239677898e-01 1. 0. 1. 0.
    1.3541386566673944e+01 -7.4254861532110361e-02
    1.5866757828995944e+01 -6.3277199716833266e-02
    1.2462512392675762e+01 -8.0764038437081215e-02
    4.2669938690353701e+00 -2.4887252376726735e-01
    1.4198767904999364e+01 -7.0781495039877185e-02
    1.4198767904999364e+01 -7.0781495039877185e-02
    8.5239083087336400e+00 -1.1897778297335090e-01
    1.6958034388522272e+01 -5.9175593579090677e-02
    1.3541386566673944e+01 -7.4254861532110361e-02
    1.2012191406989986e+01 -8.3833838333928115e-02
    1.6958034388522272e+01 -5.9175593579090677e-02
    1.4198767904999364e+01 -7.0781495039877185e-02
    8.6781299569933310e+00 -1.1680434139522429e-01
    1.3541386566673944e+01 -7.4254861532110361e-02
    1.2968141143619201e+01 -7.7576118506196626e-02
    5.6475681805868634e+00 -1.8299697494424033e-01
    1.4198767904999364e+01 -7.0781495039877185e-02
    2.5877947453769135e+01 -3.8700818724480265e-02
    1.0909103859096174e+01 -9.2450032704204863e-02
    1.1607793383580484e+01 -8.6798056208228933e-02
    4.5519488238817107e+00 -2.3145502494313785e-01
    1.2462512392675762e+01 -8.0764038437081215e-02
    1.2968141143619201e+01 -7.7576118506196626e-02
    1.4198767904999364e+01 -7.0781495039877185e-02
    9.3930287922664117e+00 -1.0769674088839853e-01
    1.0324171130043423e+01 -9.7786266934608693e-02
    4.4799559135700399e+01 -2.2332781224177665e-02 1. 0. 1. 0.
    1.4198767904999364e+01 -7.0781495039877185e-02 1. 0.
    1.3541386566673944e+01 -7.4254861532110361e-02
    1.4198767904999364e+01 -7.0781495039877185e-02
    1.4198767904999364e+01 -7.0781495039877185e-02
    1.3541386566673944e+01 -7.4254861532110361e-02
    1.3541386566673944e+01 -7.4254861532110361e-02
    2.0054986879841749e+01 -4.9987504685547732e-02
    2.2416556336823863e+01 -4.4699015626767417e-02
    1.4963067721862023e+01 -6.7132407525801699e-02
    1.5866757828995944e+01 -6.3277199716833266e-02 1. 0.
    1.1242021179530175e+01 -8.9667167932444058e-02
    1.8312190839256051e+01 -5.4772255750516606e-02
    5.6060645744136854e+00 -1.8444679058389993e-01
    6.6109638401973907e+00 -1.5489297133064672e-01
    5.6060645744136854e+00 -1.8444679058389993e-01
    1.5866757828995944e+01 -6.3277199716833266e-02 1. 0.
    1.0065290382967309e+01 -1.0035184828481863e-01
    1.0909103859096174e+01 -9.2450032704204863e-02
    6.4779482735021388e+00 -1.5823502761794855e-01
    1.2462512392675762e+01 -8.0764038437081215e-02
    1.6958034388522272e+01 -5.9175593579090677e-02
    1.0909103859096174e+01 -9.2450032704204863e-02
    1.8312190839256051e+01 -5.4772255750516606e-02
    1.1242021179530175e+01 -8.9667167932444058e-02
    4.4699348737505122e+00 -2.3619795444544081e-01
    4.3738595393498017e+00 -2.4202313502882750e-01
    1.3541386566673944e+01 -7.4254861532110361e-02
    1.2968141143619201e+01 -7.7576118506196626e-02
    1.5866757828995944e+01 -6.3277199716833266e-02
    1.2968141143619201e+01 -7.7576118506196626e-02
    1.2968141143619201e+01 -7.7576118506196626e-02
    1.8312190839256051e+01 -5.4772255750516606e-02
    1.6958034388522272e+01 -5.9175593579090677e-02
    1.2968141143619201e+01 -7.7576118506196626e-02
    1.8312190839256051e+01 -5.4772255750516606e-02
    1.5866757828995944e+01 -6.3277199716833266e-02
    1.4198767904999364e+01 -7.0781495039877185e-02
    1.1607793383580484e+01 -8.6798056208228933e-02
    1.4198767904999364e+01 -7.0781495039877185e-02
    1.4198767904999364e+01 -7.0781495039877185e-02
    1.6958034388522272e+01 -5.9175593579090677e-02
    1.0604409402243963e+01 -9.5154221954332679e-02
    1.5866757828995944e+01 -6.3277199716833266e-02
    1.0065290382967309e+01 -1.0035184828481863e-01
    4.5309881064758457e+00 -2.3264794365254840e-01
    1.1607793383580484e+01 -8.6798056208228933e-02
    1.2462512392675762e+01 -8.0764038437081215e-02
    1.2012191406989986e+01 -8.3833838333928115e-02
    1.4198767904999364e+01 -7.0781495039877185e-02
    1.1242021179530175e+01 -8.9667167932444058e-02
    1.4198767904999364e+01 -7.0781495039877185e-02
    6.3529064442863525e+00 -1.6151457061744964e-01
    1.0909103859096174e+01 -9.2450032704204863e-02
    1.1242021179530175e+01 -8.9667167932444058e-02
    1.4963067721862023e+01 -6.7132407525801699e-02
    1.2462512392675762e+01 -8.0764038437081215e-02
    8.8412090500664817e+00 -1.1459194182538809e-01
    9.8251915436238537e+00 -1.0285594337791672e-01
    8.1071187003698473e+00 -1.2528448639654299e-01
    6.9845035393091228e+00 -1.4623586672531563e-01
    1.4198767904999364e+01 -7.0781495039877185e-02
    1.2462512392675762e+01 -8.0764038437081215e-02
    9.3930287922664117e+00 -1.0769674088839853e-01
    1.0909103859096174e+01 -9.2450032704204863e-02
    1.2462512392675762e+01 -8.0764038437081215e-02
    1.3541386566673944e+01 -7.4254861532110361e-02
    1.0324171130043423e+01 -9.7786266934608693e-02
    1.1242021179530175e+01 -8.9667167932444058e-02
    7.7470795387236313e+00 -1.3130643285972257e-01
    1.2012191406989986e+01 -8.3833838333928115e-02
    1.0604409402243963e+01 -9.5154221954332679e-02
    1.0909103859096174e+01 -9.2450032704204863e-02
    4.2669938690353701e+00 -2.4887252376726735e-01
    1.3541386566673944e+01 -7.4254861532110361e-02
    1.2968141143619201e+01 -7.7576118506196626e-02
    1.1607793383580484e+01 -8.6798056208228933e-02
    1.4963067721862023e+01 -6.7132407525801699e-02
    1.0604409402243963e+01 -9.5154221954332679e-02
    9.8251915436238537e+00 -1.0285594337791672e-01
    1.3541386566673944e+01 -7.4254861532110361e-02
    1.3541386566673944e+01 -7.4254861532110361e-02
    1.8312190839256051e+01 -5.4772255750516606e-02
    1.0909103859096174e+01 -9.2450032704204863e-02
    1.4963067721862023e+01 -6.7132407525801699e-02
    1.4198767904999364e+01 -7.0781495039877185e-02
    1.0604409402243963e+01 -9.5154221954332679e-02
    1.1242021179530175e+01 -8.9667167932444058e-02
    1.4198767904999364e+01 -7.0781495039877185e-02
    1.6958034388522272e+01 -5.9175593579090677e-02
    8.6781299569933310e+00 -1.1680434139522429e-01
    1.0909103859096174e+01 -9.2450032704204863e-02
    8.8412090500664817e+00 -1.1459194182538809e-01
    1.0909103859096174e+01 -9.2450032704204863e-02
    9.0140235127796835e+00 -1.1233827907252845e-01
    1.1242021179530175e+01 -8.9667167932444058e-02
    1.3541386566673944e+01 -7.4254861532110361e-02
    1.5866757828995944e+01 -6.3277199716833266e-02
    1.2012191406989986e+01 -8.3833838333928115e-02
    1.2012191406989986e+01 -8.3833838333928115e-02
    1.3541386566673944e+01 -7.4254861532110361e-02
    1.6958034388522272e+01 -5.9175593579090677e-02
    1.5866757828995944e+01 -6.3277199716833266e-02
    6.9045686351696496e+00 -1.4800421301709618e-01
    9.8251915436238537e+00 -1.0285594337791672e-01
    1.2462512392675762e+01 -8.0764038437081215e-02
    1.4963067721862023e+01 -6.7132407525801699e-02
    1.4963067721862023e+01 -6.7132407525801699e-02
    7.0673682802187265e+00 -1.4444770662461007e-01
    1.8312190839256051e+01 -5.4772255750516606e-02
    1.2462512392675762e+01 -8.0764038437081215e-02
    1.2462512392675762e+01 -8.0764038437081215e-02
    6.7528309066313392e+00 -1.5148424267119157e-01
    1.1607793383580484e+01 -8.6798056208228933e-02
    1.1607793383580484e+01 -8.6798056208228933e-02
    1.1607793383580484e+01 -8.6798056208228933e-02
    1.0324171130043423e+01 -9.7786266934608693e-02
    7.8615904616149717e+00 -1.2932825784311769e-01
    2.2416556336823863e+01 -4.4699015626767417e-02
    7.9814604390183508e+00 -1.2732140281584606e-01
    1.2462512392675762e+01 -8.0764038437081215e-02
    1.2012191406989986e+01 -8.3833838333928115e-02
    5.6475681805868634e+00 -1.8299697494424033e-01
    9.6017137476335748e+00 -1.0530294239677898e-01
    1.8312190839256051e+01 -5.4772255750516606e-02
    1.4963067721862023e+01 -6.7132407525801699e-02
    1.2012191406989986e+01 -8.3833838333928115e-02
    7.5326287797751830e+00 -1.3518177271779991e-01
    1.2012191406989986e+01 -8.3833838333928115e-02
    1.2462512392675762e+01 -8.0764038437081215e-02
    2.5877947453769135e+01 -3.8700818724480265e-02
    8.8412090500664817e+00 -1.1459194182538809e-01
    9.8251915436238537e+00 -1.0285594337791672e-01 1. 0.
    1.4198767904999364e+01 -7.0781495039877185e-02
    3.1685974783869160e+01 -3.1591201180328175e-02
    1.6958034388522272e+01 -5.9175593579090677e-02
    1.6958034388522272e+01 -5.9175593579090677e-02
    3.1685974783869160e+01 -3.1591201180328175e-02
    1.6958034388522272e+01 -5.9175593579090677e-02
    3.1685974783869160e+01 -3.1591201180328175e-02
    2.2416556336823863e+01 -4.4699015626767417e-02
    1.8312190839256051e+01 -5.4772255750516606e-02
    1.0065290382967309e+01 -1.0035184828481863e-01
    8.6781299569933310e+00 -1.1680434139522429e-01
    8.5239083087336400e+00 -1.1897778297335090e-01
    1.0065290382967309e+01 -1.0035184828481863e-01
    3.1685974783869160e+01 -3.1591201180328175e-02</input_scale>
  <output_scale>
    5.2631578947368418e-01 4.9999999999999994e-01 5.2631578947368418e-01
    4.9999999999999994e-01</output_scale>
  <inv_output_scale>
    1.8999999999999999e+00 -9.4999999999999996e-01
    1.8999999999999999e+00 -9.4999999999999996e-01</inv_output_scale>
  <weights>
    <_>
      -8.0563850245215427e+00 -6.0117221996213377e-01
      -4.9224798746025311e-01 5.1819415300055127e-02
      4.6059432068260603e-01 -1.0215146752867545e+00
      -3.4776600918153538e-01 3.8619653482628813e-01
      4.7662654155465161e+00 5.0099185995921147e-01
      4.9214343288674395e-01 -6.1231822815759984e-01
      -3.3998047637453610e-01 -8.1601910391323340e-01
      2.4759194691513900e-01 1.9778766174268074e+00
      2.3947590990061424e-01 1.5103913091152661e+00
      4.6599452260040353e-01 -1.6925954888973083e+00
      5.2057270709490633e-01 -3.7789765737037173e-01
      5.7034290635315532e-01 5.0893218295676201e-01
      6.4329077917606814e-01 2.0821043320527910e-01
      -6.7373810911688503e-01 -3.5866022874756126e-02
      1.2907659568695387e-01 2.1856417427189263e+00
      -3.5145204680281599e+00 1.8892291962917099e-01
      -1.7337778193891049e+00 -5.7079707630244525e-01
      1.9605945735169135e+00 4.3732850167717627e+00
      -2.0791374917017907e-01 1.1168186489683699e-01
      -4.3505382383475533e-01 1.7579862262412080e-01
      1.9064918394259589e-01 -2.2180375058195194e+00
      2.7707876883611793e-01 -4.2403898054750366e-02
      1.2558437070525084e+00 -2.8570730969425346e+00
      -1.7080416015441141e-01 3.4736328379706616e-01
      -3.5494473688246231e-01 -4.9336992630748783e-01
      9.6623143741464915e+01 1.3775953664690548e+00
      3.4273240001156267e+00 -1.5774314138123294e-01
      -2.7925618927408506e+00 1.9966000811577791e+00
      -3.0547691235226127e-01 2.6954715378165212e-01
      -3.2808511704377432e+00 -3.0665976938687045e+00
      -1.6778457287403858e+00 2.7994029731488776e+00
      -1.9537759772196139e-01 1.5288851832394530e+00
      -3.0977895111283710e-01 -2.7885248516942971e+00
      -3.7260050022177427e-01 -2.4835286429305365e+00
      -2.8884900656783898e+00 9.6768695913629255e-01
      2.6344641479916325e-01 4.9649317151323752e-01
      3.2536094052821802e+00 -8.2321062291936875e-01
      -4.0814178946957574e-01 -2.5966108608974031e-01
      1.1167287605143748e+00 -3.0192638186073290e-01
      -3.9096639143702752e+00 -6.3845315360643662e-01
      -9.6099516588910572e-01 3.5625359866563761e-01
      7.6826404494670364e-01 2.1175057183707962e+00
      -2.9377087625755536e+00 -3.2563613215810596e+00
      -1.1162935590610601e+00 -4.1486740289866511e+00
      6.2535126622690429e-01 6.4993840733210267e-03
      3.3068741534637652e-01 7.9326413463639528e-02
      -3.4445185788654649e+00 1.0971151929296229e-01
      -2.1447319563188771e+00 3.5055452751128109e+00
      -2.6458275203158665e-01 -6.2138873056090915e-01
      1.7609590668794666e+00 3.1958019316064732e+00
      5.2881589290363948e+01 -4.3906212714043497e-01
      1.0594543745880016e+00 2.1517056573430873e-01
      -7.2259228307691037e-01 7.2079605692806903e-01
      -5.9857934950297398e-01 6.2487292433465569e-01
      -3.9185864912276394e+00 -8.9213458463622897e-01
      2.9981376965074746e-01 6.8843895415796041e-01
      -5.5846200050387995e-01 2.8845342690438774e-01
      5.2881361867241328e-01 -7.5640354836533175e-01
      2.8519995255139072e-02 4.0777176151081385e+00
      -6.8669625475815377e-01 -1.9692107530683085e+00
      8.4457318169101236e-01 -4.6892463758298525e-01
      -2.7510924177487972e+00 6.7294637130766233e-01
      9.2169642456227407e-01 3.6473079281427279e-01
      -5.7236446537992336e-01 -9.0360923402267812e-01
      -9.3444046715721962e-01 1.9555600332392129e+00
      -1.8371137204232717e+00 4.7957989509036764e-01
      -1.6185495483282570e+00 1.0913031302687572e+00
      -1.6541708942751339e+00 -3.9441986989480324e+00
      -7.6295525507771178e-01 -8.4007720046339251e-01
      -1.2395590201997794e-01 5.2307624654582074e-01
      4.5683659797798348e-01 -2.1646265321424889e+00
      -8.3702335179348919e-01 -3.0352813373012039e-01
      -6.8701634672055323e-01 2.3485187721590943e+00
      -3.7788339618115002e-01 4.2096461070877700e-01
      3.6046344393919572e-01 8.5658735999542079e-01
      -1.0780826107170522e+01 -2.8070877510771697e-01
      -1.4935785154159480e+00 -3.0853249627731196e-02
      1.1933502331657639e+00 -6.2049783463257213e-01
      -5.3137536826531537e-02 5.4852074447039559e-02
      -1.7082646559147674e+00 1.5813327595433513e+00
      6.0223209945464007e-01 -1.1296847721347623e+00
      -6.4986108342250284e-02 -4.5644262099211996e-01
      -2.6921903297058519e-01 -5.7040360751531183e-01
      1.6303955476403603e-01 -3.2433365527754616e+00
      1.5658381791361073e+00 1.2257181049799670e+00
      -2.8136226920564732e-02 2.6201520239012754e-01
      -4.4886330510273814e-01 -6.1823783916736152e-01
      -5.9082103839318223e-02 4.5769777070157926e-02
      -7.3670772087375255e-02 8.2915970559349450e-01
      1.8108808327563690e+00 -1.8328962031442186e+00
      1.8789908625627512e+00 4.7435603981567445e-02
      1.4294431928601252e+00 -6.0706675782431840e-01
      2.6414351227937855e-01 -1.0595852316895844e+00
      -7.7954761903915248e-01 2.1462010840694234e+00
      -3.2293216696393728e-01 -1.0120067140501572e-01
      2.9104151022628134e-02 1.4676383082027440e+00
      1.5299098434799596e+00 -1.1568063593307291e-01
      2.2299508102167950e-01 2.2577710915366439e-01
      -6.3127583861105722e-03 2.9167438765582065e-01
      -8.4606776281000717e-01 -1.6800201774708272e+00
      1.2312590000463036e-01 7.7212468984444102e-04
      -6.1797656693695800e-03 -3.0748671477225396e-02
      5.7747795964581249e-03 1.5690160204007698e-02
      -3.9254315184111691e-03 4.1075456821101355e-03
      1.7673521460688828e-02 1.2095129639822370e-02
      1.3319866889679292e-02 -1.4584586517086716e-02
      -5.0809821555681646e-03 1.5675439886789499e-02
      -4.3086689217466556e-02 -1.0868736037904288e-02
      -2.3583199296533339e-02 -5.8442547548531169e-02
      1.7775733777205767e-02 -7.1037072980328894e-02
      8.4067903671632017e-03 4.9230770634727694e-02
      -7.2073864716425559e-02 -4.0195334735093735e-02
      -1.9511431785213064e-02 -2.7528542932311856e-02
      1.4255937866313521e-02 6.9059975833757519e-03
      1.0592824453318928e-02 -6.4923375055769963e-02
      1.2224196076766874e-03 1.0927192567099448e-02
      4.0158490969045321e-02 4.1367325936118943e-02
      -2.0205254373363356e-02 -1.1103874938805568e-02
      -2.0075374697354462e-02 1.8358811630870015e-02
      2.1595067192148144e-02 -2.6099639200922148e-02
      1.2661574705286446e-02 5.4138345772441816e-02
      8.5473843443116364e-03 7.3071051163399554e-03
      -1.4205008057102408e-02 1.5030337750020670e-02
      -1.7282329155904601e-02 -3.1152114718018625e-02
      -7.3383836502957950e-03 -1.7075365810474617e-02
      1.1033038712581307e-03 -9.8109257141243801e-04
      -1.0381490795747753e-03 9.2813715851845690e-05
      -1.0616158614497272e-03 -1.0265890100949414e-04
      3.3252004585869471e-04 -1.1722724613057484e-03
      9.8711402905665431e-04 -6.5591979485303390e-04
      -8.0176567982202405e-04 4.9685193123640893e-04
      -8.4581998291507435e-04 1.0465805226558798e-03
      -8.3355258854330946e-05 -1.7072218657128411e-04
      -8.6327623886530769e-04 1.9585021041826584e-04
      -4.2267500209148797e-04 -9.9337643689968616e-04
      -3.6986940506373201e-04 -5.7785389654199518e-04
      -4.4959119808523951e-04 3.0774953996920825e-04
      -1.0541469345744354e-03 -6.2491825871233446e-04
      4.0335850792694273e-04 7.5922495652893502e-04
      8.9586119149670182e-04 1.1590200139553228e-03
      8.7069429077507674e-04 9.3600640147803557e-04
      -4.7777826882727756e-05 1.2410285801461984e-03
      1.0010897696991592e-03 -1.0745334125982101e-03
      -6.8964892978319852e-04 1.0333325812627060e-04
      3.0809856097790294e-04 -3.0015697999604199e-04
      -6.9317030966727956e-04 -3.8157355614404272e-04
      7.7834061511259441e-04 -5.6741665395123036e-04
      -1.1386209920401058e-03 -8.1050768222318801e-04
      -7.9098237260056235e-04 4.7516531668335504e-04
      1.0275345674964930e-03 8.9185805307529366e-04
      8.3089084002169161e-02 -6.0685203118339423e-03
      -3.5328483194419225e-02 5.9842800605652716e-04
      3.2913330222073135e-02 -3.6867800916734972e-02
      1.6086380784272696e-02 -1.5340731913671100e-02
      9.8907985577525531e-02 2.5418250555890122e-02
      -2.5828347555299981e-02 -1.0255727500213000e-02
      4.3014815854017716e-03 -3.2704579086206609e-02
      4.1417912604487468e-02 5.6801070455303429e-02
      9.0283052688658657e-03 -5.1354719836469657e-02
      5.8741004267756679e-03 7.5770218155089775e-02
      -1.8957946113837547e-02 -3.8482717763709796e-02
      8.1078799398294377e-02 5.9344859303765964e-02
      1.6894741972530256e-02 -1.9567795707793042e-02
      2.4654124497119175e-02 2.7803435857556149e-02
      4.6754119819029855e-02 -5.7018216806944848e-02
      1.1345255807128767e-02 -3.3769069456066089e-03
      6.0439961535160930e-02 -7.5029729788300858e-02
      4.2640569390483794e-02 7.1733814100624724e-02
      6.1496445443891122e-02 3.6772889388457818e-02
      -2.4938817586816929e-03 -2.6088339035142863e-02
      -1.4594252112418500e-02 5.0416921785385663e-02
      3.8677225200306010e-02 -2.9262597988050209e-02
      4.3996272548516978e-02 -5.4065372006074051e-02
      2.4973124484147968e-02 5.9368524232007325e-03
      -2.2214600080652156e-02 -3.9129869331704491e-03
      3.4297715060812684e-01 -2.4944349258512050e-02
      -7.4296016389879087e-03 -2.4643870719374194e-02
      8.9715310513306164e-03 -5.8725044599612043e-03
      8.5956660937600744e-03 -9.0673500425310360e-03
      1.7855330730729545e-02 2.4822457432447345e-03
      2.6018792392961631e-02 -1.0554872292655859e-02
      9.9576143982084008e-04 -1.4080228425499554e-02
      -3.4574014241965934e-02 1.1739442401547511e-02
      -1.5252727044074391e-02 -1.5373417308933678e-02
      6.3501878733703025e-03 3.8500505793520469e-02
      -2.8917162201295941e-02 2.1843559760629790e-02
      -4.9004286539472995e-02 9.9260741340803423e-03
      -2.7856277833542099e-02 -2.8169694681340729e-02
      -1.9146305610331413e-02 5.7686063736294348e-02
      4.8453475030446943e-03 -3.0983589445129744e-02
      7.5118993827081853e-03 -4.9520175365930326e-03
      4.0387863640317954e-02 -4.0956852041897168e-02
      2.1963764374865174e-03 8.2806755540213127e-03
      4.9190817000773206e-02 6.9142172998727641e-03
      1.2434083874638222e-02 -3.2136041618052953e-02
      -6.6089308558518979e-03 2.2529437584101183e-02
      5.3946430920457349e-03 1.0926696557427874e-02
      1.2147386539668206e-02 -2.4913772725158366e-03
      5.3870835880014177e-04 -2.9457842032899868e-02
      -2.2513598664099618e-02 -2.2529670089164048e-03
      -7.5552756172532473e-02 -6.2299709751143378e-02
      -3.0682587353699557e-02 7.7573038607310638e-03
      2.7627579113086633e-02 -1.2443152939855687e-02
      6.1560777064578629e-03 -6.3600811818605952e-03
      -1.9496477323766436e-03 4.9245551883171430e-02
      5.6303544718539565e-02 -5.6728139781346498e-02
      6.3648500805859884e-03 -1.5059875219572572e-02
      1.2121338962850831e-02 6.1096570635083376e-03
      2.8858457359279853e-02 7.8004240056826726e-02
      4.7486039789791615e-02 -5.7920677780120645e-02
      7.7559580106744998e-03 -1.5161117670042587e-02
      -4.1917284670148408e-02 1.9195958803680847e-02
      5.2826133646321723e-02 1.0412810426287274e-02
      -5.9200098536728342e-02 2.3861158219953205e-02
      3.5133780982509799e-02 8.4158005272707379e-02
      -5.3008041573689345e-02 -1.3536287041848533e-02
      -8.2504153071799147e-02 -7.3080311687091115e-02
      8.1427741885393441e-03 1.0239812946483719e-03
      1.1768053093611406e-02 5.1800710962903257e-02
      -3.6437510374676942e-02 2.9685994223632040e-03
      -1.3389606587882005e-02 -5.4408798330773549e-02
      3.2257408489056352e-02 2.7047640795627836e-03
      1.8013337551004947e-02 3.1064252093867708e-03
      1.4549496472779427e-02 1.2075594106143244e-02
      -4.3861397447798878e-02 -4.7570646277717538e-02
      -5.3222703533819882e-01 1.8745791917859770e-03
      6.7624549689370525e-02 -5.2033138304652553e-02
      -5.7031726745544013e-02 7.1124262441069674e-02
      -1.4371152356670932e-02 1.1371696953643083e-02
      -1.5575518677721267e-01 -4.5944012307036021e-02
      6.5116113763250367e-03 4.8549562448804678e-02
      -1.4700114674728178e-02 7.0811783660957542e-02
      -8.0856189228460676e-02 -1.2120734996835682e-01
      -3.9335159063966653e-02 -9.7885516022291220e-03
      -3.9930844831011773e-02 -3.9480656513964903e-03
      1.1005011011762841e-02 8.4405817298787600e-02
      4.5991508698911353e-04 -8.1510765368147678e-02
      -9.9933037439140209e-03 -3.4585168130632421e-02
      2.7913493537095632e-03 -3.1972001549802499e-03
      -6.3906395756822568e-02 -9.5023328985766979e-03
      -1.0909181842237396e-01 1.8683714106412001e-02
      7.0176930055090795e-03 2.0453376911299687e-02
      -1.0856385148788507e-01 -1.3796452781996812e-01
      -2.3885279083509552e-02 -4.6145225403285174e-02
      4.0599638557269627e-02 -1.4619337935598763e-02
      2.3907535697236391e-02 -7.2499225607156076e-02
      -6.2303666337324738e-02 3.5521582067900605e-02
      -8.6177551000356165e-02 1.3201342590582815e-01
      -3.7429488957834163e-02 -2.8521819125238899e-02
      4.0525007083880751e-02 4.3605543740745954e-02
      5.0261892075761172e-01 -5.4309925216805121e-03
      -2.8242464911597546e-02 -1.5828185535414984e-03
      2.8151708578841410e-02 -2.8999365379183666e-02
      3.2817362520085866e-02 -3.3485535377341932e-02
      2.5248851237632788e-02 1.0482327168486101e-02
      -1.5078169256605194e-02 -2.1206907688525661e-02
      1.4724958432247536e-02 -5.0005835557042654e-02
      2.3656565201410306e-02 2.6250402386927319e-02
      6.3707729785156706e-03 -3.6329381844820222e-02
      1.0904253636008261e-02 6.3142761752373183e-02
      -4.5719384347090983e-02 -2.4978520255862280e-02
      2.2739738646709549e-02 3.1561831644289315e-02
      -1.6952149583103399e-02 -2.4242133744930137e-02
      1.0153548130867995e-02 9.2962770675039233e-02
      2.9759422285524046e-02 -5.4380977594716794e-02
      4.0735874649028274e-02 -2.2150740429986542e-02
      6.5835080296428122e-02 -4.3747624500395911e-02
      2.8971372143310619e-02 2.6165828109789055e-02
      7.5404536737102831e-02 1.1282762515897169e-02
      -1.1169191250043044e-02 -3.2750358400474550e-02
      -2.2212088605054300e-02 5.3397978809862967e-02
      2.7295631626818740e-02 1.6650646265171840e-03
      4.3299980241647364e-02 -2.3855799582657190e-02
      1.8188295710041102e-02 -1.8153145475952651e-02
      -4.3402334555793558e-02 -6.4842375812302483e-03
      -1.3672447308832432e+00 3.2065993891379874e-02
      6.4651582254302828e-02 -4.0399783007162092e-02
      -5.4074983096845261e-02 6.0609862314075454e-02
      -1.5151329970008924e-02 1.2981342175591031e-02
      -1.0593993529869275e-01 -4.9673732960430858e-02
      -2.7114522110638209e-02 5.0310158869647466e-02
      -1.5438673692289850e-02 5.9262235472388659e-02
      -6.2361240139603195e-02 -9.3185639502562687e-02
      -3.5044538898593283e-02 -6.7587078519882327e-02
      -4.4511905398815152e-02 3.3126725771870771e-02
      1.9566114987528402e-02 6.5459616391283060e-02
      2.0078211889498109e-02 -6.2837910831312405e-02
      -1.0092095275207493e-02 -2.7814577842487833e-02
      3.1215313587959103e-02 -1.8332333392704080e-02
      -6.4151886593306257e-02 -3.1981168840949599e-02
      -6.1360926547543458e-02 1.7813889852248244e-02
      2.8402309100424225e-02 3.0569492684958698e-02
      -9.1533237112448360e-02 -1.0812273040409355e-01
      -4.8541728174433928e-03 -5.1428472890467085e-02
      3.8547991259748712e-02 1.3420153849344666e-02
      2.2622567112592855e-02 -4.2064744290595854e-02
      -6.0223572388687495e-02 -6.0297753337976070e-03
      -7.2457609614686544e-02 1.0688142341598102e-01
      -3.0279012220497004e-02 -2.4027811655956032e-02
      3.7394834506276044e-02 4.6589173741881956e-02
      2.9149238598591687e-01 8.3278548563731330e-03
      7.6305768867360006e-04 -4.0461673688353551e-02
      8.0092812998776395e-04 -8.3792612311226649e-04
      -3.8189489768295811e-04 -8.5365652576403295e-04
      -9.0251097749968721e-03 -6.8673626479774982e-03
      -1.3462530994118684e-02 -3.9542286797524685e-03
      -1.2845683826817854e-02 -1.4671513030025138e-02
      -4.3865226423835189e-02 -4.9290756498140817e-03
      -1.5094185705493805e-02 -1.0346189515423825e-01
      -2.5527957340412276e-03 9.3560474859511897e-02
      -2.0777038337022647e-02 3.7495722567203300e-02
      1.3758269301486416e-02 -3.9579137600483483e-02
      -1.6144055526478282e-02 -4.6136793694630272e-02
      1.5904811817868375e-02 1.1930291462627711e-01
      -4.4941511702799863e-03 -1.0738915266069889e-01
      1.8911675118363167e-01 6.6774993469626591e-03
      9.0889008996487622e-02 -6.0669744690825693e-02
      8.5782938736182681e-04 -8.9866356401895556e-03
      9.6966614125916298e-02 -1.4686090021247598e-02
      5.3561126275550024e-03 -5.5040354599143547e-02
      9.2203767197717376e-03 1.1816257835202328e-01
      -3.1929223488560642e-03 1.8562202429728794e-02
      1.3492767315329019e-02 4.2837328141612473e-03
      -1.6213789357233648e-02 -3.6087737613685882e-02
      -1.4741811160816925e-02 6.8311573141567258e-03
      -1.6813984960869851e-04 -2.5200156283022916e-04
      -1.6509844785555580e-05 -3.8424453812426190e-04
      -1.1078074119162359e-03 1.2132070128581239e-03
      8.7417843955891247e-04 1.4698810100405098e-04
      4.8962201234137011e-04 6.3813973561773656e-04
      -6.2390414422201930e-04 5.4782968553737221e-04
      1.0703305781619061e-03 -6.7558328674242614e-04
      7.7901455352522410e-04 -4.1334388356598075e-05
      1.0505379500909289e-03 1.1953601499816024e-03
      -6.9427410231158860e-04 -6.6694173097944754e-04
      -1.0262244480368982e-03 -2.3794586480665404e-04
      1.0804710933354389e-03 -7.0164795448012212e-04
      1.7042929220932858e-04 6.4489165718376290e-04
      2.4429886802856200e-04 -1.1968238028975901e-03
      -8.1467603914306050e-04 1.5332773153133153e-04
      9.4244876391198697e-04 2.7188629530151452e-04
      -9.8266437454100830e-04 8.6894133627529811e-04
      -5.3743406078462651e-04 -2.2301177187577156e-04
      1.2614209213932829e-03 -3.8315874216352208e-04
      -1.0385401128734598e-03 1.0751764470689135e-03
      -1.1106731232253769e-03 -8.4281175780058428e-04
      -1.0825457861540668e-03 -5.1289973971739111e-04
      -9.4996136993521184e-04 8.6075929625023192e-04
      7.4373305303524232e-04 6.7732351234754109e-04
      6.5789485755932879e-04 1.6460932878153135e-04
      -1.3663066729956843e+00 3.2135234839178711e-02
      6.3110732359840868e-02 -4.0299943689186317e-02
      -5.5017086946228047e-02 6.2743320669921873e-02
      -1.3788667879565520e-02 1.2753034879882000e-02
      -1.0780752805536523e-01 -4.9873312717796978e-02
      -2.7932881597404875e-02 5.1070853783453322e-02
      -1.3200595161674010e-02 5.9026447666723485e-02
      -6.1418490790493573e-02 -9.4012368196637178e-02
      -3.5064154846319154e-02 -6.7945270815425757e-02
      -4.4481343621662214e-02 3.4487187118817653e-02
      2.0288329027290893e-02 6.5227048358046352e-02
      2.1226075265138759e-02 -6.2626287523316365e-02
      -9.1118161942785759e-03 -2.6916218522655039e-02
      3.1110436818952935e-02 -1.8165993490443403e-02
      -6.4183535700447047e-02 -3.3841114632054345e-02
      -5.9578904448800089e-02 1.7529405604696888e-02
      2.8501893645270997e-02 3.1624031200249487e-02
      -9.1034591789203048e-02 -1.0876648796990258e-01
      -5.1936532840363963e-03 -5.1859948354133677e-02
      3.8081574731965523e-02 1.1570985683287844e-02
      2.1816040613432564e-02 -4.1641419397060675e-02
      -6.1005834140562328e-02 -7.0273704262816226e-03
      -7.4619983623418332e-02 1.0660530988915483e-01
      -3.0169302576550538e-02 -2.5403386441604326e-02
      3.6088216881626937e-02 4.8547384293806964e-02
      -7.4919100823858095e-02 -6.1508428609367068e-02
      -3.0895536247438547e-02 9.4716362567025224e-03
      2.7212064917147723e-02 -1.2222094338339070e-02
      5.7846568610257785e-03 -6.1167298719244567e-03
      -2.6006746365065145e-03 4.8037870911816445e-02
      5.6263637834843706e-02 -5.6501234532053482e-02
      5.0698884608981259e-03 -1.4718933247148739e-02
      1.1031175404980062e-02 5.9767245770744248e-03
      3.0708553018712482e-02 7.9661074259959178e-02
      4.7520187493407695e-02 -5.8478773165417060e-02
      6.7231019045227887e-03 -1.3959329758236915e-02
      -4.2701024603601007e-02 1.9718189095076662e-02
      5.2973298056803696e-02 1.2020057567298452e-02
      -6.0678835138764674e-02 2.4224204293058303e-02
      3.5724853964242978e-02 8.3113395308957824e-02
      -5.4805218079661287e-02 -1.3706395545480470e-02
      -8.1027396325426909e-02 -7.2200136812710591e-02
      9.1739633461362432e-03 7.4472701979173134e-04
      1.1974812777302129e-02 5.1801351741234181e-02
      -3.5289342277665219e-02 3.7737190416138018e-03
      -1.4922505024597289e-02 -5.5224901237037334e-02
      3.0659061204318619e-02 2.1024215941846253e-03
      1.6889519379106432e-02 1.0802852437280027e-03
      1.4302171161841468e-02 1.2310442000830498e-02
      -4.2424615802085924e-02 -4.7906908277232041e-02
      1.3328874152287604e-01 1.4435303392958237e-02
      -6.4936920258872460e-02 4.6299458225586190e-02
      6.2533508190111137e-02 -6.8553576327767235e-02
      3.4820242503617878e-02 -3.3382444751046111e-02
      9.2443174001722209e-02 4.2179693223560889e-02
      -5.3081301183522276e-03 -4.1573383844814751e-02
      3.4929757830709771e-02 -6.9690064752150310e-02
      7.2392137687712813e-02 7.7750551932824263e-02
      3.1885609978983598e-02 1.2578233261021290e-03
      3.5862827369588644e-02 -3.1488805830823109e-03
      -6.7404594663931826e-03 -7.2022131787013707e-02
      -4.0219791590617608e-02 8.1607497610838908e-02
      1.8085776951596400e-02 3.0130992424464782e-02
      1.3114669925014862e-02 2.9013290188466035e-02
      6.1068773607431445e-02 5.3413352988244525e-02
      -1.1535676773734686e-03 -4.1578845115716433e-02
      -4.5837641172725395e-02 -1.1422875365350990e-02
      7.1183933158028831e-02 9.6785560442689336e-02
      1.3270460070664347e-02 4.5264422072475850e-02
      -2.3743186901649432e-02 1.5942639156404991e-02
      -4.7860194478947689e-02 2.5281533066529036e-03
      6.3134595888496139e-02 -2.8160336854192766e-02
      7.4772465312258965e-02 -7.7386202250295383e-02
      5.5618808052333303e-02 4.3556857261299285e-02
      -4.5589122326924317e-02 -3.6487995821526786e-02
      -2.1064264547927938e-01 -5.2698365527808891e-02
      -3.6123306701804046e-02 4.7982972017008912e-03
      4.2131557229983713e-02 -3.4201005658798904e-02
      -1.1680602661386770e-02 1.3257946941449623e-02
      -3.8182761620297836e-02 5.1647089411945152e-02
      5.0473137582422938e-02 -2.0977247653638894e-02
      -2.2395676333356145e-02 1.0467039492178089e-02
      -7.9845968127956433e-03 -1.7647168832856941e-02
      5.5188942856856722e-02 7.1881730047236844e-02
      5.3966187864972530e-02 -5.2563187530284938e-02
      1.0453352544047405e-02 2.0280576612089450e-04
      -5.2772735743840227e-02 -7.6682066919869707e-03
      4.9936227683513024e-02 2.5783969318583681e-02
      -4.6445803650225125e-02 -4.1801869520698325e-03
      3.7962628434491739e-02 6.2510049373995513e-02
      -5.0346449502625581e-02 -2.7210113561071457e-03
      -6.2922100913961415e-02 -1.1627848715247323e-02
      -8.0289040127659202e-03 -3.8171393411593424e-02
      2.6140806472258488e-03 4.9232870025459466e-02
      -5.3696807197387772e-02 8.6894646653790444e-03
      -2.6713114253960378e-03 -5.0432774954555892e-02
      3.9675775411973341e-02 6.3113314348573384e-03
      -1.7225797649456569e-02 4.0669209871720235e-02
      -9.6992435998255141e-04 4.2145210969092552e-02
      1.1060452316251600e-02 -5.4828787507351442e-02
      5.2989363894366603e-01 -2.0610392916080272e-02
      -5.9414251790308542e-02 -5.7514800176386750e-03
      5.3919777505144373e-02 -5.3095295191553100e-02
      9.2736658106567116e-04 1.0649570294854551e-02
      7.5409581418298191e-02 3.3807257902883497e-02
      4.2324773698951086e-03 -5.1150632698589681e-02
      -2.3179060355675126e-02 -7.8205108290256065e-02
      3.6012004433833303e-02 5.7796652516892616e-02
      1.2211676846616591e-02 -1.0520721340960476e-01
      3.8989870935243150e-02 4.2119405461132159e-02
      -4.6418472517679908e-02 -4.3158155906560150e-02
      3.6116214090722895e-02 5.4330393122968591e-02
      -1.7844621425482484e-02 -2.1405036401499229e-02
      -5.1738670533792086e-03 9.7923462122661634e-02
      6.0731001517877650e-02 -3.5723691429150037e-02
      2.9646691927382791e-02 -3.1287343295064458e-03
      3.6840354993328037e-02 -1.0536963712281994e-01
      5.7503188253937743e-02 7.7202448703448251e-02
      4.3758113236463510e-02 4.9448955668849416e-02
      -2.6461978323375410e-02 -3.7343042506274349e-02
      -1.0011139268011051e-02 4.3611741805721291e-02
      5.6945409505693476e-02 -6.5166553529163894e-03
      7.6560237250021160e-02 -6.5658984275952223e-02
      1.0180658965378135e-02 7.4926941810063820e-03
      -7.0919774599932636e-02 -1.9182384622017698e-02
      3.0800019544353774e-01 4.3553402421832810e-02
      -3.8311488852184182e-02 3.0135254095446779e-02
      3.1679170806543928e-02 -4.5866331534688547e-02
      4.0786312739298072e-02 -3.9438852155740355e-02
      6.0379126530806286e-02 7.0728762603648960e-03
      -3.6486726170890944e-02 1.1086357500448516e-02
      4.2337054777618822e-02 -4.9823309326748506e-02
      5.8710916702355391e-02 5.9112568331201709e-02
      1.8041684304118441e-02 -1.3046943222687810e-01
      -1.2987430040823086e-02 2.3468110256617151e-02
      -2.4995750536429880e-02 -5.5244245290386608e-02
      3.7099437135604478e-02 7.0660579123938555e-02
      -3.5477817842406245e-03 4.7408634092024971e-03
      4.5331690810056328e-02 5.3124267988116647e-02
      4.4513721135679495e-02 -2.8028871947337268e-02
      3.2852822402483488e-02 -3.6446189669000637e-02
      2.2433205357413440e-02 -4.6419668975535081e-02
      4.8268361969330778e-02 5.5202288595506632e-02
      3.6741462189263996e-02 -1.7384771172987337e-02
      -5.7228597761187217e-04 -5.9331777155582485e-03
      -4.2469421391886003e-02 2.5219908246147647e-02
      3.4589156922067293e-02 -1.9153377637571981e-02
      5.7756209008847620e-02 -4.7631735003370472e-02
      4.9899447187185780e-02 1.0673201583483291e-02
      -1.8494789807284116e-02 1.7620345017286841e-02
      -5.1463855084084109e-01 1.1342851188078571e-02
      5.0792239124629449e-02 -3.1601621537860634e-02
      -4.4130189129095658e-02 4.9231360539501633e-02
