<?xml version="1.0"?>
<opencv_storage>
<my_nn type_id="opencv-ml-ann-mlp">
  <layer_sizes type_id="opencv-matrix">
    <rows>1</rows>
    <cols>3</cols>
    <dt>i</dt>
    <data>
      1558 20 2</data></layer_sizes>
  <activation_function>SIGMOID_SYM</activation_function>
  <f_param1>5.9999999999999998e-01</f_param1>
  <f_param2>1.</f_param2>
  <min_val>-9.4999999999999996e-01</min_val>
  <max_val>9.4999999999999996e-01</max_val>
  <min_val1>-9.7999999999999998e-01</min_val1>
  <max_val1>9.7999999999999998e-01</max_val1>
  <training_params>
    <train_method>BACKPROP</train_method>
    <dw_scale>1.0000000000000001e-01</dw_scale>
    <moment_scale>1.0000000000000001e-01</moment_scale>
    <term_criteria><epsilon>9.9999999747524271e-07</epsilon>
      <iterations>1000</iterations></term_criteria></training_params>
  <input_scale>
    1.8300191378858788e-02 -1.1539702932589051e+00
    7.8304672878783538e-03 -1.1857029409908404e+00
    1.9390390195944426e-01 -7.1541311034052346e-01
    2.3540320703752764e+00 -1.7977951803663625e+00
    2.0054986879841749e+01 -4.9987504685547732e-02 1. 0.
    1.1607793383580484e+01 -8.6798056208228933e-02
    1.3541386566673944e+01 -7.4254861532110361e-02
    1.3541386566673944e+01 -7.4254861532110361e-02
    7.8615904616149717e+00 -1.2932825784311769e-01
    1.4963067721862023e+01 -6.7132407525801699e-02
    1.1242021179530175e+01 -8.9667167932444058e-02
    9.6017137476335748e+00 -1.0530294239677898e-01 1. 0.
    1.1242021179530175e+01 -8.9667167932444058e-02
    1.3541386566673944e+01 -7.4254861532110361e-02
    2.2416556336823863e+01 -4.4699015626767417e-02
    1.2968141143619201e+01 -7.7576118506196626e-02
    1.1607793383580484e+01 -8.6798056208228933e-02
    1.6958034388522272e+01 -5.9175593579090677e-02
    1.4198767904999364e+01 -7.0781495039877185e-02
    1.1607793383580484e+01 -8.6798056208228933e-02
    1.2462512392675762e+01 -8.0764038437081215e-02
    1.2012191406989986e+01 -8.3833838333928115e-02
    1.4198767904999364e+01 -7.0781495039877185e-02
    1.5866757828995944e+01 -6.3277199716833266e-02
    3.1685974783869160e+01 -3.1591201180328175e-02
    1.0065290382967309e+01 -1.0035184828481863e-01
    1.6958034388522272e+01 -5.9175593579090677e-02
    4.4799559135700399e+01 -2.2332781224177665e-02
    1.6958034388522272e+01 -5.9175593579090677e-02
    1.2968141143619201e+01 -7.7576118506196626e-02
    1.6958034388522272e+01 -5.9175593579090677e-02 1. 0.
    6.4144806782925263e+00 -1.5988236984776985e-01
    1.2462512392675762e+01 -8.0764038437081215e-02
    1.4198767904999364e+01 -7.0781495039877185e-02
    1.3541386566673944e+01 -7.4254861532110361e-02 1. 0.
    1.3541386566673944e+01 -7.4254861532110361e-02
    1.3541386566673944e+01 -7.4254861532110361e-02
    1.2462512392675762e+01 -8.0764038437081215e-02
    8.5239083087336400e+00 -1.1897778297335090e-01
    1.2012191406989986e+01 -8.3833838333928115e-02
    1.6958034388522272e+01 -5.9175593579090677e-02 1. 0.
    1.6958034388522272e+01 -5.9175593579090677e-02
    9.0140235127796835e+00 -1.1233827907252845e-01
    2.5877947453769135e+01 -3.8700818724480265e-02
    1.2012191406989986e+01 -8.3833838333928115e-02
    1.0909103859096174e+01 -9.2450032704204863e-02
    1.4963067721862023e+01 -6.7132407525801699e-02
    1.0604409402243963e+01 -9.5154221954332679e-02 1. 0.
    1.3541386566673944e+01 -7.4254861532110361e-02
    1.6958034388522272e+01 -5.9175593579090677e-02
    6.6109638401973907e+00 -1.5489297133064672e-01
    1.2968141143619201e+01 -7.7576118506196626e-02
    1.3541386566673944e+01 -7.4254861532110361e-02
    1.4198767904999364e+01 -7.0781495039877185e-02
    4.4799559135700399e+01 -2.2332781224177665e-02 1. 0. 1. 0.
    1.3541386566673944e+01 -7.4254861532110361e-02
    3.8018616885482004e+00 -2.8428676634208877e-01
    1.2012191406989986e+01 -8.3833838333928115e-02
    1.4198767904999364e+01 -7.0781495039877185e-02
    7.2426324346772191e+00 -1.4080890575892899e-01 1. 0.
    1.1242021179530175e+01 -8.9667167932444058e-02
    1.1242021179530175e+01 -8.9667167932444058e-02
    1.0324171130043423e+01 -9.7786266934608693e-02
    1.3541386566673944e+01 -7.4254861532110361e-02
    1.0324171130043423e+01 -9.7786266934608693e-02
    7.3354469957392476e+00 -1.3895662304989601e-01
    1.4198767904999364e+01 -7.0781495039877185e-02
    4.4799559135700399e+01 -2.2332781224177665e-02 1. 0. 1. 0.
    1.8312190839256051e+01 -5.4772255750516606e-02
    1.0909103859096174e+01 -9.2450032704204863e-02 1. 0. 1. 0.
    8.8412090500664817e+00 -1.1459194182538809e-01
    1.1607793383580484e+01 -8.6798056208228933e-02
    1.2012191406989986e+01 -8.3833838333928115e-02
    1.3541386566673944e+01 -7.4254861532110361e-02
    1.6958034388522272e+01 -5.9175593579090677e-02
    1.1242021179530175e+01 -8.9667167932444058e-02
    1.3541386566673944e+01 -7.4254861532110361e-02
    4.4799559135700399e+01 -2.2332781224177665e-02
    1.2462512392675762e+01 -8.0764038437081215e-02 1. 0.
    1.4963067721862023e+01 -6.7132407525801699e-02
    1.3541386566673944e+01 -7.4254861532110361e-02
    1.3541386566673944e+01 -7.4254861532110361e-02
    1.2462512392675762e+01 -8.0764038437081215e-02
    1.4963067721862023e+01 -6.7132407525801699e-02
    2.0054986879841749e+01 -4.9987504685547732e-02
    1.0065290382967309e+01 -1.0035184828481863e-01
    1.8312190839256051e+01 -5.4772255750516606e-02
    1.8312190839256051e+01 -5.4772255750516606e-02
    1.1607793383580484e+01 -8.6798056208228933e-02
    1.4198767904999364e+01 -7.0781495039877185e-02
    3.1685974783869160e+01 -3.1591201180328175e-02
    6.6109638401973907e+00 -1.5489297133064672e-01
    1.6958034388522272e+01 -5.9175593579090677e-02
    1.0324171130043423e+01 -9.7786266934608693e-02
    2.0054986879841749e+01 -4.9987504685547732e-02
    1.3541386566673944e+01 -7.4254861532110361e-02
    1.0909103859096174e+01 -9.2450032704204863e-02 1. 0.
    9.1975780678481218e+00 -1.1004081437106428e-01
    9.0140235127796835e+00 -1.1233827907252845e-01
    1.8312190839256051e+01 -5.4772255750516606e-02 1. 0. 1. 0.
    1.0065290382967309e+01 -1.0035184828481863e-01
    9.8251915436238537e+00 -1.0285594337791672e-01
    1.0324171130043423e+01 -9.7786266934608693e-02
    6.9845035393091228e+00 -1.4623586672531563e-01 1. 0.
    1.3541386566673944e+01 -7.4254861532110361e-02
    1.2968141143619201e+01 -7.7576118506196626e-02
    1.3541386566673944e+01 -7.4254861532110361e-02 1. 0.
    1.4963067721862023e+01 -6.7132407525801699e-02
    4.4799559135700399e+01 -2.2332781224177665e-02
    1.1607793383580484e+01 -8.6798056208228933e-02
    1.8312190839256051e+01 -5.4772255750516606e-02
    1.1607793383580484e+01 -8.6798056208228933e-02
    1.2968141143619201e+01 -7.7576118506196626e-02
    1.0324171130043423e+01 -9.7786266934608693e-02
    6.4144806782925263e+00 -1.5988236984776985e-01
    1.1607793383580484e+01 -8.6798056208228933e-02
    1.2462512392675762e+01 -8.0764038437081215e-02
    2.0054986879841749e+01 -4.9987504685547732e-02
    4.4799559135700399e+01 -2.2332781224177665e-02
    1.1607793383580484e+01 -8.6798056208228933e-02
    9.3930287922664117e+00 -1.0769674088839853e-01
    1.6958034388522272e+01 -5.9175593579090677e-02
    1.2462512392675762e+01 -8.0764038437081215e-02
    1.4963067721862023e+01 -6.7132407525801699e-02
    1.3541386566673944e+01 -7.4254861532110361e-02
    1.2012191406989986e+01 -8.3833838333928115e-02
    6.1786577897286383e+00 -1.6632478596477890e-01 1. 0.
    1.1607793383580484e+01 -8.6798056208228933e-02
    1.4198767904999364e+01 -7.0781495039877185e-02
    1.4198767904999364e+01 -7.0781495039877185e-02
    1.5866757828995944e+01 -6.3277199716833266e-02
    9.1975780678481218e+00 -1.1004081437106428e-01
    1.3541386566673944e+01 -7.4254861532110361e-02
    1.0324171130043423e+01 -9.7786266934608693e-02
    1.4198767904999364e+01 -7.0781495039877185e-02
    1.2968141143619201e+01 -7.7576118506196626e-02
    1.0909103859096174e+01 -9.2450032704204863e-02
    1.1607793383580484e+01 -8.6798056208228933e-02
    1.1242021179530175e+01 -8.9667167932444058e-02
    2.5877947453769135e+01 -3.8700818724480265e-02
    2.5877947453769135e+01 -3.8700818724480265e-02 1. 0. 1. 0.
    1.2462512392675762e+01 -8.0764038437081215e-02 1. 0.
    2.2416556336823863e+01 -4.4699015626767417e-02
    1.4963067721862023e+01 -6.7132407525801699e-02
    8.6781299569933310e+00 -1.1680434139522429e-01
    1.3541386566673944e+01 -7.4254861532110361e-02
    1.2462512392675762e+01 -8.0764038437081215e-02 1. 0.
    1.2968141143619201e+01 -7.7576118506196626e-02
    5.6900532260917345e+00 -1.8153709195905832e-01
    8.5239083087336400e+00 -1.1897778297335090e-01
    2.2416556336823863e+01 -4.4699015626767417e-02
    2.5877947453769135e+01 -3.8700818724480265e-02
    1.4198767904999364e+01 -7.0781495039877185e-02
    1.2012191406989986e+01 -8.3833838333928115e-02
    1.0604409402243963e+01 -9.5154221954332679e-02 1. 0.
    1.4198767904999364e+01 -7.0781495039877185e-02
    1.4198767904999364e+01 -7.0781495039877185e-02
    1.6958034388522272e+01 -5.9175593579090677e-02
    4.4799559135700399e+01 -2.2332781224177665e-02 1. 0. 1. 0.
    9.0140235127796835e+00 -1.1233827907252845e-01
    2.1481246981231843e+00 -6.8213132238507901e-01
    1.4198767904999364e+01 -7.0781495039877185e-02
    1.2968141143619201e+01 -7.7576118506196626e-02
    8.6781299569933310e+00 -1.1680434139522429e-01
    1.4198767904999364e+01 -7.0781495039877185e-02
    2.6003136563288560e+00 -4.6924902472135888e-01
    1.3541386566673944e+01 -7.4254861532110361e-02
    1.8312190839256051e+01 -5.4772255750516606e-02
    9.8251915436238537e+00 -1.0285594337791672e-01
    4.4799559135700399e+01 -2.2332781224177665e-02
    1.4198767904999364e+01 -7.0781495039877185e-02
    1.6958034388522272e+01 -5.9175593579090677e-02
    9.6017137476335748e+00 -1.0530294239677898e-01
    1.1607793383580484e+01 -8.6798056208228933e-02
    1.2968141143619201e+01 -7.7576118506196626e-02
    1.5866757828995944e+01 -6.3277199716833266e-02 1. 0.
    1.1242021179530175e+01 -8.9667167932444058e-02
    1.3541386566673944e+01 -7.4254861532110361e-02
    1.2012191406989986e+01 -8.3833838333928115e-02 1. 0.
    1.1607793383580484e+01 -8.6798056208228933e-02
    1.3541386566673944e+01 -7.4254861532110361e-02
    1.0065290382967309e+01 -1.0035184828481863e-01
    1.4198767904999364e+01 -7.0781495039877185e-02
    1.1242021179530175e+01 -8.9667167932444058e-02
    1.0065290382967309e+01 -1.0035184828481863e-01
    1.6958034388522272e+01 -5.9175593579090677e-02
    1.3541386566673944e+01 -7.4254861532110361e-02
    1.2968141143619201e+01 -7.7576118506196626e-02
    1.3541386566673944e+01 -7.4254861532110361e-02
    9.1975780678481218e+00 -1.1004081437106428e-01 1. 0.
    1.1607793383580484e+01 -8.6798056208228933e-02
    4.4799559135700399e+01 -2.2332781224177665e-02
    1.4198767904999364e+01 -7.0781495039877185e-02
    1.3541386566673944e+01 -7.4254861532110361e-02
    1.2462512392675762e+01 -8.0764038437081215e-02
    1.2968141143619201e+01 -7.7576118506196626e-02
    9.8251915436238537e+00 -1.0285594337791672e-01
    1.4963067721862023e+01 -6.7132407525801699e-02
    1.0604409402243963e+01 -9.5154221954332679e-02
    1.0324171130043423e+01 -9.7786266934608693e-02
    1.3541386566673944e+01 -7.4254861532110361e-02
    7.8615904616149717e+00 -1.2932825784311769e-01
    4.4799559135700399e+01 -2.2332781224177665e-02
    9.1975780678481218e+00 -1.1004081437106428e-01
    6.6109638401973907e+00 -1.5489297133064672e-01
    7.0673682802187265e+00 -1.4444770662461007e-01
    1.1607793383580484e+01 -8.6798056208228933e-02
    2.0054986879841749e+01 -4.9987504685547732e-02
    1.0324171130043423e+01 -9.7786266934608693e-02
    1.5866757828995944e+01 -6.3277199716833266e-02
    1.4198767904999364e+01 -7.0781495039877185e-02
    6.5434074821684707e+00 -1.5657206338189761e-01 1. 0.
    1.2968141143619201e+01 -7.7576118506196626e-02 1. 0.
    8.5239083087336400e+00 -1.1897778297335090e-01
    1.0909103859096174e+01 -9.2450032704204863e-02
    1.2968141143619201e+01 -7.7576118506196626e-02
    1.4198767904999364e+01 -7.0781495039877185e-02 1. 0.
    1.4963067721862023e+01 -6.7132407525801699e-02
    1.0909103859096174e+01 -9.2450032704204863e-02
    1.4963067721862023e+01 -6.7132407525801699e-02
    2.5877947453769135e+01 -3.8700818724480265e-02
    1.2462512392675762e+01 -8.0764038437081215e-02 1. 0.
    1.1607793383580484e+01 -8.6798056208228933e-02
    1.1242021179530175e+01 -8.9667167932444058e-02
    2.0054986879841749e+01 -4.9987504685547732e-02
    3.1685974783869160e+01 -3.1591201180328175e-02
    1.4198767904999364e+01 -7.0781495039877185e-02 1. 0.
    1.2462512392675762e+01 -8.0764038437081215e-02
    1.0065290382967309e+01 -1.0035184828481863e-01
    6.7528309066313392e+00 -1.5148424267119157e-01
    6.5434074821684707e+00 -1.5657206338189761e-01 1. 0.
    1.2968141143619201e+01 -7.7576118506196626e-02
    1.2968141143619201e+01 -7.7576118506196626e-02
    1.3541386566673944e+01 -7.4254861532110361e-02
    1.2012191406989986e+01 -8.3833838333928115e-02
    1.3541386566673944e+01 -7.4254861532110361e-02
    1.3541386566673944e+01 -7.4254861532110361e-02
    2.0054986879841749e+01 -4.9987504685547732e-02
    2.6003136563288560e+00 -4.6924902472135888e-01
    8.5239083087336400e+00 -1.1897778297335090e-01
    3.1685974783869160e+01 -3.1591201180328175e-02 1. 0.
    1.2462512392675762e+01 -8.0764038437081215e-02 1. 0. 1. 0.
    1.2462512392675762e+01 -8.0764038437081215e-02
    9.8251915436238537e+00 -1.0285594337791672e-01 1. 0.
    2.0054986879841749e+01 -4.9987504685547732e-02
    1.2012191406989986e+01 -8.3833838333928115e-02
    1.2462512392675762e+01 -8.0764038437081215e-02
    1.1242021179530175e+01 -8.9667167932444058e-02
    1.4963067721862023e+01 -6.7132407525801699e-02 1. 0.
    1.4963067721862023e+01 -6.7132407525801699e-02
    1.4198767904999364e+01 -7.0781495039877185e-02
    1.3541386566673944e+01 -7.4254861532110361e-02
    1.4198767904999364e+01 -7.0781495039877185e-02
    1.4198767904999364e+01 -7.0781495039877185e-02
    9.6017137476335748e+00 -1.0530294239677898e-01
    1.3541386566673944e+01 -7.4254861532110361e-02
    8.3777731219601375e+00 -1.2111436716692123e-01
    1.5866757828995944e+01 -6.3277199716833266e-02
    9.1975780678481218e+00 -1.1004081437106428e-01
    1.3541386566673944e+01 -7.4254861532110361e-02
    1.0065290382967309e+01 -1.0035184828481863e-01
    1.4198767904999364e+01 -7.0781495039877185e-02
    9.1975780678481218e+00 -1.1004081437106428e-01
    1.1242021179530175e+01 -8.9667167932444058e-02
    1.5866757828995944e+01 -6.3277199716833266e-02
    1.4198767904999364e+01 -7.0781495039877185e-02
    4.4799559135700399e+01 -2.2332781224177665e-02 1. 0.
    1.4198767904999364e+01 -7.0781495039877185e-02
    1.2012191406989986e+01 -8.3833838333928115e-02
    1.3541386566673944e+01 -7.4254861532110361e-02
    1.2462512392675762e+01 -8.0764038437081215e-02
    1.2012191406989986e+01 -8.3833838333928115e-02 1. 0.
    1.4198767904999364e+01 -7.0781495039877185e-02
    2.5877947453769135e+01 -3.8700818724480265e-02
    9.3930287922664117e+00 -1.0769674088839853e-01
    2.0054986879841749e+01 -4.9987504685547732e-02
    6.6109638401973907e+00 -1.5489297133064672e-01
    1.6958034388522272e+01 -5.9175593579090677e-02
    1.2462512392675762e+01 -8.0764038437081215e-02
    1.0065290382967309e+01 -1.0035184828481863e-01
    1.0065290382967309e+01 -1.0035184828481863e-01
    1.3541386566673944e+01 -7.4254861532110361e-02
    4.4799559135700399e+01 -2.2332781224177665e-02
    1.2462512392675762e+01 -8.0764038437081215e-02
    1.8312190839256051e+01 -5.4772255750516606e-02
    1.6958034388522272e+01 -5.9175593579090677e-02
    1.1242021179530175e+01 -8.9667167932444058e-02
    8.3777731219601375e+00 -1.2111436716692123e-01
    1.1607793383580484e+01 -8.6798056208228933e-02
    1.3541386566673944e+01 -7.4254861532110361e-02
    1.3541386566673944e+01 -7.4254861532110361e-02
    1.2462512392675762e+01 -8.0764038437081215e-02 1. 0.
    5.6900532260917345e+00 -1.8153709195905832e-01
    1.4198767904999364e+01 -7.0781495039877185e-02
    9.8251915436238537e+00 -1.0285594337791672e-01
    1.2462512392675762e+01 -8.0764038437081215e-02
    7.4320257992567234e+00 -1.3708123358549290e-01
    1.2012191406989986e+01 -8.3833838333928115e-02
    2.2416556336823863e+01 -4.4699015626767417e-02
    1.2968141143619201e+01 -7.7576118506196626e-02
    1.4963067721862023e+01 -6.7132407525801699e-02 1. 0.
    6.1786577897286383e+00 -1.6632478596477890e-01
    6.5434074821684707e+00 -1.5657206338189761e-01
    1.5866757828995944e+01 -6.3277199716833266e-02
    2.0054986879841749e+01 -4.9987504685547732e-02
    1.2012191406989986e+01 -8.3833838333928115e-02
    4.3925369109434662e+00 -2.4086692931394879e-01
    1.3541386566673944e+01 -7.4254861532110361e-02 1. 0.
    2.2416556336823863e+01 -4.4699015626767417e-02
    1.4198767904999364e+01 -7.0781495039877185e-02
    1.1242021179530175e+01 -8.9667167932444058e-02
    1.0324171130043423e+01 -9.7786266934608693e-02
    1.3541386566673944e+01 -7.4254861532110361e-02
    5.6900532260917345e+00 -1.8153709195905832e-01
    1.2968141143619201e+01 -7.7576118506196626e-02
    6.6109638401973907e+00 -1.5489297133064672e-01
    1.0909103859096174e+01 -9.2450032704204863e-02
    1.1242021179530175e+01 -8.9667167932444058e-02
    1.3541386566673944e+01 -7.4254861532110361e-02
    1.3541386566673944e+01 -7.4254861532110361e-02
    6.7528309066313392e+00 -1.5148424267119157e-01
    1.2012191406989986e+01 -8.3833838333928115e-02 1. 0.
    1.3541386566673944e+01 -7.4254861532110361e-02
    4.4799559135700399e+01 -2.2332781224177665e-02
    6.6109638401973907e+00 -1.5489297133064672e-01
    4.4799559135700399e+01 -2.2332781224177665e-02
    1.4963067721862023e+01 -6.7132407525801699e-02
    1.4198767904999364e+01 -7.0781495039877185e-02
    1.4198767904999364e+01 -7.0781495039877185e-02
    1.0065290382967309e+01 -1.0035184828481863e-01
    6.6109638401973907e+00 -1.5489297133064672e-01
    1.1607793383580484e+01 -8.6798056208228933e-02
    3.1685974783869160e+01 -3.1591201180328175e-02
    1.4198767904999364e+01 -7.0781495039877185e-02
    1.0324171130043423e+01 -9.7786266934608693e-02 1. 0.
    1.2462512392675762e+01 -8.0764038437081215e-02
    8.5239083087336400e+00 -1.1897778297335090e-01
    1.1242021179530175e+01 -8.9667167932444058e-02
    7.9814604390183508e+00 -1.2732140281584606e-01 1. 0. 1. 0.
    1.1607793383580484e+01 -8.6798056208228933e-02 1. 0.
    1.1607793383580484e+01 -8.6798056208228933e-02
    1.5866757828995944e+01 -6.3277199716833266e-02
    1.1607793383580484e+01 -8.6798056208228933e-02
    2.0054986879841749e+01 -4.9987504685547732e-02
    1.4198767904999364e+01 -7.0781495039877185e-02
    1.4198767904999364e+01 -7.0781495039877185e-02
    1.2012191406989986e+01 -8.3833838333928115e-02
    6.9045686351696496e+00 -1.4800421301709618e-01
    1.6958034388522272e+01 -5.9175593579090677e-02
    1.4198767904999364e+01 -7.0781495039877185e-02
    4.4799559135700399e+01 -2.2332781224177665e-02
    1.1607793383580484e+01 -8.6798056208228933e-02
    1.1242021179530175e+01 -8.9667167932444058e-02
    1.3541386566673944e+01 -7.4254861532110361e-02
    1.1607793383580484e+01 -8.6798056208228933e-02
    3.1685974783869160e+01 -3.1591201180328175e-02
    1.1242021179530175e+01 -8.9667167932444058e-02
    1.0065290382967309e+01 -1.0035184828481863e-01
    1.2462512392675762e+01 -8.0764038437081215e-02
    4.4799559135700399e+01 -2.2332781224177665e-02
    9.8251915436238537e+00 -1.0285594337791672e-01
    1.6958034388522272e+01 -5.9175593579090677e-02 1. 0. 1. 0.
    1.0909103859096174e+01 -9.2450032704204863e-02
    1.3541386566673944e+01 -7.4254861532110361e-02
    1.4963067721862023e+01 -6.7132407525801699e-02
    1.4198767904999364e+01 -7.0781495039877185e-02
    1.2462512392675762e+01 -8.0764038437081215e-02
    4.0475725769778741e+00 -2.6432303468798679e-01 1. 0.
    1.4198767904999364e+01 -7.0781495039877185e-02
    1.6958034388522272e+01 -5.9175593579090677e-02
    1.4198767904999364e+01 -7.0781495039877185e-02
    1.2968141143619201e+01 -7.7576118506196626e-02
    2.5877947453769135e+01 -3.8700818724480265e-02
    1.2968141143619201e+01 -7.7576118506196626e-02
    2.5877947453769135e+01 -3.8700818724480265e-02
    4.4699348737505122e+00 -2.3619795444544081e-01
    1.2968141143619201e+01 -7.7576118506196626e-02
    2.2416556336823863e+01 -4.4699015626767417e-02
    1.2968141143619201e+01 -7.7576118506196626e-02
    1.8312190839256051e+01 -5.4772255750516606e-02
    6.6109638401973907e+00 -1.5489297133064672e-01
    1.2012191406989986e+01 -8.3833838333928115e-02
    4.4799559135700399e+01 -2.2332781224177665e-02
    1.4198767904999364e+01 -7.0781495039877185e-02 1. 0.
    1.8312190839256051e+01 -5.4772255750516606e-02
    1.2968141143619201e+01 -7.7576118506196626e-02
    9.0140235127796835e+00 -1.1233827907252845e-01
    1.3541386566673944e+01 -7.4254861532110361e-02
    1.4198767904999364e+01 -7.0781495039877185e-02
    1.4198767904999364e+01 -7.0781495039877185e-02
    1.4198767904999364e+01 -7.0781495039877185e-02
    1.4198767904999364e+01 -7.0781495039877185e-02 1. 0.
    1.3541386566673944e+01 -7.4254861532110361e-02
    1.2012191406989986e+01 -8.3833838333928115e-02
    1.2462512392675762e+01 -8.0764038437081215e-02
    1.5866757828995944e+01 -6.3277199716833266e-02
    1.4963067721862023e+01 -6.7132407525801699e-02
    1.4198767904999364e+01 -7.0781495039877185e-02 1. 0.
    3.8018616885482004e+00 -2.8428676634208877e-01
    3.1685974783869160e+01 -3.1591201180328175e-02
    5.3401514198301356e+00 -1.9433252923609165e-01
    1.3541386566673944e+01 -7.4254861532110361e-02
    1.4963067721862023e+01 -6.7132407525801699e-02 1. 0.
    2.5877947453769135e+01 -3.8700818724480265e-02 1. 0.
    1.2968141143619201e+01 -7.7576118506196626e-02
    1.5866757828995944e+01 -6.3277199716833266e-02
    1.0065290382967309e+01 -1.0035184828481863e-01 1. 0. 1. 0.
    1.3541386566673944e+01 -7.4254861532110361e-02 1. 0.
    1.2462512392675762e+01 -8.0764038437081215e-02
    1.2012191406989986e+01 -8.3833838333928115e-02
    1.4198767904999364e+01 -7.0781495039877185e-02
    1.4198767904999364e+01 -7.0781495039877185e-02
    3.1685974783869160e+01 -3.1591201180328175e-02
    1.4963067721862023e+01 -6.7132407525801699e-02
    1.3541386566673944e+01 -7.4254861532110361e-02
    1.2462512392675762e+01 -8.0764038437081215e-02
    1.6958034388522272e+01 -5.9175593579090677e-02
    1.4198767904999364e+01 -7.0781495039877185e-02
    1.4198767904999364e+01 -7.0781495039877185e-02
    1.2462512392675762e+01 -8.0764038437081215e-02
    1.4198767904999364e+01 -7.0781495039877185e-02
    2.2416556336823863e+01 -4.4699015626767417e-02
    2.0054986879841749e+01 -4.9987504685547732e-02
    1.4198767904999364e+01 -7.0781495039877185e-02 1. 0. 1. 0.
    2.5877947453769135e+01 -3.8700818724480265e-02
    1.4963067721862023e+01 -6.7132407525801699e-02
    1.4963067721862023e+01 -6.7132407525801699e-02
    4.4799559135700399e+01 -2.2332781224177665e-02
    2.0054986879841749e+01 -4.9987504685547732e-02
    1.0065290382967309e+01 -1.0035184828481863e-01 1. 0.
    1.1607793383580484e+01 -8.6798056208228933e-02
    3.1685974783869160e+01 -3.1591201180328175e-02
    1.5866757828995944e+01 -6.3277199716833266e-02 1. 0.
    1.2012191406989986e+01 -8.3833838333928115e-02
    9.0140235127796835e+00 -1.1233827907252845e-01
    1.0065290382967309e+01 -1.0035184828481863e-01
    1.2012191406989986e+01 -8.3833838333928115e-02
    1.4963067721862023e+01 -6.7132407525801699e-02 1. 0.
    1.5866757828995944e+01 -6.3277199716833266e-02
    9.3930287922664117e+00 -1.0769674088839853e-01
    1.5866757828995944e+01 -6.3277199716833266e-02
    2.0054986879841749e+01 -4.9987504685547732e-02
    1.6958034388522272e+01 -5.9175593579090677e-02
    4.4799559135700399e+01 -2.2332781224177665e-02
    1.2462512392675762e+01 -8.0764038437081215e-02
    1.8312190839256051e+01 -5.4772255750516606e-02
    1.0909103859096174e+01 -9.2450032704204863e-02
    1.0065290382967309e+01 -1.0035184828481863e-01 1. 0.
    1.4963067721862023e+01 -6.7132407525801699e-02
    1.0604409402243963e+01 -9.5154221954332679e-02
    1.4198767904999364e+01 -7.0781495039877185e-02
    1.4198767904999364e+01 -7.0781495039877185e-02
    3.6910938608345885e+00 -2.9440429597883061e-01
    6.6109638401973907e+00 -1.5489297133064672e-01
    1.4198767904999364e+01 -7.0781495039877185e-02
    1.0324171130043423e+01 -9.7786266934608693e-02
    1.3541386566673944e+01 -7.4254861532110361e-02
    8.8412090500664817e+00 -1.1459194182538809e-01
    1.5866757828995944e+01 -6.3277199716833266e-02
    2.5877947453769135e+01 -3.8700818724480265e-02
    1.2968141143619201e+01 -7.7576118506196626e-02
    1.0604409402243963e+01 -9.5154221954332679e-02
    6.6109638401973907e+00 -1.5489297133064672e-01
    1.4963067721862023e+01 -6.7132407525801699e-02 1. 0.
    1.4198767904999364e+01 -7.0781495039877185e-02
    3.1685974783869160e+01 -3.1591201180328175e-02
    3.1685974783869160e+01 -3.1591201180328175e-02
    1.2012191406989986e+01 -8.3833838333928115e-02
    1.3541386566673944e+01 -7.4254861532110361e-02
    9.8251915436238537e+00 -1.0285594337791672e-01
    1.8312190839256051e+01 -5.4772255750516606e-02
    5.6900532260917345e+00 -1.8153709195905832e-01
    1.4963067721862023e+01 -6.7132407525801699e-02
    1.4198767904999364e+01 -7.0781495039877185e-02 1. 0.
    1.3541386566673944e+01 -7.4254861532110361e-02
    9.8251915436238537e+00 -1.0285594337791672e-01
    1.4198767904999364e+01 -7.0781495039877185e-02
    4.4799559135700399e+01 -2.2332781224177665e-02
    2.5702976574365763e+00 -4.7792673291318194e-01
    2.2416556336823863e+01 -4.4699015626767417e-02
    9.8251915436238537e+00 -1.0285594337791672e-01
    6.6109638401973907e+00 -1.5489297133064672e-01 1. 0.
    1.0324171130043423e+01 -9.7786266934608693e-02
    5.4870835481283429e+00 -1.8873816790670772e-01
    1.2462512392675762e+01 -8.0764038437081215e-02
    5.6900532260917345e+00 -1.8153709195905832e-01
    2.5877947453769135e+01 -3.8700818724480265e-02
    1.0604409402243963e+01 -9.5154221954332679e-02
    1.0065290382967309e+01 -1.0035184828481863e-01
    1.6958034388522272e+01 -5.9175593579090677e-02
    1.2012191406989986e+01 -8.3833838333928115e-02
    2.2416556336823863e+01 -4.4699015626767417e-02
    1.5866757828995944e+01 -6.3277199716833266e-02
    1.0065290382967309e+01 -1.0035184828481863e-01
    1.4963067721862023e+01 -6.7132407525801699e-02
    1.5866757828995944e+01 -6.3277199716833266e-02
    4.4799559135700399e+01 -2.2332781224177665e-02 1. 0. 1. 0.
    2.0054986879841749e+01 -4.9987504685547732e-02
    1.0909103859096174e+01 -9.2450032704204863e-02
    1.4198767904999364e+01 -7.0781495039877185e-02
    3.3679342586173946e+00 -3.2907034630558790e-01 1. 0.
    1.3541386566673944e+01 -7.4254861532110361e-02
    1.2462512392675762e+01 -8.0764038437081215e-02 1. 0. 1. 0.
    8.5239083087336400e+00 -1.1897778297335090e-01
    2.0054986879841749e+01 -4.9987504685547732e-02 1. 0.
    1.2968141143619201e+01 -7.7576118506196626e-02
    1.4963067721862023e+01 -6.7132407525801699e-02
    1.0909103859096174e+01 -9.2450032704204863e-02
    1.2012191406989986e+01 -8.3833838333928115e-02
    1.2462512392675762e+01 -8.0764038437081215e-02
    1.1607793383580484e+01 -8.6798056208228933e-02
    1.5866757828995944e+01 -6.3277199716833266e-02
    9.6017137476335748e+00 -1.0530294239677898e-01 1. 0.
    8.5239083087336400e+00 -1.1897778297335090e-01
    1.0604409402243963e+01 -9.5154221954332679e-02
    1.6958034388522272e+01 -5.9175593579090677e-02
    1.2968141143619201e+01 -7.7576118506196626e-02 1. 0.
    2.5877947453769135e+01 -3.8700818724480265e-02
    1.4198767904999364e+01 -7.0781495039877185e-02
    2.0054986879841749e+01 -4.9987504685547732e-02
    1.5866757828995944e+01 -6.3277199716833266e-02
    1.0324171130043423e+01 -9.7786266934608693e-02
    3.1685974783869160e+01 -3.1591201180328175e-02
    4.7804199294350740e+00 -2.1924159197807916e-01
    1.4198767904999364e+01 -7.0781495039877185e-02
    1.0324171130043423e+01 -9.7786266934608693e-02
    2.5877947453769135e+01 -3.8700818724480265e-02 1. 0.
    1.2968141143619201e+01 -7.7576118506196626e-02
    1.0065290382967309e+01 -1.0035184828481863e-01
    1.2012191406989986e+01 -8.3833838333928115e-02
    1.3541386566673944e+01 -7.4254861532110361e-02
    1.0324171130043423e+01 -9.7786266934608693e-02
    1.5866757828995944e+01 -6.3277199716833266e-02
    1.4198767904999364e+01 -7.0781495039877185e-02
    3.1685974783869160e+01 -3.1591201180328175e-02
    2.5877947453769135e+01 -3.8700818724480265e-02
    1.4198767904999364e+01 -7.0781495039877185e-02
    9.0140235127796835e+00 -1.1233827907252845e-01
    1.1607793383580484e+01 -8.6798056208228933e-02
    1.3541386566673944e+01 -7.4254861532110361e-02
    1.4198767904999364e+01 -7.0781495039877185e-02
    1.3541386566673944e+01 -7.4254861532110361e-02
    1.1607793383580484e+01 -8.6798056208228933e-02
    1.2462512392675762e+01 -8.0764038437081215e-02
    3.1685974783869160e+01 -3.1591201180328175e-02
    1.3541386566673944e+01 -7.4254861532110361e-02
    2.0054986879841749e+01 -4.9987504685547732e-02
    1.0604409402243963e+01 -9.5154221954332679e-02
    1.2462512392675762e+01 -8.0764038437081215e-02 1. 0.
    6.6109638401973907e+00 -1.5489297133064672e-01 1. 0. 1. 0.
    1.2968141143619201e+01 -7.7576118506196626e-02
    3.1685974783869160e+01 -3.1591201180328175e-02
    1.4963067721862023e+01 -6.7132407525801699e-02
    1.8312190839256051e+01 -5.4772255750516606e-02
    1.4198767904999364e+01 -7.0781495039877185e-02
    1.0604409402243963e+01 -9.5154221954332679e-02
    1.6958034388522272e+01 -5.9175593579090677e-02
    1.4963067721862023e+01 -6.7132407525801699e-02
    4.4799559135700399e+01 -2.2332781224177665e-02
    1.0909103859096174e+01 -9.2450032704204863e-02
    1.4963067721862023e+01 -6.7132407525801699e-02
    1.2012191406989986e+01 -8.3833838333928115e-02
    9.0140235127796835e+00 -1.1233827907252845e-01
    8.6781299569933310e+00 -1.1680434139522429e-01
    3.1685974783869160e+01 -3.1591201180328175e-02
    6.4144806782925263e+00 -1.5988236984776985e-01
    1.2968141143619201e+01 -7.7576118506196626e-02
    7.2426324346772191e+00 -1.4080890575892899e-01
    6.6109638401973907e+00 -1.5489297133064672e-01
    9.3930287922664117e+00 -1.0769674088839853e-01 1. 0.
    1.2462512392675762e+01 -8.0764038437081215e-02
    8.3777731219601375e+00 -1.2111436716692123e-01
    2.2416556336823863e+01 -4.4699015626767417e-02
    1.0604409402243963e+01 -9.5154221954332679e-02
    1.1607793383580484e+01 -8.6798056208228933e-02
    2.5877947453769135e+01 -3.8700818724480265e-02
    3.1685974783869160e+01 -3.1591201180328175e-02
    1.1242021179530175e+01 -8.9667167932444058e-02
    4.4799559135700399e+01 -2.2332781224177665e-02
    1.2462512392675762e+01 -8.0764038437081215e-02
    1.3541386566673944e+01 -7.4254861532110361e-02
    1.8312190839256051e+01 -5.4772255750516606e-02
    1.4198767904999364e+01 -7.0781495039877185e-02 1. 0.
    1.4198767904999364e+01 -7.0781495039877185e-02
    1.3541386566673944e+01 -7.4254861532110361e-02
    3.1685974783869160e+01 -3.1591201180328175e-02
    1.8312190839256051e+01 -5.4772255750516606e-02
    2.2416556336823863e+01 -4.4699015626767417e-02
    1.1607793383580484e+01 -8.6798056208228933e-02
    1.2012191406989986e+01 -8.3833838333928115e-02
    2.0054986879841749e+01 -4.9987504685547732e-02
    9.3930287922664117e+00 -1.0769674088839853e-01
    1.8312190839256051e+01 -5.4772255750516606e-02
    1.4198767904999364e+01 -7.0781495039877185e-02
    9.3930287922664117e+00 -1.0769674088839853e-01
    9.8251915436238537e+00 -1.0285594337791672e-01
    1.6958034388522272e+01 -5.9175593579090677e-02
    1.2968141143619201e+01 -7.7576118506196626e-02
    1.4198767904999364e+01 -7.0781495039877185e-02
    1.4963067721862023e+01 -6.7132407525801699e-02
    1.0909103859096174e+01 -9.2450032704204863e-02
    2.2416556336823863e+01 -4.4699015626767417e-02
    1.4198767904999364e+01 -7.0781495039877185e-02
    1.2462512392675762e+01 -8.0764038437081215e-02
    1.5866757828995944e+01 -6.3277199716833266e-02
    1.1607793383580484e+01 -8.6798056208228933e-02
    2.2416556336823863e+01 -4.4699015626767417e-02 1. 0.
    1.2012191406989986e+01 -8.3833838333928115e-02
    1.0909103859096174e+01 -9.2450032704204863e-02
    1.3541386566673944e+01 -7.4254861532110361e-02
    1.5866757828995944e+01 -6.3277199716833266e-02
    1.0909103859096174e+01 -9.2450032704204863e-02
    1.4198767904999364e+01 -7.0781495039877185e-02
    1.0065290382967309e+01 -1.0035184828481863e-01
    7.3354469957392476e+00 -1.3895662304989601e-01
    9.6017137476335748e+00 -1.0530294239677898e-01
    1.5866757828995944e+01 -6.3277199716833266e-02
    1.2968141143619201e+01 -7.7576118506196626e-02
    1.4198767904999364e+01 -7.0781495039877185e-02 1. 0.
    1.1607793383580484e+01 -8.6798056208228933e-02
    1.4198767904999364e+01 -7.0781495039877185e-02
    1.6958034388522272e+01 -5.9175593579090677e-02
    1.4198767904999364e+01 -7.0781495039877185e-02
    4.4799559135700399e+01 -2.2332781224177665e-02
    1.4198767904999364e+01 -7.0781495039877185e-02
    1.3541386566673944e+01 -7.4254861532110361e-02
    1.5866757828995944e+01 -6.3277199716833266e-02
    1.2012191406989986e+01 -8.3833838333928115e-02
    9.8251915436238537e+00 -1.0285594337791672e-01
    1.0909103859096174e+01 -9.2450032704204863e-02
    1.0604409402243963e+01 -9.5154221954332679e-02 1. 0.
    1.4198767904999364e+01 -7.0781495039877185e-02
    1.2462512392675762e+01 -8.0764038437081215e-02
    1.2462512392675762e+01 -8.0764038437081215e-02
    1.2968141143619201e+01 -7.7576118506196626e-02
    1.2462512392675762e+01 -8.0764038437081215e-02
    1.2462512392675762e+01 -8.0764038437081215e-02
    7.3354469957392476e+00 -1.3895662304989601e-01
    4.4799559135700399e+01 -2.2332781224177665e-02
    1.6958034388522272e+01 -5.9175593579090677e-02
    1.2462512392675762e+01 -8.0764038437081215e-02
    1.4198767904999364e+01 -7.0781495039877185e-02
    3.1685974783869160e+01 -3.1591201180328175e-02
    4.4799559135700399e+01 -2.2332781224177665e-02 1. 0. 1. 0.
    1.2012191406989986e+01 -8.3833838333928115e-02 1. 0.
    1.3541386566673944e+01 -7.4254861532110361e-02 1. 0.
    1.0909103859096174e+01 -9.2450032704204863e-02 1. 0.
    1.4198767904999364e+01 -7.0781495039877185e-02
    1.3541386566673944e+01 -7.4254861532110361e-02
    1.4963067721862023e+01 -6.7132407525801699e-02
    1.1607793383580484e+01 -8.6798056208228933e-02
    1.4198767904999364e+01 -7.0781495039877185e-02 1. 0.
    1.4963067721862023e+01 -6.7132407525801699e-02
    1.0909103859096174e+01 -9.2450032704204863e-02 1. 0.
    1.5866757828995944e+01 -6.3277199716833266e-02
    1.3541386566673944e+01 -7.4254861532110361e-02
    1.2462512392675762e+01 -8.0764038437081215e-02
    1.6958034388522272e+01 -5.9175593579090677e-02
    1.5866757828995944e+01 -6.3277199716833266e-02 1. 0. 1. 0.
    1.3541386566673944e+01 -7.4254861532110361e-02
    1.0909103859096174e+01 -9.2450032704204863e-02
    9.6017137476335748e+00 -1.0530294239677898e-01
    6.4144806782925263e+00 -1.5988236984776985e-01
    1.3541386566673944e+01 -7.4254861532110361e-02
    1.0324171130043423e+01 -9.7786266934608693e-02
    1.2462512392675762e+01 -8.0764038437081215e-02
    1.0324171130043423e+01 -9.7786266934608693e-02
    3.1685974783869160e+01 -3.1591201180328175e-02
    2.2416556336823863e+01 -4.4699015626767417e-02
    1.2012191406989986e+01 -8.3833838333928115e-02
    1.4963067721862023e+01 -6.7132407525801699e-02
    4.4799559135700399e+01 -2.2332781224177665e-02
    1.2462512392675762e+01 -8.0764038437081215e-02 1. 0.
    8.5239083087336400e+00 -1.1897778297335090e-01
    1.2462512392675762e+01 -8.0764038437081215e-02
    1.4198767904999364e+01 -7.0781495039877185e-02
    1.4198767904999364e+01 -7.0781495039877185e-02
    1.4198767904999364e+01 -7.0781495039877185e-02
    1.4198767904999364e+01 -7.0781495039877185e-02
    1.4963067721862023e+01 -6.7132407525801699e-02
    1.3541386566673944e+01 -7.4254861532110361e-02
    1.4198767904999364e+01 -7.0781495039877185e-02
    1.0604409402243963e+01 -9.5154221954332679e-02
    1.8312190839256051e+01 -5.4772255750516606e-02 1. 0.
    1.4198767904999364e+01 -7.0781495039877185e-02 1. 0. 1. 0.
    1.3541386566673944e+01 -7.4254861532110361e-02
    1.8312190839256051e+01 -5.4772255750516606e-02
    4.4799559135700399e+01 -2.2332781224177665e-02
    9.8251915436238537e+00 -1.0285594337791672e-01
    1.4198767904999364e+01 -7.0781495039877185e-02
    1.3541386566673944e+01 -7.4254861532110361e-02 1. 0.
    8.5239083087336400e+00 -1.1897778297335090e-01
    1.8312190839256051e+01 -5.4772255750516606e-02
    1.4198767904999364e+01 -7.0781495039877185e-02
    1.4198767904999364e+01 -7.0781495039877185e-02
    8.5239083087336400e+00 -1.1897778297335090e-01
    4.4799559135700399e+01 -2.2332781224177665e-02
    1.8312190839256051e+01 -5.4772255750516606e-02
    1.4198767904999364e+01 -7.0781495039877185e-02
    1.3541386566673944e+01 -7.4254861532110361e-02
    2.5877947453769135e+01 -3.8700818724480265e-02
    1.8312190839256051e+01 -5.4772255750516606e-02
    1.3541386566673944e+01 -7.4254861532110361e-02
    1.4963067721862023e+01 -6.7132407525801699e-02
    1.2968141143619201e+01 -7.7576118506196626e-02
    1.0604409402243963e+01 -9.5154221954332679e-02
    1.0324171130043423e+01 -9.7786266934608693e-02
    8.6781299569933310e+00 -1.1680434139522429e-01
    1.2968141143619201e+01 -7.7576118506196626e-02
    1.4198767904999364e+01 -7.0781495039877185e-02
    1.2968141143619201e+01 -7.7576118506196626e-02
    1.2462512392675762e+01 -8.0764038437081215e-02 1. 0.
    1.5866757828995944e+01 -6.3277199716833266e-02
    1.2968141143619201e+01 -7.7576118506196626e-02
    1.4963067721862023e+01 -6.7132407525801699e-02
    9.3930287922664117e+00 -1.0769674088839853e-01
    1.0604409402243963e+01 -9.5154221954332679e-02
    2.5877947453769135e+01 -3.8700818724480265e-02
    3.1685974783869160e+01 -3.1591201180328175e-02
    2.0054986879841749e+01 -4.9987504685547732e-02
    1.0065290382967309e+01 -1.0035184828481863e-01
    1.4198767904999364e+01 -7.0781495039877185e-02
    1.4198767904999364e+01 -7.0781495039877185e-02
    1.2462512392675762e+01 -8.0764038437081215e-02
    1.3541386566673944e+01 -7.4254861532110361e-02
    1.4963067721862023e+01 -6.7132407525801699e-02
    1.1607793383580484e+01 -8.6798056208228933e-02
    1.2968141143619201e+01 -7.7576118506196626e-02
    1.4963067721862023e+01 -6.7132407525801699e-02
    1.2968141143619201e+01 -7.7576118506196626e-02
    1.0324171130043423e+01 -9.7786266934608693e-02
    1.1607793383580484e+01 -8.6798056208228933e-02
    1.0065290382967309e+01 -1.0035184828481863e-01
    1.4963067721862023e+01 -6.7132407525801699e-02
    1.2462512392675762e+01 -8.0764038437081215e-02
    1.4198767904999364e+01 -7.0781495039877185e-02
    2.0054986879841749e+01 -4.9987504685547732e-02
    1.2462512392675762e+01 -8.0764038437081215e-02
    1.1607793383580484e+01 -8.6798056208228933e-02
    1.5866757828995944e+01 -6.3277199716833266e-02
    1.2462512392675762e+01 -8.0764038437081215e-02
    2.5877947453769135e+01 -3.8700818724480265e-02
    1.2462512392675762e+01 -8.0764038437081215e-02
    1.2968141143619201e+01 -7.7576118506196626e-02 1. 0.
    1.4963067721862023e+01 -6.7132407525801699e-02
    1.6958034388522272e+01 -5.9175593579090677e-02
    1.0065290382967309e+01 -1.0035184828481863e-01
    9.6017137476335748e+00 -1.0530294239677898e-01
    1.0909103859096174e+01 -9.2450032704204863e-02
    2.0054986879841749e+01 -4.9987504685547732e-02
    1.0909103859096174e+01 -9.2450032704204863e-02
    1.4198767904999364e+01 -7.0781495039877185e-02
    1.1607793383580484e+01 -8.6798056208228933e-02
    1.0065290382967309e+01 -1.0035184828481863e-01
    1.2968141143619201e+01 -7.7576118506196626e-02
    1.4963067721862023e+01 -6.7132407525801699e-02
    1.4963067721862023e+01 -6.7132407525801699e-02
    1.3541386566673944e+01 -7.4254861532110361e-02 1. 0.
    1.2968141143619201e+01 -7.7576118506196626e-02
    1.8312190839256051e+01 -5.4772255750516606e-02
    1.0909103859096174e+01 -9.2450032704204863e-02
    1.1607793383580484e+01 -8.6798056208228933e-02
    1.2968141143619201e+01 -7.7576118506196626e-02
    1.2968141143619201e+01 -7.7576118506196626e-02
    9.1975780678481218e+00 -1.1004081437106428e-01
    1.4198767904999364e+01 -7.0781495039877185e-02
    1.0065290382967309e+01 -1.0035184828481863e-01
    1.2462512392675762e+01 -8.0764038437081215e-02
    1.4198767904999364e+01 -7.0781495039877185e-02
    8.3777731219601375e+00 -1.2111436716692123e-01 1. 0.
    1.2968141143619201e+01 -7.7576118506196626e-02
    4.4799559135700399e+01 -2.2332781224177665e-02
    1.2968141143619201e+01 -7.7576118506196626e-02
    1.2968141143619201e+01 -7.7576118506196626e-02
    3.1685974783869160e+01 -3.1591201180328175e-02
    1.6958034388522272e+01 -5.9175593579090677e-02
    1.6958034388522272e+01 -5.9175593579090677e-02
    1.4963067721862023e+01 -6.7132407525801699e-02
    6.4144806782925263e+00 -1.5988236984776985e-01
    1.0065290382967309e+01 -1.0035184828481863e-01
    2.5877947453769135e+01 -3.8700818724480265e-02
    1.2968141143619201e+01 -7.7576118506196626e-02
    3.1685974783869160e+01 -3.1591201180328175e-02
    1.6958034388522272e+01 -5.9175593579090677e-02
    1.2012191406989986e+01 -8.3833838333928115e-02
    1.2012191406989986e+01 -8.3833838333928115e-02
    9.3930287922664117e+00 -1.0769674088839853e-01 1. 0.
    4.4799559135700399e+01 -2.2332781224177665e-02
    1.4963067721862023e+01 -6.7132407525801699e-02
    1.0065290382967309e+01 -1.0035184828481863e-01
    2.0054986879841749e+01 -4.9987504685547732e-02
    1.4963067721862023e+01 -6.7132407525801699e-02
    1.5866757828995944e+01 -6.3277199716833266e-02
    1.4198767904999364e+01 -7.0781495039877185e-02
    1.2012191406989986e+01 -8.3833838333928115e-02
    1.0065290382967309e+01 -1.0035184828481863e-01
    4.4799559135700399e+01 -2.2332781224177665e-02 1. 0. 1. 0.
    1.8312190839256051e+01 -5.4772255750516606e-02
    1.2968141143619201e+01 -7.7576118506196626e-02
    1.0604409402243963e+01 -9.5154221954332679e-02
    1.2012191406989986e+01 -8.3833838333928115e-02
    3.1685974783869160e+01 -3.1591201180328175e-02
    1.4963067721862023e+01 -6.7132407525801699e-02
    2.0054986879841749e+01 -4.9987504685547732e-02
    1.3541386566673944e+01 -7.4254861532110361e-02
    5.6900532260917345e+00 -1.8153709195905832e-01
    2.2416556336823863e+01 -4.4699015626767417e-02
    6.6109638401973907e+00 -1.5489297133064672e-01
    2.5702976574365763e+00 -4.7792673291318194e-01
    1.4963067721862023e+01 -6.7132407525801699e-02
    7.3354469957392476e+00 -1.3895662304989601e-01
    1.0909103859096174e+01 -9.2450032704204863e-02
    9.8251915436238537e+00 -1.0285594337791672e-01 1. 0.
    1.8312190839256051e+01 -5.4772255750516606e-02
    1.2968141143619201e+01 -7.7576118506196626e-02
    1.3541386566673944e+01 -7.4254861532110361e-02
    1.0065290382967309e+01 -1.0035184828481863e-01
    1.2968141143619201e+01 -7.7576118506196626e-02
    2.5877947453769135e+01 -3.8700818724480265e-02
    1.0065290382967309e+01 -1.0035184828481863e-01
    1.2462512392675762e+01 -8.0764038437081215e-02
    2.5877947453769135e+01 -3.8700818724480265e-02
    7.3354469957392476e+00 -1.3895662304989601e-01 1. 0.
    1.2462512392675762e+01 -8.0764038437081215e-02
    2.2416556336823863e+01 -4.4699015626767417e-02
    1.4963067721862023e+01 -6.7132407525801699e-02
    1.2462512392675762e+01 -8.0764038437081215e-02
    4.7804199294350740e+00 -2.1924159197807916e-01
    2.0054986879841749e+01 -4.9987504685547732e-02 1. 0.
    1.2012191406989986e+01 -8.3833838333928115e-02
    1.4198767904999364e+01 -7.0781495039877185e-02
    1.4198767904999364e+01 -7.0781495039877185e-02
    1.4198767904999364e+01 -7.0781495039877185e-02
    3.1685974783869160e+01 -3.1591201180328175e-02
    1.3541386566673944e+01 -7.4254861532110361e-02
    4.0914584947770756e+00 -2.6107013326593503e-01
    1.4198767904999364e+01 -7.0781495039877185e-02
    1.5866757828995944e+01 -6.3277199716833266e-02
    6.6807308761788189e+00 -1.5319721849662296e-01
    1.3541386566673944e+01 -7.4254861532110361e-02
    1.3541386566673944e+01 -7.4254861532110361e-02
    9.3930287922664117e+00 -1.0769674088839853e-01
    1.5866757828995944e+01 -6.3277199716833266e-02
    1.4198767904999364e+01 -7.0781495039877185e-02
    1.1607793383580484e+01 -8.6798056208228933e-02 1. 0.
    1.5866757828995944e+01 -6.3277199716833266e-02
    1.1607793383580484e+01 -8.6798056208228933e-02
    9.1975780678481218e+00 -1.1004081437106428e-01
    1.3541386566673944e+01 -7.4254861532110361e-02
    6.3529064442863525e+00 -1.6151457061744964e-01
    1.4198767904999364e+01 -7.0781495039877185e-02
    1.3541386566673944e+01 -7.4254861532110361e-02
    9.1975780678481218e+00 -1.1004081437106428e-01 1. 0.
    9.1975780678481218e+00 -1.1004081437106428e-01
    4.9366358040689517e+00 -2.1164041832000491e-01
    3.1685974783869160e+01 -3.1591201180328175e-02
    2.0054986879841749e+01 -4.9987504685547732e-02
    1.2968141143619201e+01 -7.7576118506196626e-02
    8.8412090500664817e+00 -1.1459194182538809e-01
    1.8312190839256051e+01 -5.4772255750516606e-02
    1.2968141143619201e+01 -7.7576118506196626e-02
    1.2968141143619201e+01 -7.7576118506196626e-02
    1.4198767904999364e+01 -7.0781495039877185e-02
    6.6109638401973907e+00 -1.5489297133064672e-01
    1.2462512392675762e+01 -8.0764038437081215e-02
    1.5866757828995944e+01 -6.3277199716833266e-02 1. 0.
    9.3930287922664117e+00 -1.0769674088839853e-01
    9.3930287922664117e+00 -1.0769674088839853e-01
    9.3930287922664117e+00 -1.0769674088839853e-01
    1.2462512392675762e+01 -8.0764038437081215e-02
    1.5866757828995944e+01 -6.3277199716833266e-02
    1.4198767904999364e+01 -7.0781495039877185e-02
    1.2012191406989986e+01 -8.3833838333928115e-02 1. 0.
    1.8312190839256051e+01 -5.4772255750516606e-02
    1.0065290382967309e+01 -1.0035184828481863e-01
    1.6958034388522272e+01 -5.9175593579090677e-02
    1.2968141143619201e+01 -7.7576118506196626e-02
    1.0324171130043423e+01 -9.7786266934608693e-02
    1.1242021179530175e+01 -8.9667167932444058e-02
    9.8251915436238537e+00 -1.0285594337791672e-01
    1.3541386566673944e+01 -7.4254861532110361e-02
    1.6958034388522272e+01 -5.9175593579090677e-02
    5.0211389569762197e+00 -2.0775400470041189e-01
    1.6958034388522272e+01 -5.9175593579090677e-02
    8.8412090500664817e+00 -1.1459194182538809e-01
    2.5877947453769135e+01 -3.8700818724480265e-02
    1.2012191406989986e+01 -8.3833838333928115e-02
    1.2012191406989986e+01 -8.3833838333928115e-02 1. 0.
    1.3541386566673944e+01 -7.4254861532110361e-02
    6.5434074821684707e+00 -1.5657206338189761e-01
    2.5877947453769135e+01 -3.8700818724480265e-02
    1.3541386566673944e+01 -7.4254861532110361e-02
    1.5866757828995944e+01 -6.3277199716833266e-02
    1.4198767904999364e+01 -7.0781495039877185e-02
    4.4799559135700399e+01 -2.2332781224177665e-02 1. 0.
    1.6958034388522272e+01 -5.9175593579090677e-02
    1.4963067721862023e+01 -6.7132407525801699e-02
    6.1237993063275518e+00 -1.6790077858824295e-01
    1.3541386566673944e+01 -7.4254861532110361e-02
    1.4198767904999364e+01 -7.0781495039877185e-02
    6.5434074821684707e+00 -1.5657206338189761e-01
    9.0140235127796835e+00 -1.1233827907252845e-01 1. 0.
    1.3541386566673944e+01 -7.4254861532110361e-02
    7.8615904616149717e+00 -1.2932825784311769e-01
    1.2968141143619201e+01 -7.7576118506196626e-02
    1.2462512392675762e+01 -8.0764038437081215e-02
    1.2968141143619201e+01 -7.7576118506196626e-02
    6.1237993063275518e+00 -1.6790077858824295e-01
    1.5866757828995944e+01 -6.3277199716833266e-02
    1.0324171130043423e+01 -9.7786266934608693e-02
    1.6958034388522272e+01 -5.9175593579090677e-02
    1.6958034388522272e+01 -5.9175593579090677e-02
    9.1975780678481218e+00 -1.1004081437106428e-01
    4.4799559135700399e+01 -2.2332781224177665e-02 1. 0. 1. 0.
    1.0065290382967309e+01 -1.0035184828481863e-01
    1.2012191406989986e+01 -8.3833838333928115e-02 1. 0.
    9.1975780678481218e+00 -1.1004081437106428e-01
    1.1242021179530175e+01 -8.9667167932444058e-02
    8.6781299569933310e+00 -1.1680434139522429e-01
    1.8312190839256051e+01 -5.4772255750516606e-02
    1.4198767904999364e+01 -7.0781495039877185e-02
    5.8706188609216472e+00 -1.7559179045628057e-01
    1.6958034388522272e+01 -5.9175593579090677e-02
    1.2462512392675762e+01 -8.0764038437081215e-02
    1.0909103859096174e+01 -9.2450032704204863e-02
    5.5655055836125396e+00 -1.8588677672085749e-01
    1.4198767904999364e+01 -7.0781495039877185e-02
    1.2968141143619201e+01 -7.7576118506196626e-02
    1.0604409402243963e+01 -9.5154221954332679e-02
    1.5866757828995944e+01 -6.3277199716833266e-02
    9.8251915436238537e+00 -1.0285594337791672e-01
    1.8312190839256051e+01 -5.4772255750516606e-02
    1.2968141143619201e+01 -7.7576118506196626e-02
    1.3541386566673944e+01 -7.4254861532110361e-02
    1.5866757828995944e+01 -6.3277199716833266e-02
    1.2012191406989986e+01 -8.3833838333928115e-02
    6.6109638401973907e+00 -1.5489297133064672e-01
    1.0604409402243963e+01 -9.5154221954332679e-02
    8.2390441710735765e+00 -1.2321601452253603e-01 1. 0.
    6.6109638401973907e+00 -1.5489297133064672e-01
    1.6958034388522272e+01 -5.9175593579090677e-02
    2.0054986879841749e+01 -4.9987504685547732e-02
    1.4198767904999364e+01 -7.0781495039877185e-02
    1.3541386566673944e+01 -7.4254861532110361e-02
    1.0909103859096174e+01 -9.2450032704204863e-02 1. 0. 1. 0. 1. 0.
    1.1607793383580484e+01 -8.6798056208228933e-02
    1.5866757828995944e+01 -6.3277199716833266e-02
    1.2012191406989986e+01 -8.3833838333928115e-02
    6.6807308761788189e+00 -1.5319721849662296e-01
    1.2968141143619201e+01 -7.7576118506196626e-02 1. 0.
    1.4198767904999364e+01 -7.0781495039877185e-02
    4.4799559135700399e+01 -2.2332781224177665e-02
    1.4198767904999364e+01 -7.0781495039877185e-02
    1.0604409402243963e+01 -9.5154221954332679e-02
    1.4198767904999364e+01 -7.0781495039877185e-02
    9.3930287922664117e+00 -1.0769674088839853e-01
    1.1607793383580484e+01 -8.6798056208228933e-02
    1.6958034388522272e+01 -5.9175593579090677e-02
    1.2462512392675762e+01 -8.0764038437081215e-02
    1.2968141143619201e+01 -7.7576118506196626e-02
    4.4799559135700399e+01 -2.2332781224177665e-02
    1.8312190839256051e+01 -5.4772255750516606e-02
    7.0673682802187265e+00 -1.4444770662461007e-01
    2.0054986879841749e+01 -4.9987504685547732e-02
    2.0054986879841749e+01 -4.9987504685547732e-02
    1.4198767904999364e+01 -7.0781495039877185e-02
    1.2968141143619201e+01 -7.7576118506196626e-02
    2.0054986879841749e+01 -4.9987504685547732e-02 1. 0.
    9.6017137476335748e+00 -1.0530294239677898e-01
    3.1685974783869160e+01 -3.1591201180328175e-02
    1.3541386566673944e+01 -7.4254861532110361e-02
    1.0324171130043423e+01 -9.7786266934608693e-02
    1.2012191406989986e+01 -8.3833838333928115e-02
    1.0604409402243963e+01 -9.5154221954332679e-02
    1.1242021179530175e+01 -8.9667167932444058e-02
    3.1685974783869160e+01 -3.1591201180328175e-02
    1.3541386566673944e+01 -7.4254861532110361e-02
    2.5877947453769135e+01 -3.8700818724480265e-02 1. 0. 1. 0.
    5.6900532260917345e+00 -1.8153709195905832e-01
    1.6958034388522272e+01 -5.9175593579090677e-02
    1.2012191406989986e+01 -8.3833838333928115e-02
    1.4198767904999364e+01 -7.0781495039877185e-02
    1.1607793383580484e+01 -8.6798056208228933e-02
    1.5866757828995944e+01 -6.3277199716833266e-02 1. 0.
    2.0054986879841749e+01 -4.9987504685547732e-02
    1.1607793383580484e+01 -8.6798056208228933e-02
    1.4963067721862023e+01 -6.7132407525801699e-02
    5.6900532260917345e+00 -1.8153709195905832e-01
    1.1607793383580484e+01 -8.6798056208228933e-02 1. 0.
    1.3541386566673944e+01 -7.4254861532110361e-02
    6.6807308761788189e+00 -1.5319721849662296e-01
    9.3930287922664117e+00 -1.0769674088839853e-01
    1.5866757828995944e+01 -6.3277199716833266e-02
    2.2416556336823863e+01 -4.4699015626767417e-02
    1.2968141143619201e+01 -7.7576118506196626e-02 1. 0.
    1.3541386566673944e+01 -7.4254861532110361e-02
    1.4198767904999364e+01 -7.0781495039877185e-02
    1.4198767904999364e+01 -7.0781495039877185e-02
    3.1685974783869160e+01 -3.1591201180328175e-02
    1.8312190839256051e+01 -5.4772255750516606e-02
    1.4963067721862023e+01 -6.7132407525801699e-02
    1.6958034388522272e+01 -5.9175593579090677e-02
    1.1607793383580484e+01 -8.6798056208228933e-02
    2.6716191967216809e+00 -4.5015318469188842e-01
    1.6958034388522272e+01 -5.9175593579090677e-02
    1.8312190839256051e+01 -5.4772255750516606e-02
    6.1786577897286383e+00 -1.6632478596477890e-01
    7.6375416985962579e+00 -1.3325720810113112e-01
    1.2462512392675762e+01 -8.0764038437081215e-02 1. 0.
    5.3053190653853060e+00 -1.9570967639008607e-01
    9.6017137476335748e+00 -1.0530294239677898e-01
    1.8312190839256051e+01 -5.4772255750516606e-02
    8.6781299569933310e+00 -1.1680434139522429e-01
    1.2968141143619201e+01 -7.7576118506196626e-02
    1.5866757828995944e+01 -6.3277199716833266e-02
    1.1607793383580484e+01 -8.6798056208228933e-02
    6.3529064442863525e+00 -1.6151457061744964e-01 1. 0.
    1.3541386566673944e+01 -7.4254861532110361e-02
    5.2377585931815558e+00 -1.9843950801684856e-01
    5.6060645744136854e+00 -1.8444679058389993e-01
    1.3541386566673944e+01 -7.4254861532110361e-02
    1.1607793383580484e+01 -8.6798056208228933e-02
    1.4198767904999364e+01 -7.0781495039877185e-02
    1.3541386566673944e+01 -7.4254861532110361e-02
    1.0065290382967309e+01 -1.0035184828481863e-01
    2.2416556336823863e+01 -4.4699015626767417e-02
    1.3541386566673944e+01 -7.4254861532110361e-02
    1.4198767904999364e+01 -7.0781495039877185e-02
    1.3541386566673944e+01 -7.4254861532110361e-02
    1.3541386566673944e+01 -7.4254861532110361e-02
    7.6375416985962579e+00 -1.3325720810113112e-01
    1.5866757828995944e+01 -6.3277199716833266e-02
    2.2416556336823863e+01 -4.4699015626767417e-02
    1.4198767904999364e+01 -7.0781495039877185e-02
    1.2462512392675762e+01 -8.0764038437081215e-02
    1.4198767904999364e+01 -7.0781495039877185e-02
    1.5866757828995944e+01 -6.3277199716833266e-02
    1.0324171130043423e+01 -9.7786266934608693e-02
    1.0604409402243963e+01 -9.5154221954332679e-02
    1.4198767904999364e+01 -7.0781495039877185e-02
    1.3541386566673944e+01 -7.4254861532110361e-02
    2.0054986879841749e+01 -4.9987504685547732e-02
    1.4198767904999364e+01 -7.0781495039877185e-02
    1.1607793383580484e+01 -8.6798056208228933e-02
    2.5877947453769135e+01 -3.8700818724480265e-02
    1.0604409402243963e+01 -9.5154221954332679e-02 1. 0.
    1.0065290382967309e+01 -1.0035184828481863e-01
    1.2968141143619201e+01 -7.7576118506196626e-02
    6.6109638401973907e+00 -1.5489297133064672e-01
    1.4198767904999364e+01 -7.0781495039877185e-02
    1.0604409402243963e+01 -9.5154221954332679e-02
    1.1607793383580484e+01 -8.6798056208228933e-02
    9.1975780678481218e+00 -1.1004081437106428e-01
    7.7470795387236313e+00 -1.3130643285972257e-01
    1.1607793383580484e+01 -8.6798056208228933e-02
    1.5866757828995944e+01 -6.3277199716833266e-02 1. 0. 1. 0.
    1.4198767904999364e+01 -7.0781495039877185e-02
    6.5434074821684707e+00 -1.5657206338189761e-01 1. 0.
    8.8412090500664817e+00 -1.1459194182538809e-01
    5.6060645744136854e+00 -1.8444679058389993e-01
    1.3541386566673944e+01 -7.4254861532110361e-02
    1.4198767904999364e+01 -7.0781495039877185e-02
    1.2968141143619201e+01 -7.7576118506196626e-02 1. 0.
    1.1607793383580484e+01 -8.6798056208228933e-02
    3.1685974783869160e+01 -3.1591201180328175e-02
    8.1071187003698473e+00 -1.2528448639654299e-01
    2.0054986879841749e+01 -4.9987504685547732e-02
    6.7528309066313392e+00 -1.5148424267119157e-01
    1.2012191406989986e+01 -8.3833838333928115e-02
    1.5866757828995944e+01 -6.3277199716833266e-02 1. 0.
    1.1242021179530175e+01 -8.9667167932444058e-02 1. 0.
    1.0065290382967309e+01 -1.0035184828481863e-01
    1.2462512392675762e+01 -8.0764038437081215e-02
    1.0065290382967309e+01 -1.0035184828481863e-01
    1.5866757828995944e+01 -6.3277199716833266e-02
    1.1607793383580484e+01 -8.6798056208228933e-02
    5.6060645744136854e+00 -1.8444679058389993e-01
    1.4198767904999364e+01 -7.0781495039877185e-02
    1.4198767904999364e+01 -7.0781495039877185e-02
    9.6017137476335748e+00 -1.0530294239677898e-01 1. 0.
    1.1607793383580484e+01 -8.6798056208228933e-02
    1.2968141143619201e+01 -7.7576118506196626e-02
    1.8312190839256051e+01 -5.4772255750516606e-02
    1.4198767904999364e+01 -7.0781495039877185e-02
    1.2968141143619201e+01 -7.7576118506196626e-02
    1.1607793383580484e+01 -8.6798056208228933e-02
    5.6900532260917345e+00 -1.8153709195905832e-01
    1.4198767904999364e+01 -7.0781495039877185e-02
    1.4963067721862023e+01 -6.7132407525801699e-02
    1.2968141143619201e+01 -7.7576118506196626e-02
    1.3541386566673944e+01 -7.4254861532110361e-02
    1.4198767904999364e+01 -7.0781495039877185e-02
    3.1685974783869160e+01 -3.1591201180328175e-02
    1.2462512392675762e+01 -8.0764038437081215e-02
    1.6958034388522272e+01 -5.9175593579090677e-02
    1.3541386566673944e+01 -7.4254861532110361e-02
    1.4963067721862023e+01 -6.7132407525801699e-02
    2.7241558446648111e+00 -4.3727725921339439e-01
    9.8251915436238537e+00 -1.0285594337791672e-01 1. 0.
    3.7562118382362577e+00 -2.8836322187855618e-01 1. 0.
    1.6958034388522272e+01 -5.9175593579090677e-02 1. 0.
    9.0140235127796835e+00 -1.1233827907252845e-01
    1.3541386566673944e+01 -7.4254861532110361e-02 1. 0.
    1.5866757828995944e+01 -6.3277199716833266e-02
    1.5866757828995944e+01 -6.3277199716833266e-02
    1.4963067721862023e+01 -6.7132407525801699e-02
    4.3738595393498017e+00 -2.4202313502882750e-01
    7.2426324346772191e+00 -1.4080890575892899e-01
    1.4198767904999364e+01 -7.0781495039877185e-02
    1.3541386566673944e+01 -7.4254861532110361e-02
    1.4198767904999364e+01 -7.0781495039877185e-02
    1.8312190839256051e+01 -5.4772255750516606e-02
    1.3541386566673944e+01 -7.4254861532110361e-02
    1.3541386566673944e+01 -7.4254861532110361e-02
    1.4963067721862023e+01 -6.7132407525801699e-02
    2.2416556336823863e+01 -4.4699015626767417e-02
    6.5434074821684707e+00 -1.5657206338189761e-01
    1.1607793383580484e+01 -8.6798056208228933e-02
    1.3541386566673944e+01 -7.4254861532110361e-02
    1.4198767904999364e+01 -7.0781495039877185e-02
    1.0909103859096174e+01 -9.2450032704204863e-02 1. 0.
    1.4963067721862023e+01 -6.7132407525801699e-02
    1.2462512392675762e+01 -8.0764038437081215e-02
    1.0604409402243963e+01 -9.5154221954332679e-02
    1.3541386566673944e+01 -7.4254861532110361e-02
    1.8312190839256051e+01 -5.4772255750516606e-02 1. 0.
    1.1242021179530175e+01 -8.9667167932444058e-02
    2.0054986879841749e+01 -4.9987504685547732e-02
    2.5877947453769135e+01 -3.8700818724480265e-02
    2.9533070774182941e+00 -3.9014275947948551e-01
    1.0065290382967309e+01 -1.0035184828481863e-01
    1.0065290382967309e+01 -1.0035184828481863e-01
    1.2462512392675762e+01 -8.0764038437081215e-02
    1.8312190839256051e+01 -5.4772255750516606e-02
    1.1242021179530175e+01 -8.9667167932444058e-02
    1.1607793383580484e+01 -8.6798056208228933e-02
    1.1607793383580484e+01 -8.6798056208228933e-02 1. 0.
    1.4198767904999364e+01 -7.0781495039877185e-02
    9.1975780678481218e+00 -1.1004081437106428e-01
    6.6807308761788189e+00 -1.5319721849662296e-01
    1.5866757828995944e+01 -6.3277199716833266e-02
    6.6109638401973907e+00 -1.5489297133064672e-01
    1.5866757828995944e+01 -6.3277199716833266e-02
    9.6017137476335748e+00 -1.0530294239677898e-01
    1.4963067721862023e+01 -6.7132407525801699e-02
    8.1071187003698473e+00 -1.2528448639654299e-01
    1.2012191406989986e+01 -8.3833838333928115e-02
    1.4198767904999364e+01 -7.0781495039877185e-02
    2.0054986879841749e+01 -4.9987504685547732e-02
    2.2416556336823863e+01 -4.4699015626767417e-02
    1.4198767904999364e+01 -7.0781495039877185e-02 1. 0.
    1.2462512392675762e+01 -8.0764038437081215e-02
    7.7470795387236313e+00 -1.3130643285972257e-01
    1.5866757828995944e+01 -6.3277199716833266e-02
    2.0054986879841749e+01 -4.9987504685547732e-02
    1.8312190839256051e+01 -5.4772255750516606e-02
    1.5866757828995944e+01 -6.3277199716833266e-02
    2.0054986879841749e+01 -4.9987504685547732e-02
    8.6781299569933310e+00 -1.1680434139522429e-01
    1.1607793383580484e+01 -8.6798056208228933e-02
    1.4198767904999364e+01 -7.0781495039877185e-02
    1.1607793383580484e+01 -8.6798056208228933e-02
    6.6807308761788189e+00 -1.5319721849662296e-01
    1.2012191406989986e+01 -8.3833838333928115e-02
    1.1607793383580484e+01 -8.6798056208228933e-02
    1.5866757828995944e+01 -6.3277199716833266e-02
    1.2462512392675762e+01 -8.0764038437081215e-02
    1.3541386566673944e+01 -7.4254861532110361e-02
    6.5434074821684707e+00 -1.5657206338189761e-01
    1.3541386566673944e+01 -7.4254861532110361e-02
    3.1685974783869160e+01 -3.1591201180328175e-02
    9.6017137476335748e+00 -1.0530294239677898e-01
    1.5866757828995944e+01 -6.3277199716833266e-02
    1.2012191406989986e+01 -8.3833838333928115e-02
    1.4198767904999364e+01 -7.0781495039877185e-02
    2.5877947453769135e+01 -3.8700818724480265e-02
    6.6109638401973907e+00 -1.5489297133064672e-01
    7.5326287797751830e+00 -1.3518177271779991e-01
    1.5866757828995944e+01 -6.3277199716833266e-02
    1.6958034388522272e+01 -5.9175593579090677e-02
    1.1607793383580484e+01 -8.6798056208228933e-02 1. 0.
    2.2416556336823863e+01 -4.4699015626767417e-02
    1.6958034388522272e+01 -5.9175593579090677e-02
    8.6781299569933310e+00 -1.1680434139522429e-01
    4.4799559135700399e+01 -2.2332781224177665e-02
    1.4198767904999364e+01 -7.0781495039877185e-02
    1.2012191406989986e+01 -8.3833838333928115e-02
    1.1607793383580484e+01 -8.6798056208228933e-02 1. 0.
    1.0604409402243963e+01 -9.5154221954332679e-02
    1.0324171130043423e+01 -9.7786266934608693e-02
    8.8412090500664817e+00 -1.1459194182538809e-01
    5.0801092528451939e+00 -2.0512903762734833e-01
    1.4198767904999364e+01 -7.0781495039877185e-02
    1.2012191406989986e+01 -8.3833838333928115e-02 1. 0.
    1.2012191406989986e+01 -8.3833838333928115e-02
    1.3541386566673944e+01 -7.4254861532110361e-02
    9.8251915436238537e+00 -1.0285594337791672e-01
    5.1413423763353503e+00 -2.0247559707402427e-01
    3.1685974783869160e+01 -3.1591201180328175e-02
    3.1685974783869160e+01 -3.1591201180328175e-02
    1.5866757828995944e+01 -6.3277199716833266e-02
    1.1607793383580484e+01 -8.6798056208228933e-02
    1.4198767904999364e+01 -7.0781495039877185e-02
    1.4198767904999364e+01 -7.0781495039877185e-02
    3.1685974783869160e+01 -3.1591201180328175e-02
    1.0324171130043423e+01 -9.7786266934608693e-02
    1.4198767904999364e+01 -7.0781495039877185e-02
    1.3541386566673944e+01 -7.4254861532110361e-02
    6.9845035393091228e+00 -1.4623586672531563e-01
    1.5866757828995944e+01 -6.3277199716833266e-02
    4.4799559135700399e+01 -2.2332781224177665e-02
    1.1607793383580484e+01 -8.6798056208228933e-02
    6.6109638401973907e+00 -1.5489297133064672e-01
    5.9679126186516660e+00 -1.7255181050937021e-01
    1.3541386566673944e+01 -7.4254861532110361e-02
    1.0065290382967309e+01 -1.0035184828481863e-01
    1.2968141143619201e+01 -7.7576118506196626e-02
    4.4799559135700399e+01 -2.2332781224177665e-02
    1.5866757828995944e+01 -6.3277199716833266e-02
    7.0673682802187265e+00 -1.4444770662461007e-01
    1.2968141143619201e+01 -7.7576118506196626e-02
    1.4198767904999364e+01 -7.0781495039877185e-02
    9.6017137476335748e+00 -1.0530294239677898e-01 1. 0. 1. 0.
    1.3541386566673944e+01 -7.4254861532110361e-02
    1.5866757828995944e+01 -6.3277199716833266e-02
    1.2462512392675762e+01 -8.0764038437081215e-02
    4.2669938690353701e+00 -2.4887252376726735e-01
    1.4198767904999364e+01 -7.0781495039877185e-02
    1.4198767904999364e+01 -7.0781495039877185e-02
    8.5239083087336400e+00 -1.1897778297335090e-01
    1.6958034388522272e+01 -5.9175593579090677e-02
    1.3541386566673944e+01 -7.4254861532110361e-02
    1.2012191406989986e+01 -8.3833838333928115e-02
    1.6958034388522272e+01 -5.9175593579090677e-02
    1.4198767904999364e+01 -7.0781495039877185e-02
    8.6781299569933310e+00 -1.1680434139522429e-01
    1.3541386566673944e+01 -7.4254861532110361e-02
    1.2968141143619201e+01 -7.7576118506196626e-02
    5.6475681805868634e+00 -1.8299697494424033e-01
    1.4198767904999364e+01 -7.0781495039877185e-02
    2.5877947453769135e+01 -3.8700818724480265e-02
    1.0909103859096174e+01 -9.2450032704204863e-02
    1.1607793383580484e+01 -8.6798056208228933e-02
    4.5519488238817107e+00 -2.3145502494313785e-01
    1.2462512392675762e+01 -8.0764038437081215e-02
    1.2968141143619201e+01 -7.7576118506196626e-02
    1.4198767904999364e+01 -7.0781495039877185e-02
    9.3930287922664117e+00 -1.0769674088839853e-01
    1.0324171130043423e+01 -9.7786266934608693e-02
    4.4799559135700399e+01 -2.2332781224177665e-02 1. 0. 1. 0.
    1.4198767904999364e+01 -7.0781495039877185e-02 1. 0.
    1.3541386566673944e+01 -7.4254861532110361e-02
    1.4198767904999364e+01 -7.0781495039877185e-02
    1.4198767904999364e+01 -7.0781495039877185e-02
    1.3541386566673944e+01 -7.4254861532110361e-02
    1.3541386566673944e+01 -7.4254861532110361e-02
    2.0054986879841749e+01 -4.9987504685547732e-02
    2.2416556336823863e+01 -4.4699015626767417e-02
    1.4963067721862023e+01 -6.7132407525801699e-02
    1.5866757828995944e+01 -6.3277199716833266e-02 1. 0.
    1.1242021179530175e+01 -8.9667167932444058e-02
    1.8312190839256051e+01 -5.4772255750516606e-02
    5.6060645744136854e+00 -1.8444679058389993e-01
    6.6109638401973907e+00 -1.5489297133064672e-01
    5.6060645744136854e+00 -1.8444679058389993e-01
    1.5866757828995944e+01 -6.3277199716833266e-02 1. 0.
    1.0065290382967309e+01 -1.0035184828481863e-01
    1.0909103859096174e+01 -9.2450032704204863e-02
    6.4779482735021388e+00 -1.5823502761794855e-01
    1.2462512392675762e+01 -8.0764038437081215e-02
    1.6958034388522272e+01 -5.9175593579090677e-02
    1.0909103859096174e+01 -9.2450032704204863e-02
    1.8312190839256051e+01 -5.4772255750516606e-02
    1.1242021179530175e+01 -8.9667167932444058e-02
    4.4699348737505122e+00 -2.3619795444544081e-01
    4.3738595393498017e+00 -2.4202313502882750e-01
    1.3541386566673944e+01 -7.4254861532110361e-02
    1.2968141143619201e+01 -7.7576118506196626e-02
    1.5866757828995944e+01 -6.3277199716833266e-02
    1.2968141143619201e+01 -7.7576118506196626e-02
    1.2968141143619201e+01 -7.7576118506196626e-02
    1.8312190839256051e+01 -5.4772255750516606e-02
    1.6958034388522272e+01 -5.9175593579090677e-02
    1.2968141143619201e+01 -7.7576118506196626e-02
    1.8312190839256051e+01 -5.4772255750516606e-02
    1.5866757828995944e+01 -6.3277199716833266e-02
    1.4198767904999364e+01 -7.0781495039877185e-02
    1.1607793383580484e+01 -8.6798056208228933e-02
    1.4198767904999364e+01 -7.0781495039877185e-02
    1.4198767904999364e+01 -7.0781495039877185e-02
    1.6958034388522272e+01 -5.9175593579090677e-02
    1.0604409402243963e+01 -9.5154221954332679e-02
    1.5866757828995944e+01 -6.3277199716833266e-02
    1.0065290382967309e+01 -1.0035184828481863e-01
    4.5309881064758457e+00 -2.3264794365254840e-01
    1.1607793383580484e+01 -8.6798056208228933e-02
    1.2462512392675762e+01 -8.0764038437081215e-02
    1.2012191406989986e+01 -8.3833838333928115e-02
    1.4198767904999364e+01 -7.0781495039877185e-02
    1.1242021179530175e+01 -8.9667167932444058e-02
    1.4198767904999364e+01 -7.0781495039877185e-02
    6.3529064442863525e+00 -1.6151457061744964e-01
    1.0909103859096174e+01 -9.2450032704204863e-02
    1.1242021179530175e+01 -8.9667167932444058e-02
    1.4963067721862023e+01 -6.7132407525801699e-02
    1.2462512392675762e+01 -8.0764038437081215e-02
    8.8412090500664817e+00 -1.1459194182538809e-01
    9.8251915436238537e+00 -1.0285594337791672e-01
    8.1071187003698473e+00 -1.2528448639654299e-01
    6.9845035393091228e+00 -1.4623586672531563e-01
    1.4198767904999364e+01 -7.0781495039877185e-02
    1.2462512392675762e+01 -8.0764038437081215e-02
    9.3930287922664117e+00 -1.0769674088839853e-01
    1.0909103859096174e+01 -9.2450032704204863e-02
    1.2462512392675762e+01 -8.0764038437081215e-02
    1.3541386566673944e+01 -7.4254861532110361e-02
    1.0324171130043423e+01 -9.7786266934608693e-02
    1.1242021179530175e+01 -8.9667167932444058e-02
    7.7470795387236313e+00 -1.3130643285972257e-01
    1.2012191406989986e+01 -8.3833838333928115e-02
    1.0604409402243963e+01 -9.5154221954332679e-02
    1.0909103859096174e+01 -9.2450032704204863e-02
    4.2669938690353701e+00 -2.4887252376726735e-01
    1.3541386566673944e+01 -7.4254861532110361e-02
    1.2968141143619201e+01 -7.7576118506196626e-02
    1.1607793383580484e+01 -8.6798056208228933e-02
    1.4963067721862023e+01 -6.7132407525801699e-02
    1.0604409402243963e+01 -9.5154221954332679e-02
    9.8251915436238537e+00 -1.0285594337791672e-01
    1.3541386566673944e+01 -7.4254861532110361e-02
    1.3541386566673944e+01 -7.4254861532110361e-02
    1.8312190839256051e+01 -5.4772255750516606e-02
    1.0909103859096174e+01 -9.2450032704204863e-02
    1.4963067721862023e+01 -6.7132407525801699e-02
    1.4198767904999364e+01 -7.0781495039877185e-02
    1.0604409402243963e+01 -9.5154221954332679e-02
    1.1242021179530175e+01 -8.9667167932444058e-02
    1.4198767904999364e+01 -7.0781495039877185e-02
    1.6958034388522272e+01 -5.9175593579090677e-02
    8.6781299569933310e+00 -1.1680434139522429e-01
    1.0909103859096174e+01 -9.2450032704204863e-02
    8.8412090500664817e+00 -1.1459194182538809e-01
    1.0909103859096174e+01 -9.2450032704204863e-02
    9.0140235127796835e+00 -1.1233827907252845e-01
    1.1242021179530175e+01 -8.9667167932444058e-02
    1.3541386566673944e+01 -7.4254861532110361e-02
    1.5866757828995944e+01 -6.3277199716833266e-02
    1.2012191406989986e+01 -8.3833838333928115e-02
    1.2012191406989986e+01 -8.3833838333928115e-02
    1.3541386566673944e+01 -7.4254861532110361e-02
    1.6958034388522272e+01 -5.9175593579090677e-02
    1.5866757828995944e+01 -6.3277199716833266e-02
    6.9045686351696496e+00 -1.4800421301709618e-01
    9.8251915436238537e+00 -1.0285594337791672e-01
    1.2462512392675762e+01 -8.0764038437081215e-02
    1.4963067721862023e+01 -6.7132407525801699e-02
    1.4963067721862023e+01 -6.7132407525801699e-02
    7.0673682802187265e+00 -1.4444770662461007e-01
    1.8312190839256051e+01 -5.4772255750516606e-02
    1.2462512392675762e+01 -8.0764038437081215e-02
    1.2462512392675762e+01 -8.0764038437081215e-02
    6.7528309066313392e+00 -1.5148424267119157e-01
    1.1607793383580484e+01 -8.6798056208228933e-02
    1.1607793383580484e+01 -8.6798056208228933e-02
    1.1607793383580484e+01 -8.6798056208228933e-02
    1.0324171130043423e+01 -9.7786266934608693e-02
    7.8615904616149717e+00 -1.2932825784311769e-01
    2.2416556336823863e+01 -4.4699015626767417e-02
    7.9814604390183508e+00 -1.2732140281584606e-01
    1.2462512392675762e+01 -8.0764038437081215e-02
    1.2012191406989986e+01 -8.3833838333928115e-02
    5.6475681805868634e+00 -1.8299697494424033e-01
    9.6017137476335748e+00 -1.0530294239677898e-01
    1.8312190839256051e+01 -5.4772255750516606e-02
    1.4963067721862023e+01 -6.7132407525801699e-02
    1.2012191406989986e+01 -8.3833838333928115e-02
    7.5326287797751830e+00 -1.3518177271779991e-01
    1.2012191406989986e+01 -8.3833838333928115e-02
    1.2462512392675762e+01 -8.0764038437081215e-02
    2.5877947453769135e+01 -3.8700818724480265e-02
    8.8412090500664817e+00 -1.1459194182538809e-01
    9.8251915436238537e+00 -1.0285594337791672e-01 1. 0.
    1.4198767904999364e+01 -7.0781495039877185e-02
    3.1685974783869160e+01 -3.1591201180328175e-02
    1.6958034388522272e+01 -5.9175593579090677e-02
    1.6958034388522272e+01 -5.9175593579090677e-02
    3.1685974783869160e+01 -3.1591201180328175e-02
    1.6958034388522272e+01 -5.9175593579090677e-02
    3.1685974783869160e+01 -3.1591201180328175e-02
    2.2416556336823863e+01 -4.4699015626767417e-02
    1.8312190839256051e+01 -5.4772255750516606e-02
    1.0065290382967309e+01 -1.0035184828481863e-01
    8.6781299569933310e+00 -1.1680434139522429e-01
    8.5239083087336400e+00 -1.1897778297335090e-01
    1.0065290382967309e+01 -1.0035184828481863e-01
    3.1685974783869160e+01 -3.1591201180328175e-02</input_scale>
  <output_scale>
    5.2631578947368418e-01 4.9999999999999994e-01 5.2631578947368418e-01
    4.9999999999999994e-01</output_scale>
  <inv_output_scale>
    1.8999999999999999e+00 -9.4999999999999996e-01
    1.8999999999999999e+00 -9.4999999999999996e-01</inv_output_scale>
  <weights>
    <_>
      -1.3560411595522215e+01 -1.4085022319064875e+00
      6.4353867347315030e-01 7.2858119762037787e-01
      -2.0321668640823836e+00 -6.9880562971823357e-01
      -6.9664704313126513e-01 2.3359424858181724e-01
      7.6789602984642580e-01 9.8433756024703445e-01
      9.8319973866472976e-01 5.3919842555643016e-01
      1.0215375496496089e+00 -9.6323344849414838e-01
      6.0480690499973500e-01 -1.0396191800764383e+00
      -1.1224304155285059e+00 2.0393179369447592e+00
      6.2385555783092741e+00 7.0937595732383707e-01
      2.4858933548007904e+01 3.1719318991115744e+00
      -2.5402479942615233e+00 -2.2834687910542222e+00
      2.6759756701362116e+00 1.9049806218427763e+00
      7.7496677944781300e-01 -2.3077323585919358e+00
      -8.2913502432904562e-01 -1.8122263965977679e+00
      -1.7455144210457099e+00 -1.5401874736866299e+00
      -2.3124666788645216e+00 1.7425926064814903e+00
      -1.3355703530479088e+00 1.1150125631617511e+00
      1.9384379554843090e+00 -2.8025887766467474e+00
      -1.9342508481440306e+00 -1.9536539585710098e+00
      8.9885705620982339e+00 1.2285869515751946e+00
      -1.1346775904327007e+00 -1.0792584468045130e+00
      2.3261046321715715e+00 7.5655059773715549e-01
      -4.7035186296251075e-01 -4.7663537400370704e-01
      5.3898195130308124e-01 9.0355492615435473e-01
      -7.7435510930928086e-01 -3.8060867576051638e-01
      -1.2177536314890676e+00 7.8492072718630712e-01
      -2.5775372931192864e-01 -7.1050680003393818e-01
      1.0254440976621046e+00 -2.2367807937316853e+00
      3.7752876704391474e+00 -8.1947225031716298e-01
      1.5825585159108792e+01 -9.0926072410395309e-01
      1.2688147977984174e+00 1.3158071382609910e+00
      -1.0698033877941675e+00 -9.6857435903714117e-01
      1.2212279273117979e-01 1.1045761576837527e+00
      -2.1860828507681504e-01 -4.1246270605844310e-01
      9.1602932170448592e-01 7.9694466535727415e-01
      9.3713951605981105e-01 -9.2180658212101863e-01
      6.0670198541608722e-01 5.5985808475477206e-01
      -1.0493981192134192e+00 1.5600219795389680e+00
      -4.8871711622859975e+00 1.1007218700902675e+00
      4.4021502123037370e-01 1.3627740636837822e-03
      2.5472598766182721e-02 1.2978797759041486e-02
      -1.0528827683001274e-04 -2.5053707963406179e-02
      -1.8004123540133574e-02 2.4871466377823500e-02
      1.9113901796119239e-02 2.8581265172572687e-02
      1.8545378433372995e-02 2.3295420410378381e-02
      1.0281525405696700e-02 -1.6071634036856991e-02
      2.3828889277858638e-02 -2.3070272274056555e-02
      -1.6203149841297140e-02 9.0192991988728172e-03
      -1.9107496760904827e-01 1.2117412801610220e-02
      1.2236126207725961e-03 2.6340311076220626e-04
      9.2839392328749552e-04 1.1273987238945304e-03
      9.6015590369737298e-04 7.7532301577462915e-05
      5.7638844554589407e-04 -9.9315356161795753e-04
      1.1323118916055643e-03 1.5589217599374364e-04
      5.7144520239278262e-04 8.3754903868560597e-04
      -8.2163157607046745e-04 8.4064092940690336e-04
      -1.0873727806470959e-03 -5.4953867330511373e-04
      -1.0336254141011033e-03 1.0571705973050436e-03
      -1.4847345078318502e-04 1.8483917971242358e-04
      4.6992765080046972e-01 1.4296564245086910e-02
      -9.1075925821933398e-03 -9.0085814143412955e-03
      5.0581820686824527e-02 9.4795221304039105e-03
      2.2054820791814075e-03 -6.4968377582566988e-03
      -3.6305844689628217e-04 2.1121218529255890e-02
      -1.3217027892620787e-02 -5.9316914637688950e-03
      -3.2614255626061107e-03 1.1714328415931331e-02
      -3.5734622095786343e-03 -1.5559499521083991e-02
      2.0696624384709112e-02 -2.0488765635289900e-02
      1.5363926825216190e-01 -9.2548107946815589e-03
      2.0892527368155719e-01 -5.5006579871752356e-03
      -5.1261214457172652e-03 8.9461945573605095e-03
      5.0239981244700393e-05 7.7248188703291816e-03
      2.9667493794951136e-02 -1.0632314978635400e-02
      -2.7959118107581924e-02 -2.8957727262607254e-02
      -6.5316849372789943e-03 -1.3752517098696215e-02
      1.4173653928174261e-02 -2.4839399135569481e-03
      -1.5706189041299459e-02 2.4939529021778060e-02
      1.8573086746299253e-03 -1.0961471315108565e-02
      -1.0949329192726408e-02 6.8448851381273596e-03
      1.2268525825796290e+00 -6.6702412457014859e-02
      3.5899892876535305e-02 4.4399385167050449e-02
      -4.5127724366556078e-02 -3.2731818266983695e-02
      -6.8261616046184350e-03 1.4892774140487440e-02
      3.5282624202545446e-03 1.3753684725692272e-02
      4.1148578961799208e-02 9.0274617042173655e-03
      6.0581602937928483e-02 -4.3499266941209008e-02
      1.4625006349625840e-02 1.6107867462977352e-02
      -4.3673944032837912e-02 4.1663851651718042e-02
      -1.1748586513217522e-01 4.2693613454643627e-02
      4.3744176128281864e-01 3.8540755626454648e-02
      -3.7125612720510612e-02 -4.2830169271934324e-02
      4.9672221034176837e-02 4.3249150833564690e-02
      7.1130387829045488e-02 -4.4332763034119378e-02
      -7.1240126619843372e-02 -6.9769362259726145e-02
      -4.8979933054049865e-02 -4.6664919520635874e-02
      -4.2367000262347632e-02 4.4236870667009952e-02
      -4.8305483975972570e-02 6.6336125464497478e-02
      4.9334444400619001e-02 -6.0953263661386425e-02
      7.5269878821771176e-03 -4.1778468584685272e-02
      3.8043089656582424e-01 1.9827065693826021e-03
      -4.9352305692361466e-03 -9.4909439247062959e-03
      1.3409629522437534e-02 2.5453020079560700e-03
      1.0102037030833653e-03 -3.7208731563821867e-03
      1.7442928050181320e-03 3.3569478707337380e-03
      -3.0993259316698164e-03 -1.2794184365734834e-03
      5.6852791130990237e-03 6.4315463367175391e-03
      1.2757058720784277e-03 -5.2778581382639427e-03
      8.0250771812958894e-04 -1.4021669280825350e-02
      -3.2156758266785289e-02 -7.6673360813142690e-03
      6.7124021694233549e-01 5.2471966027446880e-02
      -4.1872023641185051e-02 -4.3307942652666631e-02
      5.4388475208233290e-02 4.1739673445735780e-02
      6.0364197183097601e-02 -4.5922519734585936e-02
      -5.9990666868606317e-02 -6.8951832889040512e-02
      -4.3251522826294311e-02 -4.3187105388503302e-02
      -4.3498719766391698e-02 4.1783832759147439e-02
      -4.4354922933727912e-02 6.0674549693677957e-02
      4.5795709290940137e-02 -6.0766510323708570e-02
      -1.2862314334316158e-01 -4.1595178026496454e-02
      5.6595551977949277e-01 9.0255138044478558e-02
      -1.0016204660511093e-02 -3.6697833022047197e-02
      7.2957600998276764e-02 9.1073674569745189e-03
      2.5256146449861041e-02 -9.4912754915258846e-03
      -3.0580505012899297e-02 -7.4553881210186926e-02
      -1.5260872231194060e-02 -4.3453562016717330e-03
      -5.3579202163449101e-02 1.5741238216522190e-02
      -2.3496933623639192e-03 4.5668657754571969e-02
      2.1271387193722270e-02 -4.7871868583992609e-02
      -2.6907579036671297e-01 -2.4399415672657389e-02
      9.7667940864253069e-05 1.0860159412336716e-03
      6.7883820489832852e-04 1.5906981698715129e-04
      -4.8030595207392191e-04 -8.1740609644861181e-04
      -4.0134215041008386e-04 -1.1942214735321045e-03
      -6.4358444301324609e-04 5.8633066338281899e-05
      -1.0634338170039716e-03 2.3566027610333210e-05
      -4.9862370615360468e-04 9.3739265592565689e-04
      -5.7313518618973670e-04 -7.4828996413172863e-04
      4.8712843988916934e-04 2.3899852033251937e-04
      2.9709150462634590e-04 -1.1260651826545060e-03
      6.7199368241242308e-01 5.1936724433433397e-02
      -4.1855756010715693e-02 -4.2639260066333284e-02
      5.3163879357419806e-02 4.3548541632238362e-02
      6.0560370804711869e-02 -4.7657941387555920e-02
      -6.2095156437157212e-02 -6.8687217803908476e-02
      -4.4162453669143120e-02 -4.3108647350743212e-02
      -4.3061972441272196e-02 4.1343280015107793e-02
      -4.4838259352081529e-02 6.0718550984720787e-02
      4.6072537580037098e-02 -6.1826162329188972e-02
      -1.2699656443009061e-01 -4.1797523146563931e-02
      1.2277708625408525e+00 -6.7131289977092279e-02
      3.7417361820762440e-02 4.3290271100487270e-02
      -4.5403893184793979e-02 -3.2500659070403823e-02
      -6.8694004293084398e-03 1.5410631979313767e-02
      2.2851888514219768e-03 1.3629398583765873e-02
      4.0657949277702325e-02 8.9011031674052256e-03
      5.8823136135090673e-02 -4.3499531449402273e-02
      1.3822335979906144e-02 1.5493607253475528e-02
      -4.3180453748580684e-02 4.3207876198091744e-02
      -1.1879302617393411e-01 4.2794381805076533e-02
      -2.0907076754094903e-01 1.1463326783109672e-02
      1.5554884972224178e-01 9.3754643429945272e-02
      -4.0173768334780605e-02 -1.6588443013695436e-01
      -2.2079407019384004e-01 1.8055486237725732e-01
      2.2949963010593724e-01 2.6873305083980686e-01
      1.3562259578103630e-01 1.9312969723074089e-01
      6.3809523932479267e-02 -1.2944669016462759e-01
      1.8914678617355316e-01 -2.4426409296959245e-01
      -1.2251727271532387e-01 1.1425638525968541e-01
      -1.4211351527856702e-02 1.0855598545599993e-01
      8.0778152186337926e-01 1.3760548076689643e-02
      -6.0681740230803582e-02 8.2116387499637060e-03
      -3.2647521758830947e-04 4.9775848674903617e-02
      6.2983380080521817e-02 -5.9396246583556973e-02
      -7.1102789191743898e-02 -8.9157456691519324e-02
      -1.3861132988153087e-02 -4.5463645301735446e-02
      3.8858554745150827e-03 2.0189187510176034e-02
      -3.7480464223059659e-02 8.4984789716453346e-02
      2.6175452852611272e-02 -7.0940440930833293e-02
      6.2710254822444828e-02 -2.3767172263260278e-03
      1.6199184533641933e-01 8.2798012299372392e-02
      2.1705361030913504e-02 -4.2678096434812240e-03
      6.8873206816339599e-02 -1.8857383959005953e-02
      -2.7217250643253327e-02 1.9084660211789117e-02
      2.8312242257048176e-02 3.3205870981630643e-02
      5.4653146694831484e-03 2.3809739755202466e-02
      -4.9462895054160003e-02 -8.8860758387058394e-03
      2.8016269470957759e-02 -3.1750562027443557e-02
      -6.1279602750830796e-03 3.7282826863458407e-03
      7.6582144441700917e-02 -2.6218869378177778e-03
      1.9994597758750698e-01 -6.0387211900141107e-03
      8.6067066599440668e-03 3.5102434422546076e-03
      2.3075424073767965e-03 -6.8085195315235585e-03
      -1.3879665762218895e-03 1.2782381635354886e-02
      1.6171830821760944e-03 1.1013186825474938e-02
      1.7928665670840541e-03 7.6464664238040329e-03
      1.3217133075893579e-02 -3.3198837862110559e-03
      9.9930424324130001e-03 -6.8417259960632483e-03
      1.0406067066123987e-03 -1.3747908886996096e-02
      -2.4835550366865250e-01 4.7340057929077641e-03
      2.2425541399188387e-02 4.0984573933687284e-02
      -3.4168434763660695e-02 -3.6116917010266023e-02
      4.2882955441255567e-02 3.4803325183908454e-02
      4.7153907507798583e-02 -3.7546274430465626e-02
      -4.7857184588187725e-02 -5.4815060909754826e-02
      -3.3890033694873672e-02 -3.5947770725815127e-02
      -3.2899514891029095e-02 3.3747222532467411e-02
      -3.4850177329810827e-02 4.7642900495720043e-02
      3.5230717211148899e-02 -4.8550417345209991e-02
      4.1049249100497738e-02 -3.3041203080677727e-02
      1.7715178235760318e-01 5.2478116183570768e-02
      -4.5916450201397951e-02 -4.4121253203953756e-02
      5.1031969639985950e-02 4.5037925585998916e-02
      6.2549109721322382e-02 -5.0921882030125806e-02
      -6.4444866909204590e-02 -6.9971869294971692e-02
      -4.7803950289299138e-02 -4.6588585868825930e-02
      -4.6901923707831313e-02 4.5138787956182522e-02
      -4.5590855922942701e-02 6.4065555805995794e-02
      4.8322106736770960e-02 -6.2412655080065778e-02
      5.3083066472149618e-03 -4.4467958803877203e-02
      1.0782767931157018e+00 -3.0322389428693038e-02
      1.6515685183258504e-02 3.1636957132897221e-02
      -2.4262965194344344e-02 -1.1535302237140981e-02
      1.3950538933026465e-02 8.4894243390502555e-03
      -1.4519728093312041e-02 -2.1424204550013295e-03
      1.2725670969471289e-02 -3.3784359270044563e-04
      3.7072236023372084e-02 -2.0922457833456982e-02
      2.2406149677754120e-03 6.6451562724536506e-02
      -1.8024211206190348e-02 1.2387141322554319e-02
      -1.1790410282780009e-01 2.6629372398190475e-02
      -9.1353949726233466e-02 4.1788763392569712e-02
      1.9462396762873299e-02 2.5766337598754525e-03
      1.8350771356012832e-02 -3.1114195149059502e-02
      -6.1842487653002924e-02 5.7132534633336417e-02
      6.8281074765221189e-02 1.0065829670239090e-01
      1.7895788724933935e-02 4.9401235159979719e-02
      -1.0627412701605967e-02 -1.7820262611178948e-02
      5.4905086721197843e-02 -8.8745967405001819e-02
      -1.5762377178788003e-02 -1.8610042164241648e-04
      1.5375830230882928e-01 9.5885844567985216e-03
      2.9246518944091271e-01 3.5694034081835815e-02
      1.5231660787579772e-02 -1.1643489977295798e-02
      5.0023891472010355e-02 -1.3502696781985573e-02
      -2.6781992074570261e-02 2.2569817941371344e-02
      3.2227089094700727e-02 -5.7199550265094282e-02
      -7.4726479104321388e-04 2.1196966335399362e-02
      -3.5267179300515393e-02 4.5438589382858533e-04
      2.2384831046207105e-02 8.6910936380213653e-03
      3.4082919276267973e-03 -2.1387430836195712e-02
      5.9114509265897466e-02 -1.0001472960908279e-02
      -3.6769659705050750e-01 3.6128237420567068e-02
      1.0094383025770091e-01 5.0658138208765191e-02
      1.3771375906259889e-02 -1.1076771220504565e-01
      -1.5036245318229743e-01 1.1782321208328020e-01
      1.4997798282883421e-01 1.7935449052290342e-01
      8.7089097586796407e-02 1.2920163357416534e-01
      1.4948025732357442e-02 -8.2107440881028879e-02
      1.3013814823956404e-01 -1.6568112848656749e-01
      -7.6266340207682873e-02 6.1860904529325890e-02
      -2.4757550330638724e-02 6.5782592693100009e-02
      7.6135703420226727e-02 1.6885954715703016e-02
      -1.6299915787411658e-02 -1.5916766112261758e-02
      1.9723114551289965e-02 1.4502740330806960e-02
      2.1919072882816696e-02 -1.6278239065704192e-02
      -2.2216217785204499e-02 -2.4217377331660454e-02
      -1.5109253554329835e-02 -1.5814184613103369e-02
      -1.3601910160290135e-02 1.3809515584021215e-02
      -1.4215317855967333e-02 2.1313831603649618e-02
      1.5395696104455651e-02 -2.2504456054544215e-02
      2.0679117335731197e-02 -1.4189757975630700e-02
      5.5816406173953226e-01 7.6678214222626911e-02
      -3.1432600007350188e-02 -5.8341588977230942e-02
      7.5207649896841505e-02 -5.3610491306458306e-04
      -1.8445760777471159e-02 4.7424275656598978e-03
      1.6165207135771031e-02 3.9388233673995077e-02
      -3.2774824808268550e-02 2.5957736133529679e-02
      -5.8000049733451790e-02 3.4544703539773750e-02
      2.6926325186128083e-02 -2.9217733216038124e-02
      4.1765382751237513e-02 -6.9414807899104522e-02
      7.1921353575738603e-02 -4.7071456991261529e-02
      2.1237477405613686e-01 3.0802519860816907e-03
      -3.7655014848888965e-03 4.8511410944807233e-04
      1.9037221728626693e-03 7.8445053403438086e-03
      1.1421463650927877e-02 -1.4141301687592759e-03
      -9.5130124380098345e-03 -2.1194102650202978e-02
      -8.7294832064577083e-03 -8.0246155482050757e-03
      5.1634672419656729e-04 6.3498721597626331e-03
      -6.0717833152970635e-03 1.5639873312962696e-02
      5.9796181375064220e-03 -2.1379998114433588e-02
      1.4333811559393830e-01 -2.9677679235178616e-03
      4.5872357754653620e-02 7.6597549635155689e-03
      -4.8776981622773606e-03 -5.1180688276640093e-03
      5.1195621966005017e-03 1.2429366410334012e-02
      1.4775929990355669e-02 -6.6086598571019027e-03
      -1.4392753095084717e-02 -1.5092590215679488e-02
      -1.5007399574501586e-02 -1.2362693729702414e-02
      -1.1118382308969931e-02 1.3980212663064415e-02
      -1.4200944429002230e-02 1.3730177570716528e-02
      1.2045852203184524e-02 -1.6958372061426647e-03
      7.5720922793491158e-03 -1.0004676455195743e-02
      1.2447043448618642e+00 -6.5410755069428519e-02
      3.5978239506320474e-02 5.9865130247516218e-02
      -6.3284309728150620e-02 -3.6684976137023220e-02
      -2.8774741269854850e-02 2.7130027601191372e-02
      3.1490445920735209e-02 3.3316459474776405e-02
      3.6959301252781039e-02 3.0833194469490403e-02
      6.8217352305148929e-02 -4.5262832668723302e-02
      3.6313951410794666e-02 -2.6841305039519630e-02
      -4.4529360136400020e-02 4.0294065619548299e-02
      -9.4652899836172158e-02 5.2628165512140980e-02
      -2.3112931325364605e-01 6.5197105301303446e-02
      6.8658083837995626e-02 2.3840026904717232e-02
      1.3348013059460892e-02 -8.0423907868243549e-02
      -1.1223033840715357e-01 8.2068479470219918e-02
      1.1430596043696478e-01 1.4769137116194256e-01
      5.9021548985256411e-02 9.7667826014781078e-02
      -7.6453445699805624e-04 -5.5779334551005963e-02
      1.0098785879376961e-01 -1.3390082583175911e-01
      -4.8264119391033311e-02 3.0271379460804940e-02
      2.6952328532757194e-02 3.8199124149629456e-02
      6.5806292905797689e-02 8.7315295997147692e-03
      1.0956838003012705e-01 6.5567851215173042e-02
      -1.6155564618654944e-02 -1.1666869827629596e-01
      -1.5326049678119880e-01 1.2729184044347816e-01
      1.6013214320051161e-01 1.9060349054621251e-01
      9.6430563601832067e-02 1.3484547505204150e-01
      4.8448692813609737e-02 -9.2854655909322376e-02
      1.3284610489043397e-01 -1.6936716961093243e-01
      -8.9721034425854981e-02 7.8411359871625466e-02
      -4.3596696273194971e-02 7.5705884527821204e-02
      9.5771078103305460e-04 7.1886233199114065e-04
      6.8368142343753113e-04 -5.6321055983890101e-04
      1.3067146628238167e-04 1.2364034378421818e-03
      -9.4410048342854472e-05 9.7429285146779685e-04
      -6.6782448827763742e-04 -9.1630289465662257e-04
      7.5011341488593643e-04 7.8185677674139553e-05
      -1.2327735244158108e-03 -6.0743474532163721e-04
      8.6023294118386809e-04 9.8191665983138224e-04
      -1.1997062722192565e-03 7.1106642442665007e-04
      -2.9177241194229536e-04 -6.0769146417760376e-05
      4.9394716280754541e-01 1.9518416679606970e-01
      -6.1660852103664864e-02 -7.7411217183045389e-02
      1.3051918402348481e-01 3.5514438333626726e-02
      -2.7878513956520776e-03 -5.2034365565458207e-02
      4.3226804851385922e-03 -7.7540154570357048e-03
      -1.7314465848285786e-02 -1.2673377800279498e-02
      -9.7133800022241354e-02 1.9970801185776273e-02
      1.7375591094643091e-02 5.8309062688316967e-05
      2.0088762711942963e-02 1.6865782175921676e-02
      -3.7700058581352926e-02 -6.1415164294426755e-02
      6.8530532761391771e-01 -9.6024209566394694e-03
      -5.3966238511360280e-02 2.0608351348782306e-02
      -1.3631495307163547e-02 4.4562707450416635e-02
      6.0541340864824843e-02 -4.7730315206874346e-02
      -6.8545931578507233e-02 -8.5821794639602961e-02
      -1.4873074910773129e-02 -4.4957820217981073e-02
      8.5543190347002786e-03 1.7492215792491193e-02
      -3.6228927423395806e-02 8.1407412361872433e-02
      1.8928142376547098e-02 -5.5336020229711874e-02
      1.1541107008684597e-01 6.7212930259126268e-03
      9.2207156881382049e-02 4.3510848509360593e-02
      -3.3794823264273799e-02 -3.6705165044476323e-02
      4.3298096811220717e-02 3.3419207758562379e-02
      4.8032601290250318e-02 -3.6756288362974301e-02
      -4.9340458353749332e-02 -5.4677675259266000e-02
      -3.5455119741247487e-02 -3.4636669007265863e-02
      -3.6995774077590964e-02 3.2510771399201076e-02
      -3.4040252245826484e-02 4.8581815939185459e-02
      3.5863500550926977e-02 -4.9433351965001933e-02
      -1.0578661871072992e-03 -3.3898519822702700e-02
      3.1485665161868898e-01 -4.2439462280584400e-02
      1.7861273550596288e-02 3.4835910157108012e-02
      -3.5727646028769343e-02 -1.2858296425090987e-02
      1.6671601844353786e-02 1.0298942526468449e-02
      -1.3797934134775617e-02 -1.4382198991325706e-02
      1.4881686663573597e-02 3.7168389938874295e-03
      4.2283485640105166e-02 -2.0240937613646703e-02
      2.8782558551318739e-03 1.0349477037398910e-02
      -1.8148208854410420e-02 8.7067960279753262e-03
      -5.8286449512627909e-02 2.8068784105314160e-02
      -3.3167834188239389e-04 8.6954122762855841e-04
      4.6157935416377724e-04 -3.3529723715703503e-04
      9.5888427999125643e-04 -1.1108280814548994e-03
      1.0954577700025433e-03 6.9161254803928450e-04
      -1.1852362365783440e-03 -7.5180608393163087e-05
      -7.6651056875747469e-04 2.1698853526633491e-04
      -4.8551762841139798e-04 1.0782919671687059e-03
      3.6360029035078850e-04 8.2303030262755256e-04
      -4.3953828428119375e-04 5.0258553585499574e-04
      -1.1184546518552844e-03 9.0163471862098250e-04
      5.5428705140192447e-01 4.2670091378587398e-02
      -2.0745121039767021e-02 -1.9986941095493642e-02
      2.7088149162423619e-02 1.7445192213483247e-02
      2.7519960222476197e-02 -2.4836847310525541e-02
      -2.9241595872858041e-02 -3.3671040662660932e-02
      -1.7691641166301956e-02 -1.8088264895521348e-02
      -2.4157916602542136e-02 1.4168162899933388e-02
      -1.5647481403192411e-02 3.0845684234345982e-02
      1.9686621514173178e-02 -3.3147004740988244e-02
      -2.3195531039445289e-02 -1.6793432059597466e-02
      2.4833084278479844e-01 -1.3536486683329239e-02
      1.5841776109075320e-02 1.8704679005762427e-02
      -1.8242833255265836e-02 -1.1168907204855288e-02
      1.0820509064486008e-02 8.2283158477334684e-03
      -1.9554093039464628e-02 -3.2392458859458836e-02
      1.5536187914550402e-02 7.8614924076630434e-03
      2.1388159598597779e-02 -1.6996570359399492e-02
      9.7305151192292362e-03 2.5894009406738087e-02
      -1.3377129747707094e-02 5.2352134703700128e-03
      5.4270657742783397e-02 1.8278117034054506e-02
      4.1594804825415144e-01 -1.7831385093412769e-02
      -3.1313184419134957e-02 6.7314355634819963e-03
      -2.4650061640891782e-02 2.1672857954513292e-02
      4.4722894752077171e-02 -3.7030383365158494e-02
      -5.1014275603427028e-02 -7.7805016538636820e-02
      -1.3747185069847671e-02 -1.9871940856049819e-02
      1.1180994146089302e-02 1.2729169099066866e-02
      -1.7799504375766665e-02 6.4058401426361350e-02
      2.1030784964582598e-02 -4.7373816180239635e-02
      6.1928854046013886e-02 -1.0065962452787925e-02
      7.0801340777354949e-01 -7.6633842776496278e-03
      -6.1885756245340078e-03 6.9109162824436314e-03
      8.0622839544538475e-03 7.5866553616541869e-03
      3.0023567062528525e-02 -1.6658354106848221e-02
      -2.5438553279777499e-02 -1.3953964831353759e-02
      -3.0436529060347919e-03 -1.5199382274456778e-02
      7.9993377658125805e-03 -2.1586140504431641e-03
      -9.5208027479313940e-03 2.4360537134996339e-02
      2.0663296159383732e-03 -1.9238179104944263e-02
      -1.8757752387849103e-02 5.0270159805227387e-03
      -1.8610778381789292e-01 6.4827899271430997e-02
      4.7194006964804552e-02 3.4070766774971076e-02
      -2.1468787514361827e-02 -4.5287548489219336e-02
      -5.8946544996469265e-02 4.8969748367113833e-02
      6.1780113860318162e-02 7.5324823947183622e-02
      3.4273259082366267e-02 5.3787088050483482e-02
      1.2634321384453740e-02 -3.7389118046146128e-02
      5.4908580863960291e-02 -6.8481758894010814e-02
      -3.3363605614290262e-02 3.6377915626955026e-02
      3.4088714168544969e-02 3.2937853573339670e-02
      6.9405980296257286e-01 -1.4910440110493930e-02
      1.1492501713077892e-01 6.0274699639134059e-02
      -1.7079684214793681e-02 -1.2424457195595030e-01
      -1.7246013428495693e-01 1.3220920999898780e-01
      1.7939022675143398e-01 2.1751275605818093e-01
      1.0042809689379281e-01 1.4879301817482635e-01
      4.2490059740284004e-02 -9.8311075584769897e-02
      1.5395109900863005e-01 -1.9845860425861866e-01
      -9.1276588787304103e-02 7.1586630288602307e-02
      -4.1527221843412421e-03 7.8343740693818650e-02
      -5.6548214476460402e-04 1.0145292711350746e-03
      -1.3196758368548420e-04 -4.9349484619585777e-04
      -9.5223426696057901e-04 -5.5466386663209275e-04
      1.9466163617455908e-04 -3.9121181200017709e-04
      9.5740985473064812e-04 6.0355419728600021e-04
      -1.2142502675074055e-04 -5.2983766019914659e-05
      -6.8085487378018910e-04 -7.0421200875575715e-04
      -8.4060423260503159e-04 4.3275631662010553e-04
      1.0384930686008552e-03 -1.2082556680243000e-03
      -5.7932576879207210e-04 1.1171140008469406e-03
      6.9633737195686796e-01 -1.4495771569559602e-02
      1.1633014779804100e-01 6.2075029838414605e-02
      -1.6237644647961607e-02 -1.2512164440917040e-01
      -1.7373506314954146e-01 1.3411512626252017e-01
      1.7760063815235008e-01 2.1745861115682169e-01
      1.0026917792338924e-01 1.4991108143895063e-01
      4.0508463467779136e-02 -9.9254396830995573e-02
      1.5406454050474797e-01 -1.9799153075706333e-01
      -8.9643318954405277e-02 7.3101818703373331e-02
      -3.5655872084390983e-03 7.7358038321967484e-02
      2.0803593015854860e-01 4.5227054332302737e-02
      -2.0221338142551931e-04 -1.9986513471461909e-02
      3.2351238658696185e-02 -1.0584572405626803e-02
      -1.6317506084613888e-02 -3.7364872155308143e-03
      1.0798342199833413e-02 4.7887014852374963e-03
      4.3275763363106552e-03 2.1980725629645894e-02
      -3.1715974352753556e-02 -1.6799915017653706e-03
      2.7813210848008162e-02 -9.2941650825550445e-03
      7.8747536973931727e-03 -3.0846647118514717e-02
      -1.8209650556192727e-01 -1.3033083226197745e-02
      -1.3153118976860827e+00 -5.6416323050931111e-02
      1.9598762190631655e-01 1.1441254508660005e-01
      -5.6356989681789496e-02 -2.1624484281315251e-01
      -2.9832093147351108e-01 2.2873937330818619e-01
      3.1016249402173335e-01 3.7208415267530776e-01
      1.7924695725229270e-01 2.5569953232796461e-01
      8.9356344818901423e-02 -1.7081676979158827e-01
      2.6175898160219929e-01 -3.4695271373865400e-01
      -1.6393652390897420e-01 1.4113692234805406e-01
      4.7868039816981962e-02 1.4206970617431575e-01
      4.2533585239645738e-01 6.6101187110442244e-02
      -5.3656242825550371e-02 -6.8295256637788376e-02
      6.9918837539162865e-02 5.2165989079921850e-02
      6.4493672515737108e-02 -5.4253431206878130e-02
      -6.4879374759983677e-02 -6.5998089346814878e-02
      -5.7898568329104123e-02 -5.0211383312647906e-02
      -5.8036018137507563e-02 5.4971897582065748e-02
      -4.9985833128940386e-02 6.1471266650763509e-02
      6.2282460008627000e-02 -7.6549605675128543e-02
      -1.0521562158807710e-01 -6.0057478586498264e-02
      3.0652569017950904e-01 3.0977870365767605e-02
      -9.9225550793437256e-03 -2.2200787612493788e-02
      3.9192348831150046e-02 5.6534522902689189e-03
      1.3392442145761744e-02 -1.0534928072095833e-02
