<?xml version="1.0"?>
<opencv_storage>
<my_nn type_id="opencv-ml-ann-mlp">
  <layer_sizes type_id="opencv-matrix">
    <rows>1</rows>
    <cols>3</cols>
    <dt>i</dt>
    <data>
      1558 50 2</data></layer_sizes>
  <activation_function>SIGMOID_SYM</activation_function>
  <f_param1>5.9999999999999998e-01</f_param1>
  <f_param2>1.</f_param2>
  <min_val>-9.4999999999999996e-01</min_val>
  <max_val>9.4999999999999996e-01</max_val>
  <min_val1>-9.7999999999999998e-01</min_val1>
  <max_val1>9.7999999999999998e-01</max_val1>
  <training_params>
    <train_method>BACKPROP</train_method>
    <dw_scale>1.0000000000000001e-01</dw_scale>
    <moment_scale>1.0000000000000001e-01</moment_scale>
    <term_criteria><epsilon>9.9999999747524271e-07</epsilon>
      <iterations>1000</iterations></term_criteria></training_params>
  <input_scale>
    1.9819691015175576e-02 -1.1907487714702651e+00
    7.8477285046505436e-03 -1.1566848159002678e+00
    1.7904518960437374e-01 -6.7207805329854009e-01
    2.3816440574959223e+00 -1.8373953843321591e+00
    2.0062464875455891e+01 -4.9968779266390762e-02 1. 0.
    1.0395965308683486e+01 -9.7098057054951600e-02
    1.2124640058646037e+01 -8.3045479853739973e-02
    1.2124640058646037e+01 -8.3045479853739973e-02
    8.4166867787227844e+00 -1.2053785548606727e-01
    1.3395897879990425e+01 -7.5070411531702255e-02
    1.1612099791346916e+01 -8.6765378266602119e-02
    1.6391168862124101e+01 -6.1237243569579457e-02 1. 0.
    1.1612099791346916e+01 -8.6765378266602119e-02
    1.2124640058646037e+01 -8.3045479853739973e-02
    4.0087412276835224e+01 -2.4961028814965893e-02
    1.1612099791346916e+01 -8.6765378266602119e-02
    1.6391168862124101e+01 -6.1237243569579457e-02
    1.5180018088416643e+01 -6.6164462402812263e-02
    1.6391168862124101e+01 -6.1237243569579457e-02
    1.3395897879990425e+01 -7.5070411531702255e-02
    1.1160045799258061e+01 -9.0336609832101358e-02
    1.0757466229746434e+01 -9.3776168876992583e-02
    1.6391168862124101e+01 -6.1237243569579457e-02
    1.4204048938870294e+01 -7.0754913767722513e-02 1. 0.
    9.0173505166694721e+00 -1.1229577231219766e-01
    1.5180018088416643e+01 -6.6164462402812263e-02
    4.0087412276835224e+01 -2.4961028814965893e-02
    2.8354915744589913e+01 -3.5311227577322434e-02
    1.2124640058646037e+01 -8.3045479853739973e-02
    2.3158911995693746e+01 -4.3260732246003263e-02 1. 0.
    6.6655072803729141e+00 -1.5356399089277573e-01
    1.1160045799258061e+01 -9.0336609832101358e-02
    1.2712445306240667e+01 -7.9155948357662931e-02
    1.2124640058646037e+01 -8.3045479853739973e-02 1. 0.
    1.5180018088416643e+01 -6.6164462402812263e-02
    1.2124640058646037e+01 -8.3045479853739973e-02
    1.1160045799258061e+01 -9.0336609832101358e-02
    7.6403459893426309e+00 -1.3320653032477811e-01 1. 0.
    1.7950017355091749e+01 -5.5884238340883401e-02 1. 0.
    1.7950017355091749e+01 -5.5884238340883401e-02
    8.6031325044363278e+00 -1.1785113019775791e-01
    2.3158911995693746e+01 -4.3260732246003263e-02
    1.1160045799258061e+01 -9.0336609832101358e-02
    9.7714526447116814e+00 -1.0343380757166787e-01 1. 0.
    1.0069014991203547e+01 -1.0031397251510384e-01 1. 0.
    1.2124640058646037e+01 -8.3045479853739973e-02
    1.5180018088416643e+01 -6.6164462402812263e-02
    5.9329891535739128e+00 -1.7363044222787913e-01
    1.1612099791346916e+01 -8.6765378266602119e-02
    1.4204048938870294e+01 -7.0754913767722513e-02
    1.2712445306240667e+01 -7.9155948357662931e-02
    4.0087412276835224e+01 -2.4961028814965893e-02 1. 0. 1. 0.
    1.2712445306240667e+01 -7.9155948357662931e-02
    3.6792596543576601e+00 -2.9553206439111968e-01
    1.2124640058646037e+01 -8.3045479853739973e-02
    1.2712445306240667e+01 -7.9155948357662931e-02
    9.0173505166694721e+00 -1.1229577231219766e-01 1. 0.
    1.1612099791346916e+01 -8.6765378266602119e-02
    1.0069014991203547e+01 -1.0031397251510384e-01
    9.2486911541150452e+00 -1.0941789036624275e-01
    1.2124640058646037e+01 -8.3045479853739973e-02
    9.2486911541150452e+00 -1.0941789036624275e-01
    9.2486911541150452e+00 -1.0941789036624275e-01
    1.4204048938870294e+01 -7.0754913767722513e-02
    4.0087412276835224e+01 -2.4961028814965893e-02 1. 0. 1. 0. 1. 0.
    9.7714526447116814e+00 -1.0343380757166787e-01 1. 0. 1. 0.
    1.3395897879990425e+01 -7.5070411531702255e-02
    1.0395965308683486e+01 -9.7098057054951600e-02
    1.2712445306240667e+01 -7.9155948357662931e-02
    1.4204048938870294e+01 -7.0754913767722513e-02
    1.7950017355091749e+01 -5.5884238340883401e-02
    1.1612099791346916e+01 -8.6765378266602119e-02
    1.4204048938870294e+01 -7.0754913767722513e-02
    4.0087412276835224e+01 -2.4961028814965893e-02
    1.1160045799258061e+01 -9.0336609832101358e-02 1. 0.
    1.3395897879990425e+01 -7.5070411531702255e-02
    1.2124640058646037e+01 -8.3045479853739973e-02
    1.2124640058646037e+01 -8.3045479853739973e-02
    1.2124640058646037e+01 -8.3045479853739973e-02
    1.3395897879990425e+01 -7.5070411531702255e-02
    1.7950017355091749e+01 -5.5884238340883401e-02
    9.0173505166694721e+00 -1.1229577231219766e-01
    1.7950017355091749e+01 -5.5884238340883401e-02
    1.6391168862124101e+01 -6.1237243569579457e-02
    1.1612099791346916e+01 -8.6765378266602119e-02
    1.2712445306240667e+01 -7.9155948357662931e-02
    2.8354915744589913e+01 -3.5311227577322434e-02
    5.9329891535739128e+00 -1.7363044222787913e-01
    1.6391168862124101e+01 -6.1237243569579457e-02
    9.2486911541150452e+00 -1.0941789036624275e-01
    2.0062464875455891e+01 -4.9968779266390762e-02
    2.3158911995693746e+01 -4.3260732246003263e-02
    9.7714526447116814e+00 -1.0343380757166787e-01 1. 0.
    8.2420772464655165e+00 -1.2316927391978356e-01
    9.0173505166694721e+00 -1.1229577231219766e-01
    1.6391168862124101e+01 -6.1237243569579457e-02 1. 0. 1. 0.
    9.0173505166694721e+00 -1.1229577231219766e-01
    9.2486911541150452e+00 -1.0941789036624275e-01
    9.2486911541150452e+00 -1.0941789036624275e-01
    6.5793155106450394e+00 -1.5567496226930977e-01 1. 0.
    1.4204048938870294e+01 -7.0754913767722513e-02
    1.2124640058646037e+01 -8.3045479853739973e-02
    1.2124640058646037e+01 -8.3045479853739973e-02 1. 0.
    1.6391168862124101e+01 -6.1237243569579457e-02
    4.0087412276835224e+01 -2.4961028814965893e-02
    1.0757466229746434e+01 -9.3776168876992583e-02 1. 0.
    1.2124640058646037e+01 -8.3045479853739973e-02
    1.1612099791346916e+01 -8.6765378266602119e-02
    9.2486911541150452e+00 -1.0941789036624275e-01
    6.6655072803729141e+00 -1.5356399089277573e-01
    1.3395897879990425e+01 -7.5070411531702255e-02
    1.1160045799258061e+01 -9.0336609832101358e-02
    1.7950017355091749e+01 -5.5884238340883401e-02
    4.0087412276835224e+01 -2.4961028814965893e-02
    1.0757466229746434e+01 -9.3776168876992583e-02
    1.1160045799258061e+01 -9.0336609832101358e-02
    4.0087412276835224e+01 -2.4961028814965893e-02
    1.3395897879990425e+01 -7.5070411531702255e-02
    1.6391168862124101e+01 -6.1237243569579457e-02
    1.4204048938870294e+01 -7.0754913767722513e-02
    1.0757466229746434e+01 -9.3776168876992583e-02
    5.8727457004771839e+00 -1.7552415543144759e-01 1. 0.
    1.7950017355091749e+01 -5.5884238340883401e-02
    1.6391168862124101e+01 -6.1237243569579457e-02
    1.5180018088416643e+01 -6.6164462402812263e-02
    1.4204048938870294e+01 -7.0754913767722513e-02
    8.2420772464655165e+00 -1.2316927391978356e-01
    1.2124640058646037e+01 -8.3045479853739973e-02
    9.2486911541150452e+00 -1.0941789036624275e-01
    1.2712445306240667e+01 -7.9155948357662931e-02
    1.2124640058646037e+01 -8.3045479853739973e-02
    1.0757466229746434e+01 -9.3776168876992583e-02
    1.1160045799258061e+01 -9.0336609832101358e-02
    1.0069014991203547e+01 -1.0031397251510384e-01
    2.8354915744589913e+01 -3.5311227577322434e-02
    2.3158911995693746e+01 -4.3260732246003263e-02 1. 0. 1. 0.
    1.2124640058646037e+01 -8.3045479853739973e-02 1. 0.
    2.8354915744589913e+01 -3.5311227577322434e-02
    1.3395897879990425e+01 -7.5070411531702255e-02
    9.4991345518850654e+00 -1.0646601614815142e-01
    1.2124640058646037e+01 -8.3045479853739973e-02
    1.1160045799258061e+01 -9.0336609832101358e-02 1. 0.
    1.1612099791346916e+01 -8.6765378266602119e-02
    6.4168171848793909e+00 -1.5982110049512804e-01
    8.0781070045353811e+00 -1.2574886370696423e-01
    2.0062464875455891e+01 -4.9968779266390762e-02
    2.3158911995693746e+01 -4.3260732246003263e-02
    1.2712445306240667e+01 -7.9155948357662931e-02
    1.2712445306240667e+01 -7.9155948357662931e-02
    1.0069014991203547e+01 -1.0031397251510384e-01 1. 0.
    1.7950017355091749e+01 -5.5884238340883401e-02
    1.7950017355091749e+01 -5.5884238340883401e-02
    1.7950017355091749e+01 -5.5884238340883401e-02 1. 0. 1. 0. 1. 0.
    8.8028086249530020e+00 -1.1510521863263577e-01
    2.1157877801079081e+00 -7.1272801309986200e-01
    1.5180018088416643e+01 -6.6164462402812263e-02
    1.2124640058646037e+01 -8.3045479853739973e-02
    9.4991345518850654e+00 -1.0646601614815142e-01
    1.2712445306240667e+01 -7.9155948357662931e-02
    2.6283124619323326e+00 -4.6150941112385918e-01
    1.3395897879990425e+01 -7.5070411531702255e-02 1. 0.
    9.4991345518850654e+00 -1.0646601614815142e-01
    4.0087412276835224e+01 -2.4961028814965893e-02
    1.2712445306240667e+01 -7.9155948357662931e-02
    4.0087412276835224e+01 -2.4961028814965893e-02
    8.6031325044363278e+00 -1.1785113019775791e-01
    1.6391168862124101e+01 -6.1237243569579457e-02
    1.1612099791346916e+01 -8.6765378266602119e-02
    1.5180018088416643e+01 -6.6164462402812263e-02 1. 0.
    1.0757466229746434e+01 -9.3776168876992583e-02
    1.2124640058646037e+01 -8.3045479853739973e-02 1. 0. 1. 0.
    1.0757466229746434e+01 -9.3776168876992583e-02
    1.2124640058646037e+01 -8.3045479853739973e-02
    9.0173505166694721e+00 -1.1229577231219766e-01
    1.2712445306240667e+01 -7.9155948357662931e-02
    1.0069014991203547e+01 -1.0031397251510384e-01
    1.1612099791346916e+01 -8.6765378266602119e-02
    1.5180018088416643e+01 -6.6164462402812263e-02
    1.2124640058646037e+01 -8.3045479853739973e-02
    1.1612099791346916e+01 -8.6765378266602119e-02
    1.6391168862124101e+01 -6.1237243569579457e-02
    8.2420772464655165e+00 -1.2316927391978356e-01 1. 0.
    1.1160045799258061e+01 -9.0336609832101358e-02
    4.0087412276835224e+01 -2.4961028814965893e-02
    1.6391168862124101e+01 -6.1237243569579457e-02
    1.2124640058646037e+01 -8.3045479853739973e-02
    1.2124640058646037e+01 -8.3045479853739973e-02
    1.1612099791346916e+01 -8.6765378266602119e-02
    8.8028086249530020e+00 -1.1510521863263577e-01
    1.3395897879990425e+01 -7.5070411531702255e-02
    1.0395965308683486e+01 -9.7098057054951600e-02
    9.2486911541150452e+00 -1.0941789036624275e-01
    1.6391168862124101e+01 -6.1237243569579457e-02
    7.5098401908222208e+00 -1.3560732598620448e-01
    4.0087412276835224e+01 -2.4961028814965893e-02
    8.2420772464655165e+00 -1.2316927391978356e-01
    6.6655072803729141e+00 -1.5356399089277573e-01
    7.0489464239449067e+00 -1.4484136487558028e-01
    1.6391168862124101e+01 -6.1237243569579457e-02
    1.7950017355091749e+01 -5.5884238340883401e-02
    9.2486911541150452e+00 -1.0941789036624275e-01
    1.7950017355091749e+01 -5.5884238340883401e-02
    1.2712445306240667e+01 -7.9155948357662931e-02
    7.9237419484378275e+00 -1.2827975757122259e-01 1. 0.
    1.1612099791346916e+01 -8.6765378266602119e-02 1. 0.
    7.6403459893426309e+00 -1.3320653032477811e-01
    1.0395965308683486e+01 -9.7098057054951600e-02
    1.1612099791346916e+01 -8.6765378266602119e-02
    1.7950017355091749e+01 -5.5884238340883401e-02 1. 0.
    1.4204048938870294e+01 -7.0754913767722513e-02
    1.0069014991203547e+01 -1.0031397251510384e-01
    1.6391168862124101e+01 -6.1237243569579457e-02
    4.0087412276835224e+01 -2.4961028814965893e-02
    1.1160045799258061e+01 -9.0336609832101358e-02 1. 0.
    1.7950017355091749e+01 -5.5884238340883401e-02
    1.0757466229746434e+01 -9.3776168876992583e-02
    1.7950017355091749e+01 -5.5884238340883401e-02
    2.8354915744589913e+01 -3.5311227577322434e-02
    1.2712445306240667e+01 -7.9155948357662931e-02 1. 0.
    1.1612099791346916e+01 -8.6765378266602119e-02
    9.0173505166694721e+00 -1.1229577231219766e-01
    6.7552972582571709e+00 -1.5142633953752063e-01
    5.9329891535739128e+00 -1.7363044222787913e-01 1. 0.
    1.2124640058646037e+01 -8.3045479853739973e-02
    1.2124640058646037e+01 -8.3045479853739973e-02
    1.2124640058646037e+01 -8.3045479853739973e-02
    1.2124640058646037e+01 -8.3045479853739973e-02
    1.2124640058646037e+01 -8.3045479853739973e-02
    1.2712445306240667e+01 -7.9155948357662931e-02
    2.3158911995693746e+01 -4.3260732246003263e-02
    2.6283124619323326e+00 -4.6150941112385918e-01
    7.6403459893426309e+00 -1.3320653032477811e-01
    2.8354915744589913e+01 -3.5311227577322434e-02 1. 0.
    1.2712445306240667e+01 -7.9155948357662931e-02 1. 0. 1. 0.
    1.1612099791346916e+01 -8.6765378266602119e-02
    9.2486911541150452e+00 -1.0941789036624275e-01 1. 0.
    2.3158911995693746e+01 -4.3260732246003263e-02
    1.1612099791346916e+01 -8.6765378266602119e-02
    1.1612099791346916e+01 -8.6765378266602119e-02
    1.0069014991203547e+01 -1.0031397251510384e-01
    1.3395897879990425e+01 -7.5070411531702255e-02 1. 0.
    1.4204048938870294e+01 -7.0754913767722513e-02
    1.2712445306240667e+01 -7.9155948357662931e-02
    1.2124640058646037e+01 -8.3045479853739973e-02
    1.2712445306240667e+01 -7.9155948357662931e-02
    1.4204048938870294e+01 -7.0754913767722513e-02
    8.6031325044363278e+00 -1.1785113019775791e-01
    1.2124640058646037e+01 -8.3045479853739973e-02
    9.2486911541150452e+00 -1.0941789036624275e-01 1. 0.
    8.2420772464655165e+00 -1.2316927391978356e-01
    1.2124640058646037e+01 -8.3045479853739973e-02
    9.7714526447116814e+00 -1.0343380757166787e-01
    1.5180018088416643e+01 -6.6164462402812263e-02
    8.2420772464655165e+00 -1.2316927391978356e-01
    1.1612099791346916e+01 -8.6765378266602119e-02
    2.8354915744589913e+01 -3.5311227577322434e-02
    1.2712445306240667e+01 -7.9155948357662931e-02 1. 0. 1. 0.
    1.5180018088416643e+01 -6.6164462402812263e-02
    1.1160045799258061e+01 -9.0336609832101358e-02
    1.2124640058646037e+01 -8.3045479853739973e-02
    1.2124640058646037e+01 -8.3045479853739973e-02 1. 0. 1. 0.
    1.4204048938870294e+01 -7.0754913767722513e-02
    2.3158911995693746e+01 -4.3260732246003263e-02
    1.0395965308683486e+01 -9.7098057054951600e-02
    1.7950017355091749e+01 -5.5884238340883401e-02
    5.9329891535739128e+00 -1.7363044222787913e-01
    4.0087412276835224e+01 -2.4961028814965893e-02
    1.1612099791346916e+01 -8.6765378266602119e-02
    1.1612099791346916e+01 -8.6765378266602119e-02
    1.1612099791346916e+01 -8.6765378266602119e-02
    2.8354915744589913e+01 -3.5311227577322434e-02
    4.0087412276835224e+01 -2.4961028814965893e-02
    1.1160045799258061e+01 -9.0336609832101358e-02 1. 0.
    4.0087412276835224e+01 -2.4961028814965893e-02
    1.0069014991203547e+01 -1.0031397251510384e-01
    8.4166867787227844e+00 -1.2053785548606727e-01
    1.0395965308683486e+01 -9.7098057054951600e-02
    1.2124640058646037e+01 -8.3045479853739973e-02
    1.2124640058646037e+01 -8.3045479853739973e-02
    1.1612099791346916e+01 -8.6765378266602119e-02 1. 0.
    6.4168171848793909e+00 -1.5982110049512804e-01
    1.2712445306240667e+01 -7.9155948357662931e-02
    9.4991345518850654e+00 -1.0646601614815142e-01
    1.1160045799258061e+01 -9.0336609832101358e-02
    9.4991345518850654e+00 -1.0646601614815142e-01
    1.2124640058646037e+01 -8.3045479853739973e-02
    4.0087412276835224e+01 -2.4961028814965893e-02
    1.2124640058646037e+01 -8.3045479853739973e-02
    1.4204048938870294e+01 -7.0754913767722513e-02 1. 0.
    6.4168171848793909e+00 -1.5982110049512804e-01
    7.9237419484378275e+00 -1.2827975757122259e-01
    4.0087412276835224e+01 -2.4961028814965893e-02
    2.0062464875455891e+01 -4.9968779266390762e-02
    1.1160045799258061e+01 -9.0336609832101358e-02
    4.2599619358801828e+00 -2.4933774718103185e-01
    1.2124640058646037e+01 -8.3045479853739973e-02 1. 0.
    2.0062464875455891e+01 -4.9968779266390762e-02
    1.2712445306240667e+01 -7.9155948357662931e-02
    1.0069014991203547e+01 -1.0031397251510384e-01
    1.2712445306240667e+01 -7.9155948357662931e-02
    1.2124640058646037e+01 -8.3045479853739973e-02
    6.4168171848793909e+00 -1.5982110049512804e-01
    1.1612099791346916e+01 -8.6765378266602119e-02
    5.9329891535739128e+00 -1.7363044222787913e-01
    9.7714526447116814e+00 -1.0343380757166787e-01
    1.4204048938870294e+01 -7.0754913767722513e-02
    1.2124640058646037e+01 -8.3045479853739973e-02
    1.4204048938870294e+01 -7.0754913767722513e-02
    6.0595145484977975e+00 -1.6978714488318861e-01
    1.1160045799258061e+01 -9.0336609832101358e-02 1. 0.
    1.3395897879990425e+01 -7.5070411531702255e-02
    4.0087412276835224e+01 -2.4961028814965893e-02
    5.9329891535739128e+00 -1.7363044222787913e-01 1. 0. 1. 0.
    1.4204048938870294e+01 -7.0754913767722513e-02
    1.4204048938870294e+01 -7.0754913767722513e-02
    9.0173505166694721e+00 -1.1229577231219766e-01
    5.9329891535739128e+00 -1.7363044222787913e-01
    1.0395965308683486e+01 -9.7098057054951600e-02
    4.0087412276835224e+01 -2.4961028814965893e-02
    1.4204048938870294e+01 -7.0754913767722513e-02
    9.7714526447116814e+00 -1.0343380757166787e-01 1. 0.
    1.1160045799258061e+01 -9.0336609832101358e-02
    7.6403459893426309e+00 -1.3320653032477811e-01
    1.1612099791346916e+01 -8.6765378266602119e-02
    7.7780833700533503e+00 -1.3076478891123317e-01 1. 0. 1. 0.
    1.1612099791346916e+01 -8.6765378266602119e-02 1. 0.
    1.0395965308683486e+01 -9.7098057054951600e-02
    1.4204048938870294e+01 -7.0754913767722513e-02
    1.2124640058646037e+01 -8.3045479853739973e-02
    2.3158911995693746e+01 -4.3260732246003263e-02
    1.2712445306240667e+01 -7.9155948357662931e-02
    1.2712445306240667e+01 -7.9155948357662931e-02
    1.0757466229746434e+01 -9.3776168876992583e-02
    6.6655072803729141e+00 -1.5356399089277573e-01
    2.0062464875455891e+01 -4.9968779266390762e-02
    1.6391168862124101e+01 -6.1237243569579457e-02
    4.0087412276835224e+01 -2.4961028814965893e-02
    1.0395965308683486e+01 -9.7098057054951600e-02
    1.1612099791346916e+01 -8.6765378266602119e-02
    1.2124640058646037e+01 -8.3045479853739973e-02
    1.1160045799258061e+01 -9.0336609832101358e-02
    4.0087412276835224e+01 -2.4961028814965893e-02
    1.1160045799258061e+01 -9.0336609832101358e-02
    9.0173505166694721e+00 -1.1229577231219766e-01
    1.1160045799258061e+01 -9.0336609832101358e-02
    4.0087412276835224e+01 -2.4961028814965893e-02
    9.4991345518850654e+00 -1.0646601614815142e-01
    4.0087412276835224e+01 -2.4961028814965893e-02 1. 0. 1. 0.
    1.7950017355091749e+01 -5.5884238340883401e-02
    1.2124640058646037e+01 -8.3045479853739973e-02
    1.3395897879990425e+01 -7.5070411531702255e-02
    1.5180018088416643e+01 -6.6164462402812263e-02
    1.1160045799258061e+01 -9.0336609832101358e-02
    4.0817597451541046e+00 -2.6178160258460326e-01 1. 0.
    1.2712445306240667e+01 -7.9155948357662931e-02
    2.8354915744589913e+01 -3.5311227577322434e-02 1. 0.
    1.1612099791346916e+01 -8.6765378266602119e-02
    2.3158911995693746e+01 -4.3260732246003263e-02
    1.2124640058646037e+01 -8.3045479853739973e-02
    2.3158911995693746e+01 -4.3260732246003263e-02
    4.2599619358801828e+00 -2.4933774718103185e-01
    1.2124640058646037e+01 -8.3045479853739973e-02
    2.0062464875455891e+01 -4.9968779266390762e-02
    1.2124640058646037e+01 -8.3045479853739973e-02
    2.0062464875455891e+01 -4.9968779266390762e-02
    5.9329891535739128e+00 -1.7363044222787913e-01
    1.1160045799258061e+01 -9.0336609832101358e-02
    4.0087412276835224e+01 -2.4961028814965893e-02
    1.2712445306240667e+01 -7.9155948357662931e-02 1. 0.
    1.6391168862124101e+01 -6.1237243569579457e-02
    1.2124640058646037e+01 -8.3045479853739973e-02
    8.4166867787227844e+00 -1.2053785548606727e-01
    1.4204048938870294e+01 -7.0754913767722513e-02
    1.5180018088416643e+01 -6.6164462402812263e-02
    1.2712445306240667e+01 -7.9155948357662931e-02
    1.2712445306240667e+01 -7.9155948357662931e-02
    1.2712445306240667e+01 -7.9155948357662931e-02 1. 0.
    2.3158911995693746e+01 -4.3260732246003263e-02
    1.2712445306240667e+01 -7.9155948357662931e-02
    1.1160045799258061e+01 -9.0336609832101358e-02 1. 0.
    1.4204048938870294e+01 -7.0754913767722513e-02
    1.4204048938870294e+01 -7.0754913767722513e-02 1. 0.
    3.6792596543576601e+00 -2.9553206439111968e-01
    2.8354915744589913e+01 -3.5311227577322434e-02
    4.8977984911104508e+00 -2.1347814095749162e-01
    1.4204048938870294e+01 -7.0754913767722513e-02
    2.8354915744589913e+01 -3.5311227577322434e-02 1. 0. 1. 0. 1. 0.
    1.3395897879990425e+01 -7.5070411531702255e-02
    1.4204048938870294e+01 -7.0754913767722513e-02
    1.4204048938870294e+01 -7.0754913767722513e-02 1. 0. 1. 0.
    1.2124640058646037e+01 -8.3045479853739973e-02 1. 0.
    1.1612099791346916e+01 -8.6765378266602119e-02
    1.0757466229746434e+01 -9.3776168876992583e-02
    1.2712445306240667e+01 -7.9155948357662931e-02
    2.3158911995693746e+01 -4.3260732246003263e-02
    2.8354915744589913e+01 -3.5311227577322434e-02
    1.3395897879990425e+01 -7.5070411531702255e-02
    1.5180018088416643e+01 -6.6164462402812263e-02
    1.1160045799258061e+01 -9.0336609832101358e-02
    1.5180018088416643e+01 -6.6164462402812263e-02
    1.2712445306240667e+01 -7.9155948357662931e-02
    1.2712445306240667e+01 -7.9155948357662931e-02
    1.2712445306240667e+01 -7.9155948357662931e-02
    1.2712445306240667e+01 -7.9155948357662931e-02 1. 0.
    2.0062464875455891e+01 -4.9968779266390762e-02
    1.2712445306240667e+01 -7.9155948357662931e-02 1. 0. 1. 0.
    2.8354915744589913e+01 -3.5311227577322434e-02
    1.6391168862124101e+01 -6.1237243569579457e-02
    1.3395897879990425e+01 -7.5070411531702255e-02
    4.0087412276835224e+01 -2.4961028814965893e-02
    2.0062464875455891e+01 -4.9968779266390762e-02
    9.0173505166694721e+00 -1.1229577231219766e-01 1. 0.
    1.0395965308683486e+01 -9.7098057054951600e-02
    4.0087412276835224e+01 -2.4961028814965893e-02
    4.0087412276835224e+01 -2.4961028814965893e-02 1. 0.
    1.0757466229746434e+01 -9.3776168876992583e-02
    1.1612099791346916e+01 -8.6765378266602119e-02
    9.0173505166694721e+00 -1.1229577231219766e-01
    1.0757466229746434e+01 -9.3776168876992583e-02 1. 0. 1. 0.
    1.4204048938870294e+01 -7.0754913767722513e-02
    8.6031325044363278e+00 -1.1785113019775791e-01
    1.4204048938870294e+01 -7.0754913767722513e-02
    1.7950017355091749e+01 -5.5884238340883401e-02
    2.3158911995693746e+01 -4.3260732246003263e-02
    4.0087412276835224e+01 -2.4961028814965893e-02
    1.2712445306240667e+01 -7.9155948357662931e-02
    1.6391168862124101e+01 -6.1237243569579457e-02
    9.7714526447116814e+00 -1.0343380757166787e-01
    1.1612099791346916e+01 -8.6765378266602119e-02 1. 0.
    1.3395897879990425e+01 -7.5070411531702255e-02
    1.0069014991203547e+01 -1.0031397251510384e-01
    1.2712445306240667e+01 -7.9155948357662931e-02
    1.2712445306240667e+01 -7.9155948357662931e-02
    3.4678414048342416e+00 -3.1741761302031979e-01
    5.9329891535739128e+00 -1.7363044222787913e-01
    1.5180018088416643e+01 -6.6164462402812263e-02
    1.0395965308683486e+01 -9.7098057054951600e-02
    1.2124640058646037e+01 -8.3045479853739973e-02
    8.8028086249530020e+00 -1.1510521863263577e-01
    1.7950017355091749e+01 -5.5884238340883401e-02 1. 0.
    1.2124640058646037e+01 -8.3045479853739973e-02
    9.4991345518850654e+00 -1.0646601614815142e-01
    5.9329891535739128e+00 -1.7363044222787913e-01 1. 0. 1. 0.
    1.2712445306240667e+01 -7.9155948357662931e-02
    4.0087412276835224e+01 -2.4961028814965893e-02
    4.0087412276835224e+01 -2.4961028814965893e-02
    1.0757466229746434e+01 -9.3776168876992583e-02
    1.2124640058646037e+01 -8.3045479853739973e-02
    9.4991345518850654e+00 -1.0646601614815142e-01 1. 0.
    6.4168171848793909e+00 -1.5982110049512804e-01
    1.6391168862124101e+01 -6.1237243569579457e-02
    1.3395897879990425e+01 -7.5070411531702255e-02 1. 0.
    2.3158911995693746e+01 -4.3260732246003263e-02
    8.8028086249530020e+00 -1.1510521863263577e-01
    1.2712445306240667e+01 -7.9155948357662931e-02
    4.0087412276835224e+01 -2.4961028814965893e-02
    2.6067032411112114e+00 -4.6745363227897191e-01 1. 0.
    9.4991345518850654e+00 -1.0646601614815142e-01
    5.9952089753192128e+00 -1.7171831436157148e-01 1. 0.
    9.2486911541150452e+00 -1.0941789036624275e-01
    6.2661750261259135e+00 -1.6387257228971880e-01
    1.1160045799258061e+01 -9.0336609832101358e-02
    6.4168171848793909e+00 -1.5982110049512804e-01
    2.8354915744589913e+01 -3.5311227577322434e-02
    1.5180018088416643e+01 -6.6164462402812263e-02
    1.1612099791346916e+01 -8.6765378266602119e-02
    2.3158911995693746e+01 -4.3260732246003263e-02
    1.0757466229746434e+01 -9.3776168876992583e-02 1. 0.
    1.4204048938870294e+01 -7.0754913767722513e-02
    1.3395897879990425e+01 -7.5070411531702255e-02 1. 0.
    1.5180018088416643e+01 -6.6164462402812263e-02 1. 0. 1. 0. 1. 0.
    2.0062464875455891e+01 -4.9968779266390762e-02
    9.7714526447116814e+00 -1.0343380757166787e-01
    1.2712445306240667e+01 -7.9155948357662931e-02
    3.3296507271220221e+00 -3.3379437550849661e-01 1. 0.
    1.6391168862124101e+01 -6.1237243569579457e-02
    1.1160045799258061e+01 -9.0336609832101358e-02 1. 0. 1. 0.
    7.6403459893426309e+00 -1.3320653032477811e-01
    2.0062464875455891e+01 -4.9968779266390762e-02 1. 0.
    1.2124640058646037e+01 -8.3045479853739973e-02
    1.6391168862124101e+01 -6.1237243569579457e-02
    1.1612099791346916e+01 -8.6765378266602119e-02
    1.2712445306240667e+01 -7.9155948357662931e-02
    1.1160045799258061e+01 -9.0336609832101358e-02
    1.0395965308683486e+01 -9.7098057054951600e-02
    4.0087412276835224e+01 -2.4961028814965893e-02
    8.6031325044363278e+00 -1.1785113019775791e-01 1. 0.
    7.6403459893426309e+00 -1.3320653032477811e-01
    1.0069014991203547e+01 -1.0031397251510384e-01
    1.7950017355091749e+01 -5.5884238340883401e-02
    1.3395897879990425e+01 -7.5070411531702255e-02 1. 0. 1. 0.
    1.2712445306240667e+01 -7.9155948357662931e-02
    2.0062464875455891e+01 -4.9968779266390762e-02
    4.0087412276835224e+01 -2.4961028814965893e-02
    9.2486911541150452e+00 -1.0941789036624275e-01 1. 0.
    5.1907014214714877e+00 -2.0038822424111596e-01
    1.2712445306240667e+01 -7.9155948357662931e-02
    9.2486911541150452e+00 -1.0941789036624275e-01
    2.3158911995693746e+01 -4.3260732246003263e-02 1. 0.
    1.3395897879990425e+01 -7.5070411531702255e-02
    1.5180018088416643e+01 -6.6164462402812263e-02
    1.0757466229746434e+01 -9.3776168876992583e-02
    1.6391168862124101e+01 -6.1237243569579457e-02
    1.0395965308683486e+01 -9.7098057054951600e-02
    1.4204048938870294e+01 -7.0754913767722513e-02
    1.5180018088416643e+01 -6.6164462402812263e-02
    4.0087412276835224e+01 -2.4961028814965893e-02
    2.3158911995693746e+01 -4.3260732246003263e-02
    1.2712445306240667e+01 -7.9155948357662931e-02
    1.1612099791346916e+01 -8.6765378266602119e-02
    1.0395965308683486e+01 -9.7098057054951600e-02
    1.6391168862124101e+01 -6.1237243569579457e-02
    1.4204048938870294e+01 -7.0754913767722513e-02
    1.2124640058646037e+01 -8.3045479853739973e-02
    1.0395965308683486e+01 -9.7098057054951600e-02
    1.1160045799258061e+01 -9.0336609832101358e-02
    4.0087412276835224e+01 -2.4961028814965893e-02
    1.2124640058646037e+01 -8.3045479853739973e-02
    2.8354915744589913e+01 -3.5311227577322434e-02
    1.1612099791346916e+01 -8.6765378266602119e-02
    1.3395897879990425e+01 -7.5070411531702255e-02 1. 0.
    5.9329891535739128e+00 -1.7363044222787913e-01 1. 0. 1. 0.
    1.3395897879990425e+01 -7.5070411531702255e-02
    4.0087412276835224e+01 -2.4961028814965893e-02
    1.6391168862124101e+01 -6.1237243569579457e-02
    1.6391168862124101e+01 -6.1237243569579457e-02
    1.6391168862124101e+01 -6.1237243569579457e-02
    9.4991345518850654e+00 -1.0646601614815142e-01
    1.5180018088416643e+01 -6.6164462402812263e-02
    4.0087412276835224e+01 -2.4961028814965893e-02
    4.0087412276835224e+01 -2.4961028814965893e-02
    1.0069014991203547e+01 -1.0031397251510384e-01
    1.4204048938870294e+01 -7.0754913767722513e-02
    1.0757466229746434e+01 -9.3776168876992583e-02
    1.1612099791346916e+01 -8.6765378266602119e-02
    8.2420772464655165e+00 -1.2316927391978356e-01
    4.0087412276835224e+01 -2.4961028814965893e-02
    6.6655072803729141e+00 -1.5356399089277573e-01
    2.3158911995693746e+01 -4.3260732246003263e-02
    9.0173505166694721e+00 -1.1229577231219766e-01
    5.9329891535739128e+00 -1.7363044222787913e-01
    9.0173505166694721e+00 -1.1229577231219766e-01 1. 0.
    1.1160045799258061e+01 -9.0336609832101358e-02
    8.6031325044363278e+00 -1.1785113019775791e-01
    2.0062464875455891e+01 -4.9968779266390762e-02
    1.5180018088416643e+01 -6.6164462402812263e-02
    1.0395965308683486e+01 -9.7098057054951600e-02
    2.8354915744589913e+01 -3.5311227577322434e-02
    4.0087412276835224e+01 -2.4961028814965893e-02
    1.1612099791346916e+01 -8.6765378266602119e-02
    4.0087412276835224e+01 -2.4961028814965893e-02
    1.1160045799258061e+01 -9.0336609832101358e-02
    1.2124640058646037e+01 -8.3045479853739973e-02
    1.6391168862124101e+01 -6.1237243569579457e-02
    1.2712445306240667e+01 -7.9155948357662931e-02 1. 0.
    1.2712445306240667e+01 -7.9155948357662931e-02
    1.6391168862124101e+01 -6.1237243569579457e-02
    2.8354915744589913e+01 -3.5311227577322434e-02
    1.6391168862124101e+01 -6.1237243569579457e-02
    4.0087412276835224e+01 -2.4961028814965893e-02
    1.0395965308683486e+01 -9.7098057054951600e-02 1. 0.
    2.0062464875455891e+01 -4.9968779266390762e-02
    8.8028086249530020e+00 -1.1510521863263577e-01
    1.6391168862124101e+01 -6.1237243569579457e-02
    1.2712445306240667e+01 -7.9155948357662931e-02
    8.6031325044363278e+00 -1.1785113019775791e-01
    9.4991345518850654e+00 -1.0646601614815142e-01
    2.3158911995693746e+01 -4.3260732246003263e-02
    1.2124640058646037e+01 -8.3045479853739973e-02
    1.2712445306240667e+01 -7.9155948357662931e-02
    1.6391168862124101e+01 -6.1237243569579457e-02
    1.0757466229746434e+01 -9.3776168876992583e-02 1. 0.
    1.2712445306240667e+01 -7.9155948357662931e-02
    1.1160045799258061e+01 -9.0336609832101358e-02
    1.5180018088416643e+01 -6.6164462402812263e-02
    1.6391168862124101e+01 -6.1237243569579457e-02
    2.3158911995693746e+01 -4.3260732246003263e-02 1. 0.
    1.2712445306240667e+01 -7.9155948357662931e-02
    1.4204048938870294e+01 -7.0754913767722513e-02
    1.2124640058646037e+01 -8.3045479853739973e-02
    1.5180018088416643e+01 -6.6164462402812263e-02
    1.1612099791346916e+01 -8.6765378266602119e-02
    1.2712445306240667e+01 -7.9155948357662931e-02
    1.1612099791346916e+01 -8.6765378266602119e-02
    6.6655072803729141e+00 -1.5356399089277573e-01
    8.6031325044363278e+00 -1.1785113019775791e-01
    1.4204048938870294e+01 -7.0754913767722513e-02
    1.2124640058646037e+01 -8.3045479853739973e-02
    1.7950017355091749e+01 -5.5884238340883401e-02 1. 0.
    1.0395965308683486e+01 -9.7098057054951600e-02
    1.2712445306240667e+01 -7.9155948357662931e-02
    1.7950017355091749e+01 -5.5884238340883401e-02
    1.3395897879990425e+01 -7.5070411531702255e-02
    4.0087412276835224e+01 -2.4961028814965893e-02
    1.3395897879990425e+01 -7.5070411531702255e-02
    2.3158911995693746e+01 -4.3260732246003263e-02
    4.0087412276835224e+01 -2.4961028814965893e-02 1. 0.
    9.4991345518850654e+00 -1.0646601614815142e-01
    9.7714526447116814e+00 -1.0343380757166787e-01
    9.4991345518850654e+00 -1.0646601614815142e-01 1. 0.
    1.2712445306240667e+01 -7.9155948357662931e-02
    1.1160045799258061e+01 -9.0336609832101358e-02
    1.1160045799258061e+01 -9.0336609832101358e-02
    1.3395897879990425e+01 -7.5070411531702255e-02
    1.2712445306240667e+01 -7.9155948357662931e-02
    1.1160045799258061e+01 -9.0336609832101358e-02
    6.6655072803729141e+00 -1.5356399089277573e-01
    4.0087412276835224e+01 -2.4961028814965893e-02
    1.5180018088416643e+01 -6.6164462402812263e-02
    1.2712445306240667e+01 -7.9155948357662931e-02
    1.2712445306240667e+01 -7.9155948357662931e-02
    4.0087412276835224e+01 -2.4961028814965893e-02
    4.0087412276835224e+01 -2.4961028814965893e-02 1. 0. 1. 0.
    1.0757466229746434e+01 -9.3776168876992583e-02 1. 0.
    1.2124640058646037e+01 -8.3045479853739973e-02 1. 0.
    9.7714526447116814e+00 -1.0343380757166787e-01 1. 0.
    1.2712445306240667e+01 -7.9155948357662931e-02
    1.5180018088416643e+01 -6.6164462402812263e-02
    1.6391168862124101e+01 -6.1237243569579457e-02
    1.0395965308683486e+01 -9.7098057054951600e-02
    1.2712445306240667e+01 -7.9155948357662931e-02 1. 0.
    1.6391168862124101e+01 -6.1237243569579457e-02
    1.1612099791346916e+01 -8.6765378266602119e-02 1. 0.
    1.5180018088416643e+01 -6.6164462402812263e-02
    1.2124640058646037e+01 -8.3045479853739973e-02
    1.1160045799258061e+01 -9.0336609832101358e-02
    2.3158911995693746e+01 -4.3260732246003263e-02
    1.4204048938870294e+01 -7.0754913767722513e-02 1. 0. 1. 0.
    1.2124640058646037e+01 -8.3045479853739973e-02
    1.0757466229746434e+01 -9.3776168876992583e-02
    8.6031325044363278e+00 -1.1785113019775791e-01
    6.6655072803729141e+00 -1.5356399089277573e-01
    1.2124640058646037e+01 -8.3045479853739973e-02
    1.0395965308683486e+01 -9.7098057054951600e-02
    1.1160045799258061e+01 -9.0336609832101358e-02
    9.2486911541150452e+00 -1.0941789036624275e-01
    4.0087412276835224e+01 -2.4961028814965893e-02
    2.3158911995693746e+01 -4.3260732246003263e-02
    1.0757466229746434e+01 -9.3776168876992583e-02
    4.0087412276835224e+01 -2.4961028814965893e-02
    4.0087412276835224e+01 -2.4961028814965893e-02
    1.3395897879990425e+01 -7.5070411531702255e-02 1. 0.
    7.6403459893426309e+00 -1.3320653032477811e-01
    1.1160045799258061e+01 -9.0336609832101358e-02
    1.2712445306240667e+01 -7.9155948357662931e-02
    1.2712445306240667e+01 -7.9155948357662931e-02
    1.5180018088416643e+01 -6.6164462402812263e-02
    2.3158911995693746e+01 -4.3260732246003263e-02
    1.4204048938870294e+01 -7.0754913767722513e-02
    1.2124640058646037e+01 -8.3045479853739973e-02
    1.2712445306240667e+01 -7.9155948357662931e-02
    1.5180018088416643e+01 -6.6164462402812263e-02 1. 0. 1. 0.
    1.2712445306240667e+01 -7.9155948357662931e-02 1. 0. 1. 0.
    2.3158911995693746e+01 -4.3260732246003263e-02
    1.6391168862124101e+01 -6.1237243569579457e-02
    4.0087412276835224e+01 -2.4961028814965893e-02
    9.4991345518850654e+00 -1.0646601614815142e-01
    1.2712445306240667e+01 -7.9155948357662931e-02
    1.2124640058646037e+01 -8.3045479853739973e-02 1. 0.
    8.0781070045353811e+00 -1.2574886370696423e-01 1. 0.
    1.2712445306240667e+01 -7.9155948357662931e-02
    1.5180018088416643e+01 -6.6164462402812263e-02
    7.6403459893426309e+00 -1.3320653032477811e-01 1. 0.
    1.6391168862124101e+01 -6.1237243569579457e-02
    1.4204048938870294e+01 -7.0754913767722513e-02
    2.3158911995693746e+01 -4.3260732246003263e-02
    2.3158911995693746e+01 -4.3260732246003263e-02
    2.8354915744589913e+01 -3.5311227577322434e-02
    2.3158911995693746e+01 -4.3260732246003263e-02 1. 0.
    1.2124640058646037e+01 -8.3045479853739973e-02
    1.0069014991203547e+01 -1.0031397251510384e-01
    9.2486911541150452e+00 -1.0941789036624275e-01
    1.2124640058646037e+01 -8.3045479853739973e-02
    2.3158911995693746e+01 -4.3260732246003263e-02
    1.2712445306240667e+01 -7.9155948357662931e-02
    1.2124640058646037e+01 -8.3045479853739973e-02
    1.1160045799258061e+01 -9.0336609832101358e-02 1. 0.
    1.5180018088416643e+01 -6.6164462402812263e-02
    1.3395897879990425e+01 -7.5070411531702255e-02
    4.0087412276835224e+01 -2.4961028814965893e-02
    8.6031325044363278e+00 -1.1785113019775791e-01
    9.7714526447116814e+00 -1.0343380757166787e-01
    2.3158911995693746e+01 -4.3260732246003263e-02
    4.0087412276835224e+01 -2.4961028814965893e-02
    2.0062464875455891e+01 -4.9968779266390762e-02
    1.5180018088416643e+01 -6.6164462402812263e-02
    1.4204048938870294e+01 -7.0754913767722513e-02
    1.7950017355091749e+01 -5.5884238340883401e-02
    1.3395897879990425e+01 -7.5070411531702255e-02
    1.2124640058646037e+01 -8.3045479853739973e-02 1. 0.
    1.0395965308683486e+01 -9.7098057054951600e-02
    1.1612099791346916e+01 -8.6765378266602119e-02
    1.4204048938870294e+01 -7.0754913767722513e-02
    1.3395897879990425e+01 -7.5070411531702255e-02
    9.2486911541150452e+00 -1.0941789036624275e-01
    1.4204048938870294e+01 -7.0754913767722513e-02
    9.0173505166694721e+00 -1.1229577231219766e-01
    1.3395897879990425e+01 -7.5070411531702255e-02
    1.1160045799258061e+01 -9.0336609832101358e-02
    2.3158911995693746e+01 -4.3260732246003263e-02
    1.7950017355091749e+01 -5.5884238340883401e-02
    1.1160045799258061e+01 -9.0336609832101358e-02
    1.4204048938870294e+01 -7.0754913767722513e-02
    1.4204048938870294e+01 -7.0754913767722513e-02
    1.1160045799258061e+01 -9.0336609832101358e-02
    2.3158911995693746e+01 -4.3260732246003263e-02
    1.2712445306240667e+01 -7.9155948357662931e-02
    1.2124640058646037e+01 -8.3045479853739973e-02 1. 0.
    2.3158911995693746e+01 -4.3260732246003263e-02
    1.5180018088416643e+01 -6.6164462402812263e-02
    1.1612099791346916e+01 -8.6765378266602119e-02
    8.6031325044363278e+00 -1.1785113019775791e-01
    1.1612099791346916e+01 -8.6765378266602119e-02
    2.0062464875455891e+01 -4.9968779266390762e-02
    1.1612099791346916e+01 -8.6765378266602119e-02
    1.5180018088416643e+01 -6.6164462402812263e-02
    1.6391168862124101e+01 -6.1237243569579457e-02
    1.5180018088416643e+01 -6.6164462402812263e-02
    1.1612099791346916e+01 -8.6765378266602119e-02
    1.3395897879990425e+01 -7.5070411531702255e-02
    1.6391168862124101e+01 -6.1237243569579457e-02
    1.2124640058646037e+01 -8.3045479853739973e-02 1. 0.
    1.2124640058646037e+01 -8.3045479853739973e-02 1. 0.
    9.7714526447116814e+00 -1.0343380757166787e-01
    1.4204048938870294e+01 -7.0754913767722513e-02
    2.3158911995693746e+01 -4.3260732246003263e-02
    2.3158911995693746e+01 -4.3260732246003263e-02
    9.2486911541150452e+00 -1.0941789036624275e-01
    1.2712445306240667e+01 -7.9155948357662931e-02
    1.5180018088416643e+01 -6.6164462402812263e-02
    1.1612099791346916e+01 -8.6765378266602119e-02
    1.2712445306240667e+01 -7.9155948357662931e-02
    8.0781070045353811e+00 -1.2574886370696423e-01 1. 0.
    2.3158911995693746e+01 -4.3260732246003263e-02
    4.0087412276835224e+01 -2.4961028814965893e-02
    1.1612099791346916e+01 -8.6765378266602119e-02
    1.1612099791346916e+01 -8.6765378266602119e-02
    4.0087412276835224e+01 -2.4961028814965893e-02
    1.5180018088416643e+01 -6.6164462402812263e-02
    2.3158911995693746e+01 -4.3260732246003263e-02
    2.8354915744589913e+01 -3.5311227577322434e-02
    5.8727457004771839e+00 -1.7552415543144759e-01
    1.1612099791346916e+01 -8.6765378266602119e-02
    2.8354915744589913e+01 -3.5311227577322434e-02
    2.3158911995693746e+01 -4.3260732246003263e-02
    2.8354915744589913e+01 -3.5311227577322434e-02
    2.3158911995693746e+01 -4.3260732246003263e-02
    1.1160045799258061e+01 -9.0336609832101358e-02
    1.0757466229746434e+01 -9.3776168876992583e-02
    8.6031325044363278e+00 -1.1785113019775791e-01 1. 0.
    4.0087412276835224e+01 -2.4961028814965893e-02 1. 0.
    9.0173505166694721e+00 -1.1229577231219766e-01
    1.7950017355091749e+01 -5.5884238340883401e-02
    1.4204048938870294e+01 -7.0754913767722513e-02
    1.4204048938870294e+01 -7.0754913767722513e-02
    1.2712445306240667e+01 -7.9155948357662931e-02 1. 0.
    1.1612099791346916e+01 -8.6765378266602119e-02
    4.0087412276835224e+01 -2.4961028814965893e-02 1. 0. 1. 0.
    1.6391168862124101e+01 -6.1237243569579457e-02
    1.1612099791346916e+01 -8.6765378266602119e-02
    9.4991345518850654e+00 -1.0646601614815142e-01
    1.0757466229746434e+01 -9.3776168876992583e-02
    4.0087412276835224e+01 -2.4961028814965893e-02
    1.3395897879990425e+01 -7.5070411531702255e-02
    1.7950017355091749e+01 -5.5884238340883401e-02
    1.6391168862124101e+01 -6.1237243569579457e-02
    6.4168171848793909e+00 -1.5982110049512804e-01
    2.3158911995693746e+01 -4.3260732246003263e-02
    6.6655072803729141e+00 -1.5356399089277573e-01
    2.6067032411112114e+00 -4.6745363227897191e-01 1. 0.
    6.6655072803729141e+00 -1.5356399089277573e-01
    1.1612099791346916e+01 -8.6765378266602119e-02
    9.4991345518850654e+00 -1.0646601614815142e-01 1. 0.
    2.3158911995693746e+01 -4.3260732246003263e-02
    2.3158911995693746e+01 -4.3260732246003263e-02
    2.0062464875455891e+01 -4.9968779266390762e-02
    1.5180018088416643e+01 -6.6164462402812263e-02
    1.2124640058646037e+01 -8.3045479853739973e-02
    2.8354915744589913e+01 -3.5311227577322434e-02
    1.5180018088416643e+01 -6.6164462402812263e-02
    1.1160045799258061e+01 -9.0336609832101358e-02
    2.3158911995693746e+01 -4.3260732246003263e-02
    9.2486911541150452e+00 -1.0941789036624275e-01 1. 0.
    1.1160045799258061e+01 -9.0336609832101358e-02 1. 0.
    4.0087412276835224e+01 -2.4961028814965893e-02
    1.1160045799258061e+01 -9.0336609832101358e-02
    5.1907014214714877e+00 -2.0038822424111596e-01
    2.8354915744589913e+01 -3.5311227577322434e-02 1. 0.
    1.0757466229746434e+01 -9.3776168876992583e-02
    1.2712445306240667e+01 -7.9155948357662931e-02
    1.2712445306240667e+01 -7.9155948357662931e-02
    1.2712445306240667e+01 -7.9155948357662931e-02
    2.8354915744589913e+01 -3.5311227577322434e-02
    1.2124640058646037e+01 -8.3045479853739973e-02
    3.7886948615860789e+00 -2.8544961285922510e-01
    1.5180018088416643e+01 -6.6164462402812263e-02
    1.5180018088416643e+01 -6.6164462402812263e-02
    6.7552972582571709e+00 -1.5142633953752063e-01
    1.2124640058646037e+01 -8.3045479853739973e-02
    1.2124640058646037e+01 -8.3045479853739973e-02
    9.0173505166694721e+00 -1.1229577231219766e-01
    1.5180018088416643e+01 -6.6164462402812263e-02
    1.2712445306240667e+01 -7.9155948357662931e-02
    1.0757466229746434e+01 -9.3776168876992583e-02 1. 0.
    1.5180018088416643e+01 -6.6164462402812263e-02
    1.0395965308683486e+01 -9.7098057054951600e-02
    1.0395965308683486e+01 -9.7098057054951600e-02
    1.2124640058646037e+01 -8.3045479853739973e-02
    6.1260239155658303e+00 -1.6783627165933782e-01
    1.2712445306240667e+01 -7.9155948357662931e-02
    1.5180018088416643e+01 -6.6164462402812263e-02
    1.5180018088416643e+01 -6.6164462402812263e-02 1. 0.
    1.0395965308683486e+01 -9.7098057054951600e-02
    5.0374785831991851e+00 -2.0701966780270623e-01
    4.0087412276835224e+01 -2.4961028814965893e-02
    2.8354915744589913e+01 -3.5311227577322434e-02
    2.3158911995693746e+01 -4.3260732246003263e-02
    9.7714526447116814e+00 -1.0343380757166787e-01
    1.7950017355091749e+01 -5.5884238340883401e-02
    1.1612099791346916e+01 -8.6765378266602119e-02
    1.1612099791346916e+01 -8.6765378266602119e-02
    1.2712445306240667e+01 -7.9155948357662931e-02
    5.9329891535739128e+00 -1.7363044222787913e-01
    1.1612099791346916e+01 -8.6765378266602119e-02
    2.0062464875455891e+01 -4.9968779266390762e-02 1. 0.
    1.1612099791346916e+01 -8.6765378266602119e-02
    9.2486911541150452e+00 -1.0941789036624275e-01
    9.2486911541150452e+00 -1.0941789036624275e-01
    1.1160045799258061e+01 -9.0336609832101358e-02
    1.5180018088416643e+01 -6.6164462402812263e-02
    1.2712445306240667e+01 -7.9155948357662931e-02
    1.1160045799258061e+01 -9.0336609832101358e-02 1. 0.
    1.6391168862124101e+01 -6.1237243569579457e-02
    1.0395965308683486e+01 -9.7098057054951600e-02
    1.6391168862124101e+01 -6.1237243569579457e-02
    1.4204048938870294e+01 -7.0754913767722513e-02
    9.7714526447116814e+00 -1.0343380757166787e-01
    1.0757466229746434e+01 -9.3776168876992583e-02
    8.8028086249530020e+00 -1.1510521863263577e-01
    4.0087412276835224e+01 -2.4961028814965893e-02
    1.6391168862124101e+01 -6.1237243569579457e-02
    5.0744332402770311e+00 -2.0537868033499815e-01
    1.7950017355091749e+01 -5.5884238340883401e-02
    8.4166867787227844e+00 -1.2053785548606727e-01
    2.3158911995693746e+01 -4.3260732246003263e-02
    1.1160045799258061e+01 -9.0336609832101358e-02
    1.0757466229746434e+01 -9.3776168876992583e-02 1. 0.
    1.2124640058646037e+01 -8.3045479853739973e-02
    5.9329891535739128e+00 -1.7363044222787913e-01
    2.8354915744589913e+01 -3.5311227577322434e-02
    1.4204048938870294e+01 -7.0754913767722513e-02
    4.0087412276835224e+01 -2.4961028814965893e-02
    1.2712445306240667e+01 -7.9155948357662931e-02
    4.0087412276835224e+01 -2.4961028814965893e-02 1. 0.
    2.0062464875455891e+01 -4.9968779266390762e-02
    1.3395897879990425e+01 -7.5070411531702255e-02
    6.1260239155658303e+00 -1.6783627165933782e-01
    1.3395897879990425e+01 -7.5070411531702255e-02
    1.2712445306240667e+01 -7.9155948357662931e-02
    6.4964894751797200e+00 -1.5776032972105172e-01
    1.4204048938870294e+01 -7.0754913767722513e-02 1. 0.
    1.2124640058646037e+01 -8.3045479853739973e-02
    7.2681589245548119e+00 -1.4029447488244035e-01
    1.2712445306240667e+01 -7.9155948357662931e-02
    1.2124640058646037e+01 -8.3045479853739973e-02
    1.4204048938870294e+01 -7.0754913767722513e-02
    6.1260239155658303e+00 -1.6783627165933782e-01
    1.4204048938870294e+01 -7.0754913767722513e-02
    9.2486911541150452e+00 -1.0941789036624275e-01
    1.6391168862124101e+01 -6.1237243569579457e-02
    1.6391168862124101e+01 -6.1237243569579457e-02
    1.5180018088416643e+01 -6.6164462402812263e-02
    4.0087412276835224e+01 -2.4961028814965893e-02 1. 0. 1. 0.
    9.2486911541150452e+00 -1.0941789036624275e-01
    1.0757466229746434e+01 -9.3776168876992583e-02 1. 0.
    1.5180018088416643e+01 -6.6164462402812263e-02
    1.0069014991203547e+01 -1.0031397251510384e-01
    9.4991345518850654e+00 -1.0646601614815142e-01
    1.7950017355091749e+01 -5.5884238340883401e-02
    1.2712445306240667e+01 -7.9155948357662931e-02
    5.9329891535739128e+00 -1.7363044222787913e-01
    1.7950017355091749e+01 -5.5884238340883401e-02
    1.2124640058646037e+01 -8.3045479853739973e-02
    1.0395965308683486e+01 -9.7098057054951600e-02
    5.8727457004771839e+00 -1.7552415543144759e-01
    1.2712445306240667e+01 -7.9155948357662931e-02
    1.4204048938870294e+01 -7.0754913767722513e-02
    1.0395965308683486e+01 -9.7098057054951600e-02
    1.5180018088416643e+01 -6.6164462402812263e-02
    9.7714526447116814e+00 -1.0343380757166787e-01
    1.6391168862124101e+01 -6.1237243569579457e-02
    1.2124640058646037e+01 -8.3045479853739973e-02
    1.3395897879990425e+01 -7.5070411531702255e-02
    1.4204048938870294e+01 -7.0754913767722513e-02
    1.2124640058646037e+01 -8.3045479853739973e-02
    7.1559646707126729e+00 -1.4258460115990382e-01
    9.7714526447116814e+00 -1.0343380757166787e-01
    8.8028086249530020e+00 -1.1510521863263577e-01 1. 0.
    5.9329891535739128e+00 -1.7363044222787913e-01
    1.5180018088416643e+01 -6.6164462402812263e-02
    2.0062464875455891e+01 -4.9968779266390762e-02
    1.2712445306240667e+01 -7.9155948357662931e-02
    2.3158911995693746e+01 -4.3260732246003263e-02
    9.7714526447116814e+00 -1.0343380757166787e-01 1. 0. 1. 0. 1. 0.
    1.0395965308683486e+01 -9.7098057054951600e-02
    1.5180018088416643e+01 -6.6164462402812263e-02
    1.1160045799258061e+01 -9.0336609832101358e-02
    6.2661750261259135e+00 -1.6387257228971880e-01
    1.2712445306240667e+01 -7.9155948357662931e-02 1. 0.
    1.4204048938870294e+01 -7.0754913767722513e-02
    4.0087412276835224e+01 -2.4961028814965893e-02
    1.2712445306240667e+01 -7.9155948357662931e-02
    9.4991345518850654e+00 -1.0646601614815142e-01
    1.2712445306240667e+01 -7.9155948357662931e-02
    1.1612099791346916e+01 -8.6765378266602119e-02
    1.2124640058646037e+01 -8.3045479853739973e-02
    1.6391168862124101e+01 -6.1237243569579457e-02
    1.1160045799258061e+01 -9.0336609832101358e-02
    1.2124640058646037e+01 -8.3045479853739973e-02
    4.0087412276835224e+01 -2.4961028814965893e-02
    1.7950017355091749e+01 -5.5884238340883401e-02
    7.2681589245548119e+00 -1.4029447488244035e-01 1. 0.
    1.7950017355091749e+01 -5.5884238340883401e-02
    1.2712445306240667e+01 -7.9155948357662931e-02
    1.1612099791346916e+01 -8.6765378266602119e-02
    2.8354915744589913e+01 -3.5311227577322434e-02 1. 0.
    8.8028086249530020e+00 -1.1510521863263577e-01
    4.0087412276835224e+01 -2.4961028814965893e-02
    1.2124640058646037e+01 -8.3045479853739973e-02
    9.2486911541150452e+00 -1.0941789036624275e-01
    1.1160045799258061e+01 -9.0336609832101358e-02
    1.0395965308683486e+01 -9.7098057054951600e-02
    1.0757466229746434e+01 -9.3776168876992583e-02 1. 0.
    2.3158911995693746e+01 -4.3260732246003263e-02
    2.3158911995693746e+01 -4.3260732246003263e-02 1. 0. 1. 0.
    5.9329891535739128e+00 -1.7363044222787913e-01
    4.0087412276835224e+01 -2.4961028814965893e-02
    1.1160045799258061e+01 -9.0336609832101358e-02
    1.4204048938870294e+01 -7.0754913767722513e-02
    1.0395965308683486e+01 -9.7098057054951600e-02
    1.4204048938870294e+01 -7.0754913767722513e-02 1. 0.
    2.0062464875455891e+01 -4.9968779266390762e-02
    1.1612099791346916e+01 -8.6765378266602119e-02
    1.3395897879990425e+01 -7.5070411531702255e-02
    5.9329891535739128e+00 -1.7363044222787913e-01
    1.0757466229746434e+01 -9.3776168876992583e-02 1. 0.
    1.2124640058646037e+01 -8.3045479853739973e-02
    7.9237419484378275e+00 -1.2827975757122259e-01
    9.0173505166694721e+00 -1.1229577231219766e-01
    1.5180018088416643e+01 -6.6164462402812263e-02
    2.0062464875455891e+01 -4.9968779266390762e-02
    1.4204048938870294e+01 -7.0754913767722513e-02 1. 0.
    1.3395897879990425e+01 -7.5070411531702255e-02
    1.7950017355091749e+01 -5.5884238340883401e-02
    1.4204048938870294e+01 -7.0754913767722513e-02
    4.0087412276835224e+01 -2.4961028814965893e-02
    2.3158911995693746e+01 -4.3260732246003263e-02
    1.6391168862124101e+01 -6.1237243569579457e-02
    1.7950017355091749e+01 -5.5884238340883401e-02
    1.0395965308683486e+01 -9.7098057054951600e-02
    2.7022757278178529e+00 -4.4252709614949892e-01
    1.5180018088416643e+01 -6.6164462402812263e-02 1. 0.
    6.1948646801782106e+00 -1.6586499455022605e-01
    8.8028086249530020e+00 -1.1510521863263577e-01
    1.1612099791346916e+01 -8.6765378266602119e-02 1. 0.
    5.4511191934161092e+00 -1.9007638532459659e-01
    8.6031325044363278e+00 -1.1785113019775791e-01 1. 0.
    9.4991345518850654e+00 -1.0646601614815142e-01
    2.3158911995693746e+01 -4.3260732246003263e-02
    1.5180018088416643e+01 -6.6164462402812263e-02
    1.0395965308683486e+01 -9.7098057054951600e-02
    6.1260239155658303e+00 -1.6783627165933782e-01 1. 0.
    4.0087412276835224e+01 -2.4961028814965893e-02
    5.3597689197084044e+00 -1.9356575177029106e-01
    5.8727457004771839e+00 -1.7552415543144759e-01
    1.2124640058646037e+01 -8.3045479853739973e-02
    1.0395965308683486e+01 -9.7098057054951600e-02
    1.2712445306240667e+01 -7.9155948357662931e-02
    1.2124640058646037e+01 -8.3045479853739973e-02
    1.1612099791346916e+01 -8.6765378266602119e-02
    2.3158911995693746e+01 -4.3260732246003263e-02
    1.2124640058646037e+01 -8.3045479853739973e-02
    1.2712445306240667e+01 -7.9155948357662931e-02
    1.6391168862124101e+01 -6.1237243569579457e-02
    1.2712445306240667e+01 -7.9155948357662931e-02
    8.8028086249530020e+00 -1.1510521863263577e-01
    1.5180018088416643e+01 -6.6164462402812263e-02
    2.3158911995693746e+01 -4.3260732246003263e-02
    1.2712445306240667e+01 -7.9155948357662931e-02
    1.2124640058646037e+01 -8.3045479853739973e-02
    1.2712445306240667e+01 -7.9155948357662931e-02
    1.4204048938870294e+01 -7.0754913767722513e-02
    1.0395965308683486e+01 -9.7098057054951600e-02
    9.4991345518850654e+00 -1.0646601614815142e-01
    1.2712445306240667e+01 -7.9155948357662931e-02
    1.6391168862124101e+01 -6.1237243569579457e-02
    1.7950017355091749e+01 -5.5884238340883401e-02
    1.7950017355091749e+01 -5.5884238340883401e-02
    1.0395965308683486e+01 -9.7098057054951600e-02
    2.3158911995693746e+01 -4.3260732246003263e-02
    1.0069014991203547e+01 -1.0031397251510384e-01 1. 0.
    1.1612099791346916e+01 -8.6765378266602119e-02
    2.3158911995693746e+01 -4.3260732246003263e-02
    5.9329891535739128e+00 -1.7363044222787913e-01
    1.2712445306240667e+01 -7.9155948357662931e-02
    9.4991345518850654e+00 -1.0646601614815142e-01
    1.0757466229746434e+01 -9.3776168876992583e-02
    1.0395965308683486e+01 -9.7098057054951600e-02
    9.4991345518850654e+00 -1.0646601614815142e-01
    1.0395965308683486e+01 -9.7098057054951600e-02
    1.4204048938870294e+01 -7.0754913767722513e-02 1. 0. 1. 0.
    1.3395897879990425e+01 -7.5070411531702255e-02
    6.4964894751797200e+00 -1.5776032972105172e-01 1. 0.
    7.9237419484378275e+00 -1.2827975757122259e-01
    5.8727457004771839e+00 -1.7552415543144759e-01
    1.2124640058646037e+01 -8.3045479853739973e-02
    1.7950017355091749e+01 -5.5884238340883401e-02
    1.2712445306240667e+01 -7.9155948357662931e-02 1. 0.
    1.2712445306240667e+01 -7.9155948357662931e-02
    4.0087412276835224e+01 -2.4961028814965893e-02
    7.7780833700533503e+00 -1.3076478891123317e-01
    2.8354915744589913e+01 -3.5311227577322434e-02
    7.2681589245548119e+00 -1.4029447488244035e-01
    1.0757466229746434e+01 -9.3776168876992583e-02
    1.5180018088416643e+01 -6.6164462402812263e-02 1. 0.
    1.0069014991203547e+01 -1.0031397251510384e-01 1. 0.
    9.0173505166694721e+00 -1.1229577231219766e-01
    1.1612099791346916e+01 -8.6765378266602119e-02
    9.0173505166694721e+00 -1.1229577231219766e-01
    1.7950017355091749e+01 -5.5884238340883401e-02
    1.2124640058646037e+01 -8.3045479853739973e-02
    5.8727457004771839e+00 -1.7552415543144759e-01
    1.2712445306240667e+01 -7.9155948357662931e-02
    1.2712445306240667e+01 -7.9155948357662931e-02
    8.6031325044363278e+00 -1.1785113019775791e-01 1. 0.
    1.0395965308683486e+01 -9.7098057054951600e-02
    1.5180018088416643e+01 -6.6164462402812263e-02 1. 0.
    1.2712445306240667e+01 -7.9155948357662931e-02
    1.2124640058646037e+01 -8.3045479853739973e-02
    1.1160045799258061e+01 -9.0336609832101358e-02
    5.4986781132293787e+00 -1.8831089428867734e-01
    1.2712445306240667e+01 -7.9155948357662931e-02
    1.3395897879990425e+01 -7.5070411531702255e-02
    1.2124640058646037e+01 -8.3045479853739973e-02
    1.2712445306240667e+01 -7.9155948357662931e-02
    1.2712445306240667e+01 -7.9155948357662931e-02
    4.0087412276835224e+01 -2.4961028814965893e-02
    1.2712445306240667e+01 -7.9155948357662931e-02
    1.7950017355091749e+01 -5.5884238340883401e-02
    1.2124640058646037e+01 -8.3045479853739973e-02
    1.7950017355091749e+01 -5.5884238340883401e-02
    2.7583266270894957e+00 -4.2937836660795392e-01
    8.8028086249530020e+00 -1.1510521863263577e-01 1. 0.
    3.8178299096641251e+00 -2.8289026105232312e-01 1. 0.
    1.7950017355091749e+01 -5.5884238340883401e-02 1. 0.
    8.4166867787227844e+00 -1.2053785548606727e-01
    1.2124640058646037e+01 -8.3045479853739973e-02 1. 0.
    1.6391168862124101e+01 -6.1237243569579457e-02
    1.4204048938870294e+01 -7.0754913767722513e-02
    1.3395897879990425e+01 -7.5070411531702255e-02
    4.3940836376305761e+00 -2.4077170617153840e-01
    7.6403459893426309e+00 -1.3320653032477811e-01
    1.2712445306240667e+01 -7.9155948357662931e-02
    1.5180018088416643e+01 -6.6164462402812263e-02
    1.2712445306240667e+01 -7.9155948357662931e-02
    1.7950017355091749e+01 -5.5884238340883401e-02
    2.3158911995693746e+01 -4.3260732246003263e-02
    1.2712445306240667e+01 -7.9155948357662931e-02
    1.3395897879990425e+01 -7.5070411531702255e-02 1. 0.
    6.3401048721913238e+00 -1.6185821902854564e-01
    1.0395965308683486e+01 -9.7098057054951600e-02
    1.2712445306240667e+01 -7.9155948357662931e-02
    1.2712445306240667e+01 -7.9155948357662931e-02
    1.3395897879990425e+01 -7.5070411531702255e-02 1. 0.
    1.6391168862124101e+01 -6.1237243569579457e-02
    1.2124640058646037e+01 -8.3045479853739973e-02
    9.7714526447116814e+00 -1.0343380757166787e-01
    4.0087412276835224e+01 -2.4961028814965893e-02
    1.6391168862124101e+01 -6.1237243569579457e-02 1. 0.
    1.1160045799258061e+01 -9.0336609832101358e-02
    1.7950017355091749e+01 -5.5884238340883401e-02
    2.3158911995693746e+01 -4.3260732246003263e-02
    2.9661505098436898e+00 -3.8785280639301045e-01
    1.1612099791346916e+01 -8.6765378266602119e-02
    1.1612099791346916e+01 -8.6765378266602119e-02
    1.1160045799258061e+01 -9.0336609832101358e-02 1. 0.
    1.0069014991203547e+01 -1.0031397251510384e-01
    1.0395965308683486e+01 -9.7098057054951600e-02
    1.0395965308683486e+01 -9.7098057054951600e-02 1. 0.
    1.2712445306240667e+01 -7.9155948357662931e-02
    1.0395965308683486e+01 -9.7098057054951600e-02
    7.9237419484378275e+00 -1.2827975757122259e-01
    1.4204048938870294e+01 -7.0754913767722513e-02
    7.1559646707126729e+00 -1.4258460115990382e-01
    1.4204048938870294e+01 -7.0754913767722513e-02
    9.0173505166694721e+00 -1.1229577231219766e-01
    1.4204048938870294e+01 -7.0754913767722513e-02
    1.0069014991203547e+01 -1.0031397251510384e-01
    1.2124640058646037e+01 -8.3045479853739973e-02
    1.4204048938870294e+01 -7.0754913767722513e-02
    2.8354915744589913e+01 -3.5311227577322434e-02
    2.3158911995693746e+01 -4.3260732246003263e-02
    1.3395897879990425e+01 -7.5070411531702255e-02 1. 0.
    1.3395897879990425e+01 -7.5070411531702255e-02
    9.4991345518850654e+00 -1.0646601614815142e-01
    4.0087412276835224e+01 -2.4961028814965893e-02
    2.0062464875455891e+01 -4.9968779266390762e-02
    2.0062464875455891e+01 -4.9968779266390762e-02
    1.5180018088416643e+01 -6.6164462402812263e-02
    2.8354915744589913e+01 -3.5311227577322434e-02
    9.4991345518850654e+00 -1.0646601614815142e-01
    1.0757466229746434e+01 -9.3776168876992583e-02
    1.2712445306240667e+01 -7.9155948357662931e-02
    1.0395965308683486e+01 -9.7098057054951600e-02
    7.9237419484378275e+00 -1.2827975757122259e-01
    1.0757466229746434e+01 -9.3776168876992583e-02
    1.0757466229746434e+01 -9.3776168876992583e-02
    1.4204048938870294e+01 -7.0754913767722513e-02
    1.1612099791346916e+01 -8.6765378266602119e-02
    1.2124640058646037e+01 -8.3045479853739973e-02
    5.9329891535739128e+00 -1.7363044222787913e-01
    1.2124640058646037e+01 -8.3045479853739973e-02
    4.0087412276835224e+01 -2.4961028814965893e-02
    8.6031325044363278e+00 -1.1785113019775791e-01
    1.4204048938870294e+01 -7.0754913767722513e-02
    1.1160045799258061e+01 -9.0336609832101358e-02
    1.4204048938870294e+01 -7.0754913767722513e-02
    2.8354915744589913e+01 -3.5311227577322434e-02
    7.1559646707126729e+00 -1.4258460115990382e-01
    7.0489464239449067e+00 -1.4484136487558028e-01
    1.4204048938870294e+01 -7.0754913767722513e-02
    1.6391168862124101e+01 -6.1237243569579457e-02
    1.0395965308683486e+01 -9.7098057054951600e-02 1. 0.
    2.0062464875455891e+01 -4.9968779266390762e-02
    1.5180018088416643e+01 -6.6164462402812263e-02
    8.4166867787227844e+00 -1.2053785548606727e-01
    4.0087412276835224e+01 -2.4961028814965893e-02
    1.2712445306240667e+01 -7.9155948357662931e-02
    1.1612099791346916e+01 -8.6765378266602119e-02
    1.1612099791346916e+01 -8.6765378266602119e-02 1. 0.
    9.7714526447116814e+00 -1.0343380757166787e-01
    9.7714526447116814e+00 -1.0343380757166787e-01
    7.9237419484378275e+00 -1.2827975757122259e-01
    5.2730898435822935e+00 -1.9700211121727121e-01
    1.7950017355091749e+01 -5.5884238340883401e-02
    1.0757466229746434e+01 -9.3776168876992583e-02 1. 0.
    1.2124640058646037e+01 -8.3045479853739973e-02
    1.2124640058646037e+01 -8.3045479853739973e-02
    9.7714526447116814e+00 -1.0343380757166787e-01
    4.8977984911104508e+00 -2.1347814095749162e-01
    4.0087412276835224e+01 -2.4961028814965893e-02 1. 0.
    1.5180018088416643e+01 -6.6164462402812263e-02
    1.1160045799258061e+01 -9.0336609832101358e-02
    1.2712445306240667e+01 -7.9155948357662931e-02
    1.2712445306240667e+01 -7.9155948357662931e-02
    2.8354915744589913e+01 -3.5311227577322434e-02
    9.7714526447116814e+00 -1.0343380757166787e-01
    1.2712445306240667e+01 -7.9155948357662931e-02
    1.2712445306240667e+01 -7.9155948357662931e-02
    7.0489464239449067e+00 -1.4484136487558028e-01
    1.4204048938870294e+01 -7.0754913767722513e-02
    4.0087412276835224e+01 -2.4961028814965893e-02
    1.0395965308683486e+01 -9.7098057054951600e-02
    5.9329891535739128e+00 -1.7363044222787913e-01
    5.9329891535739128e+00 -1.7363044222787913e-01
    1.2124640058646037e+01 -8.3045479853739973e-02
    9.0173505166694721e+00 -1.1229577231219766e-01
    1.1612099791346916e+01 -8.6765378266602119e-02
    4.0087412276835224e+01 -2.4961028814965893e-02
    1.7950017355091749e+01 -5.5884238340883401e-02
    7.2681589245548119e+00 -1.4029447488244035e-01
    1.4204048938870294e+01 -7.0754913767722513e-02
    1.2712445306240667e+01 -7.9155948357662931e-02
    1.0395965308683486e+01 -9.7098057054951600e-02 1. 0. 1. 0.
    1.2124640058646037e+01 -8.3045479853739973e-02
    1.6391168862124101e+01 -6.1237243569579457e-02
    1.1160045799258061e+01 -9.0336609832101358e-02
    4.3707679239175814e+00 -2.4221565705396311e-01
    1.2712445306240667e+01 -7.9155948357662931e-02
    1.2712445306240667e+01 -7.9155948357662931e-02
    9.4991345518850654e+00 -1.0646601614815142e-01
    2.8354915744589913e+01 -3.5311227577322434e-02
    1.5180018088416643e+01 -6.6164462402812263e-02
    1.0757466229746434e+01 -9.3776168876992583e-02
    2.0062464875455891e+01 -4.9968779266390762e-02
    1.4204048938870294e+01 -7.0754913767722513e-02
    9.4991345518850654e+00 -1.0646601614815142e-01
    1.2124640058646037e+01 -8.3045479853739973e-02
    1.2124640058646037e+01 -8.3045479853739973e-02
    5.8727457004771839e+00 -1.7552415543144759e-01
    1.2712445306240667e+01 -7.9155948357662931e-02
    2.3158911995693746e+01 -4.3260732246003263e-02
    1.0757466229746434e+01 -9.3776168876992583e-02
    1.0395965308683486e+01 -9.7098057054951600e-02
    4.8977984911104508e+00 -2.1347814095749162e-01
    1.2712445306240667e+01 -7.9155948357662931e-02
    1.4204048938870294e+01 -7.0754913767722513e-02
    1.3395897879990425e+01 -7.5070411531702255e-02
    9.2486911541150452e+00 -1.0941789036624275e-01
    9.7714526447116814e+00 -1.0343380757166787e-01
    4.0087412276835224e+01 -2.4961028814965893e-02 1. 0. 1. 0.
    1.7950017355091749e+01 -5.5884238340883401e-02 1. 0.
    1.2712445306240667e+01 -7.9155948357662931e-02
    1.2712445306240667e+01 -7.9155948357662931e-02
    1.2712445306240667e+01 -7.9155948357662931e-02
    1.2712445306240667e+01 -7.9155948357662931e-02
    2.3158911995693746e+01 -4.3260732246003263e-02
    2.0062464875455891e+01 -4.9968779266390762e-02 1. 0.
    1.4204048938870294e+01 -7.0754913767722513e-02
    1.4204048938870294e+01 -7.0754913767722513e-02 1. 0.
    1.0757466229746434e+01 -9.3776168876992583e-02
    2.3158911995693746e+01 -4.3260732246003263e-02
    5.8727457004771839e+00 -1.7552415543144759e-01
    7.1559646707126729e+00 -1.4258460115990382e-01
    5.8727457004771839e+00 -1.7552415543144759e-01
    4.0087412276835224e+01 -2.4961028814965893e-02 1. 0.
    1.0395965308683486e+01 -9.7098057054951600e-02
    1.1612099791346916e+01 -8.6765378266602119e-02
    6.3401048721913238e+00 -1.6185821902854564e-01
    1.3395897879990425e+01 -7.5070411531702255e-02
    1.6391168862124101e+01 -6.1237243569579457e-02
    1.1160045799258061e+01 -9.0336609832101358e-02
    2.0062464875455891e+01 -4.9968779266390762e-02
    1.4204048938870294e+01 -7.0754913767722513e-02
    4.4915741291681250e+00 -2.3492666678089821e-01
    4.3940836376305761e+00 -2.4077170617153840e-01
    1.2712445306240667e+01 -7.9155948357662931e-02
    1.3395897879990425e+01 -7.5070411531702255e-02
    1.4204048938870294e+01 -7.0754913767722513e-02
    1.3395897879990425e+01 -7.5070411531702255e-02
    1.5180018088416643e+01 -6.6164462402812263e-02
    2.3158911995693746e+01 -4.3260732246003263e-02
    1.5180018088416643e+01 -6.6164462402812263e-02
    2.0062464875455891e+01 -4.9968779266390762e-02
    1.7950017355091749e+01 -5.5884238340883401e-02
    1.5180018088416643e+01 -6.6164462402812263e-02
    1.2712445306240667e+01 -7.9155948357662931e-02
    1.0757466229746434e+01 -9.3776168876992583e-02
    1.5180018088416643e+01 -6.6164462402812263e-02
    1.5180018088416643e+01 -6.6164462402812263e-02
    1.7950017355091749e+01 -5.5884238340883401e-02
    9.7714526447116814e+00 -1.0343380757166787e-01
    2.0062464875455891e+01 -4.9968779266390762e-02
    1.0069014991203547e+01 -1.0031397251510384e-01
    4.5430355081087299e+00 -2.3196071710144200e-01
    1.0757466229746434e+01 -9.3776168876992583e-02
    1.1612099791346916e+01 -8.6765378266602119e-02
    1.1612099791346916e+01 -8.6765378266602119e-02
    1.5180018088416643e+01 -6.6164462402812263e-02
    1.0757466229746434e+01 -9.3776168876992583e-02
    1.5180018088416643e+01 -6.6164462402812263e-02
    6.5793155106450394e+00 -1.5567496226930977e-01
    1.0395965308683486e+01 -9.7098057054951600e-02
    1.1160045799258061e+01 -9.0336609832101358e-02
    1.3395897879990425e+01 -7.5070411531702255e-02
    1.1612099791346916e+01 -8.6765378266602119e-02
    8.2420772464655165e+00 -1.2316927391978356e-01
    9.2486911541150452e+00 -1.0941789036624275e-01
    8.8028086249530020e+00 -1.1510521863263577e-01
    7.0489464239449067e+00 -1.4484136487558028e-01
    1.4204048938870294e+01 -7.0754913767722513e-02
    1.1612099791346916e+01 -8.6765378266602119e-02
    9.0173505166694721e+00 -1.1229577231219766e-01
    1.1160045799258061e+01 -9.0336609832101358e-02
    1.1612099791346916e+01 -8.6765378266602119e-02
    1.6391168862124101e+01 -6.1237243569579457e-02
    1.0069014991203547e+01 -1.0031397251510384e-01
    1.0757466229746434e+01 -9.3776168876992583e-02
    7.9237419484378275e+00 -1.2827975757122259e-01
    1.2124640058646037e+01 -8.3045479853739973e-02
    1.0757466229746434e+01 -9.3776168876992583e-02
    1.0757466229746434e+01 -9.3776168876992583e-02
    4.3253228382344258e+00 -2.4508367265213743e-01
    1.3395897879990425e+01 -7.5070411531702255e-02
    1.2712445306240667e+01 -7.9155948357662931e-02
    1.0757466229746434e+01 -9.3776168876992583e-02
    1.5180018088416643e+01 -6.6164462402812263e-02
    1.2124640058646037e+01 -8.3045479853739973e-02
    1.0395965308683486e+01 -9.7098057054951600e-02
    1.2712445306240667e+01 -7.9155948357662931e-02
    1.2124640058646037e+01 -8.3045479853739973e-02
    1.7950017355091749e+01 -5.5884238340883401e-02
    1.1612099791346916e+01 -8.6765378266602119e-02
    1.7950017355091749e+01 -5.5884238340883401e-02
    1.4204048938870294e+01 -7.0754913767722513e-02
    1.0395965308683486e+01 -9.7098057054951600e-02
    1.1612099791346916e+01 -8.6765378266602119e-02
    1.4204048938870294e+01 -7.0754913767722513e-02
    1.5180018088416643e+01 -6.6164462402812263e-02
    8.6031325044363278e+00 -1.1785113019775791e-01
    1.1160045799258061e+01 -9.0336609832101358e-02
    9.0173505166694721e+00 -1.1229577231219766e-01
    1.1612099791346916e+01 -8.6765378266602119e-02
    1.0069014991203547e+01 -1.0031397251510384e-01
    1.0757466229746434e+01 -9.3776168876992583e-02
    1.3395897879990425e+01 -7.5070411531702255e-02
    1.4204048938870294e+01 -7.0754913767722513e-02
    1.1612099791346916e+01 -8.6765378266602119e-02
    1.1612099791346916e+01 -8.6765378266602119e-02
    1.5180018088416643e+01 -6.6164462402812263e-02
    2.8354915744589913e+01 -3.5311227577322434e-02
    1.5180018088416643e+01 -6.6164462402812263e-02
    6.9467202776831876e+00 -1.4706630724858555e-01
    9.4991345518850654e+00 -1.0646601614815142e-01
    1.2124640058646037e+01 -8.3045479853739973e-02
    1.4204048938870294e+01 -7.0754913767722513e-02
    1.4204048938870294e+01 -7.0754913767722513e-02
    7.0489464239449067e+00 -1.4484136487558028e-01
    2.0062464875455891e+01 -4.9968779266390762e-02
    1.1612099791346916e+01 -8.6765378266602119e-02
    1.3395897879990425e+01 -7.5070411531702255e-02
    6.5793155106450394e+00 -1.5567496226930977e-01
    1.0395965308683486e+01 -9.7098057054951600e-02
    1.0757466229746434e+01 -9.3776168876992583e-02
    1.2124640058646037e+01 -8.3045479853739973e-02
    1.0395965308683486e+01 -9.7098057054951600e-02
    7.6403459893426309e+00 -1.3320653032477811e-01
    2.8354915744589913e+01 -3.5311227577322434e-02
    9.4991345518850654e+00 -1.0646601614815142e-01
    1.2124640058646037e+01 -8.3045479853739973e-02
    1.1612099791346916e+01 -8.6765378266602119e-02
    5.6496086075123308e+00 -1.8292630609628965e-01
    9.7714526447116814e+00 -1.0343380757166787e-01
    1.7950017355091749e+01 -5.5884238340883401e-02
    1.5180018088416643e+01 -6.6164462402812263e-02
    1.2124640058646037e+01 -8.3045479853739973e-02
    7.3859575456624622e+00 -1.3796931903479068e-01
    1.3395897879990425e+01 -7.5070411531702255e-02
    1.3395897879990425e+01 -7.5070411531702255e-02
    2.8354915744589913e+01 -3.5311227577322434e-02
    9.0173505166694721e+00 -1.1229577231219766e-01
    1.0395965308683486e+01 -9.7098057054951600e-02 1. 0.
    1.5180018088416643e+01 -6.6164462402812263e-02
    2.8354915744589913e+01 -3.5311227577322434e-02
    1.6391168862124101e+01 -6.1237243569579457e-02
    2.8354915744589913e+01 -3.5311227577322434e-02
    2.8354915744589913e+01 -3.5311227577322434e-02
    1.6391168862124101e+01 -6.1237243569579457e-02
    2.8354915744589913e+01 -3.5311227577322434e-02
    2.3158911995693746e+01 -4.3260732246003263e-02
    1.7950017355091749e+01 -5.5884238340883401e-02
    1.1612099791346916e+01 -8.6765378266602119e-02
    8.8028086249530020e+00 -1.1510521863263577e-01
    8.8028086249530020e+00 -1.1510521863263577e-01
    9.7714526447116814e+00 -1.0343380757166787e-01
    4.0087412276835224e+01 -2.4961028814965893e-02</input_scale>
  <output_scale>
    5.2631578947368418e-01 4.9999999999999994e-01 5.2631578947368418e-01
    4.9999999999999994e-01</output_scale>
  <inv_output_scale>
    1.8999999999999999e+00 -9.4999999999999996e-01
    1.8999999999999999e+00 -9.4999999999999996e-01</inv_output_scale>
  <weights>
    <_>
      -2.1840041043409353e+00 3.2373222887121771e+00
      2.0479247626021130e-01 -6.2254722553407316e-01
      -3.8439538265470252e-01 3.5221050648330210e-01
      4.5041816170089816e-02 3.0488202405003118e-01
      -7.1512234800929900e-02 1.2920352934496542e+00
      3.7014650342190296e+00 -3.2970444846451996e-01
      -1.0404834034438957e+00 2.3989830756392988e-01
      1.6721671067911710e+00 2.0083661372846892e-01
      -2.4465688702359070e-01 -6.8797443278638459e-01
      1.5117386483111674e-02 -1.2773170428659289e-01
      -1.3144688259896222e+00 1.5440524996214688e-01
      -3.3391009748651596e-01 8.1740086469569539e-02
      4.7004318160550163e-01 -4.5451309669280815e-01
      -4.1992945274097399e-01 7.2185411475975791e-01
      1.6985359810919531e+00 2.3423738105272271e-01
      1.0766766479187381e-01 2.9546991300359671e-01
      -1.4679617170032810e+00 -4.4249214089261074e-01
      2.4730170351204192e-01 -1.3881768147652696e+00
      -3.1855230857458028e-01 -3.1556544559718053e-01
      -4.2024173981027518e-01 -3.6654684441963319e+00
      1.7810329070307571e+00 -7.7892222804052003e-01
      1.9957591425626237e-01 -1.0124739459983976e+00
      -9.8752322266213377e-01 2.3034365329186030e-01
      -5.8415564084806715e-01 -6.5250782497671178e-01
      -3.8596752618838975e-01 -9.1693250881919541e-02
      3.1474120577529163e+00 -4.4804123057014227e+00
      4.2045359373892682e-01 1.4946114930923093e+00
      8.1354228124817285e-01 -3.4179037206207497e-01
      3.2140912005593486e-01 -3.0358607985063357e-01
      -5.2611664600401831e-01 -1.8514678738901547e+00
      -4.6542573026910450e+00 3.4687500536118776e-01
      1.8642967251392106e+00 6.0966317878664766e-01
      -1.2691279372177646e-02 -3.0566879762073051e-01
      3.2468769241080725e-01 -6.4955336104567341e-01
      -4.5261831942162617e-01 3.3259594788014052e-01
      -2.8083770776707534e-01 -3.2641206649873628e-01
      3.2302497923557316e-01 8.9115768639541304e-01
      -6.3476748258504967e-01 4.4159409118573772e-01
      -7.7773050480853811e-01 -1.1855908896744496e+00
      -3.1459997990963577e+00 -3.9914881419032572e-01
      -3.7503139149348891e-01 -3.3721866046157029e-01
      8.8337614676371778e-01 6.5671801818796793e-01
      -4.1894914161795022e-01 -8.9727198218785220e-01
      3.0104840467234745e-01 2.9907297914462666e-01
      5.8239722177393316e-01 3.6769563813598150e+00
      -2.7043415397022756e+00 9.1140561576585566e-01
      -3.0934476308185616e-01 -3.6419491766955064e-01
      1.3855922283483850e+00 3.7012977909354128e-01
      9.2179268569353645e-01 7.9544151888207348e-01
      3.4249751772786113e-01 -4.5895342434592934e-01
      -7.2733215850150068e-01 -4.1544305754522988e+00
      3.0032820166340851e-01 -4.5605927035646315e-01
      3.3328162881000395e-01 1.7434134332492626e-01
      1.5141532757373374e-01 4.2801528139377343e-01
      1.1859824127600445e+00 -1.3486128210798547e+00
      -4.5778099924714990e+00 -3.4935345478320773e-01
      1.1444129508441752e+00 3.0341849266693294e-01
      1.2088090908158957e+00 7.7734351066798199e-02
      -4.5512090307372588e-01 2.3539984627610777e+00
      -4.9308538743825876e-04 4.1890830516857040e-02
      -1.2802908464262062e+00 5.0581212467495390e-02
      -4.4047484107153290e-01 -4.8877557357300544e-01
      -1.7885831305884659e-01 -4.1373401871002446e-01
      -6.0988406284485275e-01 -5.7227493477220182e-01
      -2.2655896124242960e+00 -1.3290161646474991e-01
      1.0115248350056305e-01 1.3582940532030294e-01
      -1.1383053578262956e+00 1.8363206768013976e-01
      -1.4009419100731202e-01 2.9052395754484102e+00
      -4.0506154585946819e-01 -4.2182716326300862e-01
      2.2566054354878151e-01 3.7416558097772725e+00
      -2.0251489297627656e+00 4.4729591385236506e-01
      2.5302541196692224e-01 -8.5860705540714310e-01
      8.6706735407148128e-01 4.1333038881997597e-01
      4.2980865327852502e-01 -4.5824945020738039e-01
      -2.2789039458341642e-01 -1.3209738674814261e-01
      -2.8990088425086786e+00 2.5566684574787550e+00
      1.3647839016371738e-01 -9.5747318177036778e-01
      -1.9620659140163355e-01 3.3456962871790241e-01
      -6.8527030675709409e-03 4.2910545470974465e-01
      -3.7818865139016805e-02 4.7501806939254654e-01
      2.9038561020156992e+00 -4.6227573082831686e-01
      -7.0040895254398361e-01 -3.3005632021821601e-01
      -2.9354575077024453e-01 2.6149310750271887e-01
      -2.0433505426217344e-01 -1.9343993444896503e+00
      2.6401413826176623e-01 -1.6503128302629427e-01
      1.2487091708159599e+00 2.3088911590691247e-01
      -4.7367501617313379e-01 -4.0348837568281742e-01
      3.8172281545763564e-01 -5.1933663518050777e-01
      7.2282581485024269e-02 4.8826198198787241e-01
      1.2140907426454066e+00 9.2404202504894756e-02
      2.6723581003239366e-01 3.7664198025558016e-01
      2.0442529613814453e+00 -3.0466910729654290e-01
      1.0196836665421603e-01 -2.3604101627102922e+00
      -4.4062968254273266e-01 -4.4010851402446222e-01
      -3.2095035231509800e-01 -7.8155918598809726e-01
      4.4558992063311326e-01 -2.4015176324356441e-01
      3.1493827446927664e-01 1.0332044853073791e-01
      -4.2165649352175572e-01 -1.2260803945896911e-01
      -4.3739947331155377e-01 -6.7297669600864052e-01
      -3.6028976168361299e-01 2.1705134008072216e-01
      6.4137688577963081e-01 2.6431561526222180e-01
      -1.2066569189806095e-01 -6.2156811632412386e-02
      -1.8223207381104364e-01 8.4376483765972052e-02
      -1.4515425547805844e-01 6.2047857725552338e-02
      -4.4829885334902078e-02 2.2678275947153040e-01
      2.6922362232929326e-01 -1.0306611798959067e-01
      -2.4182804150278245e-01 -8.9617229477566090e-02
      -1.3032233527197460e-02 1.3586482087774160e-01
      1.5469960357938321e-02 -3.4869768995088000e-02
      1.4784683978041502e-01 -1.7764849306879976e-01
      -4.7764553835509940e-02 1.4129423288650581e-01
      -6.3185763148186733e-02 5.5270755432486475e-02
      1.5909688074099484e-01 -3.5852002163097224e-02
      8.0595828751443971e-02 2.0160354475286921e-01
      2.5767295767280124e-01 1.6409235902758754e-01
      1.3656480559500558e-01 1.2027290030042272e-01
      -3.2343571082959682e-02 -1.5170520287857470e-01
      1.6326443095485915e-01 -2.7045901573595325e-02
      -6.6658564389640088e-02 -6.0951828330448557e-02
      -1.8031029993978692e-01 -2.5060790744463812e-01
      2.2675563474638594e-01 -1.9372403914601349e-01
      1.3438480248618870e-01 5.0089796677160854e-02
      -2.1976618816828991e-01 -9.7684244733980061e-02
      -2.0180372391959198e-01 -5.7120893438385993e-02
      -1.0019793023746264e-01 9.7999947013299782e-02
      -8.1360413731304895e-04 -5.3239618883007091e-04
      1.1819648102412389e-03 5.9059588457700297e-04
      -3.4668762060344508e-04 6.5065894913958510e-04
      -1.1085356911780331e-03 9.4774693130873322e-04
      1.2784099178519265e-03 2.3337535570651959e-05
      5.7607709657891146e-04 9.3409338148020776e-04
      -1.2777560345502916e-03 2.1953542622474214e-04
      1.2608062383868020e-03 1.0429156009455407e-03
      1.2646089615867518e-03 -8.5524529580690276e-04
      4.1804278911319930e-04 4.0926077736916448e-04
      8.3549419164910782e-04 1.3130959641797572e-04
      4.9231679645841584e-04 3.7980270592979926e-04
      -6.5204019296370426e-04 3.3312512044411255e-05
      7.3274299565505372e-04 -5.4503270895756234e-04
      -3.6798725587971066e-04 8.5417931638218667e-04
      -3.0662117610662633e-04 -8.1470756544751630e-04
      -1.1005958575634749e-03 9.1860833007849179e-04
      -4.5532917186438495e-04 -2.7227698564256367e-04
      -5.1724925153773173e-04 8.3270766165617356e-04
      7.2552485453775410e-04 9.7170558816370706e-05
      1.0901278851346238e-03 -6.3003337120751438e-04
      8.6951262193515173e-04 1.8555158683819032e-04
      7.4486728823997732e-04 6.8616145314633482e-04
      -2.7510519992102542e-04 -4.6456149380257072e-04
      9.2176904790151578e-04 1.1490323250759658e-03
      1.5666895371896963e-01 3.0654226078473644e-02
      -3.9912161260178790e-02 -8.8754968236623606e-03
      -5.0796592046111901e-02 1.3612057962829693e-02
      -4.3301059412276029e-02 1.0026545764541601e-02
      -2.3309302794035258e-02 5.9473888051033021e-02
      3.2855768660895263e-02 -2.0083187673571361e-02
      -6.5142468356572336e-02 -1.2964866937178608e-02
      2.3434977872949559e-02 3.2253666173128623e-02
      2.6050639751061914e-02 2.0711675062373516e-03
      3.4070913511718835e-02 -4.6148270296557090e-02
      2.3328077343416444e-02 3.4451443337595082e-02
      -8.7418272940996463e-03 1.2033575076174825e-02
      3.7879957933554566e-02 1.5731190528254638e-03
      2.0605978930170889e-02 5.1845940091397702e-02
      5.3703619913144096e-02 4.4203047415651009e-02
      3.1067322918038209e-02 2.5820695587698138e-02
      -7.6866102800319013e-03 -3.8464336060472934e-02
      4.3720440529288251e-02 -1.5780423325240062e-02
      -9.8726567414953847e-03 -7.4219121119844505e-03
      -4.7069225941560759e-02 -5.3153119854945759e-02
      4.4918116771943573e-02 -4.8032465377023062e-02
      3.1978493327910834e-02 -9.9153951205945626e-03
      -5.5265086869526955e-02 -3.0820179178969780e-02
      -5.1533961282564773e-02 -6.6774999268937874e-03
      -1.4677772304374302e-02 2.1948763114005926e-02
      1.0354660406769370e-02 -2.2061852271991591e-03
      -9.7656506128598556e-03 -1.9114197389451599e-02
      -2.1005901640441523e-02 1.9168734728824764e-03
      -1.6487301140179041e-02 5.8596736091790979e-03
      -3.4475496084725803e-03 1.9585689389460183e-02
      -4.0383828502672898e-03 -1.3969216470275374e-02
      -3.2122234520976449e-02 -8.5100189153470111e-03
      6.3915785564239477e-02 2.5370347504721381e-02
      4.1486616407711814e-03 -2.7345036755058175e-02
      3.4762419474821213e-02 -3.7841112202966119e-02
      6.2689500378484992e-03 2.8220872871027480e-02
      -2.6627001227642450e-03 -1.1220168754387879e-02
      2.2659020988310293e-02 4.4630543536586294e-03
      -3.5261071491510574e-04 2.6832930361376239e-02
      2.4010438359845745e-02 1.9191321297812449e-02
      2.9808512807026941e-02 1.9108194226163649e-02
      -4.3270551500832977e-02 -1.8707972470024356e-02
      1.9729475833175594e-02 -4.2550401989547848e-02
      -2.3856204091208815e-03 -1.5438986062350079e-03
      -3.3514293279741071e-02 -5.1147814513416391e-03
      1.0380120749526914e-02 -2.2356066787765288e-02
      2.9117319172157513e-02 -2.9081600745594016e-04
      -2.5536920148829662e-02 -1.4509470232868360e-03
      -3.2896925816921246e-02 -1.2862899657133990e-02
      -6.9302636332193241e-03 1.2371441327619267e-02
      4.8665140869330478e-02 4.1973872796009282e-02
      -2.2416014220901011e-02 -7.1863759956031781e-02
      -4.2111666166332565e-02 3.5790453432999969e-02
      -2.7470641885453624e-02 4.3045418683866792e-02
      -3.4135519215665384e-02 4.3994397281637579e-02
      3.7848970335744275e-02 -5.1979347583532946e-02
      -5.2390236248957563e-02 6.3333629396275298e-04
      7.8372471169142824e-02 4.2321450973708721e-02
      1.1729881083888744e-02 -3.7022149098578365e-02
      4.2669389578687489e-02 -4.7417378874739798e-02
      4.7463757329499270e-02 4.0801243778390936e-02
      -4.6432967105318308e-02 3.2118115134146495e-03
      3.8293791888884127e-02 -4.1208823869692136e-02
      3.8038973813604424e-02 4.6268560852793829e-02
      5.2380320843245676e-02 3.9668056831489801e-02
      4.3399217269925704e-02 4.4021615442562959e-02
      -4.3715802898429669e-02 -3.6558191346739308e-02
      3.7835493018448935e-02 -2.7767713948438529e-02
      -4.4535144489224611e-02 -4.4044373920066125e-02
      -4.5409282354356303e-02 -6.1247797285350104e-02
      4.1279920993134982e-02 -4.2117633434655834e-02
      5.1557454550236220e-02 5.0369328350754840e-02
      -4.9182367091707535e-02 -1.7898146646416875e-02
      -4.7622687748009852e-02 -6.4374660676717974e-02
      -4.2285610899205461e-02 7.0854522357985108e-03
      -5.0605291097395720e-02 -1.8304090344517365e-01
      4.3380174411494020e-02 3.7871920878517720e-02
      7.3611126518955655e-02 -5.8477704925803425e-02
      5.1737330047888212e-02 -4.6478464990003139e-02
      3.1530617643152743e-02 -1.1447818221442833e-01
      -1.8858608641036095e-01 5.6116059207334847e-02
      1.0344980266694527e-01 4.1394728301036209e-02
      2.5358893293350900e-02 -5.3991154014653910e-02
      2.4850880663463647e-02 -3.0599503995590228e-02
      -4.7844897447432103e-02 5.6502101297419192e-02
      1.0683558393300506e-02 -5.2238501079948617e-02
      4.9673802945682140e-02 -3.4812781551583384e-02
      -7.1358397950741767e-02 4.0885302549233296e-02
      -3.9578661710020425e-02 -8.7867824811157180e-02
      -1.2983854635948977e-01 -6.6179936176763807e-02
      -4.8516319458269112e-02 -5.7537789624271578e-02
      4.3762464632540563e-02 6.9087000555831168e-02
      -6.6555705770534809e-02 -1.6982195796110128e-02
      4.7109276747373287e-02 4.6752048581530238e-02
      6.9461391910597192e-02 1.5310540817560317e-01
      -1.2914608061797409e-01 9.1188505177703688e-02
      -5.1436899311660039e-02 -2.3403596421129561e-02
      1.0068354293404558e-01 3.9484573934398096e-02
      7.8799228095771917e-02 4.0530037108856436e-02
      6.7218948862091427e-02 -3.7383659947176753e-02
      7.1976905682908709e-02 5.0498031848075359e-03
      -6.2149043580036888e-02 3.6201062676888308e-02
      -5.5675369837709036e-02 3.3761132440355570e-03
      -6.2901700433802332e-02 -2.5012027545763101e-02
      -3.9964235551864742e-02 2.7039993488024924e-02
      8.9755752193809712e-03 2.0779576695258577e-02
      -1.9207873201790022e-02 -2.5824753231237351e-02
      1.9246610935000664e-02 -4.4121915603357378e-04
      7.4991817187117185e-02 -2.1302393755074200e-02
      -1.5387583933727645e-02 3.5026872988169327e-04
      -9.7555472960548974e-03 1.0319745509342418e-03
      2.3634367607203444e-02 5.6818744675628766e-02
      1.6987472792311567e-02 1.0924102460837167e-02
      4.5158032124969522e-02 2.1589803966366051e-02
      1.9513559725232315e-02 5.0807779223170105e-02
      -6.6731539780906634e-03 -2.7834190163013189e-03
      -2.6874299965876359e-02 -2.7404203627104846e-02
      5.0317200090461964e-02 5.7382003285148565e-02
      1.6399455216250722e-02 2.0095611132568480e-02
      -8.3863061660300452e-03 -3.0413851522382903e-02
      3.3831998476721518e-02 -2.7914588870614310e-02
      -2.3941349541570581e-02 3.6302468906729071e-02
      -2.2627830911088487e-02 -6.1796137675249371e-02
      -1.0972015092671664e-02 3.5265330684307372e-02
      4.8550811137920416e-03 2.5777366866610370e-02
      -6.7919752343540779e-02 -1.3065825210402948e-01
      3.1786700464868090e-02 1.9708551752732381e-02
      5.4820564076867750e-02 -4.2090259895035786e-02
      3.8695366593670483e-02 -3.1899708377612593e-02
      3.1713696164880525e-02 -8.3459944203547937e-02
      -1.3425517203746551e-01 3.9871687406160143e-02
      7.4710155337791823e-02 2.7622900505140779e-02
      -1.9108682196848287e-04 -3.8458130223384422e-02
      1.5849331162878219e-02 4.3670237566685394e-02
      -3.4322708542474864e-02 4.0912768452229131e-02
      5.6039787438496094e-03 -3.6393753422483174e-02
      3.4660167927602445e-02 -2.6649363037884091e-02
      -4.9730218510103494e-02 2.4602607014311908e-02
      -2.6580212841805000e-02 -6.1842044955142936e-02
      -9.3178343618437173e-02 -4.7715893600938405e-02
      -3.4805395056870088e-02 -3.9667478733338930e-02
      2.9678970182254565e-02 4.9964702914402588e-02
      -4.7582644577284262e-02 -2.1204301038530448e-02
      3.2140416158170579e-02 3.1231037165951801e-02
      4.9187034004668000e-02 1.0951372135865671e-01
      -9.4476308627523986e-02 6.4439451966410960e-02
      -3.4829876133556710e-02 -1.3899806751716069e-02
      7.2687034819113566e-02 2.7922006048375993e-02
      5.4936355079074954e-02 2.2817449049098191e-02
      4.7350984128667929e-02 -2.6338001752628664e-02
      -2.3066090235153816e-01 -1.1057952056092410e-01
      5.1862261418159821e-03 -1.5902511313828034e-02
      3.4417170875734822e-02 -5.5801453025379815e-03
      1.5911343387883872e-02 1.0675835236659940e-02
      -2.7008419748587027e-03 -6.6819461693374924e-02
      -1.1804393232617080e-01 -1.2335384298822400e-02
      5.1227748945278172e-02 -2.8200257970752620e-02
      -1.4068399292958954e-03 2.2209554137855481e-03
      -3.1093958098929449e-02 2.8921656034230084e-02
      2.1247623146341762e-02 1.7983730084867790e-03
      -2.3711803760790344e-02 8.8223886698039506e-03
      -7.6164163940445964e-03 -1.8467285375392998e-02
      -3.0033385549752403e-02 -1.1796141065864253e-03
      2.0996121845792422e-02 -4.1651222687245151e-02
      -7.2713801397798913e-02 -2.9801739710155043e-02
      1.6426493522191710e-02 1.9726213898873034e-03
      1.5371146155151869e-01 3.1048157830159448e-02
      -2.9866598348545666e-02 1.9984432310536475e-02
      -6.0231236624816199e-03 -8.6325465902133188e-03
      2.9985452161671609e-02 1.2955305593344218e-01
      -8.0871170029362019e-02 4.7464752530794435e-02
      2.3428999439834824e-02 7.1431416125216640e-03
      5.2839416395393253e-02 8.8244163053357617e-03
      3.5099890192089735e-02 -1.1441872701181310e-02
      5.0235593190308542e-03 2.1089487821185821e-02
      -3.5571129558848396e-04 -1.1973203323955098e-03
      8.0076066044975313e-05 -8.4259693834348010e-04
      -9.3401876833757054e-04 1.5960063765053904e-04
      1.2888591553497739e-03 -5.1669387735495532e-04
      -3.3524143791672123e-04 4.3721952115738160e-04
      -1.6245194421532624e-04 -5.8910625746389753e-05
      -1.0974320941819515e-03 -4.3071488936815438e-04
      -1.2403540888191263e-03 9.1515021930715500e-04
      9.6057212052676503e-04 -6.3696882900004560e-04
      -7.8462344754185495e-04 1.7772783650609389e-04
      1.1242459035146787e-03 -6.8976023731426219e-04
      -8.8280734501383477e-04 5.5734687186916607e-04
      5.1765388252787649e-04 5.1523837900557107e-04
      -6.6803193324430413e-04 5.2061611523518034e-04
      -1.7660205825963547e-04 1.1425285838688598e-03
      -1.0428858248675585e-03 -2.9880023147834268e-04
      -3.4862803258954768e-04 -9.5773612563513526e-04
      6.8399513495499343e-04 -1.2033680486575973e-03
      8.3561214842799389e-05 7.1148387923207978e-04
      -7.3778187407488936e-04 2.7429008927215033e-04
      1.1889448443479288e-03 -1.1904054991502397e-03
      4.6350272356664336e-04 -5.3940907046292979e-04
      7.8197659463388272e-05 -1.9204792505217837e-04
      9.0552984841723314e-04 6.5747230710647251e-04
      1.8424175225285503e-04 7.5117488959792664e-05
      -6.6405445403649260e-02 -1.3033648384933424e-01
      3.1912028570133519e-02 1.8858958342146431e-02
      5.4313645430886820e-02 -4.3106618805560909e-02
      3.7421172798812616e-02 -3.0566589893622025e-02
      3.1331184535551733e-02 -8.2201325710902634e-02
      -1.3462966211144645e-01 3.8489045830328202e-02
      7.3321757928613396e-02 2.9607358475432787e-02
      -3.2298192963022324e-04 -3.6651272792171431e-02
      1.6624997423461768e-02 4.4083249943876912e-02
      -3.3065765727129146e-02 4.0013308381575866e-02
      6.3411555020188911e-03 -3.6434172131882811e-02
      3.2583045329937679e-02 -2.5699147624824312e-02
      -4.9448840038397154e-02 2.6080415471935198e-02
      -2.8574680275255428e-02 -6.2451517873174253e-02
      -9.2234091258519932e-02 -4.8876101579251735e-02
      -3.3701006448779734e-02 -3.9572813586994528e-02
      3.0928342208709547e-02 4.9926676079682923e-02
      -4.8208201238157451e-02 -1.9077327788212171e-02
      3.2727310723540237e-02 3.0777607364046146e-02
      4.9803689595053040e-02 1.0997402567535823e-01
      -9.3490359908180026e-02 6.6474398910607607e-02
      -3.5210902372909560e-02 -1.4669161242581625e-02
      7.2637334930214015e-02 2.8650947329707559e-02
      5.6929635259509968e-02 2.2712771047463481e-02
      4.6307179377576120e-02 -2.6518002120981200e-02
      4.9027909717146656e-02 3.9878763660909672e-02
      -2.3982217024839714e-02 -7.2794028723962928e-02
      -4.2869095627720608e-02 3.5751485514511641e-02
      -2.8158394462585223e-02 4.4671621108306379e-02
      -3.3056144251998189e-02 4.5678830054140723e-02
      3.7719516658348037e-02 -4.9879166658155123e-02
      -5.3607314400297014e-02 5.4221549257166290e-04
      7.6592042949413450e-02 4.2072765350626151e-02
      1.1557172507774272e-02 -3.8558393798822095e-02
      4.2763475639671214e-02 -4.6291368440219381e-02
      4.7505264955490817e-02 4.2036528221721325e-02
      -4.4788879467259450e-02 2.9663724113402536e-03
      3.7907848856938264e-02 -4.2443970082292552e-02
      3.7604300337715127e-02 4.7100019837729330e-02
      5.2177402254841992e-02 3.8837164000831148e-02
      4.3210597435652039e-02 4.3618006929242073e-02
      -4.2270425339809466e-02 -3.5943477917188091e-02
      3.6898947892731515e-02 -2.8966587350438090e-02
      -4.5826030500590052e-02 -4.4976686465911443e-02
      -4.5661087841560574e-02 -6.0867807278271131e-02
      4.0720120519178456e-02 -4.0742810956896393e-02
      5.2479216480408653e-02 5.0128308471837447e-02
      -4.9054905110713629e-02 -1.8577789396544177e-02
      -4.7423479098764355e-02 -6.2522826439182638e-02
      -4.3422867949414759e-02 6.5946429268754344e-03
      7.7341759373057333e-03 -3.8859706084818674e-02
      9.7494188642990344e-03 6.6450443236408573e-03
      1.4982116278182179e-02 -1.2779186071075825e-02
      1.0785062912965836e-02 -8.8927224629400010e-03
      6.2729377807816296e-03 -2.4782629051437115e-02
      -3.7741253857661514e-02 1.2151681750311455e-02
      2.1719127718545055e-02 8.0128587217096411e-03
      3.1914240517839612e-03 -1.1085336758278934e-02
      -1.0007806613191795e-03 7.9615154239131916e-03
      -1.0483668674019102e-02 1.2201778253756578e-02
      3.6178867154500372e-03 -1.0676300086140291e-02
      1.0926421109416114e-02 -7.5471463902644078e-03
      -1.4256219498478018e-02 8.3988367008874503e-03
      -7.1314076001636013e-03 -1.7067205549637393e-02
      -2.5603356531574827e-02 -1.4967126519001627e-02
      -9.6214961173484159e-03 -1.0319471564201640e-02
      4.3520482039732479e-03 1.5543965609527807e-02
      -1.3071425386466828e-02 -6.9920035990669567e-03
      9.6720660406775724e-03 1.0159529430344766e-02
      1.5237299140348281e-02 3.1923888522143284e-02
      -2.8004853290428327e-02 1.8105290590722523e-02
      -1.1442752888529523e-02 -4.0557129759443734e-03
      1.9800201758085442e-02 7.4149339702062550e-03
      1.5388351264305345e-02 9.1654692922591516e-03
      1.4069046522940422e-02 -7.7828175050285824e-03
      1.4198490633416647e-01 -1.7447632323309800e-02
      -6.9824194242930876e-02 7.5928355603382972e-02
      -3.5407816918187472e-02 -8.8828232353717167e-04
      -5.2618727290834638e-02 -9.4410958468238351e-03
      -5.0162738397039608e-02 1.3168851452052309e-02
      -2.0546295174686379e-02 -4.9056911920252735e-03
      -2.9120758951205403e-02 -6.5424186165047207e-02
      -1.2345041875097858e-01 3.9187123824405729e-02
      7.2043821271763175e-02 -1.1272819298307320e-01
      5.2120352307074444e-02 -5.3805311829415739e-02
      1.5125693352814429e-01 4.1618781081694575e-02
      1.3822702625855965e-02 5.2913053237271974e-02
      2.4597184911287671e-02 4.0732132540905061e-02
      7.1098362279983965e-02 2.8388587076583267e-02
      1.3192967109012483e-02 3.0376618518136431e-02
      4.6486128967044349e-02 2.5641117115024651e-02
      1.1961448772306676e-01 -1.3763856907012867e-02
      2.9195441402553767e-02 6.0832642434605873e-03
      -1.6919819233940099e-03 4.7100877940062149e-03
      -4.1321801489621432e-02 -5.7485656871376358e-04
      5.8499269196684422e-03 -1.8952844864945764e-02
      1.7379362849938546e-02 9.0666067934480565e-02
      -2.3416227353425825e-02 -6.7299533044624202e-02
      -3.8904867470278028e-02 7.6886411436393132e-02
      -1.0051063920801398e-02 5.7708477484050391e-02
      3.0138119455260731e-01 1.3516964234108980e-01
      -1.0039529568029668e-01 7.1282485175094539e-03
      -1.2644566693745532e-01 4.4794726974653781e-02
      -1.0929893471941396e-01 2.6905373457350352e-02
      -5.3165708853144422e-02 1.3091216651038204e-01
      1.3965602280966624e-01 -4.4071138223895343e-02
      -1.3426135806181702e-01 -6.6739068548054961e-02
      -6.4786427168671279e-02 7.0933759223610421e-02
      4.9061585474255036e-02 -5.5391803088433438e-02
      7.0879494208929222e-02 -9.3010982076151036e-02
      5.1963541618066614e-02 7.4602365851521080e-02
      -2.5923100275959940e-02 6.1997869083685681e-02
      9.1201619500145131e-02 -1.1854343381039334e-02
      7.1416080672456111e-02 1.1453074894899344e-01
      1.4124389270691598e-01 1.1352437145012732e-01
      6.7701895995379013e-02 6.3035141275356532e-02
      -2.5420244073430187e-02 -9.2633492006738274e-02
      1.1272226604904634e-01 2.6460718117230313e-02
      -2.9566892412371301e-02 -2.6120860755362876e-02
      -9.8093400808932599e-02 -1.3894942667180535e-01
      1.3702186772935304e-01 -1.1496398553970782e-01
      5.7775390486869325e-02 5.5967376956585824e-02
      -1.2589193669515528e-01 -8.6563511205113575e-02
      -1.1008997130223520e-01 3.8735302259299351e-04
      -5.1037726407860910e-02 6.9539128615184645e-02
      5.0098155941453215e-01 1.7516171567419339e-01
      -1.1023439722723406e-01 -1.2064882615871494e-03
      -1.4549997095380257e-01 4.9308488136758449e-02
      -1.2310908253958330e-01 2.2489227879230671e-02
      -4.5204086191385683e-02 1.5909380834586451e-01
      1.8162548152829103e-01 -4.6315384886734492e-02
      -1.6137670057317585e-01 -7.0363704167114974e-02
      -2.7627492055859505e-02 8.0431474480955015e-02
      5.8341332160130745e-02 -2.8765998286991046e-02
      7.8462863388010839e-02 -1.0757665487242549e-01
      1.1370586862698571e-02 8.4314721083229599e-02
      -2.2008683868356357e-02 6.5623969297891729e-02
      1.0493962445123854e-01 -5.7810182961086348e-03
      7.6049037363868560e-02 1.3391379168970940e-01
      1.7588004173197883e-01 1.3044062874005055e-01
      7.4399539043137342e-02 6.7726813016215068e-02
      -3.1870942341031463e-03 -1.0589054704574347e-01
      1.2762439582413920e-01 7.3997959057918658e-03
      -2.7636699332341950e-02 -2.2115661006144368e-02
      -1.1535696835796477e-01 -1.7918902248280993e-01
      1.6238510096282543e-01 -1.3389894171258948e-01
      6.1587738972508840e-02 4.0794461707279954e-02
      -1.4991837577705316e-01 -9.4562240882020046e-02
      -1.3009024799454738e-01 -4.3149834552763233e-03
      -5.5521531160605861e-02 7.5013379815077177e-02
      -3.5174368234283118e-02 -9.2830995285259579e-02
      2.1444418282220681e-02 1.4962790628128296e-02
      3.6886130305485036e-02 -2.9697977899818949e-02
      2.6506978355105570e-02 -2.0688051446901605e-02
      1.9504133714917340e-02 -5.9378895406885679e-02
      -9.5734077768169654e-02 2.6019359867046236e-02
      5.3058356117674531e-02 1.8779518552484588e-02
      -3.5593152260052129e-02 -2.6223286010610303e-02
      -2.2465744222774629e-03 -3.2572018957585467e-03
      -2.4029361220909901e-02 2.9190919283055478e-02
      3.9912188650387495e-02 -2.6305481369497903e-02
      2.4773862003302165e-02 -2.2874548224174302e-02
      -3.6443029583568057e-02 1.8536684274301742e-02
      -1.7302597035117096e-02 -4.3326896139644737e-02
      -6.5922242236175543e-02 -3.3803314253181643e-02
      -2.5114606778901261e-02 -2.7356848132668216e-02
      1.6741013160465269e-02 3.4283390928791242e-02
      -3.4180953524696689e-02 -3.1605441335114025e-02
      2.2321468542538813e-02 2.2466940670344035e-02
      3.3812854346138489e-02 7.7839020324345767e-02
      -6.6977316339705453e-02 4.5674729605896532e-02
      -2.5230459199032645e-02 -1.0110165761299379e-02
      5.0653767449273517e-02 2.0619921384523697e-02
      3.8639171355275212e-02 1.7492176148824052e-02
      3.3339746813196645e-02 -1.8502318497463012e-02
      -2.0833219903301635e-02 -1.1330289569156898e-01
      2.7566028894542228e-02 1.7521262794526118e-02
      4.6347827303141631e-02 -3.6483012654984222e-02
      3.2795193075505651e-02 -2.8080641713874002e-02
      2.9276201269246811e-02 -7.2496729517532665e-02
      -1.1811767006192940e-01 3.3573216576306589e-02
      6.3090863576985470e-02 2.6404216212663451e-02
      -1.7551806044615925e-02 -3.2019410275492842e-02
      2.6083767149542067e-02 2.2117278461015154e-02
      -2.9378020784507262e-02 3.5336338632670640e-02
      2.3334334783256232e-04 -3.0665057013380358e-02
      3.0172712431900291e-02 -2.4079174506427159e-02
      -4.2955968813034193e-02 2.1729996459123040e-02
      -2.6085025380886005e-02 -5.3427878494828183e-02
      -8.1860565079612577e-02 -4.1081125669268213e-02
      -3.0136542327687015e-02 -3.5234850094852242e-02
      8.7801397678636903e-03 4.4178505625720017e-02
      -4.1114693054849841e-02 -3.7342326902100827e-02
      2.7855500871201314e-02 2.8417862220616440e-02
      4.2508667939204874e-02 9.5273576630101844e-02
      -8.0672056783060109e-02 5.5272338425566100e-02
