<?xml version="1.0"?>
<opencv_storage>
<my_nn type_id="opencv-ml-ann-mlp">
  <layer_sizes type_id="opencv-matrix">
    <rows>1</rows>
    <cols>3</cols>
    <dt>i</dt>
    <data>
      1558 10 2</data></layer_sizes>
  <activation_function>SIGMOID_SYM</activation_function>
  <f_param1>5.9999999999999998e-01</f_param1>
  <f_param2>1.</f_param2>
  <min_val>-9.4999999999999996e-01</min_val>
  <max_val>9.4999999999999996e-01</max_val>
  <min_val1>-9.7999999999999998e-01</min_val1>
  <max_val1>9.7999999999999998e-01</max_val1>
  <training_params>
    <train_method>BACKPROP</train_method>
    <dw_scale>1.0000000000000001e-01</dw_scale>
    <moment_scale>1.0000000000000001e-01</moment_scale>
    <term_criteria><epsilon>9.9999999747524271e-07</epsilon>
      <iterations>1000</iterations></term_criteria></training_params>
  <input_scale>
    9.9999974380536816e-01 2.4657425733116299e-09 1.0000007654479230e+00
    4.2866386931249508e-08 9.9999760550656158e-01
    -3.1040860692460529e-07 9.9999548990532250e-01
    -1.6144398218846678e-08 9.9999938581650105e-01
    -4.7923069922726485e-09 1. 0. 9.9999213170244750e-01
    -1.1458772898281893e-09 9.9999620455402283e-01
    5.1031180264710092e-10 9.9999232403659954e-01
    -1.3778365203875071e-09 1.0000114554625543e+00
    1.6886939007625121e-09 1.0000045095427268e+00
    -4.7598568896151238e-09 1.0000072865093539e+00
    -6.4021644721019141e-10 1.0000004890665009e+00
    2.3752796583223183e-09 1. 0. 1.0000072865093539e+00
    -6.4021644721019141e-10 9.9999232403659954e-01
    -1.3778365203875071e-09 1.0000216360900602e+00
    -6.8661879586349959e-10 1.0000007496101975e+00
    -1.5680561204861749e-09 1.0000014236199233e+00 0.
    1.0000066372500036e+00 -6.5320592204185614e-09
    9.9999254656928382e-01 4.0082525876466048e-09 1.0000046524832400e+00
    -1.4799167298502076e-09 9.9999968859406818e-01
    -2.2546581833808554e-09 1.0000039771757909e+00
    -2.0041492023731048e-09 9.9999838678222008e-01
    2.9690933310145909e-10 9.9999871224530124e-01 0. 1. 0.
    1.0000021085326225e+00 -4.7969592659678831e-09
    1.0000031666631093e+00 -5.1912989346578148e-09
    1.0000233500600086e+00 1.1157574556082824e-09 9.9999965075597153e-01
    -2.9319833703282223e-09 9.9999208684363405e-01
    -6.1747473860072618e-09 9.9999814917875962e-01
    4.4536389383199045e-10 1. 0. 9.9999501152165016e-01
    9.1020960207925448e-09 1.0000010665462855e+00 3.0154934951141830e-09
    1.0000063428503065e+00 -1.1876467813445582e-09
    9.9999826372916079e-01 1.5309385604173978e-10 1. 0.
    1.0000032928033715e+00 -4.2959279891559172e-09
    9.9999161122909308e-01 -9.6958797135953049e-10
    1.0000098544191083e+00 -3.3866609173034685e-10
    9.9999266665797726e-01 -7.2000101424557926e-09 1. 0.
    1.0000047179415863e+00 2.8786469936721308e-09 1. 0.
    1.0000047179415863e+00 2.8786469936721308e-09 9.9999656137318393e-01
    -2.4494975267367425e-09 1.0000064830960878e+00
    -3.7809854005599654e-10 1.0000048572697409e+00
    2.7278721484466167e-09 9.9998732708425031e-01
    -4.3700859141442753e-09 1. 0. 9.9999776558688980e-01
    -4.1845633139616909e-09 1. 0. 9.9998994842514932e-01
    -4.9499935175682318e-09 1.0000051858928629e+00
    -5.7016258029975993e-09 1.0000050187109693e+00
    1.1097059919208392e-08 1.0000038935734141e+00 2.9969450844793953e-09
    9.9999830730223915e-01 1.1505235743244074e-09 9.9999811475848965e-01
    -4.2866273305857593e-09 1.0000034488360281e+00
    -1.6237311347846309e-10 1. 0. 1. 0. 1.0000034739333237e+00
    2.6907545194592438e-09 1.0000078318933614e+00 3.1361344517906249e-09
    9.9999018623159119e-01 -7.5525692249342345e-09
    9.9999743548835540e-01 -5.9010673817279072e-09
    9.9999579021663043e-01 -6.5134315822897434e-09 1. 0.
    1.0000072865093539e+00 -6.4021644721019141e-10
    9.9999661792889971e-01 -7.5526178012501069e-09
    1.0000019411982166e+00 -1.0391863595485564e-09
    9.9999161122909308e-01 -9.6958797135953049e-10
    9.9999609671110667e-01 7.6685938073174153e-09 9.9999578414773926e-01
    3.2706333601467162e-09 9.9999837496757249e-01
    -1.5123818976172689e-09 1.0000102094331746e+00
    9.4872931980684150e-10 1. 0. 1. 0. 1. 0. 9.9998732708425031e-01
    -4.3700859141442753e-09 1. 0. 1. 0. 1.0000044377943849e+00
    -2.6953963493654024e-09 9.9999268712104494e-01
    6.3092873673427759e-10 9.9999909586297508e-01
    -1.1319676351065037e-09 9.9999830730223915e-01
    1.1505235743244074e-09 1.0000047179415863e+00 2.8786469936721308e-09
    1.0000069554275897e+00 4.3608931966150752e-10 9.9999871224530124e-01
    0. 1.0000233500600086e+00 1.1157574556082824e-09
    1.0000018423136787e+00 -1.4103242056426118e-09 1. 0.
    1.0000042231055759e+00 -3.9108754469831013e-09
    9.9999430392627631e-01 -8.6752841564210192e-10
    9.9999390819350209e-01 -3.9293918570273782e-09
    9.9998883989224996e-01 -7.6035898609492696e-09
    1.0000042231055759e+00 -3.9108754469831013e-09
    9.9999917544053663e-01 -1.3848047785572297e-09
    1.0000021085326225e+00 -4.7969592659678831e-09
    1.0000094083409181e+00 -3.2266049551948431e-09
    9.9999640109760846e-01 1.6329980894271779e-09 1.0000063760350673e+00
    2.3196226967892235e-09 1.0000057385887875e+00 3.1361278869574476e-09
    9.9999971815428745e-01 -4.2773557747465003e-09
    1.0000050187109693e+00 1.1097059919208392e-08 9.9999476587396441e-01
    2.0783578061278851e-09 1.0000019411982166e+00
    -1.0391863595485564e-09 9.9999929037478741e-01
    -2.1108416973604078e-09 1.0000081333598028e+00
    2.3196267730935749e-10 9.9999334373263860e-01
    -4.3144419885408851e-10 1. 0. 9.9999601262862969e-01
    -7.6175619920500434e-09 9.9999985947729342e-01
    -4.0361171908186962e-09 9.9999640109760846e-01
    1.6329980894271779e-09 1. 0. 1. 0. 1.0000021085326225e+00
    -4.7969592659678831e-09 1.0000072629229131e+00
    1.0206348917693645e-10 1.0000019411982166e+00
    -1.0391863595485564e-09 1.0000101416855509e+00
    1.1876512929903922e-09 1. 0. 9.9999871224530124e-01 0.
    9.9999224476746296e-01 -5.1030978191361392e-10
    9.9999232403659954e-01 -1.3778365203875071e-09 1. 0.
    1.0000074973506372e+00 -5.9382407623723149e-10
    1.0000034488360281e+00 -1.6237311347846309e-10
    1.0000077338617290e+00 -7.3485746814417193e-09 1. 0.
    9.9999295757588236e-01 -9.1855826220517912e-10
    1.0000038935734141e+00 2.9969450844793953e-09 9.9999954136539027e-01
    -2.8531164169335413e-09 9.9999501152165016e-01
    9.1020960207925448e-09 1.0000046524832400e+00
    -1.4799167298502076e-09 1.0000010665462855e+00
    3.0154934951141830e-09 1.0000054642517071e+00
    -1.1830064967227592e-10 1.0000034488360281e+00
    -1.6237311347846309e-10 1.0000077338617290e+00
    -7.3485746814417193e-09 1.0000062359038071e+00
    6.0774106139578682e-10 1.0000093524700144e+00 4.7552406819500860e-11
    1.0000049389206374e+00 -2.3288978407002175e-09
    1.0000074973506372e+00 -5.9382407623723149e-10
    9.9999871224530124e-01 0. 1.0000039771757909e+00
    -2.0041492023731048e-09 9.9999326726027749e-01
    2.5979433643201602e-10 1. 0. 9.9999288670842579e-01
    -2.6512929780186769e-09 1.0000041100161972e+00
    5.9382206477156737e-10 1.0000068895323040e+00
    -4.7413112268706123e-09 9.9999871224530124e-01 0.
    9.9999601262862969e-01 -7.6175619920500434e-09
    9.9999240330579753e-01 -2.2453633963987787e-09
    9.9999609671110667e-01 7.6685938073174153e-09 9.9999743548835540e-01
    -5.9010673817279072e-09 9.9999580881975236e-01
    -2.5515580034923276e-09 1.0000040665214347e+00
    -1.0763024455851369e-09 1.0000065803960143e+00
    1.9252872317859883e-09 9.9999661792889971e-01
    -7.5526178012501069e-09 9.9999951609082161e-01
    -3.9618883877693945e-09 1.0000064830960878e+00
    -3.7809854005599654e-10 1. 0. 1. 0. 9.9998883989224996e-01
    -7.6035898609492696e-09 1. 0. 9.9999985281949744e-01
    -3.2474505916815332e-09 1.0000039366686335e+00
    -3.0618944907085336e-09 1.0000035331019037e+00
    5.1402692826945361e-09 9.9999430392627631e-01
    -8.6752841564210192e-10 1.0000098544191083e+00
    -3.3866609173034685e-10 1. 0. 1.0000072865093543e+00
    -6.4021644721019172e-10 9.9999800702529207e-01
    1.8927962797178684e-09 9.9999728902954377e-01
    -4.0268284097148915e-09 9.9999948107258185e-01
    -3.7577628591511539e-09 1.0000070607440559e+00
    -1.4660025481488239e-09 1.0000024172148465e+00
    1.0020730379955283e-09 9.9999683123761107e-01
    -1.5773283784890706e-09 9.9999776558688980e-01
    -4.1845633139616909e-09 1. 0. 9.9999704362993458e-01
    -1.3105745928366955e-09 9.9999587126250811e-01
    -3.4979542813922884e-09 1.0000047179415863e+00
    2.8786469936721308e-09 1. 0. 1. 0. 1. 0. 1.0000056299085973e+00
    3.8041783843521174e-10 9.9999970693418505e-01
    -1.9633155570090480e-08 1.0000068895323040e+00
    -4.7413112268706123e-09 9.9999580881975236e-01
    -2.5515580034923276e-09 1.0000035331019037e+00
    5.1402692826945361e-09 1.0000054367513798e+00 1.5958989163973162e-09
    1.0000047031795782e+00 -9.5753864741834272e-09
    1.0000057264851834e+00 -2.8113808823868702e-09 1. 0.
    1.0000015032117324e+00 -2.3567251760496820e-09
    1.0000233500600086e+00 1.1157574556082824e-09 1.0000024172148465e+00
    1.0020730379955283e-09 1.0000093524700144e+00 4.7552406819500860e-11
    9.9999847182836488e-01 -8.1650073546935830e-10
    1.0000014236199233e+00 0. 1.0000038108035307e+00
    3.2660203790126784e-09 1.0000065739340418e+00
    -3.2706686497305217e-09 1. 0. 1.0000050507096176e+00
    -5.6413149220509181e-09 9.9999287830659200e-01
    -5.1031010521733598e-11 1. 0. 1. 0. 1.0000050507096170e+00
    -5.6413149220509139e-09 9.9999240330579753e-01
    -2.2453633963987787e-09 1.0000021085326225e+00
    -4.7969592659678831e-09 1.0000057385887875e+00
    3.1361278869574476e-09 9.9999680883504671e-01
    -3.3031111186022461e-09 1.0000092730044687e+00
    -7.0980660148644005e-09 1.0000066372500036e+00
    -6.5320592204185614e-09 9.9999224476746185e-01
    -5.1030978191361330e-10 1.0000038935734141e+00
    2.9969450844793953e-09 9.9999803632661033e-01 1.1876369161909993e-09
    9.9999601262862969e-01 -7.6175619920500434e-09 1. 0.
    1.0000065803960143e+00 1.9252872317859883e-09 1.0000015444288590e+00
    7.3067761914753687e-10 1.0000041100161972e+00 5.9382206477156737e-10
    9.9999826372916079e-01 1.5309385604173978e-10 9.9999018623159119e-01
    -7.5525692249342345e-09 1.0000038935734141e+00
    2.9969450844793953e-09 1.0000016780999734e+00
    -4.6392235988436675e-12 1.0000039366686335e+00
    -3.0618944907085336e-09 9.9999065035035417e-01
    -3.4237092597851336e-09 9.9999954136539027e-01
    -2.8531164169335413e-09 9.9999803632661033e-01
    1.1876369161909993e-09 1.0000023414377248e+00
    -4.3052023555234864e-09 1.0000034488360281e+00
    -1.6237311347846309e-10 9.9999601262862969e-01
    -7.6175619920500434e-09 9.9999501152165016e-01
    9.1020960207925448e-09 9.9999217611588220e-01 7.3484603550686735e-09
    1.0000014236199233e+00 0. 9.9999587126249700e-01
    -3.4979542813922495e-09 9.9999954136539027e-01
    -2.8531164169335413e-09 9.9999928211431044e-01
    -2.8739921334347613e-09 1.0000054367513798e+00
    1.5958989163973162e-09 9.9999621590782994e-01
    -5.6783786684719295e-09 1. 0. 1.0000094379044344e+00
    -2.4124149910906418e-10 1. 0. 9.9999203086158683e-01
    -2.4865998599674127e-09 9.9999240905335196e-01
    3.4329936423246420e-09 1.0000072865093543e+00
    -6.4021644721019172e-10 9.9999587126250811e-01
    -3.4979542813922884e-09 1. 0. 9.9999830730223915e-01
    1.1505235743244074e-09 9.9999690428816290e-01
    -1.1783571688335077e-09 1.0000003720201567e+00
    6.3835633345687580e-09 1.0000046867092169e+00
    -9.2900732067535723e-10 1.0000098544191083e+00
    -3.3866609173034685e-10 1. 0. 9.9999288670842579e-01
    -2.6512929780186769e-09 1.0000050507096176e+00
    -5.6413149220509181e-09 9.9999917544053663e-01
    -1.3848047785572297e-09 9.9999985281949677e-01
    -3.2474505916815311e-09 1.0000024172148465e+00
    1.0020730379955283e-09 1. 0. 1.0000156438296377e+00
    1.7629295877734793e-09 1.0000021085326225e+00
    -4.7969592659678831e-09 9.9999719192757808e-01
    -2.4123854489913091e-09 1.0000074198087665e+00
    1.0763060547218164e-08 1. 0. 9.9999580881975236e-01
    -2.5515580034923276e-09 9.9999580881975236e-01
    -2.5515580034923276e-09 9.9999390819350209e-01
    -3.9293918570273782e-09 9.9999018623159119e-01
    -7.5525692249342345e-09 9.9999224476746185e-01
    -5.1030978191361330e-10 1.0000014361038607e+00
    -2.1525992289435641e-09 1.0000039251096702e+00
    7.2140089060862414e-10 1.0000047031795782e+00
    -9.5753864741834272e-09 9.9999266665797726e-01
    -7.2000101424557926e-09 9.9999985281949677e-01
    -3.2474505916815311e-09 1. 0. 1.0000018891494702e+00
    -3.5443675775521424e-09 1. 0. 1. 0. 1.0000105139262843e+00
    -3.7392472596599457e-09 1.0000072629229131e+00
    1.0206348917693645e-10 1. 0. 1.0000092059778611e+00
    1.9299315452742239e-09 1.0000084446555861e+00 2.9876802137889232e-09
    1.0000038108035327e+00 3.2660203790126850e-09 9.9999661792889971e-01
    -7.5526178012501069e-09 1.0000039366686335e+00
    -3.0618944907085336e-09 1. 0. 9.9999850977372906e-01
    5.7526190363651202e-10 9.9999902025807086e-01 3.3402321133498672e-10
    9.9999406673236879e-01 -5.6644488997294552e-09
    9.9999811475848965e-01 -4.2866273305857593e-09
    9.9999830730223915e-01 1.1505235743244074e-09 9.9999599932314387e-01
    -1.6329974333278836e-09 9.9999430392627631e-01
    -8.6752841564210192e-10 9.9999995865670444e-01
    -1.8974391893878825e-09 1. 0. 9.9999601262862969e-01
    -7.6175619920500434e-09 9.9999121549843728e-01
    -4.0314431276415592e-09 9.9998880626872755e-01
    -3.8041143845852917e-10 1.0000068895323040e+00
    -4.7413112268706123e-09 9.9999601262862969e-01
    -7.6175619920500434e-09 1.0000072865093539e+00
    -6.4021644721019141e-10 9.9999965075599240e-01
    -2.9319833703282835e-09 1.0000024172148465e+00
    1.0020730379955283e-09 1. 0. 1. 0. 1.0000068895323040e+00
    -4.7413112268706123e-09 1.0000048572697409e+00
    2.7278721484466167e-09 9.9999161122909308e-01
    -9.6958797135953049e-10 9.9999018623159119e-01
    -7.5525692249342345e-09 1. 0. 1. 0. 9.9999830730223915e-01
    1.1505235743244074e-09 1.0000064830960878e+00
    -3.7809854005599654e-10 9.9999027983385991e-01
    -2.1479360432800231e-09 1.0000065299662810e+00
    3.5583017646048020e-09 1.0000050187109693e+00 1.1097059919208392e-08
    1.0000093524700144e+00 4.7552406819500860e-11 1.0000121687073573e+00
    -1.7258092833371462e-09 1.0000092730044687e+00
    -7.0980660148644005e-09 1.0000092730044687e+00
    -7.0980660148644005e-09 9.9999965075597419e-01
    -2.9319833703282302e-09 1.0000015444288590e+00
    7.3067761914753687e-10 1.0000098544191083e+00
    -3.3866609173034685e-10 1. 0. 1.0000093524700144e+00
    4.7552406819500860e-11 9.9999661792889971e-01
    -7.5526178012501069e-09 1.0000067416048291e+00
    7.1954722358695086e-09 9.9999213170244750e-01
    -1.1458772898281893e-09 9.9999826372916079e-01
    1.5309385604173978e-10 9.9999826372916079e-01 1.5309385604173978e-10
    1.0000156438296377e+00 1.7629295877734793e-09 1. 0.
    9.9999800702529207e-01 1.8927962797178684e-09 1.0000018135441804e+00
    -2.0783724537849614e-09 1.0000015032117324e+00
    -2.3567251760496820e-09 1.0000098544191083e+00
    -3.3866609173034685e-10 1.0000054626032655e+00
    1.9484812855078985e-09 9.9999018623159119e-01
    -7.5525692249342345e-09 1.0000216360900602e+00
    -6.8661879586349959e-10 9.9999137403647242e-01
    -5.7664955145141735e-09 9.9999830730223915e-01
    1.1505235743244074e-09 1. 0. 9.9999976260792223e-01
    -1.5550647716174809e-08 9.9999621590782994e-01
    -5.6783786684719295e-09 1.0000207790608688e+00
    2.7371942052708720e-10 9.9999929037478741e-01
    -2.1108416973604078e-09 1.0000048572697409e+00
    2.7278721484466167e-09 9.9999840213660252e-01
    -1.0466054152526487e-08 9.9999620455402283e-01
    5.1031180264710092e-10 1. 0. 9.9999919511871671e-01
    -3.1453857900757587e-09 1.0000063428503065e+00
    -1.1876467813445582e-09 9.9999661718894084e-01
    -1.7628960456703657e-10 1.0000099660903263e+00
    2.4866444580600932e-09 9.9999406673236879e-01
    -5.6644488997294552e-09 9.9999800702529207e-01
    1.8927962797178684e-09 1.0000158921452817e+00 9.5569364541869260e-10
    1.0000050187109693e+00 1.1097059919208392e-08 9.9999265216894728e-01
    9.9927974369460986e-09 9.9999830730223915e-01 1.1505235743244074e-09
    9.9999620455402283e-01 5.1031180264710092e-10 9.9999837496757249e-01
    -1.5123818976172689e-09 1.0000071751693902e+00
    -9.8352080939822745e-09 1.0000048572697409e+00
    2.7278721484466167e-09 1. 0. 1.0000025050424717e+00
    -6.2258432180496495e-09 1.0000008779391734e+00
    -1.0043911054759692e-09 1.0000050187109693e+00
    1.1097059919208392e-08 1. 0. 1. 0. 9.9999850977372906e-01
    5.7526190363651202e-10 9.9999891471695557e-01
    -5.7526213658527048e-10 1.0000021085326225e+00
    -4.7969592659678831e-09 1.0000080828754947e+00
    6.6805247692505512e-09 9.9998481600148281e-01 3.7530686058911242e-09
    1.0000205886410951e+00 -7.5388809095032655e-10
    9.9999837496757249e-01 -1.5123818976172689e-09
    9.9999985454298324e-01 -4.9917954895309038e-09 1. 0.
    1.0000098544191083e+00 -3.3866609173034685e-10
    9.9999203086158683e-01 -2.4865998599674127e-09
    1.0000069554275897e+00 4.3608931966150752e-10 9.9999429110137950e-01
    6.9495056147865348e-09 1. 0. 1. 0. 1.0000063760350673e+00
    2.3196226967892235e-09 1. 0. 9.9998935390213772e-01
    -2.6489640282354301e-09 9.9999857743908982e-01
    -2.0876441463938984e-09 9.9999802591889175e-01
    2.7556887534189385e-09 1.0000039251096702e+00 7.2140089060862414e-10
    9.9999871842468813e-01 -1.2061945657505329e-09
    9.9999902025807086e-01 3.3402321133498672e-10 1.0000033510641939e+00
    -1.1134155264205763e-09 9.9999442581031373e-01
    8.5639446549119370e-09 9.9999929037478097e-01
    -2.1108416973603941e-09 9.9999838678222008e-01
    2.9690933310145909e-10 1.0000034488360281e+00
    -1.6237311347846309e-10 9.9999268712104494e-01
    6.3092873673427759e-10 1.0000149822969466e+00
    -3.4794639899134911e-09 9.9999430392627631e-01
    -8.6752841564210192e-10 1.0000048572697409e+00
    2.7278721484466167e-09 1.0000105903113461e+00 1.1424189925869674e-09
    1.0000026174146870e+00 1.5541413654366591e-09 1.0000021085326225e+00
    -4.7969592659678831e-09 1.0000010665462855e+00
    3.0154934951141830e-09 1.0000034488360281e+00
    -1.6237311347846309e-10 1.0000015032117324e+00
    -2.3567251760496820e-09 1.0000093524700144e+00
    4.7552406819500860e-11 1. 0. 1. 0. 9.9999288670842579e-01
    -2.6512929780186769e-09 9.9999232403659954e-01
    -1.3778365203875071e-09 1.0000025050424710e+00
    -6.2258432180496454e-09 1.0000053120336330e+00
    -4.8062531139142290e-09 1.0000098544191083e+00
    -3.3866609173034685e-10 9.9999673491719498e-01
    -1.9762994838659313e-08 1. 0. 9.9999871842468813e-01
    -1.2061945657505329e-09 9.9999951609081383e-01
    -3.9618883877693631e-09 1. 0. 1.0000158921452817e+00
    9.5569364541869260e-10 1.0000070607440559e+00
    -1.4660025481488239e-09 9.9999580881975236e-01
    -2.5515580034923276e-09 1.0000044202339249e+00
    -2.1108525256886606e-10 9.9999828670444124e-01
    -2.4346562877765535e-08 9.9999580881975236e-01
    -2.5515580034923276e-09 9.9999919511871671e-01
    -3.1453857900757587e-09 9.9999580881975236e-01
    -2.5515580034923276e-09 9.9999938581650438e-01
    -4.7923069922726643e-09 1.0000050187109693e+00
    1.1097059919208392e-08 1.0000052017609977e+00 4.0454172327965588e-09
    1.0000034488360281e+00 -1.6237311347846309e-10
    1.0000024172148465e+00 1.0020730379955283e-09 1. 0.
    9.9999640109760846e-01 1.6329980894271779e-09 9.9999580881975236e-01
    -2.5515580034923276e-09 1.0000050189554648e+00
    -6.7315359308980700e-09 9.9999871224530124e-01 0.
    1.0000068895323040e+00 -4.7413112268706123e-09
    9.9999871842468813e-01 -1.2061945657505329e-09
    9.9999879402955250e-01 -2.6721850861546920e-09
    9.9999743548835540e-01 -5.9010673817279072e-09 1. 0.
    1.0000081333598028e+00 2.3196267730935749e-10 9.9999683123761107e-01
    -1.5773283784890706e-09 1.0000047711469380e+00
    2.3984860191966820e-09 1. 0. 9.9999837496757249e-01
    -1.5123818976172689e-09 9.9999850977372906e-01
    5.7526190363651202e-10 1. 0. 1.0000078318933614e+00
    3.1361344517906249e-09 9.9999965075598241e-01
    -2.9319833703282542e-09 9.9999906244664938e-01
    5.9381906742571562e-10 9.9999871224530124e-01 0.
    9.9999985281949499e-01 -3.2474505916815254e-09 1. 0. 1. 0. 1. 0.
    1.0000037937282902e+00 -6.3418320765279139e-09
    9.9999837496757249e-01 -1.5123818976172689e-09
    9.9999871224530124e-01 0. 1. 0. 1. 0. 9.9999232403659954e-01
    -1.3778365203875071e-09 1. 0. 1.0000103483842981e+00
    -3.2010920372930334e-09 1.0000039771757909e+00
    -2.0041492023731048e-09 1.0000027946559042e+00
    1.0763010766787228e-09 1.0000136618391604e+00 9.7424863073916251e-10
    9.9999951609085247e-01 -3.9618883877695169e-09
    1.0000050106690548e+00 -4.3933593892052554e-09
    1.0000037345399970e+00 -4.8711947960683819e-09
    1.0000015839469727e+00 -2.3984783747785977e-09
    1.0000064477929518e+00 -4.1660426623779260e-09
    1.0000054367513798e+00 1.5958989163973162e-09 9.9999743548835540e-01
    -5.9010673817279072e-09 1.0000000019504225e+00
    -3.9154981544635946e-09 1.0000063428503065e+00
    -1.1876467813445582e-09 1. 0. 9.9999929037478741e-01
    -2.1108416973604078e-09 9.9999954890647469e-01
    -2.5237322642542015e-09 1. 0. 1. 0. 9.9999951609082161e-01
    -3.9618883877693945e-09 1.0000006058855666e+00
    2.0783699438251167e-09 1.0000050106690548e+00
    -4.3933593892052554e-09 1.0000034488360281e+00
    -1.6237311347846309e-10 9.9999929037478741e-01
    -2.1108416973604078e-09 1.0000021085326225e+00
    -4.7969592659678831e-09 1. 0. 9.9998416814283919e-01
    4.4999680953824225e-10 1.0000061149996484e+00
    -6.6805116229134777e-10 1.0000207790608688e+00
    2.7371942052708720e-10 1. 0. 1.0000101482953780e+00
    -4.4536923781518084e-09 1.0000135751793544e+00
    1.0948697949031427e-09 1.0000021085326225e+00
    -4.7969592659678831e-09 1.0000033510641939e+00
    -1.1134155264205763e-09 1. 0. 1. 0. 9.9999837496757249e-01
    -1.5123818976172689e-09 9.9999184069224112e-01 0.
    9.9999837496757249e-01 -1.5123818976172689e-09
    9.9999352612082304e-01 -4.4536183488509562e-10
    1.0000035125064974e+00 1.4984719712236094e-09 1.0000034488360281e+00
    -1.6237311347846309e-10 9.9999433980989139e-01
    2.3752650521253234e-09 9.9999640109760846e-01 1.6329980894271779e-09
    9.9998732708425031e-01 -4.3700859141442753e-09
    1.0000092730044687e+00 -7.0980660148644005e-09 1. 0.
    1.0000050106690548e+00 -4.3933593892052554e-09
    9.9999776558688980e-01 -4.1845633139616909e-09
    1.0000027946559042e+00 1.0763010766787228e-09 9.9999871842468813e-01
    -1.2061945657505329e-09 9.9999721218835502e-01
    -1.2043370677819185e-08 1.0000050187109693e+00
    1.1097059919208392e-08 1.0000068895323040e+00
    -4.7413112268706123e-09 9.9999157556783635e-01
    4.4582488385071617e-09 9.9999232403659954e-01
    -1.3778365203875071e-09 9.9999838480892023e-01
    9.0000641418781238e-10 9.9999928211431044e-01
    -2.8739921334347613e-09 1. 0. 9.9999580881975236e-01
    -2.5515580034923276e-09 1.0000051574905546e+00
    6.7176191442258628e-09 1.0000050187109693e+00 1.1097059919208392e-08
    1. 0. 1. 0. 1.0000027946559042e+00 1.0763010766787228e-09
    1.0000061149996484e+00 -6.6805116229134777e-10
    1.0000061149996484e+00 -6.6805116229134777e-10
    1.0000033510641939e+00 -1.1134155264205763e-09
    9.9999430392627631e-01 -8.6752841564210192e-10
    1.0000015032117324e+00 -2.3567251760496820e-09 1. 0.
    9.9999800702529207e-01 1.8927962797178684e-09 1.0000003720201567e+00
    6.3835633345687580e-09 1.0000017174829345e+00
    -5.7433590415585573e-09 1. 0. 1.0000081333598028e+00
    2.3196267730935749e-10 9.9999893411244922e-01
    -2.9273420582717054e-09 1.0000057385887875e+00
    3.1361278869574476e-09 1.0000034488360281e+00
    -1.6237311347846309e-10 1.0000097255159184e+00
    -1.7072480231758163e-08 1. 0. 1.0000015032117324e+00
    -2.3567251760496820e-09 9.9999607483660635e-01
    1.1356755734826142e-08 1. 0. 9.9999609671110667e-01
    7.6685938073174153e-09 9.9999849858092682e-01 4.7876635315164224e-09
    9.9999968859406818e-01 -2.2546581833808554e-09
    9.9999800702529207e-01 1.8927962797178684e-09 9.9999951609082161e-01
    -3.9618883877693945e-09 1.0000058799129659e+00
    -4.4861480699262371e-09 1.0000092730044687e+00
    -7.0980660148644005e-09 1.0000035125064974e+00
    1.4984719712236094e-09 1.0000033510641939e+00
    -1.1134155264205763e-09 1. 0. 9.9999830730223915e-01
    1.1505235743244074e-09 1.0000034355433873e+00
    -3.4283922647301762e-09 1. 0. 1.0000041762769698e+00
    -5.4464621112120003e-09 1. 0. 1. 0. 1. 0. 9.9999919511871671e-01
    -3.1453857900757587e-09 9.9998732708425031e-01
    -4.3700859141442753e-09 9.9999811475848965e-01
    -4.2866273305857593e-09 1.0000018519418610e+00
    2.0041449431041592e-09 1. 0. 9.9999523314510441e-01
    8.9072519026696713e-10 1.0000015839469727e+00
    -2.3984783747785977e-09 1. 0. 1. 0. 9.9999266665797726e-01
    -7.2000101424557926e-09 9.9999929037478785e-01
    -2.1108416973604086e-09 1. 0. 9.9999683809818951e-01
    9.6959303931144809e-10 1.0000006058855666e+00 2.0783699438251167e-09
    1.0000062932647440e+00 2.5886987153506925e-09 9.9999683123761107e-01
    -1.5773283784890706e-09 1.0000015839469727e+00
    -2.3984783747785977e-09 9.9998416814283919e-01
    4.4999680953824225e-10 1.0000207790608688e+00 2.7371942052708720e-10
    9.9999847182836488e-01 -8.1650073546935830e-10 1. 0.
    9.9999266665797726e-01 -7.2000101424557926e-09
    9.9999776558688980e-01 -4.1845633139616909e-09
    1.0000047179415863e+00 2.8786469936721308e-09 1.0000037937282902e+00
    -6.3418320765279139e-09 1. 0. 1. 0. 9.9999743548835540e-01
    -5.9010673817279072e-09 9.9999929037478741e-01
    -2.1108416973604078e-09 1.0000207790608688e+00
    2.7371942052708720e-10 9.9999954136539027e-01
    -2.8531164169335413e-09 1. 0. 1.0000068116212844e+00
    7.6454797388601948e-09 9.9999743548835540e-01
    -5.9010673817279072e-09 9.9999609671110667e-01
    7.6685938073174153e-09 1.0000064830960878e+00
    -3.7809854005599654e-10 1. 0. 1.0000037937282902e+00
    -6.3418320765279139e-09 1.0000056276311740e+00
    -6.2768943198859281e-09 1.0000043352510057e+00
    -5.6784247733514859e-09 9.9999523314510441e-01
    8.9072519026696713e-10 9.9999157556783635e-01 4.4582488385071617e-09
    9.9999830730223915e-01 1.1505235743244074e-09 1.0000068895323040e+00
    -4.7413112268706123e-09 1.0000061149996484e+00
    -6.6805116229134777e-10 1.0000064830960878e+00
    -3.7809854005599654e-10 9.9999954890647469e-01
    -2.5237322642542015e-09 1.0000135751793544e+00
    1.0948697949031427e-09 9.9999213170244750e-01
    -1.1458772898281893e-09 9.9999803632661033e-01
    1.1876369161909993e-09 9.9999850977372906e-01 5.7526190363651202e-10
    9.9998994842514932e-01 -4.9499935175682318e-09
    9.9998916756933198e-01 9.0602903382739262e-09 1.0000098544191083e+00
    -3.3866609173034685e-10 1.0000036392492664e+00
    8.6521689799767665e-10 9.9999295757588214e-01
    -9.1855826220517892e-10 9.9999965075600816e-01
    -2.9319833703283299e-09 1.0000092730044687e+00
    -7.0980660148644005e-09 1.0000050106690463e+00
    -4.3933593892052182e-09 1. 0. 1.0000050187109693e+00
    1.1097059919208392e-08 1. 0. 1. 0. 1.0000037937282902e+00
    -6.3418320765279139e-09 1.0000061149996484e+00
    -6.6805116229134777e-10 1.0000006058855666e+00
    2.0783699438251167e-09 9.9999499928222035e-01 5.1958957280907373e-09
    9.9999593382537566e-01 2.8206317455477820e-09 1.0000058681132116e+00
    7.8681561911240028e-09 1.0000031666631093e+00
    -5.1912989346578148e-09 1.0000093524700144e+00
    4.7552406819500860e-11 1.0000034488360281e+00
    -1.6237311347846309e-10 9.9999661792889882e-01
    -7.5526178012501003e-09 9.9999830730223915e-01
    1.1505235743244074e-09 1.0000033510641939e+00
    -1.1134155264205763e-09 1.0000135751793544e+00
    1.0948697949031427e-09 9.9999601172467134e-01
    -2.7835183867834550e-10 1.0000036392492664e+00
    8.6521689799767665e-10 9.9999501152165016e-01 9.1020960207925448e-09
    1.0000135793169311e+00 1.1296643905168710e-09 9.9999579021663043e-01
    -6.5134315822897434e-09 1.0000050187109693e+00
    1.1097059919208392e-08 9.9999600338724082e-01 2.5237233163088814e-09
    1. 0. 9.9999968859406818e-01 -2.2546581833808554e-09
    9.9999420059412358e-01 2.4494917439943885e-09 9.9999919511870206e-01
    -3.1453857900757128e-09 1.0000058799129659e+00
    -4.4861480699262371e-09 9.9998935390213772e-01
    -2.6489640282354301e-09 9.9999951609082161e-01
    -3.9618883877693945e-09 1.0000061149996484e+00
    -6.6805116229134777e-10 1.0000098517587128e+00
    -1.5866274392280071e-09 1.0000015444288590e+00
    7.3067761914753687e-10 1.0000018423136787e+00
    -1.4103242056426118e-09 9.9999066123028502e-01
    -5.3582442250347668e-09 9.9999640109760846e-01
    1.6329980894271779e-09 9.9999811475848965e-01
    -4.2866273305857593e-09 1. 0. 9.9999743548835540e-01
    -5.9010673817279072e-09 9.9999523314510441e-01
    8.9072519026696713e-10 9.9999971815428434e-01
    -4.2773557747464870e-09 9.9999640109760846e-01
    1.6329980894271779e-09 1.0000142087380537e+00 1.9021055097829827e-10
    9.9998416814283919e-01 4.4999680953824225e-10 1. 0.
    9.9999929037478741e-01 -2.1108416973604078e-09
    1.0000012388239594e+00 1.5866137738440233e-09 9.9999640109760846e-01
    1.6329980894271779e-09 9.9999954890647469e-01
    -2.5237322642542015e-09 9.9999184069224112e-01 0.
    1.0000015032117324e+00 -2.3567251760496820e-09
    1.0000035125064974e+00 1.4984719712236094e-09 9.9999359111593011e-01
    -4.5927942207636136e-10 1.0000027946559042e+00
    1.0763010766787228e-09 1.0000006058855666e+00 2.0783699438251167e-09
    1.0000044245967119e+00 -4.7505780126052037e-09 1. 0.
    9.9999902025807086e-01 3.3402321133498672e-10 1.0000015839469727e+00
    -2.3984783747785977e-09 1.0000065739340418e+00
    -3.2706686497305217e-09 1.0000014236199233e+00 0.
    1.0000044202339249e+00 -2.1108525256886606e-10 1. 0.
    9.9999683123761107e-01 -1.5773283784890706e-09
    9.9999830730223915e-01 1.1505235743244074e-09 9.9999620455402283e-01
    5.1031180264710092e-10 1.0000041762769698e+00
    -5.4464621112120003e-09 1.0000062932647440e+00
    2.5886987153506925e-09 9.9999871842468813e-01
    -1.2061945657505329e-09 1.0000092730044687e+00
    -7.0980660148644005e-09 9.9999501152165016e-01
    9.1020960207925448e-09 9.9999813494342227e-01
    -3.2660018416085379e-09 9.9999837496757249e-01
    -1.5123818976172689e-09 9.9999580881975236e-01
    -2.5515580034923276e-09 9.9999587126250811e-01
    -3.4979542813922884e-09 1. 0. 9.9999213170244750e-01
    -1.1458772898281893e-09 1.0000057385887875e+00
    3.1361278869574476e-09 1.0000047179415863e+00 2.8786469936721308e-09
    1.0000017174829345e+00 -5.7433590415585573e-09
    1.0000034488360281e+00 -1.6237311347846309e-10
    1.0000017174829345e+00 -5.7433590415585573e-09
    1.0000081333598028e+00 2.3196267730935749e-10 1.0000207790608688e+00
    2.7371942052708720e-10 1. 0. 1.0000015032117324e+00
    -2.3567251760496820e-09 9.9999334373263860e-01
    -4.3144419885408851e-10 1.0000051574905546e+00
    6.7176191442258628e-09 1. 0. 1.0000054367513798e+00
    1.5958989163973162e-09 1.0000015839469727e+00
    -2.3984783747785977e-09 1.0000039099199978e+00
    -8.9537215287851465e-10 1.0000037937282902e+00
    -6.3418320765279139e-09 9.9999433980989139e-01
    2.3752650521253234e-09 1.0000010665462855e+00 3.0154934951141830e-09
    9.9999501152165016e-01 9.1020960207925448e-09 1.0000015444288590e+00
    7.3067761914753687e-10 1.0000031666631093e+00
    -5.1912989346578148e-09 1.0000000019504225e+00
    -3.9154981544635946e-09 1.0000027946559042e+00
    1.0763010766787228e-09 1.0000061149996484e+00
    -6.6805116229134777e-10 1.0000034488360281e+00
    -1.6237311347846309e-10 1. 0. 1. 0. 1.0000009366633806e+00
    -4.0082862175136367e-09 1. 0. 9.9999066123028502e-01
    -5.3582442250347668e-09 1. 0. 9.9998693212744183e-01
    -5.1958538117860742e-10 1. 0. 9.9999902025807086e-01
    3.3402321133498672e-10 1.0000037345399970e+00
    -4.8711947960683819e-09 1.0000006058855666e+00
    2.0783699438251167e-09 9.9998416814283919e-01 4.4999680953824225e-10
    1.0000006812240290e+00 -2.3010526111640266e-09 1. 0.
    1.0000006058855666e+00 2.0783699438251167e-09 1.0000035631355324e+00
    -3.3216903582541967e-09 1. 0. 1.0000041762769698e+00
    -5.4464621112120003e-09 9.9999430392627631e-01
    -8.6752841564210192e-10 1.0000098544191083e+00
    -3.3866609173034685e-10 1.0000035125064974e+00
    1.4984719712236094e-09 9.9999830730223915e-01 1.1505235743244074e-09
    1. 0. 1. 0. 9.9999240330579753e-01 -2.2453633963987787e-09
    1.0000044245967119e+00 -4.7505780126052037e-09
    9.9999813494342227e-01 -3.2660018416085379e-09
    9.9999501152165016e-01 9.1020960207925448e-09 9.9999826372916079e-01
    1.5309385604173978e-10 9.9999157556783635e-01 4.4582488385071617e-09
    1.0000015839469727e+00 -2.3984783747785977e-09
    9.9999954136539027e-01 -2.8531164169335413e-09
    1.0000036392492664e+00 8.6521689799767665e-10 1.0000001294950092e+00
    4.3376673475865106e-10 1.0000101482953780e+00
    -4.4536923781518084e-09 1.0000093524700144e+00
    4.7552406819500860e-11 1.0000034488360281e+00
    -1.6237311347846309e-10 1.0000050106690463e+00
    -4.3933593892052182e-09 1. 0. 9.9999203086158683e-01
    -2.4865998599674127e-09 1.0000015839469727e+00
    -2.3984783747785977e-09 9.9999811475848965e-01
    -4.2866273305857593e-09 9.9999811475848965e-01
    -4.2866273305857593e-09 1.0000068895323040e+00
    -4.7413112268706123e-09 1.0000136618391604e+00
    9.7424863073916251e-10 9.9999837496757249e-01
    -1.5123818976172689e-09 9.9999826372916079e-01
    1.5309385604173978e-10 9.9999871842468813e-01
    -1.2061945657505329e-09 1.0000058799129659e+00
    -4.4861480699262371e-09 1. 0. 1. 0. 9.9999811475848965e-01
    -4.2866273305857593e-09 1. 0. 1. 0. 1.0000081333598028e+00
    2.3196267730935749e-10 9.9999640109760846e-01 1.6329980894271779e-09
    1.0000023061722745e+00 1.1180535895381949e-09 1.0000015032117324e+00
    -2.3567251760496820e-09 9.9999902025807086e-01
    3.3402321133498672e-10 9.9999240330579753e-01
    -2.2453633963987787e-09 1. 0. 9.9999728902954377e-01
    -4.0268284097148915e-09 1. 0. 9.9999954890647469e-01
    -2.5237322642542015e-09 1.0000068895323040e+00
    -4.7413112268706123e-09 9.9999203086158683e-01
    -2.4865998599674127e-09 1. 0. 9.9999640109760846e-01
    1.6329980894271779e-09 9.9999830730223915e-01 1.1505235743244074e-09
    1.0000091234562889e+00 2.0853465336865621e-09 1.0000064830960878e+00
    -3.7809854005599654e-10 9.9999971815428479e-01
    -4.2773557747464887e-09 1.0000081333598028e+00
    2.3196267730935749e-10 1. 0. 9.9999359111593011e-01
    -4.5927942207636136e-10 9.9999738303392127e-01
    -5.3072490020324828e-09 9.9999954136539027e-01
    -2.8531164169335413e-09 9.9999176976721593e-01
    -2.7046405594266463e-09 1.0000135793169311e+00
    1.1296643905168710e-09 9.9999902025807086e-01 3.3402321133498672e-10
    9.9999580881975236e-01 -2.5515580034923276e-09
    1.0000015839469727e+00 -2.3984783747785977e-09 1. 0.
    1.0000060693698134e+00 -6.8521633450077076e-09
    1.0000037937282902e+00 -6.3418320765279139e-09
    1.0000093524700144e+00 4.7552406819500860e-11 9.9999184069224112e-01
    0. 9.9998653793347758e-01 -4.0407025768594817e-09
    1.0000064830960878e+00 -3.7809854005599654e-10
    1.0000061149996484e+00 -6.6805116229134777e-10
    9.9999919511871671e-01 -3.1453857900757587e-09
    1.0000056276311740e+00 -6.2768943198859281e-09
    9.9999850977372906e-01 5.7526190363651202e-10 9.9999587126250811e-01
    -3.4979542813922884e-09 1.0000050106690463e+00
    -4.3933593892052182e-09 9.9999826372916079e-01
    1.5309385604173978e-10 1. 0. 9.9998416814283919e-01
    4.4999680953824225e-10 1.0000072865093543e+00
    -6.4021644721019172e-10 9.9999871224530124e-01 0.
    1.0000037937282902e+00 -6.3418320765279139e-09
    9.9999954136539027e-01 -2.8531164169335413e-09
    9.9999871224530124e-01 0. 1.0000021085326225e+00
    -4.7969592659678831e-09 1.0000039366686335e+00
    -3.0618944907085336e-09 1.0000010665462855e+00
    3.0154934951141830e-09 1.0000136618391604e+00 9.7424863073916251e-10
    1.0000065299662844e+00 3.5583017646048135e-09 1.0000015839469727e+00
    -2.3984783747785977e-09 9.9999871224530124e-01 0.
    9.9999837496757249e-01 -1.5123818976172689e-09
    9.9999968859406818e-01 -2.2546581833808554e-09
    1.0000064830960878e+00 -3.7809854005599654e-10
    1.0000000019504225e+00 -3.9154981544635946e-09
    9.9999359111593011e-01 -4.5927942207636136e-10 1. 0.
    1.0000082158811863e+00 7.6547689828857334e-11 1.0000064477929518e+00
    -4.1660426623779260e-09 1.0000092730044687e+00
    -7.0980660148644005e-09 9.9999813494342227e-01
    -3.2660018416085379e-09 1.0000035631355324e+00
    -3.3216903582541967e-09 9.9999929037478741e-01
    -2.1108416973604078e-09 1.0000035631355324e+00
    -3.3216903582541967e-09 1.0000068895323040e+00
    -4.7413112268706123e-09 1.0000014236199233e+00 0.
    1.0000056276311740e+00 -6.2768943198859281e-09
    1.0000072865093543e+00 -6.4021644721019172e-10
    1.0000039366686335e+00 -3.0618944907085336e-09
    9.9999137862573750e-01 3.2659797754213826e-09 9.9999066123028502e-01
    -5.3582442250347668e-09 1. 0. 9.9999580881975236e-01
    -2.5515580034923276e-09 1. 0. 9.9999334373263860e-01
    -4.3144419885408851e-10 9.9999871224530124e-01 0.
    1.0000135793169311e+00 1.1296643905168710e-09 1.0000135793169311e+00
    1.1296643905168710e-09 9.9999954136539027e-01
    -2.8531164169335413e-09 1.0000027946559042e+00
    1.0763010766787228e-09 1.0000056276311740e+00
    -6.2768943198859281e-09 1.0000038108035327e+00
    3.2660203790126850e-09 1.0000063428503065e+00
    -1.1876467813445582e-09 9.9999722815691960e-01
    3.2196068504906521e-09 1. 0. 1.0000135793169311e+00
    1.1296643905168710e-09 1.0000034488360281e+00
    -1.6237311347846309e-10 1.0000038935734141e+00
    2.9969450844793953e-09 1.0000038935734141e+00 2.9969450844793953e-09
    1.0000036392492664e+00 8.6521689799767665e-10 1.0000054381744843e+00
    -3.9108801989461935e-09 1.0000035125064974e+00
    1.4984719712236094e-09 9.9999985281949499e-01
    -3.2474505916815254e-09 9.9999376964734077e-01
    -9.6495087724363139e-10 1.0000092730044687e+00
    -7.0980660148644005e-09 9.9999951609082161e-01
    -3.9618883877693945e-09 1.0000135793169311e+00
    1.1296643905168710e-09 9.9999985281949810e-01
    -3.2474505916815353e-09 1.0000035125064974e+00
    1.4984719712236094e-09 1.0000048572697409e+00 2.7278721484466167e-09
    1.0000039771757909e+00 -2.0041492023731048e-09
    9.9999858354607496e-01 4.8990049601225405e-09 1. 0.
    1.0000034488360281e+00 -1.6237311347846309e-10 1. 0.
    1.0000021085326225e+00 -4.7969592659678831e-09
    1.0000065299662844e+00 3.5583017646048135e-09 9.9999871224530124e-01
    0. 9.9999837496757249e-01 -1.5123818976172689e-09
    9.9999743548835540e-01 -5.9010673817279072e-09 1. 0.
    1.0000092730044687e+00 -7.0980660148644005e-09
    1.0000034488360281e+00 -1.6237311347846309e-10 1. 0. 1. 0.
    9.9999499928222035e-01 5.1958957280907373e-09 1.0000038935734141e+00
    2.9969450844793953e-09 1.0000051574905546e+00 6.7176191442258628e-09
    1.0000033510641939e+00 -1.1134155264205763e-09
    1.0000061149996484e+00 -6.6805116229134777e-10
    1.0000039366686335e+00 -3.0618944907085336e-09
    1.0000065299662844e+00 3.5583017646048135e-09 9.9999803632661033e-01
    1.1876369161909993e-09 9.9999800702529207e-01 1.8927962797178684e-09
    1.0000001294950092e+00 4.3376673475865106e-10 9.9999501152165016e-01
    9.1020960207925448e-09 1.0000097255159184e+00
    -1.7072480231758163e-08 1. 0. 9.9999501152165016e-01
    9.1020960207925448e-09 1.0000062932647440e+00 2.5886987153506925e-09
    1.0000015032117324e+00 -2.3567251760496820e-09 1. 0.
    1.0000092059778611e+00 1.9299315452742239e-09 1.0000135793169311e+00
    1.1296643905168710e-09 9.9999929056045478e-01
    -5.8268509283009162e-09 1.0000056276311740e+00
    -6.2768943198859281e-09 9.9999580881975236e-01
    -2.5515580034923276e-09 9.9999985281949744e-01
    -3.2474505916815332e-09 1.0000056276311740e+00
    -6.2768943198859281e-09 1.0000015839469727e+00
    -2.3984783747785977e-09 1.0000064830960878e+00
    -3.7809854005599654e-10 9.9999578414773926e-01
    3.2706333601467162e-09 1. 0. 1.0000010665462855e+00
    3.0154934951141830e-09 1. 0. 1.0000093524700144e+00
    4.7552406819500860e-11 9.9999968859406818e-01
    -2.2546581833808554e-09 1.0000068116212844e+00
    7.6454797388601948e-09 9.9999965075600816e-01
    -2.9319833703283299e-09 1. 0. 1.0000033510641939e+00
    -1.1134155264205763e-09 1.0000006812240290e+00
    -2.3010526111640266e-09 1.0000063428503065e+00
    -1.1876467813445582e-09 1.0000006812240290e+00
    -2.3010526111640266e-09 9.9999971815428657e-01
    -4.2773557747464961e-09 9.9999240330579753e-01
    -2.2453633963987787e-09 9.9999799494492037e-01
    5.1031271630817508e-09 1.0000043024174941e+00
    -4.5510902939202485e-09 1.0000041762769698e+00
    -5.4464621112120003e-09 9.9999647061973429e-01
    -7.3299351155460077e-09 9.9999184903632610e-01
    -3.5721670597660429e-09 9.9999620455402283e-01
    5.1031180264710092e-10 9.9999600338724082e-01 2.5237233163088814e-09
    1.0000053120336561e+00 -4.8062531139143399e-09
    1.0000027946559042e+00 1.0763010766787228e-09 1.0000077338617290e+00
    -7.3485746814417193e-09 1. 0. 1.0000033561189230e+00
    -7.5573079237796790e-09 9.9999213170244750e-01
    -1.1458772898281893e-09 9.9998870460427647e-01
    8.8097713193828161e-09 9.9999620455402283e-01 5.1031180264710092e-10
    1.0000104153384530e+00 -3.2660419494761277e-09
    1.0000024172148541e+00 1.0020730379955358e-09 1.0000050597521251e+00
    -6.5969982661962002e-09 1.0000066372500036e+00
    -6.5320592204185614e-09 1. 0. 9.9998870460427647e-01
    8.8097713193828161e-09 1.0000042985013531e+00 1.4697098873269357e-08
    1.0000124947529760e+00 2.4936096565518398e-10 9.9999951609081383e-01
    -3.9618883877693631e-09 1.0000010372162833e+00
    -1.2757856720526271e-09 1.0000015312486092e+00
    -2.9273496609857213e-09 1.0000035455561185e+00
    6.9124560709398625e-10 1.0000027354377388e+00
    -6.3093507655239785e-10 1.0000057966431908e+00
    4.2031538913229688e-09 9.9999811475848965e-01
    -4.2866273305857593e-09 1.0000050187109693e+00
    1.1097059919208392e-08 1.0000156438296377e+00 1.7629295877734793e-09
    9.9999919511870738e-01 -3.1453857900757293e-09 1. 0.
    1.0000023215893414e+00 7.1444089395597680e-10 1.0000005837888377e+00
    6.8985179423599362e-09 1.0000042371215447e+00
    -3.1454016491325721e-09 1.0000010665462855e+00
    3.0154934951141830e-09 1.0000033561189230e+00
    -7.5573079237796790e-09 1.0000063428503065e+00
    -1.1876467813445582e-09 1.0000052017609979e+00
    4.0454172327965597e-09 1. 0. 1.0000022411283356e+00
    1.6330076262205195e-09 9.9999203925220326e-01
    -2.6721670361176310e-09 9.9999628405223495e-01
    5.6412654668255924e-09 9.9999830730223915e-01 1.1505235743244074e-09
    9.9999344285433867e-01 -5.0799080061692671e-09
    1.0000050507096176e+00 -5.6413149220509181e-09
    1.0000088132151574e+00 1.7118857223674762e-09 1.0000004970684107e+00
    -1.1980780794340540e-09 1.0000001386093911e+00
    3.2660083855974872e-09 9.9999397782307875e-01 1.0484564598849959e-09
    1.0000047179415863e+00 2.8786469936721308e-09 1.0000072019232540e+00
    3.0758222362094646e-09 1.0000064830960878e+00
    -3.7809854005599654e-10 1.0000048572697409e+00
    2.7278721484466167e-09 1.0000047819796625e+00
    -1.0391893116441547e-09 1. 0. 9.9998994842514932e-01
    -4.9499935175682318e-09 1.0000050187109693e+00
    1.1097059919208392e-08 9.9999971815428590e-01
    -4.2773557747464936e-09 9.9999830730223915e-01
    1.1505235743244074e-09 1.0000082098392042e+00
    -5.3351419861403381e-10 1.0000063428503065e+00
    -1.1876467813445582e-09 1.0000023062187284e+00
    -7.4343604867974607e-10 1. 0. 9.9999938581650616e-01
    -4.7923069922726734e-09 1.0000047242316172e+00
    -3.5443776261064010e-09 1.0000102547943430e+00
    -4.0825517814222387e-10 1.0000057264851834e+00
    -2.8113808823868702e-09 9.9999811475848965e-01
    -4.2866273305857593e-09 1.0000007148795551e+00
    8.4433788170664118e-10 9.9999857743908982e-01
    -2.0876441463938984e-09 1. 0. 9.9999058196141799e-01
    -4.4907186135754185e-09 9.9999352305460865e-01
    2.7463979733703232e-09 1.0000006056189255e+00
    -8.3505935220707339e-10 9.9998883989224996e-01
    -7.6035898609492696e-09 9.9999837496757249e-01
    -1.5123818976172689e-09 1.0000102547943430e+00
    -4.0825517814222387e-10 9.9999830730223915e-01
    1.1505235743244074e-09 9.9999609671110667e-01 7.6685938073174153e-09
    9.9999815314510188e-01 8.9072779119691862e-10 9.9999815314510188e-01
    8.9072779119691862e-10 1.0000049964363600e+00
    -3.3356128361987391e-09 1.0000234453168848e+00
    -2.3196622908302923e-10 1. 0. 1. 0. 9.9999693128840483e-01
    9.5799512572491716e-09 1.0000047819796625e+00
    -1.0391893116441547e-09 1. 0. 1.0000066372500036e+00
    -6.5320592204185614e-09 9.9999690502813265e-01
    -8.5546874840034114e-09 1.0000035331019037e+00
    5.1402692826945361e-09 1.0000035455561185e+00 6.9124560709398625e-10
    9.9999811475848965e-01 -4.2866273305857593e-09
    1.0000055185201249e+00 -6.4299886017188499e-09
    1.0000047179415863e+00 2.8786469936721308e-09 9.9998883989224996e-01
    -7.6035898609492696e-09 9.9998777867546107e-01
    8.3087339774968787e-09 9.9999343472255753e-01
    -1.4845393139317762e-10 1.0000063428503065e+00
    -1.1876467813445582e-09 9.9999837496757249e-01
    -1.5123818976172689e-09 9.9999250222035052e-01
    -2.4216524976379797e-09 1.0000041762769680e+00
    -5.4464621112119912e-09 9.9998929882289822e-01
    5.8639060372440009e-09 1.0000023577205528e+00 5.0474787059042250e-09
    9.9999390819350209e-01 -3.9293918570273782e-09
    1.0000057264851834e+00 -2.8113808823868702e-09
    9.9999830730223915e-01 1.1505235743244074e-09 9.9999018623159119e-01
    -7.5525692249342345e-09 9.9999612660115322e-01
    4.8989929235201329e-09 9.9999590794027160e-01 4.0268228482902971e-09
    1.0000078246189719e+00 7.1305304990209643e-09 1. 0.
    1.0000050187109693e+00 1.1097059919208392e-08 1.0000049964363595e+00
    -3.3356128361987375e-09 9.9999929037478741e-01
    -2.1108416973604078e-09 1.0000063428503065e+00
    -1.1876467813445582e-09 1.0000081333598028e+00
    2.3196267730935749e-10 9.9999334373263860e-01
    -4.3144419885408851e-10 1. 0. 1. 0. 1. 0. 9.9999203853555041e-01
    4.7087665620063175e-09 1.0000033561189230e+00
    -7.5573079237796790e-09 1.0000048572697409e+00
    2.7278721484466167e-09 9.9999748078756223e-01 1.6812475754818529e-08
    9.9999433980989139e-01 2.3752650521253234e-09 1. 0.
    9.9999837496757249e-01 -1.5123818976172689e-09
    1.0000023062187284e+00 -7.4343604867974607e-10
    9.9999879402955250e-01 -2.6721850861546920e-09
    1.0000042445066002e+00 -1.0763026371502270e-09
    1.0000009074534293e+00 7.0516144359450102e-10 1.0000023215893414e+00
    7.1444089395597680e-10 9.9999295757588236e-01
    -9.1855826220517912e-10 9.9998834184904883e-01
    3.5628762079468660e-09 1.0000010665462855e+00 3.0154934951141830e-09
    9.9999034415477184e-01 -1.8881426044179233e-09
    1.0000023062187284e+00 -7.4343604867974607e-10
    1.0000035455561460e+00 6.9124560709400527e-10 9.9999037810232105e-01
    8.5546316480200509e-09 1. 0. 9.9999533831250920e-01
    -3.4793956404010554e-09 9.9999811475848965e-01
    -4.2866273305857593e-09 1.0000057966431908e+00
    4.2031538913229688e-09 9.9999951609083759e-01
    -3.9618883877694573e-09 1. 0. 1.0000115572568991e+00
    4.6346301609543191e-09 1.0000124947529760e+00 2.4936096565518398e-10
    9.9999240330579753e-01 -2.2453633963987787e-09
    9.9999609671110667e-01 7.6685938073174153e-09 1.0000048572697409e+00
    2.7278721484466167e-09 9.9999139066755405e-01 1.4056702895870249e-09
    1.0000072864378458e+00 -4.6021356201963465e-09 1. 0.
    1.0000081333598028e+00 2.3196267730935749e-10 1.0000064830960878e+00
    -3.7809854005599654e-10 1. 0. 1. 0. 1.0000078342253584e+00
    8.2114763204350912e-09 1.0000182080748550e+00
    -5.6831428490815600e-10 1.0000048572697409e+00
    2.7278721484466167e-09 9.9999871224530124e-01 0.
    9.9999157556782992e-01 4.4582488385071327e-09 9.9999830730223915e-01
    1.1505235743244074e-09 1. 0. 9.9999919511870383e-01
    -3.1453857900757181e-09 1.0000086929676024e+00
    2.1804503868943964e-09 1.0000024332944026e+00
    -4.1613867108111845e-09 1.0000078342253584e+00
    8.2114763204350912e-09 1.0000077338617290e+00
    -7.3485746814417193e-09 1. 0. 9.9999161122909308e-01
    -9.6958797135953049e-10 9.9998710093109666e-01
    2.2267948666614212e-09 9.9999921665584457e-01
    -1.7165085064790620e-09 1.0000027882424836e+00
    -7.8774104158603364e-09 9.9999957651436955e-01
    -6.4392288225986859e-09 9.9999884705154896e-01
    2.0876447092495711e-09 1. 0. 1.0000057264851834e+00
    -2.8113808823868702e-09 9.9999587126250811e-01
    -3.4979542813922884e-09 9.9999837496757249e-01
    -1.5123818976172689e-09 1.0000124947529760e+00
    2.4936096565518398e-10 1.0000121766012724e+00 5.3351631492054520e-11
    1.0000074973506372e+00 -5.9382407623723149e-10
    9.9999938858057524e-01 -6.4948981681766974e-10
    9.9999157556782992e-01 4.4582488385071327e-09 1.0000086151139311e+00
    1.6886891043380616e-08 1.0000051858928629e+00
    -5.7016258029975993e-09 1. 0. 1.0000038566506764e+00
    -6.4578133182098715e-09 1.0000031051148515e+00
    3.3866380599237689e-10 1.0000121687073573e+00
    -1.7258092833371462e-09 1. 0. 1.0000035771939555e+00
    -9.8722865666722655e-09 9.9999847182836488e-01
    -8.1650073546935830e-10 1. 0. 1.0000035331019037e+00
    5.1402692826945361e-09 1.0000010372162833e+00
    -1.2757856720526271e-09 1.0000065739340418e+00
    -3.2706686497305217e-09 9.9999157556782992e-01
    4.4582488385071327e-09 1.0000104153384530e+00
    -3.2660419494761277e-09 1. 0. 1.0000004970684107e+00
    -1.1980780794340540e-09 1.0000033515384688e+00
    -2.5979695628801589e-09 9.9999343472255753e-01
    -1.4845393139317762e-10 9.9999240330579753e-01
    -2.2453633963987787e-09 9.9999203853555041e-01
    4.7087665620063175e-09 9.9999811475848965e-01
    -4.2866273305857593e-09 9.9999176976722459e-01
    -2.7046405594266698e-09 1.0000092730044687e+00
    -7.0980660148644005e-09 1.0000045852754491e+00
    -5.2191417215903712e-10 9.9999224476746185e-01
    -5.1030978191361330e-10 9.9999879402955250e-01
    -2.6721850861546920e-09 9.9999803632661033e-01
    1.1876369161909993e-09 1.0000042288173721e+00 2.8392120844893618e-09
    1.0000031051148515e+00 3.3866380599237689e-10 1.0000074574134434e+00
    -4.4212056410407834e-09 1.0000024399006713e+00
    -1.9948676671906501e-10 9.9999985074036191e-01
    -9.8351360572154870e-10 9.9999018623159119e-01
    -7.5525692249342345e-09 9.9999879402955250e-01
    -2.6721850861546920e-09 9.9999830730223915e-01
    1.1505235743244074e-09 9.9999250222034941e-01
    -2.4216524976379773e-09 1.0000042445066002e+00
    -1.0763026371502270e-09 1.0000063428503065e+00
    -1.1876467813445582e-09 9.9999803632661033e-01
    1.1876369161909993e-09 9.9999533831250920e-01
    -3.4793956404010554e-09 9.9999587126250811e-01
    -3.4979542813922884e-09 9.9999157556782992e-01
    4.4582488385071327e-09 1.0000040076303207e+00 5.6598659753659852e-10
    9.9999652173585596e-01 -2.3010430399694254e-09 1. 0.
    1.0000023215893414e+00 7.1444089395597680e-10 1.0000010372162833e+00
    -1.2757856720526271e-09 1.0000050187109693e+00
    1.1097059919208392e-08 9.9999811475848965e-01
    -4.2866273305857593e-09 1.0000042445066002e+00
    -1.0763026371502270e-09 1.0000077338617290e+00
    -7.3485746814417193e-09 9.9998870460427647e-01
    8.8097713193828161e-09 1.0000055637846199e+00 5.2701784864240992e-09
    9.9999157556782992e-01 4.4582488385071327e-09 9.9999837496757249e-01
    -1.5123818976172689e-09 1. 0. 1. 0. 1.0000047959800056e+00
    -5.6088388186046799e-09 1.0000007148795551e+00
    8.4433788170664118e-10 1. 0. 9.9998936508560066e-01
    -5.3443197804817999e-09 9.9999343472255753e-01
    -1.4845393139317762e-10 9.9999161122909308e-01
    -9.6958797135953049e-10 9.9999587126250811e-01
    -3.4979542813922884e-09 9.9999433980989139e-01
    2.3752650521253234e-09 1. 0. 9.9999985074036302e-01
    -9.8351360572154994e-10 1.0000124947529760e+00
    2.4936096565518398e-10 9.9999323168368992e-01 2.5237163212680474e-09
    9.9999985281949588e-01 -3.2474505916815282e-09
    9.9999158359669837e-01 -1.1319591314565238e-09
    1.0000011160461624e+00 -9.5382383582253432e-09
    1.0000041762769680e+00 -5.4464621112119912e-09 1. 0.
    9.9999728758072437e-01 -7.4320035749042926e-09 1. 0.
    1.0000023225321732e+00 -3.1175602674744996e-09
    1.0000156438296377e+00 1.7629295877734793e-09 1.0000021085326225e+00
    -4.7969592659678831e-09 1.0000004544897425e+00
    -6.8660425249325657e-10 9.9999295757588236e-01
    -9.1855826220517912e-10 9.9999343472255753e-01
    -1.4845393139317762e-10 1.0000024172148541e+00
    1.0020730379955358e-09 9.9999811475848965e-01
    -4.2866273305857593e-09 9.9999858354607474e-01
    4.8990049601225397e-09 1. 0. 9.9999157556782992e-01
    4.4582488385071327e-09 1.0000058799129685e+00
    -4.4861480699262487e-09 1. 0. 1.0000003037845808e+00
    -2.3752792182261578e-09 9.9999580881975236e-01
    -2.5515580034923276e-09 1.0000052878838479e+00
    4.3748036457217265e-09 9.9999023526753950e-01
    -8.8793723620245658e-09 9.9999985074036501e-01
    -9.8351360572155180e-10 1.0000042231055719e+00
    -3.9108754469830856e-09 9.9999390819350209e-01
    -3.9293918570273782e-09 1.0000051349141039e+00
    5.5670875629005368e-11 9.9999811475848965e-01
    -4.2866273305857593e-09 1.0000124947529760e+00
    2.4936096565518398e-10 1.0000059654065716e+00
    -1.2618742288949123e-09 9.9999981486096112e-01
    8.2114104701301249e-10 9.9999224476746185e-01
    -5.1030978191361330e-10 9.9999448555221326e-01
    -2.7069674998248853e-09 9.9999887895363671e-01
    -1.0614513882543352e-08 1.0000088132151574e+00
    1.7118857223674762e-09 1. 0. 1.0000088060600236e+00
    -1.3101260827575953e-08 1. 0. 9.9999938858057524e-01
    -6.4948981681766974e-10 1. 0. 1.0000022588338191e+00
    3.2984898943182418e-09 9.9999620455402283e-01 5.1031180264710092e-10
    1. 0. 9.9999056136240116e-01 -2.0783490676027183e-09
    9.9999830730223915e-01 1.1505235743244074e-09 1.0000035072916020e+00
    -5.4928507884723419e-09 1.0000042940836666e+00
    1.0410444989242579e-08 9.9999234875970255e-01
    -4.8433042520136638e-09 9.9999902025807086e-01
    3.3402321133498672e-10 1.0000050597521251e+00
    -6.5969982661962002e-09 9.9999811475848965e-01
    -4.2866273305857593e-09 1.0000035455561460e+00
    6.9124560709400527e-10 1.0000081333598028e+00 2.3196267730935749e-10
    1.0000042288173721e+00 2.8392120844893618e-09 1.0000024332944026e+00
    -4.1613867108111845e-09 1. 0. 1.0000061216660832e+00
    4.2588261879983549e-09 9.9999083525037580e-01
    -3.7113386372194778e-10 1.0000058141947179e+00
    1.6701274033487329e-09 9.9999811475848965e-01
    -4.2866273305857593e-09 1.0000046524832147e+00
    -1.4799167298501702e-09 1. 0. 1.0000074973506372e+00
    -5.9382407623723149e-10 9.9999018623159119e-01
    -7.5525692249342345e-09 9.9999048293727277e-01
    1.6840193133306218e-09 1.0000004970684107e+00
    -1.1980780794340540e-09 9.9999254656929026e-01
    4.0082525876466305e-09 1. 0. 1.0000026174146870e+00
    1.5541413654366591e-09 1.0000084488808729e+00
    -9.6496504207115733e-10 1.0000064830960878e+00
    -3.7809854005599654e-10 1.0000086367262937e+00
    -6.5320722810294118e-09 1.0000092730044687e+00
    -7.0980660148644005e-09 1.0000092730044687e+00
    -7.0980660148644005e-09 1.0000098544191083e+00
    -3.3866609173034685e-10 1. 0. 9.9999661792889971e-01
    -7.5526178012501069e-09 9.9999157556782992e-01
    4.4582488385071327e-09 9.9999213170244750e-01
    -1.1458772898281893e-09 1. 0. 9.9999985074036191e-01
    -9.8351360572154870e-10 9.9998870460427647e-01
    8.8097713193828161e-09 9.9998710093109666e-01 2.2267948666614212e-09
    9.9999830730223915e-01 1.1505235743244074e-09 9.9999707822470552e-01
    6.4763263536052983e-09 9.9999857743908982e-01
    -2.0876441463938984e-09 1.0000003948870739e+00
    -3.5165269754725053e-09 9.9999830730223915e-01
    1.1505235743244074e-09 9.9999766939365109e-01 1.0670171503656778e-09
    9.9999018623159119e-01 -7.5525692249342345e-09
    9.9999837496757249e-01 -1.5123818976172689e-09
    9.9999951609081383e-01 -3.9618883877693631e-09
    1.0000013672971411e+00 -1.8974418621975613e-09
    1.0000050106690663e+00 -4.3933593892053059e-09 1. 0.
    1.0000046524832311e+00 -1.4799167298501944e-09
    1.0000055637846199e+00 5.2701784864240992e-09 1.0000207790608688e+00
    2.7371942052708720e-10 9.9999929037478741e-01
    -2.1108416973604078e-09 9.9999919511870561e-01
    -3.1453857900757239e-09 1.0000074574134434e+00
    -4.4212056410407834e-09 9.9999951609083759e-01
    -3.9618883877694573e-09 1.0000035331019037e+00
    5.1402692826945361e-09 1.0000077338617290e+00
    -7.3485746814417193e-09 1.0000063428503065e+00
    -1.1876467813445582e-09 9.9999157556782992e-01
    4.4582488385071327e-09 9.9998710093109666e-01 2.2267948666614212e-09
    1.0000101482953780e+00 -4.4536923781518084e-09
    1.0000030830277165e+00 -3.8969532979496030e-09
    9.9999830730223915e-01 1.1505235743244074e-09 1.0000103483842981e+00
    -3.2010920372930334e-09 9.9999374965470145e-01
    -2.1943353644764671e-09 1.0000050187109693e+00
    1.1097059919208392e-08 9.9999620455402283e-01 5.1031180264710092e-10
    1.0000124947529760e+00 2.4936096565518398e-10 9.9999858354607474e-01
    4.8990049601225397e-09 9.9999830730223915e-01 1.1505235743244074e-09
    1.0000048572697409e+00 2.7278721484466167e-09 9.9999871224530124e-01
    0. 9.9999971815428590e-01 -4.2773557747464936e-09
    9.9999612660115322e-01 4.8989929235201329e-09 9.9999611436943403e-01
    -3.3680575937227965e-09 9.9999850977372906e-01
    5.7526190363651202e-10 1.0000024747673044e+00 1.0391869140251979e-09
    9.9999203853555041e-01 4.7087665620063175e-09 1. 0.
    9.9999919511870516e-01 -3.1453857900757223e-09
    1.0000051858928629e+00 -5.7016258029975993e-09
    1.0000112261865377e+00 -3.5954326182203320e-09
    1.0000007826866069e+00 3.4330223891725847e-10 1.0000063428503065e+00
    -1.1876467813445582e-09 1.0000014117656906e+00
    -3.7206563353356833e-09 1.0000014117656906e+00
    -3.7206563353356833e-09 1. 0. 9.9999215961145316e-01
    3.7484569879411302e-09 9.9999344285433867e-01
    -5.0799080061692671e-09 9.9998936508560066e-01
    -5.3443197804817999e-09 1.0000047480025200e+00
    -1.7629103794979612e-09 9.9999587126250811e-01
    -3.4979542813922884e-09 1.0000011160461624e+00
    -9.5382383582253432e-09 1. 0. 9.9999018623159119e-01
    -7.5525692249342345e-09 9.9998994842514932e-01
    -4.9499935175682318e-09 9.9999442873472755e-01
    3.7113519739790232e-11 9.9999906244664383e-01 5.9381906742571231e-10
    1.0000226835413255e+00 -6.1934935985718497e-10 1. 0.
    1.0000041762769680e+00 -5.4464621112119912e-09
    9.9999357130646838e-01 3.9201121612787887e-09 9.9999871842468813e-01
    -1.2061945657505329e-09 9.9999811475848965e-01
    -4.2866273305857593e-09 9.9999971815428568e-01
    -4.2773557747464928e-09 9.9999620454435756e-01
    -2.5469198150050051e-09 9.9999902025807086e-01
    3.3402321133498672e-10 1.0000042288173721e+00 2.8392120844893618e-09
    9.9999708044064040e-01 2.4494987981955654e-09 9.9999830730223915e-01
    1.1505235743244074e-09 1.0000023062187284e+00
    -7.4343604867974607e-10 9.9999268712104494e-01
    6.3092873673427759e-10 1.0000050187109693e+00 1.1097059919208392e-08
    1.0000051844767703e+00 1.0076428988262070e-08 9.9999295757588191e-01
    -9.1855826220517871e-10 1.0000021085326225e+00
    -4.7969592659678831e-09 1.0000007496101975e+00
    -1.5680561204861749e-09 1.0000023062187284e+00
    -7.4343604867974607e-10 1.0000004544897425e+00
    -6.8660425249325657e-10 9.9999037810232105e-01
    8.5546316480200509e-09 9.9999837496757249e-01
    -1.5123818976172689e-09 1.0000003037845808e+00
    -2.3752792182261578e-09 9.9999203925220326e-01
    -2.6721670361176310e-09 1. 0. 1. 0. 9.9999232403659954e-01
    -1.3778365203875071e-09 9.9999021068496419e-01
    2.5237086970726539e-09 1.0000098544191083e+00
    -3.3866609173034685e-10 1.0000029632906364e+00
    -6.2629599075126951e-09 9.9999811475848965e-01
    -4.2866273305857593e-09 9.9999871842468813e-01
    -1.2061945657505329e-09 1.0000035331019037e+00
    5.1402692826945361e-09 9.9999998748474506e-01
    -2.2175451312316580e-09 1.0000050597521251e+00
    -6.5969982661962002e-09 1.0000101482953780e+00
    -4.4536923781518084e-09 9.9999938581650616e-01
    -4.7923069922726734e-09 9.9999837496757249e-01
    -1.5123818976172689e-09 1.0000035331019037e+00
    5.1402692826945361e-09 9.9999145330550954e-01
    -6.6340219142561621e-09 9.9999580881975236e-01
    -2.5515580034923276e-09 9.9999343472255575e-01
    -1.4845393139317737e-10 9.9999811475848965e-01
    -4.2866273305857593e-09 9.9999938697599144e-01
    -1.8858400722338863e-09 1.0000035304478494e+00
    -6.6433804993524442e-09 9.9999157556782992e-01
    4.4582488385071327e-09 9.9999906244664805e-01 5.9381906742571479e-10
    1.0000059654065716e+00 -1.2618742288949123e-09
    9.9999837496757249e-01 -1.5123818976172689e-09
    1.0000030061667862e+00 -5.8593471869207024e-09
    1.0000005837888377e+00 6.8985179423599362e-09 9.9999502041643717e-01
    1.6329958347693488e-09 1.0000023062187284e+00
    -7.4343604867974607e-10 1. 0. 1. 0. 1.0000004542821930e+00
    3.0270896936409858e-09 1. 0. 1.0000042288173721e+00
    2.8392120844893618e-09 1.0000024172148541e+00 1.0020730379955358e-09
    9.9999871842468813e-01 -1.2061945657505329e-09
    1.0000042288173721e+00 2.8392120844893618e-09 1.0000081333598028e+00
    2.3196267730935749e-10 9.9999938581649794e-01
    -4.7923069922726337e-09 1. 0. 9.9999837496757249e-01
    -1.5123818976172689e-09 9.9999850977372906e-01
    5.7526190363651202e-10 1. 0. 1.0000050507096176e+00
    -5.6413149220509181e-09 1.0000125066895000e+00
    -5.6831104478841141e-10 9.9999343472255753e-01
    -1.4845393139317762e-10 9.9999612660115322e-01
    4.8989929235201329e-09 9.9999343472255753e-01
    -1.4845393139317762e-10 1.0000067815427893e+00
    -7.9447109581228853e-10 1. 0. 9.9999203925220326e-01
    -2.6721670361176310e-09 1.0000033148260603e+00
    -2.5144633060473134e-09 1.0000045798514918e+00
    -6.8753493239502851e-09 1.0000051536097097e+00
    -1.1134175333960151e-09 1.0000011897541503e+00
    4.3051973973042577e-09 1.0000093376775290e+00
    -2.3149903075052183e-09 9.9999929037478918e-01
    -2.1108416973604115e-09 9.9999830730223915e-01
    1.1505235743244074e-09 1.0000050075164424e+00 1.8111589230607183e-08
    1.0000093436305937e+00 1.9187975889459826e-08 9.9999841659152156e-01
    -2.7464114130572315e-09 1.0000039366686322e+00
    -3.0618944907085294e-09 9.9999837496757249e-01
    -1.5123818976172689e-09 1.0000045095427206e+00
    -4.7598568896150940e-09 1.0000044918737812e+00
    -6.9171018489484907e-09 1.0000030175439787e+00
    -1.2873862730557402e-09 1.0000051858928629e+00
    -5.7016258029975993e-09 9.9999929037479274e-01
    -2.1108416973604189e-09 9.9999821600009164e-01
    8.7681022457146281e-10 1.0000041762769694e+00
    -5.4464621112119978e-09 9.9999939769657220e-01
    4.0825074572129288e-10 1.0000077338617290e+00
    -7.3485746814417193e-09 1.0000024726467753e+00
    -6.4067728804714208e-09 1.0000024726467751e+00
    -6.4067728804714191e-09 1.0000007740969099e+00
    2.2732175084393960e-09 9.9999383705376210e-01
    -1.5587669067727973e-09 9.9999938581650394e-01
    -4.7923069922726626e-09 9.9999757394038147e-01
    -1.0577386393976418e-09 1.0000004561199007e+00
    -1.7443459416102107e-09 1.0000077338617290e+00
    -7.3485746814417193e-09 1.0000156438296377e+00
    1.7629295877734793e-09 1.0000105139262898e+00
    -3.7392472596599672e-09 1.0000044285580358e+00
    -3.6557182507440181e-09 1.0000050507096176e+00
    -5.6413149220509181e-09 1.0000071418147511e+00
    -2.9505623297804436e-09 1.0000089548816093e+00
    -4.7505995339818050e-09 9.9998796429111392e-01
    3.9803992607162264e-09 1.0000038237973405e+00
    -1.2247576580439616e-09 1.0000042948538963e+00
    -5.9753356312264428e-09 1.0000156438296377e+00
    1.7629295877734793e-09 9.9999589511364662e-01
    -7.1907549939991762e-09 9.9999609751665608e-01
    3.0618704881467722e-10 1.0000141921267065e+00 2.4402621500641647e-09
    9.9999438728392653e-01 -2.0412435010768096e-10
    9.9999837496757249e-01 -1.5123818976172689e-09
    1.0000067898868092e+00 9.7424193584045849e-10 9.9999611079882533e-01
    -3.1546544842338563e-10 1.0000070110115999e+00
    3.5722212213161460e-09 1.0000106794683039e+00
    -4.2774026601995217e-09 1.0000032922774478e+00
    2.6721971063201275e-09 9.9999767013357355e-01
    -6.3093188068306874e-09 1.0000050507096176e+00
    -5.6413149220509181e-09 9.9999682708923199e-01
    -1.7814532200798425e-09 9.9999042342366351e-01
    -2.7556678032669825e-09 1.0000033517568008e+00
    -8.4990718575635620e-09 1.0000041565596749e+00
    -7.5341177974518479e-09 1.0000065116468728e+00
    3.6000549136236425e-09 1.0000030061667848e+00
    -5.8593471869206950e-09 1.0000043800287310e+00
    -9.2784722673485751e-11 1.0000077338617290e+00
    -7.3485746814417193e-09 1.0000053120336558e+00
    -4.8062531139143390e-09 9.9999002769391254e-01
    -5.8175186158199235e-09 9.9999324254024435e-01
    2.4077367370555573e-09 9.9999615196922564e-01
    -3.1917681978081929e-09 9.9999850153955017e-01
    -2.4495022791858000e-09 1.0000045050067818e+00
    -1.5703816275110970e-09 1.0000122514786776e+00
    -1.9948872399426235e-09 9.9999885562684665e-01
    -6.3093262865031177e-10 9.9999850977372906e-01
    5.7526190363651202e-10 9.9999139066755405e-01 1.4056702895870249e-09
    1.0000090246921349e+00 -6.2908334158023920e-09
    9.9999830730223915e-01 1.1505235743244074e-09 1.0000051858928629e+00
    -5.7016258029975993e-09 9.9999880957959530e-01
    -5.7155070787073542e-09 1.0000033925169003e+00
    4.5186115320315477e-09 9.9999975123866480e-01 6.1608770681057869e-09
    1.0000009979184223e+00 -2.3752808669873454e-09
    9.9999757394038125e-01 -1.0577386393976415e-09
    1.0000050507096176e+00 -5.6413149220509181e-09
    1.0000045095427206e+00 -4.7598568896150940e-09
    9.9999837496757249e-01 -1.5123818976172689e-09
    1.0000008323795957e+00 -1.8371309914442695e-09
    1.0000069554275883e+00 4.3608931966150690e-10 1.0000071418147456e+00
    -2.9505623297804270e-09 9.9999951609081428e-01
    -3.9618883877693655e-09 1.0000041762769680e+00
    -5.4464621112119912e-09 9.9999739881841965e-01
    7.6825214039274665e-09 1.0000041425411672e+00 2.9691104204276645e-09
    9.9999470027386173e-01 -5.2051725569211200e-09
    9.9999837496757249e-01 -1.5123818976172689e-09
    9.9999837496757249e-01 -1.5123818976172689e-09
    9.9999549287165934e-01 -3.9804292278333391e-09
    9.9999929037476765e-01 -2.1108416973603660e-09
    1.0000156438296377e+00 1.7629295877734793e-09 1.0000044377943849e+00
    -2.6953963493654024e-09 1.0000104383869950e+00
    2.6722162020705126e-09 9.9999268712104494e-01 6.3092873673427759e-10
    1.0000077338617290e+00 -7.3485746814417193e-09
    9.9999295757588236e-01 -9.1855826220517912e-10
    9.9999342744123165e-01 5.4603211242966756e-09 9.9999018978709797e-01
    -9.3154539665784508e-09 9.9999951609084692e-01
    -3.9618883877694946e-09 1.0000046500155906e+00
    4.8433638311944666e-09 9.9999446246525714e-01
    -2.6025856595398687e-09 1.0000148167535128e+00
    -2.9413064059001235e-09 1.0000078275235231e+00
    -7.5712594718297244e-09 9.9999433037535235e-01
    -2.6860907269636143e-09 9.9999970839459640e-01
    -1.4033623744389885e-09 1.0000075835547846e+00
    -3.5258307565974915e-09 9.9999232403661287e-01
    -1.3778365203875255e-09 1.0000025005783886e+00
    -1.7072356885354619e-09 1.0000027914785883e+00
    -7.0748238651722003e-09 1.0000027914785912e+00
    -7.0748238651722202e-09 9.9999951609081184e-01
    -3.9618883877693556e-09 9.9999846642311474e-01
    3.4422928547927442e-09 9.9999148311765829e-01 2.9319594229401496e-09
    1. 0. 1.0000049964363598e+00 -3.3356128361987383e-09
    9.9999985281949588e-01 -3.2474505916815282e-09
    1.0000079644064217e+00 1.9299291491483960e-09 9.9999965075600372e-01
    -2.9319833703283170e-09 9.9999985281949721e-01
    -3.2474505916815324e-09 1.0000006056583228e+00
    5.7897448421971422e-09 9.9999985281949744e-01
    -3.2474505916815332e-09 1.0000129191392275e+00
    2.3729895453325527e-09 1.0000029059233946e+00 2.1989946858212309e-09
    1.0000092730044687e+00 -7.0980660148644005e-09
    1.0000046413187125e+00 5.7990466823186268e-09 1.0000051897827205e+00
    9.3248721794985781e-09 9.9999294953359896e-01
    -3.9525840055797159e-09 1.0000212552034615e+00
    -8.8030991143252094e-10</input_scale>
  <output_scale>
    5.2631578947368418e-01 4.9999999999999994e-01 5.2631578947368418e-01
    4.9999999999999994e-01</output_scale>
  <inv_output_scale>
    1.8999999999999999e+00 -9.4999999999999996e-01
    1.8999999999999999e+00 -9.4999999999999996e-01</inv_output_scale>
  <weights>
    <_>
      7.0168603209061715e+01 3.0877143776211033e+00
      -1.0162473333424697e+00 -7.3489201452001449e+00
      -1.1065907406123430e+00 -3.6170066096840845e+00
      3.3179727313630952e-01 1.5714284072001925e+00
      2.8913785478854424e+00 1.3457248301603051e+00
      -3.1124250934800312e+01 2.8714589203135144e+00
      2.2398069388450906e-01 4.1391783311450894e+00
      1.6974917297461425e-01 4.4319122456411630e+00
      -1.1231018014383582e+00 7.2660724110793762e+00
      -1.8168580183262995e+00 4.9200265469754116e+00
      -3.2254736640576802e+01 1.2484147398766194e+00
      -4.9375794185567307e-01 5.7432302898396903e-01
      -5.5822196791514989e-01 2.3873337197292579e+00
      3.5889670126153841e+00 -3.6795989839648944e+00
      -1.0780411970031667e+00 3.0497848215230183e+00
      1.4686618477275644e+01 2.1475369899057695e+00
      -2.5835476204788621e-01 3.6414339281026620e+00
      -1.2066034788972750e-02 7.5580639418214257e-01
      8.0432013148489578e-02 -4.5934542581796975e+00
      2.1115608725858177e+00 4.2529483874617249e+00
      -7.1712418987551851e-01 6.9506386834461364e-02
      -1.5765734863222629e-02 7.5246514219154820e-02
      -6.4290109605978094e-03 -7.7146141941585658e-02
      1.2726107587726490e-01 -7.9023025457890958e-02
      5.4338165463910966e-03 6.6420104155419574e-02
      1.2236126207725961e-03 2.6340311076220626e-04
      9.2839392328749552e-04 1.1273987238945304e-03
      9.6015590369737298e-04 7.7532301577462915e-05
      5.7638844554589407e-04 -9.9315356161795753e-04
      1.1323118916055643e-03 1.5589217599374364e-04
      -4.4134713031073893e+00 7.1971681215676875e-02
      -6.5890977786714017e-02 -6.4484339631945012e-02
      -7.0273072316155871e-02 8.4008923353113829e-02
      -5.5000440277642712e-02 -9.2077887714232712e-02
      2.0311439131510435e-02 -7.4694725887626170e-02
      -1.4821703617645798e+00 -6.4093677661788626e-02
      9.9644539666525131e-04 5.5251733626623022e-02
      1.0192994204240231e-03 7.9281963956374074e-02
      -4.6877535681867970e-02 -2.7872451592854900e-02
      -3.7862133340714289e-02 -3.3148916433373428e-02
      -8.6676239644716235e-01 2.8424717208033533e-02
      2.4500629184972880e-02 -2.2510600625785464e-02
      3.0257679341119514e-02 -1.3423331593300980e-01
      1.2239621316487238e-01 -4.2866862399682883e-02
      -2.0255833642132712e-02 -1.3568945381705114e-01
      -1.3114678710071106e+00 -1.6927325872554383e-01
      1.0850047132981123e-01 1.2157674686309135e-02
      1.1002244977910908e-01 2.2641796319846691e-05
      -6.9856079023822631e-03 4.5941429969182532e-02
      -1.4074664100994089e-01 -1.4300387416697163e-01
      5.1076041813284911e-01 2.0016300495762118e-01
      -9.5011916548525324e-02 1.5964845141854775e-01
      -1.0567473416484099e-01 5.7903956933713113e-02
      5.1610457685471656e-01 -4.0404361874044954e-02
      1.3305856051738897e-02 8.1469573388856742e-01
      -4.9948578885744883e+00 -1.1398142185254537e-01
      8.5843187209816582e-02 8.8356397613279403e-02
      8.6544293793393248e-02 -1.2036044425375331e-01
      -2.0984434800304947e-02 4.7339368720643142e-02
      -1.1379855422351157e-01 -1.0706129556263345e-01
      -2.3158470380461225e+00 -9.0113752629279883e-02
      6.0583834292419071e-02 1.5826527561448001e-01
      6.0743295861700457e-02 2.5636641581328729e-01
      -9.1730588001102065e-02 1.6709146650053794e-01
      -8.1287522753531086e-02 -7.2573821740034281e-02
      9.7667940864253069e-05 1.0860159412336716e-03
      6.7883820489832852e-04 1.5906981698715129e-04
      -4.8030595207392191e-04 -8.1740609644861181e-04
      -4.0134215041008386e-04 -1.1942214735321045e-03
      -6.4358444301324609e-04 5.8633066338281899e-05
      -4.9941044231044049e+00 -1.1451666344655881e-01
      8.5859454840285968e-02 8.9025080199612527e-02
      8.5319697942579584e-02 -1.1855157606725081e-01
      -2.0788261178690790e-02 4.5603947067673116e-02
      -1.1590304379206354e-01 -1.0679668047750175e-01
      -8.6584411648593818e-01 2.7995839687956280e-02
      2.6018098129199876e-02 -2.3619714692349691e-02
      2.9981510522881560e-02 -1.3400215673642890e-01
      1.2235297434018237e-01 -4.2349004560856808e-02
      -2.1498907210965462e-02 -1.3581373995897741e-01
      -1.9258950661229488e-01 -4.1162775205953829e-02
      1.8936509687600769e-02 -1.5074432022381691e-02
      1.7485229443812974e-02 1.1365707804131328e-02
      3.0608578611166063e-02 1.2420160878971938e-02
      -2.6235749422255570e-02 1.3260535972248128e-02
      -1.7669305159155666e+00 1.3099823135018699e-02
      1.1136161433161177e-02 2.1902202084398883e-01
      2.4513682847949230e-02 -3.6182665610386501e-02
      2.7929390297097213e-02 -9.5570366934962611e-02
      -4.8262380517199076e-02 -1.3044188885118368e-01
      -6.6242865283296426e-01 1.0763260370517790e-01
      -7.5473294645247990e-02 -1.0847905239724986e-01
      -8.0027067873339339e-02 -2.1744886734930577e-01
      1.8050601193160135e-01 2.8110044514369913e-03
      6.2870788630788418e-02 1.6075398615530681e-01
      -1.7711279523224008e-01 6.2987858409396413e-02
      1.3014681837665189e-02 1.9674467496101571e-02
      7.4570668464436799e-03 -2.1591467790964339e-01
      1.6512364776587285e-01 -1.4532008372657914e-02
      -3.5569362825739193e-02 4.9414889863325435e-02
      3.1682982237567930e-01 -6.7257990387008498e-02
      6.0639147402949393e-02 6.2398438103307419e-03
      6.0499204055623354e-02 5.2214309895144868e-02
      1.6823064871378964e-02 3.5226152945823409e-02
      -8.1124021039407732e-02 -4.9139040364677214e-02
      -2.6413200595747854e+00 -1.5212881726802835e-01
      9.5173617301324426e-02 9.2715873319735645e-02
      9.6421133678180240e-02 1.0365483880282020e-01
      -3.2100303236754779e-02 3.6501221536631406e-02
      -1.2521880030360769e-01 -1.2891912707702569e-01
      -2.7436284458203377e+00 3.4344491109923943e-02
      -2.6464130034902739e-02 2.5776306369433422e-01
      -3.0093663366964115e-02 -5.2259710660786468e-02
      1.3218485280771883e-01 -8.6100935093582302e-03
      5.9773615025130750e-03 -1.5521376404052817e-01
      -3.1825794973410342e+00 4.4464605626502098e-02
      -5.5364073119597089e-02 9.7696001112004008e-02
      -6.0965195279896543e-02 8.4094326323619503e-02
      1.6336426771944829e-01 -5.8442312610941793e-03
      1.5670837704193811e-02 1.2475790067904469e-02
      -1.1456754439724282e+00 -6.3211912416269805e-02
      -1.1384424971009829e-01 2.0755520163648910e-02
      -1.1419499982548328e-01 8.6008809640932174e-02
      5.1019663337204257e-02 -3.7637376434774758e-02
      9.1360189786785062e-02 1.0183860393341476e-01
      -6.3042616635313731e-01 -1.2102803982241003e-01
      -6.3797037323561276e-02 2.1567423346974240e-02
      -8.4171196091298625e-02 -1.7591653619631283e-02
      4.8933166410009062e-02 -9.4550186146563867e-02
      2.7208217141695006e-02 1.2905077158229686e-03
      1.0880916843190780e-03 -7.9893805243899652e-04
      -1.1246831257503162e-03 -6.1409028244264379e-04
      8.6745391073920618e-04 -3.9240533808632079e-04
      8.8536111119354925e-04 3.0562959385458597e-04
      -7.2592688417601420e-04 -2.7870414239442390e-04
      1.4518589248054499e+00 4.8731551434174854e-02
      8.1714150377531061e-02 9.6097875498586990e-02
      9.4894745077596598e-02 -7.5903790142016592e-02
      9.8117037182341868e-02 -4.8065318065495598e-02
      -1.1670422987706564e-01 -7.0348523105352126e-02
      -5.1855646924170207e-01 3.1272273995830175e-03
      2.4448341266746072e-02 -1.4521330111214152e-03
      1.9234177528232064e-02 -5.3555578947316232e-02
      5.8308623255349995e-02 -7.2563344392951338e-03
      -4.7075034361012520e-02 -4.6893622631678372e-02
      5.5089710338976094e-01 1.4071193741663607e-01
      -3.8779749488942437e-02 -3.6445840425118982e-02
      -4.1689584906388952e-02 -1.7868167857450579e-01
      1.3256331406436425e-01 -9.2554071620874881e-02
      2.8709321270323607e-02 3.7820140900971508e-02
      -1.7051978501166618e+00 4.7725573472084254e-02
      1.4602057648753582e-02 1.7636040063466282e-01
      1.5749755480536216e-02 -7.6662932222833366e-02
      -9.3166715152607368e-02 -4.6879886292770942e-02
      -1.8270014456757321e-02 -6.3512136381251626e-03
      -5.3536824667234422e+00 1.4074872677890673e-02
      -5.4647160947135370e-03 9.0936284429516692e-02
      -1.1684057126467400e-02 7.9901734039608804e-02
      -1.0921244013075662e-02 3.0256484840430798e-02
      -2.6281030428675412e-02 2.0469655128582682e-02
      -5.8630883621286511e-01 -3.7040840473812224e-02
      -9.7469161479730414e-03 5.5163297372106380e-02
      -1.3495369075726071e-02 2.3587923210620899e-02
      6.4787398730578802e-02 -2.2015024636200919e-02
      -1.4434156425327803e-02 -1.1066666013709222e-02
      9.5771078103305460e-04 7.1886233199114065e-04
      6.8368142343753113e-04 -5.6321055983890101e-04
      1.3067146628238167e-04 1.2364034378421818e-03
      -9.4410048342854472e-05 9.7429285146779685e-04
      -6.6782448827763742e-04 -9.1630289465662257e-04
      1.1601941666849538e+00 8.7183305624640939e-02
      -1.7118921036836959e-02 -4.2519381420873970e-02
      -1.4622020927484587e-02 -1.2277487025371638e-01
      -9.8359249836212317e-02 8.3643902487891275e-02
      7.4879230770810885e-03 -2.4822771651294029e-01
      -1.7632653322347196e+00 5.3694932250685108e-04
      1.7636284755282932e-02 2.0817932862009739e-01
      2.9851851816433603e-02 -4.1212279070984736e-02
      3.0805486703087252e-02 -9.1140953216904158e-02
      -5.5848128443634050e-02 -1.3437039111955962e-01
      -5.4059686103261717e-01 -1.0516326815752576e-01
      7.8291084620776177e-02 -4.4412710212224579e-02
      7.8433943756975322e-02 3.9414587385673210e-02
      -1.3537560604159362e-02 4.4251516007496980e-02
      -1.0571126938833661e-01 -9.7380826221219033e-02
      -9.8113991763373254e-01 1.7527708287004510e-02
      1.8074248659613441e-02 1.0422529808652642e-01
      2.4470050455559288e-02 -1.2395380576038893e-01
      7.6615104204850612e-02 1.7719028347106598e-02
      -2.9190363479763868e-02 -7.7950885945774068e-03
      -3.3167834188239389e-04 8.6954122762855841e-04
      4.6157935416377724e-04 -3.3529723715703503e-04
      9.5888427999125643e-04 -1.1108280814548994e-03
      1.0954577700025433e-03 6.9161254803928450e-04
      -1.1852362365783440e-03 -7.5180608393163087e-05
      -1.3730406510475648e+00 -5.5463599338563735e-02
      7.1914780808868844e-02 3.0797559533467439e-01
      8.9750231789766433e-02 -6.9953913654277073e-03
      -1.6325371572850231e-01 1.2909854870597356e-01
      -8.0488803367299522e-02 -6.0844234978767384e-02
      -1.8308619674538047e+00 3.0310894501815237e-02
      -1.6547292987195584e-02 9.3733082308357391e-02
      -1.9177104231072419e-02 -1.8786066713769603e-01
      -3.5404339397608002e-02 -4.9187235316025042e-02
      -5.1086129826809379e-02 9.2644919042772861e-02
      -7.7396809834070257e-01 1.0652248493380815e-03
      6.4090520792263017e-02 1.5371193946590016e-02
      8.1322134588204156e-02 -1.0242197580915832e-01
      7.1786380408824138e-02 -3.4098786008882519e-02
      -5.0039060511783834e-02 -1.0311004441220080e-01
      -2.8758629728521172e+00 -2.1798627085378882e-02
      -8.8591970418524096e-03 7.2000052673654835e-02
      -3.5815038346060377e-03 1.2263536558021902e-01
      -8.2207016351321122e-03 1.6273892358960759e-02
      -4.2967200042143265e-02 -1.3488105416597763e-02
      -1.0184677916380311e-03 -1.2759095124168128e-04
      1.7953416469779316e-04 -7.6316158001873003e-04
      -1.1791403585159081e-03 4.2550733678700832e-04
      -1.1626541304629271e-03 -3.0434881992300511e-04
      1.0533129270168301e-03 6.8276743691936303e-04
      -1.8618275251799503e+00 2.0071667476718853e-02
      -3.0023706441644139e-02 1.1417498536445106e-01
      -3.4174664005665385e-02 -5.7897849087173409e-02
      4.8746526940140110e-02 9.8462428527360271e-02
      9.6280445222774215e-03 2.9057936715479862e-02
      -5.6548214476460402e-04 1.0145292711350746e-03
      -1.3196758368548420e-04 -4.9349484619585777e-04
      -9.5223426696057901e-04 -5.5466386663209275e-04
      1.9466163617455908e-04 -3.9121181200017709e-04
      9.5740985473064812e-04 6.0355419728600021e-04
      -1.8595499561856601e+00 2.0486336017653095e-02
      -2.8618575774382021e-02 1.1597531556373009e-01
      -3.3332624438833412e-02 -5.8774921540386840e-02
      4.7471598075556391e-02 1.0036834479089278e-01
      7.8384559231936407e-03 2.9003791814120661e-02
      1.0322043038041298e-01 -4.2630048776530614e-02
      8.8940127837936880e-02 2.9269498760123669e-01
      9.5525209947384560e-02 -2.9605082770478509e-02
      3.3359231030220086e-02 -1.8057463958874809e-02
      -1.3702289809707022e-01 -9.8549380482551741e-02
      7.2431430093900184e-01 3.4879927651886279e-02
      2.7430784075562663e-02 7.0824736050364059e-02
      3.3942766452753494e-02 -9.0880277652015215e-02
      4.5738103414973433e-02 2.3155643929860630e-02
      -4.3929404017222479e-02 -6.4063374623825664e-02
      -2.4998868274959096e+00 -1.5465808761337421e-01
      9.1292015931095719e-02 -1.4086088599421901e-02
      9.3086984276563672e-02 7.1717425747616331e-02
      -2.1639377176840530e-02 6.3595060447926635e-02
      -1.2421219588157553e-01 -1.1664836192398448e-01
      -1.6105560076107153e+00 -1.3287709091461469e-01
      -2.4920233281137127e-02 2.6820878130270304e-02
      -3.2398419269182133e-02 8.4025604335744103e-02
      -3.3827946235080067e-03 -2.5764400890126441e-02
      -2.6647582715540186e-02 -8.9760591068342430e-02
      -7.0392947219150026e-04 -8.1774200823562170e-04
      -1.0151713065087613e-03 9.6102521262500875e-04
      -5.3225310209531604e-04 -6.7568156745771734e-04
      -1.0465286753952817e-03 7.8311299466064614e-04
      7.0837546839610053e-06 2.9125141721162036e-04
      1.1277606009993874e-01 1.1307211697121924e-01
      -6.4546869365953122e-02 4.3750589059117401e-01
      -7.6328248200136825e-02 1.6258202407891498e-01
      -4.8058341102173135e-02 1.4205444413422546e-03
      4.8532554069586030e-02 3.6369861243321450e-02
      -1.1634696212940502e-03 1.1377016160331562e-03
      1.1005314921503006e-03 8.2130272380096295e-04
      -9.6611752279745567e-04 3.1198302503709647e-04
      4.5291129522976415e-04 1.1059327605693462e-03
      -5.1025717852198312e-05 -8.2567148941353665e-04
      -1.2675027254697233e+00 -4.5586882678789582e-02
      -2.4181806524509873e-02 7.3044050284347947e-02
      -2.3380443662205520e-02 -4.3028031662852705e-02
      1.2858708864833904e-02 2.4908128111810060e-04
      -7.0798371644564878e-03 1.8137922972268457e-02
      -5.4964877699974679e-01 -3.8696038505417110e-03
      8.0312185312358746e-05 -4.6502650597557732e-02
      -2.5595106752637916e-03 -4.5252599246235550e-02
      4.3767621000581680e-02 -1.8761262407280559e-03
      -2.6348003948885007e-02 -2.7143364562001792e-02
      -8.8074758567495234e-02 -5.3986595744200103e-02
      1.3639014495424912e-01 4.5656717502823400e-02
      1.4901926401857984e-01 -6.8858438500858474e-02
      1.0462484318639521e-01 -4.4305638143961067e-02
      -1.6260885956719909e-01 7.1003064288183938e-03
      -1.2160925574709551e+00 -3.1691993001285751e-02
      -2.3582055115708794e-02 6.5237440461223775e-02
      -2.7048508221647005e-02 1.6561715697428536e-02
      1.9295426712048029e-02 -2.8948701967533748e-03
      -9.5404423249291076e-03 1.2999448005309330e-02
      -1.8521919300203629e+00 -9.3249868885538129e-02
      6.8288307620534922e-02 4.5477110342428871e-02
      7.1572753941778255e-02 3.3819481292953334e-02
      -1.8081737760212956e-02 3.6774114262247165e-02
      -9.3673833483183186e-02 -8.6069692940248285e-02
      -1.4683710163161698e+00 -1.0514435602960477e-01
      7.8280739947782327e-02 4.8275512315828689e-02
      7.7874339995578093e-02 4.0716295217025550e-02
      3.4909071246962770e-02 1.8303701426179191e-02
      -1.0399661768462382e-01 -9.6540321445976671e-02
      3.1389910933292748e+00 1.6270754125788969e-01
      -1.8688617639515039e-02 -5.1739419391328145e-02
      -8.7795599523051802e-03 -2.3319218458261817e-01
      2.0573642738741046e-01 -7.4531617115765295e-02
      2.9500763189534349e-02 9.3015536222454898e-02
      -9.3038828124091173e-04 -1.2824752244943629e-03
      -5.9323448870040739e-04 -6.5458655619027425e-04
      4.4470136695479731e-04 -8.1224602906140896e-04
      2.5164411514917847e-04 -5.7893900044858799e-04
      -3.6612720066822032e-04 4.0369010959866023e-04
      -6.4610758827685555e-04 9.5509402394336950e-04
      1.2385068061249802e-03 -2.4265989102048357e-04
      7.1281650629938589e-04 3.3741097761687451e-04
      6.1236836535097887e-05 -2.5597101299460688e-05
      6.5317953653321915e-04 7.1745755588551775e-04
      -1.1556168949460790e+00 -8.6794519799539577e-03
      3.5990579022483538e-02 -1.1403186134956212e-02
      3.5439731442960240e-02 -1.2272090012389446e-02
      5.0087023699420155e-02 3.1804268077916041e-03
      -8.7481061429142082e-02 -2.1072214170269304e-02
      -4.7294018725253748e+00 -1.9694290427628702e-01
      -7.6103954618736688e-02 -2.1878953123859132e-01
      -9.6473861086636387e-02 2.8397831987705863e-02
      5.2243198875415911e-02 -6.4613061829551288e-02
      -2.9068738073779958e-02 -2.8562524038158961e-02
      -2.3731862337817775e+00 -1.5743688466515690e-01
      1.0047716863102481e-01 9.2378241730131011e-02
      1.0185328634577751e-01 1.1006410379872245e-01
      -3.3907567916567807e-02 4.1404069835341589e-02
      -1.3123682199311279e-01 -1.3448360690107736e-01
      -1.1242601884053105e+00 -9.6739537386588345e-02
      8.2391631282902715e-03 -5.3713702175910295e-02
      7.7778070284854495e-03 -1.7668307130617053e-02
      2.6298971167724505e-02 4.9978680006340939e-02
      -1.9987477688982600e-02 -1.1836042233793930e-02
      -1.3557213935387979e+00 -1.0825047768712766e-01
      -5.1009188894274742e-02 9.1362960808399604e-02
      -3.7775480083231276e-02 -2.8685116550549078e-01
      -6.8843844650095650e-03 2.2325808781965897e-02
      2.4616460997268955e-02 1.9450708533521505e-01
      -1.0672304697639074e-03 5.9039961973349165e-04
      6.5395435438293662e-04 -1.0535887554438737e-03
      -1.2487661153819979e-03 -6.1671871570846009e-04
      -1.2459137180857989e-03 -1.0566978019005309e-03
      3.8733993392550690e-05 4.3746059468486264e-04
      -4.9939596497818801e+00 -1.1524374667635437e-01
      8.3505622193435977e-02 8.8875395779419247e-02
      8.6173340067684359e-02 -1.2105598417409150e-01
      -2.2204196987955543e-02 4.7230751061332170e-02
      -1.1512007278180397e-01 -1.0675636032267123e-01
      -1.1615771064636740e+00 -1.4285900094908099e-01
      1.0009609000727543e-01 9.5990553757664035e-02
      1.0136865162990899e-01 6.0902937827486670e-04
      -4.2419450167229485e-02 5.7327294040742112e-02
      -1.3428699039477210e-01 -7.0884571592337839e-02
      2.7572693237554202e-01 3.5292488933260674e-02
      8.6078170061275994e-02 8.5424768746572385e-02
      9.3989506766308781e-02 -7.1191450059793882e-02
      9.7043407467384116e-02 -4.8602343222887583e-02
      -1.2451754810572366e-01 -1.1224068541087796e-01
      -1.8297430337782310e+00 3.1215362864561187e-02
      -1.6280994538079307e-02 9.4988736179662303e-02
      -1.8906177112567105e-02 -1.8817956681166118e-01
      -3.4313602780073456e-02 -4.9151125987512166e-02
      -5.0171328125198832e-02 9.2494455635412115e-02
      9.0768267250287160e-01 1.4451422465802581e-02
      9.1716792162143762e-02 1.2581159242005535e-01
      1.1213614564716654e-01 -5.9418641659700643e-02
      5.1203524808920209e-02 -1.2070849291893537e-01
      -1.1678455626860999e-01 -9.9093011959186614e-02
      -1.2916522901557517e+00 -1.0261404578292420e-01
      -5.6946750521577411e-02 8.8895405635447816e-02
      -4.6290744549036762e-02 -2.9709399168800782e-01
      -4.7777701751613557e-03 1.9634930190056781e-02
      3.1105635094830015e-02 2.0793802696890193e-01
      3.6631101800556700e+00 6.6849162184155042e-01
      -8.1306923832128106e-02 -9.6104941680223999e-01
      -8.3350518035896326e-02 -5.2309060816937503e-01
      1.6352735657576950e-01 -3.4512939103520601e-01
      9.4961273687893644e-02 2.4703169292352800e-01
      -1.7526971707959627e-01 -2.0768582793932004e-02
      7.3972801832093435e-03 1.0957186351586725e-03
      3.1013520700165277e-03 -8.9552622065844044e-03
      2.1023351948817191e-02 -1.4733245961340583e-02
      -1.6824543616461466e-02 7.3281367495189823e-03
      1.7298832164496416e-05 -8.6215362828495515e-04
      2.7433739133572363e-04 2.3711099366646658e-04
      1.1053571130376144e-03 -1.3446259290424329e-04
      -1.0730799431307278e-03 1.3070269807531662e-05
      1.0572512713255529e-03 -4.2697308554891998e-04
      6.4906834433319774e-04 8.8634940364149917e-04
      2.9585907376043042e-04 7.2967574332594772e-04
      2.3806889347291690e-06 -1.0833325151330703e-03
      -9.3015747224748074e-04 1.2027564281623626e-04
      8.4282436282898804e-04 1.6552118294526968e-04
      -9.8733365679663245e-04 -9.6838754269144834e-04
      -1.0233662088159413e-03 -3.9462903523805051e-04
      -2.8241442236805794e-04 -4.8324773640849706e-05
      -5.5281846654927182e-04 -4.8846024350658829e-04
      1.2644403448247720e-03 -1.2357867427442750e-04
      -1.6111608900937033e+00 -1.3286893085205259e-01
      -2.4688122860816362e-02 2.7911966014208017e-02
      -3.2287174919707534e-02 8.6094240162479435e-02
      -1.7274343982449226e-03 -2.4143916320201141e-02
      -2.6735821914922207e-02 -8.9004481435992364e-02
      -5.1034845035289027e-04 -2.7607318681452625e-04
      8.8968396706126294e-04 -9.5552668413484399e-04
      7.5501266224028041e-04 -1.0325301101781561e-03
      -7.0640731030384885e-04 -7.3969777767242796e-04
      -3.4379459041640080e-04 9.8602621048256441e-04
      1.6558476490335266e-04 -7.6986962792597615e-04
      3.8666576796108758e-04 2.1845688249860797e-04
      1.0577939760953660e-03 1.0700714246133826e-03
      1.3231630602620836e-04 4.6075209105241651e-04
      7.0396275160787233e-04 -5.3701072737421412e-04
      -2.4880523204643552e+00 -6.5371578295669003e-02
      2.6460969920107703e-02 6.0682595713341739e-02
      2.2653917573008279e-02 2.3351264922476836e-01
      -1.2647665141323476e-02 7.1877272134197520e-02
      -5.9707717192019873e-02 -2.6297401472782748e-02
      6.8722804903279933e-01 5.0009477374991845e-03
      7.5986754333251347e-02 1.0987744694451020e-01
      8.6330919286288957e-02 -3.9952916684169573e-02
      6.3896110532914024e-02 -2.7204870223761533e-02
      -1.1872188164148946e-01 -9.2658035099286135e-02
      -1.2826104784356036e+00 -8.9839665573030088e-03
      -6.5342880075299786e-02 1.1361389410212278e-01
      -6.0994579504777657e-02 -1.4583620695383825e-02
      9.1509520984876191e-02 9.9144025610829029e-04
      5.0159271010851526e-02 5.1761108001763416e-02
      -2.2361743482102971e+00 -1.5056204090890740e-01
      9.2499257173230709e-02 9.2502103242393802e-02
      9.3215119194885288e-02 1.1507007091437214e-01
      -3.2183890704485435e-02 3.5350118918055007e-02
      -1.1979408563316835e-01 -1.2677550845592248e-01
      -1.8610944336941178e+00 2.1259412322127226e-02
      -2.8643514781882932e-02 1.1591720378489515e-01
      -3.2983963807611032e-02 -6.0143446615895955e-02
      4.8956597705123998e-02 1.0024441419360459e-01
      9.7377698911547857e-03 2.6677009304729639e-02
      -1.7582103798453632e+00 -8.2322878276921668e-02
      -3.8638712953543916e-02 -1.4464053608099339e-01
      -5.2531799350777307e-02 6.1689433510194291e-02
      -5.4523946528482747e-02 -1.0411961873152175e-02
      1.2715464901096431e-03 2.3816134068023687e-02
      1.9219533544165515e+00 5.5203126616026908e-02
      -3.5491960268225792e-02 1.2603846160000065e-01
      5.4798935115825675e-02 -8.8838102797440283e-02
      -2.1231603807086688e-03 -1.0645567442060497e-01
      -1.7940495968517091e-03 -4.7638495632930732e-02
      5.4908395542044763e-01 1.4059493674256712e-01
      -3.7905853380726544e-02 -3.6529539074465565e-02
      -4.2202042845420062e-02 -1.7960420525928544e-01
      1.3141015565135847e-01 -9.1389239374700657e-02
      2.8817672818492110e-02 3.7845510131607349e-02
      -8.1098350965306505e+00 -3.5624320151425465e-01
      2.4412418423623422e-01 -1.0923888713392173e-02
      2.5825178954184380e-01 2.6170425777890827e-01
      -2.1417694563917605e-01 6.9675370937186301e-02
      -2.7206977821570988e-01 -2.9465441600357717e-01
      -2.4279566897629680e-04 3.5344870152545110e-05
      -5.4432071730394888e-05 -7.3735614498801746e-04
      2.5517358813262575e-04 -9.8413445608041628e-04
      -9.6324082139784349e-04 9.0903986506194921e-04
      1.2317775031582749e-03 -2.6627924614168160e-04
      -1.7941000946435259e+00 -2.1576019340403943e-02
      3.7318097738169909e-02 9.4565622010719455e-02
      4.2417599695547197e-02 -1.5854593882367207e-01
      3.4884065865358117e-02 -4.0491649918363126e-02
      -1.2774248915216560e-01 -3.2196792877170574e-02
      -1.3111492087317751e+00 7.2442719770392364e-02
      -4.9515376120070731e-02 -3.1853735901290697e-01
      -5.2709399976589591e-02 9.3891619022458128e-03
      1.3194868618220434e-01 -2.7557398520118825e-01
      2.3690552480384448e-02 8.4367778091148163e-02
      -9.3042776699120811e-01 -9.2145268899999577e-02
      8.9931771465289564e-02 1.2986154935435393e-01
      4.6099690692777154e-02 1.6136158277559504e-01
      1.4016146132741110e-02 1.0639794728521228e-01
      -1.6868883160887027e-01 -1.0795540386359556e-01
      -2.6123910115645366e-01 -1.1347271720693634e-01
      8.0938032455565828e-02 5.3861819655286886e-02
      8.3744937006534778e-02 -5.5835990481908647e-02
      -1.8825844258226847e-02 4.4416612501241355e-02
      -1.1117242258239815e-01 -9.8278336211084893e-02
      -1.7956010186783329e+00 -2.1766108976989849e-02
      3.7738971090967618e-02 9.6053030043087531e-02
      4.2372408151496309e-02 -1.5859863690431769e-01
      3.4635306316358840e-02 -4.0445727011269417e-02
      -1.2601335712265690e-01 -3.1283818429817110e-02
      -2.8345184905389215e-01 4.1876422595004591e-02
      -1.4743626874206503e-02 1.5130633268630603e-01
      -4.1816783508954155e-03 -1.4727125318165646e-01
      6.5209486907842118e-02 -9.7985164422870016e-02
      -1.3222004050990997e-02 -3.7362527313470978e-02
      1.4501674758376810e+00 4.8330252144398143e-02
      8.1468770851264652e-02 9.7662613992745909e-02
      9.4778084199676343e-02 -7.6864453407297473e-02
      9.7163101186268433e-02 -4.7746481285069052e-02
      -1.1693474573654677e-01 -7.0555729701007333e-02
      -5.9544931263054024e-01 -8.4758476760323637e-02
      3.1366101141563359e-02 1.0771602497019551e-01
      2.5365464141728734e-02 -6.9859883361740135e-02
      4.3326531606869660e-02 -8.0068891656956798e-02
      -3.4694792143978526e-02 -1.9461074336201645e-02
      2.4560851774028022e-01 -7.2361639143114721e-04
      2.1188223050441955e-02 3.6386703743802706e-02
      1.3409461666354049e-02 -2.1918757052586474e-02
      -3.0347307828318633e-02 9.6234294817250654e-03
      -1.7639981396126006e-02 -4.7394796808719096e-03
      -2.6390758352782466e+00 -1.6134072488148710e-01
      1.0348813269598714e-01 9.4274377193482861e-02
      1.0364620263585499e-01 1.0846572486598574e-01
      -3.3594180362501523e-02 4.5060866682708825e-02
      -1.3647183122485657e-01 -1.3868595723490024e-01
      1.7036689912158556e-01 7.0219426944408569e-01
      -1.0087456385605117e-01 -1.1977503368683762e+00
      -1.0411628469442616e-01 -4.3113519057222260e-01
      4.1329358619285037e-02 -2.3102024721953462e-01
      9.5218114481007796e-02 3.3885168907351015e-01
      -2.7422433670678328e+00 -3.9461816090977636e-01
      3.1261626829555544e-01 1.1206218234501474e-01
      3.2118462946268528e-01 4.6519665976838459e-01
      -3.8662547601990599e-01 3.1751177766130517e-01
      -3.2526135909906068e-01 -3.2437437177922096e-01
      -8.9789294621290969e-02 -5.5106225608074863e-02
      1.3452082338722077e-01 4.4383787348942723e-02
      1.5037912883191745e-01 -6.9478016657804550e-02
      1.0439858860476996e-01 -4.5956180513926380e-02
      -1.6132577760251407e-01 8.5385224659461547e-03
      2.1031361411204901e+02 -2.0510585030651909e-01
      1.2144286671411682e-01 -1.5886602531368457e-01
      1.2714441632099260e-01 -2.1165021608037285e-01
      -6.9316224738250165e-02 1.8310465789178279e-01
      -1.3295968642819350e-01 -1.0940684646647229e-01
      2.7728873756457784e-01 3.5476120631472541e-02
      8.4374285260724824e-02 8.6618302076447787e-02
      9.6129094717700106e-02 -7.0702050095062544e-02
      9.8277158039656851e-02 -5.0405031317210337e-02
      -1.2609514463324914e-01 -1.1438944565647534e-01
      2.1494718105233437e-01 3.3604932121616561e-02
      4.2765958341560134e-02 8.2685986789571578e-02
      5.6503071470793816e-02 -1.0113644835597559e-01
      6.2362071001741320e-02 -2.7145180936815033e-02
      -6.4073839815521311e-02 -5.3072199304852095e-02
      8.3500540801158618e-01 4.6799764995072358e-02
      -1.2985909707690089e-02 -1.3418695369556080e-02
      -9.9206094761074351e-03 -1.2927153028368865e-01
      8.1266419294977077e-02 -4.1116454202348725e-02
      -7.3885053150826312e-05 6.5763888538832530e-03
      1.2850634779927406e+00 3.5943717943135479e-02
      7.2441759763663613e-02 2.3947012726741750e-02
      8.2595360363578632e-02 -5.0874434314136331e-02
      1.1248092858105464e-01 -1.3970458076434916e-01
      -9.8970782466457824e-02 -7.8195334476161185e-02
      -4.4069144381525430e-04 -7.4951281656807588e-04
      -4.9862626568332458e-04 -1.2962861022252666e-04
      4.9775930342122225e-04 -3.8131003188325872e-04
      1.2558187150285116e-03 1.1898992325460067e-03
      5.8602432786047530e-04 -9.4132323985544181e-04
      -3.7775337023141895e+00 -1.8962176551182101e-02
      3.1309860153379467e-03 1.2452129362382468e-01
      -5.6272286963114995e-04 9.3823438288610700e-02
      6.9513812835557118e-02 -1.1535870594680170e-01
      -5.6864086035561409e-02 6.0452889032664332e-02
      -4.0522304222870167e+00 -2.5281458546240781e-01
      1.5205750401651422e-01 9.8880797821881306e-02
      1.5387518790552346e-01 1.3759783760284597e-01
      -8.5016253195376909e-02 7.9859425576666962e-02
      -1.9465212578424865e-01 -1.9804716561531915e-01
      2.4454020270860907e-01 -2.7535312299204746e-03
