<?xml version="1.0"?>
<opencv_storage>
<my_nn type_id="opencv-ml-ann-mlp">
  <layer_sizes type_id="opencv-matrix">
    <rows>1</rows>
    <cols>3</cols>
    <dt>i</dt>
    <data>
      1558 90 2</data></layer_sizes>
  <activation_function>SIGMOID_SYM</activation_function>
  <f_param1>5.9999999999999998e-01</f_param1>
  <f_param2>1.</f_param2>
  <min_val>-9.4999999999999996e-01</min_val>
  <max_val>9.4999999999999996e-01</max_val>
  <min_val1>-9.7999999999999998e-01</min_val1>
  <max_val1>9.7999999999999998e-01</max_val1>
  <training_params>
    <train_method>BACKPROP</train_method>
    <dw_scale>1.0000000000000001e-01</dw_scale>
    <moment_scale>1.0000000000000001e-01</moment_scale>
    <term_criteria><epsilon>9.9999999747524271e-07</epsilon>
      <iterations>1000</iterations></term_criteria></training_params>
  <input_scale>
    1.0000003661429446e+00 1.3553046551990987e-08 1.0000003402367930e+00
    4.0128247413013480e-08 1.0000019377386833e+00 4.4795774104376922e-07
    1.0000069255275239e+00 4.8967664443524250e-08 9.9999829462767997e-01
    -1.8552136896856930e-09 1. 0. 1.0000081286078080e+00
    -1.5116704646196296e-09 1.0000080083148322e+00
    7.4877820395085571e-09 1.0000265625236300e+00 6.8230708426126737e-09
    1.0000060542799256e+00 -1.3735001922452902e-08
    9.9999124621355706e-01 -6.6111253088313484e-10
    1.0000152869805865e+00 -4.3307626020819355e-09
    9.9999582774926699e-01 2.6147491804129430e-09 1. 0.
    1.0000152869805865e+00 -4.3307626020819355e-09
    1.0000265625236300e+00 6.8230708426126737e-09 1.0000000281226220e+00
    2.5887611276661127e-09 1.0000130297420728e+00
    -5.2741586739858248e-09 1.0000035758400960e+00
    -1.7976539898704855e-09 1.0000196258782290e+00
    1.1216946659898456e-09 9.9999483486141283e-01
    -3.8626938176411713e-09 1.0000214559453964e+00
    4.0113657490868543e-10 9.9999816374980488e-01 2.6221835705635041e-09
    9.9999739925922904e-01 -4.2786872010564099e-09
    9.9999564504345817e-01 -6.1208890085489059e-09
    9.9998591001102433e-01 -4.8208959883281711e-09
    9.9998267449010325e-01 -1.5673432392753414e-09
    9.9999582652623131e-01 -2.1616250300271717e-09
    1.0000154496717810e+00 -1.2999718330418843e-10
    9.9999737824072366e-01 -1.0771000540157328e-10
    1.0000023566888048e+00 -4.0855722687866803e-11
    1.0000324135270948e+00 8.0971047708939860e-10 1.0000024696033312e+00
    -8.0968623196647196e-10 1. 0. 1.0000078019559426e+00
    7.3986402503701799e-09 9.9999770162185231e-01 2.5516137117277162e-09
    9.9999490255146872e-01 -6.5220103874177834e-09
    1.0000104870481770e+00 5.2778594503948373e-09 1. 0.
    1.0000026266721616e+00 2.7596191047842755e-09 1.0000073001861485e+00
    7.0606466158179657e-09 9.9999824087074274e-01 1.4002312781041115e-09
    9.9999437696669435e-01 -1.1231519957643280e-08
    9.9999947771577402e-01 -1.3965188640612007e-09
    1.0000058555132885e+00 2.1115054193847163e-09 1. 0.
    1.0000058555132885e+00 2.1115054193847163e-09 9.9999051870436650e-01
    -4.0446686649201250e-09 9.9999224486704397e-01
    1.9072001327844162e-09 9.9999500076462544e-01
    -4.1895378357336091e-09 1.0000065773660003e+00
    2.0205097226086316e-09 9.9999937685844631e-01 1.2813802114577882e-09
    9.9998527791448011e-01 -3.7586622929936080e-09 1. 0.
    1.0000131077511836e+00 -1.2925403955800610e-09
    1.0000134180401512e+00 -1.1402586912850560e-09
    1.0000054598233350e+00 6.0392373850520571e-09 1.0000211676572421e+00
    1.6342596488706231e-10 1.0000354153704085e+00 1.0474267887750302e-09
    9.9999510509683254e-01 -7.0865594189519587e-09
    9.9999414093410921e-01 2.3677553845808852e-10 1. 0. 1. 0.
    1.0000138158880707e+00 -8.6540840641154540e-10
    9.9999847535503639e-01 1.4500011118116127e-08 9.9999516078802630e-01
    -5.6751904587004328e-09 9.9999659008260089e-01
    -6.2843167414120308e-09 9.9999371679350857e-01
    -1.1959480948408580e-09 1. 0. 1.0000152869805865e+00
    -4.3307626020819355e-09 1.0000170824118388e+00
    1.9313898767802654e-10 9.9999866965612705e-01
    -2.8227486144905690e-10 1.0000073001861485e+00
    7.0606466158179657e-09 9.9999764345400632e-01 3.6769977113136054e-09
    9.9999490898678411e-01 6.0614584400701370e-09 9.9999598244477661e-01
    -4.5906683053154408e-09 9.9999823015606193e-01
    2.9156009059265977e-10 1. 0. 1. 0. 1.0000029746552543e+00
    1.0696777641235166e-09 1.0000065773660003e+00 2.0205097226086316e-09
    1. 0. 1. 0. 9.9999675091704388e-01 -7.8293982396763167e-09
    1.0000123502087723e+00 -1.7085291136833752e-10
    9.9999659975976529e-01 -4.2489706984321721e-09
    1.0000354153704072e+00 1.0474267887750288e-09 1.0000058555132885e+00
    2.1115054193847163e-09 1.0000055378153008e+00 6.7597865301549174e-10
    1.0000027680763937e+00 5.8089433246136353e-09 9.9999737824072366e-01
    -1.0771000540157328e-10 9.9999731661522639e-01
    1.2590927441707940e-09 1. 0. 9.9999131044561362e-01
    -3.7995402389614095e-09 1.0000116909302268e+00
    5.2630090391414952e-09 1.0000372565005655e+00 3.6400005064279010e-09
    9.9999723949436381e-01 2.4810439181167182e-09 9.9999131044561362e-01
    -3.7995402389614095e-09 9.9999781798524767e-01
    -3.3297262863876283e-09 9.9999582652623131e-01
    -2.1616250300271717e-09 1.0000081982436542e+00
    3.2684769078599478e-10 1.0000147800386365e+00
    -5.3484519602102684e-10 1.0000215387489975e+00
    1.3742643056083751e-10 9.9999577989903843e-01
    -4.0261192840070253e-09 9.9998152964357157e-01
    -4.8283030292412686e-10 1.0000054598233350e+00
    6.0392373850520571e-09 1.0000157884243039e+00
    -2.4365194610083008e-09 9.9999866965612705e-01
    -2.8227486144905690e-10 9.9999962926605734e-01
    1.5302283489098563e-09 1.0000005023120193e+00 1.4782315887822158e-09
    1.0000175987044226e+00 1.8942487417346266e-10 1. 0.
    9.9999815903841716e-01 5.3483630649029409e-09 9.9996973582056914e-01
    -6.8189690848415602e-09 1.0000147800386365e+00
    -5.3484519602102684e-10 1. 0. 1. 0. 9.9999582652623131e-01
    -2.1616250300271717e-09 9.9999379790178067e-01
    2.5887449991130356e-09 9.9999866965612705e-01
    -2.8227486144905690e-10 1.0000069554000159e+00
    -9.4488578629875555e-09 1. 0. 1.0000027680763937e+00
    5.8089433246136353e-09 1.0000075543625222e+00 2.1096519185366169e-09
    1.0000265625236300e+00 6.8230708426126737e-09 1. 0.
    9.9999771227877210e-01 1.2925204965708913e-09 9.9999414093410921e-01
    2.3677553845808852e-10 1.0000097839948936e+00 6.0912620783254248e-10
    1.0000029746552543e+00 1.0696777641235166e-09 1.0000041548024861e+00
    3.7513049193124434e-09 1.0000211676572421e+00 1.6342596488706231e-10
    9.9999820346277712e-01 -1.1662403312397979e-09
    1.0000078019559426e+00 7.3986402503701799e-09 1.0000214559453964e+00
    4.0113657490868543e-10 9.9999770162185231e-01 2.5516137117277162e-09
    9.9999924791390582e-01 1.0938157206230203e-09 9.9999414093410921e-01
    2.3677553845808852e-10 1.0000097839948936e+00 6.0912620783254248e-10
    1.0000059915253487e+00 5.4449733787798857e-09 1.0000012279842749e+00
    2.2284914494874298e-10 9.9999770162185009e-01 2.5516137117277109e-09
    9.9999771227877210e-01 1.2925204965708913e-09 1.0000027680763937e+00
    5.8089433246136353e-09 9.9999739925922904e-01
    -4.2786872010564099e-09 1.0000029478802464e+00
    6.8934787397791467e-09 1. 0. 1.0000004300706500e+00
    8.2825532785023459e-10 9.9999564504345817e-01
    -6.1208890085489059e-09 9.9999760228918400e-01
    -1.6936473609468007e-09 9.9998591001102433e-01
    -4.8208959883281711e-09 9.9999815903841716e-01
    5.3483630649029409e-09 1.0000106994329754e+00 6.1469804683567392e-09
    9.9999764345400632e-01 3.6769977113136054e-09 9.9999659008260089e-01
    -6.2843167414120308e-09 1.0000376668191420e+00
    -1.4708579509929650e-09 9.9999679106912187e-01
    -1.1996659074744756e-09 1.0000101152013749e+00
    -4.4570225091008532e-10 1.0000170824118388e+00
    1.9313898767802654e-10 1.0000054578541133e+00 2.8970511384160084e-09
    9.9999224486704397e-01 1.9072001327844162e-09 1. 0. 1. 0.
    9.9999723949436381e-01 2.4810439181167182e-09 1. 0.
    9.9999550957883143e-01 1.7790688336915453e-09 9.9999694397480521e-01
    1.8682106616970038e-09 1.0000014003917059e+00
    -2.7447591085015548e-09 1.0000116909302268e+00
    5.2630090391414952e-09 9.9999824087074274e-01 1.4002312781041115e-09
    1. 0. 1.0000066667017020e+00 3.0456215451306991e-10
    1.0000054212320797e+00 4.4570015881856664e-10 9.9999494336470407e-01
    -3.4467117804920468e-09 1.0000062521137969e+00
    -2.3287852647600131e-09 9.9997357007102616e-01
    1.8588818699617263e-09 9.9999766997958695e-01
    -4.3529711434042902e-09 9.9999787871144152e-01
    -1.3370903914024345e-09 9.9998527791448011e-01
    -3.7586622929936080e-09 1. 0. 9.9999463231605878e-01
    -3.2981455916505784e-09 9.9999483486141283e-01
    -3.8626938176411713e-09 1.0000058555132885e+00
    2.1115054193847163e-09 9.9999149993971514e-01 2.7224472364773305e-09
    1. 0. 1. 0. 9.9997873322783348e-01 5.6082439891111091e-09
    9.9999001261010367e-01 -4.9798797073491834e-08
    9.9999881756948283e-01 -5.0809482576240205e-09
    1.0000376668191420e+00 -1.4708579509929650e-09
    1.0000014003917059e+00 -2.7447591085015548e-09
    9.9999557735331002e-01 -3.4615704913932273e-09
    9.9999508048302332e-01 -2.8346236978095533e-08
    1.0000374688967253e+00 4.5091444421824184e-09 1.0000019298220648e+00
    3.4467358609187021e-09 9.9999262101439723e-01 7.4653821009898868e-10
    9.9999737824072366e-01 -1.0771000540157328e-10
    9.9999766997958695e-01 -4.3529711434042902e-09
    1.0000012279842749e+00 2.2284914494874298e-10 9.9999773505557299e-01
    9.7459018972741258e-09 1.0000035758400960e+00
    -1.7976539898704855e-09 1.0000074802470882e+00
    3.8107442042195622e-09 9.9998627204074109e-01
    -4.2637832035763531e-09 1. 0. 1.0000045118774803e+00
    -1.9090806109161259e-09 1.0000082916766269e+00
    6.1766790972951284e-09 9.9999947771577402e-01
    -1.3965188640612007e-09 1. 0. 1.0000097839948929e+00
    6.0912620783254207e-10 1.0000106994329754e+00 6.1469804683567392e-09
    9.9999582652623131e-01 -2.1616250300271717e-09
    9.9999577989903843e-01 -4.0261192840070253e-09
    1.0000051958358276e+00 -1.8570835764998578e-10
    9.9999544457340617e-01 -1.0689268831992876e-08
    1.0000196258782290e+00 1.1216946659898456e-09 1.0000094955533767e+00
    6.1618298007026828e-09 1.0000211676572421e+00 1.6342596488706231e-10
    9.9999943986023498e-01 4.5424002821588512e-09 9.9999815903841716e-01
    5.3483630649029409e-09 1. 0. 1.0000101152013749e+00
    -4.4570225091008532e-10 9.9999414093410921e-01
    2.3677553845808852e-10 9.9999564504345817e-01
    -6.1208890085489059e-09 1.0000104870481770e+00
    5.2778594503948373e-09 9.9999723949436359e-01 2.4810439181167178e-09
    1.0000211676572421e+00 1.6342596488706231e-10 9.9998752145378123e-01
    -9.6938049351793492e-09 9.9999694397480521e-01
    1.8682106616970038e-09 9.9998754582205518e-01 3.4318298767727656e-09
    9.9999820346277712e-01 -1.1662403312397979e-09
    9.9999943986023498e-01 4.5424002821588512e-09 1.0000052525003407e+00
    -1.3118439127741057e-08 9.9999414093410921e-01
    2.3677553845808852e-10 9.9999815903841716e-01 5.3483630649029409e-09
    1.0000059061218585e+00 -1.4240126979104445e-08
    1.0000086610530086e+00 -8.0746273707165389e-09
    1.0000035758400960e+00 -1.7976539898704855e-09
    9.9999791327654564e-01 -2.2916244444751306e-09
    9.9999820346277712e-01 -1.1662403312397979e-09
    9.9999822010759865e-01 -7.2054340135805347e-10
    9.9999557735331002e-01 -3.4615704913932273e-09
    9.9999676358196343e-01 1.0221301816164538e-08 1. 0.
    1.0000157668797449e+00 -1.5599666944763184e-09 1. 0.
    9.9999653242918563e-01 -8.0968142473018138e-09
    9.9999150085256761e-01 1.4522194685325441e-09 1.0000066667017020e+00
    3.0456215451306991e-10 9.9999483486141283e-01
    -3.8626938176411713e-09 1. 0. 9.9999143841171823e-01
    -2.6593070960190091e-09 1.0000317942348105e+00
    1.1997078997137559e-09 9.9999259060651491e-01 1.8570601676571517e-10
    1.0000064174773668e+00 2.7819145960774067e-09 9.9999824087074274e-01
    1.4002312781041115e-09 1. 0. 1.0000004300706500e+00
    8.2825532785023459e-10 1.0000045118774803e+00
    -1.9090806109161259e-09 9.9999781798524767e-01
    -3.3297262863876283e-09 9.9999044724207364e-01
    -1.8793408615181820e-09 9.9999766997958695e-01
    -4.3529711434042902e-09 1. 0. 9.9999793238685664e-01
    6.2880393170813780e-09 9.9999582652623131e-01
    -2.1616250300271717e-09 1.0000050111776850e+00
    -7.3986196025669268e-09 9.9999527197639249e-01
    1.9313477530456111e-10 1. 0. 1.0000376668191420e+00
    -1.4708579509929650e-09 1.0000376668191420e+00
    -1.4708579509929650e-09 1.0000372565005655e+00
    3.6400005064279010e-09 9.9999516078802630e-01
    -5.6751904587004328e-09 1.0000094955533767e+00
    6.1618298007026828e-09 1.0000078669090815e+00 4.4384416031440514e-09
    9.9999781779949259e-01 3.8627053398771643e-10 9.9999508048302332e-01
    -2.8346236978095533e-08 9.9999437696669435e-01
    -1.1231519957643280e-08 9.9999044724207364e-01
    -1.8793408615181820e-09 1. 0. 9.9999716237351277e-01
    3.7029949035862934e-09 1. 0. 1. 0. 9.9999847163599132e-01
    5.1366586326266812e-09 9.9999379790178067e-01 2.5887449991130356e-09
    1. 0. 9.9999886656204773e-01 6.5740342518997183e-10
    9.9999675978359515e-01 -5.7346257064728136e-09
    9.9999847163600508e-01 5.1366586326267516e-09 1.0000170824118388e+00
    1.9313898767802654e-10 9.9999694397480521e-01 1.8682106616970038e-09
    1. 0. 9.9998913353226404e-01 -9.3224098130257713e-10
    9.9999611730043958e-01 -2.4958976676325299e-09
    1.0000066630362605e+00 4.4532929502764687e-09 9.9999510509683254e-01
    -7.0865594189519587e-09 9.9999598244477239e-01
    -4.5906683053154218e-09 9.9999582774926832e-01
    2.6147491804129463e-09 1.0000116909302268e+00 5.2630090391414952e-09
    1.0000076474968362e+00 9.3225824096662927e-10 9.9999846146664539e-01
    -3.4912936121234517e-10 9.9999815903841716e-01
    5.3483630649029409e-09 1.0000087164444920e+00 7.9149180681286371e-09
    9.9999199886881018e-01 -6.2991443612220090e-09
    9.9999760228918400e-01 -1.6936473609468007e-09
    9.9999815903841716e-01 5.3483630649029409e-09 1.0000152869805865e+00
    -4.3307626020819355e-09 9.9999490119758039e-01
    -2.1170534827989571e-09 9.9999766997958695e-01
    -4.3529711434042902e-09 9.9999149993971514e-01
    2.7224472364773305e-09 1. 0. 9.9999881756948283e-01
    -5.0809482576240205e-09 9.9999500076462544e-01
    -4.1895378357336091e-09 1.0000073001861485e+00
    7.0606466158179657e-09 9.9999723949436359e-01 2.4810439181167178e-09
    9.9999947771577402e-01 -1.3965188640612007e-09 1. 0.
    9.9999564504345817e-01 -6.1208890085489059e-09
    9.9999224486704397e-01 1.9072001327844162e-09 1.0000057868765049e+00
    -1.6936612227847538e-09 9.9999800856786714e-01
    -1.2535224047180452e-09 1.0000054598233350e+00
    6.0392373850520571e-09 1.0000012279842749e+00 2.2284914494874298e-10
    9.9999723949436337e-01 2.4810439181167170e-09 9.9999544457340617e-01
    -1.0689268831992876e-08 9.9999544457340617e-01
    -1.0689268831992876e-08 1.0000052467837639e+00
    3.5990281546188197e-09 9.9999414093410921e-01 2.3677553845808852e-10
    9.9999824087074274e-01 1.4002312781041115e-09 1.0000019298220648e+00
    3.4467358609187021e-09 1.0000012279842749e+00 2.2284914494874298e-10
    1.0000170824118388e+00 1.9313898767802654e-10 1.0000258979902217e+00
    -1.5674109865097854e-09 1.0000081286078080e+00
    -1.5116704646196296e-09 1.0000104870481770e+00
    5.2778594503948373e-09 1.0000104870481770e+00 5.2778594503948373e-09
    9.9999793238685664e-01 6.2880393170813780e-09 1. 0.
    1.0000054212320797e+00 4.4570015881856664e-10 9.9999672493839542e-01
    -4.1895450592609656e-09 9.9999262101439723e-01
    7.4653821009898868e-10 9.9999824087074274e-01 1.4002312781041115e-09
    9.9999585290292514e-01 1.4715392774687381e-08 9.9999516078802630e-01
    -5.6751904587004328e-09 1.0000000281226220e+00
    2.5887611276661127e-09 1.0000133256325658e+00
    -4.6724602641196743e-09 9.9999399923543675e-01
    -2.1059091965856122e-09 1. 0. 1.0000031070544035e+00
    3.5655930191584034e-09 9.9999676358196343e-01 1.0221301816164538e-08
    9.9999695273966338e-01 1.0399582303380983e-09 9.9999962926605734e-01
    1.5302283489098563e-09 9.9999500076462544e-01
    -4.1895378357336091e-09 9.9999126866785892e-01
    1.2835982910316078e-08 1.0000080083148322e+00 7.4877820395085571e-09
    1. 0. 1.0000124758500268e+00 1.8942390379449073e-10
    9.9999490255146872e-01 -6.5220103874177834e-09
    1.0000154579737941e+00 -3.8999155315023023e-09
    9.9999671179130301e-01 -5.4709218006718093e-09
    1.0000066630362605e+00 4.4532929502764687e-09 1.0000054212320797e+00
    4.4570015881856664e-10 1.0000197617258242e+00 2.8599503647089773e-09
    1.0000054598233350e+00 6.0392373850520571e-09 1.0000096637533487e+00
    -3.2201973090876958e-09 1.0000028868175048e+00
    1.3890953077846353e-09 1.0000080083148322e+00 7.4877820395085571e-09
    1.0000116199516740e+00 7.4432387902840756e-09 1.0000042167749219e+00
    -8.5277194341658401e-09 9.9999500076462544e-01
    -4.1895378357336091e-09 1. 0. 1.0000361235389614e+00
    1.4745699631556010e-09 9.9999039246493793e-01 2.2033970455000212e-09
    1.0000054598233350e+00 6.0392373850520571e-09 9.9999149993971514e-01
    2.7224472364773305e-09 9.9999937685844631e-01 1.2813802114577882e-09
    9.9999544249777816e-01 -5.5563398677795419e-09
    9.9999564504345817e-01 -6.1208890085489059e-09
    9.9999582652623131e-01 -2.1616250300271717e-09
    1.0000035416457831e+00 -7.9483045594596835e-09
    1.0000135915986315e+00 3.2684945357716294e-09 1.0000007507863053e+00
    -4.7541128235885661e-10 9.9999503740678763e-01
    -4.4272422723260067e-09 9.9999652488160506e-01
    -1.3965147403704276e-09 1. 0. 9.9999824087074274e-01
    1.4002312781041115e-09 9.9999653242918563e-01
    -8.0968142473018138e-09 1.0000055378153008e+00
    6.7597865301549174e-10 9.9997658895282304e-01 3.8180546080851535e-09
    1. 0. 1. 0. 1.0000215387489975e+00 1.3742643056083751e-10 1. 0.
    1.0000101980030052e+00 -7.0940947477154778e-10
    9.9999091834680698e-01 -8.2453333559337823e-10
    1.0000087910187518e+00 -3.6213259933896456e-09
    9.9999781779949259e-01 3.8627053398771643e-10 9.9999544249778660e-01
    -5.5563398677795891e-09 9.9999611730043958e-01
    -2.4958976676325299e-09 9.9999675978359137e-01
    -5.7346257064727921e-09 9.9996468623732937e-01
    -5.4447484739337408e-09 1.0000037112254749e+00
    -1.8422241729129302e-09 9.9999564504345817e-01
    -6.1208890085489059e-09 9.9999414093410921e-01
    2.3677553845808852e-10 1.0000123502087723e+00
    -1.7085291136833752e-10 1.0000045118774818e+00
    -1.9090806109161288e-09 1.0000116909302268e+00
    5.2630090391414952e-09 1.0000220355703746e+00
    -1.4448353526245640e-09 1.0000002687526472e+00
    -8.0225615226620676e-10 1.0000028013230731e+00
    1.1736740099783963e-09 9.9999582652623131e-01
    -2.1616250300271717e-09 9.9999770162185231e-01
    2.5516137117277162e-09 9.9999414093410921e-01 2.3677553845808852e-10
    9.9999262101439723e-01 7.4653821009898868e-10 1.0000012279842749e+00
    2.2284914494874298e-10 1. 0. 1. 0. 1.0000016401419431e+00
    6.3140617092657336e-11 1.0000265625236300e+00 6.8230708426126737e-09
    9.9999111824749587e-01 -1.8013457103762775e-09
    9.9999503740675300e-01 -4.4272422723258537e-09
    9.9999824087074274e-01 1.4002312781041115e-09 1.0000016846544408e+00
    -1.0488771212154989e-08 1. 0. 9.9999544249778660e-01
    -5.5563398677795891e-09 1.0000025825178962e+00
    -1.5785169148689738e-09 9.9999949237666652e-01
    -2.0204954074129544e-09 1.0000197617258242e+00
    2.8599503647089773e-09 9.9997357007102616e-01 1.8588818699617263e-09
    1.0000376668191420e+00 -1.4708579509929650e-09
    9.9998050843999042e-01 2.1708771065812526e-09 1.0000013318962204e+00
    1.0577907179403117e-08 1.0000376668191420e+00
    -1.4708579509929650e-09 1.0000124758500268e+00
    1.8942390379449073e-10 1.0000376668191420e+00
    -1.4708579509929650e-09 1.0000177050826859e+00
    3.2090805626619754e-09 1.0000054598233350e+00 6.0392373850520571e-09
    9.9999508077626920e-01 -4.9323640877816839e-09
    9.9999414093410921e-01 2.3677553845808852e-10 9.9999766997958695e-01
    -4.3529711434042902e-09 1. 0. 1.0000147800386365e+00
    -5.3484519602102684e-10 1.0000376668191420e+00
    -1.4708579509929650e-09 9.9998601904787987e-01
    -2.9007089194352128e-09 1.0000027680763937e+00
    5.8089433246136353e-09 9.9999881756948283e-01
    -5.0809482576240205e-09 9.9999544249778660e-01
    -5.5563398677795891e-09 9.9999611730043980e-01
    -2.4958976676325307e-09 9.9999659008260089e-01
    -6.2843167414120308e-09 1. 0. 1.0000005023120193e+00
    1.4782315887822158e-09 9.9999787871144152e-01
    -1.3370903914024345e-09 9.9999800950783102e-01
    5.0660875900520632e-09 9.9999846146664539e-01
    -3.4912936121234517e-10 9.9999201450881436e-01
    -1.2368013591355542e-09 9.9999544249777816e-01
    -5.5563398677795419e-09 1. 0. 9.9999847535503639e-01
    1.4500011118116127e-08 9.9999803929433007e-01
    -4.5312514985066864e-10 1.0000087462318787e+00
    -3.1719100101000366e-09 1.0000027680763937e+00
    5.8089433246136353e-09 9.9999559957014905e-01 1.0213861655387861e-09
    1. 0. 9.9999748568169600e-01 3.5674300449515690e-09 1. 0.
    1.0000072584754038e+00 1.5079549744629177e-09 9.9999695273965250e-01
    1.0399582303380869e-09 9.9999046736995301e-01
    -3.5284068268347929e-09 1. 0. 1. 0. 1.0000265625236300e+00
    6.8230708426126737e-09 1. 0. 9.9999716237351277e-01
    3.7029949035862934e-09 9.9999739925922904e-01
    -4.2786872010564099e-09 9.9999463231605235e-01
    -3.2981455916505573e-09 9.9999807507274896e-01
    -5.4820716812188158e-09 9.9999671371012389e-01
    -1.3519453762835850e-09 9.9999534363575082e-01
    -1.2590902599999859e-09 1.0000032638169003e+00
    5.3669611670478750e-09 9.9999723949436359e-01 2.4810439181167178e-09
    1.0000285432173164e+00 -3.9315377199412458e-09
    9.9999557735331002e-01 -3.4615704913932273e-09
    9.9999659008260089e-01 -6.2843167414120308e-09
    9.9999770162185542e-01 2.5516137117277245e-09 9.9999490255146872e-01
    -6.5220103874177834e-09 1.0000026711323606e+00
    1.5190905303339997e-09 9.9999962926605734e-01 1.5302283489098563e-09
    9.9999713003077861e-01 -5.3186444638231032e-09 1. 0. 1. 0.
    1.0000054578541133e+00 2.8970511384160084e-09 9.9999355110278421e-01
    -2.3881816694614741e-09 9.9999534363575082e-01
    -1.2590902599999859e-09 9.9999414093410921e-01
    2.3677553845808852e-10 9.9999962926605734e-01 1.5302283489098563e-09
    9.9999582652623131e-01 -2.1616250300271717e-09 1. 0.
    1.0000123502087717e+00 -1.7085291136833742e-10
    9.9998514488926527e-01 -1.7530517453468288e-09
    9.9999695273966338e-01 1.0399582303380983e-09 1. 0.
    9.9999667977167117e-01 -4.9917981430172319e-09
    9.9999951731220860e-01 1.0251043131460577e-09 9.9999582652623131e-01
    -2.1616250300271717e-09 9.9999675978359137e-01
    -5.7346257064727921e-09 9.9999937685844631e-01
    1.2813802114577882e-09 1. 0. 9.9999695273965250e-01
    1.0399582303380869e-09 1.0000045542260148e+00
    -3.3427482929694056e-10 9.9999695273965250e-01
    1.0399582303380869e-09 9.9999743644872607e-01
    -5.0140867502098222e-11 9.9999863184173288e-01
    3.0567395024712713e-09 9.9999414093410921e-01 2.3677553845808852e-10
    9.9999723949436203e-01 2.4810439181167137e-09 1.0000147800386365e+00
    -5.3484519602102684e-10 1.0000065773660003e+00
    2.0205097226086316e-09 9.9999544457340617e-01
    -1.0689268831992876e-08 1. 0. 9.9999534363575082e-01
    -1.2590902599999859e-09 9.9998527791448011e-01
    -3.7586622929936080e-09 9.9999463231605235e-01
    -3.2981455916505573e-09 9.9999544249778660e-01
    -5.5563398677795891e-09 1.0000053043916928e+00
    1.3994983351732397e-08 1.0000054598233350e+00 6.0392373850520571e-09
    9.9999881756948283e-01 -5.0809482576240205e-09
    9.9999736417148644e-01 -1.2813776324389389e-09
    1.0000265625236300e+00 6.8230708426126737e-09 9.9999543882686825e-01
    -1.7233567441079802e-09 9.9999822010759865e-01
    -7.2054340135805347e-10 9.9999748568169600e-01
    3.5674300449515690e-09 1.0000376668191420e+00
    -1.4708579509929650e-09 9.9998754652462807e-01
    -3.9518041033026799e-09 1.0000054598233350e+00
    6.0392373850520571e-09 9.9999912092211585e-01
    -9.9910489467556403e-10 1. 0. 9.9999463231605235e-01
    -3.2981455916505573e-09 9.9998514488926527e-01
    -1.7530517453468288e-09 9.9998514488926527e-01
    -1.7530517453468288e-09 9.9999675978359137e-01
    -5.7346257064727921e-09 1.0000116909302268e+00
    5.2630090391414952e-09 9.9999262101439723e-01 7.4653821009898868e-10
    1.0000029746552543e+00 1.0696777641235166e-09 1.0000054212320797e+00
    4.4570015881856664e-10 9.9999259060651491e-01 1.8570601676571517e-10
    9.9999449746088664e-01 -5.3929130104327049e-09 1. 0.
    1.0000005023120193e+00 1.4782315887822158e-09 9.9998036092441323e-01
    -8.6129397220104156e-09 9.9999577989903843e-01
    -4.0261192840070253e-09 9.9999414093410921e-01
    2.3677553845808852e-10 1.0000024809212100e+00
    -8.2008588092471528e-09 9.9999994286983329e-01
    2.5033355111847445e-09 9.9999262101439723e-01 7.4653821009898868e-10
    1.0000048692673120e+00 3.9741575558812818e-09 1. 0.
    9.9999764345400632e-01 3.6769977113136054e-09 9.9999717458223236e-01
    2.5553265042839827e-09 9.9999816374980488e-01 2.6221835705635041e-09
    1.0000054212320797e+00 4.4570015881856664e-10 1.0000054578541133e+00
    2.8970511384160084e-09 9.9999625783036739e-01
    -2.0353454078473977e-09 9.9999544457340617e-01
    -1.0689268831992876e-08 9.9999863184173288e-01
    3.0567395024712713e-09 9.9999675978359137e-01
    -5.7346257064727921e-09 9.9999994286983329e-01
    2.5033355111847445e-09 9.9998548693901279e-01 5.6602791816941626e-09
    9.9999266876229309e-01 -6.1282990322340916e-09
    9.9999912092211585e-01 -9.9910489467556403e-10
    9.9998476288097626e-01 4.5460477046687655e-09 9.9999916726461202e-01
    7.3075798192249013e-10 1. 0. 1. 0. 9.9999762721694596e-01
    -1.6899332641237100e-09 1.0000065773660003e+00
    2.0205097226086316e-09 9.9999510509683254e-01
    -7.0865594189519587e-09 1.0000040090840496e+00
    -8.6762841728529471e-09 1. 0. 9.9999943986023054e-01
    4.5424002821588305e-09 9.9999723949436359e-01 2.4810439181167178e-09
    1. 0. 1. 0. 9.9999437696669435e-01 -1.1231519957643280e-08
    9.9999762721695040e-01 -1.6899332641237175e-09 1. 0.
    1.0000229430318994e+00 3.7736607978092955e-09 9.9999355110278421e-01
    -2.3881816694614741e-09 9.9999414595383829e-01
    1.2628028781154376e-10 9.9999787871144152e-01
    -1.3370903914024345e-09 9.9999723949436359e-01
    2.4810439181167178e-09 1.0000123502087717e+00
    -1.7085291136833742e-10 9.9999695273966338e-01
    1.0399582303380983e-09 9.9999773505557299e-01 9.7459018972741258e-09
    1. 0. 9.9999437696669435e-01 -1.1231519957643280e-08
    9.9998527791448011e-01 -3.7586622929936080e-09
    1.0000058555132885e+00 2.1115054193847163e-09 1.0000072584754038e+00
    1.5079549744629177e-09 1. 0. 9.9999748568169600e-01
    3.5674300449515690e-09 9.9999659008260089e-01
    -6.2843167414120308e-09 9.9999962926605734e-01
    1.5302283489098563e-09 9.9999695273966338e-01 1.0399582303380983e-09
    9.9999820346277712e-01 -1.1662403312397979e-09
    9.9998243348187865e-01 -1.7307624963772567e-09
    1.0000009660205267e+00 1.5406300184901517e-08 9.9999659008260089e-01
    -6.2843167414120308e-09 9.9999764345400632e-01
    3.6769977113136054e-09 9.9999224486704397e-01 1.9072001327844162e-09
    1. 0. 1.0000072584754038e+00 1.5079549744629177e-09
    9.9999391306399033e-01 -7.9185150268532296e-09
    9.9999604029696043e-01 -6.4477351448840310e-09
    9.9999943986023054e-01 4.5424002821588305e-09 9.9999736417148644e-01
    -1.2813776324389389e-09 9.9998548693901279e-01
    5.6602791816941626e-09 9.9999881756948283e-01
    -5.0809482576240205e-09 9.9998514488926527e-01
    -1.7530517453468288e-09 9.9999224486704397e-01
    1.9072001327844162e-09 9.9999713003077861e-01
    -5.3186444638231032e-09 9.9999951731220860e-01
    1.0251043131460577e-09 1.0000081286078080e+00
    -1.5116704646196296e-09 9.9999943986023498e-01
    4.5424002821588512e-09 9.9999544249777816e-01
    -5.5563398677795419e-09 1.0000131077511836e+00
    -1.2925403955800610e-09 1.0000230292147156e+00
    -4.6093636355078224e-09 9.9999824087074274e-01
    1.4002312781041115e-09 1.0000037033112530e+00
    -3.3427454485884918e-10 1.0000379646716302e+00
    4.0671463031245073e-09 9.9999762721694840e-01
    -1.6899332641237142e-09 9.9997892529867582e-01
    2.6889863761665268e-09 9.9999777874279505e-01 1.3296619785253951e-09
    1. 0. 1.0000054598233350e+00 6.0392373850520571e-09 1. 0. 1. 0.
    1.0000072584754038e+00 1.5079549744629177e-09 9.9998514488926527e-01
    -1.7530517453468288e-09 9.9999355110278421e-01
    -2.3881816694614741e-09 1.0000157203312470e+00
    -1.1885459976101765e-09 9.9999618499066112e-01
    -5.1552175553191960e-09 9.9997946978535235e-01
    2.3472932528713419e-09 1.0000154496717810e+00
    -1.2999718330418843e-10 9.9999867278487886e-01
    -1.2813793092712895e-09 9.9999414093410921e-01
    2.3677553845808852e-10 9.9999634987413277e-01 2.7150321716845354e-09
    9.9998932572959887e-01 -2.9304313769631016e-09
    9.9999675978359137e-01 -5.7346257064727921e-09
    9.9999951731220860e-01 1.0251043131460577e-09 1.0000010655576392e+00
    2.8487544402149909e-09 1.0000037033112530e+00
    -3.3427454485884918e-10 1.0000078019559426e+00
    7.3986402503701799e-09 1.0000031154996678e+00 4.9026904427471924e-10
    9.9999371679350857e-01 -1.1959480948408580e-09
    1.0000054598233350e+00 6.0392373850520571e-09 1.0000039379018746e+00
    3.4541711071877315e-10 1. 0. 9.9999816374980488e-01
    2.6221835705635041e-09 1.0000091504848549e+00
    -1.0752556430131906e-08 1.0000175062476773e+00
    -2.2062424481595512e-09 9.9999625783036739e-01
    -2.0353454078473977e-09 1.0000101980030052e+00
    -7.0940947477154778e-10 1.0000054578541133e+00
    2.8970511384160084e-09 9.9998514488926527e-01
    -1.7530517453468288e-09 1.0000163984373365e+00
    -1.5302540095806486e-09 9.9999414093410921e-01
    2.3677553845808852e-10 9.9999731661522639e-01 1.2590927441707940e-09
    1.0000285455829356e+00 5.0550995271588888e-09 1.0000147800386365e+00
    -5.3484519602102684e-10 9.9999510509683254e-01
    -7.0865594189519587e-09 1. 0. 9.9999659008260089e-01
    -6.2843167414120308e-09 9.9999943986023054e-01
    4.5424002821588305e-09 9.9998116813215165e-01
    -7.2795927046890738e-10 1.0000147800386365e+00
    -5.3484519602102684e-10 9.9999891983753708e-01
    1.4782292495196229e-09 1.0000123502087717e+00
    -1.7085291136833742e-10 9.9999947771577402e-01
    -1.3965188640612007e-09 9.9999962926605734e-01
    1.5302283489098563e-09 1.0000021912576884e+00 5.9537920576642815e-09
    1.0000147800386365e+00 -5.3484519602102684e-10
    9.9999713003077861e-01 -5.3186444638231032e-09
    1.0000045542260148e+00 -3.3427482929694056e-10
    9.9999262101439723e-01 7.4653821009898868e-10 9.9999863184173288e-01
    3.0567395024712713e-09 1.0000078502498042e+00 2.7113492186765557e-09
    9.9999463231605235e-01 -3.2981455916505573e-09
    9.9999355110278421e-01 -2.3881816694614741e-09
    9.9999784829955285e-01 7.1348626771373184e-09 9.9999994286983329e-01
    2.5033355111847445e-09 9.9999611730043958e-01
    -2.4958976676325299e-09 9.9999723949436359e-01
    2.4810439181167178e-09 9.9998627204074109e-01
    -4.2637832035763531e-09 1.0000035758400960e+00
    -1.7976539898704855e-09 1.0000133283999224e+00
    1.0436894577512022e-09 1. 0. 9.9999787871144152e-01
    -1.3370903914024345e-09 1.0000341745391101e+00
    5.1776990491585606e-09 1.0000080083148322e+00 7.4877820395085571e-09
    9.9998476288097626e-01 4.5460477046687655e-09 9.9999414595383829e-01
    1.2628028781154376e-10 9.9999544249778660e-01
    -5.5563398677795891e-09 9.9999544457340617e-01
    -1.0689268831992876e-08 9.9999470991254746e-01
    8.2007950804604117e-09 9.9999743398312813e-01 7.8442601409874156e-09
    9.9999695273965250e-01 1.0399582303380869e-09 1.0000376668191420e+00
    -1.4708579509929650e-09 9.9999483486141283e-01
    -3.8626938176411713e-09 1. 0. 1.0000081286078080e+00
    -1.5116704646196296e-09 9.9999577989903843e-01
    -4.0261192840070253e-09 1.0000058555132885e+00
    2.1115054193847163e-09 9.9999449746088664e-01
    -5.3929130104327049e-09 9.9999414093410921e-01
    2.3677553845808852e-10 9.9999449746088664e-01
    -5.3929130104327049e-09 1.0000005023120193e+00
    1.4782315887822158e-09 9.9999695273966338e-01 1.0399582303380983e-09
    9.9999947771577402e-01 -1.3965188640612007e-09
    9.9999262101439723e-01 7.4653821009898868e-10 1.0000175987044226e+00
    1.8942487417346266e-10 9.9998754652462807e-01
    -3.9518041033026799e-09 1. 0. 9.9999557735331002e-01
    -3.4615704913932273e-09 9.9999723949436359e-01
    2.4810439181167178e-09 9.9999885664353017e-01 6.4291825859711818e-09
    1.0000072584754038e+00 1.5079549744629177e-09 9.9999723949436203e-01
    2.4810439181167137e-09 9.9999770162185231e-01 2.5516137117277162e-09
    9.9999470991254746e-01 8.2007950804604117e-09 9.9999414093410921e-01
    2.3677553845808852e-10 1.0000154496717810e+00
    -1.2999718330418843e-10 9.9999770162185542e-01
    2.5516137117277245e-09 9.9999463231605235e-01
    -3.2981455916505573e-09 9.9998514488926527e-01
    -1.7530517453468288e-09 9.9999414093410921e-01
    2.3677553845808852e-10 1. 0. 1. 0. 9.9999516078802919e-01
    -5.6751904587004493e-09 1. 0. 1.0000285455829356e+00
    5.0550995271588888e-09 1. 0. 1.0000331165488001e+00
    4.2305545034530814e-09 1. 0. 9.9999611730043958e-01
    -2.4958976676325299e-09 1.0000032638169003e+00
    5.3669611670478750e-09 9.9999355110278421e-01
    -2.3881816694614741e-09 1.0000123502087717e+00
    -1.7085291136833742e-10 9.9999463231605235e-01
    -3.2981455916505573e-09 1. 0. 9.9999355110278421e-01
    -2.3881816694614741e-09 9.9999573247495466e-01
    5.2406402586009817e-09 1. 0. 9.9998476288097626e-01
    4.5460477046687655e-09 1.0000116909302268e+00 5.2630090391414952e-09
    9.9999824087074274e-01 1.4002312781041115e-09 9.9999863184173288e-01
    3.0567395024712713e-09 9.9998548693901279e-01 5.6602791816941626e-09
    1. 0. 1. 0. 1.0000106994329754e+00 6.1469804683567392e-09
    9.9999784829955285e-01 7.1348626771373184e-09 9.9999743398312813e-01
    7.8442601409874156e-09 1.0000078019559426e+00 7.3986402503701799e-09
    1.0000104870481770e+00 5.2778594503948373e-09 9.9999736417148644e-01
    -1.2813776324389389e-09 9.9999723949436359e-01
    2.4810439181167178e-09 9.9999820346277712e-01
    -1.1662403312397979e-09 1.0000037033112530e+00
    -3.3427454485884918e-10 1.0000026711323562e+00
    1.5190905303339930e-09 9.9999667977167117e-01
    -4.9917981430172319e-09 9.9999867278487886e-01
    -1.2813793092712895e-09 9.9999414093410921e-01
    2.3677553845808852e-10 9.9999777874279505e-01 1.3296619785253951e-09
    1. 0. 9.9999653242918563e-01 -8.0968142473018138e-09
    9.9999723949436359e-01 2.4810439181167178e-09 9.9999510509683254e-01
    -7.0865594189519587e-09 9.9999510509683254e-01
    -7.0865594189519587e-09 9.9999881756948283e-01
    -5.0809482576240205e-09 9.9999807507274896e-01
    -5.4820716812188158e-09 9.9999591973729707e-01
    1.6342183880872330e-10 1.0000104870481770e+00 5.2778594503948373e-09
    9.9999544249778660e-01 -5.5563398677795891e-09
    9.9999625783036739e-01 -2.0353454078473977e-09
    1.0000029746552543e+00 1.0696777641235166e-09 1. 0.
    9.9999510509683254e-01 -7.0865594189519587e-09 1. 0. 1. 0.
    1.0000005023120193e+00 1.4782315887822158e-09 1.0000147800386365e+00
    -5.3484519602102684e-10 9.9999729304926654e-01
    -1.4763697758505802e-10 9.9999262101439723e-01
    7.4653821009898868e-10 9.9999611730043958e-01
    -2.4958976676325299e-09 1.0000106994329754e+00
    6.1469804683567392e-09 1. 0. 9.9999494336470407e-01
    -3.4467117804920468e-09 1.0000019298220648e+00
    3.4467358609187021e-09 9.9999713003077861e-01
    -5.3186444638231032e-09 9.9999881756948283e-01
    -5.0809482576240205e-09 9.9999653242918563e-01
    -8.0968142473018138e-09 9.9999976360732890e-01
    1.0102479777167702e-09 1.0000147800386365e+00
    -5.3484519602102684e-10 9.9999490255146828e-01
    -6.5220103874177810e-09 1.0000007146926106e+00
    2.3473431219226293e-09 9.9999224486704397e-01 1.9072001327844162e-09
    1.0000055865443500e+00 -1.1588206044944682e-09
    1.0000005023120193e+00 1.4782315887822158e-09 9.9999912092211585e-01
    -9.9910489467556403e-10 1.0000078502498042e+00
    2.7113492186765557e-09 9.9997928852394391e-01 0.
    9.9999820346277712e-01 -1.1662403312397979e-09
    1.0000012887803016e+00 -8.8025417606342207e-10
    1.0000031154996678e+00 4.9026904427471924e-10 9.9999611730043958e-01
    -2.4958976676325299e-09 1.0000376668191420e+00
    -1.4708579509929650e-09 9.9999723949436359e-01
    2.4810439181167178e-09 1. 0. 9.9999423723038849e-01
    5.7197547347230011e-10 1.0000072584754038e+00 1.5079549744629177e-09
    9.9999867278487886e-01 -1.2813793092712895e-09
    1.0000045542260148e+00 -3.3427482929694056e-10
    9.9997819955158584e-01 6.8338830680476567e-10 9.9999224486704397e-01
    1.9072001327844162e-09 9.9998514488926527e-01
    -1.7530517453468288e-09 9.9999762721694596e-01
    -1.6899332641237100e-09 9.9999391306399033e-01
    -7.9185150268532296e-09 9.9999544249777816e-01
    -5.5563398677795419e-09 9.9999483486141283e-01
    -3.8626938176411713e-09 9.9999777874279505e-01
    1.3296619785253951e-09 1.0000104870481770e+00 5.2778594503948373e-09
    9.9999880075291858e-01 -1.4113744922721740e-10
    1.0000123502087717e+00 -1.7085291136833742e-10
    1.0000066667017020e+00 3.0456215451306991e-10 9.9999111824750520e-01
    -1.8013457103762943e-09 1.0000072584754038e+00
    1.5079549744629177e-09 9.9999820346277712e-01
    -1.1662403312397979e-09 1.0000031618374929e+00
    -4.7912658819736219e-10 9.9999582652623131e-01
    -2.1616250300271717e-09 9.9999694397480521e-01
    1.8682106616970038e-09 9.9999770162185231e-01 2.5516137117277162e-09
    9.9999807507274896e-01 -5.4820716812188158e-09
    9.9999762721694685e-01 -1.6899332641237115e-09
    9.9999723949436359e-01 2.4810439181167178e-09 1.0000031618374929e+00
    -4.7912658819736219e-10 9.9999695273965250e-01
    1.0399582303380869e-09 9.9999816374980488e-01 2.6221835705635041e-09
    9.9999224486704397e-01 1.9072001327844162e-09 9.9999770162185542e-01
    2.5516137117277245e-09 1.0000078502498042e+00 2.7113492186765557e-09
    1. 0. 9.9998900556676662e-01 -2.0724717171302100e-09
    1.0000285432173164e+00 -3.9315377199412458e-09
    9.9999544457340617e-01 -1.0689268831992876e-08
    9.9999743398312813e-01 7.8442601409874156e-09 9.9999573247495466e-01
    5.2406402586009817e-09 9.9999962926605734e-01 1.5302283489098563e-09
    9.9999573247495466e-01 5.2406402586009817e-09 9.9999881756948283e-01
    -5.0809482576240205e-09 1.0000035758400960e+00
    -1.7976539898704855e-09 9.9999391306399033e-01
    -7.9185150268532296e-09 1.0000066667017020e+00
    3.0456215451306991e-10 9.9999694397480521e-01 1.8682106616970038e-09
    9.9998919776405581e-01 -4.0706620762401554e-09
    1.0000285455829356e+00 5.0550995271588888e-09 1. 0.
    1.0000376668191420e+00 -1.4708579509929650e-09
    1.0000019298220648e+00 3.4467358609187021e-09 1.0000175987044226e+00
    1.8942487417346266e-10 1.0000031618374929e+00
    -4.7912658819736219e-10 1.0000031154996678e+00
    4.9026904427471924e-10 1.0000031154996678e+00 4.9026904427471924e-10
    9.9999815903841516e-01 5.3483630649029302e-09 9.9999463231605235e-01
    -3.2981455916505573e-09 9.9999391306399033e-01
    -7.9185150268532296e-09 9.9999847163600508e-01
    5.1366586326267516e-09 9.9999490255146872e-01
    -6.5220103874177834e-09 1.0000249730430355e+00
    5.6233602812257645e-09 1. 0. 1.0000031154996678e+00
    4.9026904427471924e-10 9.9999414093410921e-01 2.3677553845808852e-10
    1.0000211676572421e+00 1.6342596488706231e-10 1.0000211676572421e+00
    1.6342596488706231e-10 1.0000037033112530e+00
    -3.3427454485884918e-10 1.0000072100594304e+00
    3.1013358194935308e-10 9.9999863184173288e-01 3.0567395024712713e-09
    9.9999559957014905e-01 1.0213861655387861e-09 1.0000063546751472e+00
    -4.7541394650883690e-10 9.9999544457340617e-01
    -1.0689268831992876e-08 1.0000054578541133e+00
    2.8970511384160084e-09 1.0000031154996678e+00 4.9026904427471924e-10
    9.9999080876012625e-01 -1.6342100356002791e-09
    9.9999863184173288e-01 3.0567395024712713e-09 9.9999500076462544e-01
    -4.1895378357336091e-09 9.9999739925922904e-01
    -4.2786872010564099e-09 1.0000045534328064e+00
    7.0309139039686944e-09 1. 0. 9.9999414093410921e-01
    2.3677553845808852e-10 9.9999880075291858e-01
    -1.4113744922721740e-10 9.9999582652623131e-01
    -2.1616250300271717e-09 9.9999762721694685e-01
    -1.6899332641237115e-09 9.9999111824750520e-01
    -1.8013457103762943e-09 9.9999695273965250e-01
    1.0399582303380869e-09 9.9999659008260089e-01
    -6.2843167414120308e-09 9.9999947771577402e-01
    -1.3965188640612007e-09 9.9999544457340617e-01
    -1.0689268831992876e-08 9.9999414093410921e-01
    2.3677553845808852e-10 1. 0. 1. 0. 1.0000157203312470e+00
    -1.1885459976101765e-09 1.0000211676572421e+00
    1.6342596488706231e-10 9.9998754652462807e-01
    -3.9518041033026799e-09 9.9999675978359137e-01
    -5.7346257064727921e-09 9.9998514488926527e-01
    -1.7530517453468288e-09 9.9999694397480521e-01
    1.8682106616970038e-09 9.9999762721694685e-01
    -1.6899332641237115e-09 9.9999943986023498e-01
    4.5424002821588512e-09 1.0000054212320797e+00 4.4570015881856664e-10
    1.0000026711323562e+00 1.5190905303339930e-09 1.0000059061218585e+00
    -1.4240126979104445e-08 1.0000024809212100e+00
    -8.2008588092471528e-09 9.9999937685844631e-01
    1.2813802114577882e-09 9.9999470991254746e-01 8.2007950804604117e-09
    9.9999414595383829e-01 1.2628028781154376e-10 9.9999262101439723e-01
    7.4653821009898868e-10 1. 0. 1.0000063176885841e+00
    1.6342353806797589e-09 1.0000031154996678e+00 4.9026904427471924e-10
    1.0000352029751225e+00 1.7828537298968446e-10 9.9999391306399033e-01
    -7.9185150268532296e-09 1.0000376668191420e+00
    -1.4708579509929650e-09 9.9997740833026327e-01
    1.3983450757049675e-09 9.9999391306399033e-01
    -7.9185150268532296e-09 9.9999723949436359e-01
    2.4810439181167178e-09 9.9999224486704397e-01 1.9072001327844162e-09
    9.9999490898678411e-01 6.0614584400701370e-09 1. 0.
    9.9999770162185231e-01 2.5516137117277162e-09 9.9999994286983329e-01
    2.5033355111847445e-09 9.9999867278487886e-01
    -1.2813793092712895e-09 9.9999816374980488e-01
    2.6221835705635041e-09 1.0000009660205267e+00 1.5406300184901517e-08
    9.9999762721694840e-01 -1.6899332641237142e-09 1. 0.
    9.9999675978359137e-01 -5.7346257064727921e-09
    9.9999463231605235e-01 -3.2981455916505573e-09
    9.9999490255146872e-01 -6.5220103874177834e-09
    9.9999463231605235e-01 -3.2981455916505573e-09
    9.9998092712475495e-01 -8.9137848370045061e-10
    1.0000106994329754e+00 6.1469804683567392e-09 1.0000085431071468e+00
    -5.8535470263702418e-09 9.9999463231605568e-01
    -3.2981455916505680e-09 9.9998476288097626e-01
    4.5460477046687655e-09 1.0000069586426055e+00 3.5656067523117393e-09
    1.0000393810168802e+00 4.9214397114069838e-09 1.0000080083148322e+00
    7.4877820395085571e-09 1.0000039379018746e+00 3.4541711071877315e-10
    9.9999303044647403e-01 -1.2850862012549506e-09
    9.9999463231605235e-01 -3.2981455916505573e-09
    1.0000097839948936e+00 6.0912620783254248e-10 1. 0.
    9.9999453916160863e-01 -2.6741718522259383e-09
    1.0000081286078080e+00 -1.5116704646196296e-09
    9.9999658591217822e-01 -3.8478440407511925e-09
    1.0000080083148322e+00 7.4877820395085571e-09 9.9998920716902184e-01
    -5.0511865654689871e-09 9.9999463231605235e-01
    -3.2981455916505573e-09 1.0000011394540396e+00
    4.0855672956977993e-09 9.9999711001703417e-01 1.6713617044829349e-09
    1. 0. 9.9999658591217822e-01 -3.8478440407511925e-09
    1.0000080286091633e+00 -1.5213271754091412e-08
    9.9998327701102696e-01 -1.1587947518920035e-09
    9.9999791327653587e-01 -2.2916244444751082e-09
    1.0000055566969970e+00 3.6027434384927102e-09 9.9999478236175532e-01
    5.0066451854017586e-09 1.0000186453807087e+00 2.5553813693394140e-09
    1.0000128815096081e+00 -1.8719546321591648e-09
    1.0000139174141527e+00 -3.4690623761798879e-09
    9.9999510509683254e-01 -7.0865594189519587e-09
    1.0000054598233350e+00 6.0392373850520571e-09 9.9999793238685664e-01
    6.2880393170813780e-09 9.9999683206048207e-01 8.5425130040133524e-10
    1. 0. 1.0000040402259078e+00 3.9147276553818669e-09
    1.0000033215785018e+00 1.0251082129177256e-09 1.0000062992919891e+00
    8.7877291808101546e-09 9.9999770162185231e-01 2.5516137117277162e-09
    9.9999453916160863e-01 -2.6741718522259383e-09
    9.9999490255146872e-01 -6.5220103874177834e-09
    9.9999516078802630e-01 -5.6751904587004328e-09 1. 0.
    1.0000090339577539e+00 1.3965322095403652e-09 9.9998903210294376e-01
    -6.0019971035055315e-09 1.0000100318592691e+00
    -3.4913340078234588e-10 1.0000322658634295e+00
    -3.1942702177728122e-09 9.9999652488160529e-01
    -1.3965147403704278e-09 1.0000045118774803e+00
    -1.9090806109161259e-09 9.9998163560184206e-01
    -4.1597692044240611e-09 1.0000018475739949e+00
    4.5126979812281585e-09 1.0000060811242688e+00 4.2861526890200304e-09
    9.9999800984087772e-01 -1.4811992167050127e-08
    1.0000058555132885e+00 2.1115054193847163e-09 9.9999642310485615e-01
    -8.1413829769573136e-09 9.9999224486704397e-01
    1.9072001327844162e-09 9.9999500076462544e-01
    -4.1895378357336091e-09 9.9999651974787540e-01
    -3.5061433727175885e-09 1. 0. 1.0000131077511836e+00
    -1.2925403955800610e-09 9.9999497365581802e-01
    -1.8124950429201394e-09 9.9997497256388312e-01
    2.5998384295093386e-10 1.0000354153704085e+00 1.0474267887750302e-09
    9.9998216811352592e-01 4.2637657050802058e-09 9.9999490255146850e-01
    -6.5220103874177826e-09 9.9999294826276941e-01
    -3.2220005432619307e-10 1. 0. 1.0000109347507395e+00
    9.2483292857637814e-10 9.9998913353226382e-01
    -9.3224098130257692e-10 9.9999651990664995e-01
    -1.0852702263461269e-08 1.0000374688967253e+00
    4.5091444421824184e-09 9.9999510509683254e-01
    -7.0865594189519587e-09 9.9999467533542519e-01
    -3.8181236644982746e-09 1.0000013390396072e+00
    -2.9416090400043394e-09 1. 0. 1.0000126120009694e+00
    -8.5055058578098727e-10 1.0000064238949804e+00
    -1.0637387789448705e-08 1.0000125856193276e+00
    -2.4736536034323350e-09 9.9999723949436381e-01
    2.4810439181167182e-09 1.0000017837336022e+00 1.4856617919790217e-09
    9.9999651990664995e-01 -1.0852702263461269e-08
    9.9998723745460727e-01 -2.7781471387816387e-09
    9.9999764345400632e-01 3.6769977113136054e-09 1.0000194000414517e+00
    2.6593814552160086e-09 1.0000194000414517e+00 2.6593814552160086e-09
    9.9999700552004012e-01 -2.3770475090917777e-09
    9.9999823015606171e-01 2.9156009059265972e-10 1. 0. 1. 0.
    9.9998884112903708e-01 -1.0265790115030381e-08
    9.9999651974787540e-01 -3.5061433727175885e-09 1. 0.
    9.9999711001703417e-01 1.6713617044829349e-09 1.0000087872950321e+00
    1.4708154749152457e-09 1.0000014003917059e+00
    -2.7447591085015548e-09 1.0000186453807087e+00
    2.5553813693394140e-09 9.9999510509683254e-01
    -7.0865594189519587e-09 1.0000110053429148e+00
    -1.3445363203932166e-08 1.0000058555132885e+00
    2.1115054193847163e-09 9.9999723949436381e-01 2.4810439181167182e-09
    1.0000334696673225e+00 -3.7885576095141193e-10
    9.9997698361205323e-01 6.7595935109053301e-09 9.9999490255146850e-01
    -6.5220103874177826e-09 1.0000329317866159e+00
    -3.6919845474113086e-09 9.9998600367187551e-01
    -1.7530532508595472e-09 9.9999170298750895e-01
    -3.3278488665552047e-09 9.9996348938460489e-01
    -6.1281202109710638e-10 1.0000119593750352e+00
    -2.2879424406511628e-09 1.0000346330836691e+00
    1.6194245484587193e-09 1.0000374688967253e+00 4.5091444421824184e-09
    9.9998723745460683e-01 -2.7781471387816375e-09
    9.9999516078802630e-01 -5.6751904587004328e-09
    1.0000076777957299e+00 -8.0449060203782413e-09
    9.9997965104692632e-01 4.6945873567082933e-09 9.9998467913528466e-01
    8.2007128196764144e-09 1. 0. 1.0000054598233350e+00
    6.0392373850520571e-09 1.0000140951033092e+00 1.6713900927877241e-09
    9.9999962926605734e-01 1.5302283489098563e-09 9.9999490255146850e-01
    -6.5220103874177826e-09 1.0000005023120193e+00
    1.4782315887822158e-09 1.0000175987044226e+00 1.8942487417346266e-10
    1. 0. 1. 0. 1. 0. 1.0000063904251499e+00 -3.3687536320221441e-09
    9.9999453916160863e-01 -2.6741718522259383e-09
    9.9999500076462544e-01 -4.1895378357336091e-09
    1.0000071036251272e+00 1.0875102171239343e-08 1.0000349289869246e+00
    2.2211379966188110e-09 1. 0. 9.9999598244477506e-01
    -4.5906683053154334e-09 9.9999294826276941e-01
    -3.2220005432619307e-10 9.9999611730043980e-01
    -2.4958976676325307e-09 9.9998954324729794e-01
    -7.6659210110293933e-09 9.9999463231605590e-01
    -3.2981455916505688e-09 1.0000040402259078e+00
    3.9147276553818669e-09 1.0000041548024861e+00 3.7513049193124434e-09
    1.0000287688385350e+00 -1.7568424762299142e-09
    9.9999770162185231e-01 2.5516137117277162e-09 1.0000103655860773e+00
    4.1227468531803327e-09 9.9999294826276941e-01
    -3.2220005432619307e-10 1.0000179142184971e+00
    -2.3770972102101921e-10 1.0000405528614074e+00
    -6.0617351099277397e-09 9.9999762721695151e-01
    -1.6899332641237193e-09 9.9999810385920318e-01
    -2.1542016711629706e-10 9.9999510509683254e-01
    -7.0865594189519587e-09 1.0000139174141527e+00
    -3.4690623761798879e-09 9.9999962926605734e-01
    1.5302283489098563e-09 1. 0. 9.9999522483088843e-01
    6.1803125183706153e-09 9.9998327701102696e-01
    -1.1587947518920035e-09 1.0000106994329754e+00
    6.1469804683567392e-09 9.9999764345400632e-01 3.6769977113136054e-09
    9.9999500076462544e-01 -4.1895378357336091e-09
    9.9999389854732801e-01 -3.0158696568782936e-09
    1.0000153724772369e+00 -4.1153390852100385e-09
    9.9999966621124869e-01 -1.2108117965410020e-09
    1.0000005023120193e+00 1.4782315887822158e-09 9.9999224486704397e-01
    1.9072001327844162e-09 1. 0. 1. 0. 1.0000100094558431e+00
    -1.0993987693228665e-09 1.0000011150700365e+00
    9.9167858304739905e-10 9.9999500076462544e-01
    -4.1895378357336091e-09 9.9999611730043958e-01
    -2.4958976676325299e-09 1.0000230292147159e+00
    -4.6093636355078232e-09 9.9999140105799955e-01
    -8.1710550177415212e-11 1. 0. 9.9999724586632599e-01
    -2.1263437906774945e-09 1.0000218699632284e+00
    -9.1741458354403576e-10 9.9999233467361481e-01
    -2.0947633329943029e-09 1.0000100094558431e+00
    -1.0993987693228665e-09 1.0000097839948936e+00
    6.0912620783254248e-10 1. 0. 1.0000073001861485e+00
    7.0606466158179657e-09 1.0000031601159398e+00 2.7930480132103661e-09
    1.0000030130204951e+00 5.0475421431074294e-09 9.9999465984023317e-01
    -2.4884657739053672e-09 1.0000176767593199e+00
    -2.0353890029292224e-09 1.0000044472692948e+00
    -5.0512635468895898e-10 1. 0. 1.0000374688967253e+00
    4.5091444421824184e-09 9.9999483486141283e-01
    -3.8626938176411713e-09 9.9999463231605568e-01
    -3.2981455916505680e-09 9.9998327701102696e-01
    -1.1587947518920035e-09 1.0000119593750245e+00
    -2.2879424406511384e-09 9.9999771227877210e-01
    1.2925204965708913e-09 1.0000050653264403e+00 3.7810216682973885e-09
    1.0000230292147159e+00 -4.6093636355078232e-09
    1.0000047930164546e+00 2.8940778798323295e-08 1.0000134180401512e+00
    -1.1402586912850560e-09 1.0000019298220648e+00
    3.4467358609187021e-09 1.0000023931828526e+00 4.0410025369630127e-09
    1.0000194583996966e+00 2.2731027172776779e-09 9.9999723949436337e-01
    2.4810439181167170e-09 1. 0. 9.9996729529836259e-01
    5.8235933713660719e-09 9.9999773505557299e-01 9.7459018972741258e-09
    1.0000029746552543e+00 1.0696777641235166e-09 1.0000014003917059e+00
    -2.7447591085015548e-09 1.0000055566969970e+00
    3.6027434384927102e-09 9.9998572829192522e-01 6.0316900326051836e-09
    1.0000230292147159e+00 -4.6093636355078232e-09
    9.9998920716902184e-01 -5.0511865654689871e-09 1. 0.
    1.0000018475739949e+00 4.5126979812281585e-09 9.9998751962948984e-01
    -2.3770249606117529e-09 1.0000129796574666e+00
    1.1291156032323044e-09 1.0000106994329754e+00 6.1469804683567392e-09
    1.0000063904251499e+00 -3.3687536320221441e-09
    9.9999510509683254e-01 -7.0865594189519587e-09
    1.0000199767764035e+00 2.1096781253079191e-09 9.9999544457340617e-01
    -1.0689268831992876e-08 1.0000079571937519e+00
    -6.2026762731825156e-10 1.0000094955533767e+00
    6.1618298007026828e-09 9.9999611730043980e-01
    -2.4958976676325307e-09 9.9999943986023498e-01
    4.5424002821588512e-09 1.0000405849684697e+00 4.9065884419749336e-09
    1.0000194583996966e+00 2.2731027172776779e-09 9.9998144406030465e-01
    3.1495389372137791e-09 1.0000171650585485e+00 1.1699766566657219e-09
    9.9999746743314655e-01 -3.7884212175408653e-09
    9.9999723949436359e-01 2.4810439181167178e-09 9.9999611730043980e-01
    -2.4958976676325307e-09 9.9999140105799955e-01
    -8.1710550177415212e-11 9.9999764345400211e-01
    3.6769977113135896e-09 9.9998954324729794e-01
    -7.6659210110293933e-09 9.9999490255146872e-01
    -6.5220103874177834e-09 9.9999943986023498e-01
    4.5424002821588512e-09 9.9999810385920318e-01
    -2.1542016711629706e-10 9.9999483486141283e-01
    -3.8626938176411713e-09 1.0000230292147159e+00
    -4.6093636355078232e-09 9.9998109892553755e-01
    2.6722788717019216e-09 9.9997937915463853e-01 1.1736465200650555e-09
    1. 0. 9.9999247704683192e-01 -3.0158653697919228e-09
    1.0000055566969970e+00 3.6027434384927102e-09 1.0000054598233350e+00
    6.0392373850520571e-09 9.9999510509683254e-01
    -7.0865594189519587e-09 9.9998954324729794e-01
    -7.6659210110293933e-09 1.0000097839948936e+00
    6.0912620783254248e-10 9.9999658591217822e-01
    -3.8478440407511925e-09 9.9999716899223368e-01
    7.5768401738362319e-09 1.0000230292147159e+00
    -4.6093636355078232e-09 9.9998898750677112e-01
    -3.7958173058322398e-09 1. 0. 1. 0. 9.9999510509683653e-01
    -7.0865594189519869e-09 9.9999489850640333e-01
    1.3222298909616775e-09 1. 0. 9.9999795261599256e-01
    -4.2341198856957454e-09 1.0000129796574666e+00
    1.1291156032323044e-09 1.0000073001861485e+00 7.0606466158179657e-09
    9.9999483486141283e-01 -3.8626938176411713e-09
    1.0000349289869246e+00 2.2211379966188110e-09 1. 0.
    1.0000213731419119e+00 6.6484667558524673e-10 9.9998327701102696e-01
    -1.1587947518920035e-09 9.9998772813857562e-01
    3.8998073891589089e-09 9.9999791327654697e-01
    -2.2916244444751335e-09 1.0000067434214388e+00
    1.6862344970365182e-09 9.9999516078802919e-01
    -5.6751904587004493e-09 9.9999170298750895e-01
    -3.3278488665552047e-09 1. 0. 1.0000147740014176e+00
    -5.6233029297724644e-09 1. 0. 9.9998922307681992e-01
    -1.7382024634155998e-09 9.9999793238685664e-01
    6.2880393170813780e-09 9.9999582652623131e-01
    -2.1616250300271717e-09 9.9999797874865293e-01
    -1.0919572622152352e-09 1.0000041548024861e+00
    3.7513049193124434e-09 1.0000129796574666e+00 1.1291156032323044e-09
    9.9999463231605235e-01 -3.2981455916505573e-09
    9.9999510509683254e-01 -7.0865594189519587e-09
    9.9999622891928652e-01 7.6065461218219617e-09 1. 0.
    1.0000230292147159e+00 -4.6093636355078232e-09
    1.0000327094291355e+00 1.4114223501702468e-09 1.0000029746552543e+00
    1.0696777641235166e-09 9.9999544249778927e-01
    -5.5563398677796031e-09 1.0000376668191420e+00
    -1.4708579509929650e-09 1.0000078802039312e+00
    -7.2055036188911137e-10 1.0000102687231085e+00
    1.2628232381140635e-09 9.9999463231605545e-01
    -3.2981455916505676e-09 9.9999131044561362e-01
    -3.7995402389614095e-09 1.0000346330836691e+00
    1.6194245484587193e-09 1.0000251462147784e+00 5.9687856914126393e-09
    9.9999510509683254e-01 -7.0865594189519587e-09
    9.9998327701102696e-01 -1.1587947518920035e-09
    9.9999723949436270e-01 2.4810439181167153e-09 1.0000050653264396e+00
    3.7810216682973861e-09 1.0000094955533767e+00 6.1618298007026828e-09
    9.9999233467363347e-01 -2.0947633329943422e-09
    1.0000043874841507e+00 -2.0383332858833434e-08
    9.9998163560184206e-01 -4.1597692044240611e-09 1. 0.
    9.9997795708531123e-01 -1.2182136428349562e-08 1. 0.
    1.0000050653264403e+00 3.7810216682973885e-09 1. 0.
    9.9997102021002104e-01 3.3649204390232278e-09 1.0000080083148322e+00
    7.4877820395085571e-09 1. 0. 9.9998204743791697e-01
    4.0780611317171444e-09 9.9999140105799955e-01
    -8.1710550177415212e-11 9.9999201450881658e-01
    -1.2368013591355569e-09 9.9999365298199749e-01
    -1.1053233860654557e-08 9.9999223958423933e-01
    -5.8683080698737607e-10 9.9999611730043958e-01
    -2.4958976676325299e-09 1.0000011394540396e+00
    4.0855672956977993e-09 9.9999510509683254e-01
    -7.0865594189519587e-09 1.0000179142184971e+00
    -2.3770972102101921e-10 1.0000005023120193e+00
    1.4782315887822158e-09 1.0000405849684697e+00 4.9065884419749336e-09
    9.9999233467361481e-01 -2.0947633329943029e-09
    1.0000019038537629e+00 7.5025929507050155e-10 9.9999437473796093e-01
    8.7207701064056903e-09 1.0000149164358501e+00
    -9.5083603372683195e-10 1.0000363359346371e+00
    2.3437124543284045e-09 9.9999510509683254e-01
    -7.0865594189519587e-09 1.0000043734006390e+00
    -5.6826710704813515e-10 1. 0. 9.9999771227877210e-01
    1.2925204965708913e-09 9.9999723949436359e-01 2.4810439181167178e-09
    9.9997856277632402e-01 -2.0055968462946014e-09
    1.0000018475739949e+00 4.5126979812281585e-09 1.0000122726683196e+00
    -2.9713547499215480e-11 1. 0. 1.0000028013230731e+00
    1.1736740099783963e-09 9.9999753173995309e-01 9.8796089085224729e-10
    9.9999224486704397e-01 1.9072001327844162e-09 1.0000112972358475e+00
    -2.3919382405389737e-08 9.9999544457340617e-01
    -1.0689268831992876e-08 9.9999544457340617e-01
    -1.0689268831992876e-08 9.9999824087074274e-01
    1.4002312781041115e-09 1.0000019298220648e+00 3.4467358609187021e-09
    1.0000170824118388e+00 1.9313898767802654e-10 1.0000230292147159e+00
    -4.6093636355078232e-09 1.0000081286078080e+00
    -1.5116704646196296e-09 1. 0. 9.9999746743314655e-01
    -3.7884212175408653e-09 9.9999658591217822e-01
    -3.8478440407511925e-09 1.0000031601159398e+00
    2.7930480132103661e-09 9.9998723745460683e-01
    -2.7781471387816375e-09 1.0000064966791109e+00
    -1.2175055765269691e-08 9.9999327180303377e-01
    -9.1367422488320759e-10 9.9999472278747714e-01
    5.4671967906970861e-09 9.9998887760120458e-01
    -3.2127021611340100e-09 9.9999740524466574e-01
    9.3150586497213980e-09 9.9999516078802630e-01
    -5.6751904587004328e-09 9.9999598244477506e-01
    -4.5906683053154334e-09 9.9999791327653587e-01
    -2.2916244444751082e-09 1.0000126463599306e+00
    3.6027689805873957e-10 9.9999557735331646e-01
    -3.4615704913932497e-09 1. 0. 9.9999731661522573e-01
    1.2590927441707932e-09 9.9999716899223368e-01 7.5768401738362319e-09
    9.9999695273966338e-01 1.0399582303380983e-09 9.9999962926605734e-01
    1.5302283489098563e-09 1.0000173917860147e+00 9.5083838734385694e-10
    9.9998144406030465e-01 3.1495389372137791e-09 9.9999962926605734e-01
    1.5302283489098563e-09 1.0000014003917059e+00
    -2.7447591085015548e-09 1.0000097839948936e+00
    6.0912620783254248e-10 9.9999490255146872e-01
    -6.5220103874177834e-09 1.0000230292147159e+00
    -4.6093636355078232e-09 1.0000031601159398e+00
    2.7930480132103661e-09 9.9999667977167117e-01
    -4.9917981430172319e-09 1.0000092878275284e+00
    -5.2035694741179404e-09 9.9998723745460727e-01
    -2.7781471387816387e-09 9.9999716237351277e-01
    3.7029949035862934e-09 1.0000367607263683e+00 4.0819985442475578e-09
    9.9999497365581802e-01 -1.8124950429201394e-09
    1.0000080083148322e+00 7.4877820395085571e-09 9.9998327701102696e-01
    -1.1587947518920035e-09 9.9999622891928652e-01
    7.6065461218219617e-09 9.9998723745460727e-01
    -2.7781471387816387e-09 9.9999500076462544e-01
    -4.1895378357336091e-09 9.9999611730043958e-01
    -2.4958976676325299e-09 9.9997489871808720e-01
    1.1272155786950423e-09 1.0000076777957299e+00
    -8.0449060203782413e-09 9.9999560312816049e-01
    -1.3222308226383797e-09 9.9998277149201331e-01
    5.1922892442083947e-09 1.0000297846844959e+00
    -1.2517051076316878e-09 1.0000063904251499e+00
    -3.3687536320221441e-09 1. 0. 1.0000184440621231e+00
    -1.2665477783750084e-09 1.0000134180401512e+00
    -1.1402586912850560e-09 1.0000015120031378e+00
    -4.6092644571392379e-09 9.9999712266642760e-01
    -2.2749090154336303e-10 9.9999490255146872e-01
    -6.5220103874177834e-09 9.9999508077626786e-01
    -4.9323640877816773e-09 1.0000212903384438e+00
    9.2855673259052088e-10 1. 0. 9.9998001497527356e-01
    -5.3779786127076110e-09 9.9999652488160529e-01
    -1.3965147403704278e-09 9.9999795261599256e-01
    -4.2341198856957454e-09 1.0000239151140602e+00
    7.7256122926669625e-09 9.9999483486141283e-01
    -3.8626938176411713e-09 9.9999516078802919e-01
    -5.6751904587004493e-09 1. 0. 9.9999516078802630e-01
    -5.6751904587004328e-09 1.0000131077511836e+00
    -1.2925403955800610e-09 9.9999507413008071e-01
    -7.7031047063781695e-09 1.0000028325498798e+00
    2.6964789805449608e-09 9.9998436155053405e-01
    -4.2340623393774000e-10 9.9998303600251204e-01
    -1.3222142059244338e-09 9.9999170298750895e-01
    -3.3278488665552047e-09 1.0000212903384438e+00
    9.2855673259052088e-10 9.9999544249778660e-01
    -5.5563398677795891e-09 9.9999510509683254e-01
    -7.0865594189519587e-09 9.9998008359956669e-01
    -1.4633451096818627e-09 9.9999652488160506e-01
    -1.3965147403704276e-09 9.9999611730043958e-01
    -2.4958976676325299e-09 1.0000405849684697e+00
    4.9065884419749336e-09 1.0000073735642150e+00
    -7.9037649137097001e-09 9.9999254773371971e-01
    -2.0279096161388080e-09 9.9999294826276941e-01
    -3.2220005432619307e-10 1.0000123502087723e+00
    -1.7085291136833752e-10 1.0000054598233350e+00
    6.0392373850520571e-09 9.9999403571099166e-01
    -7.4282514052919921e-10 1.0000069463972616e+00
    3.1421909119977793e-09 9.9999582652623131e-01
    -2.1616250300271717e-09 1.0000130297420728e+00
    -5.2741586739858248e-09 9.9999294826276941e-01
    -3.2220005432619307e-10 9.9999797874865293e-01
    -1.0919572622152352e-09 1.0000405528614074e+00
    -6.0617351099277397e-09 1.0000017837336022e+00
    1.4856617919790217e-09 9.9999544249778927e-01
    -5.5563398677796031e-09 9.9999472356341401e-01
    -1.9016336678049764e-09 1. 0. 1. 0. 1.0000265625236300e+00
    6.8230708426126737e-09 9.9998307341630854e-01 1.9461805332208619e-09
    9.9999824087074274e-01 1.4002312781041115e-09 1.0000050051947864e+00
    1.8526262227314338e-08 9.9999510509683254e-01
    -7.0865594189519587e-09 9.9999544249778660e-01
    -5.5563398677795891e-09 9.9999063158857748e-01
    -2.3696041317900376e-09 1.0000024693836507e+00
    2.9026137162513347e-09 1.0000011394540396e+00 4.0855672956977993e-09
    9.9999667977167117e-01 -4.9917981430172319e-09
    1.0000109347507395e+00 9.2483292857637814e-10 9.9999598244477506e-01
    -4.5906683053154334e-09 1.0000014003917059e+00
    -2.7447591085015548e-09 1.0000376812929728e+00
    5.3782887471289145e-09 1.0000376668191420e+00
    -1.4708579509929650e-09 9.9998677322687679e-01
    6.8487980557342319e-09 9.9999510509683254e-01
    -7.0865594189519587e-09 9.9998670871704809e-01
    3.7159555383517112e-09 9.9999538006605138e-01 2.4624686513017801e-09
    1.0000230292147159e+00 -4.6093636355078232e-09
    1.0000091875681598e+00 -1.6164119972102275e-08
    9.9999723949436270e-01 2.4810439181167153e-09 1.0000017837336022e+00
    1.4856617919790217e-09 9.9999470000608215e-01
    -5.9574615845776351e-09 1.0000033215785018e+00
    1.0251082129177256e-09 9.9999652488160529e-01
    -1.3965147403704278e-09 9.9999294826276941e-01
    -3.2220005432619307e-10 1. 0. 1. 0. 9.9999463231605812e-01
    -3.2981455916505763e-09 1. 0. 1.0000405849684697e+00
    4.9065884419749336e-09 9.9999463231605235e-01
    -3.2981455916505573e-09 9.9999544249778660e-01
    -5.5563398677795891e-09 1.0000405849684697e+00
    4.9065884419749336e-09 1.0000005023120193e+00 1.4782315887822158e-09
    9.9999829462767997e-01 -1.8552136896856930e-09
    1.0000019038537629e+00 7.5025929507050155e-10 9.9999201450881681e-01
    -1.2368013591355571e-09 9.9998277149201331e-01
    5.1922892442083947e-09 1. 0. 1.0000045118774803e+00
    -1.9090806109161259e-09 1.0000059000370682e+00
    -2.6147755170290992e-09 1.0000129796574666e+00
    1.1291156032323044e-09 1.0000076777957299e+00
    -8.0449060203782413e-09 1.0000129796574666e+00
    1.1291156032323044e-09 9.9999773738982678e-01
    -1.4633709437840295e-09 1. 0. 9.9998903210294376e-01
    -6.0019971035055315e-09 1.0000049901274499e+00
    4.2935763456474542e-09 9.9998704420972839e-01
    -7.8590350396336368e-09 9.9999770162186230e-01
    2.5516137117277419e-09 1.0000110476671995e+00 1.5599593327779943e-10
    9.9999335235371256e-01 1.2628018759490481e-09 1.0000161381943697e+00
    -6.5370057183855117e-10 1.0000122077879421e+00
    2.6965042606057265e-09 1.0000015585845310e+00 4.5164108307521077e-09
    9.9999180307964153e-01 3.1569997987745978e-09 1.0000349195980374e+00
    1.4894252981303940e-09 1.0000113273694458e+00 4.2267481362684076e-09
    9.9998844422456001e-01 -9.2109802388958773e-10
    1.0000060008134903e+00 8.0226075084604737e-10 1.0000093296888790e+00
    5.7198410603813854e-09 1.0000163469226901e+00 3.3279308785274191e-09
    1.0000134180401512e+00 -1.1402586912850560e-09
    1.0000028937299219e+00 -1.8125093980873462e-09
    1.0000171828538882e+00 6.8341494811851229e-10 9.9998512490986313e-01
    5.1031632414863984e-09 9.9999557735332112e-01
    -3.4615704913932658e-09 1.0000097839948936e+00
    6.0912620783254248e-10 9.9999557735331046e-01
    -3.4615704913932290e-09 9.9999557735331135e-01
    -3.4615704913932319e-09 1.0000067583972039e+00
    3.3854686499260425e-09 9.9997919789326495e-01
    -1.1736463073238882e-09 9.9999327180303643e-01
    -9.1367422488321007e-10 9.9999018016821795e-01
    -2.5478804084567904e-09 1.0000299171614269e+00
    -2.0205568805820395e-09 1.0000097839948936e+00
    6.0912620783254248e-10 9.9999793238685664e-01 6.2880393170813780e-09
    9.9999572024982475e-01 -3.4764275138788629e-09
    9.9999537480772516e-01 -2.8970219274744200e-09
    1.0000045118774803e+00 -1.9090806109161259e-09
    9.9999470000608215e-01 -5.9574615845776351e-09
    9.9998358500033557e-01 -4.1672054873951252e-09
    9.9999934741250129e-01 4.1672711736838367e-09 1.0000075048647992e+00
    -1.7605192955814160e-09 9.9999009402192740e-01
    -3.5061208431227324e-09 9.9999793238685664e-01
    6.2880393170813780e-09 9.9999598574139881e-01
    -6.1060345621508784e-09 9.9999252319332799e-01
    -1.8644882826357438e-09 9.9998934189560618e-01
    -2.5330218395409656e-09 1.0000054918280243e+00
    -1.4856673009433994e-08 9.9999577989902511e-01
    -4.0261192840069715e-09 9.9999777874279439e-01
    1.3296619785253943e-09 1.0000042456672347e+00 3.6881644785655430e-09
    9.9999573247495555e-01 5.2406402586009867e-09 9.9999777874279816e-01
    1.3296619785253993e-09 1.0000007146926195e+00 2.3473431219226504e-09
    9.9999717798324861e-01 -4.5869596562845522e-09
    1.0000045118774803e+00 -1.9090806109161259e-09
    1.0000053725499363e+00 -3.0307609324231075e-09
    9.9999596028515914e-01 -5.7049080588272828e-09
    9.9999172054129759e-01 -1.6490679940709687e-09
    9.9999987603015428e-01 8.3345467531567629e-09 1.0000072611784068e+00
    1.3727590149457525e-08 1.0000360525569103e+00 3.6548532512733480e-09
    1.0000346330836700e+00 1.6194245484587208e-09 1.0000097839948936e+00
    6.0912620783254248e-10 9.9999047791955442e-01
    -8.5424587235098914e-11 9.9998373506868743e-01
    -1.5599167267057408e-09 9.9999860481789871e-01
    -2.1764876063689833e-09 1.0000126120009605e+00
    -8.5055058578097973e-10 1.0000134615443932e+00
    2.6259378821158620e-09 1.0000131083892343e+00 1.0399750315900338e-09
    9.9999776019696085e-01 6.4403179553157452e-09 9.9999034995361347e-01
    -1.2256569643553851e-09 9.9999537480773559e-01
    -2.8970219274744502e-09 9.9999389854732801e-01
    -3.0158696568782936e-09 1.0000082743225436e+00
    1.7828057217381833e-10 9.9999557735331024e-01
    -3.4615704913932281e-09 1.0000134180401512e+00
    -1.1402586912850560e-09 1.0000014003917046e+00
    -2.7447591085015511e-09 9.9999582126020103e-01
    -1.4522257427659469e-09 9.9999609529286626e-01
    -8.4533675096927727e-09 9.9999952361829658e-01
    5.5563625439755303e-09 9.9999705336205269e-01
    -1.0028169658750169e-10 1.0000045118774803e+00
    -1.9090806109161259e-09 1.0000060963146815e+00
    7.0754947977590637e-09 9.9998059933287342e-01 1.8496097473796131e-09
    9.9999683979557852e-01 -6.4774533887992264e-09
    9.9999675978359825e-01 -5.7346257064728318e-09
    1.0000320869370025e+00 -2.1914175480100218e-10
    1.0000011152897066e+00 -2.7206163379842286e-09
    9.9999170298750895e-01 -3.3278488665552047e-09
    9.9996489772210273e-01 -3.9442865635975861e-09
    9.9999536835309299e-01 -7.2425547719378062e-09
    9.9999747025914709e-01 6.2174677804759151e-09 9.9999220670728040e-01
    -3.2349975701359891e-09 9.9999201450881436e-01
    -1.2368013591355542e-09 1.0000092113671200e+00
    -3.0901994799741743e-09 1.0000058998336163e+00
    1.0993942512544715e-09 9.9999793238685664e-01 6.2880393170813780e-09
    9.9999723949436337e-01 2.4810439181167170e-09 1.0000045058491220e+00
    -9.4414063885097405e-09 1.0000123502087723e+00
    -1.7085291136833752e-10 1.0000097839948936e+00
    6.0912620783254248e-10 1.0000041548024861e+00 3.7513049193124434e-09
    9.9999708416750033e-01 1.1402400666947090e-09 1.0000061774849132e+00
    -1.2702464132544300e-08 9.9999695886531514e-01
    3.2312988069158199e-09 9.9999795963451854e-01
    -2.0799185549397617e-09 9.9999723949436159e-01
    2.4810439181167129e-09 9.9999596028515914e-01
    -5.7049080588272828e-09 9.9998686029537831e-01
    7.8813181885381372e-09 9.9999472356341779e-01
    -1.9016336678049838e-09 1.0000123770315883e+00
    1.9610943396119044e-09 9.9999002979002238e-01
    -3.6769697158225892e-10 9.9999588027337349e-01
    -4.9620810916408753e-09 1.0000009541820125e+00
    -8.1117066551327286e-09 9.9999683979556431e-01
    -6.4774533887991346e-09 9.9999723949436226e-01
    2.4810439181167145e-09 1.0000050887465761e+00 3.5136017504706642e-09
    9.9999445539353415e-01 -2.6593151191688519e-09
    9.9998320525665818e-01 -6.6185003195458080e-09 1. 0.
    9.9999449746088420e-01 -5.3929130104326917e-09
    9.9999388173320392e-01 -1.4113675496848960e-09
    1.0000179329835850e+00 -2.1951007462439943e-09
    1.0000191744244786e+00 4.8470558883659226e-10 1.0000006302778415e+00
    -5.5712252937634732e-10 1.0000119505604916e+00
    1.4299640128026473e-09 9.9999056774806894e-01
    -1.7976306059055697e-09 1.0000158009689504e+00
    -1.9685294672770419e-10 1.0000161379909844e+00
    3.0605072220762194e-09 9.9999544457340617e-01
    -1.0689268831992876e-08 1.0000015120031380e+00
    -4.6092644571392387e-09 9.9999040520608518e-01
    -6.9528180728709808e-09 9.9998931930407142e-01
    -6.9825233882010989e-09 9.9998375902830472e-01
    -8.3195560751005667e-10</input_scale>
  <output_scale>
    5.2631578947368418e-01 4.9999999999999994e-01 5.2631578947368418e-01
    4.9999999999999994e-01</output_scale>
  <inv_output_scale>
    1.8999999999999999e+00 -9.4999999999999996e-01
    1.8999999999999999e+00 -9.4999999999999996e-01</inv_output_scale>
  <weights>
    <_>
      -2.8611749945578668e+00 1.1828234680559153e+00
      -1.0094780471504645e+00 1.1590318982722969e+00
      -8.9437836311815366e-01 8.2357120101190340e-01
      -1.1363915128279727e+00 -5.1682356684220269e-02
      -5.4311223700852795e-01 6.8280103616705046e-01
      -3.0740968287579545e-01 -1.8637175144989828e+00
      -1.6715937909086848e-01 1.9712633729660559e-01
      -1.5234198117368752e-01 -2.2599877011285979e-01
      4.5291398653981921e-02 3.6444703225868791e-01
      -5.1024215330521017e-01 3.7119346580192764e-01
      5.0881567369070424e-01 -1.3488275574832889e+00
      -2.5484065402110900e-01 6.0706876725871584e-01
      3.5704370061669027e-01 -1.7862709597204602e+00
      3.8540268818261975e-01 -5.1497547008765532e-01
      9.1235938793531002e-01 -1.9379105002991908e+00
      -7.8395484686520411e-01 -1.3776843337621218e+00
      8.6819379538956382e-02 1.0309693062655538e+00
      6.3136042893603073e-01 1.7919402812165213e+00
      6.8944254883268352e-01 -1.2840469078559682e+00
      -3.0162291325986335e-01 -3.9625656628002376e-01
      -2.3466493648694822e-01 9.2275511355153023e-02
      1.1996713317958501e+00 3.1665868339280545e-01
      1.9638875028642765e-02 9.8408228390943009e-01
      -1.0702871876564957e+00 3.9341619225232932e-01
      6.7006263244458808e-01 -2.3187943623400162e+00
      -7.6824600180322045e-01 3.0446894650394463e-01
      4.3483948510503667e-01 1.0381143438399987e+00
      -9.1306324454246002e-01 3.1612583350337675e-01
      -9.6526261277448955e-01 2.7088232415932284e-01
      7.3908505518514178e-01 3.8264250121517873e-01
      3.8013380120204471e-01 -1.0388630001164780e+00
      7.2454634888256120e-01 4.1962927422470925e-01
      -5.0769130542419827e-01 -2.3991694327529820e+00
      -1.9520145736987080e-01 -1.9185195554934809e-01
      7.9565749971190136e-01 8.6833781291444390e-01
      1.8802151440527642e-02 -6.7400546468961953e-01
      4.3126759549079274e-01 1.0828599062977817e+00
      5.7380836055175077e-01 1.1202529365105438e+00
      -4.9999007598591085e-02 -6.6135643208221895e-01
      -1.0641022749140627e+00 9.7965498102766846e-01
      1.7269889800971652e+00 3.8960071609329072e-01
      -1.1197181898983573e+00 8.3270327858826251e-02
      1.2020493800696392e+00 -1.6874295617539739e-01
      -2.6472549306824239e-01 5.2658341193317626e-01
      1.6493176105757708e+00 -2.7056538868601439e+00
      7.7873419145446805e+00 -4.0915644675189350e-01
      3.4955424892149212e-01 -2.4357244295063860e-01
      1.5874284765390803e+00 -4.6882127044770427e-01
      1.8909117393232659e+00 1.8824100528624782e-01
      1.0252988963145797e+00 -2.4932127924044756e-01
      -7.6155708767399993e-02 2.7318719071850173e+00
      -5.2686510829216583e-02 -9.4474445980274491e-02
      -3.1377374608061331e-01 -1.0391522674432044e-01
      1.0744697354338591e-01 -2.8611178779422403e-01
      1.1981965245973207e-01 -2.7960145160902600e-01
      -4.5255827285319328e-01 3.0878474210811596e-01
      1.7680729844626630e-01 -1.4255728609624979e-01
      -7.0042109434767352e-01 9.7218840379386229e-01
      3.4917981305888213e-01 4.4070346566384694e-01
      -5.9485501334996826e-01 2.5696602657064225e+00
      2.6995224506903504e-01 1.8602835525209396e+00
      1.6634735431077383e-01 -6.4954682450075973e-01
      -1.0680807838220607e+00 -7.4239645414595312e-01
      -1.5916284829891416e+00 1.7493892405241396e+00
      -1.7090407132329383e-01 2.4123362285414167e-02
      -6.8887417396308397e-04 7.2150690330992515e-02
      -4.6536078231214001e-01 -2.4550459505702808e-03
      1.2033487251548533e-01 -2.5735625694302083e-01
      3.7879085323697659e-01 -7.0897544744755658e-01
      -2.2596712752215822e-01 2.9879477773077152e+00
      1.1398507162514830e+00 -1.4240382891805373e-01
      -6.5212519671143637e-02 -2.9245619423566460e-01
      6.5471114521525431e-01 -6.2504829112663396e-01
      3.8981274370605951e-01 -1.2749946900342610e-01
      -1.1568723822029754e+00 -2.9732928259100638e-01
      -6.4254201313588455e-01 1.7914814183210299e+00
      -6.3167813942957307e-01 -3.9415742569499645e-02
      7.5910903143704328e-02 2.2172214334318472e+00
      2.8219174898422733e-01 2.5099250766063635e-01
      -1.5768647172404471e+00 -1.4573455580000723e+00
      2.1700332006370315e-01 1.3897426786661544e+00
      -6.8077153547472702e-01 -1.9518618100347731e+00
      -8.8533418105112072e-01 -6.5408313851723665e-01
      1.4693299997256273e-01 7.5744648508815593e-01
      1.7004817022312673e+00 -1.9088357647751768e+00
      -2.5126066727672591e+00 -6.4950976205671562e-01
      1.7133106905266591e+00 -2.2244672790488998e-01
      -1.7845648993969332e+00 7.7982346155932677e-02
      -6.7748756180002678e-03 -3.3823827154830476e-02
      -2.1026814627258266e+00 3.1850077916480783e+00
      3.3288009462767754e+00 8.9222750868511902e-01
      -7.8772058638469389e-01 1.4010525965660761e+00
      8.3734613061690433e-01 9.7876697186812678e-01
      1.2149895596566149e+00 1.0636809757395692e-01
      4.3789773171241164e-01 5.6093453322137332e-01
      -4.9624426103458924e-01 2.3893608134254598e+00
      -3.0183078214878822e-01 2.7908264971272478e-01
      -4.1915265789245515e-01 -4.1044245268459956e-01
      1.8155651472253928e-01 2.9229119912936707e-01
      -6.0806542734525804e-01 4.6084888645303956e-01
      3.0548100209396445e-01 -1.0480559626247026e+00
      -2.4266704520126736e-01 6.9399725487670116e-01
      -2.0915180023029358e-02 -1.9332042176536468e+00
      5.9745783938294450e-01 -3.3017898032685183e-01
      1.2933637753014977e+00 2.4368412613347368e+00
      -1.0158200039589422e+00 1.6334500293242609e+00
      2.0750381895827047e-01 1.4383609129906074e+00
      -3.4063346255144311e-01 1.2995780951543889e+00
      -6.6710357336680415e-01 1.5010330278392199e+00
      -4.4648185813851565e-01 -5.3106998638016112e-01
      -3.9598436574814300e-01 2.2558686144504292e-02
      9.3815559031592466e-01 4.5313669951416941e-01
      -5.8914899573845048e-02 1.0475758238809003e+00
      -1.0154781052681654e+00 -7.6979072750339370e-02
      6.9930681051608223e-01 2.8967687997432496e+00
      2.0399697387609175e-01 4.0050221966511429e-01
      5.9734793784454288e-01 9.1701983560522671e-01
      -7.1035564585079236e-01 -1.3144997774870867e-03
      -1.2806137068219365e+00 3.7073125357740139e-01
      -2.8476865714558419e-01 2.9649505710741153e-01
      -1.6873331266717247e-02 1.1047905780417961e+00
      7.4941327421710369e-01 3.0001731889253225e-01
      -6.2512281404122250e-01 2.7688756531607917e+00
      -1.9689112244005647e-02 1.3424773286844442e-02
      -6.9162416430066231e-01 -5.8746457334957425e-01
      9.9814403200346846e-02 3.6483558253915715e-01
      1.8920667320206988e-01 -1.2049842621327729e+00
      -3.4173130873510277e-01 1.5489887997282605e+00
      8.9061869404209446e-02 -3.8963384766322301e-01
      1.2555997693706573e+00 -1.1065649154315456e+00
      -2.2357945635213294e+00 -1.6627790512650792e-01
      1.3211266538766651e+00 -8.3596694597694490e-02
      2.7009451696783211e+00 -2.4650801740882802e-01
      -3.9613386661615291e-01 6.6943708154458925e-01
      -2.0002384294439106e+00 3.2953130970591515e+00
      -8.6404980505595663e-01 -1.1103929030354029e+00
      8.9619056330545921e-01 -1.1882809530755047e+00
      -3.8975618938602519e-01 -9.0359575884041643e-01
      -6.4529206386409665e-01 -6.0671500101707201e-02
      -2.1239794185082506e-01 -4.3476735663128441e-01
      2.1383317893917522e-01 -1.3320477791897793e+00
      1.4981412950913137e-01 -8.5565382417892022e-02
      2.6919841527751703e-01 9.6332356118153689e-02
      -9.3706902875071524e-02 7.1345016877235504e-02
      3.3899939189179412e-01 -1.6987194319845580e-01
      9.0288708203162857e-02 1.2249574559408509e+00
      8.1819917728156288e-03 -4.5404853791833744e-01
      8.4396432374164235e-02 2.3543818010894819e+00
      -1.9444706315005628e-01 -7.0520103065564402e-02
      -1.5022172090106445e+00 -1.2665266030540188e+00
      1.0787776739446493e+00 -6.6926713208425814e-01
      -2.9947129172183264e-02 -1.6615552303253316e+00
      1.1433814922441017e-01 -1.5975438962467230e+00
      2.3324005707725690e-01 -6.0052742751503030e-01
      1.6819905454608727e-01 3.2580903285032764e-01
      9.4977285862245894e-02 -9.7014639189906465e-02
      -8.3743236150190836e-01 -2.5988991499426750e-01
      -1.0913590457552377e-01 -8.0955578856719712e-01
      1.0993259403511932e+00 5.2795837415351314e-02
      -6.3153413745267850e-01 -1.3915497270980788e+00
      -1.8276583185317385e-01 -6.3741471297495467e-02
      -3.4887189476166802e-01 -9.4407662609623921e-01
      5.0177358185185628e-01 8.9580041096274488e-02
      9.3306323270480451e-01 -8.2849940483419190e-02
      1.1127740377933358e-01 6.6067562624062742e-02
      1.8311769889736009e-02 -5.3675448175663998e-01
      -3.3403242884983964e-01 -9.2243767075790198e-02
      3.8540765848949476e-01 -8.6929319738831512e-01
      -5.5717822751764380e-03 -1.5589422575948689e-01
      3.7010841813046669e-01 3.1681829524581773e-01
      -2.5874986022602797e-02 -2.6657963995441381e-01
      1.5357892736401432e-01 6.8317880939318276e-01
      3.1198381021237498e-01 -1.7870131231084856e+00
      -4.9301698923327454e-02 8.8713060004203176e-02
      -5.2952220289206275e-01 6.0992306346342462e-01
      1.2296069858979946e+00 2.0404393784825461e-01
      -5.4978949802074961e-01 5.2945705453036923e-02
      -2.6266950201247026e+00 8.2827270270416115e-02
      2.1170073169619680e-01 -5.8267425905846459e-01
      8.6741227234559426e-01 -1.5327314421486093e+00
      9.3788183048531162e-02 5.9748741784955829e-04
      6.3796307682673793e-03 7.7710181844929853e-03
      3.3334754547160041e-02 6.0761278099544080e-03
      3.0602306576157545e-02 2.0815220890539228e-02
      3.3539840131374975e-02 -1.5290758808489058e-02
      -1.2879055409745023e-02 5.3745290229296486e-02
      -1.7209766917302964e-02 1.9600127329704925e-02
      -1.4389799475410263e-03 -1.3096071367363188e-02
      2.3913555401605089e-02 -4.2158854872356176e-02
      -4.2358378960608532e-03 -1.3575120723980632e-02
      -4.1829029764773408e-02 1.6592570700166530e-03
      9.0287336340693428e-03 2.9965497349010001e-03
      -2.5654666782283838e-02 8.1367734059127842e-03
      1.8251907585171222e-02 4.1213952700291094e-02
      -1.7461651607073757e-02 4.7440611684384390e-02
      4.2542165790781872e-03 2.0632857584192189e-02
      2.3411609229849105e-02 -1.8227081380230371e-02
      -2.3178938481560295e-02 -3.2529402024747321e-02
      -3.8469831684196459e-02 2.2172635698754162e-02
      -1.8419870420544014e-02 -1.3325298434021124e-02
      -1.1377902655104638e-02 2.0867654156428116e-02
      -2.7515614275627591e-02 1.4553859594438719e-02
      2.9166736074504197e-02 1.8150239284297567e-03
      -8.3784895833702803e-03 -2.1445214159455279e-02
      -1.5606178071298656e-02 5.5132531827640489e-02
      3.5446163849737554e-02 1.7491836861133044e-02
      6.3875093955611884e-03 3.9720114834975866e-04
      2.8906254884600018e-02 -2.4710372959042909e-02
      -1.4672745728630280e-02 1.9140102703178091e-02
      -2.4344169125059368e-02 -4.2581532225230673e-02
      -2.5371005231133496e-02 2.0888833115980193e-02
      -3.4169128733979749e-03 -2.3250301693223813e-03
      -9.3241047239799174e-03 3.4199521933165160e-02
      2.1045550055680148e-02 3.3382375988782860e-02
      -1.6968480792073203e-02 -3.0783695470615369e-02
      3.5092527906241601e-02 2.4328973580548609e-02
      -3.0561546194882123e-02 -2.7278796451048228e-02
      -3.8691266109788500e-02 -2.0102225676270489e-02
      1.7347082868742078e-02 2.3521730355212649e-02
      2.5632890727168511e-02 -2.0175422102860555e-02
      -4.9157077099905841e-02 -3.5539119784120700e-02
      2.1919893211305292e-02 -2.2906737388972663e-02
      -3.2643017554018820e-02 -2.1966346642633718e-02
      -1.4590992163614520e-02 7.5161019420422297e-03
      -3.3860356013358371e-02 6.2235937513500490e-02
      -7.6035313680047260e-04 1.2423376986835106e-03
      7.6251137408587795e-04 2.9394810004087292e-04
      4.8869370487047525e-04 3.1021743298987833e-04
      9.0108927463945147e-05 3.5705120005367268e-04
      -6.0640461242952230e-04 7.3611985930248163e-04
      1.0539108068928461e-03 3.4095676021792193e-05
      -7.6783574971580986e-04 -4.8080893070013105e-04
      -5.7298411061323267e-04 -2.0711075823428890e-04
      5.5317928938988412e-04 8.6010690534852458e-04
      5.7159102401980089e-04 4.6135201690558256e-04
      6.7834354863076114e-04 8.7398661951449026e-04
      -2.4876462869437754e-04 3.4867702577099827e-04
      2.3448930161916673e-04 -1.0468900808317898e-03
      -1.2105845401816952e-03 1.1869728879250617e-03
      -6.8986153639008280e-04 1.0264899861916518e-03
      1.2678251042884069e-03 -8.2437576881424298e-04
      3.3421837789659422e-05 -8.7051652587441118e-04
      7.0736687415311563e-04 -7.3331595173884172e-04
      9.5596302948152713e-04 3.3221180200343692e-04
      -1.5356012931892144e-04 -1.1863928231456893e-03
      -8.1028900514881470e-04 -9.9754788170143137e-04
      3.2045658957058782e-05 -6.0525088437832903e-04
      5.8205132459302703e-04 -5.9699031816029860e-04
      -1.0916694531148590e-03 8.0787697551091089e-04
      4.8163779496079395e-04 9.1999480956420386e-05
      -4.7555793329363534e-04 -1.0096934530374950e-03
      -1.0532361898440946e-04 1.2387575983988496e-03
      2.2755070988756553e-04 1.1881245257131818e-03
      -5.5939733788616729e-04 8.7378491395347676e-04
      -8.9256119519812749e-05 -1.2084903423659639e-03
      -5.1306197265200677e-04 -2.2606417628729254e-04
      9.9146840718936850e-04 -1.7947160579013800e-04
      -1.0589295472554006e-03 -5.9060300187544358e-04
      7.6982753831138858e-04 -5.0927226131718996e-04
      5.2565806588766254e-04 1.0366880171053415e-03
      -1.1074008600323948e-03 -8.8616945709512663e-04
      6.8572177554429418e-04 -5.6479049221199416e-04
      3.4417520185507790e-04 9.9708927971837110e-05
      6.0977086699526913e-04 1.0695309704728917e-03
      1.0168201183738304e-03 -2.5535571710533044e-04
      -9.1185812679918886e-04 -4.5122854142380853e-04
      2.9337379473160326e-04 1.2061525311167440e-04
      -1.6576135785782887e-04 3.5666388469282216e-04
      -4.4018267434189489e-04 -4.2392597858868802e-04
      -6.5468434188769534e-04 8.1827672653400911e-04
      -2.1856621283283237e-01 -2.4181510037630653e-03
      3.1532369226975046e-03 9.7467720842148175e-04
      -3.8599213086249959e-02 -7.1782906174218388e-03
      -3.3338494501948333e-02 -1.8495260622884480e-02
      -3.8544443710118281e-02 -3.4576477874716485e-03
      3.0805251397069259e-03 -3.6887818122353325e-02
      2.2637760266127439e-02 -2.5189483966741640e-02
      2.0784046620832372e-02 3.4310589517602724e-03
      -2.4166501955500009e-02 1.2513324799696177e-02
      2.4230333592902879e-02 -7.4909835692038356e-04
      1.4287540578653926e-02 -3.2572520995762673e-03
      3.2511284656457778e-03 -2.4181149070176131e-02
      2.0014348537155686e-02 -1.5075145297695228e-02
      -1.7885541148106629e-02 -1.4298243895384028e-02
      2.0983932457533057e-02 -4.4449229250309051e-02
      9.2427216587320088e-04 -5.2504108456354698e-02
      -7.2243965648034272e-03 1.8083409193863025e-02
      2.3256214367567373e-02 2.4716294815527822e-02
      4.3957584869681807e-02 -4.4311417820618641e-02
      7.0350353601434639e-03 2.8045864342741582e-02
      -1.8103277228276292e-03 3.4184950156221625e-03
      2.2243891071321676e-02 -2.6641827591781957e-02
      4.4957458354791214e-03 -7.6350244957883893e-03
      5.6765280729174795e-03 2.3569625933184787e-02
      6.2713807703529065e-03 -4.7432833415795544e-02
      -2.7291725284366585e-02 -2.2222718072999567e-02
      1.2481243148822398e-03 2.5839369935617951e-04
      -1.9760617112397363e-02 1.9885832194154990e-02
      -3.5582029645695595e-03 -2.5305557280913243e-02
      2.2405571818246459e-02 1.2666790674915239e-02
      2.2053345936300612e-02 -3.1044026667937159e-02
      1.5439578858949482e-02 2.0176367505456688e-03
      2.6215504800960687e-02 -5.7459296520808195e-02
      -1.9147728042910001e-02 -2.7038476477173196e-02
      2.2825287484725662e-02 3.2111068515881913e-02
      -1.4760979779386245e-02 -2.5385108974771066e-02
      1.4326936233786272e-02 3.2764084272236635e-02
      3.9462224289716255e-02 1.4245616509521303e-02
      -1.7308587415311275e-02 -2.0184440533347645e-02
      -5.0469080469645412e-02 3.0714815776471949e-02
      4.2540653283913384e-02 3.2297035997290190e-02
      -4.9090119006270111e-02 2.0921467919084068e-02
      2.0837146592571035e-02 2.4437355068784843e-02
      2.4888029131525904e-02 -2.5378068770458170e-02
      4.3888494410079255e-02 -4.7947682421840991e-02
      -9.9245880011607016e-02 3.6937006186560990e-02
      -3.3232716470693383e-02 1.5346249340591173e-02
      -1.3151903625652944e-02 1.0305732757550630e-02
      -1.2716329550922669e-02 3.3554838241292174e-03
      -1.0698517292946637e-02 1.8894340981616027e-02
      1.6509164087864344e-02 -1.2147168240254384e-03
      9.0488377090102486e-03 -5.3706754002273227e-03
      3.6546798223483577e-02 1.1113054514529305e-02
      -3.4504467056721824e-03 -1.0303826587667445e-03
      2.5114722399615392e-02 6.5218552769821490e-03
      2.3290814023860318e-03 2.9294116984012200e-02
      7.5923154945162280e-03 -2.7975041431335706e-02
      4.3490545783085527e-03 5.5019183834604843e-02
      -4.5954101117978055e-02 -4.3374803456106481e-03
      -6.0164700526964279e-02 -1.9312388014893474e-03
      5.3692221832708768e-02 -1.3071368223881701e-02
      -1.6026457745266661e-03 -5.9730854872062568e-02
      7.4696344128554349e-03 -4.9146938373803011e-02
      1.6109695661784620e-02 -1.1532610814579821e-02
      2.3485246375221910e-02 2.4991949219717809e-02
      -9.5069767136897083e-03 1.5211936996179672e-04
      3.8822857447900545e-02 -2.0587456613302305e-02
      -1.2097927219215379e-03 -4.4826991303192846e-03
      -1.3432192929254648e-02 8.6508850333882501e-04
      3.4702642812589113e-02 -4.3025675716037957e-03
      -1.1103905806768757e-02 -5.5593893408832154e-03
      1.1196240844039175e-02 -2.1080914169311578e-02
      4.0428206038492391e-02 2.7540406471622332e-03
      -9.0109847441844030e-03 -4.0027359445701698e-03
      1.3240416857758720e-02 4.6206810194310386e-04
      8.3131091123511637e-05 -1.8066662544484573e-02
      -2.6713392000001234e-02 -2.5001136475684563e-03
      2.7268436472192358e-02 -1.1215676236958851e-02
      5.2822383365612770e-03 -1.7055839034425506e-04
      1.7386080498383631e-02 1.2502673211770093e-02
      -6.6672119378192035e-03 -1.5150177395000426e-02
      3.7142950006207082e-03 1.2755150218508015e-02
      6.0995714158116280e-03 -5.9445017805048662e-02
      3.7828224013314246e-03 -4.7955435332582251e-03
      -1.5378385966899111e-02 1.6585274957594872e-02
      2.0134158146710105e-03 1.9055825814562300e-03
      -1.4566616167124158e-02 -2.1947941925376997e-03
      -3.6775069128266322e-02 3.2417507253803741e-03
      1.7239907697609358e-02 -3.8619594689602535e-02
      5.2509556166417358e-03 -2.6883058236258457e-03
      -1.8420904048646150e-01 -3.8546397950897329e-02
      3.4118996443226211e-02 -3.0929494561667728e-02
      -2.8942551227792702e-02 -5.3143862262594897e-02
      -3.1892118321167263e-02 -3.2960234790792145e-02
      -4.0449716194359754e-02 -2.6856163195866551e-02
      8.4116550568953392e-04 -1.3463769605928743e-02
      3.8324886653318874e-02 -4.5159299987206927e-02
      2.5557834316793839e-02 1.7803129171315861e-04
      -3.7453162441185503e-02 1.0106969069514918e-02
      5.5279073150893858e-02 -3.2857267679226691e-02
      1.6158424809545765e-02 2.6923762467328062e-02
      1.4901849971463967e-02 -5.7545400499178910e-02
      4.1725599051279864e-02 -3.7164929999708524e-02
      -1.4240388171704373e-02 -1.4794832316539859e-02
      1.3559385777396909e-02 -2.0723302637797151e-02
      -7.6401013212869977e-03 -4.2510756569909082e-02
      -7.2479319396422659e-03 1.4932143985229301e-02
      4.6681707830214622e-02 5.1413463465338136e-02
      2.7685555277474020e-02 -3.6753657552307105e-02
      4.5979158099534578e-03 5.1502978218699674e-02
      -7.4184695696598692e-04 7.6516732770792696e-03
      3.7088504495811442e-02 -4.5317728581531935e-02
      1.5462766002244169e-02 -4.7084066779031986e-02
      4.8948214801884250e-02 4.4768793693580868e-02
      1.8157382326682424e-02 -2.8886376491640452e-02
      -3.0511940694037388e-02 -4.6853739624922848e-02
      1.2484669598333338e-03 -2.8092769014200807e-02
      -4.3858744897925267e-02 3.9001509630618041e-02
      3.0054629697144980e-02 -4.9673161352840139e-02
      4.6848378371609038e-02 1.2302217997207257e-02
      3.4592182550217919e-02 -3.6821019094798679e-02
      1.7447242286239225e-02 1.0188796940568380e-02
      5.7299046421573935e-02 -2.8149099415273528e-02
      -3.0721582392833298e-02 -3.5998615207308092e-02
      3.8141598200194089e-02 3.1114941133539326e-02
      -1.1618881958666189e-02 -3.7320065041052466e-02
      2.5869879654991813e-02 3.2154097875183293e-02
      4.6619955889306071e-02 1.4462214210334742e-02
      -3.0565618165506982e-02 -4.3737772200511157e-02
      -4.4743298020910205e-02 3.6661636232851139e-02
      1.9276302986586717e-02 3.8778558453083763e-02
      -4.1757332391310367e-02 3.2765055726326313e-02
      6.4571054016403506e-02 4.2235122417671370e-02
      4.3569383678847953e-02 -4.8052658962273842e-02
      2.7465347388137523e-02 -2.9055238533998339e-02
      -7.5023670883617874e-02 -6.2379225504014493e-02
      6.0820566341464946e-02 2.6611106097223228e-02
      5.7955947102019512e-02 -4.7422431825692515e-02
      5.8256796777626449e-02 1.5524196337955532e-02
      3.8741933087028745e-02 -5.6037662987724196e-02
      -1.1737645560321504e-02 9.2983953803934372e-02
      -6.3235956425641837e-03 1.5713035562025853e-02
      -3.5301648898989416e-03 -1.5765971908286644e-02
      1.9543235886867166e-02 -7.8894673826184161e-02
      4.6941637126609566e-03 -4.2257977889837157e-02
      -7.6819424248378135e-02 -1.3253018715431287e-02
      2.7366903078844936e-02 -5.6159994485597631e-03
      -4.1402845932689468e-02 -1.7230772536243350e-02
      1.5013990614477987e-02 7.9282180006500169e-02
      1.7589976671990658e-02 8.5623067441075992e-02
      -1.4923065568382576e-02 5.7441025787916121e-02
      3.1858790670466069e-02 2.2443787529060413e-02
      -3.6586221315432307e-02 -1.7265358540137041e-02
      -6.6518712665811802e-02 5.6821606163041972e-02
      -1.9022782768636736e-02 2.8120428417847286e-03
      -3.7257409103848985e-03 3.7695856415032619e-02
      -2.1423975260440799e-02 -5.8074664774742399e-04
      5.7009394148367101e-02 1.2151628635614399e-02
      4.7703283916676026e-02 -2.6927605227078658e-02
      -1.5421099429462105e-02 9.0705704003544080e-02
      6.0550483476586474e-02 1.4149882866865336e-02
      7.4065071919610058e-03 -4.6770735150830273e-02
      4.5540112701988392e-02 -4.0395939769655852e-02
      -6.9231497265751516e-03 1.8699791074768816e-02
      -4.1403171185975175e-02 -7.5937320662970820e-02
      -3.4393995657884355e-02 5.0058071490565827e-02
      4.2120908921088544e-02 2.0637693414277909e-02
      4.8051017946508538e-03 7.1529216897138148e-02
      2.2528649244645319e-02 4.5976682483486395e-02
      -4.1947031755982120e-02 -5.5813730888142107e-02
      5.8436869020935360e-02 4.5810615784824767e-02
      -5.5811800131764074e-02 -5.7098771892709350e-02
      -5.1635671497796597e-02 2.2912914562673772e-02
      8.8491425320060546e-03 4.3058771526416142e-02
      5.0320837842901256e-02 -4.8593883324813132e-02
      -8.8270500784319653e-02 -4.8514475233496779e-02
      5.0381767480390270e-02 -1.9062361317420704e-02
      -1.1476477102116604e-02 -1.8039124578405480e-02
      -2.0876101872208488e-03 -4.4307112396617995e-03
      -6.9411219362703155e-02 9.5994549568909807e-02
      4.6702834933035599e-02 7.4294855102389331e-03
      -7.3027659132835253e-03 -5.6159389241073575e-03
      1.1093506660432524e-02 2.5864378198279837e-02
      2.2745276930597347e-02 1.3909102631989636e-02
      4.5549106585778321e-02 1.4342857167318188e-02
      3.4139588376877125e-02 2.4164405755152985e-02
      -4.3533619569856331e-03 1.8086374927088859e-02
      5.6037238635950684e-02 3.0004720392311890e-02
      1.5471996049197880e-02 -8.5373073073519191e-03
      8.7292433965979761e-03 2.4948286724717952e-02
      -1.5300213844290084e-02 3.0651026754240945e-02
      -1.1656030048637201e-02 -1.5176127412830930e-02
      -1.5915781966107764e-03 1.1126159522073191e-01
      -6.4605437634607368e-02 1.4255326348090926e-02
      -8.9487438438924941e-02 2.6965201715015836e-02
      7.3726162662571551e-02 9.0694725858070244e-02
      -1.7924197681297487e-02 -9.2363652975847199e-02
      -1.8880677747962114e-02 -5.1471662688900369e-02
      -6.7049570086460963e-04 7.4875114816518193e-02
      3.6729779677407329e-02 8.2795515101991533e-03
      2.0657894697111566e-02 -2.4389140575637520e-02
      -5.7257094045190061e-02 -3.1196252551168313e-03
      -2.5852030008356255e-02 -6.0961700811676565e-03
      -2.2317371671093253e-02 -1.6626868402865241e-02
      -6.5886008475713340e-02 3.3896647234012339e-02
      1.0144038822936336e-02 1.7924596557778154e-02
      -3.4888488639854033e-02 -1.6623180391155099e-02
      3.8195511586825645e-02 2.8086688968186673e-03
      1.3166844122893918e-02 2.1467016783832220e-02
      -1.9604398830418909e-02 -1.2652997082373333e-02
      -3.3153501456135909e-02 6.1356017514299727e-02
      -5.0068472273012248e-02 -3.9930202006738934e-02
      9.2998379425402559e-03 4.3473306478791877e-02
      2.2464856139978173e-02 4.6567869278389212e-02
      -2.6695688595102997e-02 -8.5115007581661340e-03
      -1.2013073441444040e-02 8.0755122267272706e-03
      -4.2978826086039297e-03 -3.1538198015696038e-02
      -5.7580825256566090e-02 -9.5552027100455808e-02
      1.5161818117693406e-02 1.6083036935577180e-02
      7.6921785187741842e-02 -5.5307186070877506e-02
      -2.7724523505198960e-02 -4.9011317916513510e-02
      7.5970141101237287e-02 -1.6892591999073399e-02
      -3.1629554796020296e-02 -1.9402899009411424e-02
      1.2914808216635926e-03 -2.6429734024017715e-02
      -4.0211881530202852e-02 3.5999195041333039e-02
      1.4394176043633630e-02 -3.7753627893138096e-02
      3.9774499277019836e-02 1.8402507450914735e-02
      7.2692315722603443e-02 3.1057058913577115e-02
      7.4120781087697124e-02 2.5524677781597706e-02
      5.3032432591916860e-02 -3.8822100801780383e-02
      -1.1697046125626965e-02 1.1134532919604040e-01
      -2.2065467347752082e-02 3.3130908340467974e-02
      -9.7915416812535735e-03 -1.4268452257618016e-02
      3.2134747277965080e-02 -7.4362598043322778e-02
      -1.0453974421181369e-02 -2.6214589913132001e-02
      -7.3581857324945196e-02 -2.3082026254808281e-02
      1.0049138051960033e-02 1.0894197261141773e-02
      -4.4157951665233529e-02 5.5164328180848536e-02
      2.1500027686044233e-02 7.3748958584720206e-02
      -5.0171682369584990e-02 1.0685592009064876e-01
      -1.8041638752733343e-02 8.0761110712021730e-02
      3.0066756953162910e-02 -5.5583339440683471e-02
      -4.0643620340588875e-02 -3.7231162417994262e-02
      -7.8926813083478195e-02 7.6386965572566703e-02
      -1.9434179055583159e-02 -1.2617511109428322e-02
      -8.7528188412815001e-03 3.0816038716441146e-02
      -3.5244926465649251e-02 1.4596024265219760e-02
      4.2281502296545093e-02 2.0198421470144178e-02
      2.4397166445486083e-02 -3.1468711347215399e-02
      -1.3918311702025281e-02 1.1703162683486314e-01
      6.7405123711433618e-02 2.9612620335783275e-02
      1.5298354933911852e-02 2.5394322930332901e-02
      3.6010530551783326e-02 -4.2267807250664313e-02
      -2.5523524994639977e-02 3.5192983972194412e-02
      -4.0637139859798013e-02 -6.9862189990893678e-02
      -4.1299996469920872e-02 6.8848333476591639e-02
      3.4930604044269099e-02 1.2226286549741653e-02
      -1.0441155765700507e-02 9.7460542724912905e-02
