<?xml version="1.0"?>
<opencv_storage>
<my_svm type_id="opencv-ml-svm">
  <svm_type>C_SVC</svm_type>
  <kernel><type>LINEAR</type></kernel>
  <C>1.0000000000000001e-01</C>
  <term_criteria><epsilon>1.0000000474974513e-03</epsilon>
    <iterations>1000000</iterations></term_criteria>
  <var_all>1558</var_all>
  <var_count>1558</var_count>
  <class_count>2</class_count>
  <class_labels type_id="opencv-matrix">
    <rows>1</rows>
    <cols>2</cols>
    <dt>i</dt>
    <data>
      0 1</data></class_labels>
  <class_weights type_id="opencv-matrix">
    <rows>1</rows>
    <cols>2</cols>
    <dt>d</dt>
    <data>
      8.3999997377395635e-02 1.5999999642372132e-02</data></class_weights>
  <sv_total>1</sv_total>
  <support_vectors>
    <_>
      8.82333815e-02 -7.21607134e-02 4.65140603e-02 5.47644347e-02
      -1.11977756e-17 0. 1.43443339e-03 1.91327802e-17 3.05496459e-03
      -4.69132094e-03 1.44447666e-04 -2.36970955e-03 2.30054148e-17 0.
      -2.36970955e-03 3.05496459e-03 4.48165132e-18 -5.58702932e-18
      3.21222935e-03 3.08997619e-18 -4.41800524e-03 1.43317975e-17
      4.45373356e-03 8.24429002e-03 1.38337421e-17 1.00763039e-17 0.
      4.61517018e-04 1.25631927e-17 -1.24005623e-18 2.46323505e-03
      2.75706081e-03 1.10409353e-02 0. 6.42025901e-04 -1.05709712e-17
      -3.65933101e-03 -3.01204916e-18 0. -7.07441918e-18 9.16970521e-03
      -1.69067776e-18 1.27098418e-03 0. 7.99090882e-18 0. 7.99090882e-18
      6.37646403e-18 2.22769665e-18 -5.78570319e-03 3.40541126e-17 0.
      6.08164351e-04 0. 9.75737628e-03 1.88041314e-18 -7.10694524e-17
      2.37846852e-17 -7.20994445e-18 -3.49895237e-03 -1.68644260e-18 0.
      0. -1.14417211e-17 3.30259296e-04 -1.49857069e-17 1.69542115e-17
      9.45461448e-03 0. -2.36970955e-03 -1.02118049e-02 4.73357359e-04
      9.16970521e-03 -2.36085023e-17 9.69717372e-03 1.49777364e-02
      -2.45639555e-20 0. 0. 0. 3.40541126e-17 0. 0. 2.65290719e-18
      2.67899581e-17 4.56415233e-17 -7.20994445e-18 7.99090882e-18
      2.38863291e-17 5.39347238e-04 -1.24005623e-18 -5.29533923e-02 0.
      4.59686911e-04 1.33312904e-04 -2.12846287e-02 1.15907989e-17
      4.59686911e-04 -5.14996032e-18 4.61517018e-04 1.24276674e-17
      9.69683318e-18 2.84941883e-18 1.40541075e-02 -7.61274025e-02
      -7.10694524e-17 -7.67111685e-03 4.73357359e-04 1.68983073e-17
      3.01644061e-04 -1.65442475e-17 0. 6.31660083e-03 -1.68271072e-03
      9.69683318e-18 0. 0. 4.61517018e-04 6.45882159e-04 4.73357359e-04
      -2.99780071e-02 0. 5.39347238e-04 1.20007628e-17 3.05496459e-03 0.
      -8.45338881e-18 -1.68644260e-18 3.48028897e-17 0. -8.93789166e-18
      2.37846852e-17 1.76657191e-17 6.42025901e-04 1.43317975e-17
      -1.05709712e-17 2.30050460e-03 -1.68644260e-18 3.48028897e-17
      -1.97539963e-02 3.15096256e-19 1.30917412e-17 -8.45338881e-18
      5.39347238e-04 8.24429002e-03 -6.00560233e-02 0. 7.38612730e-18
      1.04049527e-17 4.80206618e-05 1.00763039e-17 6.31660083e-03
      1.30544718e-17 -2.36085023e-17 1.69542115e-17 -1.01229073e-02
      7.87401828e-18 -1.08386336e-17 -1.02118049e-02 -4.28768078e-18
      2.22769665e-18 0. 0. 1.15907989e-17 0. 4.41642979e-18
      -4.31647990e-18 -5.29470155e-03 1.33312904e-04 -1.69067776e-18 0.
      8.78193974e-03 2.09047731e-17 1.64147047e-03 -4.86366318e-18
      1.36202898e-18 2.07116496e-17 3.50671640e-18 6.08164351e-04 0.
      -9.13841929e-03 -4.83815465e-03 7.99090882e-18 0. 0. 0.
      -7.34942593e-03 -2.06558760e-02 -7.56569828e-18 -1.01229073e-02
      -5.29470155e-03 1.33316172e-02 4.68051154e-03 -8.28059409e-18 0.
      6.45988330e-04 -1.24005623e-18 2.07116496e-17 3.15096256e-19
      6.92336308e-03 3.21222935e-03 3.41424234e-02 6.71602413e-02 0.
      1.06387338e-18 1.59038906e-17 0. 0. 1.06387338e-18 1.30544718e-17
      4.61517018e-04 1.40541075e-02 2.62410807e-17 1.52160999e-17
      3.08997619e-18 1.20007628e-17 2.37846852e-17 6.74495008e-03
      6.31660083e-03 0. -1.08386336e-17 4.20045224e-04 1.04049527e-17
      -3.01204916e-18 -1.49857069e-17 2.37846852e-17 2.93899328e-03
      -4.31647990e-18 1.25308963e-03 1.76657191e-17 6.74495008e-03
      -2.25411169e-02 -1.68644260e-18 6.31660083e-03 6.42025901e-04
      1.17165238e-01 3.21222935e-03 1.65290009e-17 1.76657191e-17
      1.10978257e-17 1.33316172e-02 2.81847827e-03 0. 5.69932105e-04 0.
      3.08776274e-03 1.14936028e-02 8.78193974e-03 -4.83815465e-03 0.
      -7.20994445e-18 -4.77767885e-02 3.33067332e-03 1.20278679e-18
      -1.69067776e-18 0. 7.38612730e-18 1.06387338e-18 -5.14996032e-18
      4.41642979e-18 2.07116496e-17 0. 1.04232214e-03 4.61517018e-04
      5.09710546e-17 6.93703862e-03 0. -1.01229073e-02 -1.01229073e-02
      -2.12846287e-02 -1.49857069e-17 1.20007628e-17 1.30578599e-17
      -9.57655450e-18 4.68051154e-03 1.27098418e-03 4.41642979e-18 0.
      -1.42116370e-02 0. 0. -1.47044920e-17 6.45882159e-04 0.
      5.26608946e-03 -5.10591461e-18 -4.27921045e-18 -1.02118049e-02
      -4.31647990e-18 0. -2.65059411e-03 7.38273917e-18 8.46735202e-04
      -3.49895237e-03 -7.20994445e-18 3.98724107e-03 1.33312904e-04
      -7.49895116e-03 0. 6.31660083e-03 1.50941271e-17 1.66187864e-17
      4.80206618e-05 6.31660083e-03 -2.36970955e-03 2.58853269e-18
      2.07116496e-17 0. 0. -7.56569828e-18 -5.78570319e-03
      9.16970521e-03 -1.49857069e-17 0. 0. -7.20994445e-18
      2.22769665e-18 -1.23927973e-01 2.41912610e-18 -7.10694524e-17
      3.15096256e-19 2.56617102e-17 1.52160999e-17 1.52160999e-17
      5.55681251e-03 4.20045224e-04 -1.69067776e-18 0. 3.15096256e-19
      -1.02118049e-02 -1.71761471e-03 1.43443339e-03 -3.01204916e-18
      -3.01204916e-18 1.04232214e-03 0. 2.09047731e-17 3.45589442e-18
      6.45988330e-04 -1.69067776e-18 1.03099342e-03 -1.49857069e-17
      4.48165132e-18 6.60685699e-18 1.27500214e-03 0. -1.52621388e-01
      2.81847827e-03 1.87194281e-18 1.68983073e-17 -5.78570319e-03
      -4.60665300e-02 1.91327802e-17 0. 2.22778996e-03 -3.65933101e-03
      -2.97475560e-03 -8.20554979e-03 8.46735202e-04 2.09047731e-17
      8.26704157e-19 -7.10694524e-17 7.52565684e-03 -7.20994445e-18
      1.91327802e-17 3.51072033e-03 7.08497781e-03 -5.78570319e-03 0.
      -6.81986334e-03 -3.06792594e-02 -7.10694524e-17 0. 0.
      4.08244226e-03 -1.53245201e-17 4.61517018e-04 7.57611403e-03
      -1.57615891e-17 5.10004349e-03 -1.53550133e-17 -1.92183629e-02 0.
      -1.69067776e-18 3.08776274e-03 2.38863291e-17 -3.72461625e-03 0.
      0. 2.84941883e-18 0. -3.36187556e-02 1.20505001e-02 1.83941675e-17
      -9.57655450e-18 1.37078794e-04 7.38273917e-18 1.29664713e-03
      -1.57505721e-02 6.80346042e-03 1.38337421e-17 -1.68644260e-18
      2.67899581e-17 -8.99548990e-18 1.33312904e-04 -5.78570319e-03
      -4.95006054e-18 1.00627514e-17 4.61517018e-04 -1.05709712e-17
      -1.68644260e-18 6.45988330e-04 3.15096256e-19 0. 0. 7.38612730e-18
      3.05496459e-03 -5.63255325e-02 -7.21135223e-03 -1.69067776e-18
      4.12710104e-03 0. 1.37078794e-04 -4.28768078e-18 0. 8.26704157e-19
      1.36202898e-18 -1.01229073e-02 2.57161446e-03 3.82388185e-04
      -1.01229073e-02 2.22778996e-03 -1.01229073e-02 -1.11977756e-17
      -7.10694524e-17 -2.07542591e-02 -1.68644260e-18 2.07116496e-17 0.
      9.69683318e-18 -1.01229073e-02 3.85611987e-04 5.39347238e-04
      -7.56569828e-18 1.37078794e-04 -1.49213324e-17 1.69542115e-17 0.
      3.01644061e-04 3.50671640e-18 1.74725956e-17 0. -1.53550133e-17
      4.08244226e-03 0. 3.30259296e-04 2.58853269e-18 -2.07854714e-02
      5.39347238e-04 4.41642979e-18 0. 0. 0. 5.08658064e-04
      -1.53550133e-17 1.00763039e-17 0. 0. 3.05496459e-03 0.
      -6.02002861e-03 8.24429002e-03 9.18183715e-19 3.38304959e-18
      -4.28768078e-18 3.93023288e-19 1.25970740e-17 -1.12214925e-17
      -5.26169650e-02 1.33316172e-02 1.69542115e-17 2.16366096e-17
      -3.65933101e-03 0. 1.68983073e-17 7.72494048e-18 0. 0.
      -4.28768078e-18 -1.01643954e-19 3.93023288e-19 -1.68644260e-18
      1.68983073e-17 4.61517018e-04 0. 5.17706537e-18 2.15817872e-03
      1.87194281e-18 0. 5.05970232e-02 -1.59987583e-17 4.61517018e-04
      1.29664713e-03 0. 0. -1.53550133e-17 -9.93400241e-18
      -1.53550133e-17 -7.24923462e-02 1.35694678e-18 -1.68644260e-18
      -1.83582399e-03 9.69683318e-18 3.40541126e-17 1.52160999e-17 0.
      3.93023288e-19 6.08164351e-04 9.18183715e-19 1.37078794e-04
      -3.29360692e-03 -7.10694524e-17 -7.56569828e-18 2.53940478e-17
      3.05496459e-03 -7.34947901e-03 1.10978257e-17 0. -1.01229073e-02
      2.48352233e-02 -7.10694524e-17 0. 0. 9.18183715e-19 2.15817872e-03
      2.15817872e-03 1.29664713e-03 1.33312904e-04 6.45988330e-04 0.
      2.09047731e-17 3.33067332e-03 -1.87262044e-17 0. 3.01644061e-04
      -1.13633536e-01 1.40541075e-02 -1.68644260e-18 3.39928386e-03 0.
      6.45988330e-04 1.80670172e-02 0. -2.36085023e-17 6.80107274e-04
      4.45373356e-03 2.09047731e-17 -4.28768078e-18 1.91361683e-17
      1.52160999e-17 1.35694678e-18 1.29664713e-03 0. -7.20994445e-18
      5.84113920e-18 0. 2.12097050e-17 0. 0. 0. 2.22778996e-03
      3.40541126e-17 -3.49895237e-03 3.66549939e-03 0. 2.91921435e-17
      -1.12214925e-17 0. 0. 1.27098418e-03 2.55246251e-03 0.
      2.26022272e-17 -1.01643954e-19 -1.30714124e-17 3.50671640e-18
      -1.12214925e-17 5.17706537e-18 1.87194281e-18 6.92336308e-03 0.
      1.27098418e-03 6.08164351e-04 7.99090882e-18 5.08658064e-04 0. 0.
      1.69542115e-17 1.68983073e-17 1.87194281e-18 1.76657191e-17 0.
      2.31224555e-03 1.69542115e-17 -2.36085023e-17 2.22769665e-18 0.
      5.08658064e-04 5.28887372e-18 -1.84246607e-17 2.91921435e-17
      2.53940478e-17 -7.20994445e-18 -7.56569828e-18 2.15817872e-03
      2.22769665e-18 7.72494048e-18 -1.59987583e-17 1.43443339e-03
      6.74495008e-03 4.08244226e-03 9.75737628e-03 5.11607900e-19
      -1.69067776e-18 1.45012041e-18 -3.49017559e-03 2.58853269e-18
      -2.13953350e-02 3.93023288e-19 0. -7.10694524e-17 0. 0.
      5.08658064e-04 2.15817872e-03 -1.01643954e-19 2.33329106e-02
      6.72205347e-18 -2.14672030e-17 1.25631927e-17 3.15096256e-19
      -1.68644260e-18 1.21367304e-03 -4.08872822e-03 1.29664713e-03
      -1.59987583e-17 3.11166024e-17 1.45012041e-18 6.42025901e-04
      1.86228664e-17 9.45461448e-03 -7.10694524e-17 3.03819287e-03 0.
      4.45373356e-03 -8.47032947e-19 6.76948731e-18 1.91361683e-17
      -3.36187556e-02 -4.28768078e-18 2.15817872e-03 -1.80527437e-02
      4.20045224e-04 -5.29533923e-02 7.37935104e-18 9.69683318e-18
      -3.49895237e-03 0. 1.69542115e-17 2.91921435e-17 -4.30292737e-18
      9.69683318e-18 -1.43995601e-20 5.17706537e-18 0. 1.68983073e-17
      4.50536958e-04 9.69683318e-18 7.72494048e-18 -9.93400241e-18
      6.45988330e-04 1.35694678e-18 2.55465137e-18 9.18183715e-19
      -1.01643954e-19 2.37372513e-17 0. 7.38273917e-18 -1.12214925e-17
      6.71602413e-02 3.21222935e-03 2.57161446e-03 0. 3.50671640e-18
      -2.31017140e-04 1.91327802e-17 2.12097050e-17 -1.30714124e-17
      1.37078794e-04 1.52160999e-17 6.42025901e-04 2.87233759e-03
      -1.53550133e-17 -1.01229073e-02 -4.83815465e-03 0. 1.43443339e-03
      1.40541075e-02 7.99090882e-18 -1.87262044e-17 -1.68644260e-18
      -1.87262044e-17 3.01644061e-04 1.87194281e-18 0. 6.45988330e-04
      -1.65442475e-17 2.48352233e-02 0. 1.33316172e-02 -1.12214925e-17
      -1.09978758e-17 5.08658064e-04 -1.83582399e-03 -1.05709712e-17
      6.42025901e-04 4.20045224e-04 1.25631927e-17 2.16366096e-17
      9.18183715e-19 2.15817872e-03 -1.68644260e-18 0. 0.
      -1.09099718e-02 0. 7.37935104e-18 0. -9.91011877e-03 0.
      7.38273917e-18 1.25970740e-17 -1.01643954e-19 5.17706537e-18
      -6.98632775e-18 0. -1.01643954e-19 1.26032752e-03 0.
      2.12097050e-17 1.33312904e-04 -1.69067776e-18 1.35694678e-18
      -7.20994445e-18 0. 0. 1.30544718e-17 2.37372513e-17 2.87233759e-03
      6.42025901e-04 -3.01204916e-18 2.53940478e-17 -1.12214925e-17
      1.76657191e-17 1.45012041e-18 -2.95275685e-18 5.05970232e-02
      3.15096256e-19 -1.68644260e-18 3.93023288e-19 0. 3.08776274e-03
      -1.12214925e-17 -3.49895237e-03 -3.49895237e-03 -7.56569828e-18
      3.38304959e-18 -1.53550133e-17 -3.01204916e-18 1.37078794e-04
      1.91361683e-17 0. 0. -3.49895237e-03 0. 0. 3.01644061e-04
      9.69683318e-18 1.02502119e-04 6.45988330e-04 7.38273917e-18
      1.30544718e-17 0. 1.64147047e-03 0. 7.72494048e-18 -7.56569828e-18
      3.08776274e-03 0. 9.69683318e-18 -2.05122051e-03 -4.07253441e-18
      2.22769665e-18 -4.30292737e-18 3.01644061e-04 0. 2.55465137e-18
      -1.87254231e-02 1.76657191e-17 1.57925620e-04 1.86228664e-17
      7.38273917e-18 -1.01229073e-02 -1.12214925e-17 0. -5.83097481e-18
      5.08658064e-04 3.15096256e-19 -9.93400241e-18 -4.63653542e-02
      2.22769665e-18 2.15817872e-03 2.22778996e-03 5.28887372e-18
      4.08244226e-03 -4.83815465e-03 3.93023288e-19 -3.01204916e-18 0.
      5.17706537e-18 8.78193974e-03 1.00763039e-17 5.08658064e-04
      1.76657191e-17 1.00763039e-17 4.61517018e-04 -4.31647990e-18
      -1.05709712e-17 3.38304959e-18 2.41912610e-18 -1.12214925e-17
      1.00763039e-17 -1.53550133e-17 4.45373356e-03 2.22769665e-18
      2.16366096e-17 2.55465137e-18 0. -3.76656884e-04 -5.26169650e-02
      1.52160999e-17 2.87233759e-03 1.26032752e-03 1.68983073e-17
      1.26032752e-03 -7.56569828e-18 3.21222935e-03 5.28887372e-18
      8.78193974e-03 -4.31647990e-18 -7.39915073e-02 7.37935104e-18 0.
      -1.01229073e-02 0. -1.65442475e-17 1.00763039e-17 1.86228664e-17
      1.86228664e-17 1.76657191e-17 9.18183715e-19 5.28887372e-18
      -4.27921045e-18 -3.65933101e-03 -4.89741936e-03 0. 1.86228664e-17
      -1.68644260e-18 2.37846852e-17 2.37846852e-17 1.45012041e-18
      5.17457947e-02 1.35694678e-18 4.41642979e-18 1.76980067e-02
      1.52160999e-17 -4.28768078e-18 1.86228664e-17 4.41642979e-18
      1.35694678e-18 -5.78570319e-03 8.24429002e-03 5.69407716e-02 0.
      -1.68644260e-18 0. 4.61517018e-04 2.41912610e-18 1.00763039e-17
      -1.53550133e-17 1.69542115e-17 0. 1.52160999e-17 -1.68644260e-18
      0. 0. 2.33329106e-02 2.37846852e-17 2.48352233e-02 1.29664713e-03
      2.15817872e-03 -4.31647990e-18 2.41912610e-18 6.74495008e-03
      2.09047731e-17 -2.95275685e-18 6.42025901e-04 3.39928386e-03 0.
      6.42025901e-04 -1.30714124e-17 6.45988330e-04 0. 5.26608946e-03
      1.86228664e-17 -3.26299138e-04 5.28887372e-18 -1.01229073e-02
      1.52654806e-03 5.28887372e-18 -1.12214925e-17 2.22769665e-18
      9.69717372e-03 0. -1.05709712e-17 0. 3.15096256e-19 4.45373356e-03
      2.31224555e-03 2.58853269e-18 0. 1.29664713e-03 -6.98632775e-18
      -3.65933101e-03 -6.98632775e-18 -4.30292737e-18 1.30544718e-17
      -2.94940714e-02 -7.60616660e-02 2.12097050e-17 4.09091339e-02
      2.05185261e-17 1.91327802e-17 3.03819287e-03 1.32509834e-17
      9.18183715e-19 3.48028897e-17 0. 9.78686847e-03 1.43443339e-03
      -5.79466997e-03 1.91327802e-17 5.49885386e-04 2.07116496e-17
      2.02203705e-17 3.08997619e-18 0. -5.79466997e-03 -4.71881181e-02
      1.29341931e-18 -4.28768078e-18 4.53852722e-03 -5.44649921e-03
      -1.36169017e-17 4.63412469e-03 8.89924634e-03 -3.49895237e-03
      -7.10694524e-17 1.04232214e-03 9.56470426e-03 0. 1.53855065e-17
      9.69741587e-03 -9.26461965e-02 -1.05709712e-17 9.78686847e-03
      -3.65933101e-03 -1.95910763e-02 0. 5.70900206e-18 -2.12156237e-03
      -3.02221356e-18 1.98766664e-02 2.28902184e-17 1.06387338e-18
      1.54092234e-17 -5.68443811e-18 1.10627199e-02 -1.24214198e-02
      7.99090882e-18 7.16928687e-18 2.22769665e-18 -5.78570319e-03
      -9.71716197e-18 0. 9.75737628e-03 -7.10694524e-17 -8.70839320e-03
      -7.20994445e-18 1.34594003e-02 -1.26750010e-17 3.54822102e-18 0.
      -1.11977756e-17 -1.33181252e-02 1.31750051e-02 -8.28059409e-18
      -3.49895237e-03 7.24591920e-03 4.76907380e-03 0. 1.70934270e-03
      -7.37125240e-03 -1.68678202e-02 1.15907989e-17 -1.53550133e-17
      1.31750051e-02 -7.20994445e-18 -2.36085023e-17 4.05129744e-03
      4.05129744e-03 5.09672705e-03 5.25753350e-18 0. 0. -1.04818858e-01
      -9.71716197e-18 0. 3.08997619e-18 4.30970364e-18 -5.29470155e-03
      -1.36169017e-17 -3.49895237e-03 1.27599137e-02 7.99090882e-18
      1.15907989e-17 2.65900583e-17 -3.81926401e-03 -1.26750010e-17
      -1.53550133e-17 -3.24275228e-03 2.12097050e-17 -3.05309752e-03
      4.45539330e-18 -2.12846287e-02 -8.28059409e-18 -7.20994445e-18
      -1.49857069e-17 -1.70662906e-02 -7.82756042e-03 -2.85401847e-02 0.
      -7.10694524e-17 -2.38467962e-03 1.68983073e-17 -1.26750010e-17
      3.01644061e-04 -1.65442475e-17 0. 0. 0. 3.18484388e-18
      9.78686847e-03 -5.78570319e-03 -6.36267737e-02 -1.83582399e-03 0.
      -1.53550133e-17 3.54822102e-18 -1.49213324e-17 6.40695721e-18
      -5.95249869e-02 1.53855065e-17 -8.93789166e-18 -6.67098630e-03
      -1.05709712e-17 -1.48113770e-02 3.54822102e-18 -1.36169017e-17
      -1.75719484e-04 0. 4.43660002e-03 -3.49895237e-03 8.89924634e-03
      -4.28768078e-18 0. -1.13325706e-02 1.29341931e-18 1.30544718e-17
      -2.36085023e-17 -5.78570319e-03 8.51098705e-18 -1.55805033e-02 0.
      3.01644061e-04 2.22769665e-18 0. 0. -1.99716957e-03 8.74968804e-03
      -5.78570319e-03 1.00763039e-17 -1.05434451e-02 -7.20994445e-18 0.
      6.76948731e-18 -2.16689287e-03 1.47289451e-04 -1.99716957e-03
      3.48028897e-17 0. 9.16970521e-03 9.43933516e-18 8.80914265e-19
      -5.06186889e-18 -6.14699256e-03 -2.37169225e-19 0. -8.28059409e-18
      -4.83815465e-03 -1.53550133e-17 1.29341931e-18 7.85340741e-03
      -8.45338881e-18 -4.57397792e-19 -1.05434451e-02 3.59521434e-03
      1.88041314e-18 0. 1.33231441e-02 -1.82433035e-02 2.56617102e-17 0.
      -8.96450691e-03 6.92336308e-03 0. -5.29470155e-03 4.53852722e-03
      -1.26866788e-01 -1.05434451e-02 5.49885386e-04 0. -5.68443811e-18
      -4.96082800e-03 -3.81926401e-03 1.30544718e-17 3.18484388e-18
      -3.49895237e-03 4.74338450e-19 1.52160999e-17 1.25886037e-17
      1.20007628e-17 -1.49213324e-17 6.74495008e-03 1.45689667e-19
      -1.82433035e-02 -8.20479449e-03 -9.19503495e-02 4.97038933e-18
      -1.49857069e-17 -1.49213324e-17 -7.20994445e-18 1.64121104e-17
      6.40695721e-18 -3.65933101e-03 6.74495008e-03 4.43660002e-03
      -4.83815465e-03 -1.05434451e-02 -3.96388723e-03 -7.95872157e-18 0.
      1.53855065e-17 4.53852722e-03 -7.10694524e-17 -3.49895237e-03
      6.40695721e-18 3.48028897e-17 -5.79466997e-03 1.03099330e-03
      -1.05434451e-02 -1.53550133e-17 0. 0. -1.88273843e-02
      1.39718847e-02 0. 3.20230285e-03 -3.81926401e-03 9.16970521e-03
      -4.83815465e-03 -1.83582399e-03 0. -2.59427889e-03 1.29341931e-18
      -2.42617005e-03 4.41642979e-18 -2.45582545e-03 -1.09099699e-02
      2.12097050e-17 0. -1.27820130e-02 0. -9.14517418e-03
      1.04232214e-03 4.61517018e-04 -7.08458357e-18 -8.93789166e-18
      -3.81926401e-03 2.07116496e-17 -3.49895237e-03 5.18148160e-03 0.
      -1.05434451e-02 -1.95425823e-02 0. 4.36235598e-04 -1.01229073e-02
      -1.87144559e-02 -4.29410413e-02 -6.47193426e-03 4.59686911e-04
      -2.12846287e-02 -7.52949389e-04 -3.49895237e-03 1.29341931e-18
      3.57414022e-17 -2.02102061e-18 1.20007628e-17 4.92634362e-18
      3.66982259e-03 1.54092234e-17 0. -9.07190517e-02 0.
      -4.57397792e-19 0. -2.49136854e-02 1.91327802e-17 0.
      -4.18331139e-02 -7.20994445e-18 -2.30392962e-18 -2.49027833e-02
      -4.40768264e-02 7.38273917e-18 2.02203705e-17 -3.49895237e-03
      -1.36169017e-17 3.01644061e-04 1.45689667e-19 1.47289451e-04 0.
      -2.66171633e-17 1.58170052e-02 -8.19759909e-03 -3.49895237e-03
      1.74481727e-04 0. -8.45338881e-18 -1.49857069e-17 -2.51765307e-02
      -5.68443811e-18 2.34119907e-17 0. 1.00627514e-17 -1.32069377e-17
      2.22769665e-18 -3.32670547e-02 1.52160999e-17 1.52160999e-17
      -1.69067776e-18 0. -1.02118049e-02 -1.05434451e-02 1.43443339e-03
      0. 4.97038933e-18 -5.79466997e-03 9.43933516e-18 -7.20994445e-18
      -2.61746719e-03 -4.10980386e-18 -1.67695843e-02 -7.20994445e-18
      1.09285419e-03 -1.49857069e-17 -1.53550133e-17 -4.28768078e-18
      1.70456910e-17 3.93023288e-19 0. 4.49770596e-03 1.03099330e-03
      1.87194281e-18 1.68983073e-17 -1.65092591e-02 -8.20479449e-03
      -4.28768078e-18 -5.29470155e-03 3.48028897e-17 -3.65933101e-03
      -1.05434451e-02 9.43933516e-18 5.05970232e-02 1.12814456e-02
      -7.20994445e-18 -6.02002861e-03 -3.78833571e-03 -7.10694524e-17
      1.91327802e-17 1.29341931e-18 5.18148160e-03 -7.20994445e-18
      -5.78570319e-03 1.00763039e-17 -2.17002984e-02 -1.70662906e-02
      6.32737996e-04 4.08244226e-03 -2.54605059e-02 3.18484388e-18 0.
      -1.99460983e-02 1.88041314e-18 -1.21902032e-02 -5.19231197e-19
      -3.65933101e-03 -4.61634099e-02 1.87939670e-17 0. -1.82710327e-02
      2.28902184e-17 3.20230285e-03 -4.41324338e-03 -4.83815465e-03
      -1.09099699e-02 0. -1.49857069e-17 9.75737628e-03 8.28998722e-03
      -1.12316377e-01 -3.50385420e-02 0. 2.12097050e-17 -6.14163131e-02
      1.37078794e-04 -3.49895237e-03 -4.30292737e-18 -3.23246382e-02
      7.38273917e-18 1.45689667e-19 -6.83588237e-02 1.95985986e-03
      3.54822102e-18 2.67899581e-17 -7.10694524e-17 1.55884307e-02
      -2.26257159e-03 4.61517018e-04 -5.58702932e-18 3.54822102e-18
      -7.08458357e-18 -1.75719484e-04 -1.53550133e-17 4.36235598e-04
      -2.12156237e-03 0. 0. 3.05496459e-03 -1.32902889e-02
      -1.69067776e-18 3.33900331e-03 -3.49895237e-03 1.37078794e-04
      -5.29470155e-03 8.36699145e-18 2.02203705e-17 5.05970232e-02
      -1.11977756e-17 -1.53550133e-17 -5.29470155e-03 -1.75505227e-18
      -1.01229073e-02 -1.97691866e-03 -3.49895237e-03 4.04881749e-18
      -8.23276490e-03 -1.05434451e-02 -1.24456510e-01 3.57414022e-17
      -1.53550133e-17 -1.93685051e-02 9.69741587e-03 -1.81720871e-02
      3.54822102e-18 0. 0. -5.63107943e-03 0. 1.45689667e-19
      2.07116496e-17 1.37078794e-04 1.45689667e-19 3.01644061e-04
      -1.11977756e-17 0. -1.53550133e-17 4.08244226e-03 0.
      1.06387338e-18 3.86077617e-18 -3.81926401e-03 -1.70662906e-02
      -3.81926401e-03 -2.64443686e-18 0. -2.12156237e-03 -6.57616481e-02
      1.86522696e-02 1.64715108e-02 -2.02185544e-03 1.24954300e-17
      3.86419222e-02 -2.31784694e-02 -9.26413387e-03 -2.36235932e-02
      -1.97533872e-02 -4.17845603e-03 -1.53550133e-17 1.13648102e-02
      -2.85094301e-03 6.93692733e-03 1.88041314e-18 2.93052825e-03
      -6.15222231e-02 2.12097050e-17 1.37976010e-03 3.48028897e-17
      9.94904898e-03 1.82971929e-03 1.82156378e-04 -5.85963205e-03
      -1.11977756e-17 6.73844814e-02 -9.37031861e-03 3.48028897e-17
      1.04232214e-03 2.29741856e-02 -9.39528945e-18 1.06387338e-18
      2.44756322e-02 -2.77255126e-03 3.70627736e-17 4.95344868e-18
      -1.10228034e-02 1.04232214e-03 2.61507230e-03 2.77033495e-03
      -6.88460097e-02 -2.42905654e-02 5.66853723e-03 1.76284497e-17
      8.09428806e-04 5.02459944e-18 1.15186647e-02 3.07825813e-03
      4.01833467e-03 1.06387338e-18 -9.45795546e-05 3.88623849e-02
      1.86777804e-02 5.70702413e-03 -7.51382262e-02 -1.91553272e-02
      -2.37223459e-03 3.48028897e-17 3.75191821e-03 1.49086062e-02
      1.12385759e-02 -5.26755175e-04 -1.37896964e-17 8.45693692e-04
      2.01158151e-02 1.49275133e-04 3.51071986e-03 8.51098705e-18
      2.49129330e-17 1.53552331e-02 1.88041314e-18 -2.54349201e-04
      -4.43431176e-03 -4.97038933e-18 5.53601468e-03 1.06929439e-17
      1.06387338e-18 1.13648102e-02 1.60404877e-03 3.36716394e-03
      9.85144731e-03 -5.99516779e-02 -4.28768078e-18 2.12097050e-17
      -5.23324534e-02 -6.31821007e-02 7.08711334e-03 -2.31017126e-04
      -1.53550133e-17 -3.85929830e-02 2.16884296e-02 1.04232214e-03
      -2.51586945e-03 1.90778763e-03 2.67899581e-17 3.48028897e-17
      -8.93789166e-18 -2.31398363e-02 -3.31069268e-02 -4.28768078e-18
      9.14953882e-04 -8.27589422e-04 3.19612138e-02 -7.55257085e-02
      7.49802357e-03 2.16360646e-03 -1.44493366e-02 -8.24847352e-03
      1.12234550e-02 2.02440874e-17 2.02440874e-17 -4.28768078e-18
      7.56908642e-18 -8.97260755e-03 0. -7.63007279e-18 3.11766402e-04
      1.07369896e-17 2.58853269e-18 4.41642979e-18 -4.05220562e-18
      4.41642979e-18 3.17976168e-18 -1.49501315e-17 1.52160999e-17
      1.60732972e-17 -8.95245597e-02 3.15435070e-18 -5.12116120e-18</_></support_vectors>
  <decision_functions>
    <_>
      <sv_count>1</sv_count>
      <rho>-8.6045137419890294e-01</rho>
      <alpha>
        1.</alpha>
      <index>
        0</index></_></decision_functions></my_svm>
</opencv_storage>
