<?xml version="1.0"?>
<opencv_storage>
<my_svm type_id="opencv-ml-svm">
  <svm_type>C_SVC</svm_type>
  <kernel><type>POLY</type>
    <degree>7.0000000000000007e-02</degree>
    <gamma>2.2500000000000003e-03</gamma>
    <coef0>1.4000000000000001e+00</coef0></kernel>
  <C>3.1250000000000000e+02</C>
  <term_criteria><epsilon>1.0000000474974513e-03</epsilon>
    <iterations>100000</iterations></term_criteria>
  <var_all>1558</var_all>
  <var_count>1558</var_count>
  <class_count>2</class_count>
  <class_labels type_id="opencv-matrix">
    <rows>1</rows>
    <cols>2</cols>
    <dt>i</dt>
    <data>
      0 1</data></class_labels>
  <class_weights type_id="opencv-matrix">
    <rows>1</rows>
    <cols>2</cols>
    <dt>d</dt>
    <data>
      2.6249999180436134e+02 4.9999998882412910e+01</data></class_weights>
  <sv_total>141</sv_total>
  <support_vectors>
    <_>
      -8.73633921e-01 -1.03112042e+00 -4.93033737e-01 5.44251144e-01
      -4.99688052e-02 0. -9.70988199e-02 -8.30457956e-02 -8.30461159e-02
      -1.20536476e-01 -7.50700682e-02 -8.67647454e-02 -6.12372160e-02 0.
      -8.67647454e-02 -8.30461159e-02 -2.49604881e-02 -8.67653117e-02
      -6.12371564e-02 -6.61640167e-02 -6.12377040e-02 -7.50700608e-02
      -9.03366357e-02 -9.37757939e-02 -6.12373427e-02 -7.07550049e-02 0.
      -1.12295531e-01 -6.61642477e-02 -2.49604471e-02 -3.53112370e-02
      -8.30461308e-02 -4.32608128e-02 0. -1.53564766e-01 -9.03365165e-02
      -7.91554451e-02 -8.30456242e-02 0. -6.61642402e-02 -8.30461755e-02
      -9.03357193e-02 -1.33207500e-01 0. -5.58839776e-02 0.
      -5.58839776e-02 -1.17851533e-01 -4.32604514e-02 -9.03361738e-02
      -1.03435114e-01 0. -1.00314192e-01 0. -8.30463096e-02
      -6.61641136e-02 -1.73629582e-01 -8.67650434e-02 -7.07550347e-02
      -7.91560933e-02 -2.49609426e-02 0. 0. -7.91556761e-02
      -2.95529753e-01 -8.30462873e-02 -7.91561455e-02 -1.12296239e-01 0.
      -8.67647454e-02 -1.00314304e-01 -1.09417677e-01 -8.30461755e-02
      -1.09418325e-01 -1.09418355e-01 -7.07550272e-02 -2.49607749e-02 0.
      0. 0. -1.03435114e-01 0. 0. -7.50700757e-02 -9.70987678e-02
      -7.91560188e-02 -7.07550347e-02 -5.58839776e-02 -8.67647752e-02
      -7.07550049e-02 -2.49604471e-02 -9.03364420e-02 0. -7.50700906e-02
      -8.30459520e-02 -8.30459818e-02 -8.30463991e-02 -7.50700906e-02
      -5.58842830e-02 -1.12295531e-01 -5.58837093e-02 -6.12374656e-02
      -8.67648274e-02 -7.91554973e-02 -3.53112333e-02 -1.73629582e-01
      -6.12375662e-02 -1.09417677e-01 -4.99688126e-02 -4.32603806e-02
      -1.03434496e-01 0. -1.23169757e-01 -1.12295784e-01 -6.12374656e-02
      0. 0. -1.12295531e-01 -1.09417096e-01 -1.09417677e-01
      -1.55673385e-01 0. -7.07550049e-02 -8.30461234e-02 -8.30461159e-02
      0. -6.12367839e-02 -2.49609426e-02 -9.37754363e-02 0.
      -8.30460638e-02 -8.67650434e-02 -1.09417938e-01 -1.53564766e-01
      -7.50700608e-02 -9.03365165e-02 -5.58839329e-02 -2.49609426e-02
      -9.37754363e-02 -9.03360471e-02 -2.49607954e-02 -7.50700384e-02
      -6.12367839e-02 -7.07550049e-02 -9.37757939e-02 -1.75525337e-01 0.
      -5.58846332e-02 -6.12369925e-02 -6.61640018e-02 -7.07550049e-02
      -1.23169757e-01 -8.30461085e-02 -1.09418325e-01 -7.91561455e-02
      -8.30458254e-02 -9.37757865e-02 -9.03360173e-02 -1.00314304e-01
      -3.53112407e-02 -4.32604514e-02 0. 0. -8.30463991e-02 0.
      -3.53112295e-02 -7.50701129e-02 -1.06465645e-01 -8.30459520e-02
      -9.03357193e-02 0. -8.67647454e-02 -1.59821421e-01 -1.25749201e-01
      -4.99688014e-02 -4.32604253e-02 -7.91557580e-02 -7.91561976e-02
      -1.00314192e-01 0. -5.58844022e-02 -5.58844656e-02 -5.58839776e-02
      0. 0. 0. -1.15104571e-01 -7.12728202e-01 -6.61640018e-02
      -8.30458254e-02 -1.06465645e-01 -7.91555196e-02 -4.61507231e-01
      -7.50699788e-02 0. -1.06465854e-01 -2.49604471e-02 -7.91557580e-02
      -2.49607954e-02 -1.17851309e-01 -6.12371564e-02 -8.67650509e-02
      -6.61640242e-02 0. -9.37756896e-02 -8.30460712e-02 0. 0.
      -9.37756896e-02 -8.30461085e-02 -1.12295531e-01 -7.91554973e-02
      -1.00314289e-01 -8.67645666e-02 -6.61640167e-02 -8.30461234e-02
      -8.67650434e-02 -6.12373650e-02 -1.23169757e-01 0. -9.03360173e-02
      -2.49609910e-02 -6.12369925e-02 -8.30456242e-02 -8.30462873e-02
      -8.67650434e-02 -1.15105025e-01 -7.50701129e-02 -9.70989615e-02
      -1.09417938e-01 -6.12373650e-02 -1.35607004e-01 -2.49609426e-02
      -1.23169757e-01 -1.53564766e-01 -1.44842505e-01 -6.12371564e-02
      -5.58844656e-02 -1.09417938e-01 -5.58842756e-02 -7.91555196e-02
      -1.28280237e-01 0. -8.67645591e-02 0. -1.33207589e-01
      -9.70987976e-02 -8.67647454e-02 -5.58844656e-02 0. -7.07550347e-02
      -1.00314282e-01 -6.12372272e-02 -2.49609109e-02 -9.03357193e-02 0.
      -5.58846332e-02 -9.37756896e-02 -5.58842830e-02 -3.53112295e-02
      -7.91557580e-02 0. -8.67640227e-02 -1.12295531e-01 -1.51426762e-01
      -1.73629165e-01 0. -8.30458254e-02 -8.30458254e-02 -8.30459818e-02
      -8.30462873e-02 -8.30461234e-02 -7.91558325e-02 -4.32605632e-02
      -4.61507231e-01 -1.33207500e-01 -3.53112295e-02 0. -7.91557953e-02
      0. 0. -8.67644623e-02 -1.09417096e-01 0. -4.32603359e-02
      -8.67646486e-02 -8.67650509e-02 -1.00314304e-01 -7.50701129e-02 0.
      -7.07550198e-02 -7.91560262e-02 -8.30459669e-02 -7.91560933e-02
      -7.07550347e-02 -1.17851600e-01 -8.30459520e-02 -1.09417893e-01 0.
      -1.23169757e-01 -8.30462053e-02 -1.03434965e-01 -6.61640018e-02
      -1.23169757e-01 -8.67647454e-02 -3.53112370e-02 -7.91557580e-02 0.
      0. -6.61640018e-02 -9.03361738e-02 -8.30461755e-02 -8.30462873e-02
      0. 0. -7.07550347e-02 -4.32604514e-02 -9.70989987e-02
      -5.58838770e-02 -1.73629582e-01 -2.49607954e-02 -8.67643207e-02
      -8.67645666e-02 -8.67645666e-02 -3.53112370e-02 -2.49609910e-02
      -9.03357193e-02 0. -2.49607954e-02 -1.00314304e-01 -1.20537050e-01
      -9.70988199e-02 -8.30456242e-02 -8.30456242e-02 -8.67640227e-02 0.
      -1.59821421e-01 -7.91558027e-02 -1.06465854e-01 -9.03357193e-02
      -1.06465437e-01 -8.30462873e-02 -2.49604881e-02 -8.30461904e-02
      -7.07550347e-02 0. -1.59821123e-01 -1.28280237e-01 -2.49605104e-02
      -4.99688126e-02 -9.03361738e-02 -2.49338135e-01 -8.30457956e-02 0.
      -4.99688163e-02 -7.91554451e-02 -1.00314312e-01 -7.91551620e-02
      -8.30459669e-02 -1.59821421e-01 -8.67640004e-02 -1.73629582e-01
      -1.03434578e-01 -7.07550347e-02 -8.30457956e-02 -7.07550272e-02
      -1.69785917e-01 -9.03361738e-02 0. -7.50702173e-02 -2.49610059e-02
      -1.73629582e-01 0. 0. -7.07550198e-02 -7.07549900e-02
      -1.12295531e-01 -1.73629045e-01 -9.70995352e-02 -2.49605142e-02
      -7.07550272e-02 -1.03433818e-01 0. -9.03357193e-02 -1.33207589e-01
      -8.67647752e-02 -1.30765542e-01 0. 0. -8.67648274e-02 0.
      -9.70990881e-02 -7.07550123e-02 -8.30456465e-02 -4.32605632e-02
      -7.91560486e-02 -7.91560262e-02 -9.37758535e-02 -1.53564855e-01
      -4.99688126e-02 -6.12373427e-02 -2.49609426e-02 -9.70987678e-02
      -8.67640749e-02 -8.30459520e-02 -9.03361738e-02 -2.49607656e-02
      -9.03363749e-02 -1.12295531e-01 -9.03365165e-02 -2.49609426e-02
      -1.06465854e-01 -2.49607954e-02 0. 0. -5.58846332e-02
      -8.30461159e-02 -7.50702173e-02 -6.61641061e-02 -9.03357193e-02
      -2.61782438e-01 0. -7.91560486e-02 -3.53112407e-02 0.
      -8.67640004e-02 -4.32604253e-02 -8.30458254e-02 -4.32605408e-02
      -2.49338150e-01 -8.30458254e-02 -4.99688163e-02 -8.30458254e-02
      -4.99688052e-02 -1.73629582e-01 -9.03361440e-02 -2.49609426e-02
      -7.91557580e-02 0. -6.12374656e-02 -8.30458254e-02 -1.20537244e-01
      -7.07550049e-02 -6.61640018e-02 -7.91560486e-02 -7.91560411e-02
      -7.91561455e-02 0. -4.32603806e-02 -7.91561976e-02 -9.03361812e-02
      0. -7.07550272e-02 -7.07550198e-02 0. -2.95529753e-01
      -3.53112370e-02 -2.13478342e-01 -7.07550049e-02 -3.53112295e-02 0.
      0. 0. -7.50701204e-02 -7.07550272e-02 -7.07550049e-02 0. 0.
      -8.30461159e-02 0. -8.67644772e-02 -9.37757939e-02 -7.91557282e-02
      -4.32601422e-02 -3.53112407e-02 -7.50700310e-02 -6.61642104e-02
      -9.03364643e-02 -6.61640316e-02 -7.91555196e-02 -7.91561455e-02
      -7.91559443e-02 -7.91554451e-02 0. -4.99688126e-02 -7.91559815e-02
      0. 0. -3.53112407e-02 -6.12372085e-02 -7.50700310e-02
      -2.49609426e-02 -4.99688126e-02 -1.12295531e-01 0. -9.70995948e-02
      -2.49608755e-02 -2.49605104e-02 0. -9.37752128e-02 -8.67642015e-02
      -1.12295531e-01 -9.37758535e-02 0. 0. -7.07550272e-02
      -1.17852092e-01 -7.07550272e-02 -5.58845997e-02 -4.32605818e-02
      -2.49609426e-02 -7.91563988e-02 -6.12374656e-02 -1.03435114e-01
      -8.67645666e-02 0. -7.50700310e-02 -1.00314192e-01 -7.91557282e-02
      -7.91560486e-02 -3.17418486e-01 -1.73629582e-01 -6.61640018e-02
      -9.70988795e-02 -8.30461159e-02 -1.15105405e-01 -5.58842756e-02 0.
      -8.30458254e-02 -1.06465474e-01 -1.73629582e-01 0. 0.
      -7.91557282e-02 -2.49608755e-02 -2.49608755e-02 -9.37758535e-02
      -8.30459520e-02 -1.06465854e-01 0. -1.59821421e-01 -6.12372272e-02
      -7.50702769e-02 0. -4.32603806e-02 -1.15105338e-01 -7.91554973e-02
      -2.49609426e-02 -4.67449069e-01 0. -1.06465854e-01 -1.71719000e-01
      0. -1.09418325e-01 -1.63872823e-01 -9.03366357e-02 -1.59821421e-01
      -3.53112407e-02 -6.61640689e-02 -8.67645666e-02 -4.32605818e-02
      -9.37758535e-02 0. -7.07550347e-02 -7.50701502e-02 0.
      -6.61641806e-02 0. 0. 0. -4.99688163e-02 -1.03435114e-01
      -7.91560933e-02 -3.33793759e-01 0. -6.12375364e-02 -9.03364643e-02
      0. 0. -1.33207500e-01 -4.99688126e-02 0. -8.30457434e-02
      -6.12372085e-02 -8.67648348e-02 -7.91561976e-02 -9.03364643e-02
      -9.70995948e-02 -2.49605104e-02 -1.17851309e-01 0. -1.33207500e-01
      -1.00314192e-01 -5.58839776e-02 -7.50701204e-02 0. 0.
      -7.91561455e-02 -4.99688126e-02 -2.49605104e-02 -1.09417938e-01 0.
      -2.00386867e-01 -7.91561455e-02 -1.09418325e-01 -4.32604514e-02 0.
      -7.50701204e-02 -6.61640838e-02 -9.37757567e-02 -6.12375364e-02
      -9.70988795e-02 -7.07550347e-02 -6.61640018e-02 -2.49608755e-02
      -4.32604514e-02 -7.91559815e-02 -8.67642015e-02 -9.70988199e-02
      -6.12373650e-02 -7.07550198e-02 -8.30463096e-02 -9.70991179e-02
      -9.03357193e-02 -2.49609388e-02 -8.30460638e-02 -3.53112370e-02
      -8.67645666e-02 -7.50700310e-02 0. -1.73629582e-01 0. 0.
      -7.50701204e-02 -2.49608755e-02 -6.12372085e-02 -6.12375550e-02
      -6.12374954e-02 -1.06465399e-01 -6.61642477e-02 -2.49607954e-02
      -2.49609426e-02 -1.00314304e-01 -7.07550347e-02 -9.37758535e-02
      -8.67642015e-02 -1.23169765e-01 -2.49609388e-02 -1.53564766e-01
      -4.32601459e-02 -1.12296239e-01 -1.73629582e-01 -1.12296224e-01 0.
      -9.03366357e-02 -1.17851816e-01 -4.99688163e-02 -6.61640689e-02
      -9.70990881e-02 -3.53112407e-02 -2.49608755e-02 -8.67645219e-02
      -2.49609910e-02 -9.03364420e-02 -8.30462500e-02 -6.12374656e-02
      -7.91560933e-02 0. -7.91561455e-02 -6.12375364e-02 -3.53112333e-02
      -6.12374656e-02 -2.49606743e-02 -9.70995948e-02 0. -4.99688126e-02
      -1.15105078e-01 -6.12374656e-02 -7.91559815e-02 -1.17852092e-01
      -1.06465854e-01 -4.32605818e-02 -8.30460116e-02 -7.91557282e-02
      -6.12372085e-02 -9.37757492e-02 0. -7.91560262e-02 -9.03364643e-02
      -6.61640242e-02 -6.12371564e-02 -4.32605408e-02 0. -7.91561976e-02
      -7.07550347e-02 -8.30457956e-02 -6.61641806e-02 -8.67648348e-02
      -7.91560486e-02 -8.67645666e-02 -1.53564766e-01 -1.17851347e-01
      -7.07550272e-02 -8.30458254e-02 -5.58844656e-02 0. -9.70988199e-02
      -7.91554973e-02 -5.58839776e-02 -7.50702769e-02 -2.49609426e-02
      -7.50702769e-02 -4.32603806e-02 -2.49605104e-02 0. -1.06465854e-01
      -1.03434496e-01 -1.06465474e-01 0. -7.91555196e-02 -9.03364643e-02
      -9.03362557e-02 -7.50701204e-02 -7.91563988e-02 -9.03365165e-02
      -1.53564766e-01 -2.49609910e-02 -6.61642477e-02 -7.91559443e-02
      -7.91557282e-02 -2.49608755e-02 -2.49609426e-02 0. 0.
      -9.37760770e-02 0. -8.30462500e-02 0. -1.03435159e-01 0.
      -7.91560262e-02 -6.61642104e-02 -6.12372085e-02 -9.70995948e-02
      -7.91558921e-02 0. -6.12372085e-02 -8.67650658e-02 0.
      -6.61641806e-02 -8.30459520e-02 -9.03357193e-02 -4.32605818e-02
      -7.07550347e-02 0. 0. -8.30461085e-02 -9.37757492e-02
      -1.17851347e-01 -1.53564766e-01 -8.30456242e-02 -9.70988795e-02
      -9.03364643e-02 -1.09417938e-01 -2.49609388e-02 -4.32607271e-02
      -9.37752128e-02 -2.49607954e-02 -2.49609426e-02 -7.50700310e-02 0.
      -1.33207589e-01 -9.03364643e-02 -7.91560933e-02 -7.91560933e-02
      -6.61640018e-02 -4.32601422e-02 -7.07550272e-02 -8.30456242e-02
      -7.91560486e-02 -6.61640689e-02 0. 0. -7.91560933e-02 0. 0.
      -4.32603806e-02 -6.12374656e-02 -2.49609724e-02 -1.06465854e-01
      -7.91560262e-02 -8.30461085e-02 0. -1.25749201e-01 0.
      -7.91559815e-02 -6.61640018e-02 -1.33207589e-01 0. -6.12374656e-02
      -7.07550347e-02 -4.32603396e-02 -4.32604514e-02 -3.53112333e-02
      -4.32603806e-02 0. -8.30460116e-02 -1.00314230e-01 -1.09417938e-01
      -8.30461606e-02 -4.32601459e-02 -7.91560262e-02 -8.30458254e-02
      -9.03364643e-02 0. -6.61640540e-02 -7.50701204e-02 -2.49607954e-02
      -1.17852092e-01 -1.03435196e-01 -4.32604514e-02 -2.49608755e-02
      -4.99688163e-02 -6.61640838e-02 -7.07550198e-02 -5.58844656e-02
      -7.50700310e-02 -8.30456242e-02 0. -9.70995948e-02 -8.67647454e-02
      -7.07550049e-02 -7.50701204e-02 -1.09417938e-01 -7.07550049e-02
      -1.12295531e-01 -7.50701129e-02 -9.03365165e-02 -4.32601422e-02
      -5.58838770e-02 -9.03364643e-02 -7.07550049e-02 -7.07550272e-02
      -9.03366357e-02 -4.32604514e-02 -7.91559443e-02 -8.30460116e-02 0.
      -4.32603769e-02 -6.61640316e-02 -8.67645666e-02 -1.17851347e-01
      -8.67650658e-02 -4.99688126e-02 -8.67650658e-02 -6.61640018e-02
      -6.12371564e-02 -6.61640838e-02 -8.67647454e-02 -7.50701129e-02
      -6.12377748e-02 -8.30462500e-02 0. -8.30458254e-02 0.
      -1.03434496e-01 -7.07550049e-02 -4.32601459e-02 -4.32601459e-02
      -1.09417938e-01 -7.91557282e-02 -6.61640838e-02 -8.67650509e-02
      -7.91554451e-02 -1.25749215e-01 0. -4.32601459e-02 -2.49609426e-02
      -8.67650434e-02 -8.67650434e-02 -2.49609388e-02 -6.61640987e-02
      -4.32605818e-02 -3.53112295e-02 -1.75525248e-01 -8.67645666e-02
      -3.53112407e-02 -4.32601459e-02 -3.53112295e-02 -4.32605818e-02
      -9.03361738e-02 -9.37757939e-02 -1.17851302e-01 0. -2.49609426e-02
      0. -1.12295531e-01 -5.58838770e-02 -7.07550049e-02 -7.07550272e-02
      -7.91561455e-02 0. -8.67645666e-02 -2.49609426e-02 0. 0.
      -6.12375550e-02 -8.67650434e-02 -1.06465474e-01 -9.37758535e-02
      -2.49608755e-02 -7.50701129e-02 -5.58838770e-02 -6.12373650e-02
      -1.59821421e-01 -4.32607271e-02 -1.53564766e-01 -4.67449069e-01 0.
      -1.53564766e-01 -8.67648348e-02 -1.06465854e-01 0. -4.32603359e-02
      -4.32601459e-02 -4.99688089e-02 -6.61640838e-02 -8.30458254e-02
      -3.53112295e-02 -6.61640838e-02 -9.03364643e-02 -4.32604514e-02
      -1.09418355e-01 0. -9.03365165e-02 0. -2.49607954e-02
      -9.03366357e-02 -2.00386867e-01 -3.53112370e-02 0. -9.37758535e-02
      -7.91558921e-02 -7.91554451e-02 -7.91558921e-02 -3.53112333e-02
      -8.30461085e-02 -2.85450190e-01 -6.61641732e-02 -6.61641806e-02
      -1.51426867e-01 -8.30461532e-02 -8.30457956e-02 -1.12296224e-01
      -6.61641061e-02 -7.91557282e-02 -9.37754363e-02 0. -6.61642328e-02
      -9.70988199e-02 -9.70991626e-02 -8.30457956e-02 -1.67834520e-01
      -7.91557580e-02 -6.61641210e-02 -6.61640167e-02 0. -9.70991626e-02
      -2.07018793e-01 -2.49607172e-02 -3.53112407e-02 -4.32606861e-02
      -1.03433646e-01 -5.58840409e-02 -8.67651403e-02 -8.67648795e-02
      -7.91560933e-02 -1.73629582e-01 -8.67640227e-02 -4.99688163e-02 0.
      -8.67651775e-02 -1.09417833e-01 -1.09417424e-01 -9.03365165e-02
      -6.61642328e-02 -7.91554451e-02 -9.03361440e-02 0. -6.12371080e-02
      -9.70988274e-02 -6.12374768e-02 -7.07550347e-02 -1.03434481e-01
      -9.37756896e-02 -1.15104206e-01 -2.49610152e-02 -6.12372383e-02
      -2.05379918e-01 -5.58839776e-02 -1.20536990e-01 -4.32604514e-02
      -9.03361738e-02 -9.37757194e-02 0. -8.30463096e-02 -1.73629582e-01
      -3.53112333e-02 -7.07550347e-02 -2.49608234e-02 -7.91554451e-02
      -2.49609705e-02 0. -4.99688052e-02 -7.50700533e-02 -1.67834550e-01
      -7.50699788e-02 -7.91560933e-02 -1.57760218e-01 -7.07550123e-02 0.
      -8.30462575e-02 -1.40295386e-01 -7.91558996e-02 -8.30463991e-02
      -7.07550272e-02 -1.67834550e-01 -7.07550347e-02 -1.09418325e-01
      -6.12373576e-02 -6.12373576e-02 -6.61641285e-02 -2.49604434e-02 0.
      0. -1.09418236e-01 -9.37757194e-02 0. -6.61640167e-02
      -1.00314274e-01 -1.06465645e-01 -5.58840409e-02 -7.91560933e-02
      -1.73629478e-01 -5.58839776e-02 -8.30463991e-02 -9.70992520e-02
      -1.75525308e-01 -7.91554451e-02 -7.07550272e-02 -9.70987827e-02
      -6.61641806e-02 -1.03434920e-01 -6.12371042e-02 -8.30459818e-02
      -7.50699788e-02 -7.07550347e-02 -8.30462873e-02 -1.42585158e-01
      -1.03434235e-01 -1.15104325e-01 0. -1.73629582e-01 -6.61641285e-02
      -4.99688126e-02 -7.91554451e-02 -4.32603806e-02 -1.03434496e-01 0.
      0. 0. -9.70988348e-02 -6.61642328e-02 -9.03361738e-02
      -1.63873002e-01 -7.91563988e-02 0. -7.07550272e-02 -2.49609705e-02
      -7.91560411e-02 -1.06465563e-01 -7.91558772e-02 -8.67651775e-02
      -8.30460638e-02 -6.12379611e-02 -9.03365165e-02 -8.30462798e-02
      -2.49609705e-02 -5.58840409e-02 -1.40295833e-01 0. -5.58844954e-02
      -7.91560933e-02 -8.67648795e-02 -3.53112407e-02 0. -1.15103893e-01
      -2.49607172e-02 -8.30461085e-02 -1.09418325e-01 -9.03361738e-02
      -9.70988944e-02 -9.37754810e-02 0. -4.32603806e-02 -4.32604514e-02
      0. 0. -1.73629090e-01 -2.49605738e-02 -9.03361738e-02
      -7.07550049e-02 -9.70988795e-02 -7.07550347e-02 0. -4.99688163e-02
      -8.67646262e-02 -7.50702247e-02 -1.73629090e-01 -9.37754363e-02 0.
      -8.30461755e-02 -1.28281415e-01 -1.12295859e-01 -6.61642700e-02
      -4.99687940e-02 -7.07549974e-02 0. -7.50699788e-02 -5.58844656e-02
      -7.07550272e-02 -2.49607172e-02 -4.32602055e-02 -6.12367839e-02
      -5.58842719e-02 -9.70988795e-02 -4.42523301e-01 -6.61641136e-02 0.
      -1.65864348e-01 -1.15104862e-01 -8.67643207e-02 0. -1.90075696e-01
      -1.17851309e-01 0. -1.06465645e-01 -4.32606861e-02 -6.61640242e-02
      -9.70988795e-02 -1.67834520e-01 0. -2.49610152e-02 -1.93565100e-01
      -1.75525308e-01 -8.30461085e-02 -9.70988348e-02 -7.91560933e-02
      -8.30461606e-02 -8.67645666e-02 -4.32605334e-02 -8.30461234e-02
      -7.91560411e-02 -6.12373650e-02 -7.91556165e-02 -1.15104862e-01
      -6.61639646e-02 -4.32606265e-02 -7.91559592e-02 -8.30462873e-02
      -7.91560411e-02 -7.07550347e-02 -9.70987827e-02 -1.06465563e-01
      -7.91554451e-02 -6.12373650e-02 -5.58844954e-02 -5.58844656e-02
      -9.70988795e-02 -4.32605594e-02 -1.00314319e-01 0. -8.67651775e-02
      -4.32606861e-02 -1.73629582e-01 -7.91560933e-02 -1.06465563e-01
      -9.37754363e-02 -9.70991626e-02 -1.06465429e-01 -9.70988795e-02
      -7.07550272e-02 0. 0. 1.33207636e+01 -1.57760218e-01 0.
      -1.28281116e-01 -1.75525308e-01 -8.30461755e-02 -5.58844656e-02
      -7.91563988e-02 0. -7.91559592e-02 -2.49607172e-02 -1.30765676e-01
      -3.53112295e-02 -1.40295655e-01 -9.37760547e-02 -6.61641806e-02 0.
      -1.00314237e-01 0. -1.12295508e-01 -8.67640227e-02 -1.12295531e-01
      -5.58842123e-02 -8.30460638e-02 -1.75525308e-01 -7.91557580e-02
      -7.91560933e-02 -1.17851302e-01 0. -9.70988795e-02 -6.61640689e-02
      0. -7.91559219e-02 -8.30458254e-02 -9.03361365e-02 -1.88312724e-01
      -7.91559592e-02 -7.50700906e-02 -8.30459818e-02 -7.91555420e-02
      -7.91560933e-02 -2.49607172e-02 -7.91554749e-02 -5.58842495e-02
      -8.30461234e-02 -5.58845438e-02 -4.29378837e-01 -1.15104206e-01 0.
      -2.82887757e-01 0. -5.58842719e-02 0. -1.20537587e-01
      -8.30457956e-02 0. -6.12378195e-02 -7.07550347e-02 -7.50701427e-02
      -2.40770683e-01 -1.33207545e-01 -7.91560262e-02 -6.61641210e-02
      -7.91560933e-02 -5.58840409e-02 -4.32603806e-02 -7.91556165e-02
      -7.50702247e-02 0. -1.61857232e-01 -9.70989466e-02 -7.91554898e-02
      -7.91560933e-02 -7.50700608e-02 0. -6.12367839e-02 -8.30462873e-02
      -1.03434794e-01 -2.49610152e-02 -6.12377040e-02 0. -9.03363749e-02
      -5.58837652e-02 -4.32604514e-02 -3.87849450e-01 -8.67645666e-02
      -8.67645666e-02 -9.03357193e-02 0. -1.00314304e-01 -9.70988795e-02
      -9.70988199e-02 0. -7.91559592e-02 -9.70991626e-02 -1.28281415e-01
      -7.07550347e-02 -1.42585024e-01 -7.07550123e-02 -1.12295724e-01
      -7.07550347e-02 -1.00314207e-01 -8.30462873e-02 -7.07550272e-02
      -3.53112407e-02 -4.32606712e-02 -7.50700310e-02 0. -7.50700608e-02
      -1.06465429e-01 -2.49605104e-02 -4.99688126e-02 -4.99688163e-02
      -6.61639646e-02 -3.53112407e-02 -1.06465645e-01 -9.37754363e-02
      -7.91554451e-02 -9.70988795e-02 -1.28281415e-01 -9.37752128e-02
      -9.37758759e-02 -7.07550347e-02 -8.67644772e-02 -8.30459967e-02
      -1.73629582e-01 -8.30457956e-02 -2.49607172e-02 -1.17851302e-01
      -7.07550347e-02 -9.03361738e-02 -7.07550049e-02 -3.53112333e-02
      -1.42585158e-01 -1.44841924e-01 -7.07550198e-02 -6.12370931e-02
      -9.70988348e-02 0. -4.99688163e-02 -6.61641136e-02 -1.20536499e-01
      -2.49610096e-02 -7.91554451e-02 -8.67652521e-02 -8.67652521e-02 0.
      -1.03434622e-01 -1.03434481e-01 -1.28281116e-01 -1.97001174e-01
      -5.58844656e-02 -9.37760547e-02 0. -8.30462873e-02 -8.30463096e-02
      -1.03434384e-01 -2.13478342e-01 -2.49604620e-02 0. -6.61641806e-02
      -9.03371945e-02 -7.91560486e-02 -7.91560933e-02 -3.53112333e-02
      -1.03434198e-01 -7.91560262e-02 -7.91556165e-02 -1.44841790e-01
      -7.07550347e-02 -2.49609705e-02 -9.70987678e-02 -1.73629582e-01
      -1.73629552e-01 -8.30460638e-02 -1.12295531e-01 -8.67653117e-02
      -2.49609705e-02 -5.58842123e-02 -1.40295833e-01 -7.07550272e-02
      -7.91559219e-02 -9.70988274e-02 0. 0. -8.30461159e-02
      -6.12378456e-02 -9.03357193e-02 -2.42214933e-01 -7.91560933e-02
      -7.91560486e-02 -1.06465645e-01 -3.53112258e-02 -6.61641210e-02
      -9.37752128e-02 -4.99688052e-02 -7.07550272e-02 -1.06465645e-01
      -8.30461830e-02 -8.30458254e-02 -1.75525308e-01 -7.91560933e-02
      -4.32607569e-02 -9.37758312e-02 -9.70988795e-02 -2.13478342e-01
      -7.91554749e-02 -7.07550272e-02 -7.50701800e-02 -1.09417833e-01
      -1.03434324e-01 -2.49609705e-02 0. 0. -5.58842160e-02 0.
      -7.91556165e-02 -7.91557580e-02 -7.91560486e-02 -7.91556165e-02
      -4.32603806e-02 -4.99688052e-02 0. -7.07550272e-02 -7.07550198e-02
      0. -9.37756896e-02 -4.32601906e-02 -1.75525308e-01 -1.42585158e-01
      -1.75525308e-01 -2.49608587e-02 0. -9.70988274e-02 -8.67650881e-02
      -1.61857471e-01 -7.50700235e-02 -6.12371750e-02 -9.03357640e-02
      -4.99688126e-02 -7.07550347e-02 -2.34925508e-01 -2.40769476e-01
      -7.91560709e-02 -7.50701129e-02 -7.07550272e-02 -7.50700682e-02
      -6.61641583e-02 -4.32606004e-02 -6.61641136e-02 -4.99688126e-02
      -5.58843389e-02 -6.61641806e-02 -7.91559964e-02 -9.37754363e-02
      -6.61642924e-02 -6.61642924e-02 -5.58841974e-02 -1.03434443e-01
      -4.99688052e-02 -1.00314215e-01 -2.31960610e-01 -9.37754363e-02
      -8.67640227e-02 -8.67644623e-02 -6.61641657e-02 -9.37756896e-02
      -6.61639869e-02 -1.55673563e-01 -9.70992297e-02 -9.03362632e-02
      -7.50700831e-02 -8.67640227e-02 -1.23169772e-01 -1.09418318e-01
      -1.15103588e-01 -1.44842178e-01 -7.07550272e-02 -8.67647901e-02
      -1.12296209e-01 -9.03359801e-02 -8.67644474e-02 -6.12370446e-02
      -1.00314200e-01 -9.37756896e-02 -1.28280163e-01 -8.30462724e-02
      -9.37758461e-02 -9.37757716e-02 -2.45082080e-01 -7.50701800e-02
      -7.91556016e-02 -9.37754363e-02 -6.61641061e-02 -8.30463022e-02
      -9.70987156e-02 -7.91562498e-02 -8.30456018e-02 -5.58839850e-02
      -8.67643133e-02 -5.58843017e-02 -7.07550198e-02 -9.70988944e-02
      -8.67645890e-02 -7.07550347e-02 -6.61641136e-02 -1.17851265e-01
      -9.03363079e-02 -1.12295806e-01 -8.67652893e-02 -1.00314215e-01
      -9.37756896e-02 -7.50700682e-02 -7.07550272e-02 -8.67653042e-02
      -8.67647752e-02 -6.61639869e-02 -3.53112407e-02 -6.61641806e-02
      -1.47066697e-01 -1.06465578e-01 -8.30459148e-02 -7.07550272e-02
      -7.07550272e-02 -1.44842014e-01 -4.99688126e-02 -8.67640227e-02
      -7.50700757e-02 -1.55673340e-01 -9.70987678e-02 -9.37754363e-02
      -8.30460638e-02 -9.70987007e-02 -1.33207828e-01 -3.53112407e-02
      -1.06465526e-01 -8.30459371e-02 -8.67640898e-02 -1.82924867e-01
      -1.03434391e-01 -5.58842532e-02 -6.61639571e-02 -8.30461159e-02
      -1.37968972e-01 -7.50701949e-02 -7.50701949e-02 -3.53112407e-02
      -1.12295948e-01 -9.70988870e-02 0. -6.61641285e-02 -3.53112295e-02
      -6.12367578e-02 -3.53112370e-02 -3.53112295e-02 -6.12372123e-02
      -3.53112295e-02 -4.32601757e-02 -5.58840781e-02 -8.67645666e-02
      -1.15104690e-01 -1.15104631e-01 -1.03434533e-01 -2.49604974e-02</_>
    <_>
      7.91220546e-01 -4.58236665e-01 -5.12728751e-01 -1.83740366e+00
      -4.99688052e-02 0. -9.70988199e-02 -8.30457956e-02 -8.30461159e-02
      -1.20536476e-01 -7.50700682e-02 -8.67647454e-02 -6.12372160e-02 0.
      -8.67647454e-02 -8.30461159e-02 -2.49604881e-02 -8.67653117e-02
      -6.12371564e-02 -6.61640167e-02 -6.12377040e-02 -7.50700608e-02
      -9.03366357e-02 -9.37757939e-02 -6.12373427e-02 -7.07550049e-02 0.
      -1.12295531e-01 -6.61642477e-02 -2.49604471e-02 -3.53112370e-02
      -8.30461308e-02 -4.32608128e-02 0. -1.53564766e-01 -9.03365165e-02
      -7.91554451e-02 -8.30456242e-02 0. -6.61642402e-02 -8.30461755e-02
      -9.03357193e-02 -1.33207500e-01 0. -5.58839776e-02 0.
      -5.58839776e-02 -1.17851533e-01 -4.32604514e-02 -9.03361738e-02
      -1.03435114e-01 0. -1.00314192e-01 0. -8.30463096e-02
      -6.61641136e-02 -1.73629582e-01 -8.67650434e-02 -7.07550347e-02
      -7.91560933e-02 -2.49609426e-02 0. 0. -7.91556761e-02
      -2.95529753e-01 -8.30462873e-02 -7.91561455e-02 -1.12296239e-01 0.
      -8.67647454e-02 -1.00314304e-01 -1.09417677e-01 -8.30461755e-02
      -1.09418325e-01 -1.09418355e-01 -7.07550272e-02 -2.49607749e-02 0.
      0. 0. -1.03435114e-01 0. 0. -7.50700757e-02 -9.70987678e-02
      -7.91560188e-02 -7.07550347e-02 -5.58839776e-02 -8.67647752e-02
      -7.07550049e-02 -2.49604471e-02 -9.03364420e-02 0. -7.50700906e-02
      -8.30459520e-02 -8.30459818e-02 -8.30463991e-02 -7.50700906e-02
      -5.58842830e-02 -1.12295531e-01 -5.58837093e-02 -6.12374656e-02
      -8.67648274e-02 -7.91554973e-02 -3.53112333e-02 -1.73629582e-01
      -6.12375662e-02 -1.09417677e-01 -4.99688126e-02 -4.32603806e-02
      -1.03434496e-01 0. -1.23169757e-01 -1.12295784e-01 -6.12374656e-02
      0. 0. -1.12295531e-01 -1.09417096e-01 -1.09417677e-01
      -1.55673385e-01 0. -7.07550049e-02 -8.30461234e-02 -8.30461159e-02
      0. -6.12367839e-02 -2.49609426e-02 -9.37754363e-02 0.
      -8.30460638e-02 -8.67650434e-02 -1.09417938e-01 -1.53564766e-01
      -7.50700608e-02 -9.03365165e-02 -5.58839329e-02 -2.49609426e-02
      -9.37754363e-02 -9.03360471e-02 -2.49607954e-02 -7.50700384e-02
      -6.12367839e-02 -7.07550049e-02 -9.37757939e-02 -1.75525337e-01 0.
      -5.58846332e-02 -6.12369925e-02 -6.61640018e-02 -7.07550049e-02
      -1.23169757e-01 -8.30461085e-02 -1.09418325e-01 -7.91561455e-02
      -8.30458254e-02 -9.37757865e-02 -9.03360173e-02 -1.00314304e-01
      -3.53112407e-02 -4.32604514e-02 0. 0. -8.30463991e-02 0.
      -3.53112295e-02 -7.50701129e-02 -1.06465645e-01 -8.30459520e-02
      -9.03357193e-02 0. -8.67647454e-02 -1.59821421e-01 -1.25749201e-01
      -4.99688014e-02 -4.32604253e-02 -7.91557580e-02 -7.91561976e-02
      -1.00314192e-01 0. -5.58844022e-02 -5.58844656e-02 -5.58839776e-02
      0. 0. 0. -1.15104571e-01 -7.12728202e-01 -6.61640018e-02
      -8.30458254e-02 -1.06465645e-01 -7.91555196e-02 -4.61507231e-01
      -7.50699788e-02 0. -1.06465854e-01 -2.49604471e-02 -7.91557580e-02
      -2.49607954e-02 -1.17851309e-01 -6.12371564e-02 -8.67650509e-02
      -6.61640242e-02 0. -9.37756896e-02 -8.30460712e-02 0. 0.
      -9.37756896e-02 -8.30461085e-02 -1.12295531e-01 -7.91554973e-02
      -1.00314289e-01 -8.67645666e-02 -6.61640167e-02 -8.30461234e-02
      -8.67650434e-02 -6.12373650e-02 -1.23169757e-01 0. -9.03360173e-02
      -2.49609910e-02 -6.12369925e-02 -8.30456242e-02 -8.30462873e-02
      -8.67650434e-02 -1.15105025e-01 -7.50701129e-02 -9.70989615e-02
      -1.09417938e-01 -6.12373650e-02 -1.35607004e-01 -2.49609426e-02
      -1.23169757e-01 -1.53564766e-01 6.90415907e+00 -6.12371564e-02
      -5.58844656e-02 -1.09417938e-01 -5.58842756e-02 -7.91555196e-02
      -1.28280237e-01 0. -8.67645591e-02 0. -1.33207589e-01
      -9.70987976e-02 -8.67647454e-02 -5.58844656e-02 0. -7.07550347e-02
      -1.00314282e-01 -6.12372272e-02 -2.49609109e-02 -9.03357193e-02 0.
      -5.58846332e-02 -9.37756896e-02 -5.58842830e-02 -3.53112295e-02
      -7.91557580e-02 0. -8.67640227e-02 -1.12295531e-01 -1.51426762e-01
      -1.73629165e-01 0. -8.30458254e-02 -8.30458254e-02 -8.30459818e-02
      -8.30462873e-02 -8.30461234e-02 -7.91558325e-02 -4.32605632e-02
      -4.61507231e-01 -1.33207500e-01 -3.53112295e-02 0. -7.91557953e-02
      0. 0. -8.67644623e-02 -1.09417096e-01 0. -4.32603359e-02
      -8.67646486e-02 -8.67650509e-02 -1.00314304e-01 -7.50701129e-02 0.
      -7.07550198e-02 -7.91560262e-02 -8.30459669e-02 -7.91560933e-02
      -7.07550347e-02 -1.17851600e-01 -8.30459520e-02 -1.09417893e-01 0.
      -1.23169757e-01 -8.30462053e-02 -1.03434965e-01 -6.61640018e-02
      -1.23169757e-01 -8.67647454e-02 -3.53112370e-02 -7.91557580e-02 0.
      0. -6.61640018e-02 -9.03361738e-02 -8.30461755e-02 -8.30462873e-02
      0. 0. -7.07550347e-02 -4.32604514e-02 -9.70989987e-02
      -5.58838770e-02 -1.73629582e-01 -2.49607954e-02 -8.67643207e-02
      -8.67645666e-02 -8.67645666e-02 -3.53112370e-02 -2.49609910e-02
      -9.03357193e-02 0. -2.49607954e-02 -1.00314304e-01 -1.20537050e-01
      -9.70988199e-02 -8.30456242e-02 -8.30456242e-02 -8.67640227e-02 0.
      -1.59821421e-01 -7.91558027e-02 -1.06465854e-01 -9.03357193e-02
      -1.06465437e-01 -8.30462873e-02 -2.49604881e-02 -8.30461904e-02
      -7.07550347e-02 0. -1.59821123e-01 -1.28280237e-01 -2.49605104e-02
      -4.99688126e-02 -9.03361738e-02 -2.49338135e-01 -8.30457956e-02 0.
      -4.99688163e-02 -7.91554451e-02 -1.00314312e-01 -7.91551620e-02
      -8.30459669e-02 -1.59821421e-01 -8.67640004e-02 -1.73629582e-01
      -1.03434578e-01 -7.07550347e-02 -8.30457956e-02 -7.07550272e-02
      -1.69785917e-01 -9.03361738e-02 0. -7.50702173e-02 -2.49610059e-02
      -1.73629582e-01 0. 0. -7.07550198e-02 -7.07549900e-02
      -1.12295531e-01 -1.73629045e-01 -9.70995352e-02 -2.49605142e-02
      -7.07550272e-02 -1.03433818e-01 0. -9.03357193e-02 -1.33207589e-01
      -8.67647752e-02 -1.30765542e-01 0. 0. -8.67648274e-02 0.
      -9.70990881e-02 -7.07550123e-02 -8.30456465e-02 -4.32605632e-02
      -7.91560486e-02 -7.91560262e-02 -9.37758535e-02 -1.53564855e-01
      -4.99688126e-02 -6.12373427e-02 -2.49609426e-02 -9.70987678e-02
      -8.67640749e-02 -8.30459520e-02 -9.03361738e-02 -2.49607656e-02
      -9.03363749e-02 -1.12295531e-01 -9.03365165e-02 -2.49609426e-02
      -1.06465854e-01 -2.49607954e-02 0. 0. -5.58846332e-02
      -8.30461159e-02 -7.50702173e-02 -6.61641061e-02 -9.03357193e-02
      -2.61782438e-01 0. -7.91560486e-02 -3.53112407e-02 0.
      -8.67640004e-02 -4.32604253e-02 -8.30458254e-02 -4.32605408e-02
      -2.49338150e-01 -8.30458254e-02 -4.99688163e-02 -8.30458254e-02
      -4.99688052e-02 -1.73629582e-01 -9.03361440e-02 -2.49609426e-02
      -7.91557580e-02 0. -6.12374656e-02 -8.30458254e-02 -1.20537244e-01
      -7.07550049e-02 -6.61640018e-02 -7.91560486e-02 -7.91560411e-02
      -7.91561455e-02 0. -4.32603806e-02 -7.91561976e-02 -9.03361812e-02
      0. -7.07550272e-02 -7.07550198e-02 0. -2.95529753e-01
      -3.53112370e-02 -2.13478342e-01 -7.07550049e-02 -3.53112295e-02 0.
      0. 0. -7.50701204e-02 1.41333170e+01 -7.07550049e-02 0. 0.
      -8.30461159e-02 0. -8.67644772e-02 -9.37757939e-02 -7.91557282e-02
      -4.32601422e-02 -3.53112407e-02 -7.50700310e-02 -6.61642104e-02
      -9.03364643e-02 -6.61640316e-02 -7.91555196e-02 -7.91561455e-02
      -7.91559443e-02 -7.91554451e-02 0. -4.99688126e-02 -7.91559815e-02
      0. 0. -3.53112407e-02 -6.12372085e-02 -7.50700310e-02
      -2.49609426e-02 -4.99688126e-02 -1.12295531e-01 0. -9.70995948e-02
      -2.49608755e-02 -2.49605104e-02 0. -9.37752128e-02 -8.67642015e-02
      -1.12295531e-01 -9.37758535e-02 0. 0. 1.41333170e+01
      -1.17852092e-01 1.41333170e+01 -5.58845997e-02 -4.32605818e-02
      -2.49609426e-02 -7.91563988e-02 -6.12374656e-02 -1.03435114e-01
      -8.67645666e-02 0. -7.50700310e-02 -1.00314192e-01 -7.91557282e-02
      -7.91560486e-02 -3.17418486e-01 -1.73629582e-01 -6.61640018e-02
      -9.70988795e-02 -8.30461159e-02 -1.15105405e-01 -5.58842756e-02 0.
      -8.30458254e-02 -1.06465474e-01 -1.73629582e-01 0. 0.
      -7.91557282e-02 -2.49608755e-02 -2.49608755e-02 -9.37758535e-02
      -8.30459520e-02 -1.06465854e-01 0. -1.59821421e-01 -6.12372272e-02
      -7.50702769e-02 0. -4.32603806e-02 -1.15105338e-01 -7.91554973e-02
      -2.49609426e-02 -4.67449069e-01 0. -1.06465854e-01 -1.71719000e-01
      0. -1.09418325e-01 -1.63872823e-01 -9.03366357e-02 -1.59821421e-01
      -3.53112407e-02 -6.61640689e-02 -8.67645666e-02 -4.32605818e-02
      -9.37758535e-02 0. -7.07550347e-02 -7.50701502e-02 0.
      -6.61641806e-02 0. 0. 0. -4.99688163e-02 -1.03435114e-01
      -7.91560933e-02 -3.33793759e-01 0. -6.12375364e-02 -9.03364643e-02
      0. 0. -1.33207500e-01 -4.99688126e-02 0. -8.30457434e-02
      -6.12372085e-02 -8.67648348e-02 -7.91561976e-02 -9.03364643e-02
      -9.70995948e-02 -2.49605104e-02 -1.17851309e-01 0. -1.33207500e-01
      -1.00314192e-01 -5.58839776e-02 -7.50701204e-02 0. 0.
      -7.91561455e-02 -4.99688126e-02 -2.49605104e-02 -1.09417938e-01 0.
      -2.00386867e-01 -7.91561455e-02 -1.09418325e-01 -4.32604514e-02 0.
      -7.50701204e-02 -6.61640838e-02 -9.37757567e-02 -6.12375364e-02
      -9.70988795e-02 -7.07550347e-02 -6.61640018e-02 -2.49608755e-02
      -4.32604514e-02 -7.91559815e-02 -8.67642015e-02 -9.70988199e-02
      -6.12373650e-02 -7.07550198e-02 -8.30463096e-02 -9.70991179e-02
      -9.03357193e-02 -2.49609388e-02 -8.30460638e-02 -3.53112370e-02
      -8.67645666e-02 -7.50700310e-02 0. -1.73629582e-01 0. 0.
      -7.50701204e-02 -2.49608755e-02 -6.12372085e-02 -6.12375550e-02
      -6.12374954e-02 -1.06465399e-01 -6.61642477e-02 -2.49607954e-02
      -2.49609426e-02 -1.00314304e-01 -7.07550347e-02 -9.37758535e-02
      -8.67642015e-02 -1.23169765e-01 -2.49609388e-02 -1.53564766e-01
      -4.32601459e-02 -1.12296239e-01 -1.73629582e-01 -1.12296224e-01 0.
      -9.03366357e-02 -1.17851816e-01 -4.99688163e-02 -6.61640689e-02
      -9.70990881e-02 -3.53112407e-02 -2.49608755e-02 -8.67645219e-02
      -2.49609910e-02 -9.03364420e-02 -8.30462500e-02 -6.12374656e-02
      -7.91560933e-02 0. -7.91561455e-02 -6.12375364e-02 -3.53112333e-02
      -6.12374656e-02 -2.49606743e-02 -9.70995948e-02 0. -4.99688126e-02
      -1.15105078e-01 -6.12374656e-02 -7.91559815e-02 -1.17852092e-01
      -1.06465854e-01 -4.32605818e-02 -8.30460116e-02 -7.91557282e-02
      -6.12372085e-02 -9.37757492e-02 0. -7.91560262e-02 -9.03364643e-02
      -6.61640242e-02 -6.12371564e-02 -4.32605408e-02 0. -7.91561976e-02
      -7.07550347e-02 -8.30457956e-02 -6.61641806e-02 -8.67648348e-02
      -7.91560486e-02 -8.67645666e-02 -1.53564766e-01 -1.17851347e-01
      1.41333170e+01 -8.30458254e-02 -5.58844656e-02 0. -9.70988199e-02
      -7.91554973e-02 -5.58839776e-02 -7.50702769e-02 -2.49609426e-02
      -7.50702769e-02 -4.32603806e-02 -2.49605104e-02 0. -1.06465854e-01
      -1.03434496e-01 -1.06465474e-01 0. -7.91555196e-02 -9.03364643e-02
      -9.03362557e-02 -7.50701204e-02 -7.91563988e-02 -9.03365165e-02
      -1.53564766e-01 -2.49609910e-02 -6.61642477e-02 -7.91559443e-02
      -7.91557282e-02 -2.49608755e-02 -2.49609426e-02 0. 0.
      -9.37760770e-02 0. -8.30462500e-02 0. -1.03435159e-01 0.
      -7.91560262e-02 -6.61642104e-02 -6.12372085e-02 -9.70995948e-02
      -7.91558921e-02 0. -6.12372085e-02 -8.67650658e-02 0.
      -6.61641806e-02 -8.30459520e-02 -9.03357193e-02 -4.32605818e-02
      -7.07550347e-02 0. 0. -8.30461085e-02 -9.37757492e-02
      -1.17851347e-01 -1.53564766e-01 -8.30456242e-02 -9.70988795e-02
      -9.03364643e-02 -1.09417938e-01 -2.49609388e-02 -4.32607271e-02
      -9.37752128e-02 -2.49607954e-02 -2.49609426e-02 -7.50700310e-02 0.
      -1.33207589e-01 -9.03364643e-02 -7.91560933e-02 -7.91560933e-02
      -6.61640018e-02 -4.32601422e-02 -7.07550272e-02 -8.30456242e-02
      -7.91560486e-02 -6.61640689e-02 0. 0. -7.91560933e-02 0. 0.
      -4.32603806e-02 -6.12374656e-02 -2.49609724e-02 -1.06465854e-01
      -7.91560262e-02 -8.30461085e-02 0. -1.25749201e-01 0.
      -7.91559815e-02 -6.61640018e-02 -1.33207589e-01 0. -6.12374656e-02
      -7.07550347e-02 -4.32603396e-02 -4.32604514e-02 -3.53112333e-02
      -4.32603806e-02 0. -8.30460116e-02 -1.00314230e-01 -1.09417938e-01
      -8.30461606e-02 -4.32601459e-02 -7.91560262e-02 -8.30458254e-02
      -9.03364643e-02 0. -6.61640540e-02 -7.50701204e-02 -2.49607954e-02
      -1.17852092e-01 -1.03435196e-01 -4.32604514e-02 -2.49608755e-02
      -4.99688163e-02 -6.61640838e-02 -7.07550198e-02 -5.58844656e-02
      -7.50700310e-02 -8.30456242e-02 0. -9.70995948e-02 -8.67647454e-02
      -7.07550049e-02 -7.50701204e-02 -1.09417938e-01 -7.07550049e-02
      -1.12295531e-01 -7.50701129e-02 -9.03365165e-02 -4.32601422e-02
      -5.58838770e-02 -9.03364643e-02 -7.07550049e-02 1.41333170e+01
      -9.03366357e-02 -4.32604514e-02 -7.91559443e-02 -8.30460116e-02 0.
      -4.32603769e-02 -6.61640316e-02 -8.67645666e-02 -1.17851347e-01
      -8.67650658e-02 -4.99688126e-02 -8.67650658e-02 -6.61640018e-02
      -6.12371564e-02 -6.61640838e-02 -8.67647454e-02 -7.50701129e-02
      -6.12377748e-02 -8.30462500e-02 0. -8.30458254e-02 0.
      -1.03434496e-01 -7.07550049e-02 -4.32601459e-02 -4.32601459e-02
      -1.09417938e-01 -7.91557282e-02 -6.61640838e-02 -8.67650509e-02
      -7.91554451e-02 -1.25749215e-01 0. -4.32601459e-02 -2.49609426e-02
      -8.67650434e-02 -8.67650434e-02 -2.49609388e-02 -6.61640987e-02
      -4.32605818e-02 -3.53112295e-02 -1.75525248e-01 -8.67645666e-02
      -3.53112407e-02 -4.32601459e-02 -3.53112295e-02 -4.32605818e-02
      -9.03361738e-02 -9.37757939e-02 -1.17851302e-01 0. -2.49609426e-02
      0. -1.12295531e-01 -5.58838770e-02 -7.07550049e-02 1.41333170e+01
      -7.91561455e-02 0. -8.67645666e-02 -2.49609426e-02 0. 0.
      -6.12375550e-02 -8.67650434e-02 -1.06465474e-01 -9.37758535e-02
      -2.49608755e-02 -7.50701129e-02 -5.58838770e-02 -6.12373650e-02
      -1.59821421e-01 -4.32607271e-02 -1.53564766e-01 -4.67449069e-01 0.
      -1.53564766e-01 -8.67648348e-02 -1.06465854e-01 0. -4.32603359e-02
      -4.32601459e-02 -4.99688089e-02 -6.61640838e-02 -8.30458254e-02
      -3.53112295e-02 -6.61640838e-02 -9.03364643e-02 -4.32604514e-02
      -1.09418355e-01 0. -9.03365165e-02 0. -2.49607954e-02
      -9.03366357e-02 -2.00386867e-01 -3.53112370e-02 0. -9.37758535e-02
      -7.91558921e-02 -7.91554451e-02 -7.91558921e-02 -3.53112333e-02
      -8.30461085e-02 -2.85450190e-01 -6.61641732e-02 -6.61641806e-02
      -1.51426867e-01 -8.30461532e-02 -8.30457956e-02 -1.12296224e-01
      -6.61641061e-02 -7.91557282e-02 -9.37754363e-02 0. -6.61642328e-02
      -9.70988199e-02 -9.70991626e-02 -8.30457956e-02 -1.67834520e-01
      -7.91557580e-02 -6.61641210e-02 -6.61640167e-02 0. -9.70991626e-02
      -2.07018793e-01 -2.49607172e-02 -3.53112407e-02 -4.32606861e-02
      -1.03433646e-01 -5.58840409e-02 -8.67651403e-02 -8.67648795e-02
      -7.91560933e-02 -1.73629582e-01 -8.67640227e-02 -4.99688163e-02 0.
      -8.67651775e-02 -1.09417833e-01 -1.09417424e-01 -9.03365165e-02
      -6.61642328e-02 -7.91554451e-02 -9.03361440e-02 0. -6.12371080e-02
      -9.70988274e-02 -6.12374768e-02 -7.07550347e-02 -1.03434481e-01
      -9.37756896e-02 -1.15104206e-01 -2.49610152e-02 -6.12372383e-02
      -2.05379918e-01 -5.58839776e-02 -1.20536990e-01 -4.32604514e-02
      -9.03361738e-02 -9.37757194e-02 0. -8.30463096e-02 -1.73629582e-01
      -3.53112333e-02 -7.07550347e-02 -2.49608234e-02 -7.91554451e-02
      -2.49609705e-02 0. -4.99688052e-02 -7.50700533e-02 -1.67834550e-01
      -7.50699788e-02 -7.91560933e-02 -1.57760218e-01 -7.07550123e-02 0.
      -8.30462575e-02 -1.40295386e-01 -7.91558996e-02 -8.30463991e-02
      -7.07550272e-02 -1.67834550e-01 -7.07550347e-02 -1.09418325e-01
      -6.12373576e-02 -6.12373576e-02 -6.61641285e-02 -2.49604434e-02 0.
      0. -1.09418236e-01 -9.37757194e-02 0. -6.61640167e-02
      -1.00314274e-01 -1.06465645e-01 -5.58840409e-02 -7.91560933e-02
      -1.73629478e-01 -5.58839776e-02 -8.30463991e-02 -9.70992520e-02
      -1.75525308e-01 -7.91554451e-02 -7.07550272e-02 -9.70987827e-02
      -6.61641806e-02 -1.03434920e-01 -6.12371042e-02 -8.30459818e-02
      -7.50699788e-02 -7.07550347e-02 -8.30462873e-02 -1.42585158e-01
      -1.03434235e-01 -1.15104325e-01 0. -1.73629582e-01 -6.61641285e-02
      -4.99688126e-02 -7.91554451e-02 -4.32603806e-02 -1.03434496e-01 0.
      0. 0. -9.70988348e-02 -6.61642328e-02 -9.03361738e-02
      6.10231781e+00 -7.91563988e-02 0. -7.07550272e-02 -2.49609705e-02
      -7.91560411e-02 -1.06465563e-01 -7.91558772e-02 -8.67651775e-02
      -8.30460638e-02 -6.12379611e-02 -9.03365165e-02 -8.30462798e-02
      -2.49609705e-02 -5.58840409e-02 -1.40295833e-01 0. -5.58844954e-02
      -7.91560933e-02 -8.67648795e-02 -3.53112407e-02 0. -1.15103893e-01
      -2.49607172e-02 -8.30461085e-02 -1.09418325e-01 -9.03361738e-02
      -9.70988944e-02 -9.37754810e-02 0. -4.32603806e-02 -4.32604514e-02
      0. 0. -1.73629090e-01 -2.49605738e-02 -9.03361738e-02
      -7.07550049e-02 -9.70988795e-02 -7.07550347e-02 0. -4.99688163e-02
      -8.67646262e-02 -7.50702247e-02 -1.73629090e-01 -9.37754363e-02 0.
      -8.30461755e-02 -1.28281415e-01 -1.12295859e-01 -6.61642700e-02
      -4.99687940e-02 -7.07549974e-02 0. -7.50699788e-02 -5.58844656e-02
      -7.07550272e-02 -2.49607172e-02 -4.32602055e-02 -6.12367839e-02
      -5.58842719e-02 -9.70988795e-02 -4.42523301e-01 -6.61641136e-02 0.
      -1.65864348e-01 -1.15104862e-01 -8.67643207e-02 0. -1.90075696e-01
      -1.17851309e-01 0. -1.06465645e-01 -4.32606861e-02 -6.61640242e-02
      -9.70988795e-02 -1.67834520e-01 0. -2.49610152e-02 -1.93565100e-01
      -1.75525308e-01 -8.30461085e-02 -9.70988348e-02 -7.91560933e-02
      -8.30461606e-02 -8.67645666e-02 -4.32605334e-02 -8.30461234e-02
      -7.91560411e-02 -6.12373650e-02 -7.91556165e-02 -1.15104862e-01
      -6.61639646e-02 -4.32606265e-02 -7.91559592e-02 -8.30462873e-02
      -7.91560411e-02 -7.07550347e-02 -9.70987827e-02 -1.06465563e-01
      -7.91554451e-02 -6.12373650e-02 -5.58844954e-02 -5.58844656e-02
      -9.70988795e-02 -4.32605594e-02 -1.00314319e-01 0. -8.67651775e-02
      -4.32606861e-02 -1.73629582e-01 -7.91560933e-02 -1.06465563e-01
      -9.37754363e-02 -9.70991626e-02 -1.06465429e-01 -9.70988795e-02
      -7.07550272e-02 0. 0. -7.50700459e-02 -1.57760218e-01 0.
      -1.28281116e-01 -1.75525308e-01 -8.30461755e-02 -5.58844656e-02
      -7.91563988e-02 0. -7.91559592e-02 -2.49607172e-02 -1.30765676e-01
      -3.53112295e-02 -1.40295655e-01 -9.37760547e-02 -6.61641806e-02 0.
      -1.00314237e-01 0. -1.12295508e-01 -8.67640227e-02 -1.12295531e-01
      -5.58842123e-02 -8.30460638e-02 -1.75525308e-01 -7.91557580e-02
      -7.91560933e-02 -1.17851302e-01 0. -9.70988795e-02 -6.61640689e-02
      0. -7.91559219e-02 -8.30458254e-02 -9.03361365e-02 -1.88312724e-01
      -7.91559592e-02 -7.50700906e-02 -8.30459818e-02 -7.91555420e-02
      -7.91560933e-02 -2.49607172e-02 -7.91554749e-02 -5.58842495e-02
      -8.30461234e-02 -5.58845438e-02 -4.29378837e-01 -1.15104206e-01 0.
      -2.82887757e-01 0. -5.58842719e-02 0. -1.20537587e-01
      -8.30457956e-02 0. -6.12378195e-02 -7.07550347e-02 -7.50701427e-02
      -2.40770683e-01 -1.33207545e-01 -7.91560262e-02 -6.61641210e-02
      -7.91560933e-02 -5.58840409e-02 -4.32603806e-02 -7.91556165e-02
      -7.50702247e-02 0. -1.61857232e-01 -9.70989466e-02 -7.91554898e-02
      -7.91560933e-02 -7.50700608e-02 0. -6.12367839e-02 -8.30462873e-02
      -1.03434794e-01 -2.49610152e-02 -6.12377040e-02 0. -9.03363749e-02
      -5.58837652e-02 -4.32604514e-02 -3.87849450e-01 -8.67645666e-02
      -8.67645666e-02 -9.03357193e-02 0. -1.00314304e-01 -9.70988795e-02
      -9.70988199e-02 0. -7.91559592e-02 -9.70991626e-02 -1.28281415e-01
      -7.07550347e-02 -1.42585024e-01 -7.07550123e-02 -1.12295724e-01
      -7.07550347e-02 -1.00314207e-01 -8.30462873e-02 -7.07550272e-02
      -3.53112407e-02 -4.32606712e-02 -7.50700310e-02 0. -7.50700608e-02
      -1.06465429e-01 -2.49605104e-02 -4.99688126e-02 -4.99688163e-02
      -6.61639646e-02 -3.53112407e-02 -1.06465645e-01 -9.37754363e-02
      -7.91554451e-02 -9.70988795e-02 -1.28281415e-01 -9.37752128e-02
      -9.37758759e-02 -7.07550347e-02 -8.67644772e-02 -8.30459967e-02
      -1.73629582e-01 -8.30457956e-02 -2.49607172e-02 -1.17851302e-01
      -7.07550347e-02 -9.03361738e-02 -7.07550049e-02 -3.53112333e-02
      -1.42585158e-01 -1.44841924e-01 -7.07550198e-02 -6.12370931e-02
      -9.70988348e-02 0. -4.99688163e-02 -6.61641136e-02 -1.20536499e-01
      -2.49610096e-02 -7.91554451e-02 -8.67652521e-02 -8.67652521e-02 0.
      -1.03434622e-01 -1.03434481e-01 -1.28281116e-01 -1.97001174e-01
      -5.58844656e-02 -9.37760547e-02 0. -8.30462873e-02 -8.30463096e-02
      -1.03434384e-01 -2.13478342e-01 -2.49604620e-02 0. -6.61641806e-02
      -9.03371945e-02 -7.91560486e-02 -7.91560933e-02 -3.53112333e-02
      -1.03434198e-01 -7.91560262e-02 -7.91556165e-02 -1.44841790e-01
      -7.07550347e-02 -2.49609705e-02 -9.70987678e-02 -1.73629582e-01
      -1.73629552e-01 -8.30460638e-02 -1.12295531e-01 -8.67653117e-02
      -2.49609705e-02 -5.58842123e-02 -1.40295833e-01 -7.07550272e-02
      -7.91559219e-02 -9.70988274e-02 0. 0. -8.30461159e-02
      -6.12378456e-02 -9.03357193e-02 -2.42214933e-01 -7.91560933e-02
      -7.91560486e-02 -1.06465645e-01 -3.53112258e-02 -6.61641210e-02
      -9.37752128e-02 -4.99688052e-02 -7.07550272e-02 -1.06465645e-01
      -8.30461830e-02 -8.30458254e-02 -1.75525308e-01 -7.91560933e-02
      -4.32607569e-02 -9.37758312e-02 -9.70988795e-02 -2.13478342e-01
      -7.91554749e-02 -7.07550272e-02 -7.50701800e-02 -1.09417833e-01
      -1.03434324e-01 -2.49609705e-02 0. 0. -5.58842160e-02 0.
      -7.91556165e-02 -7.91557580e-02 -7.91560486e-02 -7.91556165e-02
      -4.32603806e-02 -4.99688052e-02 0. -7.07550272e-02 -7.07550198e-02
      0. -9.37756896e-02 -4.32601906e-02 -1.75525308e-01 -1.42585158e-01
      -1.75525308e-01 -2.49608587e-02 0. -9.70988274e-02 -8.67650881e-02
      -1.61857471e-01 -7.50700235e-02 -6.12371750e-02 -9.03357640e-02
      -4.99688126e-02 -7.07550347e-02 -2.34925508e-01 -2.40769476e-01
      -7.91560709e-02 -7.50701129e-02 -7.07550272e-02 -7.50700682e-02
      -6.61641583e-02 -4.32606004e-02 -6.61641136e-02 -4.99688126e-02
      -5.58843389e-02 -6.61641806e-02 -7.91559964e-02 -9.37754363e-02
      -6.61642924e-02 -6.61642924e-02 -5.58841974e-02 -1.03434443e-01
      -4.99688052e-02 -1.00314215e-01 -2.31960610e-01 -9.37754363e-02
      -8.67640227e-02 -8.67644623e-02 -6.61641657e-02 -9.37756896e-02
      -6.61639869e-02 -1.55673563e-01 -9.70992297e-02 -9.03362632e-02
      -7.50700831e-02 -8.67640227e-02 -1.23169772e-01 -1.09418318e-01
      -1.15103588e-01 -1.44842178e-01 -7.07550272e-02 -8.67647901e-02
      -1.12296209e-01 -9.03359801e-02 -8.67644474e-02 -6.12370446e-02
      -1.00314200e-01 -9.37756896e-02 -1.28280163e-01 -8.30462724e-02
      -9.37758461e-02 -9.37757716e-02 -2.45082080e-01 -7.50701800e-02
      -7.91556016e-02 -9.37754363e-02 -6.61641061e-02 -8.30463022e-02
      -9.70987156e-02 -7.91562498e-02 -8.30456018e-02 -5.58839850e-02
      -8.67643133e-02 -5.58843017e-02 -7.07550198e-02 -9.70988944e-02
      -8.67645890e-02 -7.07550347e-02 -6.61641136e-02 -1.17851265e-01
      -9.03363079e-02 -1.12295806e-01 -8.67652893e-02 -1.00314215e-01
      -9.37756896e-02 -7.50700682e-02 -7.07550272e-02 -8.67653042e-02
      -8.67647752e-02 -6.61639869e-02 -3.53112407e-02 -6.61641806e-02
      -1.47066697e-01 -1.06465578e-01 -8.30459148e-02 -7.07550272e-02
      -7.07550272e-02 -1.44842014e-01 -4.99688126e-02 -8.67640227e-02
      -7.50700757e-02 -1.55673340e-01 -9.70987678e-02 -9.37754363e-02
      -8.30460638e-02 -9.70987007e-02 -1.33207828e-01 -3.53112407e-02
      -1.06465526e-01 -8.30459371e-02 -8.67640898e-02 5.46663952e+00
      -1.03434391e-01 -5.58842532e-02 -6.61639571e-02 -8.30461159e-02
      -1.37968972e-01 -7.50701949e-02 -7.50701949e-02 -3.53112407e-02
      -1.12295948e-01 -9.70988870e-02 0. -6.61641285e-02 -3.53112295e-02
      -6.12367578e-02 -3.53112370e-02 -3.53112295e-02 -6.12372123e-02
      -3.53112295e-02 -4.32601757e-02 -5.58840781e-02 -8.67645666e-02
      -1.15104690e-01 -1.15104631e-01 -1.03434533e-01 -2.49604974e-02</_>
    <_>
      -7.94355154e-01 -4.34693515e-01 1.51530474e-01 5.44251144e-01
      -4.99688052e-02 0. -9.70988199e-02 -8.30457956e-02 1.20416870e+01
      -1.20536476e-01 -7.50700682e-02 -8.67647454e-02 -6.12372160e-02 0.
      -8.67647454e-02 1.20416870e+01 -2.49604881e-02 -8.67653117e-02
      -6.12371564e-02 -6.61640167e-02 -6.12377040e-02 -7.50700608e-02
      -9.03366357e-02 -9.37757939e-02 -6.12373427e-02 -7.07550049e-02 0.
      -1.12295531e-01 -6.61642477e-02 -2.49604471e-02 -3.53112370e-02
      -8.30461308e-02 -4.32608128e-02 0. -1.53564766e-01 -9.03365165e-02
      -7.91554451e-02 -8.30456242e-02 0. -6.61642402e-02 -8.30461755e-02
      -9.03357193e-02 -1.33207500e-01 0. -5.58839776e-02 0.
      -5.58839776e-02 -1.17851533e-01 -4.32604514e-02 -9.03361738e-02
      -1.03435114e-01 0. -1.00314192e-01 0. -8.30463096e-02
      -6.61641136e-02 -1.73629582e-01 -8.67650434e-02 -7.07550347e-02
      -7.91560933e-02 -2.49609426e-02 0. 0. -7.91556761e-02
      -2.95529753e-01 -8.30462873e-02 -7.91561455e-02 -1.12296239e-01 0.
      -8.67647454e-02 -1.00314304e-01 -1.09417677e-01 -8.30461755e-02
      -1.09418325e-01 -1.09418355e-01 -7.07550272e-02 -2.49607749e-02 0.
      0. 0. -1.03435114e-01 0. 0. -7.50700757e-02 -9.70987678e-02
      -7.91560188e-02 -7.07550347e-02 -5.58839776e-02 -8.67647752e-02
      -7.07550049e-02 -2.49604471e-02 -9.03364420e-02 0. -7.50700906e-02
      -8.30459520e-02 -8.30459818e-02 -8.30463991e-02 -7.50700906e-02
      -5.58842830e-02 -1.12295531e-01 -5.58837093e-02 -6.12374656e-02
      -8.67648274e-02 -7.91554973e-02 -3.53112333e-02 -1.73629582e-01
      -6.12375662e-02 -1.09417677e-01 -4.99688126e-02 -4.32603806e-02
      -1.03434496e-01 0. -1.23169757e-01 -1.12295784e-01 -6.12374656e-02
      0. 0. -1.12295531e-01 -1.09417096e-01 -1.09417677e-01
      -1.55673385e-01 0. -7.07550049e-02 -8.30461234e-02 1.20416870e+01
      0. -6.12367839e-02 -2.49609426e-02 -9.37754363e-02 0.
      -8.30460638e-02 -8.67650434e-02 -1.09417938e-01 -1.53564766e-01
      -7.50700608e-02 -9.03365165e-02 -5.58839329e-02 -2.49609426e-02
      -9.37754363e-02 -9.03360471e-02 -2.49607954e-02 -7.50700384e-02
      -6.12367839e-02 -7.07550049e-02 -9.37757939e-02 -1.75525337e-01 0.
      -5.58846332e-02 -6.12369925e-02 -6.61640018e-02 -7.07550049e-02
      -1.23169757e-01 -8.30461085e-02 -1.09418325e-01 -7.91561455e-02
      -8.30458254e-02 -9.37757865e-02 -9.03360173e-02 -1.00314304e-01
      -3.53112407e-02 -4.32604514e-02 0. 0. -8.30463991e-02 0.
      -3.53112295e-02 -7.50701129e-02 -1.06465645e-01 -8.30459520e-02
      -9.03357193e-02 0. -8.67647454e-02 -1.59821421e-01 -1.25749201e-01
      -4.99688014e-02 -4.32604253e-02 -7.91557580e-02 -7.91561976e-02
      -1.00314192e-01 0. -5.58844022e-02 -5.58844656e-02 -5.58839776e-02
      0. 0. 0. -1.15104571e-01 1.40306020e+00 -6.61640018e-02
      -8.30458254e-02 -1.06465645e-01 -7.91555196e-02 -4.61507231e-01
      -7.50699788e-02 0. -1.06465854e-01 -2.49604471e-02 -7.91557580e-02
      -2.49607954e-02 -1.17851309e-01 -6.12371564e-02 -8.67650509e-02
      -6.61640242e-02 0. -9.37756896e-02 -8.30460712e-02 0. 0.
      -9.37756896e-02 -8.30461085e-02 -1.12295531e-01 -7.91554973e-02
      -1.00314289e-01 -8.67645666e-02 -6.61640167e-02 -8.30461234e-02
      -8.67650434e-02 -6.12373650e-02 -1.23169757e-01 0. -9.03360173e-02
      -2.49609910e-02 -6.12369925e-02 -8.30456242e-02 -8.30462873e-02
      -8.67650434e-02 -1.15105025e-01 -7.50701129e-02 -9.70989615e-02
      -1.09417938e-01 -6.12373650e-02 -1.35607004e-01 -2.49609426e-02
      -1.23169757e-01 -1.53564766e-01 -1.44842505e-01 -6.12371564e-02
      -5.58844656e-02 -1.09417938e-01 -5.58842756e-02 -7.91555196e-02
      -1.28280237e-01 0. -8.67645591e-02 0. -1.33207589e-01
      -9.70987976e-02 -8.67647454e-02 -5.58844656e-02 0. -7.07550347e-02
      -1.00314282e-01 -6.12372272e-02 -2.49609109e-02 -9.03357193e-02 0.
      -5.58846332e-02 -9.37756896e-02 -5.58842830e-02 -3.53112295e-02
      -7.91557580e-02 0. -8.67640227e-02 -1.12295531e-01 -1.51426762e-01
      -1.73629165e-01 0. -8.30458254e-02 -8.30458254e-02 -8.30459818e-02
      -8.30462873e-02 -8.30461234e-02 -7.91558325e-02 -4.32605632e-02
      -4.61507231e-01 -1.33207500e-01 -3.53112295e-02 0. -7.91557953e-02
      0. 0. -8.67644623e-02 -1.09417096e-01 0. -4.32603359e-02
      -8.67646486e-02 -8.67650509e-02 -1.00314304e-01 -7.50701129e-02 0.
      -7.07550198e-02 -7.91560262e-02 -8.30459669e-02 -7.91560933e-02
      -7.07550347e-02 -1.17851600e-01 -8.30459520e-02 -1.09417893e-01 0.
      -1.23169757e-01 -8.30462053e-02 -1.03434965e-01 -6.61640018e-02
      -1.23169757e-01 -8.67647454e-02 -3.53112370e-02 -7.91557580e-02 0.
      0. -6.61640018e-02 -9.03361738e-02 -8.30461755e-02 -8.30462873e-02
      0. 0. -7.07550347e-02 -4.32604514e-02 -9.70989987e-02
      -5.58838770e-02 -1.73629582e-01 -2.49607954e-02 -8.67643207e-02
      -8.67645666e-02 -8.67645666e-02 -3.53112370e-02 -2.49609910e-02
      -9.03357193e-02 0. -2.49607954e-02 -1.00314304e-01 -1.20537050e-01
      -9.70988199e-02 -8.30456242e-02 -8.30456242e-02 -8.67640227e-02 0.
      -1.59821421e-01 -7.91558027e-02 -1.06465854e-01 -9.03357193e-02
      -1.06465437e-01 -8.30462873e-02 -2.49604881e-02 -8.30461904e-02
      -7.07550347e-02 0. -1.59821123e-01 -1.28280237e-01 -2.49605104e-02
      -4.99688126e-02 -9.03361738e-02 -2.49338135e-01 -8.30457956e-02 0.
      -4.99688163e-02 -7.91554451e-02 -1.00314312e-01 -7.91551620e-02
      -8.30459669e-02 -1.59821421e-01 -8.67640004e-02 -1.73629582e-01
      -1.03434578e-01 -7.07550347e-02 -8.30457956e-02 -7.07550272e-02
      -1.69785917e-01 -9.03361738e-02 0. -7.50702173e-02 -2.49610059e-02
      -1.73629582e-01 0. 0. -7.07550198e-02 -7.07549900e-02
      -1.12295531e-01 -1.73629045e-01 -9.70995352e-02 -2.49605142e-02
      -7.07550272e-02 -1.03433818e-01 0. -9.03357193e-02 -1.33207589e-01
      -8.67647752e-02 -1.30765542e-01 0. 0. -8.67648274e-02 0.
      -9.70990881e-02 -7.07550123e-02 -8.30456465e-02 -4.32605632e-02
      -7.91560486e-02 -7.91560262e-02 -9.37758535e-02 -1.53564855e-01
      -4.99688126e-02 -6.12373427e-02 -2.49609426e-02 -9.70987678e-02
      -8.67640749e-02 -8.30459520e-02 -9.03361738e-02 -2.49607656e-02
      -9.03363749e-02 -1.12295531e-01 -9.03365165e-02 -2.49609426e-02
      -1.06465854e-01 -2.49607954e-02 0. 0. -5.58846332e-02
      1.20416870e+01 -7.50702173e-02 -6.61641061e-02 -9.03357193e-02
      -2.61782438e-01 0. -7.91560486e-02 -3.53112407e-02 0.
      -8.67640004e-02 -4.32604253e-02 -8.30458254e-02 -4.32605408e-02
      -2.49338150e-01 -8.30458254e-02 -4.99688163e-02 -8.30458254e-02
      -4.99688052e-02 -1.73629582e-01 -9.03361440e-02 -2.49609426e-02
      -7.91557580e-02 0. -6.12374656e-02 -8.30458254e-02 -1.20537244e-01
      -7.07550049e-02 -6.61640018e-02 -7.91560486e-02 -7.91560411e-02
      -7.91561455e-02 0. -4.32603806e-02 -7.91561976e-02 -9.03361812e-02
      0. -7.07550272e-02 -7.07550198e-02 0. -2.95529753e-01
      -3.53112370e-02 -2.13478342e-01 -7.07550049e-02 -3.53112295e-02 0.
      0. 0. -7.50701204e-02 -7.07550272e-02 -7.07550049e-02 0. 0.
      1.20416870e+01 0. -8.67644772e-02 -9.37757939e-02 -7.91557282e-02
      -4.32601422e-02 -3.53112407e-02 -7.50700310e-02 -6.61642104e-02
      -9.03364643e-02 -6.61640316e-02 -7.91555196e-02 -7.91561455e-02
      -7.91559443e-02 -7.91554451e-02 0. -4.99688126e-02 -7.91559815e-02
      0. 0. -3.53112407e-02 -6.12372085e-02 -7.50700310e-02
      -2.49609426e-02 -4.99688126e-02 -1.12295531e-01 0. -9.70995948e-02
      -2.49608755e-02 -2.49605104e-02 0. -9.37752128e-02 -8.67642015e-02
      -1.12295531e-01 -9.37758535e-02 0. 0. -7.07550272e-02
      -1.17852092e-01 -7.07550272e-02 -5.58845997e-02 -4.32605818e-02
      -2.49609426e-02 -7.91563988e-02 -6.12374656e-02 -1.03435114e-01
      -8.67645666e-02 0. -7.50700310e-02 -1.00314192e-01 -7.91557282e-02
      -7.91560486e-02 -3.17418486e-01 -1.73629582e-01 -6.61640018e-02
      -9.70988795e-02 1.20416870e+01 -1.15105405e-01 -5.58842756e-02 0.
      -8.30458254e-02 -1.06465474e-01 -1.73629582e-01 0. 0.
      -7.91557282e-02 -2.49608755e-02 -2.49608755e-02 -9.37758535e-02
      -8.30459520e-02 -1.06465854e-01 0. -1.59821421e-01 -6.12372272e-02
      -7.50702769e-02 0. -4.32603806e-02 -1.15105338e-01 -7.91554973e-02
      -2.49609426e-02 -4.67449069e-01 0. -1.06465854e-01 -1.71719000e-01
      0. -1.09418325e-01 -1.63872823e-01 -9.03366357e-02 -1.59821421e-01
      -3.53112407e-02 -6.61640689e-02 -8.67645666e-02 -4.32605818e-02
      -9.37758535e-02 0. -7.07550347e-02 -7.50701502e-02 0.
      -6.61641806e-02 0. 0. 0. -4.99688163e-02 -1.03435114e-01
      -7.91560933e-02 -3.33793759e-01 0. -6.12375364e-02 -9.03364643e-02
      0. 0. -1.33207500e-01 -4.99688126e-02 0. -8.30457434e-02
      -6.12372085e-02 -8.67648348e-02 -7.91561976e-02 -9.03364643e-02
      -9.70995948e-02 -2.49605104e-02 -1.17851309e-01 0. -1.33207500e-01
      -1.00314192e-01 -5.58839776e-02 -7.50701204e-02 0. 0.
      -7.91561455e-02 -4.99688126e-02 -2.49605104e-02 -1.09417938e-01 0.
      -2.00386867e-01 -7.91561455e-02 -1.09418325e-01 -4.32604514e-02 0.
      -7.50701204e-02 -6.61640838e-02 -9.37757567e-02 -6.12375364e-02
      -9.70988795e-02 -7.07550347e-02 -6.61640018e-02 -2.49608755e-02
      -4.32604514e-02 -7.91559815e-02 -8.67642015e-02 -9.70988199e-02
      -6.12373650e-02 -7.07550198e-02 -8.30463096e-02 -9.70991179e-02
      -9.03357193e-02 -2.49609388e-02 -8.30460638e-02 -3.53112370e-02
      -8.67645666e-02 -7.50700310e-02 0. -1.73629582e-01 0. 0.
      -7.50701204e-02 -2.49608755e-02 -6.12372085e-02 -6.12375550e-02
      -6.12374954e-02 -1.06465399e-01 -6.61642477e-02 -2.49607954e-02
      -2.49609426e-02 -1.00314304e-01 -7.07550347e-02 -9.37758535e-02
      -8.67642015e-02 -1.23169765e-01 -2.49609388e-02 -1.53564766e-01
      -4.32601459e-02 -1.12296239e-01 -1.73629582e-01 -1.12296224e-01 0.
      -9.03366357e-02 -1.17851816e-01 -4.99688163e-02 -6.61640689e-02
      -9.70990881e-02 -3.53112407e-02 -2.49608755e-02 -8.67645219e-02
      -2.49609910e-02 -9.03364420e-02 -8.30462500e-02 -6.12374656e-02
      -7.91560933e-02 0. -7.91561455e-02 -6.12375364e-02 -3.53112333e-02
      -6.12374656e-02 -2.49606743e-02 -9.70995948e-02 0. -4.99688126e-02
      -1.15105078e-01 -6.12374656e-02 -7.91559815e-02 -1.17852092e-01
      -1.06465854e-01 -4.32605818e-02 -8.30460116e-02 -7.91557282e-02
      -6.12372085e-02 -9.37757492e-02 0. -7.91560262e-02 -9.03364643e-02
      -6.61640242e-02 -6.12371564e-02 -4.32605408e-02 0. -7.91561976e-02
      -7.07550347e-02 -8.30457956e-02 -6.61641806e-02 -8.67648348e-02
      -7.91560486e-02 -8.67645666e-02 -1.53564766e-01 -1.17851347e-01
      -7.07550272e-02 -8.30458254e-02 -5.58844656e-02 0. -9.70988199e-02
      -7.91554973e-02 -5.58839776e-02 -7.50702769e-02 -2.49609426e-02
      -7.50702769e-02 -4.32603806e-02 -2.49605104e-02 0. -1.06465854e-01
      -1.03434496e-01 -1.06465474e-01 0. -7.91555196e-02 -9.03364643e-02
      -9.03362557e-02 -7.50701204e-02 -7.91563988e-02 -9.03365165e-02
      -1.53564766e-01 -2.49609910e-02 -6.61642477e-02 -7.91559443e-02
      -7.91557282e-02 -2.49608755e-02 -2.49609426e-02 0. 0.
      -9.37760770e-02 0. -8.30462500e-02 0. -1.03435159e-01 0.
      -7.91560262e-02 -6.61642104e-02 -6.12372085e-02 -9.70995948e-02
      -7.91558921e-02 0. -6.12372085e-02 -8.67650658e-02 0.
      -6.61641806e-02 -8.30459520e-02 -9.03357193e-02 -4.32605818e-02
      -7.07550347e-02 0. 0. -8.30461085e-02 -9.37757492e-02
      -1.17851347e-01 -1.53564766e-01 -8.30456242e-02 -9.70988795e-02
      -9.03364643e-02 -1.09417938e-01 -2.49609388e-02 -4.32607271e-02
      -9.37752128e-02 -2.49607954e-02 -2.49609426e-02 -7.50700310e-02 0.
      -1.33207589e-01 -9.03364643e-02 -7.91560933e-02 -7.91560933e-02
      -6.61640018e-02 -4.32601422e-02 -7.07550272e-02 -8.30456242e-02
      -7.91560486e-02 -6.61640689e-02 0. 0. -7.91560933e-02 0. 0.
      -4.32603806e-02 -6.12374656e-02 -2.49609724e-02 -1.06465854e-01
      -7.91560262e-02 -8.30461085e-02 0. -1.25749201e-01 0.
      -7.91559815e-02 -6.61640018e-02 -1.33207589e-01 0. -6.12374656e-02
      -7.07550347e-02 -4.32603396e-02 -4.32604514e-02 -3.53112333e-02
      -4.32603806e-02 0. -8.30460116e-02 -1.00314230e-01 -1.09417938e-01
      -8.30461606e-02 -4.32601459e-02 -7.91560262e-02 -8.30458254e-02
      -9.03364643e-02 0. -6.61640540e-02 -7.50701204e-02 -2.49607954e-02
      -1.17852092e-01 -1.03435196e-01 -4.32604514e-02 -2.49608755e-02
      -4.99688163e-02 -6.61640838e-02 -7.07550198e-02 -5.58844656e-02
      -7.50700310e-02 -8.30456242e-02 0. -9.70995948e-02 -8.67647454e-02
      -7.07550049e-02 -7.50701204e-02 -1.09417938e-01 -7.07550049e-02
      -1.12295531e-01 -7.50701129e-02 -9.03365165e-02 -4.32601422e-02
      -5.58838770e-02 -9.03364643e-02 -7.07550049e-02 -7.07550272e-02
      -9.03366357e-02 -4.32604514e-02 -7.91559443e-02 -8.30460116e-02 0.
      -4.32603769e-02 -6.61640316e-02 -8.67645666e-02 -1.17851347e-01
      -8.67650658e-02 -4.99688126e-02 -8.67650658e-02 -6.61640018e-02
      -6.12371564e-02 -6.61640838e-02 -8.67647454e-02 -7.50701129e-02
      -6.12377748e-02 -8.30462500e-02 0. -8.30458254e-02 0.
      -1.03434496e-01 -7.07550049e-02 -4.32601459e-02 -4.32601459e-02
      -1.09417938e-01 -7.91557282e-02 -6.61640838e-02 -8.67650509e-02
      -7.91554451e-02 -1.25749215e-01 0. -4.32601459e-02 -2.49609426e-02
      -8.67650434e-02 -8.67650434e-02 -2.49609388e-02 -6.61640987e-02
      -4.32605818e-02 -3.53112295e-02 -1.75525248e-01 -8.67645666e-02
      -3.53112407e-02 -4.32601459e-02 -3.53112295e-02 -4.32605818e-02
      -9.03361738e-02 -9.37757939e-02 -1.17851302e-01 0. -2.49609426e-02
      0. -1.12295531e-01 -5.58838770e-02 -7.07550049e-02 -7.07550272e-02
      -7.91561455e-02 0. -8.67645666e-02 -2.49609426e-02 0. 0.
      -6.12375550e-02 -8.67650434e-02 -1.06465474e-01 -9.37758535e-02
      -2.49608755e-02 -7.50701129e-02 -5.58838770e-02 -6.12373650e-02
      -1.59821421e-01 -4.32607271e-02 -1.53564766e-01 -4.67449069e-01 0.
      -1.53564766e-01 -8.67648348e-02 -1.06465854e-01 0. -4.32603359e-02
      -4.32601459e-02 -4.99688089e-02 -6.61640838e-02 -8.30458254e-02
      -3.53112295e-02 -6.61640838e-02 -9.03364643e-02 -4.32604514e-02
      -1.09418355e-01 0. -9.03365165e-02 0. -2.49607954e-02
      -9.03366357e-02 -2.00386867e-01 -3.53112370e-02 0. -9.37758535e-02
      -7.91558921e-02 -7.91554451e-02 -7.91558921e-02 -3.53112333e-02
      -8.30461085e-02 -2.85450190e-01 -6.61641732e-02 -6.61641806e-02
      -1.51426867e-01 -8.30461532e-02 -8.30457956e-02 -1.12296224e-01
      -6.61641061e-02 -7.91557282e-02 -9.37754363e-02 0. -6.61642328e-02
      -9.70988199e-02 -9.70991626e-02 -8.30457956e-02 -1.67834520e-01
      -7.91557580e-02 -6.61641210e-02 -6.61640167e-02 0. -9.70991626e-02
      -2.07018793e-01 -2.49607172e-02 -3.53112407e-02 -4.32606861e-02
      -1.03433646e-01 -5.58840409e-02 -8.67651403e-02 -8.67648795e-02
      -7.91560933e-02 -1.73629582e-01 -8.67640227e-02 -4.99688163e-02 0.
      -8.67651775e-02 -1.09417833e-01 -1.09417424e-01 -9.03365165e-02
      -6.61642328e-02 -7.91554451e-02 -9.03361440e-02 0. -6.12371080e-02
      -9.70988274e-02 -6.12374768e-02 -7.07550347e-02 -1.03434481e-01
      -9.37756896e-02 -1.15104206e-01 -2.49610152e-02 -6.12372383e-02
      -2.05379918e-01 -5.58839776e-02 -1.20536990e-01 -4.32604514e-02
      -9.03361738e-02 -9.37757194e-02 0. -8.30463096e-02 -1.73629582e-01
      -3.53112333e-02 -7.07550347e-02 -2.49608234e-02 -7.91554451e-02
      -2.49609705e-02 0. -4.99688052e-02 -7.50700533e-02 -1.67834550e-01
      -7.50699788e-02 -7.91560933e-02 -1.57760218e-01 -7.07550123e-02 0.
      -8.30462575e-02 -1.40295386e-01 -7.91558996e-02 -8.30463991e-02
      -7.07550272e-02 -1.67834550e-01 -7.07550347e-02 -1.09418325e-01
      -6.12373576e-02 -6.12373576e-02 -6.61641285e-02 -2.49604434e-02 0.
      0. -1.09418236e-01 -9.37757194e-02 0. -6.61640167e-02
      -1.00314274e-01 -1.06465645e-01 -5.58840409e-02 -7.91560933e-02
      -1.73629478e-01 -5.58839776e-02 -8.30463991e-02 -9.70992520e-02
      -1.75525308e-01 -7.91554451e-02 -7.07550272e-02 -9.70987827e-02
      -6.61641806e-02 -1.03434920e-01 -6.12371042e-02 -8.30459818e-02
      -7.50699788e-02 -7.07550347e-02 -8.30462873e-02 -1.42585158e-01
      -1.03434235e-01 -1.15104325e-01 0. -1.73629582e-01 -6.61641285e-02
      -4.99688126e-02 -7.91554451e-02 -4.32603806e-02 -1.03434496e-01 0.
      0. 0. -9.70988348e-02 -6.61642328e-02 -9.03361738e-02
      -1.63873002e-01 -7.91563988e-02 0. -7.07550272e-02 -2.49609705e-02
      -7.91560411e-02 -1.06465563e-01 -7.91558772e-02 -8.67651775e-02
      -8.30460638e-02 -6.12379611e-02 -9.03365165e-02 -8.30462798e-02
      -2.49609705e-02 -5.58840409e-02 -1.40295833e-01 0. -5.58844954e-02
      -7.91560933e-02 -8.67648795e-02 -3.53112407e-02 0. -1.15103893e-01
      -2.49607172e-02 -8.30461085e-02 -1.09418325e-01 -9.03361738e-02
      -9.70988944e-02 -9.37754810e-02 0. -4.32603806e-02 -4.32604514e-02
      0. 0. -1.73629090e-01 -2.49605738e-02 -9.03361738e-02
      -7.07550049e-02 -9.70988795e-02 -7.07550347e-02 0. -4.99688163e-02
      -8.67646262e-02 -7.50702247e-02 -1.73629090e-01 -9.37754363e-02 0.
      -8.30461755e-02 -1.28281415e-01 -1.12295859e-01 -6.61642700e-02
      -4.99687940e-02 -7.07549974e-02 0. -7.50699788e-02 -5.58844656e-02
      -7.07550272e-02 -2.49607172e-02 -4.32602055e-02 -6.12367839e-02
      -5.58842719e-02 -9.70988795e-02 -4.42523301e-01 -6.61641136e-02 0.
      -1.65864348e-01 -1.15104862e-01 -8.67643207e-02 0. -1.90075696e-01
      -1.17851309e-01 0. -1.06465645e-01 -4.32606861e-02 -6.61640242e-02
      -9.70988795e-02 -1.67834520e-01 0. -2.49610152e-02 -1.93565100e-01
      -1.75525308e-01 -8.30461085e-02 -9.70988348e-02 -7.91560933e-02
      -8.30461606e-02 -8.67645666e-02 -4.32605334e-02 -8.30461234e-02
      -7.91560411e-02 -6.12373650e-02 -7.91556165e-02 -1.15104862e-01
      -6.61639646e-02 -4.32606265e-02 -7.91559592e-02 -8.30462873e-02
      -7.91560411e-02 -7.07550347e-02 -9.70987827e-02 -1.06465563e-01
      -7.91554451e-02 -6.12373650e-02 -5.58844954e-02 -5.58844656e-02
      -9.70988795e-02 -4.32605594e-02 -1.00314319e-01 0. -8.67651775e-02
      -4.32606861e-02 -1.73629582e-01 -7.91560933e-02 -1.06465563e-01
      -9.37754363e-02 -9.70991626e-02 -1.06465429e-01 -9.70988795e-02
      -7.07550272e-02 0. 0. -7.50700459e-02 -1.57760218e-01 0.
      -1.28281116e-01 -1.75525308e-01 -8.30461755e-02 -5.58844656e-02
      -7.91563988e-02 0. -7.91559592e-02 -2.49607172e-02 -1.30765676e-01
      -3.53112295e-02 -1.40295655e-01 -9.37760547e-02 -6.61641806e-02 0.
      -1.00314237e-01 0. -1.12295508e-01 -8.67640227e-02 -1.12295531e-01
      -5.58842123e-02 -8.30460638e-02 -1.75525308e-01 -7.91557580e-02
      -7.91560933e-02 -1.17851302e-01 0. -9.70988795e-02 -6.61640689e-02
      0. -7.91559219e-02 -8.30458254e-02 1.10696507e+01 -1.88312724e-01
      -7.91559592e-02 -7.50700906e-02 -8.30459818e-02 -7.91555420e-02
      -7.91560933e-02 -2.49607172e-02 -7.91554749e-02 -5.58842495e-02
      -8.30461234e-02 -5.58845438e-02 -4.29378837e-01 -1.15104206e-01 0.
      -2.82887757e-01 0. -5.58842719e-02 0. -1.20537587e-01
      -8.30457956e-02 0. -6.12378195e-02 -7.07550347e-02 -7.50701427e-02
      -2.40770683e-01 -1.33207545e-01 -7.91560262e-02 -6.61641210e-02
      -7.91560933e-02 -5.58840409e-02 -4.32603806e-02 -7.91556165e-02
      -7.50702247e-02 0. -1.61857232e-01 -9.70989466e-02 -7.91554898e-02
      -7.91560933e-02 -7.50700608e-02 0. -6.12367839e-02 -8.30462873e-02
      -1.03434794e-01 -2.49610152e-02 -6.12377040e-02 0. -9.03363749e-02
      -5.58837652e-02 -4.32604514e-02 -3.87849450e-01 -8.67645666e-02
      -8.67645666e-02 -9.03357193e-02 0. -1.00314304e-01 -9.70988795e-02
      -9.70988199e-02 0. -7.91559592e-02 -9.70991626e-02 -1.28281415e-01
      -7.07550347e-02 -1.42585024e-01 -7.07550123e-02 -1.12295724e-01
      -7.07550347e-02 -1.00314207e-01 -8.30462873e-02 -7.07550272e-02
      -3.53112407e-02 -4.32606712e-02 -7.50700310e-02 0. -7.50700608e-02
      -1.06465429e-01 -2.49605104e-02 -4.99688126e-02 -4.99688163e-02
      -6.61639646e-02 -3.53112407e-02 -1.06465645e-01 -9.37754363e-02
      -7.91554451e-02 -9.70988795e-02 -1.28281415e-01 -9.37752128e-02
      -9.37758759e-02 -7.07550347e-02 -8.67644772e-02 -8.30459967e-02
      -1.73629582e-01 -8.30457956e-02 -2.49607172e-02 -1.17851302e-01
      -7.07550347e-02 -9.03361738e-02 -7.07550049e-02 -3.53112333e-02
      -1.42585158e-01 -1.44841924e-01 -7.07550198e-02 -6.12370931e-02
      -9.70988348e-02 0. -4.99688163e-02 -6.61641136e-02 -1.20536499e-01
      -2.49610096e-02 -7.91554451e-02 -8.67652521e-02 -8.67652521e-02 0.
      -1.03434622e-01 -1.03434481e-01 -1.28281116e-01 -1.97001174e-01
      -5.58844656e-02 -9.37760547e-02 0. -8.30462873e-02 -8.30463096e-02
      -1.03434384e-01 -2.13478342e-01 -2.49604620e-02 0. -6.61641806e-02
      -9.03371945e-02 -7.91560486e-02 -7.91560933e-02 -3.53112333e-02
      -1.03434198e-01 -7.91560262e-02 -7.91556165e-02 -1.44841790e-01
      -7.07550347e-02 -2.49609705e-02 -9.70987678e-02 -1.73629582e-01
      -1.73629552e-01 -8.30460638e-02 -1.12295531e-01 -8.67653117e-02
      -2.49609705e-02 -5.58842123e-02 -1.40295833e-01 -7.07550272e-02
      -7.91559219e-02 -9.70988274e-02 0. 0. 1.20416870e+01
      -6.12378456e-02 -9.03357193e-02 -2.42214933e-01 -7.91560933e-02
      -7.91560486e-02 -1.06465645e-01 -3.53112258e-02 -6.61641210e-02
      -9.37752128e-02 -4.99688052e-02 -7.07550272e-02 -1.06465645e-01
      -8.30461830e-02 -8.30458254e-02 -1.75525308e-01 -7.91560933e-02
      -4.32607569e-02 -9.37758312e-02 -9.70988795e-02 -2.13478342e-01
      -7.91554749e-02 -7.07550272e-02 -7.50701800e-02 -1.09417833e-01
      -1.03434324e-01 -2.49609705e-02 0. 0. -5.58842160e-02 0.
      -7.91556165e-02 -7.91557580e-02 -7.91560486e-02 -7.91556165e-02
      -4.32603806e-02 -4.99688052e-02 0. -7.07550272e-02 -7.07550198e-02
      0. -9.37756896e-02 -4.32601906e-02 -1.75525308e-01 -1.42585158e-01
      -1.75525308e-01 -2.49608587e-02 0. -9.70988274e-02 -8.67650881e-02
      -1.61857471e-01 -7.50700235e-02 -6.12371750e-02 -9.03357640e-02
      -4.99688126e-02 -7.07550347e-02 -2.34925508e-01 -2.40769476e-01
      -7.91560709e-02 -7.50701129e-02 -7.07550272e-02 -7.50700682e-02
      -6.61641583e-02 -4.32606004e-02 -6.61641136e-02 -4.99688126e-02
      -5.58843389e-02 -6.61641806e-02 -7.91559964e-02 -9.37754363e-02
      -6.61642924e-02 -6.61642924e-02 -5.58841974e-02 -1.03434443e-01
      -4.99688052e-02 -1.00314215e-01 -2.31960610e-01 -9.37754363e-02
      -8.67640227e-02 -8.67644623e-02 -6.61641657e-02 -9.37756896e-02
      -6.61639869e-02 -1.55673563e-01 -9.70992297e-02 -9.03362632e-02
      -7.50700831e-02 -8.67640227e-02 -1.23169772e-01 -1.09418318e-01
      -1.15103588e-01 -1.44842178e-01 -7.07550272e-02 -8.67647901e-02
      -1.12296209e-01 -9.03359801e-02 -8.67644474e-02 -6.12370446e-02
      -1.00314200e-01 -9.37756896e-02 -1.28280163e-01 -8.30462724e-02
      -9.37758461e-02 -9.37757716e-02 -2.45082080e-01 -7.50701800e-02
      -7.91556016e-02 -9.37754363e-02 -6.61641061e-02 -8.30463022e-02
      -9.70987156e-02 -7.91562498e-02 -8.30456018e-02 -5.58839850e-02
      -8.67643133e-02 -5.58843017e-02 -7.07550198e-02 -9.70988944e-02
      -8.67645890e-02 -7.07550347e-02 -6.61641136e-02 -1.17851265e-01
      -9.03363079e-02 -1.12295806e-01 -8.67652893e-02 -1.00314215e-01
      -9.37756896e-02 -7.50700682e-02 -7.07550272e-02 -8.67653042e-02
      -8.67647752e-02 -6.61639869e-02 -3.53112407e-02 -6.61641806e-02
      -1.47066697e-01 -1.06465578e-01 -8.30459148e-02 -7.07550272e-02
      -7.07550272e-02 -1.44842014e-01 -4.99688126e-02 -8.67640227e-02
      -7.50700757e-02 -1.55673340e-01 -9.70987678e-02 -9.37754363e-02
      -8.30460638e-02 -9.70987007e-02 7.50721312e+00 -3.53112407e-02
      -1.06465526e-01 -8.30459371e-02 -8.67640898e-02 -1.82924867e-01
      -1.03434391e-01 -5.58842532e-02 -6.61639571e-02 -8.30461159e-02
      -1.37968972e-01 -7.50701949e-02 -7.50701949e-02 -3.53112407e-02
      -1.12295948e-01 -9.70988870e-02 0. -6.61641285e-02 -3.53112295e-02
      -6.12367578e-02 -3.53112370e-02 -3.53112295e-02 -6.12372123e-02
      -3.53112295e-02 -4.32601757e-02 -5.58840781e-02 -8.67645666e-02
      -1.15104690e-01 -1.15104631e-01 -1.03434533e-01 -2.49604974e-02</_>
    <_>
      -1.60124883e-01 -1.03896821e+00 -6.20442629e-01 5.44251144e-01
      -4.99688052e-02 0. -9.70988199e-02 -8.30457956e-02 -8.30461159e-02
      -1.20536476e-01 -7.50700682e-02 -8.67647454e-02 -6.12372160e-02 0.
      -8.67647454e-02 -8.30461159e-02 -2.49604881e-02 -8.67653117e-02
      -6.12371564e-02 -6.61640167e-02 -6.12377040e-02 -7.50700608e-02
      -9.03366357e-02 -9.37757939e-02 -6.12373427e-02 -7.07550049e-02 0.
      -1.12295531e-01 -6.61642477e-02 -2.49604471e-02 -3.53112370e-02
      1.20416899e+01 -4.32608128e-02 0. -1.53564766e-01 -9.03365165e-02
      -7.91554451e-02 -8.30456242e-02 0. -6.61642402e-02 -8.30461755e-02
      -9.03357193e-02 -1.33207500e-01 0. -5.58839776e-02 0.
      -5.58839776e-02 -1.17851533e-01 -4.32604514e-02 -9.03361738e-02
      -1.03435114e-01 0. -1.00314192e-01 0. -8.30463096e-02
      -6.61641136e-02 -1.73629582e-01 -8.67650434e-02 -7.07550347e-02
      -7.91560933e-02 -2.49609426e-02 0. 0. -7.91556761e-02
      -2.95529753e-01 -8.30462873e-02 -7.91561455e-02 -1.12296239e-01 0.
      -8.67647454e-02 -1.00314304e-01 -1.09417677e-01 -8.30461755e-02
      -1.09418325e-01 -1.09418355e-01 -7.07550272e-02 -2.49607749e-02 0.
      0. 0. -1.03435114e-01 0. 0. -7.50700757e-02 -9.70987678e-02
      -7.91560188e-02 -7.07550347e-02 -5.58839776e-02 -8.67647752e-02
      -7.07550049e-02 -2.49604471e-02 -9.03364420e-02 0. -7.50700906e-02
      -8.30459520e-02 -8.30459818e-02 -8.30463991e-02 -7.50700906e-02
      -5.58842830e-02 -1.12295531e-01 -5.58837093e-02 -6.12374656e-02
      -8.67648274e-02 -7.91554973e-02 -3.53112333e-02 -1.73629582e-01
      -6.12375662e-02 -1.09417677e-01 -4.99688126e-02 -4.32603806e-02
      -1.03434496e-01 0. -1.23169757e-01 -1.12295784e-01 -6.12374656e-02
      0. 0. -1.12295531e-01 -1.09417096e-01 -1.09417677e-01
      -1.55673385e-01 0. -7.07550049e-02 -8.30461234e-02 -8.30461159e-02
      0. -6.12367839e-02 -2.49609426e-02 -9.37754363e-02 0.
      -8.30460638e-02 -8.67650434e-02 -1.09417938e-01 -1.53564766e-01
      -7.50700608e-02 -9.03365165e-02 -5.58839329e-02 -2.49609426e-02
      -9.37754363e-02 -9.03360471e-02 -2.49607954e-02 -7.50700384e-02
      -6.12367839e-02 -7.07550049e-02 -9.37757939e-02 -1.75525337e-01 0.
      -5.58846332e-02 -6.12369925e-02 -6.61640018e-02 -7.07550049e-02
      -1.23169757e-01 -8.30461085e-02 -1.09418325e-01 -7.91561455e-02
      -8.30458254e-02 -9.37757865e-02 -9.03360173e-02 -1.00314304e-01
      -3.53112407e-02 -4.32604514e-02 0. 0. -8.30463991e-02 0.
      -3.53112295e-02 -7.50701129e-02 -1.06465645e-01 -8.30459520e-02
      -9.03357193e-02 0. -8.67647454e-02 -1.59821421e-01 -1.25749201e-01
      -4.99688014e-02 -4.32604253e-02 -7.91557580e-02 -7.91561976e-02
      -1.00314192e-01 0. -5.58844022e-02 -5.58844656e-02 -5.58839776e-02
      0. 0. 0. -1.15104571e-01 -7.12728202e-01 -6.61640018e-02
      -8.30458254e-02 -1.06465645e-01 -7.91555196e-02 -4.61507231e-01
      -7.50699788e-02 0. -1.06465854e-01 -2.49604471e-02 -7.91557580e-02
      -2.49607954e-02 -1.17851309e-01 -6.12371564e-02 -8.67650509e-02
      -6.61640242e-02 0. -9.37756896e-02 -8.30460712e-02 0. 0.
      -9.37756896e-02 -8.30461085e-02 -1.12295531e-01 -7.91554973e-02
      -1.00314289e-01 -8.67645666e-02 -6.61640167e-02 -8.30461234e-02
      -8.67650434e-02 -6.12373650e-02 -1.23169757e-01 0. -9.03360173e-02
      -2.49609910e-02 -6.12369925e-02 -8.30456242e-02 -8.30462873e-02
      -8.67650434e-02 -1.15105025e-01 -7.50701129e-02 -9.70989615e-02
      -1.09417938e-01 -6.12373650e-02 -1.35607004e-01 -2.49609426e-02
      -1.23169757e-01 -1.53564766e-01 -1.44842505e-01 -6.12371564e-02
      -5.58844656e-02 -1.09417938e-01 -5.58842756e-02 -7.91555196e-02
      -1.28280237e-01 0. -8.67645591e-02 0. -1.33207589e-01
      -9.70987976e-02 -8.67647454e-02 -5.58844656e-02 0. -7.07550347e-02
      -1.00314282e-01 -6.12372272e-02 -2.49609109e-02 -9.03357193e-02 0.
      -5.58846332e-02 -9.37756896e-02 -5.58842830e-02 -3.53112295e-02
      -7.91557580e-02 0. -8.67640227e-02 -1.12295531e-01 -1.51426762e-01
      -1.73629165e-01 0. -8.30458254e-02 -8.30458254e-02 -8.30459818e-02
      -8.30462873e-02 -8.30461234e-02 -7.91558325e-02 -4.32605632e-02
      -4.61507231e-01 -1.33207500e-01 -3.53112295e-02 0. -7.91557953e-02
      0. 0. -8.67644623e-02 -1.09417096e-01 0. 2.31154385e+01
      -8.67646486e-02 -8.67650509e-02 -1.00314304e-01 -7.50701129e-02 0.
      -7.07550198e-02 -7.91560262e-02 -8.30459669e-02 -7.91560933e-02
      -7.07550347e-02 -1.17851600e-01 -8.30459520e-02 -1.09417893e-01 0.
      -1.23169757e-01 -8.30462053e-02 -1.03434965e-01 -6.61640018e-02
      -1.23169757e-01 -8.67647454e-02 -3.53112370e-02 -7.91557580e-02 0.
      0. -6.61640018e-02 -9.03361738e-02 -8.30461755e-02 -8.30462873e-02
      0. 0. -7.07550347e-02 -4.32604514e-02 -9.70989987e-02
      -5.58838770e-02 -1.73629582e-01 -2.49607954e-02 -8.67643207e-02
      -8.67645666e-02 -8.67645666e-02 -3.53112370e-02 -2.49609910e-02
      -9.03357193e-02 0. -2.49607954e-02 -1.00314304e-01 -1.20537050e-01
      -9.70988199e-02 -8.30456242e-02 -8.30456242e-02 -8.67640227e-02 0.
      -1.59821421e-01 -7.91558027e-02 -1.06465854e-01 -9.03357193e-02
      -1.06465437e-01 -8.30462873e-02 -2.49604881e-02 -8.30461904e-02
      -7.07550347e-02 0. -1.59821123e-01 -1.28280237e-01 -2.49605104e-02
      -4.99688126e-02 -9.03361738e-02 -2.49338135e-01 -8.30457956e-02 0.
      -4.99688163e-02 -7.91554451e-02 -1.00314312e-01 -7.91551620e-02
      -8.30459669e-02 -1.59821421e-01 -8.67640004e-02 -1.73629582e-01
      -1.03434578e-01 -7.07550347e-02 -8.30457956e-02 -7.07550272e-02
      -1.69785917e-01 -9.03361738e-02 0. -7.50702173e-02 -2.49610059e-02
      -1.73629582e-01 0. 0. -7.07550198e-02 -7.07549900e-02
      -1.12295531e-01 -1.73629045e-01 -9.70995352e-02 -2.49605142e-02
      -7.07550272e-02 -1.03433818e-01 0. -9.03357193e-02 -1.33207589e-01
      -8.67647752e-02 -1.30765542e-01 0. 0. -8.67648274e-02 0.
      -9.70990881e-02 -7.07550123e-02 -8.30456465e-02 -4.32605632e-02
      -7.91560486e-02 -7.91560262e-02 -9.37758535e-02 6.51197958e+00
      -4.99688126e-02 -6.12373427e-02 -2.49609426e-02 -9.70987678e-02
      -8.67640749e-02 -8.30459520e-02 -9.03361738e-02 -2.49607656e-02
      -9.03363749e-02 -1.12295531e-01 -9.03365165e-02 -2.49609426e-02
      -1.06465854e-01 -2.49607954e-02 0. 0. -5.58846332e-02
      -8.30461159e-02 -7.50702173e-02 -6.61641061e-02 -9.03357193e-02
      -2.61782438e-01 0. -7.91560486e-02 -3.53112407e-02 0.
      -8.67640004e-02 -4.32604253e-02 -8.30458254e-02 -4.32605408e-02
      -2.49338150e-01 -8.30458254e-02 -4.99688163e-02 -8.30458254e-02
      -4.99688052e-02 -1.73629582e-01 -9.03361440e-02 -2.49609426e-02
      -7.91557580e-02 0. -6.12374656e-02 -8.30458254e-02 -1.20537244e-01
      -7.07550049e-02 -6.61640018e-02 -7.91560486e-02 -7.91560411e-02
      -7.91561455e-02 0. -4.32603806e-02 -7.91561976e-02 -9.03361812e-02
      0. -7.07550272e-02 -7.07550198e-02 0. -2.95529753e-01
      -3.53112370e-02 -2.13478342e-01 -7.07550049e-02 -3.53112295e-02 0.
      0. 0. -7.50701204e-02 -7.07550272e-02 -7.07550049e-02 0. 0.
      -8.30461159e-02 0. -8.67644772e-02 -9.37757939e-02 -7.91557282e-02
      -4.32601422e-02 -3.53112407e-02 -7.50700310e-02 -6.61642104e-02
      -9.03364643e-02 -6.61640316e-02 -7.91555196e-02 -7.91561455e-02
      -7.91559443e-02 -7.91554451e-02 0. -4.99688126e-02 -7.91559815e-02
      0. 0. -3.53112407e-02 -6.12372085e-02 -7.50700310e-02
      -2.49609426e-02 -4.99688126e-02 -1.12295531e-01 0. -9.70995948e-02
      -2.49608755e-02 -2.49605104e-02 0. -9.37752128e-02 -8.67642015e-02
      -1.12295531e-01 -9.37758535e-02 0. 0. -7.07550272e-02
      -1.17852092e-01 -7.07550272e-02 -5.58845997e-02 -4.32605818e-02
      -2.49609426e-02 -7.91563988e-02 -6.12374656e-02 -1.03435114e-01
      -8.67645666e-02 0. -7.50700310e-02 -1.00314192e-01 -7.91557282e-02
      -7.91560486e-02 -3.17418486e-01 -1.73629582e-01 -6.61640018e-02
      -9.70988795e-02 -8.30461159e-02 -1.15105405e-01 -5.58842756e-02 0.
      -8.30458254e-02 -1.06465474e-01 -1.73629582e-01 0. 0.
      -7.91557282e-02 -2.49608755e-02 -2.49608755e-02 -9.37758535e-02
      -8.30459520e-02 -1.06465854e-01 0. -1.59821421e-01 -6.12372272e-02
      -7.50702769e-02 0. -4.32603806e-02 -1.15105338e-01 -7.91554973e-02
      -2.49609426e-02 -4.67449069e-01 0. -1.06465854e-01 -1.71719000e-01
      0. -1.09418325e-01 -1.63872823e-01 -9.03366357e-02 -1.59821421e-01
      -3.53112407e-02 -6.61640689e-02 -8.67645666e-02 -4.32605818e-02
      -9.37758535e-02 0. -7.07550347e-02 -7.50701502e-02 0.
      -6.61641806e-02 0. 0. 0. -4.99688163e-02 -1.03435114e-01
      -7.91560933e-02 -3.33793759e-01 0. -6.12375364e-02 -9.03364643e-02
      0. 0. -1.33207500e-01 -4.99688126e-02 0. -8.30457434e-02
      -6.12372085e-02 -8.67648348e-02 -7.91561976e-02 -9.03364643e-02
      -9.70995948e-02 -2.49605104e-02 -1.17851309e-01 0. -1.33207500e-01
      -1.00314192e-01 -5.58839776e-02 -7.50701204e-02 0. 0.
      -7.91561455e-02 -4.99688126e-02 -2.49605104e-02 -1.09417938e-01 0.
      -2.00386867e-01 -7.91561455e-02 -1.09418325e-01 -4.32604514e-02 0.
      -7.50701204e-02 -6.61640838e-02 -9.37757567e-02 -6.12375364e-02
      -9.70988795e-02 -7.07550347e-02 -6.61640018e-02 -2.49608755e-02
      -4.32604514e-02 -7.91559815e-02 -8.67642015e-02 -9.70988199e-02
      -6.12373650e-02 -7.07550198e-02 -8.30463096e-02 -9.70991179e-02
      -9.03357193e-02 -2.49609388e-02 -8.30460638e-02 -3.53112370e-02
      -8.67645666e-02 -7.50700310e-02 0. -1.73629582e-01 0. 0.
      -7.50701204e-02 -2.49608755e-02 -6.12372085e-02 -6.12375550e-02
      -6.12374954e-02 -1.06465399e-01 -6.61642477e-02 -2.49607954e-02
      -2.49609426e-02 -1.00314304e-01 -7.07550347e-02 -9.37758535e-02
      -8.67642015e-02 -1.23169765e-01 -2.49609388e-02 -1.53564766e-01
      -4.32601459e-02 -1.12296239e-01 -1.73629582e-01 -1.12296224e-01 0.
      -9.03366357e-02 -1.17851816e-01 -4.99688163e-02 -6.61640689e-02
      -9.70990881e-02 -3.53112407e-02 -2.49608755e-02 -8.67645219e-02
      -2.49609910e-02 -9.03364420e-02 -8.30462500e-02 -6.12374656e-02
      -7.91560933e-02 0. -7.91561455e-02 -6.12375364e-02 -3.53112333e-02
      -6.12374656e-02 -2.49606743e-02 -9.70995948e-02 0. -4.99688126e-02
      -1.15105078e-01 -6.12374656e-02 -7.91559815e-02 -1.17852092e-01
      -1.06465854e-01 -4.32605818e-02 -8.30460116e-02 -7.91557282e-02
      -6.12372085e-02 -9.37757492e-02 0. -7.91560262e-02 -9.03364643e-02
      -6.61640242e-02 -6.12371564e-02 -4.32605408e-02 0. -7.91561976e-02
      -7.07550347e-02 -8.30457956e-02 -6.61641806e-02 -8.67648348e-02
      -7.91560486e-02 -8.67645666e-02 -1.53564766e-01 -1.17851347e-01
      -7.07550272e-02 -8.30458254e-02 -5.58844656e-02 0. -9.70988199e-02
      -7.91554973e-02 -5.58839776e-02 -7.50702769e-02 -2.49609426e-02
      -7.50702769e-02 -4.32603806e-02 -2.49605104e-02 0. -1.06465854e-01
      -1.03434496e-01 -1.06465474e-01 0. -7.91555196e-02 -9.03364643e-02
      -9.03362557e-02 -7.50701204e-02 -7.91563988e-02 -9.03365165e-02
      -1.53564766e-01 -2.49609910e-02 -6.61642477e-02 -7.91559443e-02
      -7.91557282e-02 -2.49608755e-02 -2.49609426e-02 0. 0.
      -9.37760770e-02 0. -8.30462500e-02 0. -1.03435159e-01 0.
      -7.91560262e-02 -6.61642104e-02 -6.12372085e-02 -9.70995948e-02
      -7.91558921e-02 0. -6.12372085e-02 -8.67650658e-02 0.
      -6.61641806e-02 -8.30459520e-02 -9.03357193e-02 -4.32605818e-02
      -7.07550347e-02 0. 0. -8.30461085e-02 -9.37757492e-02
      -1.17851347e-01 -1.53564766e-01 -8.30456242e-02 -9.70988795e-02
      -9.03364643e-02 -1.09417938e-01 -2.49609388e-02 -4.32607271e-02
      -9.37752128e-02 -2.49607954e-02 -2.49609426e-02 -7.50700310e-02 0.
      -1.33207589e-01 -9.03364643e-02 -7.91560933e-02 -7.91560933e-02
      -6.61640018e-02 -4.32601422e-02 -7.07550272e-02 -8.30456242e-02
      -7.91560486e-02 -6.61640689e-02 0. 0. -7.91560933e-02 0. 0.
      -4.32603806e-02 -6.12374656e-02 -2.49609724e-02 -1.06465854e-01
      -7.91560262e-02 -8.30461085e-02 0. -1.25749201e-01 0.
      -7.91559815e-02 -6.61640018e-02 -1.33207589e-01 0. -6.12374656e-02
      -7.07550347e-02 -4.32603396e-02 -4.32604514e-02 -3.53112333e-02
      -4.32603806e-02 0. -8.30460116e-02 -1.00314230e-01 -1.09417938e-01
      -8.30461606e-02 -4.32601459e-02 -7.91560262e-02 -8.30458254e-02
      -9.03364643e-02 0. -6.61640540e-02 -7.50701204e-02 -2.49607954e-02
      -1.17852092e-01 -1.03435196e-01 -4.32604514e-02 -2.49608755e-02
      -4.99688163e-02 -6.61640838e-02 -7.07550198e-02 -5.58844656e-02
      -7.50700310e-02 -8.30456242e-02 0. -9.70995948e-02 -8.67647454e-02
      -7.07550049e-02 -7.50701204e-02 -1.09417938e-01 -7.07550049e-02
      -1.12295531e-01 -7.50701129e-02 -9.03365165e-02 -4.32601422e-02
      -5.58838770e-02 -9.03364643e-02 -7.07550049e-02 -7.07550272e-02
      -9.03366357e-02 -4.32604514e-02 -7.91559443e-02 -8.30460116e-02 0.
      -4.32603769e-02 -6.61640316e-02 -8.67645666e-02 -1.17851347e-01
      -8.67650658e-02 -4.99688126e-02 -8.67650658e-02 -6.61640018e-02
      -6.12371564e-02 -6.61640838e-02 -8.67647454e-02 -7.50701129e-02
      -6.12377748e-02 -8.30462500e-02 0. -8.30458254e-02 0.
      -1.03434496e-01 -7.07550049e-02 -4.32601459e-02 -4.32601459e-02
      -1.09417938e-01 -7.91557282e-02 -6.61640838e-02 -8.67650509e-02
      -7.91554451e-02 -1.25749215e-01 0. -4.32601459e-02 -2.49609426e-02
      -8.67650434e-02 -8.67650434e-02 -2.49609388e-02 -6.61640987e-02
      -4.32605818e-02 -3.53112295e-02 -1.75525248e-01 -8.67645666e-02
      -3.53112407e-02 -4.32601459e-02 -3.53112295e-02 -4.32605818e-02
      -9.03361738e-02 -9.37757939e-02 -1.17851302e-01 0. -2.49609426e-02
      0. -1.12295531e-01 -5.58838770e-02 -7.07550049e-02 -7.07550272e-02
      -7.91561455e-02 0. -8.67645666e-02 -2.49609426e-02 0. 0.
      -6.12375550e-02 -8.67650434e-02 -1.06465474e-01 -9.37758535e-02
      -2.49608755e-02 -7.50701129e-02 -5.58838770e-02 -6.12373650e-02
      -1.59821421e-01 -4.32607271e-02 -1.53564766e-01 -4.67449069e-01 0.
      -1.53564766e-01 -8.67648348e-02 -1.06465854e-01 0. 2.31154385e+01
      -4.32601459e-02 -4.99688089e-02 -6.61640838e-02 -8.30458254e-02
      -3.53112295e-02 -6.61640838e-02 -9.03364643e-02 -4.32604514e-02
      -1.09418355e-01 0. -9.03365165e-02 0. -2.49607954e-02
      -9.03366357e-02 -2.00386867e-01 -3.53112370e-02 0. -9.37758535e-02
      -7.91558921e-02 -7.91554451e-02 -7.91558921e-02 -3.53112333e-02
      -8.30461085e-02 -2.85450190e-01 -6.61641732e-02 -6.61641806e-02
      -1.51426867e-01 -8.30461532e-02 -8.30457956e-02 -1.12296224e-01
      -6.61641061e-02 -7.91557282e-02 -9.37754363e-02 0. -6.61642328e-02
      -9.70988199e-02 -9.70991626e-02 -8.30457956e-02 -1.67834520e-01
      -7.91557580e-02 -6.61641210e-02 -6.61640167e-02 0. -9.70991626e-02
      -2.07018793e-01 -2.49607172e-02 -3.53112407e-02 -4.32606861e-02
      -1.03433646e-01 -5.58840409e-02 -8.67651403e-02 -8.67648795e-02
      -7.91560933e-02 -1.73629582e-01 -8.67640227e-02 -4.99688163e-02 0.
      -8.67651775e-02 -1.09417833e-01 -1.09417424e-01 -9.03365165e-02
      -6.61642328e-02 -7.91554451e-02 -9.03361440e-02 0. -6.12371080e-02
      -9.70988274e-02 -6.12374768e-02 -7.07550347e-02 -1.03434481e-01
      -9.37756896e-02 -1.15104206e-01 -2.49610152e-02 -6.12372383e-02
      -2.05379918e-01 -5.58839776e-02 -1.20536990e-01 -4.32604514e-02
      -9.03361738e-02 -9.37757194e-02 0. -8.30463096e-02 -1.73629582e-01
      -3.53112333e-02 -7.07550347e-02 -2.49608234e-02 -7.91554451e-02
      -2.49609705e-02 0. -4.99688052e-02 -7.50700533e-02 -1.67834550e-01
      -7.50699788e-02 -7.91560933e-02 -1.57760218e-01 -7.07550123e-02 0.
      -8.30462575e-02 -1.40295386e-01 -7.91558996e-02 -8.30463991e-02
      -7.07550272e-02 -1.67834550e-01 -7.07550347e-02 -1.09418325e-01
      -6.12373576e-02 -6.12373576e-02 -6.61641285e-02 -2.49604434e-02 0.
      0. -1.09418236e-01 -9.37757194e-02 0. -6.61640167e-02
      -1.00314274e-01 -1.06465645e-01 -5.58840409e-02 -7.91560933e-02
      -1.73629478e-01 -5.58839776e-02 -8.30463991e-02 -9.70992520e-02
      -1.75525308e-01 -7.91554451e-02 -7.07550272e-02 -9.70987827e-02
      -6.61641806e-02 -1.03434920e-01 -6.12371042e-02 -8.30459818e-02
      -7.50699788e-02 -7.07550347e-02 -8.30462873e-02 -1.42585158e-01
      -1.03434235e-01 -1.15104325e-01 0. -1.73629582e-01 -6.61641285e-02
      -4.99688126e-02 -7.91554451e-02 -4.32603806e-02 -1.03434496e-01 0.
      0. 0. -9.70988348e-02 -6.61642328e-02 -9.03361738e-02
      -1.63873002e-01 -7.91563988e-02 0. -7.07550272e-02 -2.49609705e-02
      -7.91560411e-02 -1.06465563e-01 -7.91558772e-02 -8.67651775e-02
      -8.30460638e-02 -6.12379611e-02 -9.03365165e-02 -8.30462798e-02
      -2.49609705e-02 -5.58840409e-02 -1.40295833e-01 0. -5.58844954e-02
      -7.91560933e-02 -8.67648795e-02 -3.53112407e-02 0. -1.15103893e-01
      -2.49607172e-02 -8.30461085e-02 -1.09418325e-01 -9.03361738e-02
      -9.70988944e-02 -9.37754810e-02 0. -4.32603806e-02 -4.32604514e-02
      0. 0. -1.73629090e-01 -2.49605738e-02 -9.03361738e-02
      -7.07550049e-02 -9.70988795e-02 -7.07550347e-02 0. -4.99688163e-02
      -8.67646262e-02 -7.50702247e-02 -1.73629090e-01 -9.37754363e-02 0.
      -8.30461755e-02 -1.28281415e-01 -1.12295859e-01 -6.61642700e-02
      -4.99687940e-02 -7.07549974e-02 0. -7.50699788e-02 -5.58844656e-02
      -7.07550272e-02 -2.49607172e-02 -4.32602055e-02 -6.12367839e-02
      -5.58842719e-02 -9.70988795e-02 -4.42523301e-01 -6.61641136e-02 0.
      -1.65864348e-01 -1.15104862e-01 -8.67643207e-02 0. -1.90075696e-01
      -1.17851309e-01 0. -1.06465645e-01 -4.32606861e-02 -6.61640242e-02
      -9.70988795e-02 -1.67834520e-01 0. -2.49610152e-02 -1.93565100e-01
      -1.75525308e-01 -8.30461085e-02 -9.70988348e-02 -7.91560933e-02
      -8.30461606e-02 -8.67645666e-02 -4.32605334e-02 -8.30461234e-02
      -7.91560411e-02 -6.12373650e-02 -7.91556165e-02 -1.15104862e-01
      -6.61639646e-02 -4.32606265e-02 -7.91559592e-02 -8.30462873e-02
      -7.91560411e-02 -7.07550347e-02 -9.70987827e-02 -1.06465563e-01
      -7.91554451e-02 -6.12373650e-02 -5.58844954e-02 -5.58844656e-02
      -9.70988795e-02 -4.32605594e-02 -1.00314319e-01 0. -8.67651775e-02
      -4.32606861e-02 -1.73629582e-01 -7.91560933e-02 -1.06465563e-01
      -9.37754363e-02 -9.70991626e-02 -1.06465429e-01 -9.70988795e-02
      -7.07550272e-02 0. 0. -7.50700459e-02 -1.57760218e-01 0.
      -1.28281116e-01 -1.75525308e-01 -8.30461755e-02 -5.58844656e-02
      -7.91563988e-02 0. -7.91559592e-02 -2.49607172e-02 -1.30765676e-01
      -3.53112295e-02 -1.40295655e-01 -9.37760547e-02 -6.61641806e-02 0.
      -1.00314237e-01 0. -1.12295508e-01 -8.67640227e-02 -1.12295531e-01
      -5.58842123e-02 -8.30460638e-02 -1.75525308e-01 -7.91557580e-02
      -7.91560933e-02 -1.17851302e-01 0. -9.70988795e-02 -6.61640689e-02
      0. -7.91559219e-02 -8.30458254e-02 -9.03361365e-02 -1.88312724e-01
      -7.91559592e-02 -7.50700906e-02 -8.30459818e-02 -7.91555420e-02
      -7.91560933e-02 -2.49607172e-02 -7.91554749e-02 -5.58842495e-02
      -8.30461234e-02 -5.58845438e-02 -4.29378837e-01 -1.15104206e-01 0.
      -2.82887757e-01 0. -5.58842719e-02 0. -1.20537587e-01
      -8.30457956e-02 0. -6.12378195e-02 -7.07550347e-02 -7.50701427e-02
      -2.40770683e-01 -1.33207545e-01 -7.91560262e-02 -6.61641210e-02
      -7.91560933e-02 -5.58840409e-02 -4.32603806e-02 -7.91556165e-02
      -7.50702247e-02 0. -1.61857232e-01 -9.70989466e-02 -7.91554898e-02
      -7.91560933e-02 -7.50700608e-02 0. -6.12367839e-02 -8.30462873e-02
      -1.03434794e-01 -2.49610152e-02 -6.12377040e-02 0. -9.03363749e-02
      -5.58837652e-02 -4.32604514e-02 -3.87849450e-01 -8.67645666e-02
      -8.67645666e-02 -9.03357193e-02 0. -1.00314304e-01 -9.70988795e-02
      -9.70988199e-02 0. -7.91559592e-02 -9.70991626e-02 -1.28281415e-01
      -7.07550347e-02 -1.42585024e-01 -7.07550123e-02 -1.12295724e-01
      -7.07550347e-02 -1.00314207e-01 -8.30462873e-02 -7.07550272e-02
      -3.53112407e-02 -4.32606712e-02 -7.50700310e-02 0. -7.50700608e-02
      -1.06465429e-01 -2.49605104e-02 -4.99688126e-02 -4.99688163e-02
      -6.61639646e-02 -3.53112407e-02 -1.06465645e-01 -9.37754363e-02
      -7.91554451e-02 -9.70988795e-02 -1.28281415e-01 -9.37752128e-02
      -9.37758759e-02 -7.07550347e-02 -8.67644772e-02 -8.30459967e-02
      -1.73629582e-01 -8.30457956e-02 -2.49607172e-02 -1.17851302e-01
      -7.07550347e-02 -9.03361738e-02 -7.07550049e-02 -3.53112333e-02
      -1.42585158e-01 -1.44841924e-01 -7.07550198e-02 -6.12370931e-02
      -9.70988348e-02 0. -4.99688163e-02 -6.61641136e-02 -1.20536499e-01
      -2.49610096e-02 -7.91554451e-02 -8.67652521e-02 -8.67652521e-02 0.
      -1.03434622e-01 -1.03434481e-01 -1.28281116e-01 -1.97001174e-01
      -5.58844656e-02 -9.37760547e-02 0. -8.30462873e-02 -8.30463096e-02
      -1.03434384e-01 -2.13478342e-01 -2.49604620e-02 0. -6.61641806e-02
      -9.03371945e-02 -7.91560486e-02 -7.91560933e-02 -3.53112333e-02
      -1.03434198e-01 -7.91560262e-02 -7.91556165e-02 6.90412521e+00
      -7.07550347e-02 -2.49609705e-02 -9.70987678e-02 -1.73629582e-01
      -1.73629552e-01 -8.30460638e-02 -1.12295531e-01 -8.67653117e-02
      -2.49609705e-02 -5.58842123e-02 -1.40295833e-01 -7.07550272e-02
      -7.91559219e-02 -9.70988274e-02 0. 0. -8.30461159e-02
      -6.12378456e-02 -9.03357193e-02 -2.42214933e-01 -7.91560933e-02
      -7.91560486e-02 -1.06465645e-01 -3.53112258e-02 -6.61641210e-02
      -9.37752128e-02 -4.99688052e-02 -7.07550272e-02 -1.06465645e-01
      -8.30461830e-02 -8.30458254e-02 -1.75525308e-01 -7.91560933e-02
      -4.32607569e-02 -9.37758312e-02 -9.70988795e-02 -2.13478342e-01
      -7.91554749e-02 -7.07550272e-02 -7.50701800e-02 -1.09417833e-01
      -1.03434324e-01 -2.49609705e-02 0. 0. -5.58842160e-02 0.
      -7.91556165e-02 -7.91557580e-02 -7.91560486e-02 -7.91556165e-02
      -4.32603806e-02 -4.99688052e-02 0. -7.07550272e-02 -7.07550198e-02
      0. -9.37756896e-02 -4.32601906e-02 -1.75525308e-01 -1.42585158e-01
      -1.75525308e-01 -2.49608587e-02 0. -9.70988274e-02 -8.67650881e-02
      -1.61857471e-01 -7.50700235e-02 -6.12371750e-02 -9.03357640e-02
      -4.99688126e-02 -7.07550347e-02 -2.34925508e-01 -2.40769476e-01
      -7.91560709e-02 -7.50701129e-02 -7.07550272e-02 -7.50700682e-02
      -6.61641583e-02 -4.32606004e-02 -6.61641136e-02 -4.99688126e-02
      -5.58843389e-02 -6.61641806e-02 -7.91559964e-02 -9.37754363e-02
      -6.61642924e-02 -6.61642924e-02 -5.58841974e-02 -1.03434443e-01
      -4.99688052e-02 -1.00314215e-01 -2.31960610e-01 -9.37754363e-02
      -8.67640227e-02 -8.67644623e-02 -6.61641657e-02 -9.37756896e-02
      -6.61639869e-02 -1.55673563e-01 -9.70992297e-02 -9.03362632e-02
      -7.50700831e-02 -8.67640227e-02 -1.23169772e-01 -1.09418318e-01
      -1.15103588e-01 -1.44842178e-01 -7.07550272e-02 -8.67647901e-02
      -1.12296209e-01 -9.03359801e-02 -8.67644474e-02 -6.12370446e-02
      -1.00314200e-01 -9.37756896e-02 -1.28280163e-01 -8.30462724e-02
      -9.37758461e-02 -9.37757716e-02 -2.45082080e-01 -7.50701800e-02
      -7.91556016e-02 -9.37754363e-02 -6.61641061e-02 -8.30463022e-02
      -9.70987156e-02 -7.91562498e-02 -8.30456018e-02 -5.58839850e-02
      -8.67643133e-02 -5.58843017e-02 -7.07550198e-02 -9.70988944e-02
      -8.67645890e-02 -7.07550347e-02 -6.61641136e-02 -1.17851265e-01
      -9.03363079e-02 -1.12295806e-01 -8.67652893e-02 -1.00314215e-01
      -9.37756896e-02 -7.50700682e-02 -7.07550272e-02 -8.67653042e-02
      -8.67647752e-02 -6.61639869e-02 -3.53112407e-02 -6.61641806e-02
      -1.47066697e-01 -1.06465578e-01 -8.30459148e-02 -7.07550272e-02
      -7.07550272e-02 -1.44842014e-01 -4.99688126e-02 -8.67640227e-02
      -7.50700757e-02 -1.55673340e-01 -9.70987678e-02 -9.37754363e-02
      -8.30460638e-02 -9.70987007e-02 -1.33207828e-01 -3.53112407e-02
      -1.06465526e-01 -8.30459371e-02 -8.67640898e-02 -1.82924867e-01
      -1.03434391e-01 -5.58842532e-02 -6.61639571e-02 -8.30461159e-02
      -1.37968972e-01 -7.50701949e-02 -7.50701949e-02 -3.53112407e-02
      -1.12295948e-01 -9.70988870e-02 0. -6.61641285e-02 -3.53112295e-02
      -6.12367578e-02 -3.53112370e-02 -3.53112295e-02 -6.12372123e-02
      -3.53112295e-02 -4.32601757e-02 -5.58840781e-02 -8.67645666e-02
      -1.15104690e-01 -1.15104631e-01 -1.03434533e-01 -2.49604974e-02</_>
    <_>
      -8.08461010e-02 -1.52175486e-01 -2.62834758e-01 5.44251144e-01
      -4.99688052e-02 0. -9.70988199e-02 -8.30457956e-02 -8.30461159e-02
      -1.20536476e-01 -7.50700682e-02 -8.67647454e-02 -6.12372160e-02 0.
      -8.67647454e-02 -8.30461159e-02 -2.49604881e-02 -8.67653117e-02
      -6.12371564e-02 -6.61640167e-02 -6.12377040e-02 -7.50700608e-02
      -9.03366357e-02 -9.37757939e-02 -6.12373427e-02 -7.07550049e-02 0.
      -1.12295531e-01 -6.61642477e-02 -2.49604471e-02 -3.53112370e-02
      -8.30461308e-02 -4.32608128e-02 0. -1.53564766e-01 -9.03365165e-02
      -7.91554451e-02 -8.30456242e-02 0. -6.61642402e-02 -8.30461755e-02
      -9.03357193e-02 -1.33207500e-01 0. -5.58839776e-02 0.
      -5.58839776e-02 -1.17851533e-01 -4.32604514e-02 -9.03361738e-02
      -1.03435114e-01 0. -1.00314192e-01 0. -8.30463096e-02
      -6.61641136e-02 -1.73629582e-01 -8.67650434e-02 -7.07550347e-02
      -7.91560933e-02 -2.49609426e-02 0. 0. -7.91556761e-02
      -2.95529753e-01 -8.30462873e-02 -7.91561455e-02 -1.12296239e-01 0.
      -8.67647454e-02 -1.00314304e-01 -1.09417677e-01 -8.30461755e-02
      -1.09418325e-01 -1.09418355e-01 -7.07550272e-02 -2.49607749e-02 0.
      0. 0. -1.03435114e-01 0. 0. -7.50700757e-02 -9.70987678e-02
      -7.91560188e-02 -7.07550347e-02 -5.58839776e-02 -8.67647752e-02
      -7.07550049e-02 -2.49604471e-02 -9.03364420e-02 0. -7.50700906e-02
      -8.30459520e-02 -8.30459818e-02 -8.30463991e-02 -7.50700906e-02
      -5.58842830e-02 -1.12295531e-01 -5.58837093e-02 -6.12374656e-02
      -8.67648274e-02 -7.91554973e-02 -3.53112333e-02 -1.73629582e-01
      -6.12375662e-02 -1.09417677e-01 -4.99688126e-02 -4.32603806e-02
      -1.03434496e-01 0. -1.23169757e-01 -1.12295784e-01 -6.12374656e-02
      0. 0. -1.12295531e-01 -1.09417096e-01 -1.09417677e-01
      -1.55673385e-01 0. -7.07550049e-02 -8.30461234e-02 -8.30461159e-02
      0. -6.12367839e-02 -2.49609426e-02 -9.37754363e-02 0.
      -8.30460638e-02 -8.67650434e-02 -1.09417938e-01 -1.53564766e-01
      -7.50700608e-02 -9.03365165e-02 -5.58839329e-02 -2.49609426e-02
