<?xml version="1.0"?>
<opencv_storage>
<my_nn type_id="opencv-ml-ann-mlp">
  <layer_sizes type_id="opencv-matrix">
    <rows>1</rows>
    <cols>3</cols>
    <dt>i</dt>
    <data>
      1558 50 2</data></layer_sizes>
  <activation_function>SIGMOID_SYM</activation_function>
  <f_param1>5.9999999999999998e-01</f_param1>
  <f_param2>1.</f_param2>
  <min_val>-9.4999999999999996e-01</min_val>
  <max_val>9.4999999999999996e-01</max_val>
  <min_val1>-9.7999999999999998e-01</min_val1>
  <max_val1>9.7999999999999998e-01</max_val1>
  <training_params>
    <train_method>BACKPROP</train_method>
    <dw_scale>1.0000000000000001e-01</dw_scale>
    <moment_scale>1.0000000000000001e-01</moment_scale>
    <term_criteria><epsilon>9.9999999747524271e-07</epsilon>
      <iterations>1000</iterations></term_criteria></training_params>
  <input_scale>
    1.8450614420944877e-02 -1.1617330445407281e+00
    7.8471328558106495e-03 -1.1853964995190973e+00
    2.1784414688201834e-01 -7.8097617485031057e-01
    2.3671235250718414e+00 -1.8166640020969058e+00
    1.7938871953229011e+01 -5.5919176911561758e-02 1. 0.
    1.1604921557473315e+01 -8.6819862025984892e-02
    1.2117140216588931e+01 -8.3097595001545038e-02
    1.5170604482399240e+01 -6.6205879910719870e-02
    7.7733215888351452e+00 -1.3084768260508037e-01
    1.5170604482399240e+01 -6.6205879910719870e-02
    1.1604921557473315e+01 -8.6819862025984892e-02
    9.2429995138635821e+00 -1.0948690197219954e-01 1. 0.
    1.1604921557473315e+01 -8.6819862025984892e-02
    1.5170604482399240e+01 -6.6205879910719870e-02
    2.3144514263546849e+01 -4.3287744881945478e-02
    1.2117140216588931e+01 -8.3097595001545038e-02
    1.1153151408739806e+01 -9.0393371766594441e-02
    1.7938871953229011e+01 -5.5919176911561758e-02
    1.3387601161352659e+01 -7.5117462875420163e-02
    1.2704576873147783e+01 -7.9205591478477458e-02
    1.1604921557473315e+01 -8.6819862025984892e-02
    1.3387601161352659e+01 -7.5117462875420163e-02
    1.2704576873147783e+01 -7.9205591478477458e-02
    1.7938871953229011e+01 -5.5919176911561758e-02
    2.8337276658836693e+01 -3.5333262666878668e-02
    1.0750824787097738e+01 -9.3835129064444092e-02
    1.7938871953229011e+01 -5.5919176911561758e-02
    4.0062459033742776e+01 -2.4976595407570308e-02
    1.6380997772623619e+01 -6.1275552765425005e-02
    1.1604921557473315e+01 -8.6819862025984892e-02
    1.6380997772623619e+01 -6.1275552765425005e-02 1. 0.
    6.5753168715085337e+00 -1.5577433984870590e-01
    1.2117140216588931e+01 -8.3097595001545038e-02
    1.4195246124366012e+01 -7.0799232540478860e-02
    1.3387601161352659e+01 -7.5117462875420163e-02 1. 0.
    1.2117140216588931e+01 -8.3097595001545038e-02
    1.6380997772623619e+01 -6.1275552765425005e-02
    1.2117140216588931e+01 -8.3097595001545038e-02
    8.4115205634515515e+00 -1.2061407291732275e-01
    1.2704576873147783e+01 -7.9205591478477458e-02
    1.5170604482399240e+01 -6.6205879910719870e-02 1. 0.
    1.5170604482399240e+01 -6.6205879910719870e-02
    9.0118048282586685e+00 -1.1236664374387367e-01 1. 0.
    1.1153151408739806e+01 -9.0393371766594441e-02
    1.0389551156457197e+01 -9.7159144231208194e-02
    1.6380997772623619e+01 -6.1275552765425005e-02
    1.0062806545231338e+01 -1.0037712264569912e-01 1. 0.
    1.3387601161352659e+01 -7.5117462875420163e-02
    1.5170604482399240e+01 -6.6205879910719870e-02
    6.6614535462463964e+00 -1.5366195836104529e-01
    1.4195246124366012e+01 -7.0799232540478860e-02
    1.5170604482399240e+01 -6.6205879910719870e-02
    1.4195246124366012e+01 -7.0799232540478860e-02
    4.0062459033742776e+01 -2.4976595407570308e-02 1. 0. 1. 0.
    1.4195246124366012e+01 -7.0799232540478860e-02
    3.8918742921259137e+00 -2.7660453198401130e-01
    1.2704576873147783e+01 -7.9205591478477458e-02
    1.4195246124366012e+01 -7.0799232540478860e-02
    6.9424870643877119e+00 -1.4715995024263231e-01 1. 0.
    1.1604921557473315e+01 -8.6819862025984892e-02
    1.1604921557473315e+01 -8.6819862025984892e-02
    1.1153151408739806e+01 -9.0393371766594441e-02
    1.6380997772623619e+01 -6.1275552765425005e-02
    1.0062806545231338e+01 -1.0037712264569912e-01
    7.0446480632389115e+00 -1.4493353247311974e-01
    1.3387601161352659e+01 -7.5117462875420163e-02 1. 0. 1. 0. 1. 0.
    2.0050000000000001e+01 -5.0000000000000003e-02
    1.0389551156457197e+01 -9.7159144231208194e-02 1. 0. 1. 0.
    8.5978484143781984e+00 -1.1792560169346655e-01
    1.1604921557473315e+01 -8.6819862025984892e-02
    1.1153151408739806e+01 -9.0393371766594441e-02
    1.4195246124366012e+01 -7.0799232540478860e-02
    1.5170604482399240e+01 -6.6205879910719870e-02
    1.0750824787097738e+01 -9.3835129064444092e-02
    1.3387601161352659e+01 -7.5117462875420163e-02
    4.0062459033742776e+01 -2.4976595407570308e-02
    1.1153151408739806e+01 -9.0393371766594441e-02 1. 0.
    1.5170604482399240e+01 -6.6205879910719870e-02
    1.3387601161352659e+01 -7.5117462875420163e-02
    1.2704576873147783e+01 -7.9205591478477458e-02
    1.2117140216588931e+01 -8.3097595001545038e-02
    1.5170604482399240e+01 -6.6205879910719870e-02
    2.3144514263546849e+01 -4.3287744881945478e-02
    1.0750824787097738e+01 -9.3835129064444092e-02
    2.0050000000000001e+01 -5.0000000000000003e-02
    1.6380997772623619e+01 -6.1275552765425005e-02
    1.2117140216588931e+01 -8.3097595001545038e-02
    1.7938871953229011e+01 -5.5919176911561758e-02
    4.0062459033742776e+01 -2.4976595407570308e-02
    6.6614535462463964e+00 -1.5366195836104529e-01
    1.7938871953229011e+01 -5.5919176911561758e-02
    1.1153151408739806e+01 -9.0393371766594441e-02
    2.0050000000000001e+01 -5.0000000000000003e-02
    1.5170604482399240e+01 -6.6205879910719870e-02
    1.0750824787097738e+01 -9.3835129064444092e-02 1. 0.
    9.4932850171867464e+00 -1.0653312363426523e-01
    9.0118048282586685e+00 -1.1236664374387367e-01
    1.6380997772623619e+01 -6.1275552765425005e-02 1. 0. 1. 0.
    1.0750824787097738e+01 -9.3835129064444092e-02
    9.2429995138635821e+00 -1.0948690197219954e-01
    1.1153151408739806e+01 -9.0393371766594441e-02
    6.7511861727572748e+00 -1.5152288168283159e-01 1. 0.
    1.3387601161352659e+01 -7.5117462875420163e-02
    1.4195246124366012e+01 -7.0799232540478860e-02
    1.5170604482399240e+01 -6.6205879910719870e-02 1. 0.
    1.5170604482399240e+01 -6.6205879910719870e-02
    4.0062459033742776e+01 -2.4976595407570308e-02
    1.1153151408739806e+01 -9.0393371766594441e-02
    2.0050000000000001e+01 -5.0000000000000003e-02
    1.3387601161352659e+01 -7.5117462875420163e-02
    1.4195246124366012e+01 -7.0799232540478860e-02
    1.0750824787097738e+01 -9.3835129064444092e-02
    6.5753168715085337e+00 -1.5577433984870590e-01
    1.2704576873147783e+01 -7.9205591478477458e-02
    1.2117140216588931e+01 -8.3097595001545038e-02
    2.0050000000000001e+01 -5.0000000000000003e-02
    4.0062459033742776e+01 -2.4976595407570308e-02
    1.1153151408739806e+01 -9.0393371766594441e-02
    9.4932850171867464e+00 -1.0653312363426523e-01
    1.6380997772623619e+01 -6.1275552765425005e-02
    1.3387601161352659e+01 -7.5117462875420163e-02
    1.5170604482399240e+01 -6.6205879910719870e-02
    1.3387601161352659e+01 -7.5117462875420163e-02
    1.3387601161352659e+01 -7.5117462875420163e-02
    6.0558491643431589e+00 -1.6989601770289411e-01 1. 0.
    1.1153151408739806e+01 -9.0393371766594441e-02
    1.5170604482399240e+01 -6.6205879910719870e-02
    1.4195246124366012e+01 -7.0799232540478860e-02
    1.7938871953229011e+01 -5.5919176911561758e-02
    9.4932850171867464e+00 -1.0653312363426523e-01
    1.4195246124366012e+01 -7.0799232540478860e-02
    1.0062806545231338e+01 -1.0037712264569912e-01
    1.4195246124366012e+01 -7.0799232540478860e-02
    1.2117140216588931e+01 -8.3097595001545038e-02
    1.1604921557473315e+01 -8.6819862025984892e-02
    1.1604921557473315e+01 -8.6819862025984892e-02
    1.1604921557473315e+01 -8.6819862025984892e-02 1. 0. 1. 0. 1. 0. 1.
    0. 1.2117140216588931e+01 -8.3097595001545038e-02 1. 0.
    2.3144514263546849e+01 -4.3287744881945478e-02
    1.3387601161352659e+01 -7.5117462875420163e-02
    8.5978484143781984e+00 -1.1792560169346655e-01
    1.3387601161352659e+01 -7.5117462875420163e-02
    1.2117140216588931e+01 -8.3097595001545038e-02 1. 0.
    1.5170604482399240e+01 -6.6205879910719870e-02
    5.6994578739842501e+00 -1.8121717679126978e-01
    9.0118048282586685e+00 -1.1236664374387367e-01
    2.0050000000000001e+01 -5.0000000000000003e-02
    2.3144514263546849e+01 -4.3287744881945478e-02
    1.4195246124366012e+01 -7.0799232540478860e-02
    1.1153151408739806e+01 -9.0393371766594441e-02
    1.0062806545231338e+01 -1.0037712264569912e-01 1. 0.
    1.4195246124366012e+01 -7.0799232540478860e-02
    1.4195246124366012e+01 -7.0799232540478860e-02
    1.5170604482399240e+01 -6.6205879910719870e-02
    4.0062459033742776e+01 -2.4976595407570308e-02 1. 0. 1. 0.
    8.4115205634515515e+00 -1.2061407291732275e-01
    2.1429377501740241e+00 -6.8670199725027958e-01
    1.5170604482399240e+01 -6.6205879910719870e-02
    1.2117140216588931e+01 -8.3097595001545038e-02
    8.5978484143781984e+00 -1.1792560169346655e-01
    1.4195246124366012e+01 -7.0799232540478860e-02
    2.6270242527025309e+00 -4.6185837859234025e-01
    1.3387601161352659e+01 -7.5117462875420163e-02
    1.7938871953229011e+01 -5.5919176911561758e-02
    9.4932850171867464e+00 -1.0653312363426523e-01
    4.0062459033742776e+01 -2.4976595407570308e-02
    1.4195246124366012e+01 -7.0799232540478860e-02
    1.6380997772623619e+01 -6.1275552765425005e-02
    9.7654315425257732e+00 -1.0349896273250508e-01
    1.1153151408739806e+01 -9.0393371766594441e-02
    1.1604921557473315e+01 -8.6819862025984892e-02
    1.5170604482399240e+01 -6.6205879910719870e-02 1. 0.
    1.2117140216588931e+01 -8.3097595001545038e-02
    1.2704576873147783e+01 -7.9205591478477458e-02
    1.2704576873147783e+01 -7.9205591478477458e-02 1. 0.
    1.4195246124366012e+01 -7.0799232540478860e-02
    1.4195246124366012e+01 -7.0799232540478860e-02
    1.0750824787097738e+01 -9.3835129064444092e-02
    1.7938871953229011e+01 -5.5919176911561758e-02
    1.1604921557473315e+01 -8.6819862025984892e-02
    1.1153151408739806e+01 -9.0393371766594441e-02
    1.7938871953229011e+01 -5.5919176911561758e-02
    1.6380997772623619e+01 -6.1275552765425005e-02
    1.4195246124366012e+01 -7.0799232540478860e-02
    1.3387601161352659e+01 -7.5117462875420163e-02
    9.4932850171867464e+00 -1.0653312363426523e-01 1. 0.
    1.1604921557473315e+01 -8.6819862025984892e-02
    4.0062459033742776e+01 -2.4976595407570308e-02
    1.5170604482399240e+01 -6.6205879910719870e-02
    1.3387601161352659e+01 -7.5117462875420163e-02
    1.2704576873147783e+01 -7.9205591478477458e-02
    1.4195246124366012e+01 -7.0799232540478860e-02
    1.2704576873147783e+01 -7.9205591478477458e-02
    1.3387601161352659e+01 -7.5117462875420163e-02
    1.0750824787097738e+01 -9.3835129064444092e-02
    1.0750824787097738e+01 -9.3835129064444092e-02
    1.3387601161352659e+01 -7.5117462875420163e-02
    7.9188878161586489e+00 -1.2836102445144942e-01
    4.0062459033742776e+01 -2.4976595407570308e-02
    9.4932850171867464e+00 -1.0653312363426523e-01
    6.7511861727572748e+00 -1.5152288168283159e-01
    7.1515981594393780e+00 -1.4267527500128435e-01
    1.1153151408739806e+01 -9.0393371766594441e-02
    2.0050000000000001e+01 -5.0000000000000003e-02
    1.0750824787097738e+01 -9.3835129064444092e-02
    1.4195246124366012e+01 -7.0799232540478860e-02
    1.4195246124366012e+01 -7.0799232540478860e-02
    6.4925438201063113e+00 -1.5786110285794647e-01 1. 0.
    1.2704576873147783e+01 -7.9205591478477458e-02 1. 0.
    8.7973983842769581e+00 -1.1517790902108237e-01
    1.1153151408739806e+01 -9.0393371766594441e-02
    1.5170604482399240e+01 -6.6205879910719870e-02
    1.4195246124366012e+01 -7.0799232540478860e-02 1. 0.
    1.5170604482399240e+01 -6.6205879910719870e-02
    9.7654315425257732e+00 -1.0349896273250508e-01
    1.6380997772623619e+01 -6.1275552765425005e-02
    2.8337276658836693e+01 -3.5333262666878668e-02
    1.2117140216588931e+01 -8.3097595001545038e-02 1. 0.
    1.1153151408739806e+01 -9.0393371766594441e-02
    1.2117140216588931e+01 -8.3097595001545038e-02
    2.3144514263546849e+01 -4.3287744881945478e-02
    4.0062459033742776e+01 -2.4976595407570308e-02
    1.4195246124366012e+01 -7.0799232540478860e-02 1. 0.
    1.2117140216588931e+01 -8.3097595001545038e-02
    1.0750824787097738e+01 -9.3835129064444092e-02
    7.0446480632389115e+00 -1.4493353247311974e-01
    6.4925438201063113e+00 -1.5786110285794647e-01 1. 0.
    1.2117140216588931e+01 -8.3097595001545038e-02
    1.2117140216588931e+01 -8.3097595001545038e-02
    1.2704576873147783e+01 -7.9205591478477458e-02
    1.2704576873147783e+01 -7.9205591478477458e-02
    1.6380997772623619e+01 -6.1275552765425005e-02
    1.3387601161352659e+01 -7.5117462875420163e-02
    2.0050000000000001e+01 -5.0000000000000003e-02
    2.6270242527025309e+00 -4.6185837859234025e-01
    8.4115205634515515e+00 -1.2061407291732275e-01
    4.0062459033742776e+01 -2.4976595407570308e-02 1. 0.
    1.2117140216588931e+01 -8.3097595001545038e-02 1. 0. 1. 0.
    1.2117140216588931e+01 -8.3097595001545038e-02
    9.2429995138635821e+00 -1.0948690197219954e-01 1. 0.
    2.3144514263546849e+01 -4.3287744881945478e-02
    1.2704576873147783e+01 -7.9205591478477458e-02
    1.1153151408739806e+01 -9.0393371766594441e-02
    1.1604921557473315e+01 -8.6819862025984892e-02
    1.3387601161352659e+01 -7.5117462875420163e-02 1. 0.
    1.6380997772623619e+01 -6.1275552765425005e-02
    1.4195246124366012e+01 -7.0799232540478860e-02
    1.2117140216588931e+01 -8.3097595001545038e-02
    1.4195246124366012e+01 -7.0799232540478860e-02
    1.6380997772623619e+01 -6.1275552765425005e-02
    1.0750824787097738e+01 -9.3835129064444092e-02
    1.3387601161352659e+01 -7.5117462875420163e-02
    8.2370215009280550e+00 -1.2324720450266416e-01
    1.5170604482399240e+01 -6.6205879910719870e-02
    9.4932850171867464e+00 -1.0653312363426523e-01
    1.6380997772623619e+01 -6.1275552765425005e-02
    1.2704576873147783e+01 -7.9205591478477458e-02
    1.4195246124366012e+01 -7.0799232540478860e-02
    9.4932850171867464e+00 -1.0653312363426523e-01
    1.1604921557473315e+01 -8.6819862025984892e-02
    2.0050000000000001e+01 -5.0000000000000003e-02
    1.4195246124366012e+01 -7.0799232540478860e-02
    4.0062459033742776e+01 -2.4976595407570308e-02 1. 0.
    1.5170604482399240e+01 -6.6205879910719870e-02
    1.1153151408739806e+01 -9.0393371766594441e-02
    1.6380997772623619e+01 -6.1275552765425005e-02
    1.2704576873147783e+01 -7.9205591478477458e-02
    1.2704576873147783e+01 -7.9205591478477458e-02 1. 0.
    1.5170604482399240e+01 -6.6205879910719870e-02 1. 0.
    9.4932850171867464e+00 -1.0653312363426523e-01
    2.0050000000000001e+01 -5.0000000000000003e-02
    6.6614535462463964e+00 -1.5366195836104529e-01
    1.6380997772623619e+01 -6.1275552765425005e-02
    1.2117140216588931e+01 -8.3097595001545038e-02
    1.1153151408739806e+01 -9.0393371766594441e-02
    1.1153151408739806e+01 -9.0393371766594441e-02
    1.2704576873147783e+01 -7.9205591478477458e-02
    4.0062459033742776e+01 -2.4976595407570308e-02
    1.2117140216588931e+01 -8.3097595001545038e-02
    1.7938871953229011e+01 -5.5919176911561758e-02
    1.6380997772623619e+01 -6.1275552765425005e-02
    1.1604921557473315e+01 -8.6819862025984892e-02
    8.4115205634515515e+00 -1.2061407291732275e-01
    1.1604921557473315e+01 -8.6819862025984892e-02
    1.3387601161352659e+01 -7.5117462875420163e-02
    1.3387601161352659e+01 -7.5117462875420163e-02
    1.2117140216588931e+01 -8.3097595001545038e-02 1. 0.
    5.6994578739842501e+00 -1.8121717679126978e-01
    1.3387601161352659e+01 -7.5117462875420163e-02
    9.4932850171867464e+00 -1.0653312363426523e-01
    1.2117140216588931e+01 -8.3097595001545038e-02
    7.5052486651675236e+00 -1.3569339855976198e-01
    1.2704576873147783e+01 -7.9205591478477458e-02
    2.3144514263546849e+01 -4.3287744881945478e-02
    1.2704576873147783e+01 -7.9205591478477458e-02
    1.4195246124366012e+01 -7.0799232540478860e-02 1. 0.
    6.2623769285176039e+00 -1.6397745074672029e-01
    6.4925438201063113e+00 -1.5786110285794647e-01
    1.5170604482399240e+01 -6.6205879910719870e-02
    2.0050000000000001e+01 -5.0000000000000003e-02
    1.1153151408739806e+01 -9.0393371766594441e-02
    4.3006545047867091e+00 -2.4667095663365166e-01
    1.2117140216588931e+01 -8.3097595001545038e-02 1. 0.
    2.8337276658836693e+01 -3.5333262666878668e-02
    1.4195246124366012e+01 -7.0799232540478860e-02
    1.0750824787097738e+01 -9.3835129064444092e-02
    1.0389551156457197e+01 -9.7159144231208194e-02
    1.2117140216588931e+01 -8.3097595001545038e-02
    5.6994578739842501e+00 -1.8121717679126978e-01
    1.2117140216588931e+01 -8.3097595001545038e-02
    6.6614535462463964e+00 -1.5366195836104529e-01
    1.0750824787097738e+01 -9.3835129064444092e-02
    1.1604921557473315e+01 -8.6819862025984892e-02
    1.2117140216588931e+01 -8.3097595001545038e-02
    1.2704576873147783e+01 -7.9205591478477458e-02
    6.4925438201063113e+00 -1.5786110285794647e-01
    1.1153151408739806e+01 -9.0393371766594441e-02 1. 0.
    1.3387601161352659e+01 -7.5117462875420163e-02
    4.0062459033742776e+01 -2.4976595407570308e-02
    6.6614535462463964e+00 -1.5366195836104529e-01
    4.0062459033742776e+01 -2.4976595407570308e-02
    1.6380997772623619e+01 -6.1275552765425005e-02
    1.3387601161352659e+01 -7.5117462875420163e-02
    1.5170604482399240e+01 -6.6205879910719870e-02
    1.0750824787097738e+01 -9.3835129064444092e-02
    7.0446480632389115e+00 -1.4493353247311974e-01
    1.1153151408739806e+01 -9.0393371766594441e-02
    2.8337276658836693e+01 -3.5333262666878668e-02
    1.4195246124366012e+01 -7.0799232540478860e-02
    9.4932850171867464e+00 -1.0653312363426523e-01 1. 0.
    1.2117140216588931e+01 -8.3097595001545038e-02
    8.7973983842769581e+00 -1.1517790902108237e-01
    1.0750824787097738e+01 -9.3835129064444092e-02
    7.9188878161586489e+00 -1.2836102445144942e-01 1. 0. 1. 0.
    1.2117140216588931e+01 -8.3097595001545038e-02 1. 0.
    1.1153151408739806e+01 -9.0393371766594441e-02
    1.5170604482399240e+01 -6.6205879910719870e-02
    1.0750824787097738e+01 -9.3835129064444092e-02
    2.0050000000000001e+01 -5.0000000000000003e-02
    1.4195246124366012e+01 -7.0799232540478860e-02
    1.4195246124366012e+01 -7.0799232540478860e-02
    1.2117140216588931e+01 -8.3097595001545038e-02
    6.6614535462463964e+00 -1.5366195836104529e-01
    1.5170604482399240e+01 -6.6205879910719870e-02
    1.2704576873147783e+01 -7.9205591478477458e-02
    4.0062459033742776e+01 -2.4976595407570308e-02
    1.1604921557473315e+01 -8.6819862025984892e-02
    1.2704576873147783e+01 -7.9205591478477458e-02
    1.3387601161352659e+01 -7.5117462875420163e-02
    1.0750824787097738e+01 -9.3835129064444092e-02
    4.0062459033742776e+01 -2.4976595407570308e-02
    1.1604921557473315e+01 -8.6819862025984892e-02
    1.0750824787097738e+01 -9.3835129064444092e-02
    1.2117140216588931e+01 -8.3097595001545038e-02
    4.0062459033742776e+01 -2.4976595407570308e-02
    9.4932850171867464e+00 -1.0653312363426523e-01
    1.6380997772623619e+01 -6.1275552765425005e-02 1. 0. 1. 0.
    1.0750824787097738e+01 -9.3835129064444092e-02
    1.5170604482399240e+01 -6.6205879910719870e-02
    1.4195246124366012e+01 -7.0799232540478860e-02
    1.3387601161352659e+01 -7.5117462875420163e-02
    1.2117140216588931e+01 -8.3097595001545038e-02
    4.0430480054024844e+00 -2.6466336693719505e-01 1. 0.
    1.4195246124366012e+01 -7.0799232540478860e-02
    1.7938871953229011e+01 -5.5919176911561758e-02
    1.2704576873147783e+01 -7.9205591478477458e-02
    1.2117140216588931e+01 -8.3097595001545038e-02
    2.3144514263546849e+01 -4.3287744881945478e-02
    1.2117140216588931e+01 -8.3097595001545038e-02
    4.0062459033742776e+01 -2.4976595407570308e-02
    4.5403581453530846e+00 -2.3211307226867389e-01
    1.2117140216588931e+01 -8.3097595001545038e-02
    2.8337276658836693e+01 -3.5333262666878668e-02
    1.2117140216588931e+01 -8.3097595001545038e-02
    1.7938871953229011e+01 -5.5919176911561758e-02
    6.6614535462463964e+00 -1.5366195836104529e-01
    1.1604921557473315e+01 -8.6819862025984892e-02
    4.0062459033742776e+01 -2.4976595407570308e-02
    1.4195246124366012e+01 -7.0799232540478860e-02 1. 0.
    1.6380997772623619e+01 -6.1275552765425005e-02
    1.2117140216588931e+01 -8.3097595001545038e-02
    9.0118048282586685e+00 -1.1236664374387367e-01
    1.3387601161352659e+01 -7.5117462875420163e-02
    1.5170604482399240e+01 -6.6205879910719870e-02
    1.4195246124366012e+01 -7.0799232540478860e-02
    1.5170604482399240e+01 -6.6205879910719870e-02
    1.4195246124366012e+01 -7.0799232540478860e-02 1. 0.
    1.5170604482399240e+01 -6.6205879910719870e-02
    1.1153151408739806e+01 -9.0393371766594441e-02
    1.3387601161352659e+01 -7.5117462875420163e-02
    1.5170604482399240e+01 -6.6205879910719870e-02
    1.3387601161352659e+01 -7.5117462875420163e-02
    1.3387601161352659e+01 -7.5117462875420163e-02 1. 0.
    3.8918742921259137e+00 -2.7660453198401130e-01
    2.8337276658836693e+01 -3.5333262666878668e-02
    5.1875982173481088e+00 -2.0051813558328102e-01
    1.3387601161352659e+01 -7.5117462875420163e-02
    1.4195246124366012e+01 -7.0799232540478860e-02 1. 0.
    2.3144514263546849e+01 -4.3287744881945478e-02 1. 0.
    1.2704576873147783e+01 -7.9205591478477458e-02
    1.5170604482399240e+01 -6.6205879910719870e-02
    1.0389551156457197e+01 -9.7159144231208194e-02 1. 0. 1. 0.
    1.5170604482399240e+01 -6.6205879910719870e-02 1. 0.
    1.1604921557473315e+01 -8.6819862025984892e-02
    1.3387601161352659e+01 -7.5117462875420163e-02
    1.4195246124366012e+01 -7.0799232540478860e-02
    1.5170604482399240e+01 -6.6205879910719870e-02
    2.8337276658836693e+01 -3.5333262666878668e-02
    1.5170604482399240e+01 -6.6205879910719870e-02
    1.4195246124366012e+01 -7.0799232540478860e-02
    1.2117140216588931e+01 -8.3097595001545038e-02
    1.6380997772623619e+01 -6.1275552765425005e-02
    1.4195246124366012e+01 -7.0799232540478860e-02
    1.4195246124366012e+01 -7.0799232540478860e-02
    1.2704576873147783e+01 -7.9205591478477458e-02
    1.4195246124366012e+01 -7.0799232540478860e-02
    2.0050000000000001e+01 -5.0000000000000003e-02
    2.0050000000000001e+01 -5.0000000000000003e-02
    1.5170604482399240e+01 -6.6205879910719870e-02 1. 0. 1. 0. 1. 0.
    1.4195246124366012e+01 -7.0799232540478860e-02
    1.5170604482399240e+01 -6.6205879910719870e-02
    4.0062459033742776e+01 -2.4976595407570308e-02
    2.0050000000000001e+01 -5.0000000000000003e-02
    1.0750824787097738e+01 -9.3835129064444092e-02 1. 0.
    1.2117140216588931e+01 -8.3097595001545038e-02
    4.0062459033742776e+01 -2.4976595407570308e-02
    1.5170604482399240e+01 -6.6205879910719870e-02 1. 0.
    1.1153151408739806e+01 -9.0393371766594441e-02
    8.7973983842769581e+00 -1.1517790902108237e-01
    1.0750824787097738e+01 -9.3835129064444092e-02
    1.2117140216588931e+01 -8.3097595001545038e-02
    1.6380997772623619e+01 -6.1275552765425005e-02 1. 0.
    1.5170604482399240e+01 -6.6205879910719870e-02
    9.7654315425257732e+00 -1.0349896273250508e-01
    1.5170604482399240e+01 -6.6205879910719870e-02
    1.7938871953229011e+01 -5.5919176911561758e-02
    1.6380997772623619e+01 -6.1275552765425005e-02
    4.0062459033742776e+01 -2.4976595407570308e-02
    1.2117140216588931e+01 -8.3097595001545038e-02
    1.6380997772623619e+01 -6.1275552765425005e-02
    1.0389551156457197e+01 -9.7159144231208194e-02
    1.1153151408739806e+01 -9.0393371766594441e-02 1. 0.
    1.5170604482399240e+01 -6.6205879910719870e-02
    1.0062806545231338e+01 -1.0037712264569912e-01
    1.4195246124366012e+01 -7.0799232540478860e-02
    1.4195246124366012e+01 -7.0799232540478860e-02
    3.7034992054521854e+00 -2.9323216901024157e-01
    6.6614535462463964e+00 -1.5366195836104529e-01
    1.5170604482399240e+01 -6.6205879910719870e-02
    9.4932850171867464e+00 -1.0653312363426523e-01
    1.5170604482399240e+01 -6.6205879910719870e-02
    8.4115205634515515e+00 -1.2061407291732275e-01
    1.4195246124366012e+01 -7.0799232540478860e-02
    2.3144514263546849e+01 -4.3287744881945478e-02
    1.2117140216588931e+01 -8.3097595001545038e-02
    1.0389551156457197e+01 -9.7159144231208194e-02
    6.6614535462463964e+00 -1.5366195836104529e-01
    1.5170604482399240e+01 -6.6205879910719870e-02 1. 0.
    1.4195246124366012e+01 -7.0799232540478860e-02
    4.0062459033742776e+01 -2.4976595407570308e-02
    4.0062459033742776e+01 -2.4976595407570308e-02
    1.2117140216588931e+01 -8.3097595001545038e-02
    1.3387601161352659e+01 -7.5117462875420163e-02
    9.4932850171867464e+00 -1.0653312363426523e-01
    2.0050000000000001e+01 -5.0000000000000003e-02
    5.6994578739842501e+00 -1.8121717679126978e-01
    1.6380997772623619e+01 -6.1275552765425005e-02
    1.3387601161352659e+01 -7.5117462875420163e-02 1. 0.
    1.5170604482399240e+01 -6.6205879910719870e-02
    9.4932850171867464e+00 -1.0653312363426523e-01
    1.7938871953229011e+01 -5.5919176911561758e-02
    4.0062459033742776e+01 -2.4976595407570308e-02
    2.5914690159330984e+00 -4.7176368619230974e-01
    2.3144514263546849e+01 -4.3287744881945478e-02
    9.4932850171867464e+00 -1.0653312363426523e-01
    6.3362593716954407e+00 -1.6196174204458422e-01 1. 0.
    1.0062806545231338e+01 -1.0037712264569912e-01
    5.5442350611586741e+00 -1.8665130505147656e-01
    1.1604921557473315e+01 -8.6819862025984892e-02
    5.6994578739842501e+00 -1.8121717679126978e-01 1. 0.
    1.0750824787097738e+01 -9.3835129064444092e-02
    1.1153151408739806e+01 -9.0393371766594441e-02
    1.6380997772623619e+01 -6.1275552765425005e-02
    1.2117140216588931e+01 -8.3097595001545038e-02
    2.3144514263546849e+01 -4.3287744881945478e-02
    1.7938871953229011e+01 -5.5919176911561758e-02
    9.7654315425257732e+00 -1.0349896273250508e-01
    1.5170604482399240e+01 -6.6205879910719870e-02
    1.5170604482399240e+01 -6.6205879910719870e-02
    4.0062459033742776e+01 -2.4976595407570308e-02 1. 0. 1. 0.
    2.3144514263546849e+01 -4.3287744881945478e-02
    1.0389551156457197e+01 -9.7159144231208194e-02
    1.4195246124366012e+01 -7.0799232540478860e-02
    3.3748757145532218e+00 -3.2822980764981458e-01 1. 0.
    1.3387601161352659e+01 -7.5117462875420163e-02
    1.2117140216588931e+01 -8.3097595001545038e-02 1. 0. 1. 0.
    8.4115205634515515e+00 -1.2061407291732275e-01
    2.0050000000000001e+01 -5.0000000000000003e-02 1. 0.
    1.2704576873147783e+01 -7.9205591478477458e-02
    1.4195246124366012e+01 -7.0799232540478860e-02
    1.0062806545231338e+01 -1.0037712264569912e-01
    1.1153151408739806e+01 -9.0393371766594441e-02
    1.2117140216588931e+01 -8.3097595001545038e-02
    1.2117140216588931e+01 -8.3097595001545038e-02
    1.5170604482399240e+01 -6.6205879910719870e-02
    9.7654315425257732e+00 -1.0349896273250508e-01 1. 0.
    8.4115205634515515e+00 -1.2061407291732275e-01
    1.0062806545231338e+01 -1.0037712264569912e-01
    1.5170604482399240e+01 -6.6205879910719870e-02
    1.2704576873147783e+01 -7.9205591478477458e-02 1. 0.
    2.3144514263546849e+01 -4.3287744881945478e-02
    1.4195246124366012e+01 -7.0799232540478860e-02
    2.0050000000000001e+01 -5.0000000000000003e-02
    1.5170604482399240e+01 -6.6205879910719870e-02
    1.0750824787097738e+01 -9.3835129064444092e-02
    4.0062459033742776e+01 -2.4976595407570308e-02
    4.7366357612152710e+00 -2.2147611102939235e-01
    1.4195246124366012e+01 -7.0799232540478860e-02
    1.0062806545231338e+01 -1.0037712264569912e-01 1. 0. 1. 0.
    1.2704576873147783e+01 -7.9205591478477458e-02
    9.4932850171867464e+00 -1.0653312363426523e-01
    1.2704576873147783e+01 -7.9205591478477458e-02
    1.3387601161352659e+01 -7.5117462875420163e-02
    9.4932850171867464e+00 -1.0653312363426523e-01
    1.7938871953229011e+01 -5.5919176911561758e-02
    1.5170604482399240e+01 -6.6205879910719870e-02
    4.0062459033742776e+01 -2.4976595407570308e-02 1. 0.
    1.5170604482399240e+01 -6.6205879910719870e-02
    8.7973983842769581e+00 -1.1517790902108237e-01
    1.1604921557473315e+01 -8.6819862025984892e-02
    1.3387601161352659e+01 -7.5117462875420163e-02
    1.3387601161352659e+01 -7.5117462875420163e-02
    1.3387601161352659e+01 -7.5117462875420163e-02
    1.1604921557473315e+01 -8.6819862025984892e-02
    1.2117140216588931e+01 -8.3097595001545038e-02
    2.8337276658836693e+01 -3.5333262666878668e-02
    1.3387601161352659e+01 -7.5117462875420163e-02
    2.3144514263546849e+01 -4.3287744881945478e-02
    1.1153151408739806e+01 -9.0393371766594441e-02
    1.3387601161352659e+01 -7.5117462875420163e-02 1. 0.
    6.6614535462463964e+00 -1.5366195836104529e-01 1. 0. 1. 0.
    1.2704576873147783e+01 -7.9205591478477458e-02
    4.0062459033742776e+01 -2.4976595407570308e-02
    1.4195246124366012e+01 -7.0799232540478860e-02
    2.3144514263546849e+01 -4.3287744881945478e-02
    1.5170604482399240e+01 -6.6205879910719870e-02
    1.0389551156457197e+01 -9.7159144231208194e-02
    1.7938871953229011e+01 -5.5919176911561758e-02
    1.4195246124366012e+01 -7.0799232540478860e-02
    4.0062459033742776e+01 -2.4976595407570308e-02
    1.0750824787097738e+01 -9.3835129064444092e-02
    1.5170604482399240e+01 -6.6205879910719870e-02
    1.2117140216588931e+01 -8.3097595001545038e-02
    8.7973983842769581e+00 -1.1517790902108237e-01
    8.5978484143781984e+00 -1.1792560169346655e-01
    2.8337276658836693e+01 -3.5333262666878668e-02
    6.5753168715085337e+00 -1.5577433984870590e-01
    1.3387601161352659e+01 -7.5117462875420163e-02
    6.9424870643877119e+00 -1.4715995024263231e-01
    6.6614535462463964e+00 -1.5366195836104529e-01
    8.7973983842769581e+00 -1.1517790902108237e-01 1. 0.
    1.1604921557473315e+01 -8.6819862025984892e-02
    8.5978484143781984e+00 -1.1792560169346655e-01
    2.8337276658836693e+01 -3.5333262666878668e-02
    1.0750824787097738e+01 -9.3835129064444092e-02
    1.1153151408739806e+01 -9.0393371766594441e-02 1. 0.
    4.0062459033742776e+01 -2.4976595407570308e-02
    1.2117140216588931e+01 -8.3097595001545038e-02
    4.0062459033742776e+01 -2.4976595407570308e-02
    1.1153151408739806e+01 -9.0393371766594441e-02
    1.4195246124366012e+01 -7.0799232540478860e-02
    1.6380997772623619e+01 -6.1275552765425005e-02
    1.4195246124366012e+01 -7.0799232540478860e-02 1. 0.
    1.4195246124366012e+01 -7.0799232540478860e-02
    1.3387601161352659e+01 -7.5117462875420163e-02
    2.8337276658836693e+01 -3.5333262666878668e-02
    1.6380997772623619e+01 -6.1275552765425005e-02
    2.0050000000000001e+01 -5.0000000000000003e-02
    1.2117140216588931e+01 -8.3097595001545038e-02
    1.2704576873147783e+01 -7.9205591478477458e-02
    2.0050000000000001e+01 -5.0000000000000003e-02
    9.7654315425257732e+00 -1.0349896273250508e-01
    1.6380997772623619e+01 -6.1275552765425005e-02
    1.5170604482399240e+01 -6.6205879910719870e-02
    9.7654315425257732e+00 -1.0349896273250508e-01
    9.4932850171867464e+00 -1.0653312363426523e-01
    1.6380997772623619e+01 -6.1275552765425005e-02
    1.3387601161352659e+01 -7.5117462875420163e-02
    1.4195246124366012e+01 -7.0799232540478860e-02
    1.4195246124366012e+01 -7.0799232540478860e-02
    1.1153151408739806e+01 -9.0393371766594441e-02
    2.3144514263546849e+01 -4.3287744881945478e-02
    1.4195246124366012e+01 -7.0799232540478860e-02
    1.2117140216588931e+01 -8.3097595001545038e-02
    1.5170604482399240e+01 -6.6205879910719870e-02
    1.1153151408739806e+01 -9.0393371766594441e-02
    2.8337276658836693e+01 -3.5333262666878668e-02 1. 0.
    1.1153151408739806e+01 -9.0393371766594441e-02
    1.0389551156457197e+01 -9.7159144231208194e-02
    1.2117140216588931e+01 -8.3097595001545038e-02
    1.5170604482399240e+01 -6.6205879910719870e-02
    1.0062806545231338e+01 -1.0037712264569912e-01
    1.4195246124366012e+01 -7.0799232540478860e-02
    1.1153151408739806e+01 -9.0393371766594441e-02
    7.5052486651675236e+00 -1.3569339855976198e-01
    1.2117140216588931e+01 -8.3097595001545038e-02
    1.5170604482399240e+01 -6.6205879910719870e-02
    1.2117140216588931e+01 -8.3097595001545038e-02
    1.4195246124366012e+01 -7.0799232540478860e-02 1. 0.
    1.1604921557473315e+01 -8.6819862025984892e-02
    1.7938871953229011e+01 -5.5919176911561758e-02
    1.5170604482399240e+01 -6.6205879910719870e-02
    1.3387601161352659e+01 -7.5117462875420163e-02
    4.0062459033742776e+01 -2.4976595407570308e-02
    1.3387601161352659e+01 -7.5117462875420163e-02
    1.5170604482399240e+01 -6.6205879910719870e-02
    1.5170604482399240e+01 -6.6205879910719870e-02
    1.2704576873147783e+01 -7.9205591478477458e-02
    9.4932850171867464e+00 -1.0653312363426523e-01
    1.0750824787097738e+01 -9.3835129064444092e-02
    1.0389551156457197e+01 -9.7159144231208194e-02 1. 0.
    1.4195246124366012e+01 -7.0799232540478860e-02
    1.2117140216588931e+01 -8.3097595001545038e-02
    1.3387601161352659e+01 -7.5117462875420163e-02
    1.2704576873147783e+01 -7.9205591478477458e-02
    1.2117140216588931e+01 -8.3097595001545038e-02
    1.2117140216588931e+01 -8.3097595001545038e-02
    7.5052486651675236e+00 -1.3569339855976198e-01
    4.0062459033742776e+01 -2.4976595407570308e-02
    1.7938871953229011e+01 -5.5919176911561758e-02
    1.2704576873147783e+01 -7.9205591478477458e-02
    1.4195246124366012e+01 -7.0799232540478860e-02
    4.0062459033742776e+01 -2.4976595407570308e-02
    4.0062459033742776e+01 -2.4976595407570308e-02 1. 0. 1. 0.
    1.2704576873147783e+01 -7.9205591478477458e-02 1. 0.
    1.4195246124366012e+01 -7.0799232540478860e-02 1. 0.
    1.1153151408739806e+01 -9.0393371766594441e-02 1. 0.
    1.4195246124366012e+01 -7.0799232540478860e-02
    1.4195246124366012e+01 -7.0799232540478860e-02
    1.4195246124366012e+01 -7.0799232540478860e-02
    1.2117140216588931e+01 -8.3097595001545038e-02
    1.4195246124366012e+01 -7.0799232540478860e-02 1. 0.
    1.4195246124366012e+01 -7.0799232540478860e-02
    1.1604921557473315e+01 -8.6819862025984892e-02 1. 0.
    1.5170604482399240e+01 -6.6205879910719870e-02
    1.3387601161352659e+01 -7.5117462875420163e-02
    1.2117140216588931e+01 -8.3097595001545038e-02
    1.6380997772623619e+01 -6.1275552765425005e-02
    1.7938871953229011e+01 -5.5919176911561758e-02 1. 0. 1. 0.
    1.4195246124366012e+01 -7.0799232540478860e-02
    1.1153151408739806e+01 -9.0393371766594441e-02
    1.2117140216588931e+01 -8.3097595001545038e-02
    6.5753168715085337e+00 -1.5577433984870590e-01
    1.3387601161352659e+01 -7.5117462875420163e-02
    9.4932850171867464e+00 -1.0653312363426523e-01
    1.2117140216588931e+01 -8.3097595001545038e-02
    1.0750824787097738e+01 -9.3835129064444092e-02
    2.8337276658836693e+01 -3.5333262666878668e-02
    2.0050000000000001e+01 -5.0000000000000003e-02
    1.1153151408739806e+01 -9.0393371766594441e-02
    1.4195246124366012e+01 -7.0799232540478860e-02
    4.0062459033742776e+01 -2.4976595407570308e-02
    1.3387601161352659e+01 -7.5117462875420163e-02 1. 0.
    8.7973983842769581e+00 -1.1517790902108237e-01
    1.2117140216588931e+01 -8.3097595001545038e-02
    1.4195246124366012e+01 -7.0799232540478860e-02
    1.4195246124366012e+01 -7.0799232540478860e-02
    1.5170604482399240e+01 -6.6205879910719870e-02
    1.5170604482399240e+01 -6.6205879910719870e-02
    1.6380997772623619e+01 -6.1275552765425005e-02
    1.3387601161352659e+01 -7.5117462875420163e-02
    1.4195246124366012e+01 -7.0799232540478860e-02
    1.0750824787097738e+01 -9.3835129064444092e-02
    2.0050000000000001e+01 -5.0000000000000003e-02 1. 0.
    1.4195246124366012e+01 -7.0799232540478860e-02 1. 0. 1. 0.
    1.5170604482399240e+01 -6.6205879910719870e-02
    1.6380997772623619e+01 -6.1275552765425005e-02
    4.0062459033742776e+01 -2.4976595407570308e-02
    9.4932850171867464e+00 -1.0653312363426523e-01
    1.4195246124366012e+01 -7.0799232540478860e-02
    1.4195246124366012e+01 -7.0799232540478860e-02 1. 0.
    9.0118048282586685e+00 -1.1236664374387367e-01
    1.7938871953229011e+01 -5.5919176911561758e-02
    1.5170604482399240e+01 -6.6205879910719870e-02
    1.5170604482399240e+01 -6.6205879910719870e-02
    8.7973983842769581e+00 -1.1517790902108237e-01
    4.0062459033742776e+01 -2.4976595407570308e-02
    1.6380997772623619e+01 -6.1275552765425005e-02
    1.6380997772623619e+01 -6.1275552765425005e-02
    1.2704576873147783e+01 -7.9205591478477458e-02 1. 0.
    1.7938871953229011e+01 -5.5919176911561758e-02
    1.5170604482399240e+01 -6.6205879910719870e-02
    1.5170604482399240e+01 -6.6205879910719870e-02
    1.3387601161352659e+01 -7.5117462875420163e-02
    1.0750824787097738e+01 -9.3835129064444092e-02
    1.0750824787097738e+01 -9.3835129064444092e-02
    8.7973983842769581e+00 -1.1517790902108237e-01
    1.3387601161352659e+01 -7.5117462875420163e-02
    1.4195246124366012e+01 -7.0799232540478860e-02
    1.2117140216588931e+01 -8.3097595001545038e-02
    1.2117140216588931e+01 -8.3097595001545038e-02 1. 0.
    1.6380997772623619e+01 -6.1275552765425005e-02
    1.2704576873147783e+01 -7.9205591478477458e-02
    1.4195246124366012e+01 -7.0799232540478860e-02
    9.7654315425257732e+00 -1.0349896273250508e-01
    9.4932850171867464e+00 -1.0653312363426523e-01 1. 0.
    4.0062459033742776e+01 -2.4976595407570308e-02
    2.3144514263546849e+01 -4.3287744881945478e-02
    9.4932850171867464e+00 -1.0653312363426523e-01
    1.3387601161352659e+01 -7.5117462875420163e-02
    1.4195246124366012e+01 -7.0799232540478860e-02
    1.3387601161352659e+01 -7.5117462875420163e-02
    1.3387601161352659e+01 -7.5117462875420163e-02
    1.4195246124366012e+01 -7.0799232540478860e-02
    1.2117140216588931e+01 -8.3097595001545038e-02
    1.5170604482399240e+01 -6.6205879910719870e-02
    1.6380997772623619e+01 -6.1275552765425005e-02
    1.2704576873147783e+01 -7.9205591478477458e-02
    1.0750824787097738e+01 -9.3835129064444092e-02
    1.2704576873147783e+01 -7.9205591478477458e-02
    1.0750824787097738e+01 -9.3835129064444092e-02
    1.3387601161352659e+01 -7.5117462875420163e-02
    1.2117140216588931e+01 -8.3097595001545038e-02
    1.5170604482399240e+01 -6.6205879910719870e-02
    2.0050000000000001e+01 -5.0000000000000003e-02
    1.2117140216588931e+01 -8.3097595001545038e-02
    1.2704576873147783e+01 -7.9205591478477458e-02
    1.5170604482399240e+01 -6.6205879910719870e-02
    1.1604921557473315e+01 -8.6819862025984892e-02 1. 0.
    1.2704576873147783e+01 -7.9205591478477458e-02
    1.3387601161352659e+01 -7.5117462875420163e-02 1. 0.
    1.4195246124366012e+01 -7.0799232540478860e-02
    1.6380997772623619e+01 -6.1275552765425005e-02
    1.1153151408739806e+01 -9.0393371766594441e-02
    1.2117140216588931e+01 -8.3097595001545038e-02
    1.1604921557473315e+01 -8.6819862025984892e-02
    2.0050000000000001e+01 -5.0000000000000003e-02
    1.1604921557473315e+01 -8.6819862025984892e-02
    1.5170604482399240e+01 -6.6205879910719870e-02
    1.1153151408739806e+01 -9.0393371766594441e-02
    9.4932850171867464e+00 -1.0653312363426523e-01
    1.5170604482399240e+01 -6.6205879910719870e-02
    1.3387601161352659e+01 -7.5117462875420163e-02
    1.6380997772623619e+01 -6.1275552765425005e-02
    1.4195246124366012e+01 -7.0799232540478860e-02 1. 0.
    1.2117140216588931e+01 -8.3097595001545038e-02
    1.7938871953229011e+01 -5.5919176911561758e-02
    1.0750824787097738e+01 -9.3835129064444092e-02
    1.2704576873147783e+01 -7.9205591478477458e-02
    1.3387601161352659e+01 -7.5117462875420163e-02
    1.3387601161352659e+01 -7.5117462875420163e-02
    9.2429995138635821e+00 -1.0948690197219954e-01
    1.4195246124366012e+01 -7.0799232540478860e-02
    9.4932850171867464e+00 -1.0653312363426523e-01
    1.1153151408739806e+01 -9.0393371766594441e-02
    1.4195246124366012e+01 -7.0799232540478860e-02
    8.2370215009280550e+00 -1.2324720450266416e-01 1. 0.
    1.3387601161352659e+01 -7.5117462875420163e-02
    4.0062459033742776e+01 -2.4976595407570308e-02
    1.4195246124366012e+01 -7.0799232540478860e-02
    1.4195246124366012e+01 -7.0799232540478860e-02
    2.8337276658836693e+01 -3.5333262666878668e-02
    1.6380997772623619e+01 -6.1275552765425005e-02
    1.6380997772623619e+01 -6.1275552765425005e-02
    1.4195246124366012e+01 -7.0799232540478860e-02
    6.3362593716954407e+00 -1.6196174204458422e-01
    1.1153151408739806e+01 -9.0393371766594441e-02 1. 0.
    1.3387601161352659e+01 -7.5117462875420163e-02
    4.0062459033742776e+01 -2.4976595407570308e-02
    1.6380997772623619e+01 -6.1275552765425005e-02
    1.1153151408739806e+01 -9.0393371766594441e-02
    1.3387601161352659e+01 -7.5117462875420163e-02
    1.0389551156457197e+01 -9.7159144231208194e-02 1. 0.
    4.0062459033742776e+01 -2.4976595407570308e-02
    1.4195246124366012e+01 -7.0799232540478860e-02
    1.0750824787097738e+01 -9.3835129064444092e-02
    2.0050000000000001e+01 -5.0000000000000003e-02
    1.6380997772623619e+01 -6.1275552765425005e-02
    1.5170604482399240e+01 -6.6205879910719870e-02
    1.4195246124366012e+01 -7.0799232540478860e-02
    1.2704576873147783e+01 -7.9205591478477458e-02
    1.1153151408739806e+01 -9.0393371766594441e-02
    4.0062459033742776e+01 -2.4976595407570308e-02 1. 0. 1. 0.
    2.3144514263546849e+01 -4.3287744881945478e-02
    1.4195246124366012e+01 -7.0799232540478860e-02
    1.0389551156457197e+01 -9.7159144231208194e-02
    1.2117140216588931e+01 -8.3097595001545038e-02
    4.0062459033742776e+01 -2.4976595407570308e-02
    1.3387601161352659e+01 -7.5117462875420163e-02
    2.0050000000000001e+01 -5.0000000000000003e-02
    1.3387601161352659e+01 -7.5117462875420163e-02
    5.6994578739842501e+00 -1.8121717679126978e-01
    2.0050000000000001e+01 -5.0000000000000003e-02
    6.7511861727572748e+00 -1.5152288168283159e-01
    2.5914690159330984e+00 -4.7176368619230974e-01
    1.6380997772623619e+01 -6.1275552765425005e-02
    7.5052486651675236e+00 -1.3569339855976198e-01
    1.0062806545231338e+01 -1.0037712264569912e-01
    9.4932850171867464e+00 -1.0653312363426523e-01 1. 0.
    2.0050000000000001e+01 -5.0000000000000003e-02
    1.3387601161352659e+01 -7.5117462875420163e-02
    1.2704576873147783e+01 -7.9205591478477458e-02
    9.4932850171867464e+00 -1.0653312363426523e-01
    1.2117140216588931e+01 -8.3097595001545038e-02
    2.8337276658836693e+01 -3.5333262666878668e-02
    9.4932850171867464e+00 -1.0653312363426523e-01
    1.2117140216588931e+01 -8.3097595001545038e-02 1. 0.
    7.0446480632389115e+00 -1.4493353247311974e-01 1. 0.
    1.2117140216588931e+01 -8.3097595001545038e-02
    2.3144514263546849e+01 -4.3287744881945478e-02
    1.4195246124366012e+01 -7.0799232540478860e-02
    1.1604921557473315e+01 -8.6819862025984892e-02
    4.7366357612152710e+00 -2.2147611102939235e-01
    2.3144514263546849e+01 -4.3287744881945478e-02 1. 0.
    1.2117140216588931e+01 -8.3097595001545038e-02
    1.4195246124366012e+01 -7.0799232540478860e-02
    1.4195246124366012e+01 -7.0799232540478860e-02
    1.4195246124366012e+01 -7.0799232540478860e-02
    2.8337276658836693e+01 -3.5333262666878668e-02
    1.4195246124366012e+01 -7.0799232540478860e-02
    4.1168418787068193e+00 -2.5922757465672619e-01
    1.3387601161352659e+01 -7.5117462875420163e-02
    1.5170604482399240e+01 -6.6205879910719870e-02
    6.4925438201063113e+00 -1.5786110285794647e-01
    1.2117140216588931e+01 -8.3097595001545038e-02
    1.2117140216588931e+01 -8.3097595001545038e-02
    8.7973983842769581e+00 -1.1517790902108237e-01
    1.6380997772623619e+01 -6.1275552765425005e-02
    1.4195246124366012e+01 -7.0799232540478860e-02
    1.1153151408739806e+01 -9.0393371766594441e-02 1. 0.
    1.7938871953229011e+01 -5.5919176911561758e-02
    1.1604921557473315e+01 -8.6819862025984892e-02
    9.2429995138635821e+00 -1.0948690197219954e-01
    1.2117140216588931e+01 -8.3097595001545038e-02
    6.5753168715085337e+00 -1.5577433984870590e-01
    1.4195246124366012e+01 -7.0799232540478860e-02
    1.4195246124366012e+01 -7.0799232540478860e-02
    9.0118048282586685e+00 -1.1236664374387367e-01 1. 0.
    9.2429995138635821e+00 -1.0948690197219954e-01
    4.9631145591705801e+00 -2.1040635288254331e-01
    2.8337276658836693e+01 -3.5333262666878668e-02
    2.3144514263546849e+01 -4.3287744881945478e-02
    1.2117140216588931e+01 -8.3097595001545038e-02
    8.7973983842769581e+00 -1.1517790902108237e-01
    1.7938871953229011e+01 -5.5919176911561758e-02
    1.2117140216588931e+01 -8.3097595001545038e-02
    1.4195246124366012e+01 -7.0799232540478860e-02
    1.4195246124366012e+01 -7.0799232540478860e-02
    6.6614535462463964e+00 -1.5366195836104529e-01
    1.2117140216588931e+01 -8.3097595001545038e-02
    1.6380997772623619e+01 -6.1275552765425005e-02 1. 0.
    9.7654315425257732e+00 -1.0349896273250508e-01
    9.0118048282586685e+00 -1.1236664374387367e-01
    9.7654315425257732e+00 -1.0349896273250508e-01
    1.2117140216588931e+01 -8.3097595001545038e-02
    1.7938871953229011e+01 -5.5919176911561758e-02
    1.4195246124366012e+01 -7.0799232540478860e-02
    1.1604921557473315e+01 -8.6819862025984892e-02 1. 0.
    1.6380997772623619e+01 -6.1275552765425005e-02
    1.0062806545231338e+01 -1.0037712264569912e-01
    1.6380997772623619e+01 -6.1275552765425005e-02
    1.2117140216588931e+01 -8.3097595001545038e-02
    1.0389551156457197e+01 -9.7159144231208194e-02
    1.2117140216588931e+01 -8.3097595001545038e-02
    9.7654315425257732e+00 -1.0349896273250508e-01
    1.5170604482399240e+01 -6.6205879910719870e-02
    1.7938871953229011e+01 -5.5919176911561758e-02
    4.9286233322966915e+00 -2.1201683910752600e-01
    1.5170604482399240e+01 -6.6205879910719870e-02
    8.7973983842769581e+00 -1.1517790902108237e-01 1. 0.
    1.1153151408739806e+01 -9.0393371766594441e-02
    1.1604921557473315e+01 -8.6819862025984892e-02 1. 0.
    1.3387601161352659e+01 -7.5117462875420163e-02
    6.5753168715085337e+00 -1.5577433984870590e-01
    2.3144514263546849e+01 -4.3287744881945478e-02
    1.5170604482399240e+01 -6.6205879910719870e-02
    1.5170604482399240e+01 -6.6205879910719870e-02
    1.4195246124366012e+01 -7.0799232540478860e-02
    4.0062459033742776e+01 -2.4976595407570308e-02 1. 0.
    2.0050000000000001e+01 -5.0000000000000003e-02
    1.5170604482399240e+01 -6.6205879910719870e-02
    5.9915849530390313e+00 -1.7182849615947346e-01
    1.3387601161352659e+01 -7.5117462875420163e-02
    1.4195246124366012e+01 -7.0799232540478860e-02
    6.3362593716954407e+00 -1.6196174204458422e-01
    8.4115205634515515e+00 -1.2061407291732275e-01 1. 0.
    1.2704576873147783e+01 -7.9205591478477458e-02
    8.0731550713195865e+00 -1.2582847679737511e-01
    1.4195246124366012e+01 -7.0799232540478860e-02
    1.2117140216588931e+01 -8.3097595001545038e-02
    1.1604921557473315e+01 -8.6819862025984892e-02
    5.9915849530390313e+00 -1.7182849615947346e-01
    1.6380997772623619e+01 -6.1275552765425005e-02
    1.0062806545231338e+01 -1.0037712264569912e-01
    1.7938871953229011e+01 -5.5919176911561758e-02
    1.7938871953229011e+01 -5.5919176911561758e-02
    8.5978484143781984e+00 -1.1792560169346655e-01
    4.0062459033742776e+01 -2.4976595407570308e-02 1. 0. 1. 0.
    9.7654315425257732e+00 -1.0349896273250508e-01
    1.1604921557473315e+01 -8.6819862025984892e-02 1. 0.
    9.0118048282586685e+00 -1.1236664374387367e-01
    1.1153151408739806e+01 -9.0393371766594441e-02
    8.5978484143781984e+00 -1.1792560169346655e-01
    1.7938871953229011e+01 -5.5919176911561758e-02
    1.4195246124366012e+01 -7.0799232540478860e-02
    5.7543179467400849e+00 -1.7937400083354380e-01
    1.5170604482399240e+01 -6.6205879910719870e-02
    1.2117140216588931e+01 -8.3097595001545038e-02
    1.1153151408739806e+01 -9.0393371766594441e-02
    5.5442350611586741e+00 -1.8665130505147656e-01
    1.4195246124366012e+01 -7.0799232540478860e-02
    1.2704576873147783e+01 -7.9205591478477458e-02
    1.0389551156457197e+01 -9.7159144231208194e-02
    1.5170604482399240e+01 -6.6205879910719870e-02
    9.0118048282586685e+00 -1.1236664374387367e-01
    2.0050000000000001e+01 -5.0000000000000003e-02
    1.2117140216588931e+01 -8.3097595001545038e-02
    1.3387601161352659e+01 -7.5117462875420163e-02
    1.7938871953229011e+01 -5.5919176911561758e-02
    1.2704576873147783e+01 -7.9205591478477458e-02
    6.7511861727572748e+00 -1.5152288168283159e-01
    1.1153151408739806e+01 -9.0393371766594441e-02
    8.2370215009280550e+00 -1.2324720450266416e-01 1. 0.
    6.6614535462463964e+00 -1.5366195836104529e-01
    1.5170604482399240e+01 -6.6205879910719870e-02
    2.0050000000000001e+01 -5.0000000000000003e-02
    1.4195246124366012e+01 -7.0799232540478860e-02
    1.5170604482399240e+01 -6.6205879910719870e-02
    1.0750824787097738e+01 -9.3835129064444092e-02 1. 0. 1. 0. 1. 0.
    1.2704576873147783e+01 -7.9205591478477458e-02
    1.7938871953229011e+01 -5.5919176911561758e-02
    1.1153151408739806e+01 -9.0393371766594441e-02
    6.3362593716954407e+00 -1.6196174204458422e-01
    1.2704576873147783e+01 -7.9205591478477458e-02 1. 0.
    1.3387601161352659e+01 -7.5117462875420163e-02
    4.0062459033742776e+01 -2.4976595407570308e-02
    1.5170604482399240e+01 -6.6205879910719870e-02
    1.0750824787097738e+01 -9.3835129064444092e-02
    1.6380997772623619e+01 -6.1275552765425005e-02
    9.7654315425257732e+00 -1.0349896273250508e-01
    1.3387601161352659e+01 -7.5117462875420163e-02
    1.6380997772623619e+01 -6.1275552765425005e-02
    1.2117140216588931e+01 -8.3097595001545038e-02
    1.3387601161352659e+01 -7.5117462875420163e-02
    4.0062459033742776e+01 -2.4976595407570308e-02
    2.0050000000000001e+01 -5.0000000000000003e-02
    7.0446480632389115e+00 -1.4493353247311974e-01
    2.0050000000000001e+01 -5.0000000000000003e-02
    2.3144514263546849e+01 -4.3287744881945478e-02
    1.4195246124366012e+01 -7.0799232540478860e-02
    1.4195246124366012e+01 -7.0799232540478860e-02
    2.0050000000000001e+01 -5.0000000000000003e-02 1. 0.
    9.0118048282586685e+00 -1.1236664374387367e-01
    2.8337276658836693e+01 -3.5333262666878668e-02
    1.4195246124366012e+01 -7.0799232540478860e-02
    1.0062806545231338e+01 -1.0037712264569912e-01
    1.1153151408739806e+01 -9.0393371766594441e-02
    1.1153151408739806e+01 -9.0393371766594441e-02
    1.0750824787097738e+01 -9.3835129064444092e-02
    2.8337276658836693e+01 -3.5333262666878668e-02
    1.5170604482399240e+01 -6.6205879910719870e-02 1. 0. 1. 0. 1. 0.
    5.6462074882874278e+00 -1.8304413303674952e-01
    1.5170604482399240e+01 -6.6205879910719870e-02
    1.1153151408739806e+01 -9.0393371766594441e-02
    1.3387601161352659e+01 -7.5117462875420163e-02
    1.2117140216588931e+01 -8.3097595001545038e-02
    1.4195246124366012e+01 -7.0799232540478860e-02 1. 0.
    2.3144514263546849e+01 -4.3287744881945478e-02
    1.1604921557473315e+01 -8.6819862025984892e-02
    1.5170604482399240e+01 -6.6205879910719870e-02
    5.6462074882874278e+00 -1.8304413303674952e-01
    1.1153151408739806e+01 -9.0393371766594441e-02 1. 0.
    1.6380997772623619e+01 -6.1275552765425005e-02
    6.9424870643877119e+00 -1.4715995024263231e-01
    9.7654315425257732e+00 -1.0349896273250508e-01
    1.5170604482399240e+01 -6.6205879910719870e-02
    2.0050000000000001e+01 -5.0000000000000003e-02
    1.1604921557473315e+01 -8.6819862025984892e-02 1. 0.
    1.3387601161352659e+01 -7.5117462875420163e-02
    1.4195246124366012e+01 -7.0799232540478860e-02
    1.4195246124366012e+01 -7.0799232540478860e-02
    2.8337276658836693e+01 -3.5333262666878668e-02
    1.6380997772623619e+01 -6.1275552765425005e-02
    1.5170604482399240e+01 -6.6205879910719870e-02
    1.7938871953229011e+01 -5.5919176911561758e-02
    1.2117140216588931e+01 -8.3097595001545038e-02
    2.7009223632645925e+00 -4.4285697103403232e-01
    1.5170604482399240e+01 -6.6205879910719870e-02
    1.7938871953229011e+01 -5.5919176911561758e-02
    6.0558491643431589e+00 -1.6989601770289411e-01
    8.0731550713195865e+00 -1.2582847679737511e-01
    1.2117140216588931e+01 -8.3097595001545038e-02 1. 0.
    5.3126856090146610e+00 -1.9541673998245948e-01
    9.7654315425257732e+00 -1.0349896273250508e-01
    2.0050000000000001e+01 -5.0000000000000003e-02
    8.5978484143781984e+00 -1.1792560169346655e-01
    1.2117140216588931e+01 -8.3097595001545038e-02
    1.4195246124366012e+01 -7.0799232540478860e-02
    1.2117140216588931e+01 -8.3097595001545038e-02
    6.5753168715085337e+00 -1.5577433984870590e-01 1. 0.
    1.5170604482399240e+01 -6.6205879910719870e-02
    5.2282516526801128e+00 -1.9883001921040327e-01
    5.5944903651407634e+00 -1.8485535495789307e-01
    1.4195246124366012e+01 -7.0799232540478860e-02
    1.2704576873147783e+01 -7.9205591478477458e-02
    1.4195246124366012e+01 -7.0799232540478860e-02
    1.5170604482399240e+01 -6.6205879910719870e-02
    1.1153151408739806e+01 -9.0393371766594441e-02
    2.3144514263546849e+01 -4.3287744881945478e-02
    1.6380997772623619e+01 -6.1275552765425005e-02
    1.5170604482399240e+01 -6.6205879910719870e-02
    1.3387601161352659e+01 -7.5117462875420163e-02
    1.2704576873147783e+01 -7.9205591478477458e-02
    8.0731550713195865e+00 -1.2582847679737511e-01
    1.6380997772623619e+01 -6.1275552765425005e-02
    2.3144514263546849e+01 -4.3287744881945478e-02
    1.3387601161352659e+01 -7.5117462875420163e-02
    1.2704576873147783e+01 -7.9205591478477458e-02
    1.5170604482399240e+01 -6.6205879910719870e-02
    1.4195246124366012e+01 -7.0799232540478860e-02
    1.0062806545231338e+01 -1.0037712264569912e-01
    1.0750824787097738e+01 -9.3835129064444092e-02
    1.4195246124366012e+01 -7.0799232540478860e-02
    1.3387601161352659e+01 -7.5117462875420163e-02
    2.3144514263546849e+01 -4.3287744881945478e-02
    1.4195246124366012e+01 -7.0799232540478860e-02
    1.2117140216588931e+01 -8.3097595001545038e-02
    2.3144514263546849e+01 -4.3287744881945478e-02
    1.0750824787097738e+01 -9.3835129064444092e-02 1. 0.
    1.0389551156457197e+01 -9.7159144231208194e-02
    1.2117140216588931e+01 -8.3097595001545038e-02
    6.6614535462463964e+00 -1.5366195836104529e-01
    1.4195246124366012e+01 -7.0799232540478860e-02
    1.0750824787097738e+01 -9.3835129064444092e-02
    1.1153151408739806e+01 -9.0393371766594441e-02
    9.2429995138635821e+00 -1.0948690197219954e-01
    7.9188878161586489e+00 -1.2836102445144942e-01
    1.2117140216588931e+01 -8.3097595001545038e-02
    1.7938871953229011e+01 -5.5919176911561758e-02 1. 0. 1. 0.
    1.3387601161352659e+01 -7.5117462875420163e-02
    6.3362593716954407e+00 -1.6196174204458422e-01 1. 0.
    9.2429995138635821e+00 -1.0948690197219954e-01
    5.5944903651407634e+00 -1.8485535495789307e-01
    1.6380997772623619e+01 -6.1275552765425005e-02
    1.4195246124366012e+01 -7.0799232540478860e-02
    1.2704576873147783e+01 -7.9205591478477458e-02 1. 0.
    1.1604921557473315e+01 -8.6819862025984892e-02
    2.8337276658836693e+01 -3.5333262666878668e-02
    7.6356716000084912e+00 -1.3329102543655719e-01
    2.3144514263546849e+01 -4.3287744881945478e-02
    7.0446480632389115e+00 -1.4493353247311974e-01
    1.2704576873147783e+01 -7.9205591478477458e-02
    1.5170604482399240e+01 -6.6205879910719870e-02 1. 0.
    1.2117140216588931e+01 -8.3097595001545038e-02 1. 0.
    1.0750824787097738e+01 -9.3835129064444092e-02
    1.2117140216588931e+01 -8.3097595001545038e-02
    1.0750824787097738e+01 -9.3835129064444092e-02
    1.6380997772623619e+01 -6.1275552765425005e-02
    1.3387601161352659e+01 -7.5117462875420163e-02
    5.5944903651407634e+00 -1.8485535495789307e-01
    1.4195246124366012e+01 -7.0799232540478860e-02
    1.4195246124366012e+01 -7.0799232540478860e-02
    9.7654315425257732e+00 -1.0349896273250508e-01 1. 0.
    1.2117140216588931e+01 -8.3097595001545038e-02
    1.2117140216588931e+01 -8.3097595001545038e-02
    2.0050000000000001e+01 -5.0000000000000003e-02
    1.4195246124366012e+01 -7.0799232540478860e-02
    1.2117140216588931e+01 -8.3097595001545038e-02
    1.1153151408739806e+01 -9.0393371766594441e-02
    5.4478466253604694e+00 -1.9019913405248520e-01
    1.4195246124366012e+01 -7.0799232540478860e-02
    1.5170604482399240e+01 -6.6205879910719870e-02
    1.2117140216588931e+01 -8.3097595001545038e-02
    1.3387601161352659e+01 -7.5117462875420163e-02
    1.4195246124366012e+01 -7.0799232540478860e-02
    2.8337276658836693e+01 -3.5333262666878668e-02
    1.3387601161352659e+01 -7.5117462875420163e-02
    1.6380997772623619e+01 -6.1275552765425005e-02
    1.6380997772623619e+01 -6.1275552765425005e-02
    1.7938871953229011e+01 -5.5919176911561758e-02
    2.7569254812754296e+00 -4.2969536802921288e-01
    9.7654315425257732e+00 -1.0349896273250508e-01 1. 0.
    3.6902534963344551e+00 -2.9448406953292411e-01 1. 0.
    1.7938871953229011e+01 -5.5919176911561758e-02 1. 0.
    9.0118048282586685e+00 -1.1236664374387367e-01
    1.2117140216588931e+01 -8.3097595001545038e-02 1. 0.
    1.7938871953229011e+01 -5.5919176911561758e-02
    1.4195246124366012e+01 -7.0799232540478860e-02
    1.3387601161352659e+01 -7.5117462875420163e-02
    4.3682053276717454e+00 -2.4237548264512801e-01
    7.3814447357630533e+00 -1.3805694642948355e-01
    1.4195246124366012e+01 -7.0799232540478860e-02
    1.4195246124366012e+01 -7.0799232540478860e-02
    1.4195246124366012e+01 -7.0799232540478860e-02
    2.0050000000000001e+01 -5.0000000000000003e-02
    1.5170604482399240e+01 -6.6205879910719870e-02
    1.2704576873147783e+01 -7.9205591478477458e-02
    1.5170604482399240e+01 -6.6205879910719870e-02
    2.0050000000000001e+01 -5.0000000000000003e-02
    7.0446480632389115e+00 -1.4493353247311974e-01
    1.2704576873147783e+01 -7.9205591478477458e-02
    1.4195246124366012e+01 -7.0799232540478860e-02
    1.4195246124366012e+01 -7.0799232540478860e-02
    1.1604921557473315e+01 -8.6819862025984892e-02 1. 0.
    1.5170604482399240e+01 -6.6205879910719870e-02
    1.2704576873147783e+01 -7.9205591478477458e-02
    1.0062806545231338e+01 -1.0037712264569912e-01
    1.5170604482399240e+01 -6.6205879910719870e-02
    1.7938871953229011e+01 -5.5919176911561758e-02 1. 0.
    1.1604921557473315e+01 -8.6819862025984892e-02
    2.3144514263546849e+01 -4.3287744881945478e-02 1. 0.
    2.9180619120273601e+00 -3.9659444939025218e-01
    1.1153151408739806e+01 -9.0393371766594441e-02
    1.1153151408739806e+01 -9.0393371766594441e-02
    1.2117140216588931e+01 -8.3097595001545038e-02
    1.7938871953229011e+01 -5.5919176911561758e-02
    1.1604921557473315e+01 -8.6819862025984892e-02
    1.2117140216588931e+01 -8.3097595001545038e-02
    1.1604921557473315e+01 -8.6819862025984892e-02 1. 0.
    1.3387601161352659e+01 -7.5117462875420163e-02
    9.2429995138635821e+00 -1.0948690197219954e-01
    6.9424870643877119e+00 -1.4715995024263231e-01
    1.7938871953229011e+01 -5.5919176911561758e-02
    6.5753168715085337e+00 -1.5577433984870590e-01
    1.5170604482399240e+01 -6.6205879910719870e-02
    9.4932850171867464e+00 -1.0653312363426523e-01
    1.5170604482399240e+01 -6.6205879910719870e-02
    8.2370215009280550e+00 -1.2324720450266416e-01
    1.2704576873147783e+01 -7.9205591478477458e-02
    1.3387601161352659e+01 -7.5117462875420163e-02
    2.3144514263546849e+01 -4.3287744881945478e-02
    2.3144514263546849e+01 -4.3287744881945478e-02
    1.5170604482399240e+01 -6.6205879910719870e-02 1. 0.
    1.2117140216588931e+01 -8.3097595001545038e-02
    7.9188878161586489e+00 -1.2836102445144942e-01
    1.5170604482399240e+01 -6.6205879910719870e-02
    2.0050000000000001e+01 -5.0000000000000003e-02
    1.7938871953229011e+01 -5.5919176911561758e-02
    1.6380997772623619e+01 -6.1275552765425005e-02
    2.0050000000000001e+01 -5.0000000000000003e-02
    8.5978484143781984e+00 -1.1792560169346655e-01
    1.1153151408739806e+01 -9.0393371766594441e-02
    1.4195246124366012e+01 -7.0799232540478860e-02
    1.2117140216588931e+01 -8.3097595001545038e-02
    6.9424870643877119e+00 -1.4715995024263231e-01
    1.1153151408739806e+01 -9.0393371766594441e-02
    1.1604921557473315e+01 -8.6819862025984892e-02
    1.6380997772623619e+01 -6.1275552765425005e-02
    1.1604921557473315e+01 -8.6819862025984892e-02
    1.2704576873147783e+01 -7.9205591478477458e-02
    6.5753168715085337e+00 -1.5577433984870590e-01
    1.2117140216588931e+01 -8.3097595001545038e-02
    2.8337276658836693e+01 -3.5333262666878668e-02
    9.7654315425257732e+00 -1.0349896273250508e-01
    1.6380997772623619e+01 -6.1275552765425005e-02
    1.1153151408739806e+01 -9.0393371766594441e-02
    1.3387601161352659e+01 -7.5117462875420163e-02
    2.3144514263546849e+01 -4.3287744881945478e-02
    6.7511861727572748e+00 -1.5152288168283159e-01
    7.5052486651675236e+00 -1.3569339855976198e-01
    1.5170604482399240e+01 -6.6205879910719870e-02
    1.7938871953229011e+01 -5.5919176911561758e-02
    1.2704576873147783e+01 -7.9205591478477458e-02 1. 0.
    4.0062459033742776e+01 -2.4976595407570308e-02
    1.5170604482399240e+01 -6.6205879910719870e-02
    8.4115205634515515e+00 -1.2061407291732275e-01
    4.0062459033742776e+01 -2.4976595407570308e-02
    1.4195246124366012e+01 -7.0799232540478860e-02
    1.1604921557473315e+01 -8.6819862025984892e-02
    1.1153151408739806e+01 -9.0393371766594441e-02 1. 0.
    1.0062806545231338e+01 -1.0037712264569912e-01
    1.0389551156457197e+01 -9.7159144231208194e-02
    9.2429995138635821e+00 -1.0948690197219954e-01
    5.0714059485114076e+00 -2.0551208644217051e-01
    1.4195246124366012e+01 -7.0799232540478860e-02
    1.2704576873147783e+01 -7.9205591478477458e-02 1. 0.
    1.2704576873147783e+01 -7.9205591478477458e-02
    1.3387601161352659e+01 -7.5117462875420163e-02
    9.2429995138635821e+00 -1.0948690197219954e-01
    5.0344754619416374e+00 -2.0715422723700003e-01
    2.8337276658836693e+01 -3.5333262666878668e-02
    4.0062459033742776e+01 -2.4976595407570308e-02
    1.5170604482399240e+01 -6.6205879910719870e-02
    1.1604921557473315e+01 -8.6819862025984892e-02
    1.4195246124366012e+01 -7.0799232540478860e-02
    1.4195246124366012e+01 -7.0799232540478860e-02
    2.8337276658836693e+01 -3.5333262666878668e-02
    9.7654315425257732e+00 -1.0349896273250508e-01
    1.4195246124366012e+01 -7.0799232540478860e-02
    1.2704576873147783e+01 -7.9205591478477458e-02
    7.0446480632389115e+00 -1.4493353247311974e-01
    1.5170604482399240e+01 -6.6205879910719870e-02
    4.0062459033742776e+01 -2.4976595407570308e-02
    1.1604921557473315e+01 -8.6819862025984892e-02
    6.6614535462463964e+00 -1.5366195836104529e-01
    5.8692005414464674e+00 -1.7563692393356012e-01
    1.3387601161352659e+01 -7.5117462875420163e-02
    1.0750824787097738e+01 -9.3835129064444092e-02
    1.2117140216588931e+01 -8.3097595001545038e-02
    4.0062459033742776e+01 -2.4976595407570308e-02
    1.6380997772623619e+01 -6.1275552765425005e-02
    7.0446480632389115e+00 -1.4493353247311974e-01
    1.1604921557473315e+01 -8.6819862025984892e-02
    1.4195246124366012e+01 -7.0799232540478860e-02
    9.4932850171867464e+00 -1.0653312363426523e-01 1. 0. 1. 0.
    1.5170604482399240e+01 -6.6205879910719870e-02
    1.6380997772623619e+01 -6.1275552765425005e-02
    1.2117140216588931e+01 -8.3097595001545038e-02
    4.3006545047867091e+00 -2.4667095663365166e-01
    1.4195246124366012e+01 -7.0799232540478860e-02
    1.4195246124366012e+01 -7.0799232540478860e-02
    8.5978484143781984e+00 -1.1792560169346655e-01
    1.7938871953229011e+01 -5.5919176911561758e-02
    1.4195246124366012e+01 -7.0799232540478860e-02
    1.1153151408739806e+01 -9.0393371766594441e-02
    2.0050000000000001e+01 -5.0000000000000003e-02
    1.3387601161352659e+01 -7.5117462875420163e-02
    8.5978484143781984e+00 -1.1792560169346655e-01
    1.3387601161352659e+01 -7.5117462875420163e-02
    1.2117140216588931e+01 -8.3097595001545038e-02
    5.5944903651407634e+00 -1.8485535495789307e-01
    1.4195246124366012e+01 -7.0799232540478860e-02
    2.8337276658836693e+01 -3.5333262666878668e-02
    1.1153151408739806e+01 -9.0393371766594441e-02
    1.2117140216588931e+01 -8.3097595001545038e-02
    4.5144070006016239e+00 -2.3360086100369998e-01
    1.3387601161352659e+01 -7.5117462875420163e-02
    1.1604921557473315e+01 -8.6819862025984892e-02
    1.2704576873147783e+01 -7.9205591478477458e-02
    9.0118048282586685e+00 -1.1236664374387367e-01
    1.0389551156457197e+01 -9.7159144231208194e-02
    4.0062459033742776e+01 -2.4976595407570308e-02 1. 0. 1. 0.
    1.3387601161352659e+01 -7.5117462875420163e-02 1. 0.
    1.2704576873147783e+01 -7.9205591478477458e-02
    1.4195246124366012e+01 -7.0799232540478860e-02
    1.4195246124366012e+01 -7.0799232540478860e-02
    1.2704576873147783e+01 -7.9205591478477458e-02
    1.5170604482399240e+01 -6.6205879910719870e-02
    1.7938871953229011e+01 -5.5919176911561758e-02
    2.0050000000000001e+01 -5.0000000000000003e-02
    1.4195246124366012e+01 -7.0799232540478860e-02
    1.5170604482399240e+01 -6.6205879910719870e-02 1. 0.
    1.2117140216588931e+01 -8.3097595001545038e-02
    1.7938871953229011e+01 -5.5919176911561758e-02
    5.5944903651407634e+00 -1.8485535495789307e-01
    6.7511861727572748e+00 -1.5152288168283159e-01
    5.5944903651407634e+00 -1.8485535495789307e-01
    1.5170604482399240e+01 -6.6205879910719870e-02 1. 0.
    1.0062806545231338e+01 -1.0037712264569912e-01
    1.1153151408739806e+01 -9.0393371766594441e-02
    6.5753168715085337e+00 -1.5577433984870590e-01
    1.2704576873147783e+01 -7.9205591478477458e-02
    1.5170604482399240e+01 -6.6205879910719870e-02
    1.2117140216588931e+01 -8.3097595001545038e-02
    1.7938871953229011e+01 -5.5919176911561758e-02
    1.0750824787097738e+01 -9.3835129064444092e-02
    4.5144070006016239e+00 -2.3360086100369998e-01
    4.4639160052930977e+00 -2.3655415240019534e-01
    1.5170604482399240e+01 -6.6205879910719870e-02
    1.2704576873147783e+01 -7.9205591478477458e-02
    1.5170604482399240e+01 -6.6205879910719870e-02
    1.2704576873147783e+01 -7.9205591478477458e-02
    1.2117140216588931e+01 -8.3097595001545038e-02
    1.6380997772623619e+01 -6.1275552765425005e-02
    1.5170604482399240e+01 -6.6205879910719870e-02
    1.3387601161352659e+01 -7.5117462875420163e-02
    1.7938871953229011e+01 -5.5919176911561758e-02
    1.5170604482399240e+01 -6.6205879910719870e-02
    1.6380997772623619e+01 -6.1275552765425005e-02
    1.1153151408739806e+01 -9.0393371766594441e-02
    1.4195246124366012e+01 -7.0799232540478860e-02
    1.5170604482399240e+01 -6.6205879910719870e-02
    1.6380997772623619e+01 -6.1275552765425005e-02
    1.0062806545231338e+01 -1.0037712264569912e-01
    1.4195246124366012e+01 -7.0799232540478860e-02
    1.1604921557473315e+01 -8.6819862025984892e-02
    4.5937450341001957e+00 -2.2911446554115691e-01
    1.1153151408739806e+01 -9.0393371766594441e-02
    1.2117140216588931e+01 -8.3097595001545038e-02
    1.1604921557473315e+01 -8.6819862025984892e-02
    1.3387601161352659e+01 -7.5117462875420163e-02
    1.2117140216588931e+01 -8.3097595001545038e-02
    1.7938871953229011e+01 -5.5919176911561758e-02
    6.4925438201063113e+00 -1.5786110285794647e-01
    1.1153151408739806e+01 -9.0393371766594441e-02
    1.0389551156457197e+01 -9.7159144231208194e-02
    1.4195246124366012e+01 -7.0799232540478860e-02
    1.2117140216588931e+01 -8.3097595001545038e-02
    1.0750824787097738e+01 -9.3835129064444092e-02
    1.0062806545231338e+01 -1.0037712264569912e-01
    8.0731550713195865e+00 -1.2582847679737511e-01
    7.1515981594393780e+00 -1.4267527500128435e-01
    1.5170604482399240e+01 -6.6205879910719870e-02
    1.2704576873147783e+01 -7.9205591478477458e-02
    9.0118048282586685e+00 -1.1236664374387367e-01
    1.2704576873147783e+01 -7.9205591478477458e-02
    1.1604921557473315e+01 -8.6819862025984892e-02
    1.2704576873147783e+01 -7.9205591478477458e-02
    1.0062806545231338e+01 -1.0037712264569912e-01
    1.2117140216588931e+01 -8.3097595001545038e-02
    7.3814447357630533e+00 -1.3805694642948355e-01
    1.1604921557473315e+01 -8.6819862025984892e-02
    1.0062806545231338e+01 -1.0037712264569912e-01
    1.0389551156457197e+01 -9.7159144231208194e-02
    4.3682053276717454e+00 -2.4237548264512801e-01
    1.5170604482399240e+01 -6.6205879910719870e-02
    1.2704576873147783e+01 -7.9205591478477458e-02
    1.1153151408739806e+01 -9.0393371766594441e-02
    1.6380997772623619e+01 -6.1275552765425005e-02
    1.0389551156457197e+01 -9.7159144231208194e-02
    9.7654315425257732e+00 -1.0349896273250508e-01
    1.2704576873147783e+01 -7.9205591478477458e-02
    1.2704576873147783e+01 -7.9205591478477458e-02
    2.0050000000000001e+01 -5.0000000000000003e-02
    1.1153151408739806e+01 -9.0393371766594441e-02
    1.5170604482399240e+01 -6.6205879910719870e-02
    1.5170604482399240e+01 -6.6205879910719870e-02
    1.1153151408739806e+01 -9.0393371766594441e-02
    1.1153151408739806e+01 -9.0393371766594441e-02
    1.3387601161352659e+01 -7.5117462875420163e-02
    1.5170604482399240e+01 -6.6205879910719870e-02
    8.5978484143781984e+00 -1.1792560169346655e-01
    1.0750824787097738e+01 -9.3835129064444092e-02
    9.0118048282586685e+00 -1.1236664374387367e-01
    1.1604921557473315e+01 -8.6819862025984892e-02
    8.7973983842769581e+00 -1.1517790902108237e-01
    1.2117140216588931e+01 -8.3097595001545038e-02
    1.3387601161352659e+01 -7.5117462875420163e-02
    1.5170604482399240e+01 -6.6205879910719870e-02
    1.2117140216588931e+01 -8.3097595001545038e-02
    1.2117140216588931e+01 -8.3097595001545038e-02
    1.4195246124366012e+01 -7.0799232540478860e-02
    1.6380997772623619e+01 -6.1275552765425005e-02
    1.5170604482399240e+01 -6.6205879910719870e-02
    6.9424870643877119e+00 -1.4715995024263231e-01
    9.7654315425257732e+00 -1.0349896273250508e-01
    1.1153151408739806e+01 -9.0393371766594441e-02
    1.3387601161352659e+01 -7.5117462875420163e-02
    1.3387601161352659e+01 -7.5117462875420163e-02
    6.7511861727572748e+00 -1.5152288168283159e-01
    1.7938871953229011e+01 -5.5919176911561758e-02
    1.2117140216588931e+01 -8.3097595001545038e-02
    1.1604921557473315e+01 -8.6819862025984892e-02
    7.0446480632389115e+00 -1.4493353247311974e-01
    1.1604921557473315e+01 -8.6819862025984892e-02
    1.1153151408739806e+01 -9.0393371766594441e-02
    1.3387601161352659e+01 -7.5117462875420163e-02
    1.0389551156457197e+01 -9.7159144231208194e-02
    8.0731550713195865e+00 -1.2582847679737511e-01
    2.3144514263546849e+01 -4.3287744881945478e-02
    8.2370215009280550e+00 -1.2324720450266416e-01
    1.3387601161352659e+01 -7.5117462875420163e-02
    1.1153151408739806e+01 -9.0393371766594441e-02
    5.6994578739842501e+00 -1.8121717679126978e-01
    1.0389551156457197e+01 -9.7159144231208194e-02
    2.3144514263546849e+01 -4.3287744881945478e-02
    1.4195246124366012e+01 -7.0799232540478860e-02
    1.1153151408739806e+01 -9.0393371766594441e-02
    7.7733215888351452e+00 -1.3084768260508037e-01
    1.2704576873147783e+01 -7.9205591478477458e-02
    1.1604921557473315e+01 -8.6819862025984892e-02
    2.3144514263546849e+01 -4.3287744881945478e-02
    8.7973983842769581e+00 -1.1517790902108237e-01
    1.0062806545231338e+01 -1.0037712264569912e-01 1. 0.
    1.2704576873147783e+01 -7.9205591478477458e-02
    2.8337276658836693e+01 -3.5333262666878668e-02
    1.5170604482399240e+01 -6.6205879910719870e-02
    1.7938871953229011e+01 -5.5919176911561758e-02
    2.8337276658836693e+01 -3.5333262666878668e-02
    1.6380997772623619e+01 -6.1275552765425005e-02
    4.0062459033742776e+01 -2.4976595407570308e-02
    2.0050000000000001e+01 -5.0000000000000003e-02
    2.3144514263546849e+01 -4.3287744881945478e-02
    1.1153151408739806e+01 -9.0393371766594441e-02
    8.5978484143781984e+00 -1.1792560169346655e-01
    8.4115205634515515e+00 -1.2061407291732275e-01
    9.7654315425257732e+00 -1.0349896273250508e-01
    4.0062459033742776e+01 -2.4976595407570308e-02</input_scale>
  <output_scale>
    5.2631578947368418e-01 4.9999999999999994e-01 5.2631578947368418e-01
    4.9999999999999994e-01</output_scale>
  <inv_output_scale>
    1.8999999999999999e+00 -9.4999999999999996e-01
    1.8999999999999999e+00 -9.4999999999999996e-01</inv_output_scale>
  <weights>
    <_>
      6.2297843051012167e+00 -1.3158177573706835e+00
      -1.4135358849649232e-01 2.0359536827672470e-01
      3.3628081460883869e-01 -8.5100934317563559e-01
      -3.5644358605479970e-01 4.0377297259715206e-01
      2.1989259082177179e+00 4.1947254524568223e-01
      9.3669336679121273e-01 -5.5726225712042599e-01
      -3.8685900462494993e-01 -1.4223610087387617e+00
      8.1332453264730309e-01 1.1502933612956001e+00
      3.1408075861110885e-01 1.6353157192133729e+00
      4.6634474811644611e-01 -6.7761193914340845e-01
      5.0702029203032417e-01 -9.3767703910573164e-01
      -7.2984662171310288e-01 1.2568803218004159e+00
      8.2686185336024662e-02 2.0380386122643149e-01
      -1.0719289750798251e+00 -1.6340710212129437e+00
      -1.1758992403059716e-01 7.0442967408724066e-01
      -3.4174585188414586e-01 7.2879427602416183e-02
      -1.2915891864549369e+00 -8.2626304145409932e+00
      1.6777811101350413e+00 2.0372404308674681e+00
      -2.5223689269644806e-01 4.8158748772222432e-01
      -4.7194902622228008e-01 -9.3177789080170904e-04
      4.3600629847085522e-03 -7.1327076976963499e-01
      -1.7355875337966539e-01 2.1981221805360784e-01
      9.6375465284382633e-01 -1.7917784143340174e+00
      1.2788101043443895e-01 3.0073619793309425e-01
      -8.1007918362659848e-01 -4.2179200968419034e-01
      -9.0921769557518370e+00 -5.7854266005444954e-01
      3.0237901458457910e+00 -3.4376410388394679e-01
      -1.9026937886631308e+00 1.8682175974794419e+00
      -8.7892046968187132e-01 9.9034118426939888e-01
      -3.0628842968908248e+00 -7.3306171500862571e-01
      2.1154928035951698e-01 1.1775462640663226e+00
      -1.0211919367182314e+00 3.6235474283843927e+00
      -1.6707327778461767e+00 -3.0545618868475075e+00
      -5.0071685305570068e-01 4.4342149279302112e-01
      -1.0257153637596574e+00 -1.4641777266316405e-01
      5.9451088824768328e-01 1.9968905433193842e+00
      -3.2576099892388766e-01 -2.5551578663219643e+00
      -1.3387940864177996e+00 -2.5443903945666779e-01
      -2.1143767917250181e-01 -2.9090234975332470e+00
      -3.2611931754301926e+00 -1.4995645842240310e+00
      -3.1103747741804344e-01 3.1489004412570226e-01
      1.0656653912082770e+00 -2.8403205584206481e+00
      -2.4041166028131897e+00 -2.9143146583756776e+00
      -9.3339804440182250e-02 -9.2245554454999634e-01
      2.5508643908432225e+00 -1.9977951757068771e-01
      2.9926019996397918e-01 -6.0351103423612873e-01
      -3.1401061842447415e+00 1.5342224547832914e-01
      -5.3537787226528373e+00 2.5621437917651311e+00
      -3.3269574246513495e-01 -3.6787262453363284e-01
      1.1906274131786838e+00 9.3291339250477490e-01
      -3.6452879208278901e+00 -1.4875768284152824e+00
      7.3074810528994061e-01 1.8861199786521823e-01
      2.8722354930408606e-01 -1.2431592250037249e-01
      -6.1446040329538565e-01 7.0150745835982331e-01
      1.7958055309362499e+00 1.2515676025728326e-01
      1.2033990978982343e+00 -4.6855235327569045e-01
      -6.8353094817148008e-01 1.9460714342646503e+00
      3.8174785193075073e-01 3.6590313565968491e-01
      2.2368650381821065e-01 1.5211069772979255e+00
      -1.9023580170136628e-01 -7.6622198042174006e-01
      6.9947774324665113e-01 -4.0505800998852826e-01
      -8.0397029465678937e-01 6.0735796200535752e-01
      -1.5282524813201095e-01 2.1637735752624995e-01
      -1.4131543240933060e+00 5.4037790289846370e+00
      -6.4419493578132958e-01 -8.1117899595887633e-01
      -5.0534291820221278e-01 1.8620942281242248e-01
      9.6192716188562766e-01 6.0580496842850531e+00
      3.9731635187983960e-01 1.5495315812998542e+00
      -4.1765373246551402e-01 2.9589335697849443e-02
      7.4334749335940975e-01 -9.9659711947922974e-02
      8.2677771402725336e-02 -9.1548577337100701e-01
      -4.1971889038818244e-01 3.7557118177431620e-01
      -2.7171344367021040e+00 -6.7817855038181196e-01
      1.0724514693706552e-01 3.1389309717085834e-01
      -2.1125957116309213e-01 2.0452877151827739e-01
      8.0134476632646887e+00 -1.1943558904521809e-01
      -2.6066987234235306e+00 1.0262127194789096e-01
      1.8829479262457176e+00 -7.5910446467499260e-01
      -3.1782396947234443e-01 3.8872760278692681e-01
      -2.2407597904166163e+00 6.9778998257243885e-01
      2.8562930189054148e-02 -8.1617420998727563e-01
      -3.9958890896339583e-01 -9.8993417495829306e-01
      -1.4660329212103951e-01 -4.6185736142938999e-01
      9.7187821008585096e-01 -6.7671604645093275e-01
      5.6215666183976991e-02 -6.9332065631836903e-01
      3.2813904129167643e-01 2.6547923623648761e-01
      -6.3629622889383552e-01 -8.8046103451910895e-01
      1.4590889557903444e+00 1.4183820932409141e-01
      1.7407709900279850e-01 -8.6349768727212761e-01
      2.7172108546986573e+00 -2.9755417549678076e-01
      -2.8366911526998806e-01 5.0464113448595346e-02
      8.2173960311931338e-01 2.6850444196376961e+00
      -8.6569907381015854e-01 -2.1107653203223853e+00
      -5.0500958887728220e-01 1.1182455223233663e+00
      9.9974737790088597e-01 -6.1733554339835468e-02
      5.0971969486025160e-03 -2.6351740358327591e-01
      2.6723861147617156e+00 3.5077325819851857e-01
      1.1380776506226267e+00 1.2101041443464082e+00
      4.7441434190365769e-02 3.2583365206700177e-01
      1.4243798591724915e-01 -8.0294322867185727e-02
      4.9837721833310877e-01 -1.3592456417741454e-02
      -1.2703087815453790e-01 7.0130360151957893e-02
      1.1891922066595009e-01 -1.2050435181881310e-01
      4.1156554729029890e-02 -3.5033828309595172e-02
      1.7963854712856339e-01 8.6063258825834793e-02
      6.0761977467143017e-03 -1.0094833545005288e-01
      3.4280734789546859e-02 -1.2617915723173384e-01
      1.0332467628116392e-01 1.5301742456407494e-01
      6.7423558244691401e-02 4.0330653363182707e-03
      8.7575228374037403e-02 1.0347187436343011e-02
      -2.3289345528941942e-02 -1.1708421674588708e-01
      1.3547185556437124e-02 1.2104604986168642e-01
      2.9112596159391609e-02 5.6886480068888780e-02
      -1.3177466199040946e-02 5.2624489323289697e-02
      1.2649227729213619e-01 3.5635574352664498e-02
      2.8012344620026157e-02 -5.2179031853315863e-02
      -4.2649760282172149e-02 9.0783074173068065e-02
      1.5115787500901326e-01 1.8345571200977778e-01
      2.7458425643337527e-02 9.3868019146511897e-02
      -8.4936186464317331e-02 4.4070302143206987e-02
      -5.5912402916454502e-02 1.3830310265944645e-02
      1.2366716951393907e-01 -3.0022598699001753e-02
      1.3060002236526175e-01 -1.6624844418324961e-01
      6.4430400711504104e-02 6.7891109331523619e-02
      -1.0728828952949290e-01 -8.5485572563278420e-02
      1.1033038712581307e-03 -9.8109257141243801e-04
      -1.0381490795747753e-03 9.2813715851845690e-05
      -1.0616158614497272e-03 -1.0265890100949414e-04
      3.3252004585869471e-04 -1.1722724613057484e-03
      9.8711402905665431e-04 -6.5591979485303390e-04
      -8.0176567982202405e-04 4.9685193123640893e-04
      -8.4581998291507435e-04 1.0465805226558798e-03
      -8.3355258854330946e-05 -1.7072218657128411e-04
      -8.6327623886530769e-04 1.9585021041826584e-04
      -4.2267500209148797e-04 -9.9337643689968616e-04
      -3.6986940506373201e-04 -5.7785389654199518e-04
      -4.4959119808523951e-04 3.0774953996920825e-04
      -1.0541469345744354e-03 -6.2491825871233446e-04
      4.0335850792694273e-04 7.5922495652893502e-04
      8.9586119149670182e-04 1.1590200139553228e-03
      8.7069429077507674e-04 9.3600640147803557e-04
      -4.7777826882727756e-05 1.2410285801461984e-03
      1.0010897696991592e-03 -1.0745334125982101e-03
      -6.8964892978319852e-04 1.0333325812627060e-04
      3.0809856097790294e-04 -3.0015697999604199e-04
      -6.9317030966727956e-04 -3.8157355614404272e-04
      7.7834061511259441e-04 -5.6741665395123036e-04
      -1.1386209920401058e-03 -8.1050768222318801e-04
      -7.9098237260056235e-04 4.7516531668335504e-04
      1.0275345674964930e-03 8.9185805307529366e-04
      8.8981218602716045e-02 6.7116908722396409e-03
      -4.9737832432151914e-02 5.1976986789417497e-05
      4.9866746307219503e-02 -2.4649189397052421e-02
      4.3483607035852322e-02 -4.9002650216760743e-02
      3.3110545857914141e-02 2.2633749874520086e-02
      1.2832280626696189e-02 -3.6623267497179653e-02
      4.6143295172044817e-02 -9.5631631504723286e-03
      1.1390386345602037e-02 2.1638557958843081e-02
      1.9645952207667010e-02 -4.7101902654789737e-02
      2.1878227381726845e-02 -2.5349305801843310e-02
      -3.9002238982834288e-02 -1.6577202725312972e-02
      -2.0527579751926480e-02 1.7146810990381525e-02
      7.0584218654389189e-03 -4.6091229728656832e-03
      -5.9887317233286184e-02 -2.9609324261869970e-02
      5.0189926881578625e-02 1.7591072584660097e-02
      1.9039910199923807e-02 -1.0699061221255222e-03
      8.6640855741225691e-03 -5.8235923136088087e-02
      2.9389997845097028e-02 3.5396580685144535e-02
      1.7157998876580195e-02 3.1189866198891553e-02
      -6.9120437027417492e-02 -6.9616894911188176e-03
      1.2834827734674939e-03 4.4535874112491991e-02
      5.2168598375077507e-02 -7.4198854278619110e-03
      -1.0139587476992212e-02 -3.4993349478865815e-02
      -5.0714117678855291e-03 5.1707539882248580e-03
      -2.7350407344409262e-02 -1.8619985369994235e-02
      1.8446245780381165e-01 -5.3626682986970889e-02
      -2.6842011335111181e-02 -2.9052350835192041e-03
      2.6662648176508784e-02 -1.3755702418239734e-02
      -1.1120245279072932e-02 1.1733432911091435e-02
      3.0647364237352467e-02 2.0530086829617680e-02
      4.2828256265038896e-02 -3.7529610968055765e-02
      -1.5373208945237311e-02 -1.8585695245848261e-03
      -1.0755012265855148e-02 1.4904380805183021e-02
      1.1332024726304344e-02 3.2700994210560011e-02
      2.8631197835370398e-02 -2.4778810198220660e-02
      3.1513292889201101e-03 -1.3564907978163453e-04
      -2.5215194946869180e-02 -2.0070455952355573e-03
      -2.6546995573980721e-03 3.9128298059518948e-04
      -5.0151088279725024e-02 9.5581332480959513e-02
      2.5212684865028517e-02 3.8100402106811093e-02
      4.7063562727508576e-03 5.9051283835897450e-03
      -2.8993297005272211e-02 -6.9107468387271970e-02
      2.1877146443121068e-02 3.4202704886532535e-02
      9.9944045184208099e-03 2.5071964554492610e-02
      -4.7657053493277118e-02 5.9872193576337410e-04
      7.4384833371953117e-03 -3.7730110127312589e-03
      2.5133907332559002e-02 -7.2704343104538971e-03
      -9.7855620001453258e-03 -2.9448150062161057e-02
      -1.3129122887043369e-02 5.0257781800593006e-03
      -4.6637821748773713e-02 -2.4068683974536497e-02
      5.6632694262140482e-01 -3.8208038938613971e-02
      -1.2529045429461688e-01 7.9803747383458343e-02
      1.2060990013620924e-01 -1.2045159378841261e-01
      4.9013626050998078e-02 -4.4159345105534979e-02
      1.6976914869231519e-01 8.7170584577167767e-02
      2.8575643181015877e-02 -1.0398753058245833e-01
      4.5461243828153926e-02 -1.1687235629989258e-01
      1.1320458653198642e-01 1.5233604355910377e-01
      6.8306173132272371e-02 3.2053836598262976e-02
      8.2513508184731021e-02 -1.5683620464812208e-02
      -2.0748893083844342e-02 -1.2040903519454044e-01
      -1.3200570952328589e-02 1.2870372498189164e-01
      3.6721483121304188e-02 6.1165144229286629e-02
      -3.5737357239657520e-02 1.4530143047063437e-01
      1.2531828125158362e-01 4.8153178155280300e-02
      2.5627045473179927e-02 -6.1704738123279389e-02
      -4.3241475006579329e-02 -1.2518501005126478e-01
      1.4514256460106126e-01 1.7493060653226769e-01
      1.6591349223172784e-02 9.4794198199446622e-02
      -7.7199554419139907e-02 4.8395948405328487e-02
      -6.6424638767634700e-02 3.7706140688681306e-03
      1.2462227990420617e-01 -2.3941305538711814e-02
      1.2180587666310537e-01 -1.5912287651534973e-01
      8.0381181191006540e-02 7.1463229484739765e-02
      -1.1069625399209936e-01 -8.0391504241100892e-02
      9.8426930408482971e-01 -3.0334468615177548e-02
      1.1338624384251896e-01 -8.1970548676130392e-02
      -1.0361220019866706e-01 1.4072414261860633e-01
      -3.3939727336484329e-02 2.7282961679726537e-02
      -1.6688870125201785e-01 -8.0147464091067794e-02
      3.4248228887347396e-02 7.9326272857507221e-02
      -2.9905750665572751e-02 1.9287841865392366e-01
      -1.4297892919881319e-01 -1.7883597227418846e-01
      -6.1796282392301886e-02 4.9579598956437723e-02
      -6.7711635026259237e-02 -1.5993708672480959e-02
      1.7241353316528818e-02 1.4894395228750576e-01
      -1.5248015359504626e-02 -1.5382825720970220e-01
      -4.4494287606614343e-02 -6.0560419460459168e-02
      -3.7801486995247838e-02 -5.7700322596518647e-03
      -1.0897443241893763e-01 3.8392461674246432e-02
      -1.6028037530201048e-02 5.8887151482582695e-02
      1.9470610645471606e-02 6.2185939291000913e-02
      -1.6433170013053133e-01 -1.6453071227630373e-01
      -1.0903213490422996e-02 -8.3606931090524472e-02
      1.4851576736804251e-02 -4.3369130382770398e-02
      6.8261902118938900e-02 -1.8918644105420608e-02
      -1.0398600012075332e-01 1.3625129779795976e-02
      -2.2774480566892724e-01 1.6739575299973380e-01
      -8.5383980970197074e-02 -6.8808596899210997e-02
      7.5418929387373920e-02 6.9800399723978376e-02
      -7.3631805530840921e-02 9.5387864759173532e-02
      -6.8594769786858634e-02 9.4359037266063525e-02
      7.7904452329788682e-02 -7.2597510618687688e-02
      1.0991047690697835e-01 -1.1123899575716678e-01
      1.0199725872909289e-01 3.4586165067600420e-02
      -7.5071905110370638e-02 -1.9881795384568544e-02
      1.2455069288459500e-01 -2.3023496996870289e-02
      1.1022586722266590e-01 8.8131561194348534e-02
      4.4370414524972979e-02 -4.8933378687754429e-02
      4.0523160614948282e-02 8.0732892657391017e-02
      -6.3891027619794538e-02 -9.4398103042239626e-02
      8.6880321355659346e-02 1.1070796663645253e-01
      -6.3714120135163234e-03 6.6278343187820665e-02
      8.1993492734617077e-02 -1.5794154634436456e-02
      7.1641136464826907e-02 -3.4591358669743631e-02
      5.4969050620072971e-02 -9.2238245061369795e-02
      4.2055832538465059e-02 -5.8796990019319316e-03
      7.0096626718518310e-02 8.7207294698098528e-02
      5.2496142713120281e-02 4.0676203029421674e-02
      -6.0907568546051366e-02 6.5334741404224822e-02
      -9.8015693532334039e-02 5.0979862019668594e-02
      7.4625846753290120e-02 -5.1895102982964701e-02
      2.4863682076286326e-02 -7.0395618334112592e-02
      1.1107016542218948e-01 6.9595398539281400e-02
      -4.0118233462568757e-02 -4.0205854050323578e-02
      7.1911575123370619e-01 -2.5245853450698640e-02
      4.3838364812500301e-02 -3.0528819621999038e-02
      -3.5158239602189313e-02 5.4788902413695106e-02
      -1.4085380288922507e-02 1.1548443407746686e-02
      -6.6334055876120804e-02 -2.8727265056609708e-02
      1.9367873629900455e-02 2.4047519002282067e-02
      -1.4969442585552667e-02 8.7114894126929757e-02
      -5.9243220113714426e-02 -7.2283345706167984e-02
      -2.0605512946086448e-02 3.2168930447503796e-02
      -2.3061110034253617e-02 -5.8050224022202692e-03
      4.8407755905823888e-03 6.0572136719489633e-02
      -6.9987409783742304e-03 -6.3394732162149359e-02
      1.3700017322654572e-02 -2.1345509732280370e-02
      -2.4190146711319492e-02 -1.1245344772139254e-02
      -4.2067627145670569e-02 -3.6617485475325735e-02
      -3.7173764475115227e-03 2.1400255092449725e-02
      4.4452669044428517e-02 7.9014242798927006e-02
      -6.7228795223721438e-02 -6.5239569982985621e-02
      -2.7052706579975085e-03 -2.6247361636066432e-02
      2.5345243048508864e-02 -1.4632253133784870e-02
      2.7171158014141970e-02 -7.3755395911648831e-03
      -3.8223630242081329e-02 3.2916541095934547e-03
      -1.0498823403897416e-01 6.9134206722307148e-02
      -3.3040697812337677e-02 -2.3249661613775906e-02
      2.2025111311196003e-02 2.2768451929310918e-02
      -3.0234824664731408e-01 1.1214954539486308e-01
      -3.8698358318977166e-02 -1.2488121387829093e-02
      1.4571002579813773e-02 2.4720950806718850e-02
      5.6866082432782496e-02 -6.3994829521098806e-02
      5.0820525117833363e-03 -3.1960779810836275e-02
      -8.8620638012205030e-02 3.3271542623784817e-02
      6.4954849194879899e-02 3.3796832119866282e-02
      -2.6399593417744911e-02 -1.3387390348254013e-02
      -4.0924179181087754e-02 -1.0066324318535305e-01
      -2.2874858116046674e-02 8.6245640635527587e-02
      -6.3206373356170964e-02 2.5809262271827414e-02
      8.7775656926311590e-02 1.2483996086024364e-02
      -5.0317838274703965e-02 -2.3196068091721752e-02
      9.1926320356945285e-02 -3.0361658621889626e-02
      3.1649490524639869e-02 -7.5914221609685278e-02
      4.7324061898682865e-02 -1.3509649835181593e-02
      4.0701439011481967e-02 8.9006042841203146e-04
      -2.1537098361676853e-02 -1.3191960774971201e-01
      4.7523603764417548e-02 -1.4461929258956476e-02
      2.1453232387302106e-02 6.4103480235290630e-04
      -4.5888747050640633e-03 7.3528503341726295e-02
      -1.7899747742009128e-02 -4.0423441842836590e-02
      -4.2746110790477909e-02 2.2899408681911509e-02
      -1.6466477923129446e-03 -3.0883599654138318e-02
      3.8492588923577736e-02 2.2541544652026159e-02
      -1.6813984960869851e-04 -2.5200156283022916e-04
      -1.6509844785555580e-05 -3.8424453812426190e-04
      -1.1078074119162359e-03 1.2132070128581239e-03
      8.7417843955891247e-04 1.4698810100405098e-04
      4.8962201234137011e-04 6.3813973561773656e-04
      -6.2390414422201930e-04 5.4782968553737221e-04
      1.0703305781619061e-03 -6.7558328674242614e-04
      7.7901455352522410e-04 -4.1334388356598075e-05
      1.0505379500909289e-03 1.1953601499816024e-03
      -6.9427410231158860e-04 -6.6694173097944754e-04
      -1.0262244480368982e-03 -2.3794586480665404e-04
      1.0804710933354389e-03 -7.0164795448012212e-04
      1.7042929220932858e-04 6.4489165718376290e-04
      2.4429886802856200e-04 -1.1968238028975901e-03
      -8.1467603914306050e-04 1.5332773153133153e-04
      9.4244876391198697e-04 2.7188629530151452e-04
      -9.8266437454100830e-04 8.6894133627529811e-04
      -5.3743406078462651e-04 -2.2301177187577156e-04
      1.2614209213932829e-03 -3.8315874216352208e-04
      -1.0385401128734598e-03 1.0751764470689135e-03
      -1.1106731232253769e-03 -8.4281175780058428e-04
      -1.0825457861540668e-03 -5.1289973971739111e-04
      -9.4996136993521184e-04 8.6075929625023192e-04
      7.4373305303524232e-04 6.7732351234754109e-04
      6.5789485755932879e-04 1.6460932878153135e-04
      7.2005380912126016e-01 -2.5176612502899872e-02
      4.2297514918038508e-02 -3.0428980304023950e-02
      -3.6100343451572141e-02 5.6922360769548319e-02
      -1.2722718198479031e-02 1.1320136112037655e-02
      -6.8201648632794334e-02 -2.8926844813976341e-02
      1.8549514143134761e-02 2.4808213916087604e-02
      -1.2731364054937690e-02 8.6879106321264540e-02
      -5.8300470764604068e-02 -7.3110074400242531e-02
      -2.0625128893812284e-02 3.1810738151958270e-02
      -2.3030548257100436e-02 -4.4445610552744236e-03
      5.5629896303446714e-03 6.0339568686252801e-02
      -5.8508776027331490e-03 -6.3183108854151765e-02
      1.4680296403583946e-02 -2.0447150412448798e-02
      -2.4295023480325799e-02 -1.1079004869878525e-02
      -4.2099276252811513e-02 -3.8477431266432126e-02
      -1.9353543487684898e-03 2.1115770844898376e-02
      4.4552253589275212e-02 8.0068781314217283e-02
      -6.6730149900476321e-02 -6.5883327548795043e-02
      -3.0447511245905597e-03 -2.6678837099732983e-02
      2.4878826520725563e-02 -1.6481421299841804e-02
      2.6364631514982428e-02 -6.9522146976297161e-03
      -3.9005891993956161e-02 2.2940590171092487e-03
      -1.0715060804770625e-01 6.8858093195480766e-02
      -3.2930988168391545e-02 -2.4625236399424339e-02
      2.0718493686546813e-02 2.4726662481237709e-02
      5.6696059797007914e-01 -3.7416757796835988e-02
      -1.2550340318835740e-01 8.1518079779429528e-02
      1.2019438594027053e-01 -1.2023053518689697e-01
      4.8642205205566010e-02 -4.3915993795598886e-02
      1.6911812178818542e-01 8.5962903605812782e-02
      2.8535736297319998e-02 -1.0376062533316530e-01
      4.4166282208465725e-02 -1.1653141432746862e-01
      1.1211442297411631e-01 1.5220311107266984e-01
      7.0156268791706874e-02 3.3710670801393575e-02
      8.2547655888347088e-02 -1.6241715850108793e-02
      -2.1781749189996074e-02 -1.1920724728273566e-01
      -1.3984310885781170e-02 1.2922595527328795e-01
      3.6868647531786147e-02 6.2772391370297234e-02
      -3.7216093841692575e-02 1.4566447654373926e-01
      1.2590935423331656e-01 4.7108568191529747e-02
      2.3829868967208123e-02 -6.1874846626911416e-02
      -4.1764718260207008e-02 -1.2430483517688803e-01
      1.4617375375865851e-01 1.7465135225741099e-01
      1.6798108906863826e-02 9.4794838977777546e-02
      -7.6051386322128225e-02 4.9201068024579131e-02
      -6.7957537204349786e-02 2.9545111626042603e-03
      1.2302393261946953e-01 -2.4543648024089926e-02
      1.2068205849120729e-01 -1.6114901648100888e-01
      8.0133855880068577e-02 7.1698077379427211e-02
      -1.0925947234638651e-01 -8.0727766240615367e-02
      1.4912596404861748e-02 -1.3119021442844003e-02
      1.0490415975218725e-02 -1.1524527719109360e-02
      -9.9139817414729478e-03 1.8242489768817937e-02
      -1.2997537731272659e-02 1.1707079500208269e-02
      -1.4485039289297811e-02 -7.4797620966861652e-03
      1.9165990866635646e-02 5.6546709542868879e-03
      -1.0923843242262497e-02 3.0326693456118489e-02
      -1.8634309122084178e-02 -1.6171323406284015e-02
      -4.8161579765314856e-03 2.3136722683896032e-02
      -6.4021506855814932e-03 -7.5156284608554769e-03
      9.8890346390876835e-03 1.6619176605523284e-02
      -1.1682953970021405e-02 -9.3208298017801120e-03
      3.8720116724795923e-03 -7.1744301232064753e-03
      -1.5455298938682749e-02 4.8647847620251893e-02
      -1.1330519147192582e-02 2.4460373945783813e-02
      -8.3024516569205932e-03 1.1416106540503013e-02
      -1.8888248119710401e-02 -2.8033601589976392e-02
      -9.0543180454117859e-03 -1.5103326206358909e-02
      -3.1987238566259734e-03 -6.6842336295217103e-03
      4.2719696137916334e-03 -6.9087500964686846e-03
      1.1651534554804102e-02 -1.3003681817916357e-02
      -8.8942921133941151e-03 5.2399536248970936e-03
      -1.8062882858483779e-02 7.7782915676862944e-03
      -1.2885874473406930e-02 -6.9790525114989269e-03
      5.4447917277940152e-03 6.4624014199304008e-03
      -2.0800134302668968e-01 6.1045901607112527e-02
      -3.4359412103390399e-02 3.5473104713356830e-02
      2.7248155529576309e-02 -1.6658629407612872e-02
      6.3339921234629851e-02 -6.7363049467983924e-02
      4.9565018680068865e-02 5.7771066632797546e-03
      -5.1261673626923569e-02 1.8843121893889387e-02
      7.3439059098027087e-02 1.0356794892327692e-03
      3.4480040124420491e-02 2.4854851106760969e-02
      -3.2319867808424968e-02 -4.5489688027813197e-02
      1.6541417638345365e-02 5.6186491851419613e-02
      -5.0424011421846229e-02 -2.6243861413510150e-02
      5.7842072419532806e-02 3.8445668263742121e-02
      -3.2965822749405217e-02 6.0878516520769602e-03
      5.4413315754586238e-02 -5.3177205327907005e-02
      3.1577967098160971e-02 -7.2659014684807149e-02
      4.4862132802902764e-02 -4.2248741716226813e-02
      3.8709974931312639e-02 -2.0499273852408576e-02
      1.7823382233009239e-02 4.2747636603257151e-02
      4.9282924469446071e-02 1.3181870087177330e-02
      -4.3988206076643874e-02 2.1455633528970782e-02
      -4.4325475715236588e-02 4.9248515678144852e-02
      2.4753889810848660e-02 -4.4458513981685238e-02
      1.7671737144458145e-03 -2.1858835347979770e-02
      5.1489916096670717e-02 2.7675523638820448e-04
      -2.3377439629241885e-03 -1.7027831268556063e-02
      -3.6976862562347203e-02 -6.9649948812358739e-02
      -1.8097671282639893e-02 -1.2382843243519577e-02
      -9.6665441520000818e-03 2.5842011387578849e-03
      3.3644956310928689e-02 -3.6369268961345763e-02
      -7.6267738816801989e-02 9.1340833412788917e-03
      5.6934504919429231e-02 -3.8405739196410604e-02
      4.1462190260626280e-02 -2.5923363311697693e-02
      -3.3561286891265155e-02 4.0161371654114349e-03
      3.7048706655319237e-03 -2.9322231757950359e-03
      1.8635892206911839e-02 -3.8286672767487755e-02
      -2.1387228437501637e-02 3.7501881795660108e-02
      -3.2788303952580436e-02 -5.1335175358921521e-02
      -2.0690666145152845e-02 -5.7839577842065983e-03
      -6.9198255945308040e-02 1.1851277035081775e-01
      2.0010823827794507e-02 -2.4510007539826482e-02
      1.3139381516771374e-02 1.1728045084881079e-03
      3.2182390778506619e-02 1.4354442698529665e-03
      -1.0186303724723546e-02 5.0889385063031187e-02
      1.8937338093576606e-02 -6.1079846200424648e-03
      -5.2781577822293702e-02 -6.8350911398148148e-03
      2.6020371145478640e-03 2.5429136602579429e-02
      1.2390792169712249e-02 -1.2013751870858068e-02
      2.1924821215862634e-02 -2.2162954358901973e-02
      -4.5288909965392234e-03 -9.3977002380415987e-03
      -2.5951735768961409e-02 -1.7480040605561881e-02
      2.7691967746148649e-01 -9.1270779260053142e-02
      -1.2322123380165094e-01 3.6151100288244628e-02
      9.8340943037287701e-02 -6.3407059449997541e-02
      -4.6125704635311040e-03 1.2418126489468507e-02
      9.3693837972755725e-02 3.8799110656670958e-02
      4.5713646476865724e-02 -4.3411241255862480e-02
      -2.0886928628543011e-03 -5.7747618981992127e-02
      6.3561535687656601e-02 8.1114298998322440e-02
      5.2645175860432269e-02 8.5901948364292102e-02
      -7.3251219380587691e-03 -3.7643630827723540e-02
      3.2052821261284149e-02 -6.4238429714314510e-02
      -3.3983617880973156e-02 7.2965920420155775e-02
      5.9592271176232357e-02 2.3520987432894627e-02
      -5.6862770935610554e-02 -6.1168067405174560e-02
      1.3160850329498036e-01 -3.0925934462077542e-02
      -2.2796312578133623e-02 -1.6175726770554288e-02
      4.4726572394412911e-02 3.7415593464572738e-02
      7.3823921139058973e-02 9.3153281735835494e-02
      -2.6766796530654821e-02 5.5356864117464780e-02
      9.7366857563460557e-02 3.1791016161915532e-03
      -2.4521832333156791e-02 -4.6673340530365016e-02
      1.2985592556436251e-01 1.8726379546304926e-02
      6.8080707575134805e-02 -8.3063454273390458e-02
      3.8424531991077336e-02 3.7581137302416544e-02
      1.0209712308427989e-02 6.4826995118584642e-03
      6.1888978620393831e-01 -2.3679071521505141e-02
      3.7590965257883413e-02 -2.6643930124973233e-02
      -3.1917641853661798e-02 4.8877562233071700e-02
      -1.1305201845642225e-02 1.0173864157994162e-02
      -5.9139511075235893e-02 -2.4860151549675705e-02
      2.3683400828731160e-02 2.0427061605466552e-02
      -1.0625583549942192e-02 7.6288592728969207e-02
      -5.0000084873554396e-02 -6.3556798350266216e-02
      -1.8518823571465962e-02 1.7599553160347291e-02
      -1.7911735966768223e-02 -1.3743175245974407e-02
      1.1329584485726954e-02 5.1806997813256400e-02
      -1.4358146199816329e-02 -5.5756647223987807e-02
      -4.4716793002695827e-02 -1.9174148643089979e-02
      -2.5691332502237998e-02 5.6802410297716738e-02
      -3.4929745747662548e-02 -1.1430625972927780e-02
      -8.2394856833227243e-03 1.8312355761628762e-02
      4.1431940173923064e-02 3.5142272654952213e-02
      -5.8323421853002898e-02 -5.6148988610837655e-02
