<?xml version="1.0"?>
<opencv_storage>
<my_nn type_id="opencv-ml-ann-mlp">
  <layer_sizes type_id="opencv-matrix">
    <rows>1</rows>
    <cols>3</cols>
    <dt>i</dt>
    <data>
      1558 40 2</data></layer_sizes>
  <activation_function>SIGMOID_SYM</activation_function>
  <f_param1>5.9999999999999998e-01</f_param1>
  <f_param2>1.</f_param2>
  <min_val>-9.4999999999999996e-01</min_val>
  <max_val>9.4999999999999996e-01</max_val>
  <min_val1>-9.7999999999999998e-01</min_val1>
  <max_val1>9.7999999999999998e-01</max_val1>
  <training_params>
    <train_method>BACKPROP</train_method>
    <dw_scale>1.0000000000000001e-01</dw_scale>
    <moment_scale>1.0000000000000001e-01</moment_scale>
    <term_criteria><epsilon>9.9999999747524271e-07</epsilon>
      <iterations>10000</iterations></term_criteria></training_params>
  <input_scale>
    1.8300191378858788e-02 -1.1539702932589051e+00
    7.8304672878783538e-03 -1.1857029409908404e+00
    1.9390390195944426e-01 -7.1541311034052346e-01
    2.3540320703752764e+00 -1.7977951803663625e+00
    2.0054986879841749e+01 -4.9987504685547732e-02 1. 0.
    1.1607793383580484e+01 -8.6798056208228933e-02
    1.3541386566673944e+01 -7.4254861532110361e-02
    1.3541386566673944e+01 -7.4254861532110361e-02
    7.8615904616149717e+00 -1.2932825784311769e-01
    1.4963067721862023e+01 -6.7132407525801699e-02
    1.1242021179530175e+01 -8.9667167932444058e-02
    9.6017137476335748e+00 -1.0530294239677898e-01 1. 0.
    1.1242021179530175e+01 -8.9667167932444058e-02
    1.3541386566673944e+01 -7.4254861532110361e-02
    2.2416556336823863e+01 -4.4699015626767417e-02
    1.2968141143619201e+01 -7.7576118506196626e-02
    1.1607793383580484e+01 -8.6798056208228933e-02
    1.6958034388522272e+01 -5.9175593579090677e-02
    1.4198767904999364e+01 -7.0781495039877185e-02
    1.1607793383580484e+01 -8.6798056208228933e-02
    1.2462512392675762e+01 -8.0764038437081215e-02
    1.2012191406989986e+01 -8.3833838333928115e-02
    1.4198767904999364e+01 -7.0781495039877185e-02
    1.5866757828995944e+01 -6.3277199716833266e-02
    3.1685974783869160e+01 -3.1591201180328175e-02
    1.0065290382967309e+01 -1.0035184828481863e-01
    1.6958034388522272e+01 -5.9175593579090677e-02
    4.4799559135700399e+01 -2.2332781224177665e-02
    1.6958034388522272e+01 -5.9175593579090677e-02
    1.2968141143619201e+01 -7.7576118506196626e-02
    1.6958034388522272e+01 -5.9175593579090677e-02 1. 0.
    6.4144806782925263e+00 -1.5988236984776985e-01
    1.2462512392675762e+01 -8.0764038437081215e-02
    1.4198767904999364e+01 -7.0781495039877185e-02
    1.3541386566673944e+01 -7.4254861532110361e-02 1. 0.
    1.3541386566673944e+01 -7.4254861532110361e-02
    1.3541386566673944e+01 -7.4254861532110361e-02
    1.2462512392675762e+01 -8.0764038437081215e-02
    8.5239083087336400e+00 -1.1897778297335090e-01
    1.2012191406989986e+01 -8.3833838333928115e-02
    1.6958034388522272e+01 -5.9175593579090677e-02 1. 0.
    1.6958034388522272e+01 -5.9175593579090677e-02
    9.0140235127796835e+00 -1.1233827907252845e-01
    2.5877947453769135e+01 -3.8700818724480265e-02
    1.2012191406989986e+01 -8.3833838333928115e-02
    1.0909103859096174e+01 -9.2450032704204863e-02
    1.4963067721862023e+01 -6.7132407525801699e-02
    1.0604409402243963e+01 -9.5154221954332679e-02 1. 0.
    1.3541386566673944e+01 -7.4254861532110361e-02
    1.6958034388522272e+01 -5.9175593579090677e-02
    6.6109638401973907e+00 -1.5489297133064672e-01
    1.2968141143619201e+01 -7.7576118506196626e-02
    1.3541386566673944e+01 -7.4254861532110361e-02
    1.4198767904999364e+01 -7.0781495039877185e-02
    4.4799559135700399e+01 -2.2332781224177665e-02 1. 0. 1. 0.
    1.3541386566673944e+01 -7.4254861532110361e-02
    3.8018616885482004e+00 -2.8428676634208877e-01
    1.2012191406989986e+01 -8.3833838333928115e-02
    1.4198767904999364e+01 -7.0781495039877185e-02
    7.2426324346772191e+00 -1.4080890575892899e-01 1. 0.
    1.1242021179530175e+01 -8.9667167932444058e-02
    1.1242021179530175e+01 -8.9667167932444058e-02
    1.0324171130043423e+01 -9.7786266934608693e-02
    1.3541386566673944e+01 -7.4254861532110361e-02
    1.0324171130043423e+01 -9.7786266934608693e-02
    7.3354469957392476e+00 -1.3895662304989601e-01
    1.4198767904999364e+01 -7.0781495039877185e-02
    4.4799559135700399e+01 -2.2332781224177665e-02 1. 0. 1. 0.
    1.8312190839256051e+01 -5.4772255750516606e-02
    1.0909103859096174e+01 -9.2450032704204863e-02 1. 0. 1. 0.
    8.8412090500664817e+00 -1.1459194182538809e-01
    1.1607793383580484e+01 -8.6798056208228933e-02
    1.2012191406989986e+01 -8.3833838333928115e-02
    1.3541386566673944e+01 -7.4254861532110361e-02
    1.6958034388522272e+01 -5.9175593579090677e-02
    1.1242021179530175e+01 -8.9667167932444058e-02
    1.3541386566673944e+01 -7.4254861532110361e-02
    4.4799559135700399e+01 -2.2332781224177665e-02
    1.2462512392675762e+01 -8.0764038437081215e-02 1. 0.
    1.4963067721862023e+01 -6.7132407525801699e-02
    1.3541386566673944e+01 -7.4254861532110361e-02
    1.3541386566673944e+01 -7.4254861532110361e-02
    1.2462512392675762e+01 -8.0764038437081215e-02
    1.4963067721862023e+01 -6.7132407525801699e-02
    2.0054986879841749e+01 -4.9987504685547732e-02
    1.0065290382967309e+01 -1.0035184828481863e-01
    1.8312190839256051e+01 -5.4772255750516606e-02
    1.8312190839256051e+01 -5.4772255750516606e-02
    1.1607793383580484e+01 -8.6798056208228933e-02
    1.4198767904999364e+01 -7.0781495039877185e-02
    3.1685974783869160e+01 -3.1591201180328175e-02
    6.6109638401973907e+00 -1.5489297133064672e-01
    1.6958034388522272e+01 -5.9175593579090677e-02
    1.0324171130043423e+01 -9.7786266934608693e-02
    2.0054986879841749e+01 -4.9987504685547732e-02
    1.3541386566673944e+01 -7.4254861532110361e-02
    1.0909103859096174e+01 -9.2450032704204863e-02 1. 0.
    9.1975780678481218e+00 -1.1004081437106428e-01
    9.0140235127796835e+00 -1.1233827907252845e-01
    1.8312190839256051e+01 -5.4772255750516606e-02 1. 0. 1. 0.
    1.0065290382967309e+01 -1.0035184828481863e-01
    9.8251915436238537e+00 -1.0285594337791672e-01
    1.0324171130043423e+01 -9.7786266934608693e-02
    6.9845035393091228e+00 -1.4623586672531563e-01 1. 0.
    1.3541386566673944e+01 -7.4254861532110361e-02
    1.2968141143619201e+01 -7.7576118506196626e-02
    1.3541386566673944e+01 -7.4254861532110361e-02 1. 0.
    1.4963067721862023e+01 -6.7132407525801699e-02
    4.4799559135700399e+01 -2.2332781224177665e-02
    1.1607793383580484e+01 -8.6798056208228933e-02
    1.8312190839256051e+01 -5.4772255750516606e-02
    1.1607793383580484e+01 -8.6798056208228933e-02
    1.2968141143619201e+01 -7.7576118506196626e-02
    1.0324171130043423e+01 -9.7786266934608693e-02
    6.4144806782925263e+00 -1.5988236984776985e-01
    1.1607793383580484e+01 -8.6798056208228933e-02
    1.2462512392675762e+01 -8.0764038437081215e-02
    2.0054986879841749e+01 -4.9987504685547732e-02
    4.4799559135700399e+01 -2.2332781224177665e-02
    1.1607793383580484e+01 -8.6798056208228933e-02
    9.3930287922664117e+00 -1.0769674088839853e-01
    1.6958034388522272e+01 -5.9175593579090677e-02
    1.2462512392675762e+01 -8.0764038437081215e-02
    1.4963067721862023e+01 -6.7132407525801699e-02
    1.3541386566673944e+01 -7.4254861532110361e-02
    1.2012191406989986e+01 -8.3833838333928115e-02
    6.1786577897286383e+00 -1.6632478596477890e-01 1. 0.
    1.1607793383580484e+01 -8.6798056208228933e-02
    1.4198767904999364e+01 -7.0781495039877185e-02
    1.4198767904999364e+01 -7.0781495039877185e-02
    1.5866757828995944e+01 -6.3277199716833266e-02
    9.1975780678481218e+00 -1.1004081437106428e-01
    1.3541386566673944e+01 -7.4254861532110361e-02
    1.0324171130043423e+01 -9.7786266934608693e-02
    1.4198767904999364e+01 -7.0781495039877185e-02
    1.2968141143619201e+01 -7.7576118506196626e-02
    1.0909103859096174e+01 -9.2450032704204863e-02
    1.1607793383580484e+01 -8.6798056208228933e-02
    1.1242021179530175e+01 -8.9667167932444058e-02
    2.5877947453769135e+01 -3.8700818724480265e-02
    2.5877947453769135e+01 -3.8700818724480265e-02 1. 0. 1. 0.
    1.2462512392675762e+01 -8.0764038437081215e-02 1. 0.
    2.2416556336823863e+01 -4.4699015626767417e-02
    1.4963067721862023e+01 -6.7132407525801699e-02
    8.6781299569933310e+00 -1.1680434139522429e-01
    1.3541386566673944e+01 -7.4254861532110361e-02
    1.2462512392675762e+01 -8.0764038437081215e-02 1. 0.
    1.2968141143619201e+01 -7.7576118506196626e-02
    5.6900532260917345e+00 -1.8153709195905832e-01
    8.5239083087336400e+00 -1.1897778297335090e-01
    2.2416556336823863e+01 -4.4699015626767417e-02
    2.5877947453769135e+01 -3.8700818724480265e-02
    1.4198767904999364e+01 -7.0781495039877185e-02
    1.2012191406989986e+01 -8.3833838333928115e-02
    1.0604409402243963e+01 -9.5154221954332679e-02 1. 0.
    1.4198767904999364e+01 -7.0781495039877185e-02
    1.4198767904999364e+01 -7.0781495039877185e-02
    1.6958034388522272e+01 -5.9175593579090677e-02
    4.4799559135700399e+01 -2.2332781224177665e-02 1. 0. 1. 0.
    9.0140235127796835e+00 -1.1233827907252845e-01
    2.1481246981231843e+00 -6.8213132238507901e-01
    1.4198767904999364e+01 -7.0781495039877185e-02
    1.2968141143619201e+01 -7.7576118506196626e-02
    8.6781299569933310e+00 -1.1680434139522429e-01
    1.4198767904999364e+01 -7.0781495039877185e-02
    2.6003136563288560e+00 -4.6924902472135888e-01
    1.3541386566673944e+01 -7.4254861532110361e-02
    1.8312190839256051e+01 -5.4772255750516606e-02
    9.8251915436238537e+00 -1.0285594337791672e-01
    4.4799559135700399e+01 -2.2332781224177665e-02
    1.4198767904999364e+01 -7.0781495039877185e-02
    1.6958034388522272e+01 -5.9175593579090677e-02
    9.6017137476335748e+00 -1.0530294239677898e-01
    1.1607793383580484e+01 -8.6798056208228933e-02
    1.2968141143619201e+01 -7.7576118506196626e-02
    1.5866757828995944e+01 -6.3277199716833266e-02 1. 0.
    1.1242021179530175e+01 -8.9667167932444058e-02
    1.3541386566673944e+01 -7.4254861532110361e-02
    1.2012191406989986e+01 -8.3833838333928115e-02 1. 0.
    1.1607793383580484e+01 -8.6798056208228933e-02
    1.3541386566673944e+01 -7.4254861532110361e-02
    1.0065290382967309e+01 -1.0035184828481863e-01
    1.4198767904999364e+01 -7.0781495039877185e-02
    1.1242021179530175e+01 -8.9667167932444058e-02
    1.0065290382967309e+01 -1.0035184828481863e-01
    1.6958034388522272e+01 -5.9175593579090677e-02
    1.3541386566673944e+01 -7.4254861532110361e-02
    1.2968141143619201e+01 -7.7576118506196626e-02
    1.3541386566673944e+01 -7.4254861532110361e-02
    9.1975780678481218e+00 -1.1004081437106428e-01 1. 0.
    1.1607793383580484e+01 -8.6798056208228933e-02
    4.4799559135700399e+01 -2.2332781224177665e-02
    1.4198767904999364e+01 -7.0781495039877185e-02
    1.3541386566673944e+01 -7.4254861532110361e-02
    1.2462512392675762e+01 -8.0764038437081215e-02
    1.2968141143619201e+01 -7.7576118506196626e-02
    9.8251915436238537e+00 -1.0285594337791672e-01
    1.4963067721862023e+01 -6.7132407525801699e-02
    1.0604409402243963e+01 -9.5154221954332679e-02
    1.0324171130043423e+01 -9.7786266934608693e-02
    1.3541386566673944e+01 -7.4254861532110361e-02
    7.8615904616149717e+00 -1.2932825784311769e-01
    4.4799559135700399e+01 -2.2332781224177665e-02
    9.1975780678481218e+00 -1.1004081437106428e-01
    6.6109638401973907e+00 -1.5489297133064672e-01
    7.0673682802187265e+00 -1.4444770662461007e-01
    1.1607793383580484e+01 -8.6798056208228933e-02
    2.0054986879841749e+01 -4.9987504685547732e-02
    1.0324171130043423e+01 -9.7786266934608693e-02
    1.5866757828995944e+01 -6.3277199716833266e-02
    1.4198767904999364e+01 -7.0781495039877185e-02
    6.5434074821684707e+00 -1.5657206338189761e-01 1. 0.
    1.2968141143619201e+01 -7.7576118506196626e-02 1. 0.
    8.5239083087336400e+00 -1.1897778297335090e-01
    1.0909103859096174e+01 -9.2450032704204863e-02
    1.2968141143619201e+01 -7.7576118506196626e-02
    1.4198767904999364e+01 -7.0781495039877185e-02 1. 0.
    1.4963067721862023e+01 -6.7132407525801699e-02
    1.0909103859096174e+01 -9.2450032704204863e-02
    1.4963067721862023e+01 -6.7132407525801699e-02
    2.5877947453769135e+01 -3.8700818724480265e-02
    1.2462512392675762e+01 -8.0764038437081215e-02 1. 0.
    1.1607793383580484e+01 -8.6798056208228933e-02
    1.1242021179530175e+01 -8.9667167932444058e-02
    2.0054986879841749e+01 -4.9987504685547732e-02
    3.1685974783869160e+01 -3.1591201180328175e-02
    1.4198767904999364e+01 -7.0781495039877185e-02 1. 0.
    1.2462512392675762e+01 -8.0764038437081215e-02
    1.0065290382967309e+01 -1.0035184828481863e-01
    6.7528309066313392e+00 -1.5148424267119157e-01
    6.5434074821684707e+00 -1.5657206338189761e-01 1. 0.
    1.2968141143619201e+01 -7.7576118506196626e-02
    1.2968141143619201e+01 -7.7576118506196626e-02
    1.3541386566673944e+01 -7.4254861532110361e-02
    1.2012191406989986e+01 -8.3833838333928115e-02
    1.3541386566673944e+01 -7.4254861532110361e-02
    1.3541386566673944e+01 -7.4254861532110361e-02
    2.0054986879841749e+01 -4.9987504685547732e-02
    2.6003136563288560e+00 -4.6924902472135888e-01
    8.5239083087336400e+00 -1.1897778297335090e-01
    3.1685974783869160e+01 -3.1591201180328175e-02 1. 0.
    1.2462512392675762e+01 -8.0764038437081215e-02 1. 0. 1. 0.
    1.2462512392675762e+01 -8.0764038437081215e-02
    9.8251915436238537e+00 -1.0285594337791672e-01 1. 0.
    2.0054986879841749e+01 -4.9987504685547732e-02
    1.2012191406989986e+01 -8.3833838333928115e-02
    1.2462512392675762e+01 -8.0764038437081215e-02
    1.1242021179530175e+01 -8.9667167932444058e-02
    1.4963067721862023e+01 -6.7132407525801699e-02 1. 0.
    1.4963067721862023e+01 -6.7132407525801699e-02
    1.4198767904999364e+01 -7.0781495039877185e-02
    1.3541386566673944e+01 -7.4254861532110361e-02
    1.4198767904999364e+01 -7.0781495039877185e-02
    1.4198767904999364e+01 -7.0781495039877185e-02
    9.6017137476335748e+00 -1.0530294239677898e-01
    1.3541386566673944e+01 -7.4254861532110361e-02
    8.3777731219601375e+00 -1.2111436716692123e-01
    1.5866757828995944e+01 -6.3277199716833266e-02
    9.1975780678481218e+00 -1.1004081437106428e-01
    1.3541386566673944e+01 -7.4254861532110361e-02
    1.0065290382967309e+01 -1.0035184828481863e-01
    1.4198767904999364e+01 -7.0781495039877185e-02
    9.1975780678481218e+00 -1.1004081437106428e-01
    1.1242021179530175e+01 -8.9667167932444058e-02
    1.5866757828995944e+01 -6.3277199716833266e-02
    1.4198767904999364e+01 -7.0781495039877185e-02
    4.4799559135700399e+01 -2.2332781224177665e-02 1. 0.
    1.4198767904999364e+01 -7.0781495039877185e-02
    1.2012191406989986e+01 -8.3833838333928115e-02
    1.3541386566673944e+01 -7.4254861532110361e-02
    1.2462512392675762e+01 -8.0764038437081215e-02
    1.2012191406989986e+01 -8.3833838333928115e-02 1. 0.
    1.4198767904999364e+01 -7.0781495039877185e-02
    2.5877947453769135e+01 -3.8700818724480265e-02
    9.3930287922664117e+00 -1.0769674088839853e-01
    2.0054986879841749e+01 -4.9987504685547732e-02
    6.6109638401973907e+00 -1.5489297133064672e-01
    1.6958034388522272e+01 -5.9175593579090677e-02
    1.2462512392675762e+01 -8.0764038437081215e-02
    1.0065290382967309e+01 -1.0035184828481863e-01
    1.0065290382967309e+01 -1.0035184828481863e-01
    1.3541386566673944e+01 -7.4254861532110361e-02
    4.4799559135700399e+01 -2.2332781224177665e-02
    1.2462512392675762e+01 -8.0764038437081215e-02
    1.8312190839256051e+01 -5.4772255750516606e-02
    1.6958034388522272e+01 -5.9175593579090677e-02
    1.1242021179530175e+01 -8.9667167932444058e-02
    8.3777731219601375e+00 -1.2111436716692123e-01
    1.1607793383580484e+01 -8.6798056208228933e-02
    1.3541386566673944e+01 -7.4254861532110361e-02
    1.3541386566673944e+01 -7.4254861532110361e-02
    1.2462512392675762e+01 -8.0764038437081215e-02 1. 0.
    5.6900532260917345e+00 -1.8153709195905832e-01
    1.4198767904999364e+01 -7.0781495039877185e-02
    9.8251915436238537e+00 -1.0285594337791672e-01
    1.2462512392675762e+01 -8.0764038437081215e-02
    7.4320257992567234e+00 -1.3708123358549290e-01
    1.2012191406989986e+01 -8.3833838333928115e-02
    2.2416556336823863e+01 -4.4699015626767417e-02
    1.2968141143619201e+01 -7.7576118506196626e-02
    1.4963067721862023e+01 -6.7132407525801699e-02 1. 0.
    6.1786577897286383e+00 -1.6632478596477890e-01
    6.5434074821684707e+00 -1.5657206338189761e-01
    1.5866757828995944e+01 -6.3277199716833266e-02
    2.0054986879841749e+01 -4.9987504685547732e-02
    1.2012191406989986e+01 -8.3833838333928115e-02
    4.3925369109434662e+00 -2.4086692931394879e-01
    1.3541386566673944e+01 -7.4254861532110361e-02 1. 0.
    2.2416556336823863e+01 -4.4699015626767417e-02
    1.4198767904999364e+01 -7.0781495039877185e-02
    1.1242021179530175e+01 -8.9667167932444058e-02
    1.0324171130043423e+01 -9.7786266934608693e-02
    1.3541386566673944e+01 -7.4254861532110361e-02
    5.6900532260917345e+00 -1.8153709195905832e-01
    1.2968141143619201e+01 -7.7576118506196626e-02
    6.6109638401973907e+00 -1.5489297133064672e-01
    1.0909103859096174e+01 -9.2450032704204863e-02
    1.1242021179530175e+01 -8.9667167932444058e-02
    1.3541386566673944e+01 -7.4254861532110361e-02
    1.3541386566673944e+01 -7.4254861532110361e-02
    6.7528309066313392e+00 -1.5148424267119157e-01
    1.2012191406989986e+01 -8.3833838333928115e-02 1. 0.
    1.3541386566673944e+01 -7.4254861532110361e-02
    4.4799559135700399e+01 -2.2332781224177665e-02
    6.6109638401973907e+00 -1.5489297133064672e-01
    4.4799559135700399e+01 -2.2332781224177665e-02
    1.4963067721862023e+01 -6.7132407525801699e-02
    1.4198767904999364e+01 -7.0781495039877185e-02
    1.4198767904999364e+01 -7.0781495039877185e-02
    1.0065290382967309e+01 -1.0035184828481863e-01
    6.6109638401973907e+00 -1.5489297133064672e-01
    1.1607793383580484e+01 -8.6798056208228933e-02
    3.1685974783869160e+01 -3.1591201180328175e-02
    1.4198767904999364e+01 -7.0781495039877185e-02
    1.0324171130043423e+01 -9.7786266934608693e-02 1. 0.
    1.2462512392675762e+01 -8.0764038437081215e-02
    8.5239083087336400e+00 -1.1897778297335090e-01
    1.1242021179530175e+01 -8.9667167932444058e-02
    7.9814604390183508e+00 -1.2732140281584606e-01 1. 0. 1. 0.
    1.1607793383580484e+01 -8.6798056208228933e-02 1. 0.
    1.1607793383580484e+01 -8.6798056208228933e-02
    1.5866757828995944e+01 -6.3277199716833266e-02
    1.1607793383580484e+01 -8.6798056208228933e-02
    2.0054986879841749e+01 -4.9987504685547732e-02
    1.4198767904999364e+01 -7.0781495039877185e-02
    1.4198767904999364e+01 -7.0781495039877185e-02
    1.2012191406989986e+01 -8.3833838333928115e-02
    6.9045686351696496e+00 -1.4800421301709618e-01
    1.6958034388522272e+01 -5.9175593579090677e-02
    1.4198767904999364e+01 -7.0781495039877185e-02
    4.4799559135700399e+01 -2.2332781224177665e-02
    1.1607793383580484e+01 -8.6798056208228933e-02
    1.1242021179530175e+01 -8.9667167932444058e-02
    1.3541386566673944e+01 -7.4254861532110361e-02
    1.1607793383580484e+01 -8.6798056208228933e-02
    3.1685974783869160e+01 -3.1591201180328175e-02
    1.1242021179530175e+01 -8.9667167932444058e-02
    1.0065290382967309e+01 -1.0035184828481863e-01
    1.2462512392675762e+01 -8.0764038437081215e-02
    4.4799559135700399e+01 -2.2332781224177665e-02
    9.8251915436238537e+00 -1.0285594337791672e-01
    1.6958034388522272e+01 -5.9175593579090677e-02 1. 0. 1. 0.
    1.0909103859096174e+01 -9.2450032704204863e-02
    1.3541386566673944e+01 -7.4254861532110361e-02
    1.4963067721862023e+01 -6.7132407525801699e-02
    1.4198767904999364e+01 -7.0781495039877185e-02
    1.2462512392675762e+01 -8.0764038437081215e-02
    4.0475725769778741e+00 -2.6432303468798679e-01 1. 0.
    1.4198767904999364e+01 -7.0781495039877185e-02
    1.6958034388522272e+01 -5.9175593579090677e-02
    1.4198767904999364e+01 -7.0781495039877185e-02
    1.2968141143619201e+01 -7.7576118506196626e-02
    2.5877947453769135e+01 -3.8700818724480265e-02
    1.2968141143619201e+01 -7.7576118506196626e-02
    2.5877947453769135e+01 -3.8700818724480265e-02
    4.4699348737505122e+00 -2.3619795444544081e-01
    1.2968141143619201e+01 -7.7576118506196626e-02
    2.2416556336823863e+01 -4.4699015626767417e-02
    1.2968141143619201e+01 -7.7576118506196626e-02
    1.8312190839256051e+01 -5.4772255750516606e-02
    6.6109638401973907e+00 -1.5489297133064672e-01
    1.2012191406989986e+01 -8.3833838333928115e-02
    4.4799559135700399e+01 -2.2332781224177665e-02
    1.4198767904999364e+01 -7.0781495039877185e-02 1. 0.
    1.8312190839256051e+01 -5.4772255750516606e-02
    1.2968141143619201e+01 -7.7576118506196626e-02
    9.0140235127796835e+00 -1.1233827907252845e-01
    1.3541386566673944e+01 -7.4254861532110361e-02
    1.4198767904999364e+01 -7.0781495039877185e-02
    1.4198767904999364e+01 -7.0781495039877185e-02
    1.4198767904999364e+01 -7.0781495039877185e-02
    1.4198767904999364e+01 -7.0781495039877185e-02 1. 0.
    1.3541386566673944e+01 -7.4254861532110361e-02
    1.2012191406989986e+01 -8.3833838333928115e-02
    1.2462512392675762e+01 -8.0764038437081215e-02
    1.5866757828995944e+01 -6.3277199716833266e-02
    1.4963067721862023e+01 -6.7132407525801699e-02
    1.4198767904999364e+01 -7.0781495039877185e-02 1. 0.
    3.8018616885482004e+00 -2.8428676634208877e-01
    3.1685974783869160e+01 -3.1591201180328175e-02
    5.3401514198301356e+00 -1.9433252923609165e-01
    1.3541386566673944e+01 -7.4254861532110361e-02
    1.4963067721862023e+01 -6.7132407525801699e-02 1. 0.
    2.5877947453769135e+01 -3.8700818724480265e-02 1. 0.
    1.2968141143619201e+01 -7.7576118506196626e-02
    1.5866757828995944e+01 -6.3277199716833266e-02
    1.0065290382967309e+01 -1.0035184828481863e-01 1. 0. 1. 0.
    1.3541386566673944e+01 -7.4254861532110361e-02 1. 0.
    1.2462512392675762e+01 -8.0764038437081215e-02
    1.2012191406989986e+01 -8.3833838333928115e-02
    1.4198767904999364e+01 -7.0781495039877185e-02
    1.4198767904999364e+01 -7.0781495039877185e-02
    3.1685974783869160e+01 -3.1591201180328175e-02
    1.4963067721862023e+01 -6.7132407525801699e-02
    1.3541386566673944e+01 -7.4254861532110361e-02
    1.2462512392675762e+01 -8.0764038437081215e-02
    1.6958034388522272e+01 -5.9175593579090677e-02
    1.4198767904999364e+01 -7.0781495039877185e-02
    1.4198767904999364e+01 -7.0781495039877185e-02
    1.2462512392675762e+01 -8.0764038437081215e-02
    1.4198767904999364e+01 -7.0781495039877185e-02
    2.2416556336823863e+01 -4.4699015626767417e-02
    2.0054986879841749e+01 -4.9987504685547732e-02
    1.4198767904999364e+01 -7.0781495039877185e-02 1. 0. 1. 0.
    2.5877947453769135e+01 -3.8700818724480265e-02
    1.4963067721862023e+01 -6.7132407525801699e-02
    1.4963067721862023e+01 -6.7132407525801699e-02
    4.4799559135700399e+01 -2.2332781224177665e-02
    2.0054986879841749e+01 -4.9987504685547732e-02
    1.0065290382967309e+01 -1.0035184828481863e-01 1. 0.
    1.1607793383580484e+01 -8.6798056208228933e-02
    3.1685974783869160e+01 -3.1591201180328175e-02
    1.5866757828995944e+01 -6.3277199716833266e-02 1. 0.
    1.2012191406989986e+01 -8.3833838333928115e-02
    9.0140235127796835e+00 -1.1233827907252845e-01
    1.0065290382967309e+01 -1.0035184828481863e-01
    1.2012191406989986e+01 -8.3833838333928115e-02
    1.4963067721862023e+01 -6.7132407525801699e-02 1. 0.
    1.5866757828995944e+01 -6.3277199716833266e-02
    9.3930287922664117e+00 -1.0769674088839853e-01
    1.5866757828995944e+01 -6.3277199716833266e-02
    2.0054986879841749e+01 -4.9987504685547732e-02
    1.6958034388522272e+01 -5.9175593579090677e-02
    4.4799559135700399e+01 -2.2332781224177665e-02
    1.2462512392675762e+01 -8.0764038437081215e-02
    1.8312190839256051e+01 -5.4772255750516606e-02
    1.0909103859096174e+01 -9.2450032704204863e-02
    1.0065290382967309e+01 -1.0035184828481863e-01 1. 0.
    1.4963067721862023e+01 -6.7132407525801699e-02
    1.0604409402243963e+01 -9.5154221954332679e-02
    1.4198767904999364e+01 -7.0781495039877185e-02
    1.4198767904999364e+01 -7.0781495039877185e-02
    3.6910938608345885e+00 -2.9440429597883061e-01
    6.6109638401973907e+00 -1.5489297133064672e-01
    1.4198767904999364e+01 -7.0781495039877185e-02
    1.0324171130043423e+01 -9.7786266934608693e-02
    1.3541386566673944e+01 -7.4254861532110361e-02
    8.8412090500664817e+00 -1.1459194182538809e-01
    1.5866757828995944e+01 -6.3277199716833266e-02
    2.5877947453769135e+01 -3.8700818724480265e-02
    1.2968141143619201e+01 -7.7576118506196626e-02
    1.0604409402243963e+01 -9.5154221954332679e-02
    6.6109638401973907e+00 -1.5489297133064672e-01
    1.4963067721862023e+01 -6.7132407525801699e-02 1. 0.
    1.4198767904999364e+01 -7.0781495039877185e-02
    3.1685974783869160e+01 -3.1591201180328175e-02
    3.1685974783869160e+01 -3.1591201180328175e-02
    1.2012191406989986e+01 -8.3833838333928115e-02
    1.3541386566673944e+01 -7.4254861532110361e-02
    9.8251915436238537e+00 -1.0285594337791672e-01
    1.8312190839256051e+01 -5.4772255750516606e-02
    5.6900532260917345e+00 -1.8153709195905832e-01
    1.4963067721862023e+01 -6.7132407525801699e-02
    1.4198767904999364e+01 -7.0781495039877185e-02 1. 0.
    1.3541386566673944e+01 -7.4254861532110361e-02
    9.8251915436238537e+00 -1.0285594337791672e-01
    1.4198767904999364e+01 -7.0781495039877185e-02
    4.4799559135700399e+01 -2.2332781224177665e-02
    2.5702976574365763e+00 -4.7792673291318194e-01
    2.2416556336823863e+01 -4.4699015626767417e-02
    9.8251915436238537e+00 -1.0285594337791672e-01
    6.6109638401973907e+00 -1.5489297133064672e-01 1. 0.
    1.0324171130043423e+01 -9.7786266934608693e-02
    5.4870835481283429e+00 -1.8873816790670772e-01
    1.2462512392675762e+01 -8.0764038437081215e-02
    5.6900532260917345e+00 -1.8153709195905832e-01
    2.5877947453769135e+01 -3.8700818724480265e-02
    1.0604409402243963e+01 -9.5154221954332679e-02
    1.0065290382967309e+01 -1.0035184828481863e-01
    1.6958034388522272e+01 -5.9175593579090677e-02
    1.2012191406989986e+01 -8.3833838333928115e-02
    2.2416556336823863e+01 -4.4699015626767417e-02
    1.5866757828995944e+01 -6.3277199716833266e-02
    1.0065290382967309e+01 -1.0035184828481863e-01
    1.4963067721862023e+01 -6.7132407525801699e-02
    1.5866757828995944e+01 -6.3277199716833266e-02
    4.4799559135700399e+01 -2.2332781224177665e-02 1. 0. 1. 0.
    2.0054986879841749e+01 -4.9987504685547732e-02
    1.0909103859096174e+01 -9.2450032704204863e-02
    1.4198767904999364e+01 -7.0781495039877185e-02
    3.3679342586173946e+00 -3.2907034630558790e-01 1. 0.
    1.3541386566673944e+01 -7.4254861532110361e-02
    1.2462512392675762e+01 -8.0764038437081215e-02 1. 0. 1. 0.
    8.5239083087336400e+00 -1.1897778297335090e-01
    2.0054986879841749e+01 -4.9987504685547732e-02 1. 0.
    1.2968141143619201e+01 -7.7576118506196626e-02
    1.4963067721862023e+01 -6.7132407525801699e-02
    1.0909103859096174e+01 -9.2450032704204863e-02
    1.2012191406989986e+01 -8.3833838333928115e-02
    1.2462512392675762e+01 -8.0764038437081215e-02
    1.1607793383580484e+01 -8.6798056208228933e-02
    1.5866757828995944e+01 -6.3277199716833266e-02
    9.6017137476335748e+00 -1.0530294239677898e-01 1. 0.
    8.5239083087336400e+00 -1.1897778297335090e-01
    1.0604409402243963e+01 -9.5154221954332679e-02
    1.6958034388522272e+01 -5.9175593579090677e-02
    1.2968141143619201e+01 -7.7576118506196626e-02 1. 0.
    2.5877947453769135e+01 -3.8700818724480265e-02
    1.4198767904999364e+01 -7.0781495039877185e-02
    2.0054986879841749e+01 -4.9987504685547732e-02
    1.5866757828995944e+01 -6.3277199716833266e-02
    1.0324171130043423e+01 -9.7786266934608693e-02
    3.1685974783869160e+01 -3.1591201180328175e-02
    4.7804199294350740e+00 -2.1924159197807916e-01
    1.4198767904999364e+01 -7.0781495039877185e-02
    1.0324171130043423e+01 -9.7786266934608693e-02
    2.5877947453769135e+01 -3.8700818724480265e-02 1. 0.
    1.2968141143619201e+01 -7.7576118506196626e-02
    1.0065290382967309e+01 -1.0035184828481863e-01
    1.2012191406989986e+01 -8.3833838333928115e-02
    1.3541386566673944e+01 -7.4254861532110361e-02
    1.0324171130043423e+01 -9.7786266934608693e-02
    1.5866757828995944e+01 -6.3277199716833266e-02
    1.4198767904999364e+01 -7.0781495039877185e-02
    3.1685974783869160e+01 -3.1591201180328175e-02
    2.5877947453769135e+01 -3.8700818724480265e-02
    1.4198767904999364e+01 -7.0781495039877185e-02
    9.0140235127796835e+00 -1.1233827907252845e-01
    1.1607793383580484e+01 -8.6798056208228933e-02
    1.3541386566673944e+01 -7.4254861532110361e-02
    1.4198767904999364e+01 -7.0781495039877185e-02
    1.3541386566673944e+01 -7.4254861532110361e-02
    1.1607793383580484e+01 -8.6798056208228933e-02
    1.2462512392675762e+01 -8.0764038437081215e-02
    3.1685974783869160e+01 -3.1591201180328175e-02
    1.3541386566673944e+01 -7.4254861532110361e-02
    2.0054986879841749e+01 -4.9987504685547732e-02
    1.0604409402243963e+01 -9.5154221954332679e-02
    1.2462512392675762e+01 -8.0764038437081215e-02 1. 0.
    6.6109638401973907e+00 -1.5489297133064672e-01 1. 0. 1. 0.
    1.2968141143619201e+01 -7.7576118506196626e-02
    3.1685974783869160e+01 -3.1591201180328175e-02
    1.4963067721862023e+01 -6.7132407525801699e-02
    1.8312190839256051e+01 -5.4772255750516606e-02
    1.4198767904999364e+01 -7.0781495039877185e-02
    1.0604409402243963e+01 -9.5154221954332679e-02
    1.6958034388522272e+01 -5.9175593579090677e-02
    1.4963067721862023e+01 -6.7132407525801699e-02
    4.4799559135700399e+01 -2.2332781224177665e-02
    1.0909103859096174e+01 -9.2450032704204863e-02
    1.4963067721862023e+01 -6.7132407525801699e-02
    1.2012191406989986e+01 -8.3833838333928115e-02
    9.0140235127796835e+00 -1.1233827907252845e-01
    8.6781299569933310e+00 -1.1680434139522429e-01
    3.1685974783869160e+01 -3.1591201180328175e-02
    6.4144806782925263e+00 -1.5988236984776985e-01
    1.2968141143619201e+01 -7.7576118506196626e-02
    7.2426324346772191e+00 -1.4080890575892899e-01
    6.6109638401973907e+00 -1.5489297133064672e-01
    9.3930287922664117e+00 -1.0769674088839853e-01 1. 0.
    1.2462512392675762e+01 -8.0764038437081215e-02
    8.3777731219601375e+00 -1.2111436716692123e-01
    2.2416556336823863e+01 -4.4699015626767417e-02
    1.0604409402243963e+01 -9.5154221954332679e-02
    1.1607793383580484e+01 -8.6798056208228933e-02
    2.5877947453769135e+01 -3.8700818724480265e-02
    3.1685974783869160e+01 -3.1591201180328175e-02
    1.1242021179530175e+01 -8.9667167932444058e-02
    4.4799559135700399e+01 -2.2332781224177665e-02
    1.2462512392675762e+01 -8.0764038437081215e-02
    1.3541386566673944e+01 -7.4254861532110361e-02
    1.8312190839256051e+01 -5.4772255750516606e-02
    1.4198767904999364e+01 -7.0781495039877185e-02 1. 0.
    1.4198767904999364e+01 -7.0781495039877185e-02
    1.3541386566673944e+01 -7.4254861532110361e-02
    3.1685974783869160e+01 -3.1591201180328175e-02
    1.8312190839256051e+01 -5.4772255750516606e-02
    2.2416556336823863e+01 -4.4699015626767417e-02
    1.1607793383580484e+01 -8.6798056208228933e-02
    1.2012191406989986e+01 -8.3833838333928115e-02
    2.0054986879841749e+01 -4.9987504685547732e-02
    9.3930287922664117e+00 -1.0769674088839853e-01
    1.8312190839256051e+01 -5.4772255750516606e-02
    1.4198767904999364e+01 -7.0781495039877185e-02
    9.3930287922664117e+00 -1.0769674088839853e-01
    9.8251915436238537e+00 -1.0285594337791672e-01
    1.6958034388522272e+01 -5.9175593579090677e-02
    1.2968141143619201e+01 -7.7576118506196626e-02
    1.4198767904999364e+01 -7.0781495039877185e-02
    1.4963067721862023e+01 -6.7132407525801699e-02
    1.0909103859096174e+01 -9.2450032704204863e-02
    2.2416556336823863e+01 -4.4699015626767417e-02
    1.4198767904999364e+01 -7.0781495039877185e-02
    1.2462512392675762e+01 -8.0764038437081215e-02
    1.5866757828995944e+01 -6.3277199716833266e-02
    1.1607793383580484e+01 -8.6798056208228933e-02
    2.2416556336823863e+01 -4.4699015626767417e-02 1. 0.
    1.2012191406989986e+01 -8.3833838333928115e-02
    1.0909103859096174e+01 -9.2450032704204863e-02
    1.3541386566673944e+01 -7.4254861532110361e-02
    1.5866757828995944e+01 -6.3277199716833266e-02
    1.0909103859096174e+01 -9.2450032704204863e-02
    1.4198767904999364e+01 -7.0781495039877185e-02
    1.0065290382967309e+01 -1.0035184828481863e-01
    7.3354469957392476e+00 -1.3895662304989601e-01
    9.6017137476335748e+00 -1.0530294239677898e-01
    1.5866757828995944e+01 -6.3277199716833266e-02
    1.2968141143619201e+01 -7.7576118506196626e-02
    1.4198767904999364e+01 -7.0781495039877185e-02 1. 0.
    1.1607793383580484e+01 -8.6798056208228933e-02
    1.4198767904999364e+01 -7.0781495039877185e-02
    1.6958034388522272e+01 -5.9175593579090677e-02
    1.4198767904999364e+01 -7.0781495039877185e-02
    4.4799559135700399e+01 -2.2332781224177665e-02
    1.4198767904999364e+01 -7.0781495039877185e-02
    1.3541386566673944e+01 -7.4254861532110361e-02
    1.5866757828995944e+01 -6.3277199716833266e-02
    1.2012191406989986e+01 -8.3833838333928115e-02
    9.8251915436238537e+00 -1.0285594337791672e-01
    1.0909103859096174e+01 -9.2450032704204863e-02
    1.0604409402243963e+01 -9.5154221954332679e-02 1. 0.
    1.4198767904999364e+01 -7.0781495039877185e-02
    1.2462512392675762e+01 -8.0764038437081215e-02
    1.2462512392675762e+01 -8.0764038437081215e-02
    1.2968141143619201e+01 -7.7576118506196626e-02
    1.2462512392675762e+01 -8.0764038437081215e-02
    1.2462512392675762e+01 -8.0764038437081215e-02
    7.3354469957392476e+00 -1.3895662304989601e-01
    4.4799559135700399e+01 -2.2332781224177665e-02
    1.6958034388522272e+01 -5.9175593579090677e-02
    1.2462512392675762e+01 -8.0764038437081215e-02
    1.4198767904999364e+01 -7.0781495039877185e-02
    3.1685974783869160e+01 -3.1591201180328175e-02
    4.4799559135700399e+01 -2.2332781224177665e-02 1. 0. 1. 0.
    1.2012191406989986e+01 -8.3833838333928115e-02 1. 0.
    1.3541386566673944e+01 -7.4254861532110361e-02 1. 0.
    1.0909103859096174e+01 -9.2450032704204863e-02 1. 0.
    1.4198767904999364e+01 -7.0781495039877185e-02
    1.3541386566673944e+01 -7.4254861532110361e-02
    1.4963067721862023e+01 -6.7132407525801699e-02
    1.1607793383580484e+01 -8.6798056208228933e-02
    1.4198767904999364e+01 -7.0781495039877185e-02 1. 0.
    1.4963067721862023e+01 -6.7132407525801699e-02
    1.0909103859096174e+01 -9.2450032704204863e-02 1. 0.
    1.5866757828995944e+01 -6.3277199716833266e-02
    1.3541386566673944e+01 -7.4254861532110361e-02
    1.2462512392675762e+01 -8.0764038437081215e-02
    1.6958034388522272e+01 -5.9175593579090677e-02
    1.5866757828995944e+01 -6.3277199716833266e-02 1. 0. 1. 0.
    1.3541386566673944e+01 -7.4254861532110361e-02
    1.0909103859096174e+01 -9.2450032704204863e-02
    9.6017137476335748e+00 -1.0530294239677898e-01
    6.4144806782925263e+00 -1.5988236984776985e-01
    1.3541386566673944e+01 -7.4254861532110361e-02
    1.0324171130043423e+01 -9.7786266934608693e-02
    1.2462512392675762e+01 -8.0764038437081215e-02
    1.0324171130043423e+01 -9.7786266934608693e-02
    3.1685974783869160e+01 -3.1591201180328175e-02
    2.2416556336823863e+01 -4.4699015626767417e-02
    1.2012191406989986e+01 -8.3833838333928115e-02
    1.4963067721862023e+01 -6.7132407525801699e-02
    4.4799559135700399e+01 -2.2332781224177665e-02
    1.2462512392675762e+01 -8.0764038437081215e-02 1. 0.
    8.5239083087336400e+00 -1.1897778297335090e-01
    1.2462512392675762e+01 -8.0764038437081215e-02
    1.4198767904999364e+01 -7.0781495039877185e-02
    1.4198767904999364e+01 -7.0781495039877185e-02
    1.4198767904999364e+01 -7.0781495039877185e-02
    1.4198767904999364e+01 -7.0781495039877185e-02
    1.4963067721862023e+01 -6.7132407525801699e-02
    1.3541386566673944e+01 -7.4254861532110361e-02
    1.4198767904999364e+01 -7.0781495039877185e-02
    1.0604409402243963e+01 -9.5154221954332679e-02
    1.8312190839256051e+01 -5.4772255750516606e-02 1. 0.
    1.4198767904999364e+01 -7.0781495039877185e-02 1. 0. 1. 0.
    1.3541386566673944e+01 -7.4254861532110361e-02
    1.8312190839256051e+01 -5.4772255750516606e-02
    4.4799559135700399e+01 -2.2332781224177665e-02
    9.8251915436238537e+00 -1.0285594337791672e-01
    1.4198767904999364e+01 -7.0781495039877185e-02
    1.3541386566673944e+01 -7.4254861532110361e-02 1. 0.
    8.5239083087336400e+00 -1.1897778297335090e-01
    1.8312190839256051e+01 -5.4772255750516606e-02
    1.4198767904999364e+01 -7.0781495039877185e-02
    1.4198767904999364e+01 -7.0781495039877185e-02
    8.5239083087336400e+00 -1.1897778297335090e-01
    4.4799559135700399e+01 -2.2332781224177665e-02
    1.8312190839256051e+01 -5.4772255750516606e-02
    1.4198767904999364e+01 -7.0781495039877185e-02
    1.3541386566673944e+01 -7.4254861532110361e-02
    2.5877947453769135e+01 -3.8700818724480265e-02
    1.8312190839256051e+01 -5.4772255750516606e-02
    1.3541386566673944e+01 -7.4254861532110361e-02
    1.4963067721862023e+01 -6.7132407525801699e-02
    1.2968141143619201e+01 -7.7576118506196626e-02
    1.0604409402243963e+01 -9.5154221954332679e-02
    1.0324171130043423e+01 -9.7786266934608693e-02
    8.6781299569933310e+00 -1.1680434139522429e-01
    1.2968141143619201e+01 -7.7576118506196626e-02
    1.4198767904999364e+01 -7.0781495039877185e-02
    1.2968141143619201e+01 -7.7576118506196626e-02
    1.2462512392675762e+01 -8.0764038437081215e-02 1. 0.
    1.5866757828995944e+01 -6.3277199716833266e-02
    1.2968141143619201e+01 -7.7576118506196626e-02
    1.4963067721862023e+01 -6.7132407525801699e-02
    9.3930287922664117e+00 -1.0769674088839853e-01
    1.0604409402243963e+01 -9.5154221954332679e-02
    2.5877947453769135e+01 -3.8700818724480265e-02
    3.1685974783869160e+01 -3.1591201180328175e-02
    2.0054986879841749e+01 -4.9987504685547732e-02
    1.0065290382967309e+01 -1.0035184828481863e-01
    1.4198767904999364e+01 -7.0781495039877185e-02
    1.4198767904999364e+01 -7.0781495039877185e-02
    1.2462512392675762e+01 -8.0764038437081215e-02
    1.3541386566673944e+01 -7.4254861532110361e-02
    1.4963067721862023e+01 -6.7132407525801699e-02
    1.1607793383580484e+01 -8.6798056208228933e-02
    1.2968141143619201e+01 -7.7576118506196626e-02
    1.4963067721862023e+01 -6.7132407525801699e-02
    1.2968141143619201e+01 -7.7576118506196626e-02
    1.0324171130043423e+01 -9.7786266934608693e-02
    1.1607793383580484e+01 -8.6798056208228933e-02
    1.0065290382967309e+01 -1.0035184828481863e-01
    1.4963067721862023e+01 -6.7132407525801699e-02
    1.2462512392675762e+01 -8.0764038437081215e-02
    1.4198767904999364e+01 -7.0781495039877185e-02
    2.0054986879841749e+01 -4.9987504685547732e-02
    1.2462512392675762e+01 -8.0764038437081215e-02
    1.1607793383580484e+01 -8.6798056208228933e-02
    1.5866757828995944e+01 -6.3277199716833266e-02
    1.2462512392675762e+01 -8.0764038437081215e-02
    2.5877947453769135e+01 -3.8700818724480265e-02
    1.2462512392675762e+01 -8.0764038437081215e-02
    1.2968141143619201e+01 -7.7576118506196626e-02 1. 0.
    1.4963067721862023e+01 -6.7132407525801699e-02
    1.6958034388522272e+01 -5.9175593579090677e-02
    1.0065290382967309e+01 -1.0035184828481863e-01
    9.6017137476335748e+00 -1.0530294239677898e-01
    1.0909103859096174e+01 -9.2450032704204863e-02
    2.0054986879841749e+01 -4.9987504685547732e-02
    1.0909103859096174e+01 -9.2450032704204863e-02
    1.4198767904999364e+01 -7.0781495039877185e-02
    1.1607793383580484e+01 -8.6798056208228933e-02
    1.0065290382967309e+01 -1.0035184828481863e-01
    1.2968141143619201e+01 -7.7576118506196626e-02
    1.4963067721862023e+01 -6.7132407525801699e-02
    1.4963067721862023e+01 -6.7132407525801699e-02
    1.3541386566673944e+01 -7.4254861532110361e-02 1. 0.
    1.2968141143619201e+01 -7.7576118506196626e-02
    1.8312190839256051e+01 -5.4772255750516606e-02
    1.0909103859096174e+01 -9.2450032704204863e-02
    1.1607793383580484e+01 -8.6798056208228933e-02
    1.2968141143619201e+01 -7.7576118506196626e-02
    1.2968141143619201e+01 -7.7576118506196626e-02
    9.1975780678481218e+00 -1.1004081437106428e-01
    1.4198767904999364e+01 -7.0781495039877185e-02
    1.0065290382967309e+01 -1.0035184828481863e-01
    1.2462512392675762e+01 -8.0764038437081215e-02
    1.4198767904999364e+01 -7.0781495039877185e-02
    8.3777731219601375e+00 -1.2111436716692123e-01 1. 0.
    1.2968141143619201e+01 -7.7576118506196626e-02
    4.4799559135700399e+01 -2.2332781224177665e-02
    1.2968141143619201e+01 -7.7576118506196626e-02
    1.2968141143619201e+01 -7.7576118506196626e-02
    3.1685974783869160e+01 -3.1591201180328175e-02
    1.6958034388522272e+01 -5.9175593579090677e-02
    1.6958034388522272e+01 -5.9175593579090677e-02
    1.4963067721862023e+01 -6.7132407525801699e-02
    6.4144806782925263e+00 -1.5988236984776985e-01
    1.0065290382967309e+01 -1.0035184828481863e-01
    2.5877947453769135e+01 -3.8700818724480265e-02
    1.2968141143619201e+01 -7.7576118506196626e-02
    3.1685974783869160e+01 -3.1591201180328175e-02
    1.6958034388522272e+01 -5.9175593579090677e-02
    1.2012191406989986e+01 -8.3833838333928115e-02
    1.2012191406989986e+01 -8.3833838333928115e-02
    9.3930287922664117e+00 -1.0769674088839853e-01 1. 0.
    4.4799559135700399e+01 -2.2332781224177665e-02
    1.4963067721862023e+01 -6.7132407525801699e-02
    1.0065290382967309e+01 -1.0035184828481863e-01
    2.0054986879841749e+01 -4.9987504685547732e-02
    1.4963067721862023e+01 -6.7132407525801699e-02
    1.5866757828995944e+01 -6.3277199716833266e-02
    1.4198767904999364e+01 -7.0781495039877185e-02
    1.2012191406989986e+01 -8.3833838333928115e-02
    1.0065290382967309e+01 -1.0035184828481863e-01
    4.4799559135700399e+01 -2.2332781224177665e-02 1. 0. 1. 0.
    1.8312190839256051e+01 -5.4772255750516606e-02
    1.2968141143619201e+01 -7.7576118506196626e-02
    1.0604409402243963e+01 -9.5154221954332679e-02
    1.2012191406989986e+01 -8.3833838333928115e-02
    3.1685974783869160e+01 -3.1591201180328175e-02
    1.4963067721862023e+01 -6.7132407525801699e-02
    2.0054986879841749e+01 -4.9987504685547732e-02
    1.3541386566673944e+01 -7.4254861532110361e-02
    5.6900532260917345e+00 -1.8153709195905832e-01
    2.2416556336823863e+01 -4.4699015626767417e-02
    6.6109638401973907e+00 -1.5489297133064672e-01
    2.5702976574365763e+00 -4.7792673291318194e-01
    1.4963067721862023e+01 -6.7132407525801699e-02
    7.3354469957392476e+00 -1.3895662304989601e-01
    1.0909103859096174e+01 -9.2450032704204863e-02
    9.8251915436238537e+00 -1.0285594337791672e-01 1. 0.
    1.8312190839256051e+01 -5.4772255750516606e-02
    1.2968141143619201e+01 -7.7576118506196626e-02
    1.3541386566673944e+01 -7.4254861532110361e-02
    1.0065290382967309e+01 -1.0035184828481863e-01
    1.2968141143619201e+01 -7.7576118506196626e-02
    2.5877947453769135e+01 -3.8700818724480265e-02
    1.0065290382967309e+01 -1.0035184828481863e-01
    1.2462512392675762e+01 -8.0764038437081215e-02
    2.5877947453769135e+01 -3.8700818724480265e-02
    7.3354469957392476e+00 -1.3895662304989601e-01 1. 0.
    1.2462512392675762e+01 -8.0764038437081215e-02
    2.2416556336823863e+01 -4.4699015626767417e-02
    1.4963067721862023e+01 -6.7132407525801699e-02
    1.2462512392675762e+01 -8.0764038437081215e-02
    4.7804199294350740e+00 -2.1924159197807916e-01
    2.0054986879841749e+01 -4.9987504685547732e-02 1. 0.
    1.2012191406989986e+01 -8.3833838333928115e-02
    1.4198767904999364e+01 -7.0781495039877185e-02
    1.4198767904999364e+01 -7.0781495039877185e-02
    1.4198767904999364e+01 -7.0781495039877185e-02
    3.1685974783869160e+01 -3.1591201180328175e-02
    1.3541386566673944e+01 -7.4254861532110361e-02
    4.0914584947770756e+00 -2.6107013326593503e-01
    1.4198767904999364e+01 -7.0781495039877185e-02
    1.5866757828995944e+01 -6.3277199716833266e-02
    6.6807308761788189e+00 -1.5319721849662296e-01
    1.3541386566673944e+01 -7.4254861532110361e-02
    1.3541386566673944e+01 -7.4254861532110361e-02
    9.3930287922664117e+00 -1.0769674088839853e-01
    1.5866757828995944e+01 -6.3277199716833266e-02
    1.4198767904999364e+01 -7.0781495039877185e-02
    1.1607793383580484e+01 -8.6798056208228933e-02 1. 0.
    1.5866757828995944e+01 -6.3277199716833266e-02
    1.1607793383580484e+01 -8.6798056208228933e-02
    9.1975780678481218e+00 -1.1004081437106428e-01
    1.3541386566673944e+01 -7.4254861532110361e-02
    6.3529064442863525e+00 -1.6151457061744964e-01
    1.4198767904999364e+01 -7.0781495039877185e-02
    1.3541386566673944e+01 -7.4254861532110361e-02
    9.1975780678481218e+00 -1.1004081437106428e-01 1. 0.
    9.1975780678481218e+00 -1.1004081437106428e-01
    4.9366358040689517e+00 -2.1164041832000491e-01
    3.1685974783869160e+01 -3.1591201180328175e-02
    2.0054986879841749e+01 -4.9987504685547732e-02
    1.2968141143619201e+01 -7.7576118506196626e-02
    8.8412090500664817e+00 -1.1459194182538809e-01
    1.8312190839256051e+01 -5.4772255750516606e-02
    1.2968141143619201e+01 -7.7576118506196626e-02
    1.2968141143619201e+01 -7.7576118506196626e-02
    1.4198767904999364e+01 -7.0781495039877185e-02
    6.6109638401973907e+00 -1.5489297133064672e-01
    1.2462512392675762e+01 -8.0764038437081215e-02
    1.5866757828995944e+01 -6.3277199716833266e-02 1. 0.
    9.3930287922664117e+00 -1.0769674088839853e-01
    9.3930287922664117e+00 -1.0769674088839853e-01
    9.3930287922664117e+00 -1.0769674088839853e-01
    1.2462512392675762e+01 -8.0764038437081215e-02
    1.5866757828995944e+01 -6.3277199716833266e-02
    1.4198767904999364e+01 -7.0781495039877185e-02
    1.2012191406989986e+01 -8.3833838333928115e-02 1. 0.
    1.8312190839256051e+01 -5.4772255750516606e-02
    1.0065290382967309e+01 -1.0035184828481863e-01
    1.6958034388522272e+01 -5.9175593579090677e-02
    1.2968141143619201e+01 -7.7576118506196626e-02
    1.0324171130043423e+01 -9.7786266934608693e-02
    1.1242021179530175e+01 -8.9667167932444058e-02
    9.8251915436238537e+00 -1.0285594337791672e-01
    1.3541386566673944e+01 -7.4254861532110361e-02
    1.6958034388522272e+01 -5.9175593579090677e-02
    5.0211389569762197e+00 -2.0775400470041189e-01
    1.6958034388522272e+01 -5.9175593579090677e-02
    8.8412090500664817e+00 -1.1459194182538809e-01
    2.5877947453769135e+01 -3.8700818724480265e-02
    1.2012191406989986e+01 -8.3833838333928115e-02
    1.2012191406989986e+01 -8.3833838333928115e-02 1. 0.
    1.3541386566673944e+01 -7.4254861532110361e-02
    6.5434074821684707e+00 -1.5657206338189761e-01
    2.5877947453769135e+01 -3.8700818724480265e-02
    1.3541386566673944e+01 -7.4254861532110361e-02
    1.5866757828995944e+01 -6.3277199716833266e-02
    1.4198767904999364e+01 -7.0781495039877185e-02
    4.4799559135700399e+01 -2.2332781224177665e-02 1. 0.
    1.6958034388522272e+01 -5.9175593579090677e-02
    1.4963067721862023e+01 -6.7132407525801699e-02
    6.1237993063275518e+00 -1.6790077858824295e-01
    1.3541386566673944e+01 -7.4254861532110361e-02
    1.4198767904999364e+01 -7.0781495039877185e-02
    6.5434074821684707e+00 -1.5657206338189761e-01
    9.0140235127796835e+00 -1.1233827907252845e-01 1. 0.
    1.3541386566673944e+01 -7.4254861532110361e-02
    7.8615904616149717e+00 -1.2932825784311769e-01
    1.2968141143619201e+01 -7.7576118506196626e-02
    1.2462512392675762e+01 -8.0764038437081215e-02
    1.2968141143619201e+01 -7.7576118506196626e-02
    6.1237993063275518e+00 -1.6790077858824295e-01
    1.5866757828995944e+01 -6.3277199716833266e-02
    1.0324171130043423e+01 -9.7786266934608693e-02
    1.6958034388522272e+01 -5.9175593579090677e-02
    1.6958034388522272e+01 -5.9175593579090677e-02
    9.1975780678481218e+00 -1.1004081437106428e-01
    4.4799559135700399e+01 -2.2332781224177665e-02 1. 0. 1. 0.
    1.0065290382967309e+01 -1.0035184828481863e-01
    1.2012191406989986e+01 -8.3833838333928115e-02 1. 0.
    9.1975780678481218e+00 -1.1004081437106428e-01
    1.1242021179530175e+01 -8.9667167932444058e-02
    8.6781299569933310e+00 -1.1680434139522429e-01
    1.8312190839256051e+01 -5.4772255750516606e-02
    1.4198767904999364e+01 -7.0781495039877185e-02
    5.8706188609216472e+00 -1.7559179045628057e-01
    1.6958034388522272e+01 -5.9175593579090677e-02
    1.2462512392675762e+01 -8.0764038437081215e-02
    1.0909103859096174e+01 -9.2450032704204863e-02
    5.5655055836125396e+00 -1.8588677672085749e-01
    1.4198767904999364e+01 -7.0781495039877185e-02
    1.2968141143619201e+01 -7.7576118506196626e-02
    1.0604409402243963e+01 -9.5154221954332679e-02
    1.5866757828995944e+01 -6.3277199716833266e-02
    9.8251915436238537e+00 -1.0285594337791672e-01
    1.8312190839256051e+01 -5.4772255750516606e-02
    1.2968141143619201e+01 -7.7576118506196626e-02
    1.3541386566673944e+01 -7.4254861532110361e-02
    1.5866757828995944e+01 -6.3277199716833266e-02
    1.2012191406989986e+01 -8.3833838333928115e-02
    6.6109638401973907e+00 -1.5489297133064672e-01
    1.0604409402243963e+01 -9.5154221954332679e-02
    8.2390441710735765e+00 -1.2321601452253603e-01 1. 0.
    6.6109638401973907e+00 -1.5489297133064672e-01
    1.6958034388522272e+01 -5.9175593579090677e-02
    2.0054986879841749e+01 -4.9987504685547732e-02
    1.4198767904999364e+01 -7.0781495039877185e-02
    1.3541386566673944e+01 -7.4254861532110361e-02
    1.0909103859096174e+01 -9.2450032704204863e-02 1. 0. 1. 0. 1. 0.
    1.1607793383580484e+01 -8.6798056208228933e-02
    1.5866757828995944e+01 -6.3277199716833266e-02
    1.2012191406989986e+01 -8.3833838333928115e-02
    6.6807308761788189e+00 -1.5319721849662296e-01
    1.2968141143619201e+01 -7.7576118506196626e-02 1. 0.
    1.4198767904999364e+01 -7.0781495039877185e-02
    4.4799559135700399e+01 -2.2332781224177665e-02
    1.4198767904999364e+01 -7.0781495039877185e-02
    1.0604409402243963e+01 -9.5154221954332679e-02
    1.4198767904999364e+01 -7.0781495039877185e-02
    9.3930287922664117e+00 -1.0769674088839853e-01
    1.1607793383580484e+01 -8.6798056208228933e-02
    1.6958034388522272e+01 -5.9175593579090677e-02
    1.2462512392675762e+01 -8.0764038437081215e-02
    1.2968141143619201e+01 -7.7576118506196626e-02
    4.4799559135700399e+01 -2.2332781224177665e-02
    1.8312190839256051e+01 -5.4772255750516606e-02
    7.0673682802187265e+00 -1.4444770662461007e-01
    2.0054986879841749e+01 -4.9987504685547732e-02
    2.0054986879841749e+01 -4.9987504685547732e-02
    1.4198767904999364e+01 -7.0781495039877185e-02
    1.2968141143619201e+01 -7.7576118506196626e-02
    2.0054986879841749e+01 -4.9987504685547732e-02 1. 0.
    9.6017137476335748e+00 -1.0530294239677898e-01
    3.1685974783869160e+01 -3.1591201180328175e-02
    1.3541386566673944e+01 -7.4254861532110361e-02
    1.0324171130043423e+01 -9.7786266934608693e-02
    1.2012191406989986e+01 -8.3833838333928115e-02
    1.0604409402243963e+01 -9.5154221954332679e-02
    1.1242021179530175e+01 -8.9667167932444058e-02
    3.1685974783869160e+01 -3.1591201180328175e-02
    1.3541386566673944e+01 -7.4254861532110361e-02
    2.5877947453769135e+01 -3.8700818724480265e-02 1. 0. 1. 0.
    5.6900532260917345e+00 -1.8153709195905832e-01
    1.6958034388522272e+01 -5.9175593579090677e-02
    1.2012191406989986e+01 -8.3833838333928115e-02
    1.4198767904999364e+01 -7.0781495039877185e-02
    1.1607793383580484e+01 -8.6798056208228933e-02
    1.5866757828995944e+01 -6.3277199716833266e-02 1. 0.
    2.0054986879841749e+01 -4.9987504685547732e-02
    1.1607793383580484e+01 -8.6798056208228933e-02
    1.4963067721862023e+01 -6.7132407525801699e-02
    5.6900532260917345e+00 -1.8153709195905832e-01
    1.1607793383580484e+01 -8.6798056208228933e-02 1. 0.
    1.3541386566673944e+01 -7.4254861532110361e-02
    6.6807308761788189e+00 -1.5319721849662296e-01
    9.3930287922664117e+00 -1.0769674088839853e-01
    1.5866757828995944e+01 -6.3277199716833266e-02
    2.2416556336823863e+01 -4.4699015626767417e-02
    1.2968141143619201e+01 -7.7576118506196626e-02 1. 0.
    1.3541386566673944e+01 -7.4254861532110361e-02
    1.4198767904999364e+01 -7.0781495039877185e-02
    1.4198767904999364e+01 -7.0781495039877185e-02
    3.1685974783869160e+01 -3.1591201180328175e-02
    1.8312190839256051e+01 -5.4772255750516606e-02
    1.4963067721862023e+01 -6.7132407525801699e-02
    1.6958034388522272e+01 -5.9175593579090677e-02
    1.1607793383580484e+01 -8.6798056208228933e-02
    2.6716191967216809e+00 -4.5015318469188842e-01
    1.6958034388522272e+01 -5.9175593579090677e-02
    1.8312190839256051e+01 -5.4772255750516606e-02
    6.1786577897286383e+00 -1.6632478596477890e-01
    7.6375416985962579e+00 -1.3325720810113112e-01
    1.2462512392675762e+01 -8.0764038437081215e-02 1. 0.
    5.3053190653853060e+00 -1.9570967639008607e-01
    9.6017137476335748e+00 -1.0530294239677898e-01
    1.8312190839256051e+01 -5.4772255750516606e-02
    8.6781299569933310e+00 -1.1680434139522429e-01
    1.2968141143619201e+01 -7.7576118506196626e-02
    1.5866757828995944e+01 -6.3277199716833266e-02
    1.1607793383580484e+01 -8.6798056208228933e-02
    6.3529064442863525e+00 -1.6151457061744964e-01 1. 0.
    1.3541386566673944e+01 -7.4254861532110361e-02
    5.2377585931815558e+00 -1.9843950801684856e-01
    5.6060645744136854e+00 -1.8444679058389993e-01
    1.3541386566673944e+01 -7.4254861532110361e-02
    1.1607793383580484e+01 -8.6798056208228933e-02
    1.4198767904999364e+01 -7.0781495039877185e-02
    1.3541386566673944e+01 -7.4254861532110361e-02
    1.0065290382967309e+01 -1.0035184828481863e-01
    2.2416556336823863e+01 -4.4699015626767417e-02
    1.3541386566673944e+01 -7.4254861532110361e-02
    1.4198767904999364e+01 -7.0781495039877185e-02
    1.3541386566673944e+01 -7.4254861532110361e-02
    1.3541386566673944e+01 -7.4254861532110361e-02
    7.6375416985962579e+00 -1.3325720810113112e-01
    1.5866757828995944e+01 -6.3277199716833266e-02
    2.2416556336823863e+01 -4.4699015626767417e-02
    1.4198767904999364e+01 -7.0781495039877185e-02
    1.2462512392675762e+01 -8.0764038437081215e-02
    1.4198767904999364e+01 -7.0781495039877185e-02
    1.5866757828995944e+01 -6.3277199716833266e-02
    1.0324171130043423e+01 -9.7786266934608693e-02
    1.0604409402243963e+01 -9.5154221954332679e-02
    1.4198767904999364e+01 -7.0781495039877185e-02
    1.3541386566673944e+01 -7.4254861532110361e-02
    2.0054986879841749e+01 -4.9987504685547732e-02
    1.4198767904999364e+01 -7.0781495039877185e-02
    1.1607793383580484e+01 -8.6798056208228933e-02
    2.5877947453769135e+01 -3.8700818724480265e-02
    1.0604409402243963e+01 -9.5154221954332679e-02 1. 0.
    1.0065290382967309e+01 -1.0035184828481863e-01
    1.2968141143619201e+01 -7.7576118506196626e-02
    6.6109638401973907e+00 -1.5489297133064672e-01
    1.4198767904999364e+01 -7.0781495039877185e-02
    1.0604409402243963e+01 -9.5154221954332679e-02
    1.1607793383580484e+01 -8.6798056208228933e-02
    9.1975780678481218e+00 -1.1004081437106428e-01
    7.7470795387236313e+00 -1.3130643285972257e-01
    1.1607793383580484e+01 -8.6798056208228933e-02
    1.5866757828995944e+01 -6.3277199716833266e-02 1. 0. 1. 0.
    1.4198767904999364e+01 -7.0781495039877185e-02
    6.5434074821684707e+00 -1.5657206338189761e-01 1. 0.
    8.8412090500664817e+00 -1.1459194182538809e-01
    5.6060645744136854e+00 -1.8444679058389993e-01
    1.3541386566673944e+01 -7.4254861532110361e-02
    1.4198767904999364e+01 -7.0781495039877185e-02
    1.2968141143619201e+01 -7.7576118506196626e-02 1. 0.
    1.1607793383580484e+01 -8.6798056208228933e-02
    3.1685974783869160e+01 -3.1591201180328175e-02
    8.1071187003698473e+00 -1.2528448639654299e-01
    2.0054986879841749e+01 -4.9987504685547732e-02
    6.7528309066313392e+00 -1.5148424267119157e-01
    1.2012191406989986e+01 -8.3833838333928115e-02
    1.5866757828995944e+01 -6.3277199716833266e-02 1. 0.
    1.1242021179530175e+01 -8.9667167932444058e-02 1. 0.
    1.0065290382967309e+01 -1.0035184828481863e-01
    1.2462512392675762e+01 -8.0764038437081215e-02
    1.0065290382967309e+01 -1.0035184828481863e-01
    1.5866757828995944e+01 -6.3277199716833266e-02
    1.1607793383580484e+01 -8.6798056208228933e-02
    5.6060645744136854e+00 -1.8444679058389993e-01
    1.4198767904999364e+01 -7.0781495039877185e-02
    1.4198767904999364e+01 -7.0781495039877185e-02
    9.6017137476335748e+00 -1.0530294239677898e-01 1. 0.
    1.1607793383580484e+01 -8.6798056208228933e-02
    1.2968141143619201e+01 -7.7576118506196626e-02
    1.8312190839256051e+01 -5.4772255750516606e-02
    1.4198767904999364e+01 -7.0781495039877185e-02
    1.2968141143619201e+01 -7.7576118506196626e-02
    1.1607793383580484e+01 -8.6798056208228933e-02
    5.6900532260917345e+00 -1.8153709195905832e-01
    1.4198767904999364e+01 -7.0781495039877185e-02
    1.4963067721862023e+01 -6.7132407525801699e-02
    1.2968141143619201e+01 -7.7576118506196626e-02
    1.3541386566673944e+01 -7.4254861532110361e-02
    1.4198767904999364e+01 -7.0781495039877185e-02
    3.1685974783869160e+01 -3.1591201180328175e-02
    1.2462512392675762e+01 -8.0764038437081215e-02
    1.6958034388522272e+01 -5.9175593579090677e-02
    1.3541386566673944e+01 -7.4254861532110361e-02
    1.4963067721862023e+01 -6.7132407525801699e-02
    2.7241558446648111e+00 -4.3727725921339439e-01
    9.8251915436238537e+00 -1.0285594337791672e-01 1. 0.
    3.7562118382362577e+00 -2.8836322187855618e-01 1. 0.
    1.6958034388522272e+01 -5.9175593579090677e-02 1. 0.
    9.0140235127796835e+00 -1.1233827907252845e-01
    1.3541386566673944e+01 -7.4254861532110361e-02 1. 0.
    1.5866757828995944e+01 -6.3277199716833266e-02
    1.5866757828995944e+01 -6.3277199716833266e-02
    1.4963067721862023e+01 -6.7132407525801699e-02
    4.3738595393498017e+00 -2.4202313502882750e-01
    7.2426324346772191e+00 -1.4080890575892899e-01
    1.4198767904999364e+01 -7.0781495039877185e-02
    1.3541386566673944e+01 -7.4254861532110361e-02
    1.4198767904999364e+01 -7.0781495039877185e-02
    1.8312190839256051e+01 -5.4772255750516606e-02
    1.3541386566673944e+01 -7.4254861532110361e-02
    1.3541386566673944e+01 -7.4254861532110361e-02
    1.4963067721862023e+01 -6.7132407525801699e-02
    2.2416556336823863e+01 -4.4699015626767417e-02
    6.5434074821684707e+00 -1.5657206338189761e-01
    1.1607793383580484e+01 -8.6798056208228933e-02
    1.3541386566673944e+01 -7.4254861532110361e-02
    1.4198767904999364e+01 -7.0781495039877185e-02
    1.0909103859096174e+01 -9.2450032704204863e-02 1. 0.
    1.4963067721862023e+01 -6.7132407525801699e-02
    1.2462512392675762e+01 -8.0764038437081215e-02
    1.0604409402243963e+01 -9.5154221954332679e-02
    1.3541386566673944e+01 -7.4254861532110361e-02
    1.8312190839256051e+01 -5.4772255750516606e-02 1. 0.
    1.1242021179530175e+01 -8.9667167932444058e-02
    2.0054986879841749e+01 -4.9987504685547732e-02
    2.5877947453769135e+01 -3.8700818724480265e-02
    2.9533070774182941e+00 -3.9014275947948551e-01
    1.0065290382967309e+01 -1.0035184828481863e-01
    1.0065290382967309e+01 -1.0035184828481863e-01
    1.2462512392675762e+01 -8.0764038437081215e-02
    1.8312190839256051e+01 -5.4772255750516606e-02
    1.1242021179530175e+01 -8.9667167932444058e-02
    1.1607793383580484e+01 -8.6798056208228933e-02
    1.1607793383580484e+01 -8.6798056208228933e-02 1. 0.
    1.4198767904999364e+01 -7.0781495039877185e-02
    9.1975780678481218e+00 -1.1004081437106428e-01
    6.6807308761788189e+00 -1.5319721849662296e-01
    1.5866757828995944e+01 -6.3277199716833266e-02
    6.6109638401973907e+00 -1.5489297133064672e-01
    1.5866757828995944e+01 -6.3277199716833266e-02
    9.6017137476335748e+00 -1.0530294239677898e-01
    1.4963067721862023e+01 -6.7132407525801699e-02
    8.1071187003698473e+00 -1.2528448639654299e-01
    1.2012191406989986e+01 -8.3833838333928115e-02
    1.4198767904999364e+01 -7.0781495039877185e-02
    2.0054986879841749e+01 -4.9987504685547732e-02
    2.2416556336823863e+01 -4.4699015626767417e-02
    1.4198767904999364e+01 -7.0781495039877185e-02 1. 0.
    1.2462512392675762e+01 -8.0764038437081215e-02
    7.7470795387236313e+00 -1.3130643285972257e-01
    1.5866757828995944e+01 -6.3277199716833266e-02
    2.0054986879841749e+01 -4.9987504685547732e-02
    1.8312190839256051e+01 -5.4772255750516606e-02
    1.5866757828995944e+01 -6.3277199716833266e-02
    2.0054986879841749e+01 -4.9987504685547732e-02
    8.6781299569933310e+00 -1.1680434139522429e-01
    1.1607793383580484e+01 -8.6798056208228933e-02
    1.4198767904999364e+01 -7.0781495039877185e-02
    1.1607793383580484e+01 -8.6798056208228933e-02
    6.6807308761788189e+00 -1.5319721849662296e-01
    1.2012191406989986e+01 -8.3833838333928115e-02
    1.1607793383580484e+01 -8.6798056208228933e-02
    1.5866757828995944e+01 -6.3277199716833266e-02
    1.2462512392675762e+01 -8.0764038437081215e-02
    1.3541386566673944e+01 -7.4254861532110361e-02
    6.5434074821684707e+00 -1.5657206338189761e-01
    1.3541386566673944e+01 -7.4254861532110361e-02
    3.1685974783869160e+01 -3.1591201180328175e-02
    9.6017137476335748e+00 -1.0530294239677898e-01
    1.5866757828995944e+01 -6.3277199716833266e-02
    1.2012191406989986e+01 -8.3833838333928115e-02
    1.4198767904999364e+01 -7.0781495039877185e-02
    2.5877947453769135e+01 -3.8700818724480265e-02
    6.6109638401973907e+00 -1.5489297133064672e-01
    7.5326287797751830e+00 -1.3518177271779991e-01
    1.5866757828995944e+01 -6.3277199716833266e-02
    1.6958034388522272e+01 -5.9175593579090677e-02
    1.1607793383580484e+01 -8.6798056208228933e-02 1. 0.
    2.2416556336823863e+01 -4.4699015626767417e-02
    1.6958034388522272e+01 -5.9175593579090677e-02
    8.6781299569933310e+00 -1.1680434139522429e-01
    4.4799559135700399e+01 -2.2332781224177665e-02
    1.4198767904999364e+01 -7.0781495039877185e-02
    1.2012191406989986e+01 -8.3833838333928115e-02
    1.1607793383580484e+01 -8.6798056208228933e-02 1. 0.
    1.0604409402243963e+01 -9.5154221954332679e-02
    1.0324171130043423e+01 -9.7786266934608693e-02
    8.8412090500664817e+00 -1.1459194182538809e-01
    5.0801092528451939e+00 -2.0512903762734833e-01
    1.4198767904999364e+01 -7.0781495039877185e-02
    1.2012191406989986e+01 -8.3833838333928115e-02 1. 0.
    1.2012191406989986e+01 -8.3833838333928115e-02
    1.3541386566673944e+01 -7.4254861532110361e-02
    9.8251915436238537e+00 -1.0285594337791672e-01
    5.1413423763353503e+00 -2.0247559707402427e-01
    3.1685974783869160e+01 -3.1591201180328175e-02
    3.1685974783869160e+01 -3.1591201180328175e-02
    1.5866757828995944e+01 -6.3277199716833266e-02
    1.1607793383580484e+01 -8.6798056208228933e-02
    1.4198767904999364e+01 -7.0781495039877185e-02
    1.4198767904999364e+01 -7.0781495039877185e-02
    3.1685974783869160e+01 -3.1591201180328175e-02
    1.0324171130043423e+01 -9.7786266934608693e-02
    1.4198767904999364e+01 -7.0781495039877185e-02
    1.3541386566673944e+01 -7.4254861532110361e-02
    6.9845035393091228e+00 -1.4623586672531563e-01
    1.5866757828995944e+01 -6.3277199716833266e-02
    4.4799559135700399e+01 -2.2332781224177665e-02
    1.1607793383580484e+01 -8.6798056208228933e-02
    6.6109638401973907e+00 -1.5489297133064672e-01
    5.9679126186516660e+00 -1.7255181050937021e-01
    1.3541386566673944e+01 -7.4254861532110361e-02
    1.0065290382967309e+01 -1.0035184828481863e-01
    1.2968141143619201e+01 -7.7576118506196626e-02
    4.4799559135700399e+01 -2.2332781224177665e-02
    1.5866757828995944e+01 -6.3277199716833266e-02
    7.0673682802187265e+00 -1.4444770662461007e-01
    1.2968141143619201e+01 -7.7576118506196626e-02
    1.4198767904999364e+01 -7.0781495039877185e-02
    9.6017137476335748e+00 -1.0530294239677898e-01 1. 0. 1. 0.
    1.3541386566673944e+01 -7.4254861532110361e-02
    1.5866757828995944e+01 -6.3277199716833266e-02
    1.2462512392675762e+01 -8.0764038437081215e-02
    4.2669938690353701e+00 -2.4887252376726735e-01
    1.4198767904999364e+01 -7.0781495039877185e-02
    1.4198767904999364e+01 -7.0781495039877185e-02
    8.5239083087336400e+00 -1.1897778297335090e-01
    1.6958034388522272e+01 -5.9175593579090677e-02
    1.3541386566673944e+01 -7.4254861532110361e-02
    1.2012191406989986e+01 -8.3833838333928115e-02
    1.6958034388522272e+01 -5.9175593579090677e-02
    1.4198767904999364e+01 -7.0781495039877185e-02
    8.6781299569933310e+00 -1.1680434139522429e-01
    1.3541386566673944e+01 -7.4254861532110361e-02
    1.2968141143619201e+01 -7.7576118506196626e-02
    5.6475681805868634e+00 -1.8299697494424033e-01
    1.4198767904999364e+01 -7.0781495039877185e-02
    2.5877947453769135e+01 -3.8700818724480265e-02
    1.0909103859096174e+01 -9.2450032704204863e-02
    1.1607793383580484e+01 -8.6798056208228933e-02
    4.5519488238817107e+00 -2.3145502494313785e-01
    1.2462512392675762e+01 -8.0764038437081215e-02
    1.2968141143619201e+01 -7.7576118506196626e-02
    1.4198767904999364e+01 -7.0781495039877185e-02
    9.3930287922664117e+00 -1.0769674088839853e-01
    1.0324171130043423e+01 -9.7786266934608693e-02
    4.4799559135700399e+01 -2.2332781224177665e-02 1. 0. 1. 0.
    1.4198767904999364e+01 -7.0781495039877185e-02 1. 0.
    1.3541386566673944e+01 -7.4254861532110361e-02
    1.4198767904999364e+01 -7.0781495039877185e-02
    1.4198767904999364e+01 -7.0781495039877185e-02
    1.3541386566673944e+01 -7.4254861532110361e-02
    1.3541386566673944e+01 -7.4254861532110361e-02
    2.0054986879841749e+01 -4.9987504685547732e-02
    2.2416556336823863e+01 -4.4699015626767417e-02
    1.4963067721862023e+01 -6.7132407525801699e-02
    1.5866757828995944e+01 -6.3277199716833266e-02 1. 0.
    1.1242021179530175e+01 -8.9667167932444058e-02
    1.8312190839256051e+01 -5.4772255750516606e-02
    5.6060645744136854e+00 -1.8444679058389993e-01
    6.6109638401973907e+00 -1.5489297133064672e-01
    5.6060645744136854e+00 -1.8444679058389993e-01
    1.5866757828995944e+01 -6.3277199716833266e-02 1. 0.
    1.0065290382967309e+01 -1.0035184828481863e-01
    1.0909103859096174e+01 -9.2450032704204863e-02
    6.4779482735021388e+00 -1.5823502761794855e-01
    1.2462512392675762e+01 -8.0764038437081215e-02
    1.6958034388522272e+01 -5.9175593579090677e-02
    1.0909103859096174e+01 -9.2450032704204863e-02
    1.8312190839256051e+01 -5.4772255750516606e-02
    1.1242021179530175e+01 -8.9667167932444058e-02
    4.4699348737505122e+00 -2.3619795444544081e-01
    4.3738595393498017e+00 -2.4202313502882750e-01
    1.3541386566673944e+01 -7.4254861532110361e-02
    1.2968141143619201e+01 -7.7576118506196626e-02
    1.5866757828995944e+01 -6.3277199716833266e-02
    1.2968141143619201e+01 -7.7576118506196626e-02
    1.2968141143619201e+01 -7.7576118506196626e-02
    1.8312190839256051e+01 -5.4772255750516606e-02
    1.6958034388522272e+01 -5.9175593579090677e-02
    1.2968141143619201e+01 -7.7576118506196626e-02
    1.8312190839256051e+01 -5.4772255750516606e-02
    1.5866757828995944e+01 -6.3277199716833266e-02
    1.4198767904999364e+01 -7.0781495039877185e-02
    1.1607793383580484e+01 -8.6798056208228933e-02
    1.4198767904999364e+01 -7.0781495039877185e-02
    1.4198767904999364e+01 -7.0781495039877185e-02
    1.6958034388522272e+01 -5.9175593579090677e-02
    1.0604409402243963e+01 -9.5154221954332679e-02
    1.5866757828995944e+01 -6.3277199716833266e-02
    1.0065290382967309e+01 -1.0035184828481863e-01
    4.5309881064758457e+00 -2.3264794365254840e-01
    1.1607793383580484e+01 -8.6798056208228933e-02
    1.2462512392675762e+01 -8.0764038437081215e-02
    1.2012191406989986e+01 -8.3833838333928115e-02
    1.4198767904999364e+01 -7.0781495039877185e-02
    1.1242021179530175e+01 -8.9667167932444058e-02
    1.4198767904999364e+01 -7.0781495039877185e-02
    6.3529064442863525e+00 -1.6151457061744964e-01
    1.0909103859096174e+01 -9.2450032704204863e-02
    1.1242021179530175e+01 -8.9667167932444058e-02
    1.4963067721862023e+01 -6.7132407525801699e-02
    1.2462512392675762e+01 -8.0764038437081215e-02
    8.8412090500664817e+00 -1.1459194182538809e-01
    9.8251915436238537e+00 -1.0285594337791672e-01
    8.1071187003698473e+00 -1.2528448639654299e-01
    6.9845035393091228e+00 -1.4623586672531563e-01
    1.4198767904999364e+01 -7.0781495039877185e-02
    1.2462512392675762e+01 -8.0764038437081215e-02
    9.3930287922664117e+00 -1.0769674088839853e-01
    1.0909103859096174e+01 -9.2450032704204863e-02
    1.2462512392675762e+01 -8.0764038437081215e-02
    1.3541386566673944e+01 -7.4254861532110361e-02
    1.0324171130043423e+01 -9.7786266934608693e-02
    1.1242021179530175e+01 -8.9667167932444058e-02
    7.7470795387236313e+00 -1.3130643285972257e-01
    1.2012191406989986e+01 -8.3833838333928115e-02
    1.0604409402243963e+01 -9.5154221954332679e-02
    1.0909103859096174e+01 -9.2450032704204863e-02
    4.2669938690353701e+00 -2.4887252376726735e-01
    1.3541386566673944e+01 -7.4254861532110361e-02
    1.2968141143619201e+01 -7.7576118506196626e-02
    1.1607793383580484e+01 -8.6798056208228933e-02
    1.4963067721862023e+01 -6.7132407525801699e-02
    1.0604409402243963e+01 -9.5154221954332679e-02
    9.8251915436238537e+00 -1.0285594337791672e-01
    1.3541386566673944e+01 -7.4254861532110361e-02
    1.3541386566673944e+01 -7.4254861532110361e-02
    1.8312190839256051e+01 -5.4772255750516606e-02
    1.0909103859096174e+01 -9.2450032704204863e-02
    1.4963067721862023e+01 -6.7132407525801699e-02
    1.4198767904999364e+01 -7.0781495039877185e-02
    1.0604409402243963e+01 -9.5154221954332679e-02
    1.1242021179530175e+01 -8.9667167932444058e-02
    1.4198767904999364e+01 -7.0781495039877185e-02
    1.6958034388522272e+01 -5.9175593579090677e-02
    8.6781299569933310e+00 -1.1680434139522429e-01
    1.0909103859096174e+01 -9.2450032704204863e-02
    8.8412090500664817e+00 -1.1459194182538809e-01
    1.0909103859096174e+01 -9.2450032704204863e-02
    9.0140235127796835e+00 -1.1233827907252845e-01
    1.1242021179530175e+01 -8.9667167932444058e-02
    1.3541386566673944e+01 -7.4254861532110361e-02
    1.5866757828995944e+01 -6.3277199716833266e-02
    1.2012191406989986e+01 -8.3833838333928115e-02
    1.2012191406989986e+01 -8.3833838333928115e-02
    1.3541386566673944e+01 -7.4254861532110361e-02
    1.6958034388522272e+01 -5.9175593579090677e-02
    1.5866757828995944e+01 -6.3277199716833266e-02
    6.9045686351696496e+00 -1.4800421301709618e-01
    9.8251915436238537e+00 -1.0285594337791672e-01
    1.2462512392675762e+01 -8.0764038437081215e-02
    1.4963067721862023e+01 -6.7132407525801699e-02
    1.4963067721862023e+01 -6.7132407525801699e-02
    7.0673682802187265e+00 -1.4444770662461007e-01
    1.8312190839256051e+01 -5.4772255750516606e-02
    1.2462512392675762e+01 -8.0764038437081215e-02
    1.2462512392675762e+01 -8.0764038437081215e-02
    6.7528309066313392e+00 -1.5148424267119157e-01
    1.1607793383580484e+01 -8.6798056208228933e-02
    1.1607793383580484e+01 -8.6798056208228933e-02
    1.1607793383580484e+01 -8.6798056208228933e-02
    1.0324171130043423e+01 -9.7786266934608693e-02
    7.8615904616149717e+00 -1.2932825784311769e-01
    2.2416556336823863e+01 -4.4699015626767417e-02
    7.9814604390183508e+00 -1.2732140281584606e-01
    1.2462512392675762e+01 -8.0764038437081215e-02
    1.2012191406989986e+01 -8.3833838333928115e-02
    5.6475681805868634e+00 -1.8299697494424033e-01
    9.6017137476335748e+00 -1.0530294239677898e-01
    1.8312190839256051e+01 -5.4772255750516606e-02
    1.4963067721862023e+01 -6.7132407525801699e-02
    1.2012191406989986e+01 -8.3833838333928115e-02
    7.5326287797751830e+00 -1.3518177271779991e-01
    1.2012191406989986e+01 -8.3833838333928115e-02
    1.2462512392675762e+01 -8.0764038437081215e-02
    2.5877947453769135e+01 -3.8700818724480265e-02
    8.8412090500664817e+00 -1.1459194182538809e-01
    9.8251915436238537e+00 -1.0285594337791672e-01 1. 0.
    1.4198767904999364e+01 -7.0781495039877185e-02
    3.1685974783869160e+01 -3.1591201180328175e-02
    1.6958034388522272e+01 -5.9175593579090677e-02
    1.6958034388522272e+01 -5.9175593579090677e-02
    3.1685974783869160e+01 -3.1591201180328175e-02
    1.6958034388522272e+01 -5.9175593579090677e-02
    3.1685974783869160e+01 -3.1591201180328175e-02
    2.2416556336823863e+01 -4.4699015626767417e-02
    1.8312190839256051e+01 -5.4772255750516606e-02
    1.0065290382967309e+01 -1.0035184828481863e-01
    8.6781299569933310e+00 -1.1680434139522429e-01
    8.5239083087336400e+00 -1.1897778297335090e-01
    1.0065290382967309e+01 -1.0035184828481863e-01
    3.1685974783869160e+01 -3.1591201180328175e-02</input_scale>
  <output_scale>
    5.2631578947368418e-01 4.9999999999999994e-01 5.2631578947368418e-01
    4.9999999999999994e-01</output_scale>
  <inv_output_scale>
    1.8999999999999999e+00 -9.4999999999999996e-01
    1.8999999999999999e+00 -9.4999999999999996e-01</inv_output_scale>
  <weights>
    <_>
      7.9426234995664462e+00 1.6951039853872041e+00
      -4.5150787829578620e-01 1.0526776838777905e+00
      -1.0325056521946074e+00 1.3774557488558536e+00
      -1.3200136420217315e-01 7.6111322884877741e-01
      1.2097333383814910e+00 3.6380317419935144e+00
      1.7015168812834622e+00 -3.8714299442012456e-01
      1.2844994194070831e+00 -6.1787686085564808e-01
      1.1923111563170221e+00 9.2574977556052229e-01
      -1.7526668899377158e+00 -6.1009714572454898e-01
      -1.7392130065355653e+00 1.1120330192222463e+00
      1.0661625091202040e+00 -4.9605333895214203e+00
      6.1152136613588515e-01 3.5332952387740342e+00
      -9.1295998462510553e-01 8.5831978267702835e-01
      -2.3388116218882371e-01 1.4165080270690225e-01
      1.1941229535565938e+00 8.4258159534766230e-01
      -1.2501376193993058e-01 9.4734423034828563e-01
      -8.0005222177619917e-01 2.5436903240233566e-01
      -2.7369247374531129e+00 -3.8237461738500633e-01
      3.0333633753904306e-02 -1.3440898218126653e+00
      -2.4080404213765039e-01 -3.5314709837482294e-01
      3.2013732355528447e+01 -2.9250812082300262e+00
      -6.0127969689638194e-01 -1.4791099882398373e+00
      4.4328547559309689e-01 -2.3514053675700461e+00
      -2.3316732134396451e-01 -4.3057826902531771e-01
      -6.8751917844432853e-01 -3.3867406505824698e+00
      -3.5570794299457081e-01 3.8020756415277751e-01
      -2.6367949305525545e-01 -3.4769600410920237e-01
      -2.3443490424414204e+00 -1.2071419790221356e+00
      3.1975250389881773e+00 3.0891132478621963e+00
      -3.7055892764732952e+00 -1.6169189682967848e+00
      5.5242636831964731e+00 1.7302932061233858e+00
      3.5905371478009668e-01 -3.1164530926993916e+00
      1.3990861113206079e+00 -1.0787506389296027e+00
      1.2296925491433701e-01 -8.5223382682120791e-02
      -1.9673046293244381e+00 3.7216894866865036e-01
      8.9049821837134252e-02 -1.9797748487439830e+00
      1.0912478216780767e-01 2.3677405780543384e-01
      8.6223165998692464e-01 3.8372676033665654e-01
      1.5404445811940972e-02 2.2495427394210648e+00
      -3.1840229275733029e-01 3.1436142541169594e+00
      2.5359678044460356e+01 -2.0183568272083359e+00
      -6.6662505068748279e-01 -7.2800646301241223e-01
      -1.0385064853499388e+00 -1.6685358484989967e+00
      -1.9073902339306600e-01 1.3076751009179695e+00
      -7.6071280876110398e-02 -3.0006297992907069e+00
      1.6304950825482485e+00 -3.6464765958240852e-01
      6.7984269982582635e-01 -6.0955643082557442e-01
      -6.4127134896782934e-01 -4.9580492782366370e-01
      2.1890211851733539e+00 1.3075132666376137e+00
      5.4465564776132247e+00 -7.7917153870837608e-01
      6.6103310662362236e-01 4.6234672711052598e+00
      6.0086779831153503e-01 -3.7096126897819723e+00
      5.8981668751928207e-01 -3.5824718586111853e-01
      -3.5795897032159540e-01 3.1374264861822165e-01
      -8.8235193590656014e-01 7.5434589819648379e-01
      -2.8606981547565458e-01 -8.9011720038427689e-01
      -9.6820620905921639e-01 4.1525622275275831e-01
      -2.3778000485201809e+00 -3.5710371810818686e-01
      1.3203799747875761e-01 1.2817519781411835e+00
      -4.1190669298669014e-01 8.8818785865389860e-01
      2.2716051296332656e+00 1.4948155523319344e+00
      4.3460404102702466e-02 2.6787082567978271e-01
      9.2715416499869419e-01 1.3118252411721345e+00
      -6.2815452183038372e-03 1.2002407379841103e-01
      1.1709360739950776e-01 4.4526567453928356e-01
      -1.6739464289423844e+00 2.0729739673786565e-01
      -6.2893899924844721e-01 1.3490043620745706e-01
      5.4567656048705337e-01 2.0972354944877225e-01
      -1.5775570473762244e+00 -1.6518247573623950e+00
      -3.6551485942073438e+00 1.8876436112290876e-01
      -2.5923175439070301e+00 -1.3094841918098423e+00
      -1.1858506266734865e-01 -2.3108858302498949e+00
      -1.0455454722242044e-01 2.6751623756785570e-01
      1.5735096212846467e-01 -1.3704708224240048e-01
      -9.9470139543553757e-02 -8.8215428831187562e-02
      1.1504407445952815e-01 1.0081909868038901e+00
      -6.5938319890763014e-02 -8.1477261680556225e-03
      2.5422774153764478e+00 1.9001035437861119e-01
      -6.1580170104568566e-02 -1.2630520408172519e-01
      9.6294091897577913e-02 -1.9399742894871983e+00
      1.5027303358651470e-01 -1.7374424971591352e-02
      -2.6497880608177229e-02 -2.2399524281716678e-02
      1.0083092236074181e-02 -1.9704845626527152e-02
      -4.0845114269748767e-02 9.5579159671218879e-03
      -6.9727446952677402e-05 -9.8538705960913488e-03
      -2.4418520941570453e-02 4.1990170919291352e-02
      2.5493922487427535e-02 -3.1389171842871558e-02
      -2.3086251515945531e-02 -1.9089726425925019e-02
      1.6490340149314237e-02 -1.2775096617962101e-02
      -4.5803797672263079e-02 -2.5630702790530910e-02
      -3.7430209773247583e-02 5.9776503998413798e-02
      3.1962155150572207e-02 -5.2058728109061689e-02
      2.6088700129414149e-02 -1.4322722905376541e-02
      4.1714883532180197e-02 -4.4883939750687551e-02
      -2.9581062163061382e-02 2.2315522285750618e-02
      4.8121669925147839e-02 -1.3768513028942376e-02
      -1.2009427708839155e-02 3.2489502157558948e-02
      -1.5923779393020804e-01 4.4110193235057694e-02
      -3.8864630897593670e-02 3.1325113475193969e-02
      3.2165597579805826e-02 5.4052562731627792e-02
      1.2236126207725961e-03 2.6340311076220626e-04
      9.2839392328749552e-04 1.1273987238945304e-03
      9.6015590369737298e-04 7.7532301577462915e-05
      5.7638844554589407e-04 -9.9315356161795753e-04
      1.1323118916055643e-03 1.5589217599374364e-04
      5.7144520239278262e-04 8.3754903868560597e-04
      -8.2163157607046745e-04 8.4064092940690336e-04
      -1.0873727806470959e-03 -5.4953867330511373e-04
      -1.0336254141011033e-03 1.0571705973050436e-03
      -1.4847345078318502e-04 1.8483917971242358e-04
      3.4103533288380044e-04 4.8778663705634537e-04
      1.9482021313159482e-04 -1.0270178681493307e-03
      -9.0410521831783136e-04 -2.3178760787516520e-04
      3.1022613449032034e-04 6.0247522322311674e-04
      -9.9934610293750175e-04 -5.9561723447729793e-04
      -9.3094958716062495e-04 2.3773416170473578e-04
      3.8396378542648294e-04 -1.0863245880286135e-03
      1.3015018577115542e-03 4.9189845144344550e-04
      8.6377003619565274e-04 -5.6415965403962265e-04
      8.2822582089995015e-04 8.4573759365481947e-04
      1.4081506721560136e-01 2.4701697392027766e-02
      3.8627221527459198e-02 1.8312680598153608e-02
      9.4928680010138072e-02 2.3249451447636887e-02
      -2.3082699931416449e-02 -1.0135734120978897e-02
      1.9967584211546124e-02 -1.5657332739863628e-01
      -9.4831470959428163e-02 5.6484478799199607e-03
      6.3847072668239385e-02 -1.2930518814850307e-03
      -1.0299827608702419e-01 1.5822162976779700e-02
      -2.4334146044346881e-02 -5.0470947029580250e-02
      -4.8031024680080914e-02 1.9342283979286095e-02
      1.2963728891223017e-01 -1.6108197803509794e-01
      -2.7674946928172407e-04 3.5546537040189112e-02
      -3.9341184532872150e-02 5.5835099292447701e-04
      1.6473999550441768e-02 -1.8804269371977524e-02
      2.6528844263582169e-02 -1.7920017418795859e-02
      2.2521246673464737e-02 -6.1562082856926686e-02
      5.7831145989325925e-03 2.1258079170598319e-02
      -1.0190021165912391e-01 4.7829028438113258e-03
      -3.9736715845036692e-02 -3.2736853781192496e-02
      4.3031966398360467e-02 8.1280070372911836e-02
      8.1594947415987251e-01 -7.5047945778094705e-02
      3.0188190298309728e-02 1.4622682225564215e-02
      -4.8265862459989761e-02 -2.6723207764088805e-03
      4.4540476838350867e-03 1.1681536009234645e-02
      -4.2822537891222527e-02 1.0908299605227233e-02
      -2.5350462345836575e-02 -9.1963444426022712e-03
      4.1491547421308145e-02 1.0851938725331427e-02
      1.1483289392039697e-02 1.6553016832580637e-02
      8.7411877344943045e-02 7.7412694492958539e-02
      5.9347677089251219e-02 1.2721680075559072e-02
      -2.5626633607992548e-02 7.6860906377657051e-02
      -1.4733830183784607e-02 -1.2177195303368131e-01
      4.9350723262998240e-02 1.8549090195105204e-02
      -1.5426534306811400e-02 -5.3683516843151657e-03
      7.6985446255665117e-03 -2.0181631485756177e-02
      1.2437788193211702e-03 2.6081068623263867e-02
      -4.3086880079579908e-03 -1.4682326433786112e-02
      5.1339344213939771e-02 -9.9003019033053839e-03
      1.2804074844870410e-02 6.7562092245665130e-03
      -2.1286459339353928e-02 -2.8016754262587432e-02
      2.9688972564966676e-01 4.6844148832583685e-02
      4.5272276300654279e-02 5.6426842724005798e-02
      7.3108045501367389e-02 5.1080019845781179e-02
      2.6674122738597299e-02 -3.4476132128807374e-02
      6.7049360077130124e-02 -1.2505213474673332e-01
      -5.6878745961258151e-02 -3.7375180601272207e-02
      -1.5894366475785789e-02 3.1369128314594402e-02
      -8.9561431242457745e-02 5.8124728313359880e-02
      -4.6491287160926743e-02 -6.0385927437361729e-02
      -4.2891556590883076e-02 5.6665844401208136e-02
      -2.7024168690659267e-02 -9.6551531769767301e-02
      -3.3410430200383874e-02 4.3643524159808635e-02
      -7.4605565343974500e-02 5.3772099403185912e-02
      -3.2338138612161754e-02 3.4112606446476824e-02
      5.8807205301624435e-02 -4.2136985853133475e-02
      -3.2322810371693912e-02 -5.9901284950043604e-04
      3.4999326618702316e-02 -2.5413606910415436e-02
      -1.5678186291257651e-01 -3.9116670707475154e-02
      3.0958921675186893e-03 -6.5475022400352689e-02
      2.3573295849260625e-02 8.8075298096301283e-02
      -5.5319541705984809e-01 -6.7786777644462032e-02
      -4.0677604751354943e-02 -6.7939442032428118e-02
      -3.3628448772243115e-02 -6.1051477471581024e-02
      -7.6322427112522309e-02 7.1172613240310212e-02
      -5.6559565235581706e-02 -8.5402003734280391e-02
      6.2854042459453002e-02 8.3602842457766099e-02
      -4.7456562401345923e-02 -6.9180904420341291e-02
      -5.4549750082823263e-02 -6.2065674480247406e-02
      6.8110657232558658e-02 3.0340023911091307e-02
      2.1404038505772119e-02 -7.3532071772259844e-02
      3.0954247264577649e-03 7.5547482992752754e-02
      6.5116892831650300e-02 -1.2791764069734060e-01
      7.1068526902280257e-02 -6.2134737497326217e-02
      7.2991674557886757e-02 -7.7663259439259447e-02
      -8.5846865278480983e-02 5.6909491520541526e-02
      7.6705459421849351e-02 -2.9121093733705486e-02
      -5.9366229621425737e-02 4.6562489118526486e-02
      -1.3206929972260917e-02 8.3906317012686693e-02
      -4.8157964198395374e-02 9.0399553212397649e-02
      3.5523938161132050e-02 3.3940773510814280e-02
      9.4787237164836086e-02 2.4312469947316093e-02
      2.8141305651902249e-02 2.1960196817131749e-02
      3.3301668023902282e-02 2.4455432971481585e-02
      3.0515723679585292e-02 6.4613496284265298e-02
      3.8023985512556223e-02 -1.1995468150685877e-02
      -1.0754211137490406e-02 -2.0951797729231034e-02
      1.6434007853279260e-02 2.8726198566615600e-02
      -2.4729628948575753e-02 2.3909990779447492e-02
      -2.9688214403809487e-02 -5.1956829069495107e-02
      4.3330050204670387e-02 1.9673894152306359e-02
      -6.5122865547329434e-02 -9.9986941893221826e-02
      -2.8236279393379381e-02 -9.8638091123075915e-03
      -3.7785549614969959e-02 2.2393400708459556e-02
      -2.6868334095581543e-02 3.1496867709552186e-02
      1.6669625950127845e-02 7.5742517936763232e-03
      -3.0674135684884547e-02 -1.0805262233225799e-03
      -5.2100343470935284e-02 -2.8291295534158434e-02
      -9.3221011565787729e-02 -2.0584816626463429e-02
      2.5054080926571545e-02 -1.9967173134226291e-02
      -2.4717388668271372e-02 -4.0412836873401178e-02
      4.7299126376663003e-01 -5.7836931422501327e-02
      -2.1923476793724198e-02 -5.5079486027517666e-02
      -4.7992216757962317e-03 -5.4900139631425253e-02
      -4.8948159031641222e-02 4.0260112867687714e-02
      -4.5038238025415574e-02 -7.5653023397500407e-02
      3.4166327440489884e-02 6.1901078839522158e-02
      -4.1302947493778816e-02 -4.0827054734937605e-02
      -4.8805347959492443e-02 -5.0503034088417650e-02
      6.0496375257772836e-02 3.2391727763628204e-02
      3.9792088868960641e-03 -6.1289928389310001e-02
      2.3363626071028425e-02 6.6364632545590441e-02
      3.8846128532324831e-02 -1.1687939494714618e-01
      5.4554135353154308e-02 -4.8495994037728793e-02
      5.1283471497477272e-02 -5.2789993083081438e-02
      -7.0980749252322187e-02 3.0901974929838125e-02
      5.2682577831343044e-02 -3.2126226626829159e-02
      -3.1616394895530413e-02 2.8307639658120151e-02
      1.5814968496667470e-01 6.2871540533737877e-02
      -3.0915787339384965e-02 7.4885028635150938e-02
      3.5895862732589115e-02 2.5937596059416455e-02
      1.1760127875091386e+00 -5.0786454642122211e-02
      6.9299244001179650e-02 -7.3226423237067906e-02
      9.0937781375519694e-02 -6.3797936102073710e-02
      -5.6496781228451427e-02 3.7677110409913825e-02
      -8.2298351857035559e-02 -2.8843842457237950e-02
      -8.5923160384253447e-02 7.3498044791260445e-02
      -1.0610236684075609e-01 -3.6865204968811773e-02
      5.8821254414069208e-03 -6.7858897580318475e-02
      3.6066568364983689e-02 4.5747160097717961e-02
      1.1937881107915302e-01 -7.5845213213257684e-02
      -3.9993554951126969e-02 -4.4107508063940461e-02
      2.3415452533217314e-02 -1.5461655336363428e-01
      6.9861743588189765e-02 -7.0621309142486779e-02
      6.5933436578093613e-02 -6.5794123064368798e-02
      -8.6141410918951430e-02 6.7916926133256630e-03
      6.5560995718239437e-02 1.0467625740059418e-02
      -4.3921627397786794e-02 -3.9113263642453003e-02
      1.1551830102720806e-01 7.2823562174943096e-02
      -3.8666275957957054e-02 9.4130637227580791e-02
      8.1093209777854544e-02 -3.4604864603418731e-02
      9.7667940864253069e-05 1.0860159412336716e-03
      6.7883820489832852e-04 1.5906981698715129e-04
      -4.8030595207392191e-04 -8.1740609644861181e-04
      -4.0134215041008386e-04 -1.1942214735321045e-03
      -6.4358444301324609e-04 5.8633066338281899e-05
      -1.0634338170039716e-03 2.3566027610333210e-05
      -4.9862370615360468e-04 9.3739265592565689e-04
      -5.7313518618973670e-04 -7.4828996413172863e-04
      4.8712843988916934e-04 2.3899852033251937e-04
      2.9709150462634590e-04 -1.1260651826545060e-03
      6.9495007573560998e-05 -1.6521958248906122e-04
      1.1426477104235276e-03 6.2626086151124885e-04
      1.2840024211098467e-03 -9.4526975094279866e-05
      7.2353255692476426e-04 1.0640841906330530e-03
      9.3025120711064417e-04 1.0595536807127979e-03
      -8.5984085394542702e-04 -5.7868116106760299e-04
      -6.5146578345058614e-04 6.7491489065900421e-04
      -4.8363985363822457e-04 1.7122608382417036e-04
      -9.0268202346694131e-04 4.8484812552642255e-04
      9.6239041316657518e-05 1.4181611378245908e-04
      4.7374472923671518e-01 -5.8372173016514962e-02
      -2.1907209163254841e-02 -5.4410803441184569e-02
      -6.0238175266099344e-03 -5.3091271444922657e-02
      -4.8751985410026955e-02 3.8524691214717285e-02
      -4.7142727593967461e-02 -7.5388408312368205e-02
      3.3255396597641283e-02 6.1979536877282145e-02
      -4.0866200168659383e-02 -4.1267607478977168e-02
      -4.9288684377846143e-02 -5.0459032797375250e-02
      6.0773203546869797e-02 3.1332075758148989e-02
      5.6057877999667648e-03 -6.1492273509377478e-02
      2.3345917811782198e-02 6.5823122831740299e-02
      3.8818739044159459e-02 -1.1727070347066267e-01
      5.6533127561149761e-02 -4.9679962397951610e-02
      5.1730580913857148e-02 -5.4791105303178045e-02
      -7.0640352105760043e-02 3.0425283430472811e-02
      5.3866308083727346e-02 -3.2558076378359786e-02
      -3.3322175975082052e-02 2.8474936551984548e-02
      1.5649558286852761e-01 6.2845634185910645e-02
      -3.2073270144643569e-02 7.3749414795926019e-02
      3.6452616191039677e-02 2.7865886587854608e-02
      2.9780800561089127e-01 4.6415271312506251e-02
      4.6789745244881401e-02 5.5317728657442618e-02
      7.2831876683129307e-02 5.1311179042361245e-02
      2.6630883913907288e-02 -3.3958274289981757e-02
      6.5806286508297632e-02 -1.2517642088865955e-01
      -5.7369375645355075e-02 -3.7501539138084544e-02
      -1.7652833278624647e-02 3.1368863806401137e-02
      -9.0364101612175757e-02 5.7510468103858001e-02
      -4.5997796876669488e-02 -5.8841902890988548e-02
      -4.4198717632641743e-02 5.6766612751641070e-02
      -2.4813694091869488e-02 -9.8162665197676274e-02
      -3.2870915337980193e-02 4.3991812952039903e-02
      -7.3936035605646183e-02 5.2758315022385600e-02
      -3.3212476334212815e-02 3.3033806446861720e-02
      5.9115870233558743e-02 -4.2607760365874221e-02
      -3.2401369700374570e-02 -6.4804716071038067e-04
      3.5141469287080056e-02 -2.5400330400646626e-02
      -1.5718610844699171e-01 -3.9259298268948223e-02
      2.8077044624314042e-03 -6.5258118824593231e-02
      2.3820999806524686e-02 8.9384697992570220e-02
      3.9666263192007369e-02 -2.1460083808337634e-02
      -1.9075167941080707e-02 -2.7375789015227522e-02
      2.0215664970222178e-02 -2.6406302648451518e-02
      -2.5328194174565135e-02 2.2709391508858555e-02
      -2.2699451517723106e-02 -8.7743340677790102e-04
      -3.2324717811493803e-04 3.2553022752687212e-02
      -1.5709006474626128e-02 -2.3357652087155904e-02
      -5.0734320080217998e-02 -2.5519832069487571e-02
      1.9156636968877254e-02 9.0320666117071555e-03
      -4.0325835981270548e-02 -2.9766507747935367e-02
      5.9099542849424067e-03 8.8704641007161286e-02
      2.1093197969809966e-02 -4.8230517691003484e-02
      2.6887164965173852e-02 -2.5864125577837675e-02
      2.6185347414703082e-02 -2.8647615852769502e-02
      -3.4694473842489443e-02 1.6521039621370089e-02
      2.6957564124908701e-02 -1.9515530919451698e-02
      -1.9877216918579695e-02 2.5894117257935580e-02
      -7.7150083174756618e-03 3.2812660298026805e-02
      -2.5593272522171414e-02 3.7267494702486137e-02
      1.7389861946522270e-02 2.8454368004049116e-02
      9.5508097081968046e-01 -5.4121197058515196e-02
      6.7303793881016358e-02 3.2520732984054383e-02
      1.5101417513080079e-01 -9.6770989783194102e-03
      1.0717469133083989e-02 -6.6178767638742600e-02
      9.8143135605410162e-03 -1.8552733388433894e-02
      -1.8093031639986443e-01 -2.3058447712453294e-02
      3.9291260025815719e-02 5.1062144175312414e-02
      6.4610410993991658e-03 3.7877734771429340e-02
      1.5062352059440309e-01 1.3619274698638237e-01
      -1.7357429720983902e-02 3.3190627031712973e-02
      1.1384866952813347e-01 1.0741781789460497e-01
      -5.2011891111832499e-02 -4.9797045927543450e-02
      -9.4098346231191888e-03 3.5932661015957421e-02
      -1.7656583797197502e-02 -2.8279402498425775e-02
      2.2391710456263248e-02 -7.1954035584478965e-02
      1.6924675835246542e-02 2.4741847238021347e-02
      6.0599274762301328e-02 -3.4080482350210058e-02
      1.2943954326174464e-01 -2.4025643232425706e-02
      -2.2366426617722005e-03 -9.7723759884874410e-03
      -1.7732562988406489e-02 -2.5339458551853669e-02
      5.9720879269000504e-01 1.8567488449154356e-02
      4.0109651653771901e-02 2.5297400765838234e-02
      -3.8741262012343555e-02 2.1063235120551138e-02
      2.4133886576559901e-02 -3.2300468042964110e-02
      -1.2695565144867471e-02 5.7232381884495809e-02
      5.2715639095414747e-02 -1.7996951324862991e-02
      -2.1637359446966719e-02 3.1897351206107941e-02
      2.2644804799756460e-02 2.3994628842125779e-02
      -1.8237156015639855e-02 -1.8610132055435893e-02
      -1.0861452878557226e-01 2.9760388379908166e-02
      8.8205732474936141e-02 8.1126675816704283e-02
      -3.3474097318642738e-02 7.5672055153804457e-02
      -3.4685350418005211e-02 1.4282624578035925e-02
      -1.6246928369076014e-02 2.5476941334278691e-02
      3.7785090493787456e-02 -4.2150233406506865e-02
      -1.9323814047896598e-02 2.8129154296710920e-02
      3.3808973542033174e-02 -1.4194799151878185e-02
      -6.1712278199179613e-02 -2.0301725361237710e-02
      -1.3493754104956387e-02 -3.6107176261944526e-02
      3.7292829674846636e-02 6.0702668349856923e-02
      -1.9603147464088672e-01 4.5210875341782281e-02
      7.7723873721901385e-02 1.4343648697870345e-01
      8.0674780729699358e-02 5.9299962948177722e-02
      1.3056473047558040e-01 -9.4319375920232609e-02
      1.0621674999375501e-01 1.5852177581488294e-02
      -1.1560294777997981e-01 -1.5218340645589828e-01
      9.4128649386988908e-02 1.1620725594636212e-01
      -1.7527327686188286e-02 1.3974863156281425e-01
      -3.2901143859355587e-02 1.9622998697044522e-02
      -1.5864903249769463e-01 1.5768975500332333e-01
      1.0352490640078522e-01 1.9221632848046613e-01
      -1.1027124415829936e-01 2.2574965640391889e-01
      -1.6617339033346026e-01 1.2723173125423717e-01
      -1.4131150284492544e-01 1.5346118549394391e-01
      1.8727299361908586e-01 -1.0311759039120440e-01
      -1.4591806084705142e-01 3.0466671599543117e-02
      9.4737720483638682e-02 -7.0439921889412976e-02
      -3.7031451508884670e-02 -1.4923545435047089e-01
      7.3901082088790856e-02 -1.8379738824936925e-01
      -6.7456615462661115e-02 1.0051325783719696e-01
      -2.2104894968022507e-01 -4.5861125282025975e-02
      -1.9775776062918003e-02 -4.4582251297073619e-02
      -1.9587424794544478e-02 -4.2303358256487650e-02
      -3.9637101512499634e-02 3.2424391191165046e-02
      -3.5103311129679106e-02 -6.1903467774030912e-02
      4.1875410216083229e-02 4.7255140622758138e-02
      -2.8341293076878868e-02 -3.2936801281752859e-02
      -3.8120146738750180e-02 -4.0249957910812872e-02
      4.7198147198042738e-02 2.8188780522725790e-02
      6.1969818617578887e-02 -4.7969204503905016e-02
      2.0998210900394748e-02 6.0119563445765960e-02
      3.1823040492042085e-02 -9.3159497830468355e-02
      4.5205879710946209e-02 -3.9137432063296292e-02
      4.0991354870129171e-02 -4.1157759034188710e-02
      -5.5615099442680310e-02 2.7350587609284709e-02
      4.1429538924099403e-02 -2.4564903490786442e-02
      -2.8115660012499138e-02 2.2503260575318269e-02
      -1.1322028173866756e-02 4.9629631294379140e-02
      -2.1261682895383639e-02 5.8284393926605615e-02
      -9.3107147555440469e-03 2.6524686573794354e-02
      -1.0426432399436414e+00 -5.7847263764350759e-02
      -2.1830959018252487e-02 -5.3516673597729242e-02
      -1.3243008604961470e-02 -5.3765750651517702e-02
      -4.7673002810793251e-02 3.7229805140226481e-02
      -4.5798210670196328e-02 -7.5271088255803212e-02
      5.6040016452451033e-02 5.9622976256430038e-02
      -3.8946638116312333e-02 -3.9495911247187168e-02
      -5.9770854329437552e-02 -4.7819514861150804e-02
      5.9762973783015684e-02 3.2178159565081667e-02
      -1.0397347501550756e-01 -5.8824939750758844e-02
      3.8347445775153151e-02 3.3006013102344293e-02
      3.6843914990134952e-02 -1.1364363212720742e-01
      5.4741958242943131e-02 -4.8369643129194180e-02
      5.0091103505025818e-02 -5.1049131015826602e-02
      -6.9188867767375595e-02 2.9924438599952585e-02
      5.1389151106555619e-02 -3.0939705540954082e-02
      -3.1123591804373987e-02 2.4867978637891548e-02
      -2.8304888153293187e-02 5.9968847979736846e-02
      -2.8770606842782011e-02 7.1096235499666885e-02
      2.8200248277379433e-02 6.5402563974805386e-02
      3.9555323169811402e-01 -9.2925754316670640e-03
      1.7497435962653498e-03 1.5266650474930345e-02
      2.4902351558826107e-02 -6.6463360023256259e-03
      -8.0982860803844679e-03 2.5325903171348679e-02
      1.2491420773655455e-02 -6.2231680738562299e-02
      -6.2618198009503573e-03 -1.1339667706556198e-02
      -7.8604689827061446e-03 -1.2510995022683354e-02
      -9.3297481952711592e-03 1.7572262421217892e-02
      1.0271903635025533e-02 -1.5178895825744547e-02
      -2.0627693284884447e-03 1.3540824012651449e-02
      -1.7481592190474314e-02 -3.5276286783413338e-02
      9.7208198559591893e-03 -4.5958708148852535e-02
      -1.7169736301452746e-02 1.8878166871190580e-02
      -1.0072854297041963e-02 8.0871594684707047e-04
      5.3290488581965844e-03 9.4857394710977944e-03
      6.8163202681918082e-04 -1.6731062103676386e-03
      -1.8537828772770822e-02 5.8868409391174157e-03
      -2.9234568363693966e-02 -9.7404351096808915e-03
      -5.0349732383899257e-03 -1.1871760694801652e-03
      1.6755604733347052e-03 -1.2611293848856097e-02
      4.0409050845347760e-01 -5.9388620890327690e-02
      1.6901711260972428e-02 1.8224661024019186e-02
      5.3766184988894072e-02 -2.4460216367134500e-02
      -8.7455276136216425e-03 2.3744398619950972e-04
      -5.2011382345468496e-02 -1.1181168033031701e-01
      6.2915197770915560e-02 -2.1202013084328521e-03
      -5.7610157012456684e-02 3.3219773299516470e-03
      -4.0145716394711428e-02 1.7718099937861630e-02
      7.7460753341297636e-02 7.2717336702009347e-02
      1.3902933463798814e-01 1.7554303014243506e-02
      4.9086329785553738e-02 -6.2072100720624045e-02
      -2.2975909379705627e-03 -1.2100717854461594e-01
      -1.7264469860118262e-02 1.7137824237151107e-02
      -2.3561479766782516e-03 -3.6143098558170691e-03
      2.7433429540994907e-02 -2.1123154106911540e-02
      5.3077116760065343e-03 -9.6435580968301602e-03
      1.0369695408943065e-02 3.2146908683772617e-03
      -8.4396166639458758e-02 -2.3622546703982905e-03
      -6.9155938337241308e-03 -2.3285746252135080e-02
      -2.3360679620871650e-03 5.8359302165829019e-02
      9.0425426371838291e-01 -1.3055782534014226e-03
      -9.3080923718216659e-03 -2.8210347085069375e-02
      1.4312568637434376e-02 3.6948346569006564e-03
      -3.7980509161912146e-02 3.9367021801359425e-02
      -2.9320000719223454e-02 1.4512667836294955e-02
      5.2207686750249817e-02 3.9303440757800658e-02
      1.7204998448805811e-02 -4.3888623848969230e-02
      2.0357243882702387e-02 -2.4967980881879525e-02
      -5.4164459212070629e-04 5.6581506573854306e-03
      9.4334212006783547e-02 -3.4559605957825458e-02
      -3.6769360512673649e-03 3.0002783242039335e-02
      4.0631122160827760e-02 -1.8405208512355564e-01
      4.4338429718978618e-02 -2.2657741696303742e-02
      3.1520211775611831e-02 -3.7463678014618966e-02
      -5.0978405524751268e-02 4.2348673112903197e-02
      3.4897539108110262e-02 1.2386956135270353e-02
      -4.3431724551177435e-02 9.7394521586410005e-03
      7.1029023847633113e-02 3.9874252543467936e-02
      -6.9777905882912918e-03 5.6921847503675030e-02
      5.7924546435312863e-03 -3.4839026803476003e-02
      3.5253418729517684e-02 6.1518013103914783e-02
      4.5418827158626274e-02 9.1520389008862071e-02
      3.7020200623606184e-02 6.7339637201537766e-02
