<?xml version="1.0"?>
<opencv_storage>
<my_nn type_id="opencv-ml-ann-mlp">
  <layer_sizes type_id="opencv-matrix">
    <rows>1</rows>
    <cols>3</cols>
    <dt>i</dt>
    <data>
      1558 80 2</data></layer_sizes>
  <activation_function>SIGMOID_SYM</activation_function>
  <f_param1>5.9999999999999998e-01</f_param1>
  <f_param2>1.</f_param2>
  <min_val>-9.4999999999999996e-01</min_val>
  <max_val>9.4999999999999996e-01</max_val>
  <min_val1>-9.7999999999999998e-01</min_val1>
  <max_val1>9.7999999999999998e-01</max_val1>
  <training_params>
    <train_method>BACKPROP</train_method>
    <dw_scale>1.0000000000000001e-01</dw_scale>
    <moment_scale>1.0000000000000001e-01</moment_scale>
    <term_criteria><epsilon>9.9999999747524271e-07</epsilon>
      <iterations>1000</iterations></term_criteria></training_params>
  <input_scale>
    1.8300191378858792e-02 -1.1539702932589053e+00
    7.8304672878783538e-03 -1.1857029409908404e+00
    1.9390390195944518e-01 -7.1541311034052679e-01
    2.3540320703752764e+00 -1.7977951803663625e+00
    2.0054986879841753e+01 -4.9987504685547732e-02 1. 0.
    1.1607793383580484e+01 -8.6798056208228933e-02
    1.3541386566673944e+01 -7.4254861532110361e-02
    1.3541386566673944e+01 -7.4254861532110361e-02
    7.8615904616149734e+00 -1.2932825784311769e-01
    1.4963067721862023e+01 -6.7132407525801685e-02
    1.1242021179530175e+01 -8.9667167932444058e-02
    9.6017137476335748e+00 -1.0530294239677898e-01 1. 0.
    1.1242021179530175e+01 -8.9667167932444058e-02
    1.3541386566673944e+01 -7.4254861532110361e-02
    2.2416556336823863e+01 -4.4699015626767417e-02
    1.2968141143619201e+01 -7.7576118506196612e-02
    1.1607793383580484e+01 -8.6798056208228933e-02
    1.6958034388522272e+01 -5.9175593579090677e-02
    1.4198767904999368e+01 -7.0781495039877199e-02
    1.1607793383580484e+01 -8.6798056208228933e-02
    1.2462512392675764e+01 -8.0764038437081215e-02
    1.2012191406989986e+01 -8.3833838333928115e-02
    1.4198767904999368e+01 -7.0781495039877199e-02
    1.5866757828995944e+01 -6.3277199716833266e-02
    3.1685974783869160e+01 -3.1591201180328175e-02
    1.0065290382967309e+01 -1.0035184828481861e-01
    1.6958034388522272e+01 -5.9175593579090677e-02
    4.4799559135700399e+01 -2.2332781224177665e-02
    1.6958034388522272e+01 -5.9175593579090677e-02
    1.2968141143619201e+01 -7.7576118506196612e-02
    1.6958034388522272e+01 -5.9175593579090677e-02 1. 0.
    6.4144806782925263e+00 -1.5988236984776985e-01
    1.2462512392675764e+01 -8.0764038437081215e-02
    1.4198767904999368e+01 -7.0781495039877199e-02
    1.3541386566673944e+01 -7.4254861532110361e-02 1. 0.
    1.3541386566673944e+01 -7.4254861532110361e-02
    1.3541386566673944e+01 -7.4254861532110361e-02
    1.2462512392675764e+01 -8.0764038437081215e-02
    8.5239083087336400e+00 -1.1897778297335090e-01
    1.2012191406989986e+01 -8.3833838333928115e-02
    1.6958034388522272e+01 -5.9175593579090677e-02 1. 0.
    1.6958034388522272e+01 -5.9175593579090677e-02
    9.0140235127796835e+00 -1.1233827907252845e-01
    2.5877947453769139e+01 -3.8700818724480265e-02
    1.2012191406989986e+01 -8.3833838333928115e-02
    1.0909103859096174e+01 -9.2450032704204863e-02
    1.4963067721862023e+01 -6.7132407525801685e-02
    1.0604409402243963e+01 -9.5154221954332652e-02 1. 0.
    1.3541386566673944e+01 -7.4254861532110361e-02
    1.6958034388522272e+01 -5.9175593579090677e-02
    6.6109638401973907e+00 -1.5489297133064672e-01
    1.2968141143619201e+01 -7.7576118506196612e-02
    1.3541386566673944e+01 -7.4254861532110361e-02
    1.4198767904999368e+01 -7.0781495039877199e-02
    4.4799559135700399e+01 -2.2332781224177665e-02 1. 0. 1. 0.
    1.3541386566673944e+01 -7.4254861532110361e-02
    3.8018616885482008e+00 -2.8428676634208877e-01
    1.2012191406989986e+01 -8.3833838333928115e-02
    1.4198767904999368e+01 -7.0781495039877199e-02
    7.2426324346772191e+00 -1.4080890575892896e-01 1. 0.
    1.1242021179530175e+01 -8.9667167932444058e-02
    1.1242021179530175e+01 -8.9667167932444058e-02
    1.0324171130043423e+01 -9.7786266934608693e-02
    1.3541386566673944e+01 -7.4254861532110361e-02
    1.0324171130043423e+01 -9.7786266934608693e-02
    7.3354469957392476e+00 -1.3895662304989601e-01
    1.4198767904999368e+01 -7.0781495039877199e-02
    4.4799559135700399e+01 -2.2332781224177665e-02 1. 0. 1. 0.
    1.8312190839256054e+01 -5.4772255750516606e-02
    1.0909103859096174e+01 -9.2450032704204863e-02 1. 0. 1. 0.
    8.8412090500664817e+00 -1.1459194182538808e-01
    1.1607793383580484e+01 -8.6798056208228933e-02
    1.2012191406989986e+01 -8.3833838333928115e-02
    1.3541386566673944e+01 -7.4254861532110361e-02
    1.6958034388522272e+01 -5.9175593579090677e-02
    1.1242021179530175e+01 -8.9667167932444058e-02
    1.3541386566673944e+01 -7.4254861532110361e-02
    4.4799559135700399e+01 -2.2332781224177665e-02
    1.2462512392675764e+01 -8.0764038437081215e-02 1. 0.
    1.4963067721862023e+01 -6.7132407525801685e-02
    1.3541386566673944e+01 -7.4254861532110361e-02
    1.3541386566673944e+01 -7.4254861532110361e-02
    1.2462512392675764e+01 -8.0764038437081215e-02
    1.4963067721862023e+01 -6.7132407525801685e-02
    2.0054986879841753e+01 -4.9987504685547732e-02
    1.0065290382967309e+01 -1.0035184828481861e-01
    1.8312190839256054e+01 -5.4772255750516606e-02
    1.8312190839256054e+01 -5.4772255750516606e-02
    1.1607793383580484e+01 -8.6798056208228933e-02
    1.4198767904999368e+01 -7.0781495039877199e-02
    3.1685974783869160e+01 -3.1591201180328175e-02
    6.6109638401973907e+00 -1.5489297133064672e-01
    1.6958034388522272e+01 -5.9175593579090677e-02
    1.0324171130043423e+01 -9.7786266934608693e-02
    2.0054986879841753e+01 -4.9987504685547732e-02
    1.3541386566673944e+01 -7.4254861532110361e-02
    1.0909103859096174e+01 -9.2450032704204863e-02 1. 0.
    9.1975780678481218e+00 -1.1004081437106426e-01
    9.0140235127796835e+00 -1.1233827907252845e-01
    1.8312190839256054e+01 -5.4772255750516606e-02 1. 0. 1. 0.
    1.0065290382967309e+01 -1.0035184828481861e-01
    9.8251915436238537e+00 -1.0285594337791670e-01
    1.0324171130043423e+01 -9.7786266934608693e-02
    6.9845035393091228e+00 -1.4623586672531561e-01 1. 0.
    1.3541386566673944e+01 -7.4254861532110361e-02
    1.2968141143619201e+01 -7.7576118506196612e-02
    1.3541386566673944e+01 -7.4254861532110361e-02 1. 0.
    1.4963067721862023e+01 -6.7132407525801685e-02
    4.4799559135700399e+01 -2.2332781224177665e-02
    1.1607793383580484e+01 -8.6798056208228933e-02
    1.8312190839256054e+01 -5.4772255750516606e-02
    1.1607793383580484e+01 -8.6798056208228933e-02
    1.2968141143619201e+01 -7.7576118506196612e-02
    1.0324171130043423e+01 -9.7786266934608693e-02
    6.4144806782925263e+00 -1.5988236984776985e-01
    1.1607793383580484e+01 -8.6798056208228933e-02
    1.2462512392675764e+01 -8.0764038437081215e-02
    2.0054986879841753e+01 -4.9987504685547732e-02
    4.4799559135700399e+01 -2.2332781224177665e-02
    1.1607793383580484e+01 -8.6798056208228933e-02
    9.3930287922664117e+00 -1.0769674088839852e-01
    1.6958034388522272e+01 -5.9175593579090677e-02
    1.2462512392675764e+01 -8.0764038437081215e-02
    1.4963067721862023e+01 -6.7132407525801685e-02
    1.3541386566673944e+01 -7.4254861532110361e-02
    1.2012191406989986e+01 -8.3833838333928115e-02
    6.1786577897286383e+00 -1.6632478596477890e-01 1. 0.
    1.1607793383580484e+01 -8.6798056208228933e-02
    1.4198767904999368e+01 -7.0781495039877199e-02
    1.4198767904999368e+01 -7.0781495039877199e-02
    1.5866757828995944e+01 -6.3277199716833266e-02
    9.1975780678481218e+00 -1.1004081437106426e-01
    1.3541386566673944e+01 -7.4254861532110361e-02
    1.0324171130043423e+01 -9.7786266934608693e-02
    1.4198767904999368e+01 -7.0781495039877199e-02
    1.2968141143619201e+01 -7.7576118506196612e-02
    1.0909103859096174e+01 -9.2450032704204863e-02
    1.1607793383580484e+01 -8.6798056208228933e-02
    1.1242021179530175e+01 -8.9667167932444058e-02
    2.5877947453769139e+01 -3.8700818724480265e-02
    2.5877947453769139e+01 -3.8700818724480265e-02 1. 0. 1. 0.
    1.2462512392675764e+01 -8.0764038437081215e-02 1. 0.
    2.2416556336823863e+01 -4.4699015626767417e-02
    1.4963067721862023e+01 -6.7132407525801685e-02
    8.6781299569933310e+00 -1.1680434139522429e-01
    1.3541386566673944e+01 -7.4254861532110361e-02
    1.2462512392675764e+01 -8.0764038437081215e-02 1. 0.
    1.2968141143619201e+01 -7.7576118506196612e-02
    5.6900532260917345e+00 -1.8153709195905832e-01
    8.5239083087336400e+00 -1.1897778297335090e-01
    2.2416556336823863e+01 -4.4699015626767417e-02
    2.5877947453769139e+01 -3.8700818724480265e-02
    1.4198767904999368e+01 -7.0781495039877199e-02
    1.2012191406989986e+01 -8.3833838333928115e-02
    1.0604409402243963e+01 -9.5154221954332652e-02 1. 0.
    1.4198767904999368e+01 -7.0781495039877199e-02
    1.4198767904999368e+01 -7.0781495039877199e-02
    1.6958034388522272e+01 -5.9175593579090677e-02
    4.4799559135700399e+01 -2.2332781224177665e-02 1. 0. 1. 0.
    9.0140235127796835e+00 -1.1233827907252845e-01
    2.1481246981231847e+00 -6.8213132238507901e-01
    1.4198767904999368e+01 -7.0781495039877199e-02
    1.2968141143619201e+01 -7.7576118506196612e-02
    8.6781299569933310e+00 -1.1680434139522429e-01
    1.4198767904999368e+01 -7.0781495039877199e-02
    2.6003136563288565e+00 -4.6924902472135888e-01
    1.3541386566673944e+01 -7.4254861532110361e-02
    1.8312190839256054e+01 -5.4772255750516606e-02
    9.8251915436238537e+00 -1.0285594337791670e-01
    4.4799559135700399e+01 -2.2332781224177665e-02
    1.4198767904999368e+01 -7.0781495039877199e-02
    1.6958034388522272e+01 -5.9175593579090677e-02
    9.6017137476335748e+00 -1.0530294239677898e-01
    1.1607793383580484e+01 -8.6798056208228933e-02
    1.2968141143619201e+01 -7.7576118506196612e-02
    1.5866757828995944e+01 -6.3277199716833266e-02 1. 0.
    1.1242021179530175e+01 -8.9667167932444058e-02
    1.3541386566673944e+01 -7.4254861532110361e-02
    1.2012191406989986e+01 -8.3833838333928115e-02 1. 0.
    1.1607793383580484e+01 -8.6798056208228933e-02
    1.3541386566673944e+01 -7.4254861532110361e-02
    1.0065290382967309e+01 -1.0035184828481861e-01
    1.4198767904999368e+01 -7.0781495039877199e-02
    1.1242021179530175e+01 -8.9667167932444058e-02
    1.0065290382967309e+01 -1.0035184828481861e-01
    1.6958034388522272e+01 -5.9175593579090677e-02
    1.3541386566673944e+01 -7.4254861532110361e-02
    1.2968141143619201e+01 -7.7576118506196612e-02
    1.3541386566673944e+01 -7.4254861532110361e-02
    9.1975780678481218e+00 -1.1004081437106426e-01 1. 0.
    1.1607793383580484e+01 -8.6798056208228933e-02
    4.4799559135700399e+01 -2.2332781224177665e-02
    1.4198767904999368e+01 -7.0781495039877199e-02
    1.3541386566673944e+01 -7.4254861532110361e-02
    1.2462512392675764e+01 -8.0764038437081215e-02
    1.2968141143619201e+01 -7.7576118506196612e-02
    9.8251915436238537e+00 -1.0285594337791670e-01
    1.4963067721862023e+01 -6.7132407525801685e-02
    1.0604409402243963e+01 -9.5154221954332652e-02
    1.0324171130043423e+01 -9.7786266934608693e-02
    1.3541386566673944e+01 -7.4254861532110361e-02
    7.8615904616149734e+00 -1.2932825784311769e-01
    4.4799559135700399e+01 -2.2332781224177665e-02
    9.1975780678481218e+00 -1.1004081437106426e-01
    6.6109638401973907e+00 -1.5489297133064672e-01
    7.0673682802187265e+00 -1.4444770662461007e-01
    1.1607793383580484e+01 -8.6798056208228933e-02
    2.0054986879841753e+01 -4.9987504685547732e-02
    1.0324171130043423e+01 -9.7786266934608693e-02
    1.5866757828995944e+01 -6.3277199716833266e-02
    1.4198767904999368e+01 -7.0781495039877199e-02
    6.5434074821684707e+00 -1.5657206338189758e-01 1. 0.
    1.2968141143619201e+01 -7.7576118506196612e-02 1. 0.
    8.5239083087336400e+00 -1.1897778297335090e-01
    1.0909103859096174e+01 -9.2450032704204863e-02
    1.2968141143619201e+01 -7.7576118506196612e-02
    1.4198767904999368e+01 -7.0781495039877199e-02 1. 0.
    1.4963067721862023e+01 -6.7132407525801685e-02
    1.0909103859096174e+01 -9.2450032704204863e-02
    1.4963067721862023e+01 -6.7132407525801685e-02
    2.5877947453769139e+01 -3.8700818724480265e-02
    1.2462512392675764e+01 -8.0764038437081215e-02 1. 0.
    1.1607793383580484e+01 -8.6798056208228933e-02
    1.1242021179530175e+01 -8.9667167932444058e-02
    2.0054986879841753e+01 -4.9987504685547732e-02
    3.1685974783869160e+01 -3.1591201180328175e-02
    1.4198767904999368e+01 -7.0781495039877199e-02 1. 0.
    1.2462512392675764e+01 -8.0764038437081215e-02
    1.0065290382967309e+01 -1.0035184828481861e-01
    6.7528309066313401e+00 -1.5148424267119157e-01
    6.5434074821684707e+00 -1.5657206338189758e-01 1. 0.
    1.2968141143619201e+01 -7.7576118506196612e-02
    1.2968141143619201e+01 -7.7576118506196612e-02
    1.3541386566673944e+01 -7.4254861532110361e-02
    1.2012191406989986e+01 -8.3833838333928115e-02
    1.3541386566673944e+01 -7.4254861532110361e-02
    1.3541386566673944e+01 -7.4254861532110361e-02
    2.0054986879841753e+01 -4.9987504685547732e-02
    2.6003136563288565e+00 -4.6924902472135888e-01
    8.5239083087336400e+00 -1.1897778297335090e-01
    3.1685974783869160e+01 -3.1591201180328175e-02 1. 0.
    1.2462512392675764e+01 -8.0764038437081215e-02 1. 0. 1. 0.
    1.2462512392675764e+01 -8.0764038437081215e-02
    9.8251915436238537e+00 -1.0285594337791670e-01 1. 0.
    2.0054986879841753e+01 -4.9987504685547732e-02
    1.2012191406989986e+01 -8.3833838333928115e-02
    1.2462512392675764e+01 -8.0764038437081215e-02
    1.1242021179530175e+01 -8.9667167932444058e-02
    1.4963067721862023e+01 -6.7132407525801685e-02 1. 0.
    1.4963067721862023e+01 -6.7132407525801685e-02
    1.4198767904999368e+01 -7.0781495039877199e-02
    1.3541386566673944e+01 -7.4254861532110361e-02
    1.4198767904999368e+01 -7.0781495039877199e-02
    1.4198767904999368e+01 -7.0781495039877199e-02
    9.6017137476335748e+00 -1.0530294239677898e-01
    1.3541386566673944e+01 -7.4254861532110361e-02
    8.3777731219601375e+00 -1.2111436716692121e-01
    1.5866757828995944e+01 -6.3277199716833266e-02
    9.1975780678481218e+00 -1.1004081437106426e-01
    1.3541386566673944e+01 -7.4254861532110361e-02
    1.0065290382967309e+01 -1.0035184828481861e-01
    1.4198767904999368e+01 -7.0781495039877199e-02
    9.1975780678481218e+00 -1.1004081437106426e-01
    1.1242021179530175e+01 -8.9667167932444058e-02
    1.5866757828995944e+01 -6.3277199716833266e-02
    1.4198767904999368e+01 -7.0781495039877199e-02
    4.4799559135700399e+01 -2.2332781224177665e-02 1. 0.
    1.4198767904999368e+01 -7.0781495039877199e-02
    1.2012191406989986e+01 -8.3833838333928115e-02
    1.3541386566673944e+01 -7.4254861532110361e-02
    1.2462512392675764e+01 -8.0764038437081215e-02
    1.2012191406989986e+01 -8.3833838333928115e-02 1. 0.
    1.4198767904999368e+01 -7.0781495039877199e-02
    2.5877947453769139e+01 -3.8700818724480265e-02
    9.3930287922664117e+00 -1.0769674088839852e-01
    2.0054986879841753e+01 -4.9987504685547732e-02
    6.6109638401973907e+00 -1.5489297133064672e-01
    1.6958034388522272e+01 -5.9175593579090677e-02
    1.2462512392675764e+01 -8.0764038437081215e-02
    1.0065290382967309e+01 -1.0035184828481861e-01
    1.0065290382967309e+01 -1.0035184828481861e-01
    1.3541386566673944e+01 -7.4254861532110361e-02
    4.4799559135700399e+01 -2.2332781224177665e-02
    1.2462512392675764e+01 -8.0764038437081215e-02
    1.8312190839256054e+01 -5.4772255750516606e-02
    1.6958034388522272e+01 -5.9175593579090677e-02
    1.1242021179530175e+01 -8.9667167932444058e-02
    8.3777731219601375e+00 -1.2111436716692121e-01
    1.1607793383580484e+01 -8.6798056208228933e-02
    1.3541386566673944e+01 -7.4254861532110361e-02
    1.3541386566673944e+01 -7.4254861532110361e-02
    1.2462512392675764e+01 -8.0764038437081215e-02 1. 0.
    5.6900532260917345e+00 -1.8153709195905832e-01
    1.4198767904999368e+01 -7.0781495039877199e-02
    9.8251915436238537e+00 -1.0285594337791670e-01
    1.2462512392675764e+01 -8.0764038437081215e-02
    7.4320257992567234e+00 -1.3708123358549290e-01
    1.2012191406989986e+01 -8.3833838333928115e-02
    2.2416556336823863e+01 -4.4699015626767417e-02
    1.2968141143619201e+01 -7.7576118506196612e-02
    1.4963067721862023e+01 -6.7132407525801685e-02 1. 0.
    6.1786577897286383e+00 -1.6632478596477890e-01
    6.5434074821684707e+00 -1.5657206338189758e-01
    1.5866757828995944e+01 -6.3277199716833266e-02
    2.0054986879841753e+01 -4.9987504685547732e-02
    1.2012191406989986e+01 -8.3833838333928115e-02
    4.3925369109434662e+00 -2.4086692931394876e-01
    1.3541386566673944e+01 -7.4254861532110361e-02 1. 0.
    2.2416556336823863e+01 -4.4699015626767417e-02
    1.4198767904999368e+01 -7.0781495039877199e-02
    1.1242021179530175e+01 -8.9667167932444058e-02
    1.0324171130043423e+01 -9.7786266934608693e-02
    1.3541386566673944e+01 -7.4254861532110361e-02
    5.6900532260917345e+00 -1.8153709195905832e-01
    1.2968141143619201e+01 -7.7576118506196612e-02
    6.6109638401973907e+00 -1.5489297133064672e-01
    1.0909103859096174e+01 -9.2450032704204863e-02
    1.1242021179530175e+01 -8.9667167932444058e-02
    1.3541386566673944e+01 -7.4254861532110361e-02
    1.3541386566673944e+01 -7.4254861532110361e-02
    6.7528309066313401e+00 -1.5148424267119157e-01
    1.2012191406989986e+01 -8.3833838333928115e-02 1. 0.
    1.3541386566673944e+01 -7.4254861532110361e-02
    4.4799559135700399e+01 -2.2332781224177665e-02
    6.6109638401973907e+00 -1.5489297133064672e-01
    4.4799559135700399e+01 -2.2332781224177665e-02
    1.4963067721862023e+01 -6.7132407525801685e-02
    1.4198767904999368e+01 -7.0781495039877199e-02
    1.4198767904999368e+01 -7.0781495039877199e-02
    1.0065290382967309e+01 -1.0035184828481861e-01
    6.6109638401973907e+00 -1.5489297133064672e-01
    1.1607793383580484e+01 -8.6798056208228933e-02
    3.1685974783869160e+01 -3.1591201180328175e-02
    1.4198767904999368e+01 -7.0781495039877199e-02
    1.0324171130043423e+01 -9.7786266934608693e-02 1. 0.
    1.2462512392675764e+01 -8.0764038437081215e-02
    8.5239083087336400e+00 -1.1897778297335090e-01
    1.1242021179530175e+01 -8.9667167932444058e-02
    7.9814604390183508e+00 -1.2732140281584606e-01 1. 0. 1. 0.
    1.1607793383580484e+01 -8.6798056208228933e-02 1. 0.
    1.1607793383580484e+01 -8.6798056208228933e-02
    1.5866757828995944e+01 -6.3277199716833266e-02
    1.1607793383580484e+01 -8.6798056208228933e-02
    2.0054986879841753e+01 -4.9987504685547732e-02
    1.4198767904999368e+01 -7.0781495039877199e-02
    1.4198767904999368e+01 -7.0781495039877199e-02
    1.2012191406989986e+01 -8.3833838333928115e-02
    6.9045686351696505e+00 -1.4800421301709618e-01
    1.6958034388522272e+01 -5.9175593579090677e-02
    1.4198767904999368e+01 -7.0781495039877199e-02
    4.4799559135700399e+01 -2.2332781224177665e-02
    1.1607793383580484e+01 -8.6798056208228933e-02
    1.1242021179530175e+01 -8.9667167932444058e-02
    1.3541386566673944e+01 -7.4254861532110361e-02
    1.1607793383580484e+01 -8.6798056208228933e-02
    3.1685974783869160e+01 -3.1591201180328175e-02
    1.1242021179530175e+01 -8.9667167932444058e-02
    1.0065290382967309e+01 -1.0035184828481861e-01
    1.2462512392675764e+01 -8.0764038437081215e-02
    4.4799559135700399e+01 -2.2332781224177665e-02
    9.8251915436238537e+00 -1.0285594337791670e-01
    1.6958034388522272e+01 -5.9175593579090677e-02 1. 0. 1. 0.
    1.0909103859096174e+01 -9.2450032704204863e-02
    1.3541386566673944e+01 -7.4254861532110361e-02
    1.4963067721862023e+01 -6.7132407525801685e-02
    1.4198767904999368e+01 -7.0781495039877199e-02
    1.2462512392675764e+01 -8.0764038437081215e-02
    4.0475725769778741e+00 -2.6432303468798679e-01 1. 0.
    1.4198767904999368e+01 -7.0781495039877199e-02
    1.6958034388522272e+01 -5.9175593579090677e-02
    1.4198767904999368e+01 -7.0781495039877199e-02
    1.2968141143619201e+01 -7.7576118506196612e-02
    2.5877947453769139e+01 -3.8700818724480265e-02
    1.2968141143619201e+01 -7.7576118506196612e-02
    2.5877947453769139e+01 -3.8700818724480265e-02
    4.4699348737505122e+00 -2.3619795444544081e-01
    1.2968141143619201e+01 -7.7576118506196612e-02
    2.2416556336823863e+01 -4.4699015626767417e-02
    1.2968141143619201e+01 -7.7576118506196612e-02
    1.8312190839256054e+01 -5.4772255750516606e-02
    6.6109638401973907e+00 -1.5489297133064672e-01
    1.2012191406989986e+01 -8.3833838333928115e-02
    4.4799559135700399e+01 -2.2332781224177665e-02
    1.4198767904999368e+01 -7.0781495039877199e-02 1. 0.
    1.8312190839256054e+01 -5.4772255750516606e-02
    1.2968141143619201e+01 -7.7576118506196612e-02
    9.0140235127796835e+00 -1.1233827907252845e-01
    1.3541386566673944e+01 -7.4254861532110361e-02
    1.4198767904999368e+01 -7.0781495039877199e-02
    1.4198767904999368e+01 -7.0781495039877199e-02
    1.4198767904999368e+01 -7.0781495039877199e-02
    1.4198767904999368e+01 -7.0781495039877199e-02 1. 0.
    1.3541386566673944e+01 -7.4254861532110361e-02
    1.2012191406989986e+01 -8.3833838333928115e-02
    1.2462512392675764e+01 -8.0764038437081215e-02
    1.5866757828995944e+01 -6.3277199716833266e-02
    1.4963067721862023e+01 -6.7132407525801685e-02
    1.4198767904999368e+01 -7.0781495039877199e-02 1. 0.
    3.8018616885482008e+00 -2.8428676634208877e-01
    3.1685974783869160e+01 -3.1591201180328175e-02
    5.3401514198301356e+00 -1.9433252923609165e-01
    1.3541386566673944e+01 -7.4254861532110361e-02
    1.4963067721862023e+01 -6.7132407525801685e-02 1. 0.
    2.5877947453769139e+01 -3.8700818724480265e-02 1. 0.
    1.2968141143619201e+01 -7.7576118506196612e-02
    1.5866757828995944e+01 -6.3277199716833266e-02
    1.0065290382967309e+01 -1.0035184828481861e-01 1. 0. 1. 0.
    1.3541386566673944e+01 -7.4254861532110361e-02 1. 0.
    1.2462512392675764e+01 -8.0764038437081215e-02
    1.2012191406989986e+01 -8.3833838333928115e-02
    1.4198767904999368e+01 -7.0781495039877199e-02
    1.4198767904999368e+01 -7.0781495039877199e-02
    3.1685974783869160e+01 -3.1591201180328175e-02
    1.4963067721862023e+01 -6.7132407525801685e-02
    1.3541386566673944e+01 -7.4254861532110361e-02
    1.2462512392675764e+01 -8.0764038437081215e-02
    1.6958034388522272e+01 -5.9175593579090677e-02
    1.4198767904999368e+01 -7.0781495039877199e-02
    1.4198767904999368e+01 -7.0781495039877199e-02
    1.2462512392675764e+01 -8.0764038437081215e-02
    1.4198767904999368e+01 -7.0781495039877199e-02
    2.2416556336823863e+01 -4.4699015626767417e-02
    2.0054986879841753e+01 -4.9987504685547732e-02
    1.4198767904999368e+01 -7.0781495039877199e-02 1. 0. 1. 0.
    2.5877947453769139e+01 -3.8700818724480265e-02
    1.4963067721862023e+01 -6.7132407525801685e-02
    1.4963067721862023e+01 -6.7132407525801685e-02
    4.4799559135700399e+01 -2.2332781224177665e-02
    2.0054986879841753e+01 -4.9987504685547732e-02
    1.0065290382967309e+01 -1.0035184828481861e-01 1. 0.
    1.1607793383580484e+01 -8.6798056208228933e-02
    3.1685974783869160e+01 -3.1591201180328175e-02
    1.5866757828995944e+01 -6.3277199716833266e-02 1. 0.
    1.2012191406989986e+01 -8.3833838333928115e-02
    9.0140235127796835e+00 -1.1233827907252845e-01
    1.0065290382967309e+01 -1.0035184828481861e-01
    1.2012191406989986e+01 -8.3833838333928115e-02
    1.4963067721862023e+01 -6.7132407525801685e-02 1. 0.
    1.5866757828995944e+01 -6.3277199716833266e-02
    9.3930287922664117e+00 -1.0769674088839852e-01
    1.5866757828995944e+01 -6.3277199716833266e-02
    2.0054986879841753e+01 -4.9987504685547732e-02
    1.6958034388522272e+01 -5.9175593579090677e-02
    4.4799559135700399e+01 -2.2332781224177665e-02
    1.2462512392675764e+01 -8.0764038437081215e-02
    1.8312190839256054e+01 -5.4772255750516606e-02
    1.0909103859096174e+01 -9.2450032704204863e-02
    1.0065290382967309e+01 -1.0035184828481861e-01 1. 0.
    1.4963067721862023e+01 -6.7132407525801685e-02
    1.0604409402243963e+01 -9.5154221954332652e-02
    1.4198767904999368e+01 -7.0781495039877199e-02
    1.4198767904999368e+01 -7.0781495039877199e-02
    3.6910938608345889e+00 -2.9440429597883055e-01
    6.6109638401973907e+00 -1.5489297133064672e-01
    1.4198767904999368e+01 -7.0781495039877199e-02
    1.0324171130043423e+01 -9.7786266934608693e-02
    1.3541386566673944e+01 -7.4254861532110361e-02
    8.8412090500664817e+00 -1.1459194182538808e-01
    1.5866757828995944e+01 -6.3277199716833266e-02
    2.5877947453769139e+01 -3.8700818724480265e-02
    1.2968141143619201e+01 -7.7576118506196612e-02
    1.0604409402243963e+01 -9.5154221954332652e-02
    6.6109638401973907e+00 -1.5489297133064672e-01
    1.4963067721862023e+01 -6.7132407525801685e-02 1. 0.
    1.4198767904999368e+01 -7.0781495039877199e-02
    3.1685974783869160e+01 -3.1591201180328175e-02
    3.1685974783869160e+01 -3.1591201180328175e-02
    1.2012191406989986e+01 -8.3833838333928115e-02
    1.3541386566673944e+01 -7.4254861532110361e-02
    9.8251915436238537e+00 -1.0285594337791670e-01
    1.8312190839256054e+01 -5.4772255750516606e-02
    5.6900532260917345e+00 -1.8153709195905832e-01
    1.4963067721862023e+01 -6.7132407525801685e-02
    1.4198767904999368e+01 -7.0781495039877199e-02 1. 0.
    1.3541386566673944e+01 -7.4254861532110361e-02
    9.8251915436238537e+00 -1.0285594337791670e-01
    1.4198767904999368e+01 -7.0781495039877199e-02
    4.4799559135700399e+01 -2.2332781224177665e-02
    2.5702976574365768e+00 -4.7792673291318200e-01
    2.2416556336823863e+01 -4.4699015626767417e-02
    9.8251915436238537e+00 -1.0285594337791670e-01
    6.6109638401973907e+00 -1.5489297133064672e-01 1. 0.
    1.0324171130043423e+01 -9.7786266934608693e-02
    5.4870835481283429e+00 -1.8873816790670769e-01
    1.2462512392675764e+01 -8.0764038437081215e-02
    5.6900532260917345e+00 -1.8153709195905832e-01
    2.5877947453769139e+01 -3.8700818724480265e-02
    1.0604409402243963e+01 -9.5154221954332652e-02
    1.0065290382967309e+01 -1.0035184828481861e-01
    1.6958034388522272e+01 -5.9175593579090677e-02
    1.2012191406989986e+01 -8.3833838333928115e-02
    2.2416556336823863e+01 -4.4699015626767417e-02
    1.5866757828995944e+01 -6.3277199716833266e-02
    1.0065290382967309e+01 -1.0035184828481861e-01
    1.4963067721862023e+01 -6.7132407525801685e-02
    1.5866757828995944e+01 -6.3277199716833266e-02
    4.4799559135700399e+01 -2.2332781224177665e-02 1. 0. 1. 0.
    2.0054986879841753e+01 -4.9987504685547732e-02
    1.0909103859096174e+01 -9.2450032704204863e-02
    1.4198767904999368e+01 -7.0781495039877199e-02
    3.3679342586173950e+00 -3.2907034630558790e-01 1. 0.
    1.3541386566673944e+01 -7.4254861532110361e-02
    1.2462512392675764e+01 -8.0764038437081215e-02 1. 0. 1. 0.
    8.5239083087336400e+00 -1.1897778297335090e-01
    2.0054986879841753e+01 -4.9987504685547732e-02 1. 0.
    1.2968141143619201e+01 -7.7576118506196612e-02
    1.4963067721862023e+01 -6.7132407525801685e-02
    1.0909103859096174e+01 -9.2450032704204863e-02
    1.2012191406989986e+01 -8.3833838333928115e-02
    1.2462512392675764e+01 -8.0764038437081215e-02
    1.1607793383580484e+01 -8.6798056208228933e-02
    1.5866757828995944e+01 -6.3277199716833266e-02
    9.6017137476335748e+00 -1.0530294239677898e-01 1. 0.
    8.5239083087336400e+00 -1.1897778297335090e-01
    1.0604409402243963e+01 -9.5154221954332652e-02
    1.6958034388522272e+01 -5.9175593579090677e-02
    1.2968141143619201e+01 -7.7576118506196612e-02 1. 0.
    2.5877947453769139e+01 -3.8700818724480265e-02
    1.4198767904999368e+01 -7.0781495039877199e-02
    2.0054986879841753e+01 -4.9987504685547732e-02
    1.5866757828995944e+01 -6.3277199716833266e-02
    1.0324171130043423e+01 -9.7786266934608693e-02
    3.1685974783869160e+01 -3.1591201180328175e-02
    4.7804199294350749e+00 -2.1924159197807919e-01
    1.4198767904999368e+01 -7.0781495039877199e-02
    1.0324171130043423e+01 -9.7786266934608693e-02
    2.5877947453769139e+01 -3.8700818724480265e-02 1. 0.
    1.2968141143619201e+01 -7.7576118506196612e-02
    1.0065290382967309e+01 -1.0035184828481861e-01
    1.2012191406989986e+01 -8.3833838333928115e-02
    1.3541386566673944e+01 -7.4254861532110361e-02
    1.0324171130043423e+01 -9.7786266934608693e-02
    1.5866757828995944e+01 -6.3277199716833266e-02
    1.4198767904999368e+01 -7.0781495039877199e-02
    3.1685974783869160e+01 -3.1591201180328175e-02
    2.5877947453769139e+01 -3.8700818724480265e-02
    1.4198767904999368e+01 -7.0781495039877199e-02
    9.0140235127796835e+00 -1.1233827907252845e-01
    1.1607793383580484e+01 -8.6798056208228933e-02
    1.3541386566673944e+01 -7.4254861532110361e-02
    1.4198767904999368e+01 -7.0781495039877199e-02
    1.3541386566673944e+01 -7.4254861532110361e-02
    1.1607793383580484e+01 -8.6798056208228933e-02
    1.2462512392675764e+01 -8.0764038437081215e-02
    3.1685974783869160e+01 -3.1591201180328175e-02
    1.3541386566673944e+01 -7.4254861532110361e-02
    2.0054986879841753e+01 -4.9987504685547732e-02
    1.0604409402243963e+01 -9.5154221954332652e-02
    1.2462512392675764e+01 -8.0764038437081215e-02 1. 0.
    6.6109638401973907e+00 -1.5489297133064672e-01 1. 0. 1. 0.
    1.2968141143619201e+01 -7.7576118506196612e-02
    3.1685974783869160e+01 -3.1591201180328175e-02
    1.4963067721862023e+01 -6.7132407525801685e-02
    1.8312190839256054e+01 -5.4772255750516606e-02
    1.4198767904999368e+01 -7.0781495039877199e-02
    1.0604409402243963e+01 -9.5154221954332652e-02
    1.6958034388522272e+01 -5.9175593579090677e-02
    1.4963067721862023e+01 -6.7132407525801685e-02
    4.4799559135700399e+01 -2.2332781224177665e-02
    1.0909103859096174e+01 -9.2450032704204863e-02
    1.4963067721862023e+01 -6.7132407525801685e-02
    1.2012191406989986e+01 -8.3833838333928115e-02
    9.0140235127796835e+00 -1.1233827907252845e-01
    8.6781299569933310e+00 -1.1680434139522429e-01
    3.1685974783869160e+01 -3.1591201180328175e-02
    6.4144806782925263e+00 -1.5988236984776985e-01
    1.2968141143619201e+01 -7.7576118506196612e-02
    7.2426324346772191e+00 -1.4080890575892896e-01
    6.6109638401973907e+00 -1.5489297133064672e-01
    9.3930287922664117e+00 -1.0769674088839852e-01 1. 0.
    1.2462512392675764e+01 -8.0764038437081215e-02
    8.3777731219601375e+00 -1.2111436716692121e-01
    2.2416556336823863e+01 -4.4699015626767417e-02
    1.0604409402243963e+01 -9.5154221954332652e-02
    1.1607793383580484e+01 -8.6798056208228933e-02
    2.5877947453769139e+01 -3.8700818724480265e-02
    3.1685974783869160e+01 -3.1591201180328175e-02
    1.1242021179530175e+01 -8.9667167932444058e-02
    4.4799559135700399e+01 -2.2332781224177665e-02
    1.2462512392675764e+01 -8.0764038437081215e-02
    1.3541386566673944e+01 -7.4254861532110361e-02
    1.8312190839256054e+01 -5.4772255750516606e-02
    1.4198767904999368e+01 -7.0781495039877199e-02 1. 0.
    1.4198767904999368e+01 -7.0781495039877199e-02
    1.3541386566673944e+01 -7.4254861532110361e-02
    3.1685974783869160e+01 -3.1591201180328175e-02
    1.8312190839256054e+01 -5.4772255750516606e-02
    2.2416556336823863e+01 -4.4699015626767417e-02
    1.1607793383580484e+01 -8.6798056208228933e-02
    1.2012191406989986e+01 -8.3833838333928115e-02
    2.0054986879841753e+01 -4.9987504685547732e-02
    9.3930287922664117e+00 -1.0769674088839852e-01
    1.8312190839256054e+01 -5.4772255750516606e-02
    1.4198767904999368e+01 -7.0781495039877199e-02
    9.3930287922664117e+00 -1.0769674088839852e-01
    9.8251915436238537e+00 -1.0285594337791670e-01
    1.6958034388522272e+01 -5.9175593579090677e-02
    1.2968141143619201e+01 -7.7576118506196612e-02
    1.4198767904999368e+01 -7.0781495039877199e-02
    1.4963067721862023e+01 -6.7132407525801685e-02
    1.0909103859096174e+01 -9.2450032704204863e-02
    2.2416556336823863e+01 -4.4699015626767417e-02
    1.4198767904999368e+01 -7.0781495039877199e-02
    1.2462512392675764e+01 -8.0764038437081215e-02
    1.5866757828995944e+01 -6.3277199716833266e-02
    1.1607793383580484e+01 -8.6798056208228933e-02
    2.2416556336823863e+01 -4.4699015626767417e-02 1. 0.
    1.2012191406989986e+01 -8.3833838333928115e-02
    1.0909103859096174e+01 -9.2450032704204863e-02
    1.3541386566673944e+01 -7.4254861532110361e-02
    1.5866757828995944e+01 -6.3277199716833266e-02
    1.0909103859096174e+01 -9.2450032704204863e-02
    1.4198767904999368e+01 -7.0781495039877199e-02
    1.0065290382967309e+01 -1.0035184828481861e-01
    7.3354469957392476e+00 -1.3895662304989601e-01
    9.6017137476335748e+00 -1.0530294239677898e-01
    1.5866757828995944e+01 -6.3277199716833266e-02
    1.2968141143619201e+01 -7.7576118506196612e-02
    1.4198767904999368e+01 -7.0781495039877199e-02 1. 0.
    1.1607793383580484e+01 -8.6798056208228933e-02
    1.4198767904999368e+01 -7.0781495039877199e-02
    1.6958034388522272e+01 -5.9175593579090677e-02
    1.4198767904999368e+01 -7.0781495039877199e-02
    4.4799559135700399e+01 -2.2332781224177665e-02
    1.4198767904999368e+01 -7.0781495039877199e-02
    1.3541386566673944e+01 -7.4254861532110361e-02
    1.5866757828995944e+01 -6.3277199716833266e-02
    1.2012191406989986e+01 -8.3833838333928115e-02
    9.8251915436238537e+00 -1.0285594337791670e-01
    1.0909103859096174e+01 -9.2450032704204863e-02
    1.0604409402243963e+01 -9.5154221954332652e-02 1. 0.
    1.4198767904999368e+01 -7.0781495039877199e-02
    1.2462512392675764e+01 -8.0764038437081215e-02
    1.2462512392675764e+01 -8.0764038437081215e-02
    1.2968141143619201e+01 -7.7576118506196612e-02
    1.2462512392675764e+01 -8.0764038437081215e-02
    1.2462512392675764e+01 -8.0764038437081215e-02
    7.3354469957392476e+00 -1.3895662304989601e-01
    4.4799559135700399e+01 -2.2332781224177665e-02
    1.6958034388522272e+01 -5.9175593579090677e-02
    1.2462512392675764e+01 -8.0764038437081215e-02
    1.4198767904999368e+01 -7.0781495039877199e-02
    3.1685974783869160e+01 -3.1591201180328175e-02
    4.4799559135700399e+01 -2.2332781224177665e-02 1. 0. 1. 0.
    1.2012191406989986e+01 -8.3833838333928115e-02 1. 0.
    1.3541386566673944e+01 -7.4254861532110361e-02 1. 0.
    1.0909103859096174e+01 -9.2450032704204863e-02 1. 0.
    1.4198767904999368e+01 -7.0781495039877199e-02
    1.3541386566673944e+01 -7.4254861532110361e-02
    1.4963067721862023e+01 -6.7132407525801685e-02
    1.1607793383580484e+01 -8.6798056208228933e-02
    1.4198767904999368e+01 -7.0781495039877199e-02 1. 0.
    1.4963067721862023e+01 -6.7132407525801685e-02
    1.0909103859096174e+01 -9.2450032704204863e-02 1. 0.
    1.5866757828995944e+01 -6.3277199716833266e-02
    1.3541386566673944e+01 -7.4254861532110361e-02
    1.2462512392675764e+01 -8.0764038437081215e-02
    1.6958034388522272e+01 -5.9175593579090677e-02
    1.5866757828995944e+01 -6.3277199716833266e-02 1. 0. 1. 0.
    1.3541386566673944e+01 -7.4254861532110361e-02
    1.0909103859096174e+01 -9.2450032704204863e-02
    9.6017137476335748e+00 -1.0530294239677898e-01
    6.4144806782925263e+00 -1.5988236984776985e-01
    1.3541386566673944e+01 -7.4254861532110361e-02
    1.0324171130043423e+01 -9.7786266934608693e-02
    1.2462512392675764e+01 -8.0764038437081215e-02
    1.0324171130043423e+01 -9.7786266934608693e-02
    3.1685974783869160e+01 -3.1591201180328175e-02
    2.2416556336823863e+01 -4.4699015626767417e-02
    1.2012191406989986e+01 -8.3833838333928115e-02
    1.4963067721862023e+01 -6.7132407525801685e-02
    4.4799559135700399e+01 -2.2332781224177665e-02
    1.2462512392675764e+01 -8.0764038437081215e-02 1. 0.
    8.5239083087336400e+00 -1.1897778297335090e-01
    1.2462512392675764e+01 -8.0764038437081215e-02
    1.4198767904999368e+01 -7.0781495039877199e-02
    1.4198767904999368e+01 -7.0781495039877199e-02
    1.4198767904999368e+01 -7.0781495039877199e-02
    1.4198767904999368e+01 -7.0781495039877199e-02
    1.4963067721862023e+01 -6.7132407525801685e-02
    1.3541386566673944e+01 -7.4254861532110361e-02
    1.4198767904999368e+01 -7.0781495039877199e-02
    1.0604409402243963e+01 -9.5154221954332652e-02
    1.8312190839256054e+01 -5.4772255750516606e-02 1. 0.
    1.4198767904999368e+01 -7.0781495039877199e-02 1. 0. 1. 0.
    1.3541386566673944e+01 -7.4254861532110361e-02
    1.8312190839256054e+01 -5.4772255750516606e-02
    4.4799559135700399e+01 -2.2332781224177665e-02
    9.8251915436238537e+00 -1.0285594337791670e-01
    1.4198767904999368e+01 -7.0781495039877199e-02
    1.3541386566673944e+01 -7.4254861532110361e-02 1. 0.
    8.5239083087336400e+00 -1.1897778297335090e-01
    1.8312190839256054e+01 -5.4772255750516606e-02
    1.4198767904999368e+01 -7.0781495039877199e-02
    1.4198767904999368e+01 -7.0781495039877199e-02
    8.5239083087336400e+00 -1.1897778297335090e-01
    4.4799559135700399e+01 -2.2332781224177665e-02
    1.8312190839256054e+01 -5.4772255750516606e-02
    1.4198767904999368e+01 -7.0781495039877199e-02
    1.3541386566673944e+01 -7.4254861532110361e-02
    2.5877947453769139e+01 -3.8700818724480265e-02
    1.8312190839256054e+01 -5.4772255750516606e-02
    1.3541386566673944e+01 -7.4254861532110361e-02
    1.4963067721862023e+01 -6.7132407525801685e-02
    1.2968141143619201e+01 -7.7576118506196612e-02
    1.0604409402243963e+01 -9.5154221954332652e-02
    1.0324171130043423e+01 -9.7786266934608693e-02
    8.6781299569933310e+00 -1.1680434139522429e-01
    1.2968141143619201e+01 -7.7576118506196612e-02
    1.4198767904999368e+01 -7.0781495039877199e-02
    1.2968141143619201e+01 -7.7576118506196612e-02
    1.2462512392675764e+01 -8.0764038437081215e-02 1. 0.
    1.5866757828995944e+01 -6.3277199716833266e-02
    1.2968141143619201e+01 -7.7576118506196612e-02
    1.4963067721862023e+01 -6.7132407525801685e-02
    9.3930287922664117e+00 -1.0769674088839852e-01
    1.0604409402243963e+01 -9.5154221954332652e-02
    2.5877947453769139e+01 -3.8700818724480265e-02
    3.1685974783869160e+01 -3.1591201180328175e-02
    2.0054986879841753e+01 -4.9987504685547732e-02
    1.0065290382967309e+01 -1.0035184828481861e-01
    1.4198767904999368e+01 -7.0781495039877199e-02
    1.4198767904999368e+01 -7.0781495039877199e-02
    1.2462512392675764e+01 -8.0764038437081215e-02
    1.3541386566673944e+01 -7.4254861532110361e-02
    1.4963067721862023e+01 -6.7132407525801685e-02
    1.1607793383580484e+01 -8.6798056208228933e-02
    1.2968141143619201e+01 -7.7576118506196612e-02
    1.4963067721862023e+01 -6.7132407525801685e-02
    1.2968141143619201e+01 -7.7576118506196612e-02
    1.0324171130043423e+01 -9.7786266934608693e-02
    1.1607793383580484e+01 -8.6798056208228933e-02
    1.0065290382967309e+01 -1.0035184828481861e-01
    1.4963067721862023e+01 -6.7132407525801685e-02
    1.2462512392675764e+01 -8.0764038437081215e-02
    1.4198767904999368e+01 -7.0781495039877199e-02
    2.0054986879841753e+01 -4.9987504685547732e-02
    1.2462512392675764e+01 -8.0764038437081215e-02
    1.1607793383580484e+01 -8.6798056208228933e-02
    1.5866757828995944e+01 -6.3277199716833266e-02
    1.2462512392675764e+01 -8.0764038437081215e-02
    2.5877947453769139e+01 -3.8700818724480265e-02
    1.2462512392675764e+01 -8.0764038437081215e-02
    1.2968141143619201e+01 -7.7576118506196612e-02 1. 0.
    1.4963067721862023e+01 -6.7132407525801685e-02
    1.6958034388522272e+01 -5.9175593579090677e-02
    1.0065290382967309e+01 -1.0035184828481861e-01
    9.6017137476335748e+00 -1.0530294239677898e-01
    1.0909103859096174e+01 -9.2450032704204863e-02
    2.0054986879841753e+01 -4.9987504685547732e-02
    1.0909103859096174e+01 -9.2450032704204863e-02
    1.4198767904999368e+01 -7.0781495039877199e-02
    1.1607793383580484e+01 -8.6798056208228933e-02
    1.0065290382967309e+01 -1.0035184828481861e-01
    1.2968141143619201e+01 -7.7576118506196612e-02
    1.4963067721862023e+01 -6.7132407525801685e-02
    1.4963067721862023e+01 -6.7132407525801685e-02
    1.3541386566673944e+01 -7.4254861532110361e-02 1. 0.
    1.2968141143619201e+01 -7.7576118506196612e-02
    1.8312190839256054e+01 -5.4772255750516606e-02
    1.0909103859096174e+01 -9.2450032704204863e-02
    1.1607793383580484e+01 -8.6798056208228933e-02
    1.2968141143619201e+01 -7.7576118506196612e-02
    1.2968141143619201e+01 -7.7576118506196612e-02
    9.1975780678481218e+00 -1.1004081437106426e-01
    1.4198767904999368e+01 -7.0781495039877199e-02
    1.0065290382967309e+01 -1.0035184828481861e-01
    1.2462512392675764e+01 -8.0764038437081215e-02
    1.4198767904999368e+01 -7.0781495039877199e-02
    8.3777731219601375e+00 -1.2111436716692121e-01 1. 0.
    1.2968141143619201e+01 -7.7576118506196612e-02
    4.4799559135700399e+01 -2.2332781224177665e-02
    1.2968141143619201e+01 -7.7576118506196612e-02
    1.2968141143619201e+01 -7.7576118506196612e-02
    3.1685974783869160e+01 -3.1591201180328175e-02
    1.6958034388522272e+01 -5.9175593579090677e-02
    1.6958034388522272e+01 -5.9175593579090677e-02
    1.4963067721862023e+01 -6.7132407525801685e-02
    6.4144806782925263e+00 -1.5988236984776985e-01
    1.0065290382967309e+01 -1.0035184828481861e-01
    2.5877947453769139e+01 -3.8700818724480265e-02
    1.2968141143619201e+01 -7.7576118506196612e-02
    3.1685974783869160e+01 -3.1591201180328175e-02
    1.6958034388522272e+01 -5.9175593579090677e-02
    1.2012191406989986e+01 -8.3833838333928115e-02
    1.2012191406989986e+01 -8.3833838333928115e-02
    9.3930287922664117e+00 -1.0769674088839852e-01 1. 0.
    4.4799559135700399e+01 -2.2332781224177665e-02
    1.4963067721862023e+01 -6.7132407525801685e-02
    1.0065290382967309e+01 -1.0035184828481861e-01
    2.0054986879841753e+01 -4.9987504685547732e-02
    1.4963067721862023e+01 -6.7132407525801685e-02
    1.5866757828995944e+01 -6.3277199716833266e-02
    1.4198767904999368e+01 -7.0781495039877199e-02
    1.2012191406989986e+01 -8.3833838333928115e-02
    1.0065290382967309e+01 -1.0035184828481861e-01
    4.4799559135700399e+01 -2.2332781224177665e-02 1. 0. 1. 0.
    1.8312190839256054e+01 -5.4772255750516606e-02
    1.2968141143619201e+01 -7.7576118506196612e-02
    1.0604409402243963e+01 -9.5154221954332652e-02
    1.2012191406989986e+01 -8.3833838333928115e-02
    3.1685974783869160e+01 -3.1591201180328175e-02
    1.4963067721862023e+01 -6.7132407525801685e-02
    2.0054986879841753e+01 -4.9987504685547732e-02
    1.3541386566673944e+01 -7.4254861532110361e-02
    5.6900532260917345e+00 -1.8153709195905832e-01
    2.2416556336823863e+01 -4.4699015626767417e-02
    6.6109638401973907e+00 -1.5489297133064672e-01
    2.5702976574365768e+00 -4.7792673291318200e-01
    1.4963067721862023e+01 -6.7132407525801685e-02
    7.3354469957392476e+00 -1.3895662304989601e-01
    1.0909103859096174e+01 -9.2450032704204863e-02
    9.8251915436238537e+00 -1.0285594337791670e-01 1. 0.
    1.8312190839256054e+01 -5.4772255750516606e-02
    1.2968141143619201e+01 -7.7576118506196612e-02
    1.3541386566673944e+01 -7.4254861532110361e-02
    1.0065290382967309e+01 -1.0035184828481861e-01
    1.2968141143619201e+01 -7.7576118506196612e-02
    2.5877947453769139e+01 -3.8700818724480265e-02
    1.0065290382967309e+01 -1.0035184828481861e-01
    1.2462512392675764e+01 -8.0764038437081215e-02
    2.5877947453769139e+01 -3.8700818724480265e-02
    7.3354469957392476e+00 -1.3895662304989601e-01 1. 0.
    1.2462512392675764e+01 -8.0764038437081215e-02
    2.2416556336823863e+01 -4.4699015626767417e-02
    1.4963067721862023e+01 -6.7132407525801685e-02
    1.2462512392675764e+01 -8.0764038437081215e-02
    4.7804199294350749e+00 -2.1924159197807919e-01
    2.0054986879841753e+01 -4.9987504685547732e-02 1. 0.
    1.2012191406989986e+01 -8.3833838333928115e-02
    1.4198767904999368e+01 -7.0781495039877199e-02
    1.4198767904999368e+01 -7.0781495039877199e-02
    1.4198767904999368e+01 -7.0781495039877199e-02
    3.1685974783869160e+01 -3.1591201180328175e-02
    1.3541386566673944e+01 -7.4254861532110361e-02
    4.0914584947770756e+00 -2.6107013326593503e-01
    1.4198767904999368e+01 -7.0781495039877199e-02
    1.5866757828995944e+01 -6.3277199716833266e-02
    6.6807308761788198e+00 -1.5319721849662296e-01
    1.3541386566673944e+01 -7.4254861532110361e-02
    1.3541386566673944e+01 -7.4254861532110361e-02
    9.3930287922664117e+00 -1.0769674088839852e-01
    1.5866757828995944e+01 -6.3277199716833266e-02
    1.4198767904999368e+01 -7.0781495039877199e-02
    1.1607793383580484e+01 -8.6798056208228933e-02 1. 0.
    1.5866757828995944e+01 -6.3277199716833266e-02
    1.1607793383580484e+01 -8.6798056208228933e-02
    9.1975780678481218e+00 -1.1004081437106426e-01
    1.3541386566673944e+01 -7.4254861532110361e-02
    6.3529064442863525e+00 -1.6151457061744962e-01
    1.4198767904999368e+01 -7.0781495039877199e-02
    1.3541386566673944e+01 -7.4254861532110361e-02
    9.1975780678481218e+00 -1.1004081437106426e-01 1. 0.
    9.1975780678481218e+00 -1.1004081437106426e-01
    4.9366358040689526e+00 -2.1164041832000491e-01
    3.1685974783869160e+01 -3.1591201180328175e-02
    2.0054986879841753e+01 -4.9987504685547732e-02
    1.2968141143619201e+01 -7.7576118506196612e-02
    8.8412090500664817e+00 -1.1459194182538808e-01
    1.8312190839256054e+01 -5.4772255750516606e-02
    1.2968141143619201e+01 -7.7576118506196612e-02
    1.2968141143619201e+01 -7.7576118506196612e-02
    1.4198767904999368e+01 -7.0781495039877199e-02
    6.6109638401973907e+00 -1.5489297133064672e-01
    1.2462512392675764e+01 -8.0764038437081215e-02
    1.5866757828995944e+01 -6.3277199716833266e-02 1. 0.
    9.3930287922664117e+00 -1.0769674088839852e-01
    9.3930287922664117e+00 -1.0769674088839852e-01
    9.3930287922664117e+00 -1.0769674088839852e-01
    1.2462512392675764e+01 -8.0764038437081215e-02
    1.5866757828995944e+01 -6.3277199716833266e-02
    1.4198767904999368e+01 -7.0781495039877199e-02
    1.2012191406989986e+01 -8.3833838333928115e-02 1. 0.
    1.8312190839256054e+01 -5.4772255750516606e-02
    1.0065290382967309e+01 -1.0035184828481861e-01
    1.6958034388522272e+01 -5.9175593579090677e-02
    1.2968141143619201e+01 -7.7576118506196612e-02
    1.0324171130043423e+01 -9.7786266934608693e-02
    1.1242021179530175e+01 -8.9667167932444058e-02
    9.8251915436238537e+00 -1.0285594337791670e-01
    1.3541386566673944e+01 -7.4254861532110361e-02
    1.6958034388522272e+01 -5.9175593579090677e-02
    5.0211389569762206e+00 -2.0775400470041189e-01
    1.6958034388522272e+01 -5.9175593579090677e-02
    8.8412090500664817e+00 -1.1459194182538808e-01
    2.5877947453769139e+01 -3.8700818724480265e-02
    1.2012191406989986e+01 -8.3833838333928115e-02
    1.2012191406989986e+01 -8.3833838333928115e-02 1. 0.
    1.3541386566673944e+01 -7.4254861532110361e-02
    6.5434074821684707e+00 -1.5657206338189758e-01
    2.5877947453769139e+01 -3.8700818724480265e-02
    1.3541386566673944e+01 -7.4254861532110361e-02
    1.5866757828995944e+01 -6.3277199716833266e-02
    1.4198767904999368e+01 -7.0781495039877199e-02
    4.4799559135700399e+01 -2.2332781224177665e-02 1. 0.
    1.6958034388522272e+01 -5.9175593579090677e-02
    1.4963067721862023e+01 -6.7132407525801685e-02
    6.1237993063275535e+00 -1.6790077858824298e-01
    1.3541386566673944e+01 -7.4254861532110361e-02
    1.4198767904999368e+01 -7.0781495039877199e-02
    6.5434074821684707e+00 -1.5657206338189758e-01
    9.0140235127796835e+00 -1.1233827907252845e-01 1. 0.
    1.3541386566673944e+01 -7.4254861532110361e-02
    7.8615904616149734e+00 -1.2932825784311769e-01
    1.2968141143619201e+01 -7.7576118506196612e-02
    1.2462512392675764e+01 -8.0764038437081215e-02
    1.2968141143619201e+01 -7.7576118506196612e-02
    6.1237993063275535e+00 -1.6790077858824298e-01
    1.5866757828995944e+01 -6.3277199716833266e-02
    1.0324171130043423e+01 -9.7786266934608693e-02
    1.6958034388522272e+01 -5.9175593579090677e-02
    1.6958034388522272e+01 -5.9175593579090677e-02
    9.1975780678481218e+00 -1.1004081437106426e-01
    4.4799559135700399e+01 -2.2332781224177665e-02 1. 0. 1. 0.
    1.0065290382967309e+01 -1.0035184828481861e-01
    1.2012191406989986e+01 -8.3833838333928115e-02 1. 0.
    9.1975780678481218e+00 -1.1004081437106426e-01
    1.1242021179530175e+01 -8.9667167932444058e-02
    8.6781299569933310e+00 -1.1680434139522429e-01
    1.8312190839256054e+01 -5.4772255750516606e-02
    1.4198767904999368e+01 -7.0781495039877199e-02
    5.8706188609216472e+00 -1.7559179045628057e-01
    1.6958034388522272e+01 -5.9175593579090677e-02
    1.2462512392675764e+01 -8.0764038437081215e-02
    1.0909103859096174e+01 -9.2450032704204863e-02
    5.5655055836125396e+00 -1.8588677672085749e-01
    1.4198767904999368e+01 -7.0781495039877199e-02
    1.2968141143619201e+01 -7.7576118506196612e-02
    1.0604409402243963e+01 -9.5154221954332652e-02
    1.5866757828995944e+01 -6.3277199716833266e-02
    9.8251915436238537e+00 -1.0285594337791670e-01
    1.8312190839256054e+01 -5.4772255750516606e-02
    1.2968141143619201e+01 -7.7576118506196612e-02
    1.3541386566673944e+01 -7.4254861532110361e-02
    1.5866757828995944e+01 -6.3277199716833266e-02
    1.2012191406989986e+01 -8.3833838333928115e-02
    6.6109638401973907e+00 -1.5489297133064672e-01
    1.0604409402243963e+01 -9.5154221954332652e-02
    8.2390441710735765e+00 -1.2321601452253603e-01 1. 0.
    6.6109638401973907e+00 -1.5489297133064672e-01
    1.6958034388522272e+01 -5.9175593579090677e-02
    2.0054986879841753e+01 -4.9987504685547732e-02
    1.4198767904999368e+01 -7.0781495039877199e-02
    1.3541386566673944e+01 -7.4254861532110361e-02
    1.0909103859096174e+01 -9.2450032704204863e-02 1. 0. 1. 0. 1. 0.
    1.1607793383580484e+01 -8.6798056208228933e-02
    1.5866757828995944e+01 -6.3277199716833266e-02
    1.2012191406989986e+01 -8.3833838333928115e-02
    6.6807308761788198e+00 -1.5319721849662296e-01
    1.2968141143619201e+01 -7.7576118506196612e-02 1. 0.
    1.4198767904999368e+01 -7.0781495039877199e-02
    4.4799559135700399e+01 -2.2332781224177665e-02
    1.4198767904999368e+01 -7.0781495039877199e-02
    1.0604409402243963e+01 -9.5154221954332652e-02
    1.4198767904999368e+01 -7.0781495039877199e-02
    9.3930287922664117e+00 -1.0769674088839852e-01
    1.1607793383580484e+01 -8.6798056208228933e-02
    1.6958034388522272e+01 -5.9175593579090677e-02
    1.2462512392675764e+01 -8.0764038437081215e-02
    1.2968141143619201e+01 -7.7576118506196612e-02
    4.4799559135700399e+01 -2.2332781224177665e-02
    1.8312190839256054e+01 -5.4772255750516606e-02
    7.0673682802187265e+00 -1.4444770662461007e-01
    2.0054986879841753e+01 -4.9987504685547732e-02
    2.0054986879841753e+01 -4.9987504685547732e-02
    1.4198767904999368e+01 -7.0781495039877199e-02
    1.2968141143619201e+01 -7.7576118506196612e-02
    2.0054986879841753e+01 -4.9987504685547732e-02 1. 0.
    9.6017137476335748e+00 -1.0530294239677898e-01
    3.1685974783869160e+01 -3.1591201180328175e-02
    1.3541386566673944e+01 -7.4254861532110361e-02
    1.0324171130043423e+01 -9.7786266934608693e-02
    1.2012191406989986e+01 -8.3833838333928115e-02
    1.0604409402243963e+01 -9.5154221954332652e-02
    1.1242021179530175e+01 -8.9667167932444058e-02
    3.1685974783869160e+01 -3.1591201180328175e-02
    1.3541386566673944e+01 -7.4254861532110361e-02
    2.5877947453769139e+01 -3.8700818724480265e-02 1. 0. 1. 0.
    5.6900532260917345e+00 -1.8153709195905832e-01
    1.6958034388522272e+01 -5.9175593579090677e-02
    1.2012191406989986e+01 -8.3833838333928115e-02
    1.4198767904999368e+01 -7.0781495039877199e-02
    1.1607793383580484e+01 -8.6798056208228933e-02
    1.5866757828995944e+01 -6.3277199716833266e-02 1. 0.
    2.0054986879841753e+01 -4.9987504685547732e-02
    1.1607793383580484e+01 -8.6798056208228933e-02
    1.4963067721862023e+01 -6.7132407525801685e-02
    5.6900532260917345e+00 -1.8153709195905832e-01
    1.1607793383580484e+01 -8.6798056208228933e-02 1. 0.
    1.3541386566673944e+01 -7.4254861532110361e-02
    6.6807308761788198e+00 -1.5319721849662296e-01
    9.3930287922664117e+00 -1.0769674088839852e-01
    1.5866757828995944e+01 -6.3277199716833266e-02
    2.2416556336823863e+01 -4.4699015626767417e-02
    1.2968141143619201e+01 -7.7576118506196612e-02 1. 0.
    1.3541386566673944e+01 -7.4254861532110361e-02
    1.4198767904999368e+01 -7.0781495039877199e-02
    1.4198767904999368e+01 -7.0781495039877199e-02
    3.1685974783869160e+01 -3.1591201180328175e-02
    1.8312190839256054e+01 -5.4772255750516606e-02
    1.4963067721862023e+01 -6.7132407525801685e-02
    1.6958034388522272e+01 -5.9175593579090677e-02
    1.1607793383580484e+01 -8.6798056208228933e-02
    2.6716191967216809e+00 -4.5015318469188836e-01
    1.6958034388522272e+01 -5.9175593579090677e-02
    1.8312190839256054e+01 -5.4772255750516606e-02
    6.1786577897286383e+00 -1.6632478596477890e-01
    7.6375416985962579e+00 -1.3325720810113112e-01
    1.2462512392675764e+01 -8.0764038437081215e-02 1. 0.
    5.3053190653853060e+00 -1.9570967639008607e-01
    9.6017137476335748e+00 -1.0530294239677898e-01
    1.8312190839256054e+01 -5.4772255750516606e-02
    8.6781299569933310e+00 -1.1680434139522429e-01
    1.2968141143619201e+01 -7.7576118506196612e-02
    1.5866757828995944e+01 -6.3277199716833266e-02
    1.1607793383580484e+01 -8.6798056208228933e-02
    6.3529064442863525e+00 -1.6151457061744962e-01 1. 0.
    1.3541386566673944e+01 -7.4254861532110361e-02
    5.2377585931815558e+00 -1.9843950801684856e-01
    5.6060645744136854e+00 -1.8444679058389990e-01
    1.3541386566673944e+01 -7.4254861532110361e-02
    1.1607793383580484e+01 -8.6798056208228933e-02
    1.4198767904999368e+01 -7.0781495039877199e-02
    1.3541386566673944e+01 -7.4254861532110361e-02
    1.0065290382967309e+01 -1.0035184828481861e-01
    2.2416556336823863e+01 -4.4699015626767417e-02
    1.3541386566673944e+01 -7.4254861532110361e-02
    1.4198767904999368e+01 -7.0781495039877199e-02
    1.3541386566673944e+01 -7.4254861532110361e-02
    1.3541386566673944e+01 -7.4254861532110361e-02
    7.6375416985962579e+00 -1.3325720810113112e-01
    1.5866757828995944e+01 -6.3277199716833266e-02
    2.2416556336823863e+01 -4.4699015626767417e-02
    1.4198767904999368e+01 -7.0781495039877199e-02
    1.2462512392675764e+01 -8.0764038437081215e-02
    1.4198767904999368e+01 -7.0781495039877199e-02
    1.5866757828995944e+01 -6.3277199716833266e-02
    1.0324171130043423e+01 -9.7786266934608693e-02
    1.0604409402243963e+01 -9.5154221954332652e-02
    1.4198767904999368e+01 -7.0781495039877199e-02
    1.3541386566673944e+01 -7.4254861532110361e-02
    2.0054986879841753e+01 -4.9987504685547732e-02
    1.4198767904999368e+01 -7.0781495039877199e-02
    1.1607793383580484e+01 -8.6798056208228933e-02
    2.5877947453769139e+01 -3.8700818724480265e-02
    1.0604409402243963e+01 -9.5154221954332652e-02 1. 0.
    1.0065290382967309e+01 -1.0035184828481861e-01
    1.2968141143619201e+01 -7.7576118506196612e-02
    6.6109638401973907e+00 -1.5489297133064672e-01
    1.4198767904999368e+01 -7.0781495039877199e-02
    1.0604409402243963e+01 -9.5154221954332652e-02
    1.1607793383580484e+01 -8.6798056208228933e-02
    9.1975780678481218e+00 -1.1004081437106426e-01
    7.7470795387236313e+00 -1.3130643285972257e-01
    1.1607793383580484e+01 -8.6798056208228933e-02
    1.5866757828995944e+01 -6.3277199716833266e-02 1. 0. 1. 0.
    1.4198767904999368e+01 -7.0781495039877199e-02
    6.5434074821684707e+00 -1.5657206338189758e-01 1. 0.
    8.8412090500664817e+00 -1.1459194182538808e-01
    5.6060645744136854e+00 -1.8444679058389990e-01
    1.3541386566673944e+01 -7.4254861532110361e-02
    1.4198767904999368e+01 -7.0781495039877199e-02
    1.2968141143619201e+01 -7.7576118506196612e-02 1. 0.
    1.1607793383580484e+01 -8.6798056208228933e-02
    3.1685974783869160e+01 -3.1591201180328175e-02
    8.1071187003698473e+00 -1.2528448639654299e-01
    2.0054986879841753e+01 -4.9987504685547732e-02
    6.7528309066313401e+00 -1.5148424267119157e-01
    1.2012191406989986e+01 -8.3833838333928115e-02
    1.5866757828995944e+01 -6.3277199716833266e-02 1. 0.
    1.1242021179530175e+01 -8.9667167932444058e-02 1. 0.
    1.0065290382967309e+01 -1.0035184828481861e-01
    1.2462512392675764e+01 -8.0764038437081215e-02
    1.0065290382967309e+01 -1.0035184828481861e-01
    1.5866757828995944e+01 -6.3277199716833266e-02
    1.1607793383580484e+01 -8.6798056208228933e-02
    5.6060645744136854e+00 -1.8444679058389990e-01
    1.4198767904999368e+01 -7.0781495039877199e-02
    1.4198767904999368e+01 -7.0781495039877199e-02
    9.6017137476335748e+00 -1.0530294239677898e-01 1. 0.
    1.1607793383580484e+01 -8.6798056208228933e-02
    1.2968141143619201e+01 -7.7576118506196612e-02
    1.8312190839256054e+01 -5.4772255750516606e-02
    1.4198767904999368e+01 -7.0781495039877199e-02
    1.2968141143619201e+01 -7.7576118506196612e-02
    1.1607793383580484e+01 -8.6798056208228933e-02
    5.6900532260917345e+00 -1.8153709195905832e-01
    1.4198767904999368e+01 -7.0781495039877199e-02
    1.4963067721862023e+01 -6.7132407525801685e-02
    1.2968141143619201e+01 -7.7576118506196612e-02
    1.3541386566673944e+01 -7.4254861532110361e-02
    1.4198767904999368e+01 -7.0781495039877199e-02
    3.1685974783869160e+01 -3.1591201180328175e-02
    1.2462512392675764e+01 -8.0764038437081215e-02
    1.6958034388522272e+01 -5.9175593579090677e-02
    1.3541386566673944e+01 -7.4254861532110361e-02
    1.4963067721862023e+01 -6.7132407525801685e-02
    2.7241558446648111e+00 -4.3727725921339439e-01
    9.8251915436238537e+00 -1.0285594337791670e-01 1. 0.
    3.7562118382362577e+00 -2.8836322187855618e-01 1. 0.
    1.6958034388522272e+01 -5.9175593579090677e-02 1. 0.
    9.0140235127796835e+00 -1.1233827907252845e-01
    1.3541386566673944e+01 -7.4254861532110361e-02 1. 0.
    1.5866757828995944e+01 -6.3277199716833266e-02
    1.5866757828995944e+01 -6.3277199716833266e-02
    1.4963067721862023e+01 -6.7132407525801685e-02
    4.3738595393498017e+00 -2.4202313502882750e-01
    7.2426324346772191e+00 -1.4080890575892896e-01
    1.4198767904999368e+01 -7.0781495039877199e-02
    1.3541386566673944e+01 -7.4254861532110361e-02
    1.4198767904999368e+01 -7.0781495039877199e-02
    1.8312190839256054e+01 -5.4772255750516606e-02
    1.3541386566673944e+01 -7.4254861532110361e-02
    1.3541386566673944e+01 -7.4254861532110361e-02
    1.4963067721862023e+01 -6.7132407525801685e-02
    2.2416556336823863e+01 -4.4699015626767417e-02
    6.5434074821684707e+00 -1.5657206338189758e-01
    1.1607793383580484e+01 -8.6798056208228933e-02
    1.3541386566673944e+01 -7.4254861532110361e-02
    1.4198767904999368e+01 -7.0781495039877199e-02
    1.0909103859096174e+01 -9.2450032704204863e-02 1. 0.
    1.4963067721862023e+01 -6.7132407525801685e-02
    1.2462512392675764e+01 -8.0764038437081215e-02
    1.0604409402243963e+01 -9.5154221954332652e-02
    1.3541386566673944e+01 -7.4254861532110361e-02
    1.8312190839256054e+01 -5.4772255750516606e-02 1. 0.
    1.1242021179530175e+01 -8.9667167932444058e-02
    2.0054986879841753e+01 -4.9987504685547732e-02
    2.5877947453769139e+01 -3.8700818724480265e-02
    2.9533070774182941e+00 -3.9014275947948546e-01
    1.0065290382967309e+01 -1.0035184828481861e-01
    1.0065290382967309e+01 -1.0035184828481861e-01
    1.2462512392675764e+01 -8.0764038437081215e-02
    1.8312190839256054e+01 -5.4772255750516606e-02
    1.1242021179530175e+01 -8.9667167932444058e-02
    1.1607793383580484e+01 -8.6798056208228933e-02
    1.1607793383580484e+01 -8.6798056208228933e-02 1. 0.
    1.4198767904999368e+01 -7.0781495039877199e-02
    9.1975780678481218e+00 -1.1004081437106426e-01
    6.6807308761788198e+00 -1.5319721849662296e-01
    1.5866757828995944e+01 -6.3277199716833266e-02
    6.6109638401973907e+00 -1.5489297133064672e-01
    1.5866757828995944e+01 -6.3277199716833266e-02
    9.6017137476335748e+00 -1.0530294239677898e-01
    1.4963067721862023e+01 -6.7132407525801685e-02
    8.1071187003698473e+00 -1.2528448639654299e-01
    1.2012191406989986e+01 -8.3833838333928115e-02
    1.4198767904999368e+01 -7.0781495039877199e-02
    2.0054986879841753e+01 -4.9987504685547732e-02
    2.2416556336823863e+01 -4.4699015626767417e-02
    1.4198767904999368e+01 -7.0781495039877199e-02 1. 0.
    1.2462512392675764e+01 -8.0764038437081215e-02
    7.7470795387236313e+00 -1.3130643285972257e-01
    1.5866757828995944e+01 -6.3277199716833266e-02
    2.0054986879841753e+01 -4.9987504685547732e-02
    1.8312190839256054e+01 -5.4772255750516606e-02
    1.5866757828995944e+01 -6.3277199716833266e-02
    2.0054986879841753e+01 -4.9987504685547732e-02
    8.6781299569933310e+00 -1.1680434139522429e-01
    1.1607793383580484e+01 -8.6798056208228933e-02
    1.4198767904999368e+01 -7.0781495039877199e-02
    1.1607793383580484e+01 -8.6798056208228933e-02
    6.6807308761788198e+00 -1.5319721849662296e-01
    1.2012191406989986e+01 -8.3833838333928115e-02
    1.1607793383580484e+01 -8.6798056208228933e-02
    1.5866757828995944e+01 -6.3277199716833266e-02
    1.2462512392675764e+01 -8.0764038437081215e-02
    1.3541386566673944e+01 -7.4254861532110361e-02
    6.5434074821684707e+00 -1.5657206338189758e-01
    1.3541386566673944e+01 -7.4254861532110361e-02
    3.1685974783869160e+01 -3.1591201180328175e-02
    9.6017137476335748e+00 -1.0530294239677898e-01
    1.5866757828995944e+01 -6.3277199716833266e-02
    1.2012191406989986e+01 -8.3833838333928115e-02
    1.4198767904999368e+01 -7.0781495039877199e-02
    2.5877947453769139e+01 -3.8700818724480265e-02
    6.6109638401973907e+00 -1.5489297133064672e-01
    7.5326287797751830e+00 -1.3518177271779988e-01
    1.5866757828995944e+01 -6.3277199716833266e-02
    1.6958034388522272e+01 -5.9175593579090677e-02
    1.1607793383580484e+01 -8.6798056208228933e-02 1. 0.
    2.2416556336823863e+01 -4.4699015626767417e-02
    1.6958034388522272e+01 -5.9175593579090677e-02
    8.6781299569933310e+00 -1.1680434139522429e-01
    4.4799559135700399e+01 -2.2332781224177665e-02
    1.4198767904999368e+01 -7.0781495039877199e-02
    1.2012191406989986e+01 -8.3833838333928115e-02
    1.1607793383580484e+01 -8.6798056208228933e-02 1. 0.
    1.0604409402243963e+01 -9.5154221954332652e-02
    1.0324171130043423e+01 -9.7786266934608693e-02
    8.8412090500664817e+00 -1.1459194182538808e-01
    5.0801092528451948e+00 -2.0512903762734833e-01
    1.4198767904999368e+01 -7.0781495039877199e-02
    1.2012191406989986e+01 -8.3833838333928115e-02 1. 0.
    1.2012191406989986e+01 -8.3833838333928115e-02
    1.3541386566673944e+01 -7.4254861532110361e-02
    9.8251915436238537e+00 -1.0285594337791670e-01
    5.1413423763353503e+00 -2.0247559707402427e-01
    3.1685974783869160e+01 -3.1591201180328175e-02
    3.1685974783869160e+01 -3.1591201180328175e-02
    1.5866757828995944e+01 -6.3277199716833266e-02
    1.1607793383580484e+01 -8.6798056208228933e-02
    1.4198767904999368e+01 -7.0781495039877199e-02
    1.4198767904999368e+01 -7.0781495039877199e-02
    3.1685974783869160e+01 -3.1591201180328175e-02
    1.0324171130043423e+01 -9.7786266934608693e-02
    1.4198767904999368e+01 -7.0781495039877199e-02
    1.3541386566673944e+01 -7.4254861532110361e-02
    6.9845035393091228e+00 -1.4623586672531561e-01
    1.5866757828995944e+01 -6.3277199716833266e-02
    4.4799559135700399e+01 -2.2332781224177665e-02
    1.1607793383580484e+01 -8.6798056208228933e-02
    6.6109638401973907e+00 -1.5489297133064672e-01
    5.9679126186516660e+00 -1.7255181050937018e-01
    1.3541386566673944e+01 -7.4254861532110361e-02
    1.0065290382967309e+01 -1.0035184828481861e-01
    1.2968141143619201e+01 -7.7576118506196612e-02
    4.4799559135700399e+01 -2.2332781224177665e-02
    1.5866757828995944e+01 -6.3277199716833266e-02
    7.0673682802187265e+00 -1.4444770662461007e-01
    1.2968141143619201e+01 -7.7576118506196612e-02
    1.4198767904999368e+01 -7.0781495039877199e-02
    9.6017137476335748e+00 -1.0530294239677898e-01 1. 0. 1. 0.
    1.3541386566673944e+01 -7.4254861532110361e-02
    1.5866757828995944e+01 -6.3277199716833266e-02
    1.2462512392675764e+01 -8.0764038437081215e-02
    4.2669938690353701e+00 -2.4887252376726735e-01
    1.4198767904999368e+01 -7.0781495039877199e-02
    1.4198767904999368e+01 -7.0781495039877199e-02
    8.5239083087336400e+00 -1.1897778297335090e-01
    1.6958034388522272e+01 -5.9175593579090677e-02
    1.3541386566673944e+01 -7.4254861532110361e-02
    1.2012191406989986e+01 -8.3833838333928115e-02
    1.6958034388522272e+01 -5.9175593579090677e-02
    1.4198767904999368e+01 -7.0781495039877199e-02
    8.6781299569933310e+00 -1.1680434139522429e-01
    1.3541386566673944e+01 -7.4254861532110361e-02
    1.2968141143619201e+01 -7.7576118506196612e-02
    5.6475681805868634e+00 -1.8299697494424033e-01
    1.4198767904999368e+01 -7.0781495039877199e-02
    2.5877947453769139e+01 -3.8700818724480265e-02
    1.0909103859096174e+01 -9.2450032704204863e-02
    1.1607793383580484e+01 -8.6798056208228933e-02
    4.5519488238817116e+00 -2.3145502494313785e-01
    1.2462512392675764e+01 -8.0764038437081215e-02
    1.2968141143619201e+01 -7.7576118506196612e-02
    1.4198767904999368e+01 -7.0781495039877199e-02
    9.3930287922664117e+00 -1.0769674088839852e-01
    1.0324171130043423e+01 -9.7786266934608693e-02
    4.4799559135700399e+01 -2.2332781224177665e-02 1. 0. 1. 0.
    1.4198767904999368e+01 -7.0781495039877199e-02 1. 0.
    1.3541386566673944e+01 -7.4254861532110361e-02
    1.4198767904999368e+01 -7.0781495039877199e-02
    1.4198767904999368e+01 -7.0781495039877199e-02
    1.3541386566673944e+01 -7.4254861532110361e-02
    1.3541386566673944e+01 -7.4254861532110361e-02
    2.0054986879841753e+01 -4.9987504685547732e-02
    2.2416556336823863e+01 -4.4699015626767417e-02
    1.4963067721862023e+01 -6.7132407525801685e-02
    1.5866757828995944e+01 -6.3277199716833266e-02 1. 0.
    1.1242021179530175e+01 -8.9667167932444058e-02
    1.8312190839256054e+01 -5.4772255750516606e-02
    5.6060645744136854e+00 -1.8444679058389990e-01
    6.6109638401973907e+00 -1.5489297133064672e-01
    5.6060645744136854e+00 -1.8444679058389990e-01
    1.5866757828995944e+01 -6.3277199716833266e-02 1. 0.
    1.0065290382967309e+01 -1.0035184828481861e-01
    1.0909103859096174e+01 -9.2450032704204863e-02
    6.4779482735021388e+00 -1.5823502761794853e-01
    1.2462512392675764e+01 -8.0764038437081215e-02
    1.6958034388522272e+01 -5.9175593579090677e-02
    1.0909103859096174e+01 -9.2450032704204863e-02
    1.8312190839256054e+01 -5.4772255750516606e-02
    1.1242021179530175e+01 -8.9667167932444058e-02
    4.4699348737505122e+00 -2.3619795444544081e-01
    4.3738595393498017e+00 -2.4202313502882750e-01
    1.3541386566673944e+01 -7.4254861532110361e-02
    1.2968141143619201e+01 -7.7576118506196612e-02
    1.5866757828995944e+01 -6.3277199716833266e-02
    1.2968141143619201e+01 -7.7576118506196612e-02
    1.2968141143619201e+01 -7.7576118506196612e-02
    1.8312190839256054e+01 -5.4772255750516606e-02
    1.6958034388522272e+01 -5.9175593579090677e-02
    1.2968141143619201e+01 -7.7576118506196612e-02
    1.8312190839256054e+01 -5.4772255750516606e-02
    1.5866757828995944e+01 -6.3277199716833266e-02
    1.4198767904999368e+01 -7.0781495039877199e-02
    1.1607793383580484e+01 -8.6798056208228933e-02
    1.4198767904999368e+01 -7.0781495039877199e-02
    1.4198767904999368e+01 -7.0781495039877199e-02
    1.6958034388522272e+01 -5.9175593579090677e-02
    1.0604409402243963e+01 -9.5154221954332652e-02
    1.5866757828995944e+01 -6.3277199716833266e-02
    1.0065290382967309e+01 -1.0035184828481861e-01
    4.5309881064758457e+00 -2.3264794365254840e-01
    1.1607793383580484e+01 -8.6798056208228933e-02
    1.2462512392675764e+01 -8.0764038437081215e-02
    1.2012191406989986e+01 -8.3833838333928115e-02
    1.4198767904999368e+01 -7.0781495039877199e-02
    1.1242021179530175e+01 -8.9667167932444058e-02
    1.4198767904999368e+01 -7.0781495039877199e-02
    6.3529064442863525e+00 -1.6151457061744962e-01
    1.0909103859096174e+01 -9.2450032704204863e-02
    1.1242021179530175e+01 -8.9667167932444058e-02
    1.4963067721862023e+01 -6.7132407525801685e-02
    1.2462512392675764e+01 -8.0764038437081215e-02
    8.8412090500664817e+00 -1.1459194182538808e-01
    9.8251915436238537e+00 -1.0285594337791670e-01
    8.1071187003698473e+00 -1.2528448639654299e-01
    6.9845035393091228e+00 -1.4623586672531561e-01
    1.4198767904999368e+01 -7.0781495039877199e-02
    1.2462512392675764e+01 -8.0764038437081215e-02
    9.3930287922664117e+00 -1.0769674088839852e-01
    1.0909103859096174e+01 -9.2450032704204863e-02
    1.2462512392675764e+01 -8.0764038437081215e-02
    1.3541386566673944e+01 -7.4254861532110361e-02
    1.0324171130043423e+01 -9.7786266934608693e-02
    1.1242021179530175e+01 -8.9667167932444058e-02
    7.7470795387236313e+00 -1.3130643285972257e-01
    1.2012191406989986e+01 -8.3833838333928115e-02
    1.0604409402243963e+01 -9.5154221954332652e-02
    1.0909103859096174e+01 -9.2450032704204863e-02
    4.2669938690353701e+00 -2.4887252376726735e-01
    1.3541386566673944e+01 -7.4254861532110361e-02
    1.2968141143619201e+01 -7.7576118506196612e-02
    1.1607793383580484e+01 -8.6798056208228933e-02
    1.4963067721862023e+01 -6.7132407525801685e-02
    1.0604409402243963e+01 -9.5154221954332652e-02
    9.8251915436238537e+00 -1.0285594337791670e-01
    1.3541386566673944e+01 -7.4254861532110361e-02
    1.3541386566673944e+01 -7.4254861532110361e-02
    1.8312190839256054e+01 -5.4772255750516606e-02
    1.0909103859096174e+01 -9.2450032704204863e-02
    1.4963067721862023e+01 -6.7132407525801685e-02
    1.4198767904999368e+01 -7.0781495039877199e-02
    1.0604409402243963e+01 -9.5154221954332652e-02
    1.1242021179530175e+01 -8.9667167932444058e-02
    1.4198767904999368e+01 -7.0781495039877199e-02
    1.6958034388522272e+01 -5.9175593579090677e-02
    8.6781299569933310e+00 -1.1680434139522429e-01
    1.0909103859096174e+01 -9.2450032704204863e-02
    8.8412090500664817e+00 -1.1459194182538808e-01
    1.0909103859096174e+01 -9.2450032704204863e-02
    9.0140235127796835e+00 -1.1233827907252845e-01
    1.1242021179530175e+01 -8.9667167932444058e-02
    1.3541386566673944e+01 -7.4254861532110361e-02
    1.5866757828995944e+01 -6.3277199716833266e-02
    1.2012191406989986e+01 -8.3833838333928115e-02
    1.2012191406989986e+01 -8.3833838333928115e-02
    1.3541386566673944e+01 -7.4254861532110361e-02
    1.6958034388522272e+01 -5.9175593579090677e-02
    1.5866757828995944e+01 -6.3277199716833266e-02
    6.9045686351696505e+00 -1.4800421301709618e-01
    9.8251915436238537e+00 -1.0285594337791670e-01
    1.2462512392675764e+01 -8.0764038437081215e-02
    1.4963067721862023e+01 -6.7132407525801685e-02
    1.4963067721862023e+01 -6.7132407525801685e-02
    7.0673682802187265e+00 -1.4444770662461007e-01
    1.8312190839256054e+01 -5.4772255750516606e-02
    1.2462512392675764e+01 -8.0764038437081215e-02
    1.2462512392675764e+01 -8.0764038437081215e-02
    6.7528309066313401e+00 -1.5148424267119157e-01
    1.1607793383580484e+01 -8.6798056208228933e-02
    1.1607793383580484e+01 -8.6798056208228933e-02
    1.1607793383580484e+01 -8.6798056208228933e-02
    1.0324171130043423e+01 -9.7786266934608693e-02
    7.8615904616149734e+00 -1.2932825784311769e-01
    2.2416556336823863e+01 -4.4699015626767417e-02
    7.9814604390183508e+00 -1.2732140281584606e-01
    1.2462512392675764e+01 -8.0764038437081215e-02
    1.2012191406989986e+01 -8.3833838333928115e-02
    5.6475681805868634e+00 -1.8299697494424033e-01
    9.6017137476335748e+00 -1.0530294239677898e-01
    1.8312190839256054e+01 -5.4772255750516606e-02
    1.4963067721862023e+01 -6.7132407525801685e-02
    1.2012191406989986e+01 -8.3833838333928115e-02
    7.5326287797751830e+00 -1.3518177271779988e-01
    1.2012191406989986e+01 -8.3833838333928115e-02
    1.2462512392675764e+01 -8.0764038437081215e-02
    2.5877947453769139e+01 -3.8700818724480265e-02
    8.8412090500664817e+00 -1.1459194182538808e-01
    9.8251915436238537e+00 -1.0285594337791670e-01 1. 0.
    1.4198767904999368e+01 -7.0781495039877199e-02
    3.1685974783869160e+01 -3.1591201180328175e-02
    1.6958034388522272e+01 -5.9175593579090677e-02
    1.6958034388522272e+01 -5.9175593579090677e-02
    3.1685974783869160e+01 -3.1591201180328175e-02
    1.6958034388522272e+01 -5.9175593579090677e-02
    3.1685974783869160e+01 -3.1591201180328175e-02
    2.2416556336823863e+01 -4.4699015626767417e-02
    1.8312190839256054e+01 -5.4772255750516606e-02
    1.0065290382967309e+01 -1.0035184828481861e-01
    8.6781299569933310e+00 -1.1680434139522429e-01
    8.5239083087336400e+00 -1.1897778297335090e-01
    1.0065290382967309e+01 -1.0035184828481861e-01
    3.1685974783869160e+01 -3.1591201180328175e-02</input_scale>
  <output_scale>
    5.2631578947368418e-01 4.9999999999999994e-01 5.2631578947368418e-01
    4.9999999999999994e-01</output_scale>
  <inv_output_scale>
    1.8999999999999999e+00 -9.4999999999999996e-01
    1.8999999999999999e+00 -9.4999999999999996e-01</inv_output_scale>
  <weights>
    <_>
      6.9298857267467051e-01 -3.5787845475047120e-01
      9.3307596586310537e-01 4.1287632252258351e-02
      -2.3410342080454796e-01 9.5299993344271627e-01
      -6.9314469840720971e-01 -8.9653547707846859e-01
      -9.1078160530111119e-01 1.9668734085431522e-01
      -7.3529961910158270e-01 -1.0003183395502282e+00
      1.5442201808079412e+00 -7.2671180016797721e-01
      1.6537263605916244e+00 -6.7353828188695875e-01
      -1.6948526862953833e-01 -4.9739881680444542e-01
      1.3869481148718779e-01 7.8766390415184484e-01
      -5.6944369468588329e-01 4.1831371473512535e-01
      8.7809415190529350e-01 -6.5136523670167912e-01
      7.5860003279839483e-01 2.4766916410732570e-01
      4.7936162704176333e-01 -4.4955398340801506e-01
      -8.4264119158829054e-01 2.7555254465877688e-01
      4.8782773654122175e-01 8.7444329798712894e-01
      -5.2807780341275334e-01 -2.4260895688802223e-01
      4.5211054616839774e-02 -7.0713207227034169e-02
      4.5706856417404729e-01 1.2229825247116128e+00
      -4.4928633355434656e-02 -4.3093043624416777e-01
      -3.5832041671244128e+00 4.3392731799769413e-01
      7.7168672590197429e-01 -8.0514488645484816e-01
      -1.7899785249717264e+00 6.4870654342626777e-01
      -4.6466640058346781e-01 -5.9478828535790862e-01
      -1.1395027688928661e+00 1.1423609848708594e-01
      -2.7637029084267972e-01 9.1438066358227821e-01
      8.3084489746200163e-01 -1.1460650419058043e+00
      1.0992979707585226e-01 2.9244674655150588e-01
      -6.3639809924227475e-01 -2.1283009887548623e-03
      -3.5625658475773314e-01 -1.8940392497381253e-01
      4.7946397388693862e-01 -8.3501135859904752e-01
      -1.3693125180251340e-03 2.7753475824689777e-01
      -4.3516437020729876e-01 8.8054768220247270e-01
      -6.4011984050015325e-01 -3.0169929598156209e-01
      9.6172110794750321e-01 -2.7268420558261591e-01
      -1.8228848191595057e+00 -7.4302193089405277e-01
      -5.5332140228937876e-01 -3.6675310588525095e-01
      -8.3540715053296230e-02 8.4826435437624892e-01
      -2.6244717933412914e-01 1.1782590970697331e+00
      2.1772832032950892e-01 -6.6337404911904607e-01
      -4.5623431788870654e+00 6.6726417566295138e-01
      -5.3686104063869777e-01 2.2768967409690109e-02
      4.2417097221640571e-01 -2.4747056373748557e+00
      4.2580432690178049e-01 3.3291410073094163e-01
      7.6584742391033944e-01 -4.7926925101566031e-01
      6.1555901477025499e-01 8.3671837234411783e-01
      -3.4853628372290496e-01 1.5570924251210219e+00
      -1.2579713536030441e+00 5.7784500714583309e-01
      -2.0029984551667468e-01 1.0329075332797324e+00
      -1.8916302190533144e-01 -6.7045400890956619e-01
      -7.0570439093151976e-03 -5.9945119090366439e-01
      -3.2353296482012578e-01 5.5374674781762090e-01
      -1.6770095823172266e+00 1.1932565256936943e-01
      -6.1708175422364342e-01 6.3095326329282742e-01
      7.0504386210793790e-01 -3.5550485535534471e-01
      -5.9163243993790871e-01 -6.0486384388436565e-01
      6.5667391619459059e-01 2.6372873217842469e-01
      -8.8302583558861711e-02 1.3931786346122321e-01
      -6.2903858441865335e-01 -1.0516241129528388e+00
      1.4241166359327476e-01 8.5876527537070868e-01
      8.9827280479813498e-01 -6.1123836251170538e-01
      -5.7556237404181387e-01 7.1334098415145941e-01
      -2.0130149168106212e-01 -5.6438779308464460e-01
      3.2201775141226696e-01 6.8929488225236590e-01
      2.2185411527218473e+00 2.7511492658982795e-01
      4.7535021100515207e-01 -1.0034868058974091e+00
      -7.0541581664095299e-01 4.4145450439823417e+00
      2.8898461444441947e-01 -3.0241237684396838e-01
      7.8609280780095214e-01 -2.5533449883280279e-02
      6.2572139294819396e-01 1.0366315241787378e+00
      1.3473696013216221e-01 7.1383711500088565e-01
      3.1726676326607847e-02 1.1419946184933513e-01
      5.0257005378613118e-01 -7.4324755345471694e-01
      5.4785164320303092e-01 5.6234652311951316e-01
      -2.4343031415944436e+00 3.8984768872926734e-01
      8.6002188859239381e-01 5.0655801539038503e-01
      4.9261249930153411e-01 3.7581151179501632e-01
      -3.1206188409765651e-01 -1.7729949640841494e+00
      5.5149705900250467e-01 -2.7722665304012106e+00
      -2.5408757984724739e-01 -5.1698261452459149e-03
      -4.9027082917830995e+00 -3.5039564501807485e-01
      9.7166191972537264e-01 4.1995388580764507e-02
      -4.1053010432766192e-02 -1.6574278770704958e+00
      -6.0776971531631596e-01 -7.9869857950617384e-01
      -3.2854155568474808e-01 3.4138394669145096e-02
      -3.0850188618669938e-01 -7.4191283796502194e-02
      1.1674352248194120e+00 9.5543390374026782e-01
      -1.1800606931622202e+00 -2.6290916125952285e-01
      -2.5840682146985611e-01 4.1225476570907177e-01
      1.0995990730937477e-01 3.4427795672438749e-01
      -5.4522667327059804e-01 1.3333999020572576e+00
      7.8988771342628261e-01 -2.8061640889902734e-01
      -1.1391159031572848e+00 2.4259617011479429e-01
      3.1036476348567171e-01 5.6360405657937106e-03
      -3.5453044936289463e-01 4.8608122347529974e-02
      1.2907684520285010e+00 9.8886213047705185e-01
      -6.5760343707293101e-01 -1.2967870846006974e-01
      7.8077258847125186e-02 9.1016204551353094e-04
      7.1375970183333470e-01 -4.0525428801934604e-01
      -4.6123701435035941e-02 2.8820210059397533e-01
      3.2039393453466274e+00 -2.1516563326342555e-04
      1.1630367851412899e+00 -1.0079151823758281e-01
      -1.2093744451756636e+00 1.9694262130757068e-01
      -3.2765542428501138e-01 -8.7955456601146853e-01
      1.7912015869463616e+00 1.6047148292325167e-01
      -1.7604318037283850e-01 -4.8702932367640123e-01
      4.0603695497251235e-01 2.9820650472651482e+00
      1.5644889374149251e-01 1.2328877621639876e-01
      -1.0761422252885366e+00 8.6378447454969406e-03
      -1.2946317262627023e+00 -9.9524741088114954e-01
      4.7016789289621919e-01 -3.9612736459780529e-01
      -2.1272885439492979e-02 3.5200202384758056e-01
      -4.0758987813483294e-01 4.0597165722828854e-01
      -2.6308936481417278e-01 -9.0708695368095260e-01
      -1.6437927891268238e+00 -4.2858015158299186e-02
      1.0758807339787306e+00 -9.5503872438128856e-01
      -1.6987494020792115e-01 -8.1885703445534239e-02
      -1.0332446024768661e-01 -1.2775251142666457e+00
      3.4588328371650157e-02 -2.1423285953824198e+00
      1.6549375677559844e-01 -6.4386986575972804e-01
      9.4536211272188686e-01 -1.3947273958140780e-01
      -7.8849990898271149e-01 -4.3517595635073049e-02
      -4.6655886284403335e-02 1.4820877266680133e+00
      4.6066559160657078e-01 7.5778154617649418e-01
      7.7567865013748649e-01 -2.1894486697038713e-02
      5.8378673929175029e-01 7.5455639060350277e-01
      -1.7692988236038605e+00 -6.9784538449513112e-01
      -7.5273415127497978e-01 4.8857780856141408e-01
      6.2260815335090836e-01 -3.1236840717653319e-01
      -6.4726268289673719e-02 -7.4124068599781945e-01
      4.3412039028770882e-01 -3.6972064996413051e-01
      -7.2959391379959870e-01 4.8478873197800715e-01
      8.5411153727219280e-01 -4.3161592058636228e-01
      -1.6996686241470205e-01 5.8399160319193663e-02
      7.4483265265759024e-01 3.3085959380683025e-02
      -4.0272316470478015e-01 -6.8808892889502438e-01
      1.8209149045786760e-01 9.6897858661255748e-02
      -5.7744059988979524e-02 2.0889016393927720e-03
      -1.4330675796230491e-01 -7.6745106221074100e-01
      1.1619839866208555e-01 -2.4325865553608625e-01
      1.2966810863419882e+00 -5.4210675113471954e-02
      -7.7351029713822750e-01 5.9579356054736732e-01
      2.0588584706640694e+00 -4.3234323648128642e-01
      1.7631504138303694e-01 3.3945659138286410e-01
      -1.3746934754589959e+00 -3.9984892302570996e-01
      -1.2779398727524722e-04 -3.0763314160285127e-01
      -8.2472771014247459e-01 -2.1981134543102225e+00
      -4.1188436643148996e-01 -1.2671399938432776e-01
      5.0422337102494008e-01 2.0259302185966090e-02
      1.8756226042792376e-01 -4.3381607146836859e-01
      -6.7877463775219693e-01 8.2293883308591675e-01
      -6.6833429320139137e-02 -7.6642258084293380e-01
      1.5335556458905469e-01 -8.5098867768749886e-01
      4.4838264061815031e-01 6.6991217998039572e-03
      1.5374012806513384e+00 -1.4455257918594101e-02
      6.4818661055626803e-01 6.4680105442892522e-01
      3.2727664086802116e-01 1.3489363323953443e-01
      3.4387681550067717e-01 9.4541405332854622e-01
      -6.9284814814442403e-02 1.8564279515985564e+00
      -1.3993667857137809e-01 5.8737045901328810e-01
      4.6228176381059846e-02 1.3739266322018653e-02
      -7.9799652884454276e-03 8.8775619919548826e-02
      -3.4149003923346750e-02 3.2722815554955410e-02
      -4.2723694268635556e-03 -7.2656333640976111e-04
      -1.5676591563212275e-01 -8.8690255534765363e-03
      -1.5476768051680026e-01 -1.2248850968445200e-01
      9.5876515534535842e-03 -6.7007491774778313e-02
      1.0106299553042421e-01 -1.4637002541318730e-01
      3.4544811030581150e-02 -6.0676310935375247e-02
      1.0751164009209997e-01 1.2655977938848240e-01
      7.6661923437630286e-02 -3.5215859708725948e-02
      -2.0049161395101450e-03 -1.4891753802189822e-01
      5.4393877952388543e-02 -5.8710208395629244e-02
      1.4529129887861557e-02 -7.8950891911395787e-02
      -1.4094812613120930e-01 -2.5313400200882540e-02
      -3.3423998870570529e-02 -1.0750270837948057e-02
      -4.0945938845102694e-03 -1.0442627217117334e-01
      1.0476756169334418e-01 6.3468646344048849e-02
      -2.8714732857716909e-03 1.0548444279351452e-01
      -1.0583322507836933e-01 -6.5095375771143243e-02
      -2.7145334569617516e-02 7.7704083198237198e-02
      -3.0521282173477351e-02 -1.0444870651033605e-01
      9.6297730845379667e-02 1.3074547582704099e-01
      3.6685193388164464e-02 5.4056046477984889e-03
      -6.1574377687557830e-02 -4.6970419462405218e-02
      3.0163429904226571e-03 7.5667455875570153e-02
      1.3701178130028757e-01 -1.5055830066834636e-02
      -4.6406095798151845e-02 1.0800109578368688e-01
      1.4585855791353819e-02 2.0673901242721088e-02
      3.4581128094376558e-02 2.8073567064646095e-02
      -7.3323364222257367e-02 -1.4137540838522639e-01
      1.1121450739481090e-01 -5.9943364513679251e-02
      1.3416633119840101e-03 1.4749792662257280e-01
      -1.4661380895223466e-01 2.8194072472220031e-02
      2.6504185629243979e-02 3.2691964025959967e-02
      -2.5497159583541527e-03 1.1853789307280337e-02
      -1.2795288016777207e-01 -1.0048365740408605e-01
      4.3467449107911636e-02 5.8325323798025873e-02
      -5.5814189528202808e-02 4.8583092832982400e-02
      1.2962327876333907e-01 6.6986293841987801e-02
      4.0561226664650877e-04 -1.1619946676193194e-03
      4.8439482604072966e-04 -1.1619048383635208e-03
      1.0901913785787418e-03 4.4324487868443232e-04
      -1.1041604277801421e-04 9.1276287187707055e-04
      1.5994634733699082e-04 -3.1932955174038518e-04
      6.8305453350663947e-04 7.1795743594980487e-04
      -5.6323835170274091e-04 -1.1241613058533884e-03
      -7.5675066263442155e-04 1.1148742624485170e-03
      -9.0852440208591021e-04 -1.0577273885330736e-03
      4.9498393918450821e-04 -8.3725489676422142e-04
      -3.5931447921638035e-04 -2.2157941664319273e-05
      3.9386259913141595e-04 -2.4877910397086227e-04
      -6.5173083031447895e-04 -1.0757328240994868e-03
      -1.1815543051307149e-04 6.5871518940370142e-04
      -1.2884584875876785e-03 -1.1469924724085622e-03
      3.6484165868380902e-04 -1.1945139367169687e-03
      1.1828371684937016e-03 8.9256786012728941e-04
      5.2466645909949163e-04 -3.6932712515967133e-04
      -2.2907085046417277e-04 2.7878345487972037e-04
      7.9058878676626970e-04 3.7155075996645707e-04
      -6.0835722514642843e-04 7.9026124076399013e-04
      8.9995476511273620e-04 1.2288952229468474e-03
      -4.1562699943033898e-05 9.2692961361200209e-04
      -8.4151914103723364e-04 5.9204471904209975e-04
      -1.0115023589889688e-03 -4.2568550913734315e-04
      7.0891657471901595e-04 -5.0714006695539804e-04
      4.5895193876726144e-04 1.0008633773619388e-03
      -3.5583683804147638e-04 9.1098378192343364e-04
      -1.2688563708807318e-03 4.7167456864227409e-05
      -1.6886126670689644e-04 3.0675658548965295e-04
      -4.2223518515585958e-04 7.2762294201488876e-04
      -2.7003919902018111e-04 9.6102531053729706e-04
      -4.1932557124397580e-04 1.3832485589476473e-04
      4.6437662356373007e-04 -2.2201753263699600e-04
      -7.2311251431014616e-04 7.8898737588634223e-04
      -2.6212912646129071e-04 7.7596579593157964e-04
      -4.6289476634363334e-04 8.1166090477644058e-04
      1.2931424481233350e-03 9.4099716638671273e-04
      -1.0987447099214440e-04 -5.6991639244239885e-04
      1.0986112932624670e-03 -8.4434803750468217e-04
      -1.7149273866640669e-01 -7.9152801537417904e-03
      1.9003820174479855e-02 -1.6768520816752602e-03
      -9.4225060426524551e-03 -3.3408064681969642e-02
      -8.7041874768034773e-03 -1.2838735650637305e-02
      -2.3390606220655509e-02 7.2337738792681901e-03
      -1.7997245369677929e-02 -2.1290240548608404e-02
      2.1263716893388837e-02 -1.2804573297977625e-02
      3.2429161612691396e-02 -1.6099839774627180e-02
      3.4096997900634217e-02 -8.3766334495148573e-03
      1.0709480880025191e-03 1.9726779344884048e-02
      -1.6688226772645632e-03 1.9928175052944943e-02
      1.2840713570605468e-02 -1.6162825987288392e-02
      8.1158319042748811e-03 -2.4910275500944754e-02
      9.7999137018857947e-03 -8.3441899855397766e-03
      -1.6548574797903223e-02 9.8510689142527318e-03
      1.6893103378574966e-02 1.9888754195268518e-02
      -1.1034607802907560e-02 -1.2443312799897206e-03
      -1.5677969726635237e-03 -4.6599660870023200e-03
      1.0026324102231624e-02 2.7275008949323141e-02
      -7.1601600610823020e-03 -6.5044088556223114e-03
      7.5890931268876569e-02 7.2290740927455077e-03
      2.2479550208108996e-02 -1.9417899439692236e-02
      -1.2901366427955089e-02 1.2651201095586526e-02
      -3.0843822996465642e-03 -1.5009830968124138e-02
      -1.7608235931921866e-02 -3.2314839819108404e-02
      -1.3293744610093909e-02 1.5467630120831990e-02
      1.9469546021115662e-02 1.3415720709173284e-01
      -3.2789832530935682e-02 1.8226854991462112e-03
      -2.0725407820166259e-02 -3.7502260344418801e-03
      -1.7568746036138939e-02 -1.1274985162765698e-02
      -4.7604741430378704e-02 -2.1468921605401828e-02
      1.7186838687307409e-03 -4.2939400185926652e-02
      -8.5289186523562141e-03 2.2438992129829267e-02
      -1.3451505982129778e-02 -1.5586889121736213e-02
      -4.9124353854596924e-02 -6.2289266398410353e-03
      4.5123996146725853e-02 -2.1726699537312648e-02
      -8.8342942561037054e-03 -1.4740046158000159e-03
      3.2645738148933248e-02 7.6190728120642381e-03
      -1.1482033895621940e-02 -4.8371235786295232e-03
      4.7234931928571405e-03 -6.9403058954987950e-04
      -6.1734886941267782e-02 8.3080616804914985e-03
      -2.7421995700973808e-02 2.2730328379534738e-02
      -6.6408519205336134e-03 1.4736736239067627e-02
      2.5464589271438048e-02 3.0142782466671639e-02
      -3.2122802576191753e-02 1.0755107990947344e-03
      -3.4223559556978367e-02 -2.5696779628144664e-02
      -4.1061346417071834e-02 -1.4718560329691996e-02
      2.5726376514568057e-02 -3.2278246291829474e-02
      -6.9180773731083878e-03 -9.1181451101786885e-03
      2.1733654336415026e-02 2.1948198899202423e-02
      3.0381258691369005e-02 -2.0676954150968461e-02
      -2.9404252822419270e-02 -3.2464670713759865e-02
      1.8289359763814409e-02 -2.1969370654408699e-02
      -1.3981022362626430e-02 -8.4531469092243832e-03
      -2.9203007522778050e-02 -4.2044044468349112e-03
      -2.2749029816637286e-02 -2.5268499371222705e-02
      1.8181653126755050e-02 -2.0640779137917394e-02
      2.1922030607890830e-02 1.5486996942053655e-02
      -1.8109573675060688e-02 2.4881661186993215e-02
      -2.9085289171973533e-03 -1.0138434603313195e-02
      -3.4830040188501055e-02 8.1000219546369205e-03
      -2.5683142927095656e-02 -1.8047201187652316e-02
      -1.6528966204417489e-02 2.8062730517899433e-02
      1.6610411073415907e-02 2.0981047537800029e-02
      -1.2195388827254428e-02 -7.0853572122384894e-03
      3.7124311467441485e-03 2.3661706427606878e-02
      2.4911138352654558e-02 -5.6925867082209770e-03
      -4.1071541550989346e-03 2.0667445879916337e-02
      2.0613433922026556e-02 3.6203457274224444e-03
      1.8673798195728307e-02 2.0507942816648046e-02
      -3.2285564483892172e-02 -2.3243680165315680e-02
      2.7977422962341850e-02 -2.8857277674224652e-02
      1.0316033295753283e-02 2.7303162093032289e-02
      -3.2741590490573833e-02 2.0373915873526403e-02
      1.4806521006413522e-02 9.1672960853734081e-03
      -2.5584944102099525e-02 2.5422350105357719e-02
      -2.6086570938510429e-02 -1.8829606414776934e-02
      -1.3873166836366323e-03 1.7960855531342031e-02
      -8.7410375150850927e-03 1.1515486864003608e-02
      2.7003463343570566e-02 2.5453347174124258e-02
      -5.0801967115892999e-01 -3.0317405453302936e-02
      4.6145416619722095e-02 -1.5484615728508556e-03
      -3.4731644643777287e-02 4.2317637894686781e-02
      -4.5529087520240291e-02 -4.4663470481345835e-02
      -3.6595142069115176e-02 2.5463207395046244e-02
      -3.0403997008098881e-02 -4.1047091553529813e-02
      3.0232601482486462e-02 -4.2020506646952727e-02
      4.2607659721429055e-02 -2.9576606592639488e-02
      5.2560180975968165e-02 -4.4673293317358337e-02
      5.9664539956342157e-03 4.4017827048120226e-02
      -1.0696070622610637e-02 3.4013686830186782e-02
      4.6005630924808548e-02 -2.7999694904589961e-02
      2.3773049608296119e-02 -3.3639443317729875e-02
      4.2428415844954548e-02 -3.6659897759768814e-02
      -3.8541565516580653e-02 1.5861819879283947e-02
      3.7002966168258954e-02 4.7005907270635090e-02
      -3.9224607998101360e-02 -1.2433520104943873e-02
      7.7234208077283837e-04 -7.6908302709604703e-03
      3.9957373070971434e-02 4.5261894882886115e-02
      -3.1172197560575439e-02 -4.0277957802473598e-02
      9.9972205577062573e-04 3.8119467334646537e-02
      3.3892515367888648e-02 -4.2566921336884868e-02
      4.0393599786412326e-02 2.8773131221093009e-02
      -2.1555444365678543e-02 -4.5141919945646890e-02
      -3.4230942421912977e-02 -5.8174871007070299e-02
      -3.9763534406232010e-02 2.2545698892068661e-02
      4.2387969945477041e-02 -8.0915188749873922e-03
      -6.1901529347676655e-02 1.5598560835446666e-02
      -4.7453337613419320e-02 1.4476506716878346e-04
      -3.4572835670850351e-02 -3.5183811477139351e-02
      -4.4865946748123067e-02 -4.0944306984323178e-02
      -1.4669835350622171e-02 -4.7633017637914575e-02
      -4.3764214614636192e-02 3.9472396684476371e-02
      -2.7359283158976743e-02 -3.8985785711084672e-02
      4.0229690227366860e-02 -1.7962013356832434e-02
      -1.4983701058008498e-02 -4.7589933401034921e-02
      -2.4731823420061336e-02 -1.9377734801539363e-02
      6.3119938133291864e-02 2.7480716738267668e-02
      -4.6403546835519005e-02 3.2264510985519197e-02
      1.2470684275924199e-02 -1.6184983689857088e-02
      -7.6487627492640251e-02 -4.2515318624228846e-02
      -1.1762377428203866e-02 -7.7671484433524562e-02
      2.8740971811011394e-02 -5.1991335868382157e-02
      1.8756784370306274e-02 1.6049398634798470e-02
      1.1361375547091437e-01 1.5164412684914084e-02
      1.1692686693907886e-01 8.9243147438523684e-02
      -2.1635978950708217e-02 5.5167373241353353e-02
      -7.1320075779369094e-02 1.1278815211582674e-01
      -1.9640301325869341e-02 5.1911729778219999e-02
      -1.0204743295224358e-01 -9.5865511381120261e-02
      -6.2432098282366837e-02 5.6762662087940598e-02
      -1.4722040447034668e-02 1.1543780288465194e-01
      -3.8386105018083608e-02 4.1916622291774619e-02
      -2.0010834181678972e-02 7.2851129057912328e-02
      1.0651752496827152e-01 3.9596289499172481e-02
      5.3460122588891087e-02 -7.9546828174399589e-03
      1.0959711878251930e-02 9.6400297081989286e-02
      -9.6470046706914170e-02 -5.9715803544033053e-02
      2.3826935597418400e-02 -7.4921289064611402e-02
      1.0325258195095244e-01 5.6562517409325816e-02
      2.9339195124714456e-02 -7.3244513219133500e-02
      -8.5020126448187724e-04 8.4781805668376661e-02
      -1.1004362637186493e-01 -1.0376008983120971e-01
      -4.1825582084735552e-02 7.4312829319860448e-03
      6.1874742874530070e-02 2.5838489967061732e-02
      -1.3735126418376736e-02 -5.9272155148466732e-02
      -1.0263511721936451e-01 6.8699843256935123e-02
      2.4782732361223050e-02 -9.5713949312525304e-02
      3.9323015803294191e-03 -1.8222100200085144e-02
      -5.7330102762601295e-02 -5.0961964159864648e-02
      3.9850567340824018e-02 1.0348014285365749e-01
      -9.6540495063693582e-02 3.4464956085244067e-02
      4.3235185305644788e-03 -1.0766851399247396e-01
      1.1703831090634731e-01 -4.3862513367015979e-02
      -4.5333460470802812e-02 -3.7841959374606646e-02
      1.6386515288121167e-02 1.1638578722595851e-02
      1.0506813790873810e-01 8.7441171710077092e-02
      -2.4909795034057044e-02 -4.3605611898428411e-02
      4.3737128513428446e-02 -6.2855195879386552e-02
      -1.1349635044950557e-01 -5.2255109684905141e-02
      -4.1295992089735412e-01 -2.2317803342002597e-02
      6.0261217403573465e-02 -3.7972256341286439e-02
      -1.7790912489928614e-02 -4.7054024969649354e-02
      -3.1665782313981886e-02 -5.3067758951502841e-02
      6.4745496194341126e-02 1.9051553938478041e-02
      6.0265937048638488e-02 5.3985122696930378e-02
      8.4742286054823562e-02 1.3930632208135769e-02
      -2.2908186810043817e-02 5.5898648271420492e-02
      6.8242689351691546e-02 -1.5064937088834656e-03
      -3.0467434547722282e-02 -5.2918611528869716e-02
      -4.6403679081306340e-02 9.1966342185570163e-02
      5.1388870513756457e-02 5.5251793509002563e-02
      -4.0396985040494583e-02 -3.9139293957145681e-02
      2.8588827719499502e-02 2.7799485159510514e-03
      5.8763271799152819e-02 1.8616620532561162e-02
      8.6809734529405505e-02 5.9363491812360558e-02
      -3.8356217602907798e-02 3.1825559400677626e-02
      -3.2515854290490871e-02 -3.3894777176578149e-02
      3.4751415581141851e-02 -2.8764930395361692e-02
      6.5773213705473841e-03 -1.1613885530205792e-03
      7.9890684586972960e-02 -2.7725687528954157e-03
      9.7079435821934318e-02 3.1234905579151720e-02
      4.4622032106439752e-02 -5.0143737477608682e-02
      -2.9414013191431422e-02 -5.2780371254843174e-02
      5.7334062824052040e-02 -5.3477655920417762e-02
      -3.3089770728547525e-02 -4.1687191796568789e-02
      -6.0827740392052639e-02 1.0060126550971747e-01
      -6.1590858847957043e-02 -3.3024873711507155e-02
      -6.7201631235340925e-02 -1.4464765479868495e-02
      -8.9157432435191822e-02 -5.8551131762740183e-02
      -5.8949728496494408e-02 6.1620508922081603e-02
      -4.4770553619734546e-02 -5.5303820596529961e-02
      -3.2257548863683254e-02 -6.2888185345955708e-02
      5.4539010552886638e-02 -7.2365287611091261e-02
      -5.0800904723138710e-02 -2.7084914202082335e-02
      5.5028720758960904e-02 -7.3896189499631226e-02
      4.4792259491994536e-02 3.0711052061372590e-02
      7.2177302463815304e-02 -4.1314091489821174e-02
      -1.5102387648933346e-02 -7.5568065845383198e-02
      -3.8517184495709358e-02 -4.2426671979993627e-02
      8.1322321921091484e-02 -2.4026671056659055e-02
      -2.1625535908603243e-02 -5.3951192028798049e-02
      2.4672052582568004e-02 -5.0789252921333974e-02
      2.5913107406703585e-02 2.7404034663927056e-02
      8.3481536119774699e-02 -3.2965512137869048e-03
      8.3238559888495975e-02 6.8700671497964147e-02
      -3.1317971210027468e-02 4.5565724438756443e-02
      -5.7162030637491347e-02 8.0470088585658447e-02
      -1.1668036328057159e-02 4.3753245675392835e-02
      -7.1841660992547740e-02 -7.0393350710423616e-02
      -3.3817107054286977e-02 3.0948911402883000e-02
      -2.7669478752106864e-02 8.4026859706427717e-02
      -3.5913196194539455e-02 2.6280998262858256e-02
      -2.4356760321510313e-02 5.4382890521491804e-02
      7.8464669110219709e-02 1.9448919581711566e-02
      2.6965916519966691e-02 -2.1907129916515604e-02
      1.5042290492073944e-02 6.7892602945715502e-02
      -6.7792089250231460e-02 -3.8532097235246539e-02
      2.2139182215453815e-02 -5.9366866359656323e-02
      7.3174497873764455e-02 4.3716650256786650e-02
      4.4357068344734248e-02 -5.4612288627590336e-02
      -1.4426644219296444e-02 6.2646799434263420e-02
      -5.4065198613793219e-02 -7.6541191084736157e-02
      -1.9282060884354180e-02 1.1936146015529109e-02
      5.5898307873983866e-02 1.6382870381836393e-02
      -8.5783058158551244e-03 -4.8230858864994917e-02
      -7.6625382872604078e-02 7.6900687902597006e-02
      1.4980710287398282e-02 -6.8640739403454915e-02
      1.5690038266344783e-02 -1.2435605555423595e-02
      -3.3937431670586840e-02 -3.0682964634031019e-02
      2.2130340817247952e-02 7.6131091496439249e-02
      -6.5643901328613849e-02 2.0075628247281502e-02
      1.3363376789885823e-02 -7.9039570773198342e-02
      8.4311458815655674e-02 -2.8161631625841441e-02
      -4.5141153114950691e-02 -1.8641043868113952e-02
      3.0257678424917615e-02 2.0646688390208896e-02
      7.4255276157537603e-02 6.3427936717890446e-02
      -1.7280799245728558e-02 -3.9287690523146505e-02
      3.4255246844999844e-02 -5.9314987850774055e-02
      -7.8672656719427858e-02 -2.5634594641316365e-02
      -2.7026907940452871e-01 -6.6530758456491432e-03
      1.8426112915746074e-02 -2.7270144629777684e-02
      -7.8691797307883539e-03 -5.6155005716357474e-02
      -2.9775448277817290e-03 -1.4556969641656831e-02
      -1.4887196849509548e-02 1.2557673545325049e-02
      -4.8069967116174785e-03 -5.5017342175787401e-03
      5.1050537202643430e-02 1.1673126326278404e-02
      8.8443567958915430e-03 1.9273706046183975e-03
      4.3398582031503700e-02 7.8839697797999722e-03
      -2.3559685494487906e-02 4.9243394204312669e-03
      -2.7016838798252646e-02 2.3956683550008136e-02
      1.3295260633419119e-02 1.0726491056945470e-04
      -7.4777754320203317e-03 -2.6099470862800123e-02
      8.0572869226442027e-03 9.9923588982903083e-03
      -6.4226192033888909e-03 1.6988115792193618e-02
      2.3754290199281033e-02 1.8074706895752541e-02
      -7.3332671419440026e-03 2.1295960462104201e-02
      -2.7293817865473868e-02 -2.3104187197433870e-02
      5.1450244587344773e-03 2.7072273969492612e-03
      1.6065353934911996e-03 7.1785825676403507e-03
      7.5177469075463674e-02 -1.1174650066429610e-02
      3.6582581764297295e-02 5.6900464722409979e-03
