<?xml version="1.0"?>
<opencv_storage>
<my_nn type_id="opencv-ml-ann-mlp">
  <layer_sizes type_id="opencv-matrix">
    <rows>1</rows>
    <cols>3</cols>
    <dt>i</dt>
    <data>
      1558 20 2</data></layer_sizes>
  <activation_function>SIGMOID_SYM</activation_function>
  <f_param1>5.9999999999999998e-01</f_param1>
  <f_param2>1.</f_param2>
  <min_val>-9.4999999999999996e-01</min_val>
  <max_val>9.4999999999999996e-01</max_val>
  <min_val1>-9.7999999999999998e-01</min_val1>
  <max_val1>9.7999999999999998e-01</max_val1>
  <training_params>
    <train_method>BACKPROP</train_method>
    <dw_scale>1.0000000000000001e-01</dw_scale>
    <moment_scale>1.0000000000000001e-01</moment_scale>
    <term_criteria><epsilon>9.9999999747524271e-07</epsilon>
      <iterations>1000</iterations></term_criteria></training_params>
  <input_scale>
    1.8300191378858792e-02 -1.1539702932589053e+00
    7.8304672878783538e-03 -1.1857029409908404e+00
    1.9390390195944518e-01 -7.1541311034052679e-01
    2.3540320703752764e+00 -1.7977951803663625e+00
    2.0054986879841753e+01 -4.9987504685547732e-02 1. 0.
    1.1607793383580484e+01 -8.6798056208228933e-02
    1.3541386566673944e+01 -7.4254861532110361e-02
    1.3541386566673944e+01 -7.4254861532110361e-02
    7.8615904616149734e+00 -1.2932825784311769e-01
    1.4963067721862023e+01 -6.7132407525801685e-02
    1.1242021179530175e+01 -8.9667167932444058e-02
    9.6017137476335748e+00 -1.0530294239677898e-01 1. 0.
    1.1242021179530175e+01 -8.9667167932444058e-02
    1.3541386566673944e+01 -7.4254861532110361e-02
    2.2416556336823863e+01 -4.4699015626767417e-02
    1.2968141143619201e+01 -7.7576118506196612e-02
    1.1607793383580484e+01 -8.6798056208228933e-02
    1.6958034388522272e+01 -5.9175593579090677e-02
    1.4198767904999368e+01 -7.0781495039877199e-02
    1.1607793383580484e+01 -8.6798056208228933e-02
    1.2462512392675764e+01 -8.0764038437081215e-02
    1.2012191406989986e+01 -8.3833838333928115e-02
    1.4198767904999368e+01 -7.0781495039877199e-02
    1.5866757828995944e+01 -6.3277199716833266e-02
    3.1685974783869160e+01 -3.1591201180328175e-02
    1.0065290382967309e+01 -1.0035184828481861e-01
    1.6958034388522272e+01 -5.9175593579090677e-02
    4.4799559135700399e+01 -2.2332781224177665e-02
    1.6958034388522272e+01 -5.9175593579090677e-02
    1.2968141143619201e+01 -7.7576118506196612e-02
    1.6958034388522272e+01 -5.9175593579090677e-02 1. 0.
    6.4144806782925263e+00 -1.5988236984776985e-01
    1.2462512392675764e+01 -8.0764038437081215e-02
    1.4198767904999368e+01 -7.0781495039877199e-02
    1.3541386566673944e+01 -7.4254861532110361e-02 1. 0.
    1.3541386566673944e+01 -7.4254861532110361e-02
    1.3541386566673944e+01 -7.4254861532110361e-02
    1.2462512392675764e+01 -8.0764038437081215e-02
    8.5239083087336400e+00 -1.1897778297335090e-01
    1.2012191406989986e+01 -8.3833838333928115e-02
    1.6958034388522272e+01 -5.9175593579090677e-02 1. 0.
    1.6958034388522272e+01 -5.9175593579090677e-02
    9.0140235127796835e+00 -1.1233827907252845e-01
    2.5877947453769139e+01 -3.8700818724480265e-02
    1.2012191406989986e+01 -8.3833838333928115e-02
    1.0909103859096174e+01 -9.2450032704204863e-02
    1.4963067721862023e+01 -6.7132407525801685e-02
    1.0604409402243963e+01 -9.5154221954332652e-02 1. 0.
    1.3541386566673944e+01 -7.4254861532110361e-02
    1.6958034388522272e+01 -5.9175593579090677e-02
    6.6109638401973907e+00 -1.5489297133064672e-01
    1.2968141143619201e+01 -7.7576118506196612e-02
    1.3541386566673944e+01 -7.4254861532110361e-02
    1.4198767904999368e+01 -7.0781495039877199e-02
    4.4799559135700399e+01 -2.2332781224177665e-02 1. 0. 1. 0.
    1.3541386566673944e+01 -7.4254861532110361e-02
    3.8018616885482008e+00 -2.8428676634208877e-01
    1.2012191406989986e+01 -8.3833838333928115e-02
    1.4198767904999368e+01 -7.0781495039877199e-02
    7.2426324346772191e+00 -1.4080890575892896e-01 1. 0.
    1.1242021179530175e+01 -8.9667167932444058e-02
    1.1242021179530175e+01 -8.9667167932444058e-02
    1.0324171130043423e+01 -9.7786266934608693e-02
    1.3541386566673944e+01 -7.4254861532110361e-02
    1.0324171130043423e+01 -9.7786266934608693e-02
    7.3354469957392476e+00 -1.3895662304989601e-01
    1.4198767904999368e+01 -7.0781495039877199e-02
    4.4799559135700399e+01 -2.2332781224177665e-02 1. 0. 1. 0.
    1.8312190839256054e+01 -5.4772255750516606e-02
    1.0909103859096174e+01 -9.2450032704204863e-02 1. 0. 1. 0.
    8.8412090500664817e+00 -1.1459194182538808e-01
    1.1607793383580484e+01 -8.6798056208228933e-02
    1.2012191406989986e+01 -8.3833838333928115e-02
    1.3541386566673944e+01 -7.4254861532110361e-02
    1.6958034388522272e+01 -5.9175593579090677e-02
    1.1242021179530175e+01 -8.9667167932444058e-02
    1.3541386566673944e+01 -7.4254861532110361e-02
    4.4799559135700399e+01 -2.2332781224177665e-02
    1.2462512392675764e+01 -8.0764038437081215e-02 1. 0.
    1.4963067721862023e+01 -6.7132407525801685e-02
    1.3541386566673944e+01 -7.4254861532110361e-02
    1.3541386566673944e+01 -7.4254861532110361e-02
    1.2462512392675764e+01 -8.0764038437081215e-02
    1.4963067721862023e+01 -6.7132407525801685e-02
    2.0054986879841753e+01 -4.9987504685547732e-02
    1.0065290382967309e+01 -1.0035184828481861e-01
    1.8312190839256054e+01 -5.4772255750516606e-02
    1.8312190839256054e+01 -5.4772255750516606e-02
    1.1607793383580484e+01 -8.6798056208228933e-02
    1.4198767904999368e+01 -7.0781495039877199e-02
    3.1685974783869160e+01 -3.1591201180328175e-02
    6.6109638401973907e+00 -1.5489297133064672e-01
    1.6958034388522272e+01 -5.9175593579090677e-02
    1.0324171130043423e+01 -9.7786266934608693e-02
    2.0054986879841753e+01 -4.9987504685547732e-02
    1.3541386566673944e+01 -7.4254861532110361e-02
    1.0909103859096174e+01 -9.2450032704204863e-02 1. 0.
    9.1975780678481218e+00 -1.1004081437106426e-01
    9.0140235127796835e+00 -1.1233827907252845e-01
    1.8312190839256054e+01 -5.4772255750516606e-02 1. 0. 1. 0.
    1.0065290382967309e+01 -1.0035184828481861e-01
    9.8251915436238537e+00 -1.0285594337791670e-01
    1.0324171130043423e+01 -9.7786266934608693e-02
    6.9845035393091228e+00 -1.4623586672531561e-01 1. 0.
    1.3541386566673944e+01 -7.4254861532110361e-02
    1.2968141143619201e+01 -7.7576118506196612e-02
    1.3541386566673944e+01 -7.4254861532110361e-02 1. 0.
    1.4963067721862023e+01 -6.7132407525801685e-02
    4.4799559135700399e+01 -2.2332781224177665e-02
    1.1607793383580484e+01 -8.6798056208228933e-02
    1.8312190839256054e+01 -5.4772255750516606e-02
    1.1607793383580484e+01 -8.6798056208228933e-02
    1.2968141143619201e+01 -7.7576118506196612e-02
    1.0324171130043423e+01 -9.7786266934608693e-02
    6.4144806782925263e+00 -1.5988236984776985e-01
    1.1607793383580484e+01 -8.6798056208228933e-02
    1.2462512392675764e+01 -8.0764038437081215e-02
    2.0054986879841753e+01 -4.9987504685547732e-02
    4.4799559135700399e+01 -2.2332781224177665e-02
    1.1607793383580484e+01 -8.6798056208228933e-02
    9.3930287922664117e+00 -1.0769674088839852e-01
    1.6958034388522272e+01 -5.9175593579090677e-02
    1.2462512392675764e+01 -8.0764038437081215e-02
    1.4963067721862023e+01 -6.7132407525801685e-02
    1.3541386566673944e+01 -7.4254861532110361e-02
    1.2012191406989986e+01 -8.3833838333928115e-02
    6.1786577897286383e+00 -1.6632478596477890e-01 1. 0.
    1.1607793383580484e+01 -8.6798056208228933e-02
    1.4198767904999368e+01 -7.0781495039877199e-02
    1.4198767904999368e+01 -7.0781495039877199e-02
    1.5866757828995944e+01 -6.3277199716833266e-02
    9.1975780678481218e+00 -1.1004081437106426e-01
    1.3541386566673944e+01 -7.4254861532110361e-02
    1.0324171130043423e+01 -9.7786266934608693e-02
    1.4198767904999368e+01 -7.0781495039877199e-02
    1.2968141143619201e+01 -7.7576118506196612e-02
    1.0909103859096174e+01 -9.2450032704204863e-02
    1.1607793383580484e+01 -8.6798056208228933e-02
    1.1242021179530175e+01 -8.9667167932444058e-02
    2.5877947453769139e+01 -3.8700818724480265e-02
    2.5877947453769139e+01 -3.8700818724480265e-02 1. 0. 1. 0.
    1.2462512392675764e+01 -8.0764038437081215e-02 1. 0.
    2.2416556336823863e+01 -4.4699015626767417e-02
    1.4963067721862023e+01 -6.7132407525801685e-02
    8.6781299569933310e+00 -1.1680434139522429e-01
    1.3541386566673944e+01 -7.4254861532110361e-02
    1.2462512392675764e+01 -8.0764038437081215e-02 1. 0.
    1.2968141143619201e+01 -7.7576118506196612e-02
    5.6900532260917345e+00 -1.8153709195905832e-01
    8.5239083087336400e+00 -1.1897778297335090e-01
    2.2416556336823863e+01 -4.4699015626767417e-02
    2.5877947453769139e+01 -3.8700818724480265e-02
    1.4198767904999368e+01 -7.0781495039877199e-02
    1.2012191406989986e+01 -8.3833838333928115e-02
    1.0604409402243963e+01 -9.5154221954332652e-02 1. 0.
    1.4198767904999368e+01 -7.0781495039877199e-02
    1.4198767904999368e+01 -7.0781495039877199e-02
    1.6958034388522272e+01 -5.9175593579090677e-02
    4.4799559135700399e+01 -2.2332781224177665e-02 1. 0. 1. 0.
    9.0140235127796835e+00 -1.1233827907252845e-01
    2.1481246981231847e+00 -6.8213132238507901e-01
    1.4198767904999368e+01 -7.0781495039877199e-02
    1.2968141143619201e+01 -7.7576118506196612e-02
    8.6781299569933310e+00 -1.1680434139522429e-01
    1.4198767904999368e+01 -7.0781495039877199e-02
    2.6003136563288565e+00 -4.6924902472135888e-01
    1.3541386566673944e+01 -7.4254861532110361e-02
    1.8312190839256054e+01 -5.4772255750516606e-02
    9.8251915436238537e+00 -1.0285594337791670e-01
    4.4799559135700399e+01 -2.2332781224177665e-02
    1.4198767904999368e+01 -7.0781495039877199e-02
    1.6958034388522272e+01 -5.9175593579090677e-02
    9.6017137476335748e+00 -1.0530294239677898e-01
    1.1607793383580484e+01 -8.6798056208228933e-02
    1.2968141143619201e+01 -7.7576118506196612e-02
    1.5866757828995944e+01 -6.3277199716833266e-02 1. 0.
    1.1242021179530175e+01 -8.9667167932444058e-02
    1.3541386566673944e+01 -7.4254861532110361e-02
    1.2012191406989986e+01 -8.3833838333928115e-02 1. 0.
    1.1607793383580484e+01 -8.6798056208228933e-02
    1.3541386566673944e+01 -7.4254861532110361e-02
    1.0065290382967309e+01 -1.0035184828481861e-01
    1.4198767904999368e+01 -7.0781495039877199e-02
    1.1242021179530175e+01 -8.9667167932444058e-02
    1.0065290382967309e+01 -1.0035184828481861e-01
    1.6958034388522272e+01 -5.9175593579090677e-02
    1.3541386566673944e+01 -7.4254861532110361e-02
    1.2968141143619201e+01 -7.7576118506196612e-02
    1.3541386566673944e+01 -7.4254861532110361e-02
    9.1975780678481218e+00 -1.1004081437106426e-01 1. 0.
    1.1607793383580484e+01 -8.6798056208228933e-02
    4.4799559135700399e+01 -2.2332781224177665e-02
    1.4198767904999368e+01 -7.0781495039877199e-02
    1.3541386566673944e+01 -7.4254861532110361e-02
    1.2462512392675764e+01 -8.0764038437081215e-02
    1.2968141143619201e+01 -7.7576118506196612e-02
    9.8251915436238537e+00 -1.0285594337791670e-01
    1.4963067721862023e+01 -6.7132407525801685e-02
    1.0604409402243963e+01 -9.5154221954332652e-02
    1.0324171130043423e+01 -9.7786266934608693e-02
    1.3541386566673944e+01 -7.4254861532110361e-02
    7.8615904616149734e+00 -1.2932825784311769e-01
    4.4799559135700399e+01 -2.2332781224177665e-02
    9.1975780678481218e+00 -1.1004081437106426e-01
    6.6109638401973907e+00 -1.5489297133064672e-01
    7.0673682802187265e+00 -1.4444770662461007e-01
    1.1607793383580484e+01 -8.6798056208228933e-02
    2.0054986879841753e+01 -4.9987504685547732e-02
    1.0324171130043423e+01 -9.7786266934608693e-02
    1.5866757828995944e+01 -6.3277199716833266e-02
    1.4198767904999368e+01 -7.0781495039877199e-02
    6.5434074821684707e+00 -1.5657206338189758e-01 1. 0.
    1.2968141143619201e+01 -7.7576118506196612e-02 1. 0.
    8.5239083087336400e+00 -1.1897778297335090e-01
    1.0909103859096174e+01 -9.2450032704204863e-02
    1.2968141143619201e+01 -7.7576118506196612e-02
    1.4198767904999368e+01 -7.0781495039877199e-02 1. 0.
    1.4963067721862023e+01 -6.7132407525801685e-02
    1.0909103859096174e+01 -9.2450032704204863e-02
    1.4963067721862023e+01 -6.7132407525801685e-02
    2.5877947453769139e+01 -3.8700818724480265e-02
    1.2462512392675764e+01 -8.0764038437081215e-02 1. 0.
    1.1607793383580484e+01 -8.6798056208228933e-02
    1.1242021179530175e+01 -8.9667167932444058e-02
    2.0054986879841753e+01 -4.9987504685547732e-02
    3.1685974783869160e+01 -3.1591201180328175e-02
    1.4198767904999368e+01 -7.0781495039877199e-02 1. 0.
    1.2462512392675764e+01 -8.0764038437081215e-02
    1.0065290382967309e+01 -1.0035184828481861e-01
    6.7528309066313401e+00 -1.5148424267119157e-01
    6.5434074821684707e+00 -1.5657206338189758e-01 1. 0.
    1.2968141143619201e+01 -7.7576118506196612e-02
    1.2968141143619201e+01 -7.7576118506196612e-02
    1.3541386566673944e+01 -7.4254861532110361e-02
    1.2012191406989986e+01 -8.3833838333928115e-02
    1.3541386566673944e+01 -7.4254861532110361e-02
    1.3541386566673944e+01 -7.4254861532110361e-02
    2.0054986879841753e+01 -4.9987504685547732e-02
    2.6003136563288565e+00 -4.6924902472135888e-01
    8.5239083087336400e+00 -1.1897778297335090e-01
    3.1685974783869160e+01 -3.1591201180328175e-02 1. 0.
    1.2462512392675764e+01 -8.0764038437081215e-02 1. 0. 1. 0.
    1.2462512392675764e+01 -8.0764038437081215e-02
    9.8251915436238537e+00 -1.0285594337791670e-01 1. 0.
    2.0054986879841753e+01 -4.9987504685547732e-02
    1.2012191406989986e+01 -8.3833838333928115e-02
    1.2462512392675764e+01 -8.0764038437081215e-02
    1.1242021179530175e+01 -8.9667167932444058e-02
    1.4963067721862023e+01 -6.7132407525801685e-02 1. 0.
    1.4963067721862023e+01 -6.7132407525801685e-02
    1.4198767904999368e+01 -7.0781495039877199e-02
    1.3541386566673944e+01 -7.4254861532110361e-02
    1.4198767904999368e+01 -7.0781495039877199e-02
    1.4198767904999368e+01 -7.0781495039877199e-02
    9.6017137476335748e+00 -1.0530294239677898e-01
    1.3541386566673944e+01 -7.4254861532110361e-02
    8.3777731219601375e+00 -1.2111436716692121e-01
    1.5866757828995944e+01 -6.3277199716833266e-02
    9.1975780678481218e+00 -1.1004081437106426e-01
    1.3541386566673944e+01 -7.4254861532110361e-02
    1.0065290382967309e+01 -1.0035184828481861e-01
    1.4198767904999368e+01 -7.0781495039877199e-02
    9.1975780678481218e+00 -1.1004081437106426e-01
    1.1242021179530175e+01 -8.9667167932444058e-02
    1.5866757828995944e+01 -6.3277199716833266e-02
    1.4198767904999368e+01 -7.0781495039877199e-02
    4.4799559135700399e+01 -2.2332781224177665e-02 1. 0.
    1.4198767904999368e+01 -7.0781495039877199e-02
    1.2012191406989986e+01 -8.3833838333928115e-02
    1.3541386566673944e+01 -7.4254861532110361e-02
    1.2462512392675764e+01 -8.0764038437081215e-02
    1.2012191406989986e+01 -8.3833838333928115e-02 1. 0.
    1.4198767904999368e+01 -7.0781495039877199e-02
    2.5877947453769139e+01 -3.8700818724480265e-02
    9.3930287922664117e+00 -1.0769674088839852e-01
    2.0054986879841753e+01 -4.9987504685547732e-02
    6.6109638401973907e+00 -1.5489297133064672e-01
    1.6958034388522272e+01 -5.9175593579090677e-02
    1.2462512392675764e+01 -8.0764038437081215e-02
    1.0065290382967309e+01 -1.0035184828481861e-01
    1.0065290382967309e+01 -1.0035184828481861e-01
    1.3541386566673944e+01 -7.4254861532110361e-02
    4.4799559135700399e+01 -2.2332781224177665e-02
    1.2462512392675764e+01 -8.0764038437081215e-02
    1.8312190839256054e+01 -5.4772255750516606e-02
    1.6958034388522272e+01 -5.9175593579090677e-02
    1.1242021179530175e+01 -8.9667167932444058e-02
    8.3777731219601375e+00 -1.2111436716692121e-01
    1.1607793383580484e+01 -8.6798056208228933e-02
    1.3541386566673944e+01 -7.4254861532110361e-02
    1.3541386566673944e+01 -7.4254861532110361e-02
    1.2462512392675764e+01 -8.0764038437081215e-02 1. 0.
    5.6900532260917345e+00 -1.8153709195905832e-01
    1.4198767904999368e+01 -7.0781495039877199e-02
    9.8251915436238537e+00 -1.0285594337791670e-01
    1.2462512392675764e+01 -8.0764038437081215e-02
    7.4320257992567234e+00 -1.3708123358549290e-01
    1.2012191406989986e+01 -8.3833838333928115e-02
    2.2416556336823863e+01 -4.4699015626767417e-02
    1.2968141143619201e+01 -7.7576118506196612e-02
    1.4963067721862023e+01 -6.7132407525801685e-02 1. 0.
    6.1786577897286383e+00 -1.6632478596477890e-01
    6.5434074821684707e+00 -1.5657206338189758e-01
    1.5866757828995944e+01 -6.3277199716833266e-02
    2.0054986879841753e+01 -4.9987504685547732e-02
    1.2012191406989986e+01 -8.3833838333928115e-02
    4.3925369109434662e+00 -2.4086692931394876e-01
    1.3541386566673944e+01 -7.4254861532110361e-02 1. 0.
    2.2416556336823863e+01 -4.4699015626767417e-02
    1.4198767904999368e+01 -7.0781495039877199e-02
    1.1242021179530175e+01 -8.9667167932444058e-02
    1.0324171130043423e+01 -9.7786266934608693e-02
    1.3541386566673944e+01 -7.4254861532110361e-02
    5.6900532260917345e+00 -1.8153709195905832e-01
    1.2968141143619201e+01 -7.7576118506196612e-02
    6.6109638401973907e+00 -1.5489297133064672e-01
    1.0909103859096174e+01 -9.2450032704204863e-02
    1.1242021179530175e+01 -8.9667167932444058e-02
    1.3541386566673944e+01 -7.4254861532110361e-02
    1.3541386566673944e+01 -7.4254861532110361e-02
    6.7528309066313401e+00 -1.5148424267119157e-01
    1.2012191406989986e+01 -8.3833838333928115e-02 1. 0.
    1.3541386566673944e+01 -7.4254861532110361e-02
    4.4799559135700399e+01 -2.2332781224177665e-02
    6.6109638401973907e+00 -1.5489297133064672e-01
    4.4799559135700399e+01 -2.2332781224177665e-02
    1.4963067721862023e+01 -6.7132407525801685e-02
    1.4198767904999368e+01 -7.0781495039877199e-02
    1.4198767904999368e+01 -7.0781495039877199e-02
    1.0065290382967309e+01 -1.0035184828481861e-01
    6.6109638401973907e+00 -1.5489297133064672e-01
    1.1607793383580484e+01 -8.6798056208228933e-02
    3.1685974783869160e+01 -3.1591201180328175e-02
    1.4198767904999368e+01 -7.0781495039877199e-02
    1.0324171130043423e+01 -9.7786266934608693e-02 1. 0.
    1.2462512392675764e+01 -8.0764038437081215e-02
    8.5239083087336400e+00 -1.1897778297335090e-01
    1.1242021179530175e+01 -8.9667167932444058e-02
    7.9814604390183508e+00 -1.2732140281584606e-01 1. 0. 1. 0.
    1.1607793383580484e+01 -8.6798056208228933e-02 1. 0.
    1.1607793383580484e+01 -8.6798056208228933e-02
    1.5866757828995944e+01 -6.3277199716833266e-02
    1.1607793383580484e+01 -8.6798056208228933e-02
    2.0054986879841753e+01 -4.9987504685547732e-02
    1.4198767904999368e+01 -7.0781495039877199e-02
    1.4198767904999368e+01 -7.0781495039877199e-02
    1.2012191406989986e+01 -8.3833838333928115e-02
    6.9045686351696505e+00 -1.4800421301709618e-01
    1.6958034388522272e+01 -5.9175593579090677e-02
    1.4198767904999368e+01 -7.0781495039877199e-02
    4.4799559135700399e+01 -2.2332781224177665e-02
    1.1607793383580484e+01 -8.6798056208228933e-02
    1.1242021179530175e+01 -8.9667167932444058e-02
    1.3541386566673944e+01 -7.4254861532110361e-02
    1.1607793383580484e+01 -8.6798056208228933e-02
    3.1685974783869160e+01 -3.1591201180328175e-02
    1.1242021179530175e+01 -8.9667167932444058e-02
    1.0065290382967309e+01 -1.0035184828481861e-01
    1.2462512392675764e+01 -8.0764038437081215e-02
    4.4799559135700399e+01 -2.2332781224177665e-02
    9.8251915436238537e+00 -1.0285594337791670e-01
    1.6958034388522272e+01 -5.9175593579090677e-02 1. 0. 1. 0.
    1.0909103859096174e+01 -9.2450032704204863e-02
    1.3541386566673944e+01 -7.4254861532110361e-02
    1.4963067721862023e+01 -6.7132407525801685e-02
    1.4198767904999368e+01 -7.0781495039877199e-02
    1.2462512392675764e+01 -8.0764038437081215e-02
    4.0475725769778741e+00 -2.6432303468798679e-01 1. 0.
    1.4198767904999368e+01 -7.0781495039877199e-02
    1.6958034388522272e+01 -5.9175593579090677e-02
    1.4198767904999368e+01 -7.0781495039877199e-02
    1.2968141143619201e+01 -7.7576118506196612e-02
    2.5877947453769139e+01 -3.8700818724480265e-02
    1.2968141143619201e+01 -7.7576118506196612e-02
    2.5877947453769139e+01 -3.8700818724480265e-02
    4.4699348737505122e+00 -2.3619795444544081e-01
    1.2968141143619201e+01 -7.7576118506196612e-02
    2.2416556336823863e+01 -4.4699015626767417e-02
    1.2968141143619201e+01 -7.7576118506196612e-02
    1.8312190839256054e+01 -5.4772255750516606e-02
    6.6109638401973907e+00 -1.5489297133064672e-01
    1.2012191406989986e+01 -8.3833838333928115e-02
    4.4799559135700399e+01 -2.2332781224177665e-02
    1.4198767904999368e+01 -7.0781495039877199e-02 1. 0.
    1.8312190839256054e+01 -5.4772255750516606e-02
    1.2968141143619201e+01 -7.7576118506196612e-02
    9.0140235127796835e+00 -1.1233827907252845e-01
    1.3541386566673944e+01 -7.4254861532110361e-02
    1.4198767904999368e+01 -7.0781495039877199e-02
    1.4198767904999368e+01 -7.0781495039877199e-02
    1.4198767904999368e+01 -7.0781495039877199e-02
    1.4198767904999368e+01 -7.0781495039877199e-02 1. 0.
    1.3541386566673944e+01 -7.4254861532110361e-02
    1.2012191406989986e+01 -8.3833838333928115e-02
    1.2462512392675764e+01 -8.0764038437081215e-02
    1.5866757828995944e+01 -6.3277199716833266e-02
    1.4963067721862023e+01 -6.7132407525801685e-02
    1.4198767904999368e+01 -7.0781495039877199e-02 1. 0.
    3.8018616885482008e+00 -2.8428676634208877e-01
    3.1685974783869160e+01 -3.1591201180328175e-02
    5.3401514198301356e+00 -1.9433252923609165e-01
    1.3541386566673944e+01 -7.4254861532110361e-02
    1.4963067721862023e+01 -6.7132407525801685e-02 1. 0.
    2.5877947453769139e+01 -3.8700818724480265e-02 1. 0.
    1.2968141143619201e+01 -7.7576118506196612e-02
    1.5866757828995944e+01 -6.3277199716833266e-02
    1.0065290382967309e+01 -1.0035184828481861e-01 1. 0. 1. 0.
    1.3541386566673944e+01 -7.4254861532110361e-02 1. 0.
    1.2462512392675764e+01 -8.0764038437081215e-02
    1.2012191406989986e+01 -8.3833838333928115e-02
    1.4198767904999368e+01 -7.0781495039877199e-02
    1.4198767904999368e+01 -7.0781495039877199e-02
    3.1685974783869160e+01 -3.1591201180328175e-02
    1.4963067721862023e+01 -6.7132407525801685e-02
    1.3541386566673944e+01 -7.4254861532110361e-02
    1.2462512392675764e+01 -8.0764038437081215e-02
    1.6958034388522272e+01 -5.9175593579090677e-02
    1.4198767904999368e+01 -7.0781495039877199e-02
    1.4198767904999368e+01 -7.0781495039877199e-02
    1.2462512392675764e+01 -8.0764038437081215e-02
    1.4198767904999368e+01 -7.0781495039877199e-02
    2.2416556336823863e+01 -4.4699015626767417e-02
    2.0054986879841753e+01 -4.9987504685547732e-02
    1.4198767904999368e+01 -7.0781495039877199e-02 1. 0. 1. 0.
    2.5877947453769139e+01 -3.8700818724480265e-02
    1.4963067721862023e+01 -6.7132407525801685e-02
    1.4963067721862023e+01 -6.7132407525801685e-02
    4.4799559135700399e+01 -2.2332781224177665e-02
    2.0054986879841753e+01 -4.9987504685547732e-02
    1.0065290382967309e+01 -1.0035184828481861e-01 1. 0.
    1.1607793383580484e+01 -8.6798056208228933e-02
    3.1685974783869160e+01 -3.1591201180328175e-02
    1.5866757828995944e+01 -6.3277199716833266e-02 1. 0.
    1.2012191406989986e+01 -8.3833838333928115e-02
    9.0140235127796835e+00 -1.1233827907252845e-01
    1.0065290382967309e+01 -1.0035184828481861e-01
    1.2012191406989986e+01 -8.3833838333928115e-02
    1.4963067721862023e+01 -6.7132407525801685e-02 1. 0.
    1.5866757828995944e+01 -6.3277199716833266e-02
    9.3930287922664117e+00 -1.0769674088839852e-01
    1.5866757828995944e+01 -6.3277199716833266e-02
    2.0054986879841753e+01 -4.9987504685547732e-02
    1.6958034388522272e+01 -5.9175593579090677e-02
    4.4799559135700399e+01 -2.2332781224177665e-02
    1.2462512392675764e+01 -8.0764038437081215e-02
    1.8312190839256054e+01 -5.4772255750516606e-02
    1.0909103859096174e+01 -9.2450032704204863e-02
    1.0065290382967309e+01 -1.0035184828481861e-01 1. 0.
    1.4963067721862023e+01 -6.7132407525801685e-02
    1.0604409402243963e+01 -9.5154221954332652e-02
    1.4198767904999368e+01 -7.0781495039877199e-02
    1.4198767904999368e+01 -7.0781495039877199e-02
    3.6910938608345889e+00 -2.9440429597883055e-01
    6.6109638401973907e+00 -1.5489297133064672e-01
    1.4198767904999368e+01 -7.0781495039877199e-02
    1.0324171130043423e+01 -9.7786266934608693e-02
    1.3541386566673944e+01 -7.4254861532110361e-02
    8.8412090500664817e+00 -1.1459194182538808e-01
    1.5866757828995944e+01 -6.3277199716833266e-02
    2.5877947453769139e+01 -3.8700818724480265e-02
    1.2968141143619201e+01 -7.7576118506196612e-02
    1.0604409402243963e+01 -9.5154221954332652e-02
    6.6109638401973907e+00 -1.5489297133064672e-01
    1.4963067721862023e+01 -6.7132407525801685e-02 1. 0.
    1.4198767904999368e+01 -7.0781495039877199e-02
    3.1685974783869160e+01 -3.1591201180328175e-02
    3.1685974783869160e+01 -3.1591201180328175e-02
    1.2012191406989986e+01 -8.3833838333928115e-02
    1.3541386566673944e+01 -7.4254861532110361e-02
    9.8251915436238537e+00 -1.0285594337791670e-01
    1.8312190839256054e+01 -5.4772255750516606e-02
    5.6900532260917345e+00 -1.8153709195905832e-01
    1.4963067721862023e+01 -6.7132407525801685e-02
    1.4198767904999368e+01 -7.0781495039877199e-02 1. 0.
    1.3541386566673944e+01 -7.4254861532110361e-02
    9.8251915436238537e+00 -1.0285594337791670e-01
    1.4198767904999368e+01 -7.0781495039877199e-02
    4.4799559135700399e+01 -2.2332781224177665e-02
    2.5702976574365768e+00 -4.7792673291318200e-01
    2.2416556336823863e+01 -4.4699015626767417e-02
    9.8251915436238537e+00 -1.0285594337791670e-01
    6.6109638401973907e+00 -1.5489297133064672e-01 1. 0.
    1.0324171130043423e+01 -9.7786266934608693e-02
    5.4870835481283429e+00 -1.8873816790670769e-01
    1.2462512392675764e+01 -8.0764038437081215e-02
    5.6900532260917345e+00 -1.8153709195905832e-01
    2.5877947453769139e+01 -3.8700818724480265e-02
    1.0604409402243963e+01 -9.5154221954332652e-02
    1.0065290382967309e+01 -1.0035184828481861e-01
    1.6958034388522272e+01 -5.9175593579090677e-02
    1.2012191406989986e+01 -8.3833838333928115e-02
    2.2416556336823863e+01 -4.4699015626767417e-02
    1.5866757828995944e+01 -6.3277199716833266e-02
    1.0065290382967309e+01 -1.0035184828481861e-01
    1.4963067721862023e+01 -6.7132407525801685e-02
    1.5866757828995944e+01 -6.3277199716833266e-02
    4.4799559135700399e+01 -2.2332781224177665e-02 1. 0. 1. 0.
    2.0054986879841753e+01 -4.9987504685547732e-02
    1.0909103859096174e+01 -9.2450032704204863e-02
    1.4198767904999368e+01 -7.0781495039877199e-02
    3.3679342586173950e+00 -3.2907034630558790e-01 1. 0.
    1.3541386566673944e+01 -7.4254861532110361e-02
    1.2462512392675764e+01 -8.0764038437081215e-02 1. 0. 1. 0.
    8.5239083087336400e+00 -1.1897778297335090e-01
    2.0054986879841753e+01 -4.9987504685547732e-02 1. 0.
    1.2968141143619201e+01 -7.7576118506196612e-02
    1.4963067721862023e+01 -6.7132407525801685e-02
    1.0909103859096174e+01 -9.2450032704204863e-02
    1.2012191406989986e+01 -8.3833838333928115e-02
    1.2462512392675764e+01 -8.0764038437081215e-02
    1.1607793383580484e+01 -8.6798056208228933e-02
    1.5866757828995944e+01 -6.3277199716833266e-02
    9.6017137476335748e+00 -1.0530294239677898e-01 1. 0.
    8.5239083087336400e+00 -1.1897778297335090e-01
    1.0604409402243963e+01 -9.5154221954332652e-02
    1.6958034388522272e+01 -5.9175593579090677e-02
    1.2968141143619201e+01 -7.7576118506196612e-02 1. 0.
    2.5877947453769139e+01 -3.8700818724480265e-02
    1.4198767904999368e+01 -7.0781495039877199e-02
    2.0054986879841753e+01 -4.9987504685547732e-02
    1.5866757828995944e+01 -6.3277199716833266e-02
    1.0324171130043423e+01 -9.7786266934608693e-02
    3.1685974783869160e+01 -3.1591201180328175e-02
    4.7804199294350749e+00 -2.1924159197807919e-01
    1.4198767904999368e+01 -7.0781495039877199e-02
    1.0324171130043423e+01 -9.7786266934608693e-02
    2.5877947453769139e+01 -3.8700818724480265e-02 1. 0.
    1.2968141143619201e+01 -7.7576118506196612e-02
    1.0065290382967309e+01 -1.0035184828481861e-01
    1.2012191406989986e+01 -8.3833838333928115e-02
    1.3541386566673944e+01 -7.4254861532110361e-02
    1.0324171130043423e+01 -9.7786266934608693e-02
    1.5866757828995944e+01 -6.3277199716833266e-02
    1.4198767904999368e+01 -7.0781495039877199e-02
    3.1685974783869160e+01 -3.1591201180328175e-02
    2.5877947453769139e+01 -3.8700818724480265e-02
    1.4198767904999368e+01 -7.0781495039877199e-02
    9.0140235127796835e+00 -1.1233827907252845e-01
    1.1607793383580484e+01 -8.6798056208228933e-02
    1.3541386566673944e+01 -7.4254861532110361e-02
    1.4198767904999368e+01 -7.0781495039877199e-02
    1.3541386566673944e+01 -7.4254861532110361e-02
    1.1607793383580484e+01 -8.6798056208228933e-02
    1.2462512392675764e+01 -8.0764038437081215e-02
    3.1685974783869160e+01 -3.1591201180328175e-02
    1.3541386566673944e+01 -7.4254861532110361e-02
    2.0054986879841753e+01 -4.9987504685547732e-02
    1.0604409402243963e+01 -9.5154221954332652e-02
    1.2462512392675764e+01 -8.0764038437081215e-02 1. 0.
    6.6109638401973907e+00 -1.5489297133064672e-01 1. 0. 1. 0.
    1.2968141143619201e+01 -7.7576118506196612e-02
    3.1685974783869160e+01 -3.1591201180328175e-02
    1.4963067721862023e+01 -6.7132407525801685e-02
    1.8312190839256054e+01 -5.4772255750516606e-02
    1.4198767904999368e+01 -7.0781495039877199e-02
    1.0604409402243963e+01 -9.5154221954332652e-02
    1.6958034388522272e+01 -5.9175593579090677e-02
    1.4963067721862023e+01 -6.7132407525801685e-02
    4.4799559135700399e+01 -2.2332781224177665e-02
    1.0909103859096174e+01 -9.2450032704204863e-02
    1.4963067721862023e+01 -6.7132407525801685e-02
    1.2012191406989986e+01 -8.3833838333928115e-02
    9.0140235127796835e+00 -1.1233827907252845e-01
    8.6781299569933310e+00 -1.1680434139522429e-01
    3.1685974783869160e+01 -3.1591201180328175e-02
    6.4144806782925263e+00 -1.5988236984776985e-01
    1.2968141143619201e+01 -7.7576118506196612e-02
    7.2426324346772191e+00 -1.4080890575892896e-01
    6.6109638401973907e+00 -1.5489297133064672e-01
    9.3930287922664117e+00 -1.0769674088839852e-01 1. 0.
    1.2462512392675764e+01 -8.0764038437081215e-02
    8.3777731219601375e+00 -1.2111436716692121e-01
    2.2416556336823863e+01 -4.4699015626767417e-02
    1.0604409402243963e+01 -9.5154221954332652e-02
    1.1607793383580484e+01 -8.6798056208228933e-02
    2.5877947453769139e+01 -3.8700818724480265e-02
    3.1685974783869160e+01 -3.1591201180328175e-02
    1.1242021179530175e+01 -8.9667167932444058e-02
    4.4799559135700399e+01 -2.2332781224177665e-02
    1.2462512392675764e+01 -8.0764038437081215e-02
    1.3541386566673944e+01 -7.4254861532110361e-02
    1.8312190839256054e+01 -5.4772255750516606e-02
    1.4198767904999368e+01 -7.0781495039877199e-02 1. 0.
    1.4198767904999368e+01 -7.0781495039877199e-02
    1.3541386566673944e+01 -7.4254861532110361e-02
    3.1685974783869160e+01 -3.1591201180328175e-02
    1.8312190839256054e+01 -5.4772255750516606e-02
    2.2416556336823863e+01 -4.4699015626767417e-02
    1.1607793383580484e+01 -8.6798056208228933e-02
    1.2012191406989986e+01 -8.3833838333928115e-02
    2.0054986879841753e+01 -4.9987504685547732e-02
    9.3930287922664117e+00 -1.0769674088839852e-01
    1.8312190839256054e+01 -5.4772255750516606e-02
    1.4198767904999368e+01 -7.0781495039877199e-02
    9.3930287922664117e+00 -1.0769674088839852e-01
    9.8251915436238537e+00 -1.0285594337791670e-01
    1.6958034388522272e+01 -5.9175593579090677e-02
    1.2968141143619201e+01 -7.7576118506196612e-02
    1.4198767904999368e+01 -7.0781495039877199e-02
    1.4963067721862023e+01 -6.7132407525801685e-02
    1.0909103859096174e+01 -9.2450032704204863e-02
    2.2416556336823863e+01 -4.4699015626767417e-02
    1.4198767904999368e+01 -7.0781495039877199e-02
    1.2462512392675764e+01 -8.0764038437081215e-02
    1.5866757828995944e+01 -6.3277199716833266e-02
    1.1607793383580484e+01 -8.6798056208228933e-02
    2.2416556336823863e+01 -4.4699015626767417e-02 1. 0.
    1.2012191406989986e+01 -8.3833838333928115e-02
    1.0909103859096174e+01 -9.2450032704204863e-02
    1.3541386566673944e+01 -7.4254861532110361e-02
    1.5866757828995944e+01 -6.3277199716833266e-02
    1.0909103859096174e+01 -9.2450032704204863e-02
    1.4198767904999368e+01 -7.0781495039877199e-02
    1.0065290382967309e+01 -1.0035184828481861e-01
    7.3354469957392476e+00 -1.3895662304989601e-01
    9.6017137476335748e+00 -1.0530294239677898e-01
    1.5866757828995944e+01 -6.3277199716833266e-02
    1.2968141143619201e+01 -7.7576118506196612e-02
    1.4198767904999368e+01 -7.0781495039877199e-02 1. 0.
    1.1607793383580484e+01 -8.6798056208228933e-02
    1.4198767904999368e+01 -7.0781495039877199e-02
    1.6958034388522272e+01 -5.9175593579090677e-02
    1.4198767904999368e+01 -7.0781495039877199e-02
    4.4799559135700399e+01 -2.2332781224177665e-02
    1.4198767904999368e+01 -7.0781495039877199e-02
    1.3541386566673944e+01 -7.4254861532110361e-02
    1.5866757828995944e+01 -6.3277199716833266e-02
    1.2012191406989986e+01 -8.3833838333928115e-02
    9.8251915436238537e+00 -1.0285594337791670e-01
    1.0909103859096174e+01 -9.2450032704204863e-02
    1.0604409402243963e+01 -9.5154221954332652e-02 1. 0.
    1.4198767904999368e+01 -7.0781495039877199e-02
    1.2462512392675764e+01 -8.0764038437081215e-02
    1.2462512392675764e+01 -8.0764038437081215e-02
    1.2968141143619201e+01 -7.7576118506196612e-02
    1.2462512392675764e+01 -8.0764038437081215e-02
    1.2462512392675764e+01 -8.0764038437081215e-02
    7.3354469957392476e+00 -1.3895662304989601e-01
    4.4799559135700399e+01 -2.2332781224177665e-02
    1.6958034388522272e+01 -5.9175593579090677e-02
    1.2462512392675764e+01 -8.0764038437081215e-02
    1.4198767904999368e+01 -7.0781495039877199e-02
    3.1685974783869160e+01 -3.1591201180328175e-02
    4.4799559135700399e+01 -2.2332781224177665e-02 1. 0. 1. 0.
    1.2012191406989986e+01 -8.3833838333928115e-02 1. 0.
    1.3541386566673944e+01 -7.4254861532110361e-02 1. 0.
    1.0909103859096174e+01 -9.2450032704204863e-02 1. 0.
    1.4198767904999368e+01 -7.0781495039877199e-02
    1.3541386566673944e+01 -7.4254861532110361e-02
    1.4963067721862023e+01 -6.7132407525801685e-02
    1.1607793383580484e+01 -8.6798056208228933e-02
    1.4198767904999368e+01 -7.0781495039877199e-02 1. 0.
    1.4963067721862023e+01 -6.7132407525801685e-02
    1.0909103859096174e+01 -9.2450032704204863e-02 1. 0.
    1.5866757828995944e+01 -6.3277199716833266e-02
    1.3541386566673944e+01 -7.4254861532110361e-02
    1.2462512392675764e+01 -8.0764038437081215e-02
    1.6958034388522272e+01 -5.9175593579090677e-02
    1.5866757828995944e+01 -6.3277199716833266e-02 1. 0. 1. 0.
    1.3541386566673944e+01 -7.4254861532110361e-02
    1.0909103859096174e+01 -9.2450032704204863e-02
    9.6017137476335748e+00 -1.0530294239677898e-01
    6.4144806782925263e+00 -1.5988236984776985e-01
    1.3541386566673944e+01 -7.4254861532110361e-02
    1.0324171130043423e+01 -9.7786266934608693e-02
    1.2462512392675764e+01 -8.0764038437081215e-02
    1.0324171130043423e+01 -9.7786266934608693e-02
    3.1685974783869160e+01 -3.1591201180328175e-02
    2.2416556336823863e+01 -4.4699015626767417e-02
    1.2012191406989986e+01 -8.3833838333928115e-02
    1.4963067721862023e+01 -6.7132407525801685e-02
    4.4799559135700399e+01 -2.2332781224177665e-02
    1.2462512392675764e+01 -8.0764038437081215e-02 1. 0.
    8.5239083087336400e+00 -1.1897778297335090e-01
    1.2462512392675764e+01 -8.0764038437081215e-02
    1.4198767904999368e+01 -7.0781495039877199e-02
    1.4198767904999368e+01 -7.0781495039877199e-02
    1.4198767904999368e+01 -7.0781495039877199e-02
    1.4198767904999368e+01 -7.0781495039877199e-02
    1.4963067721862023e+01 -6.7132407525801685e-02
    1.3541386566673944e+01 -7.4254861532110361e-02
    1.4198767904999368e+01 -7.0781495039877199e-02
    1.0604409402243963e+01 -9.5154221954332652e-02
    1.8312190839256054e+01 -5.4772255750516606e-02 1. 0.
    1.4198767904999368e+01 -7.0781495039877199e-02 1. 0. 1. 0.
    1.3541386566673944e+01 -7.4254861532110361e-02
    1.8312190839256054e+01 -5.4772255750516606e-02
    4.4799559135700399e+01 -2.2332781224177665e-02
    9.8251915436238537e+00 -1.0285594337791670e-01
    1.4198767904999368e+01 -7.0781495039877199e-02
    1.3541386566673944e+01 -7.4254861532110361e-02 1. 0.
    8.5239083087336400e+00 -1.1897778297335090e-01
    1.8312190839256054e+01 -5.4772255750516606e-02
    1.4198767904999368e+01 -7.0781495039877199e-02
    1.4198767904999368e+01 -7.0781495039877199e-02
    8.5239083087336400e+00 -1.1897778297335090e-01
    4.4799559135700399e+01 -2.2332781224177665e-02
    1.8312190839256054e+01 -5.4772255750516606e-02
    1.4198767904999368e+01 -7.0781495039877199e-02
    1.3541386566673944e+01 -7.4254861532110361e-02
    2.5877947453769139e+01 -3.8700818724480265e-02
    1.8312190839256054e+01 -5.4772255750516606e-02
    1.3541386566673944e+01 -7.4254861532110361e-02
    1.4963067721862023e+01 -6.7132407525801685e-02
    1.2968141143619201e+01 -7.7576118506196612e-02
    1.0604409402243963e+01 -9.5154221954332652e-02
    1.0324171130043423e+01 -9.7786266934608693e-02
    8.6781299569933310e+00 -1.1680434139522429e-01
    1.2968141143619201e+01 -7.7576118506196612e-02
    1.4198767904999368e+01 -7.0781495039877199e-02
    1.2968141143619201e+01 -7.7576118506196612e-02
    1.2462512392675764e+01 -8.0764038437081215e-02 1. 0.
    1.5866757828995944e+01 -6.3277199716833266e-02
    1.2968141143619201e+01 -7.7576118506196612e-02
    1.4963067721862023e+01 -6.7132407525801685e-02
    9.3930287922664117e+00 -1.0769674088839852e-01
    1.0604409402243963e+01 -9.5154221954332652e-02
    2.5877947453769139e+01 -3.8700818724480265e-02
    3.1685974783869160e+01 -3.1591201180328175e-02
    2.0054986879841753e+01 -4.9987504685547732e-02
    1.0065290382967309e+01 -1.0035184828481861e-01
    1.4198767904999368e+01 -7.0781495039877199e-02
    1.4198767904999368e+01 -7.0781495039877199e-02
    1.2462512392675764e+01 -8.0764038437081215e-02
    1.3541386566673944e+01 -7.4254861532110361e-02
    1.4963067721862023e+01 -6.7132407525801685e-02
    1.1607793383580484e+01 -8.6798056208228933e-02
    1.2968141143619201e+01 -7.7576118506196612e-02
    1.4963067721862023e+01 -6.7132407525801685e-02
    1.2968141143619201e+01 -7.7576118506196612e-02
    1.0324171130043423e+01 -9.7786266934608693e-02
    1.1607793383580484e+01 -8.6798056208228933e-02
    1.0065290382967309e+01 -1.0035184828481861e-01
    1.4963067721862023e+01 -6.7132407525801685e-02
    1.2462512392675764e+01 -8.0764038437081215e-02
    1.4198767904999368e+01 -7.0781495039877199e-02
    2.0054986879841753e+01 -4.9987504685547732e-02
    1.2462512392675764e+01 -8.0764038437081215e-02
    1.1607793383580484e+01 -8.6798056208228933e-02
    1.5866757828995944e+01 -6.3277199716833266e-02
    1.2462512392675764e+01 -8.0764038437081215e-02
    2.5877947453769139e+01 -3.8700818724480265e-02
    1.2462512392675764e+01 -8.0764038437081215e-02
    1.2968141143619201e+01 -7.7576118506196612e-02 1. 0.
    1.4963067721862023e+01 -6.7132407525801685e-02
    1.6958034388522272e+01 -5.9175593579090677e-02
    1.0065290382967309e+01 -1.0035184828481861e-01
    9.6017137476335748e+00 -1.0530294239677898e-01
    1.0909103859096174e+01 -9.2450032704204863e-02
    2.0054986879841753e+01 -4.9987504685547732e-02
    1.0909103859096174e+01 -9.2450032704204863e-02
    1.4198767904999368e+01 -7.0781495039877199e-02
    1.1607793383580484e+01 -8.6798056208228933e-02
    1.0065290382967309e+01 -1.0035184828481861e-01
    1.2968141143619201e+01 -7.7576118506196612e-02
    1.4963067721862023e+01 -6.7132407525801685e-02
    1.4963067721862023e+01 -6.7132407525801685e-02
    1.3541386566673944e+01 -7.4254861532110361e-02 1. 0.
    1.2968141143619201e+01 -7.7576118506196612e-02
    1.8312190839256054e+01 -5.4772255750516606e-02
    1.0909103859096174e+01 -9.2450032704204863e-02
    1.1607793383580484e+01 -8.6798056208228933e-02
    1.2968141143619201e+01 -7.7576118506196612e-02
    1.2968141143619201e+01 -7.7576118506196612e-02
    9.1975780678481218e+00 -1.1004081437106426e-01
    1.4198767904999368e+01 -7.0781495039877199e-02
    1.0065290382967309e+01 -1.0035184828481861e-01
    1.2462512392675764e+01 -8.0764038437081215e-02
    1.4198767904999368e+01 -7.0781495039877199e-02
    8.3777731219601375e+00 -1.2111436716692121e-01 1. 0.
    1.2968141143619201e+01 -7.7576118506196612e-02
    4.4799559135700399e+01 -2.2332781224177665e-02
    1.2968141143619201e+01 -7.7576118506196612e-02
    1.2968141143619201e+01 -7.7576118506196612e-02
    3.1685974783869160e+01 -3.1591201180328175e-02
    1.6958034388522272e+01 -5.9175593579090677e-02
    1.6958034388522272e+01 -5.9175593579090677e-02
    1.4963067721862023e+01 -6.7132407525801685e-02
    6.4144806782925263e+00 -1.5988236984776985e-01
    1.0065290382967309e+01 -1.0035184828481861e-01
    2.5877947453769139e+01 -3.8700818724480265e-02
    1.2968141143619201e+01 -7.7576118506196612e-02
    3.1685974783869160e+01 -3.1591201180328175e-02
    1.6958034388522272e+01 -5.9175593579090677e-02
    1.2012191406989986e+01 -8.3833838333928115e-02
    1.2012191406989986e+01 -8.3833838333928115e-02
    9.3930287922664117e+00 -1.0769674088839852e-01 1. 0.
    4.4799559135700399e+01 -2.2332781224177665e-02
    1.4963067721862023e+01 -6.7132407525801685e-02
    1.0065290382967309e+01 -1.0035184828481861e-01
    2.0054986879841753e+01 -4.9987504685547732e-02
    1.4963067721862023e+01 -6.7132407525801685e-02
    1.5866757828995944e+01 -6.3277199716833266e-02
    1.4198767904999368e+01 -7.0781495039877199e-02
    1.2012191406989986e+01 -8.3833838333928115e-02
    1.0065290382967309e+01 -1.0035184828481861e-01
    4.4799559135700399e+01 -2.2332781224177665e-02 1. 0. 1. 0.
    1.8312190839256054e+01 -5.4772255750516606e-02
    1.2968141143619201e+01 -7.7576118506196612e-02
    1.0604409402243963e+01 -9.5154221954332652e-02
    1.2012191406989986e+01 -8.3833838333928115e-02
    3.1685974783869160e+01 -3.1591201180328175e-02
    1.4963067721862023e+01 -6.7132407525801685e-02
    2.0054986879841753e+01 -4.9987504685547732e-02
    1.3541386566673944e+01 -7.4254861532110361e-02
    5.6900532260917345e+00 -1.8153709195905832e-01
    2.2416556336823863e+01 -4.4699015626767417e-02
    6.6109638401973907e+00 -1.5489297133064672e-01
    2.5702976574365768e+00 -4.7792673291318200e-01
    1.4963067721862023e+01 -6.7132407525801685e-02
    7.3354469957392476e+00 -1.3895662304989601e-01
    1.0909103859096174e+01 -9.2450032704204863e-02
    9.8251915436238537e+00 -1.0285594337791670e-01 1. 0.
    1.8312190839256054e+01 -5.4772255750516606e-02
    1.2968141143619201e+01 -7.7576118506196612e-02
    1.3541386566673944e+01 -7.4254861532110361e-02
    1.0065290382967309e+01 -1.0035184828481861e-01
    1.2968141143619201e+01 -7.7576118506196612e-02
    2.5877947453769139e+01 -3.8700818724480265e-02
    1.0065290382967309e+01 -1.0035184828481861e-01
    1.2462512392675764e+01 -8.0764038437081215e-02
    2.5877947453769139e+01 -3.8700818724480265e-02
    7.3354469957392476e+00 -1.3895662304989601e-01 1. 0.
    1.2462512392675764e+01 -8.0764038437081215e-02
    2.2416556336823863e+01 -4.4699015626767417e-02
    1.4963067721862023e+01 -6.7132407525801685e-02
    1.2462512392675764e+01 -8.0764038437081215e-02
    4.7804199294350749e+00 -2.1924159197807919e-01
    2.0054986879841753e+01 -4.9987504685547732e-02 1. 0.
    1.2012191406989986e+01 -8.3833838333928115e-02
    1.4198767904999368e+01 -7.0781495039877199e-02
    1.4198767904999368e+01 -7.0781495039877199e-02
    1.4198767904999368e+01 -7.0781495039877199e-02
    3.1685974783869160e+01 -3.1591201180328175e-02
    1.3541386566673944e+01 -7.4254861532110361e-02
    4.0914584947770756e+00 -2.6107013326593503e-01
    1.4198767904999368e+01 -7.0781495039877199e-02
    1.5866757828995944e+01 -6.3277199716833266e-02
    6.6807308761788198e+00 -1.5319721849662296e-01
    1.3541386566673944e+01 -7.4254861532110361e-02
    1.3541386566673944e+01 -7.4254861532110361e-02
    9.3930287922664117e+00 -1.0769674088839852e-01
    1.5866757828995944e+01 -6.3277199716833266e-02
    1.4198767904999368e+01 -7.0781495039877199e-02
    1.1607793383580484e+01 -8.6798056208228933e-02 1. 0.
    1.5866757828995944e+01 -6.3277199716833266e-02
    1.1607793383580484e+01 -8.6798056208228933e-02
    9.1975780678481218e+00 -1.1004081437106426e-01
    1.3541386566673944e+01 -7.4254861532110361e-02
    6.3529064442863525e+00 -1.6151457061744962e-01
    1.4198767904999368e+01 -7.0781495039877199e-02
    1.3541386566673944e+01 -7.4254861532110361e-02
    9.1975780678481218e+00 -1.1004081437106426e-01 1. 0.
    9.1975780678481218e+00 -1.1004081437106426e-01
    4.9366358040689526e+00 -2.1164041832000491e-01
    3.1685974783869160e+01 -3.1591201180328175e-02
    2.0054986879841753e+01 -4.9987504685547732e-02
    1.2968141143619201e+01 -7.7576118506196612e-02
    8.8412090500664817e+00 -1.1459194182538808e-01
    1.8312190839256054e+01 -5.4772255750516606e-02
    1.2968141143619201e+01 -7.7576118506196612e-02
    1.2968141143619201e+01 -7.7576118506196612e-02
    1.4198767904999368e+01 -7.0781495039877199e-02
    6.6109638401973907e+00 -1.5489297133064672e-01
    1.2462512392675764e+01 -8.0764038437081215e-02
    1.5866757828995944e+01 -6.3277199716833266e-02 1. 0.
    9.3930287922664117e+00 -1.0769674088839852e-01
    9.3930287922664117e+00 -1.0769674088839852e-01
    9.3930287922664117e+00 -1.0769674088839852e-01
    1.2462512392675764e+01 -8.0764038437081215e-02
    1.5866757828995944e+01 -6.3277199716833266e-02
    1.4198767904999368e+01 -7.0781495039877199e-02
    1.2012191406989986e+01 -8.3833838333928115e-02 1. 0.
    1.8312190839256054e+01 -5.4772255750516606e-02
    1.0065290382967309e+01 -1.0035184828481861e-01
    1.6958034388522272e+01 -5.9175593579090677e-02
    1.2968141143619201e+01 -7.7576118506196612e-02
    1.0324171130043423e+01 -9.7786266934608693e-02
    1.1242021179530175e+01 -8.9667167932444058e-02
    9.8251915436238537e+00 -1.0285594337791670e-01
    1.3541386566673944e+01 -7.4254861532110361e-02
    1.6958034388522272e+01 -5.9175593579090677e-02
    5.0211389569762206e+00 -2.0775400470041189e-01
    1.6958034388522272e+01 -5.9175593579090677e-02
    8.8412090500664817e+00 -1.1459194182538808e-01
    2.5877947453769139e+01 -3.8700818724480265e-02
    1.2012191406989986e+01 -8.3833838333928115e-02
    1.2012191406989986e+01 -8.3833838333928115e-02 1. 0.
    1.3541386566673944e+01 -7.4254861532110361e-02
    6.5434074821684707e+00 -1.5657206338189758e-01
    2.5877947453769139e+01 -3.8700818724480265e-02
    1.3541386566673944e+01 -7.4254861532110361e-02
    1.5866757828995944e+01 -6.3277199716833266e-02
    1.4198767904999368e+01 -7.0781495039877199e-02
    4.4799559135700399e+01 -2.2332781224177665e-02 1. 0.
    1.6958034388522272e+01 -5.9175593579090677e-02
    1.4963067721862023e+01 -6.7132407525801685e-02
    6.1237993063275535e+00 -1.6790077858824298e-01
    1.3541386566673944e+01 -7.4254861532110361e-02
    1.4198767904999368e+01 -7.0781495039877199e-02
    6.5434074821684707e+00 -1.5657206338189758e-01
    9.0140235127796835e+00 -1.1233827907252845e-01 1. 0.
    1.3541386566673944e+01 -7.4254861532110361e-02
    7.8615904616149734e+00 -1.2932825784311769e-01
    1.2968141143619201e+01 -7.7576118506196612e-02
    1.2462512392675764e+01 -8.0764038437081215e-02
    1.2968141143619201e+01 -7.7576118506196612e-02
    6.1237993063275535e+00 -1.6790077858824298e-01
    1.5866757828995944e+01 -6.3277199716833266e-02
    1.0324171130043423e+01 -9.7786266934608693e-02
    1.6958034388522272e+01 -5.9175593579090677e-02
    1.6958034388522272e+01 -5.9175593579090677e-02
    9.1975780678481218e+00 -1.1004081437106426e-01
    4.4799559135700399e+01 -2.2332781224177665e-02 1. 0. 1. 0.
    1.0065290382967309e+01 -1.0035184828481861e-01
    1.2012191406989986e+01 -8.3833838333928115e-02 1. 0.
    9.1975780678481218e+00 -1.1004081437106426e-01
    1.1242021179530175e+01 -8.9667167932444058e-02
    8.6781299569933310e+00 -1.1680434139522429e-01
    1.8312190839256054e+01 -5.4772255750516606e-02
    1.4198767904999368e+01 -7.0781495039877199e-02
    5.8706188609216472e+00 -1.7559179045628057e-01
    1.6958034388522272e+01 -5.9175593579090677e-02
    1.2462512392675764e+01 -8.0764038437081215e-02
    1.0909103859096174e+01 -9.2450032704204863e-02
    5.5655055836125396e+00 -1.8588677672085749e-01
    1.4198767904999368e+01 -7.0781495039877199e-02
    1.2968141143619201e+01 -7.7576118506196612e-02
    1.0604409402243963e+01 -9.5154221954332652e-02
    1.5866757828995944e+01 -6.3277199716833266e-02
    9.8251915436238537e+00 -1.0285594337791670e-01
    1.8312190839256054e+01 -5.4772255750516606e-02
    1.2968141143619201e+01 -7.7576118506196612e-02
    1.3541386566673944e+01 -7.4254861532110361e-02
    1.5866757828995944e+01 -6.3277199716833266e-02
    1.2012191406989986e+01 -8.3833838333928115e-02
    6.6109638401973907e+00 -1.5489297133064672e-01
    1.0604409402243963e+01 -9.5154221954332652e-02
    8.2390441710735765e+00 -1.2321601452253603e-01 1. 0.
    6.6109638401973907e+00 -1.5489297133064672e-01
    1.6958034388522272e+01 -5.9175593579090677e-02
    2.0054986879841753e+01 -4.9987504685547732e-02
    1.4198767904999368e+01 -7.0781495039877199e-02
    1.3541386566673944e+01 -7.4254861532110361e-02
    1.0909103859096174e+01 -9.2450032704204863e-02 1. 0. 1. 0. 1. 0.
    1.1607793383580484e+01 -8.6798056208228933e-02
    1.5866757828995944e+01 -6.3277199716833266e-02
    1.2012191406989986e+01 -8.3833838333928115e-02
    6.6807308761788198e+00 -1.5319721849662296e-01
    1.2968141143619201e+01 -7.7576118506196612e-02 1. 0.
    1.4198767904999368e+01 -7.0781495039877199e-02
    4.4799559135700399e+01 -2.2332781224177665e-02
    1.4198767904999368e+01 -7.0781495039877199e-02
    1.0604409402243963e+01 -9.5154221954332652e-02
    1.4198767904999368e+01 -7.0781495039877199e-02
    9.3930287922664117e+00 -1.0769674088839852e-01
    1.1607793383580484e+01 -8.6798056208228933e-02
    1.6958034388522272e+01 -5.9175593579090677e-02
    1.2462512392675764e+01 -8.0764038437081215e-02
    1.2968141143619201e+01 -7.7576118506196612e-02
    4.4799559135700399e+01 -2.2332781224177665e-02
    1.8312190839256054e+01 -5.4772255750516606e-02
    7.0673682802187265e+00 -1.4444770662461007e-01
    2.0054986879841753e+01 -4.9987504685547732e-02
    2.0054986879841753e+01 -4.9987504685547732e-02
    1.4198767904999368e+01 -7.0781495039877199e-02
    1.2968141143619201e+01 -7.7576118506196612e-02
    2.0054986879841753e+01 -4.9987504685547732e-02 1. 0.
    9.6017137476335748e+00 -1.0530294239677898e-01
    3.1685974783869160e+01 -3.1591201180328175e-02
    1.3541386566673944e+01 -7.4254861532110361e-02
    1.0324171130043423e+01 -9.7786266934608693e-02
    1.2012191406989986e+01 -8.3833838333928115e-02
    1.0604409402243963e+01 -9.5154221954332652e-02
    1.1242021179530175e+01 -8.9667167932444058e-02
    3.1685974783869160e+01 -3.1591201180328175e-02
    1.3541386566673944e+01 -7.4254861532110361e-02
    2.5877947453769139e+01 -3.8700818724480265e-02 1. 0. 1. 0.
    5.6900532260917345e+00 -1.8153709195905832e-01
    1.6958034388522272e+01 -5.9175593579090677e-02
    1.2012191406989986e+01 -8.3833838333928115e-02
    1.4198767904999368e+01 -7.0781495039877199e-02
    1.1607793383580484e+01 -8.6798056208228933e-02
    1.5866757828995944e+01 -6.3277199716833266e-02 1. 0.
    2.0054986879841753e+01 -4.9987504685547732e-02
    1.1607793383580484e+01 -8.6798056208228933e-02
    1.4963067721862023e+01 -6.7132407525801685e-02
    5.6900532260917345e+00 -1.8153709195905832e-01
    1.1607793383580484e+01 -8.6798056208228933e-02 1. 0.
    1.3541386566673944e+01 -7.4254861532110361e-02
    6.6807308761788198e+00 -1.5319721849662296e-01
    9.3930287922664117e+00 -1.0769674088839852e-01
    1.5866757828995944e+01 -6.3277199716833266e-02
    2.2416556336823863e+01 -4.4699015626767417e-02
    1.2968141143619201e+01 -7.7576118506196612e-02 1. 0.
    1.3541386566673944e+01 -7.4254861532110361e-02
    1.4198767904999368e+01 -7.0781495039877199e-02
    1.4198767904999368e+01 -7.0781495039877199e-02
    3.1685974783869160e+01 -3.1591201180328175e-02
    1.8312190839256054e+01 -5.4772255750516606e-02
    1.4963067721862023e+01 -6.7132407525801685e-02
    1.6958034388522272e+01 -5.9175593579090677e-02
    1.1607793383580484e+01 -8.6798056208228933e-02
    2.6716191967216809e+00 -4.5015318469188836e-01
    1.6958034388522272e+01 -5.9175593579090677e-02
    1.8312190839256054e+01 -5.4772255750516606e-02
    6.1786577897286383e+00 -1.6632478596477890e-01
    7.6375416985962579e+00 -1.3325720810113112e-01
    1.2462512392675764e+01 -8.0764038437081215e-02 1. 0.
    5.3053190653853060e+00 -1.9570967639008607e-01
    9.6017137476335748e+00 -1.0530294239677898e-01
    1.8312190839256054e+01 -5.4772255750516606e-02
    8.6781299569933310e+00 -1.1680434139522429e-01
    1.2968141143619201e+01 -7.7576118506196612e-02
    1.5866757828995944e+01 -6.3277199716833266e-02
    1.1607793383580484e+01 -8.6798056208228933e-02
    6.3529064442863525e+00 -1.6151457061744962e-01 1. 0.
    1.3541386566673944e+01 -7.4254861532110361e-02
    5.2377585931815558e+00 -1.9843950801684856e-01
    5.6060645744136854e+00 -1.8444679058389990e-01
    1.3541386566673944e+01 -7.4254861532110361e-02
    1.1607793383580484e+01 -8.6798056208228933e-02
    1.4198767904999368e+01 -7.0781495039877199e-02
    1.3541386566673944e+01 -7.4254861532110361e-02
    1.0065290382967309e+01 -1.0035184828481861e-01
    2.2416556336823863e+01 -4.4699015626767417e-02
    1.3541386566673944e+01 -7.4254861532110361e-02
    1.4198767904999368e+01 -7.0781495039877199e-02
    1.3541386566673944e+01 -7.4254861532110361e-02
    1.3541386566673944e+01 -7.4254861532110361e-02
    7.6375416985962579e+00 -1.3325720810113112e-01
    1.5866757828995944e+01 -6.3277199716833266e-02
    2.2416556336823863e+01 -4.4699015626767417e-02
    1.4198767904999368e+01 -7.0781495039877199e-02
    1.2462512392675764e+01 -8.0764038437081215e-02
    1.4198767904999368e+01 -7.0781495039877199e-02
    1.5866757828995944e+01 -6.3277199716833266e-02
    1.0324171130043423e+01 -9.7786266934608693e-02
    1.0604409402243963e+01 -9.5154221954332652e-02
    1.4198767904999368e+01 -7.0781495039877199e-02
    1.3541386566673944e+01 -7.4254861532110361e-02
    2.0054986879841753e+01 -4.9987504685547732e-02
    1.4198767904999368e+01 -7.0781495039877199e-02
    1.1607793383580484e+01 -8.6798056208228933e-02
    2.5877947453769139e+01 -3.8700818724480265e-02
    1.0604409402243963e+01 -9.5154221954332652e-02 1. 0.
    1.0065290382967309e+01 -1.0035184828481861e-01
    1.2968141143619201e+01 -7.7576118506196612e-02
    6.6109638401973907e+00 -1.5489297133064672e-01
    1.4198767904999368e+01 -7.0781495039877199e-02
    1.0604409402243963e+01 -9.5154221954332652e-02
    1.1607793383580484e+01 -8.6798056208228933e-02
    9.1975780678481218e+00 -1.1004081437106426e-01
    7.7470795387236313e+00 -1.3130643285972257e-01
    1.1607793383580484e+01 -8.6798056208228933e-02
    1.5866757828995944e+01 -6.3277199716833266e-02 1. 0. 1. 0.
    1.4198767904999368e+01 -7.0781495039877199e-02
    6.5434074821684707e+00 -1.5657206338189758e-01 1. 0.
    8.8412090500664817e+00 -1.1459194182538808e-01
    5.6060645744136854e+00 -1.8444679058389990e-01
    1.3541386566673944e+01 -7.4254861532110361e-02
    1.4198767904999368e+01 -7.0781495039877199e-02
    1.2968141143619201e+01 -7.7576118506196612e-02 1. 0.
    1.1607793383580484e+01 -8.6798056208228933e-02
    3.1685974783869160e+01 -3.1591201180328175e-02
    8.1071187003698473e+00 -1.2528448639654299e-01
    2.0054986879841753e+01 -4.9987504685547732e-02
    6.7528309066313401e+00 -1.5148424267119157e-01
    1.2012191406989986e+01 -8.3833838333928115e-02
    1.5866757828995944e+01 -6.3277199716833266e-02 1. 0.
    1.1242021179530175e+01 -8.9667167932444058e-02 1. 0.
    1.0065290382967309e+01 -1.0035184828481861e-01
    1.2462512392675764e+01 -8.0764038437081215e-02
    1.0065290382967309e+01 -1.0035184828481861e-01
    1.5866757828995944e+01 -6.3277199716833266e-02
    1.1607793383580484e+01 -8.6798056208228933e-02
    5.6060645744136854e+00 -1.8444679058389990e-01
    1.4198767904999368e+01 -7.0781495039877199e-02
    1.4198767904999368e+01 -7.0781495039877199e-02
    9.6017137476335748e+00 -1.0530294239677898e-01 1. 0.
    1.1607793383580484e+01 -8.6798056208228933e-02
    1.2968141143619201e+01 -7.7576118506196612e-02
    1.8312190839256054e+01 -5.4772255750516606e-02
    1.4198767904999368e+01 -7.0781495039877199e-02
    1.2968141143619201e+01 -7.7576118506196612e-02
    1.1607793383580484e+01 -8.6798056208228933e-02
    5.6900532260917345e+00 -1.8153709195905832e-01
    1.4198767904999368e+01 -7.0781495039877199e-02
    1.4963067721862023e+01 -6.7132407525801685e-02
    1.2968141143619201e+01 -7.7576118506196612e-02
    1.3541386566673944e+01 -7.4254861532110361e-02
    1.4198767904999368e+01 -7.0781495039877199e-02
    3.1685974783869160e+01 -3.1591201180328175e-02
    1.2462512392675764e+01 -8.0764038437081215e-02
    1.6958034388522272e+01 -5.9175593579090677e-02
    1.3541386566673944e+01 -7.4254861532110361e-02
    1.4963067721862023e+01 -6.7132407525801685e-02
    2.7241558446648111e+00 -4.3727725921339439e-01
    9.8251915436238537e+00 -1.0285594337791670e-01 1. 0.
    3.7562118382362577e+00 -2.8836322187855618e-01 1. 0.
    1.6958034388522272e+01 -5.9175593579090677e-02 1. 0.
    9.0140235127796835e+00 -1.1233827907252845e-01
    1.3541386566673944e+01 -7.4254861532110361e-02 1. 0.
    1.5866757828995944e+01 -6.3277199716833266e-02
    1.5866757828995944e+01 -6.3277199716833266e-02
    1.4963067721862023e+01 -6.7132407525801685e-02
    4.3738595393498017e+00 -2.4202313502882750e-01
    7.2426324346772191e+00 -1.4080890575892896e-01
    1.4198767904999368e+01 -7.0781495039877199e-02
    1.3541386566673944e+01 -7.4254861532110361e-02
    1.4198767904999368e+01 -7.0781495039877199e-02
    1.8312190839256054e+01 -5.4772255750516606e-02
    1.3541386566673944e+01 -7.4254861532110361e-02
    1.3541386566673944e+01 -7.4254861532110361e-02
    1.4963067721862023e+01 -6.7132407525801685e-02
    2.2416556336823863e+01 -4.4699015626767417e-02
    6.5434074821684707e+00 -1.5657206338189758e-01
    1.1607793383580484e+01 -8.6798056208228933e-02
    1.3541386566673944e+01 -7.4254861532110361e-02
    1.4198767904999368e+01 -7.0781495039877199e-02
    1.0909103859096174e+01 -9.2450032704204863e-02 1. 0.
    1.4963067721862023e+01 -6.7132407525801685e-02
    1.2462512392675764e+01 -8.0764038437081215e-02
    1.0604409402243963e+01 -9.5154221954332652e-02
    1.3541386566673944e+01 -7.4254861532110361e-02
    1.8312190839256054e+01 -5.4772255750516606e-02 1. 0.
    1.1242021179530175e+01 -8.9667167932444058e-02
    2.0054986879841753e+01 -4.9987504685547732e-02
    2.5877947453769139e+01 -3.8700818724480265e-02
    2.9533070774182941e+00 -3.9014275947948546e-01
    1.0065290382967309e+01 -1.0035184828481861e-01
    1.0065290382967309e+01 -1.0035184828481861e-01
    1.2462512392675764e+01 -8.0764038437081215e-02
    1.8312190839256054e+01 -5.4772255750516606e-02
    1.1242021179530175e+01 -8.9667167932444058e-02
    1.1607793383580484e+01 -8.6798056208228933e-02
    1.1607793383580484e+01 -8.6798056208228933e-02 1. 0.
    1.4198767904999368e+01 -7.0781495039877199e-02
    9.1975780678481218e+00 -1.1004081437106426e-01
    6.6807308761788198e+00 -1.5319721849662296e-01
    1.5866757828995944e+01 -6.3277199716833266e-02
    6.6109638401973907e+00 -1.5489297133064672e-01
    1.5866757828995944e+01 -6.3277199716833266e-02
    9.6017137476335748e+00 -1.0530294239677898e-01
    1.4963067721862023e+01 -6.7132407525801685e-02
    8.1071187003698473e+00 -1.2528448639654299e-01
    1.2012191406989986e+01 -8.3833838333928115e-02
    1.4198767904999368e+01 -7.0781495039877199e-02
    2.0054986879841753e+01 -4.9987504685547732e-02
    2.2416556336823863e+01 -4.4699015626767417e-02
    1.4198767904999368e+01 -7.0781495039877199e-02 1. 0.
    1.2462512392675764e+01 -8.0764038437081215e-02
    7.7470795387236313e+00 -1.3130643285972257e-01
    1.5866757828995944e+01 -6.3277199716833266e-02
    2.0054986879841753e+01 -4.9987504685547732e-02
    1.8312190839256054e+01 -5.4772255750516606e-02
    1.5866757828995944e+01 -6.3277199716833266e-02
    2.0054986879841753e+01 -4.9987504685547732e-02
    8.6781299569933310e+00 -1.1680434139522429e-01
    1.1607793383580484e+01 -8.6798056208228933e-02
    1.4198767904999368e+01 -7.0781495039877199e-02
    1.1607793383580484e+01 -8.6798056208228933e-02
    6.6807308761788198e+00 -1.5319721849662296e-01
    1.2012191406989986e+01 -8.3833838333928115e-02
    1.1607793383580484e+01 -8.6798056208228933e-02
    1.5866757828995944e+01 -6.3277199716833266e-02
    1.2462512392675764e+01 -8.0764038437081215e-02
    1.3541386566673944e+01 -7.4254861532110361e-02
    6.5434074821684707e+00 -1.5657206338189758e-01
    1.3541386566673944e+01 -7.4254861532110361e-02
    3.1685974783869160e+01 -3.1591201180328175e-02
    9.6017137476335748e+00 -1.0530294239677898e-01
    1.5866757828995944e+01 -6.3277199716833266e-02
    1.2012191406989986e+01 -8.3833838333928115e-02
    1.4198767904999368e+01 -7.0781495039877199e-02
    2.5877947453769139e+01 -3.8700818724480265e-02
    6.6109638401973907e+00 -1.5489297133064672e-01
    7.5326287797751830e+00 -1.3518177271779988e-01
    1.5866757828995944e+01 -6.3277199716833266e-02
    1.6958034388522272e+01 -5.9175593579090677e-02
    1.1607793383580484e+01 -8.6798056208228933e-02 1. 0.
    2.2416556336823863e+01 -4.4699015626767417e-02
    1.6958034388522272e+01 -5.9175593579090677e-02
    8.6781299569933310e+00 -1.1680434139522429e-01
    4.4799559135700399e+01 -2.2332781224177665e-02
    1.4198767904999368e+01 -7.0781495039877199e-02
    1.2012191406989986e+01 -8.3833838333928115e-02
    1.1607793383580484e+01 -8.6798056208228933e-02 1. 0.
    1.0604409402243963e+01 -9.5154221954332652e-02
    1.0324171130043423e+01 -9.7786266934608693e-02
    8.8412090500664817e+00 -1.1459194182538808e-01
    5.0801092528451948e+00 -2.0512903762734833e-01
    1.4198767904999368e+01 -7.0781495039877199e-02
    1.2012191406989986e+01 -8.3833838333928115e-02 1. 0.
    1.2012191406989986e+01 -8.3833838333928115e-02
    1.3541386566673944e+01 -7.4254861532110361e-02
    9.8251915436238537e+00 -1.0285594337791670e-01
    5.1413423763353503e+00 -2.0247559707402427e-01
    3.1685974783869160e+01 -3.1591201180328175e-02
    3.1685974783869160e+01 -3.1591201180328175e-02
    1.5866757828995944e+01 -6.3277199716833266e-02
    1.1607793383580484e+01 -8.6798056208228933e-02
    1.4198767904999368e+01 -7.0781495039877199e-02
    1.4198767904999368e+01 -7.0781495039877199e-02
    3.1685974783869160e+01 -3.1591201180328175e-02
    1.0324171130043423e+01 -9.7786266934608693e-02
    1.4198767904999368e+01 -7.0781495039877199e-02
    1.3541386566673944e+01 -7.4254861532110361e-02
    6.9845035393091228e+00 -1.4623586672531561e-01
    1.5866757828995944e+01 -6.3277199716833266e-02
    4.4799559135700399e+01 -2.2332781224177665e-02
    1.1607793383580484e+01 -8.6798056208228933e-02
    6.6109638401973907e+00 -1.5489297133064672e-01
    5.9679126186516660e+00 -1.7255181050937018e-01
    1.3541386566673944e+01 -7.4254861532110361e-02
    1.0065290382967309e+01 -1.0035184828481861e-01
    1.2968141143619201e+01 -7.7576118506196612e-02
    4.4799559135700399e+01 -2.2332781224177665e-02
    1.5866757828995944e+01 -6.3277199716833266e-02
    7.0673682802187265e+00 -1.4444770662461007e-01
    1.2968141143619201e+01 -7.7576118506196612e-02
    1.4198767904999368e+01 -7.0781495039877199e-02
    9.6017137476335748e+00 -1.0530294239677898e-01 1. 0. 1. 0.
    1.3541386566673944e+01 -7.4254861532110361e-02
    1.5866757828995944e+01 -6.3277199716833266e-02
    1.2462512392675764e+01 -8.0764038437081215e-02
    4.2669938690353701e+00 -2.4887252376726735e-01
    1.4198767904999368e+01 -7.0781495039877199e-02
    1.4198767904999368e+01 -7.0781495039877199e-02
    8.5239083087336400e+00 -1.1897778297335090e-01
    1.6958034388522272e+01 -5.9175593579090677e-02
    1.3541386566673944e+01 -7.4254861532110361e-02
    1.2012191406989986e+01 -8.3833838333928115e-02
    1.6958034388522272e+01 -5.9175593579090677e-02
    1.4198767904999368e+01 -7.0781495039877199e-02
    8.6781299569933310e+00 -1.1680434139522429e-01
    1.3541386566673944e+01 -7.4254861532110361e-02
    1.2968141143619201e+01 -7.7576118506196612e-02
    5.6475681805868634e+00 -1.8299697494424033e-01
    1.4198767904999368e+01 -7.0781495039877199e-02
    2.5877947453769139e+01 -3.8700818724480265e-02
    1.0909103859096174e+01 -9.2450032704204863e-02
    1.1607793383580484e+01 -8.6798056208228933e-02
    4.5519488238817116e+00 -2.3145502494313785e-01
    1.2462512392675764e+01 -8.0764038437081215e-02
    1.2968141143619201e+01 -7.7576118506196612e-02
    1.4198767904999368e+01 -7.0781495039877199e-02
    9.3930287922664117e+00 -1.0769674088839852e-01
    1.0324171130043423e+01 -9.7786266934608693e-02
    4.4799559135700399e+01 -2.2332781224177665e-02 1. 0. 1. 0.
    1.4198767904999368e+01 -7.0781495039877199e-02 1. 0.
    1.3541386566673944e+01 -7.4254861532110361e-02
    1.4198767904999368e+01 -7.0781495039877199e-02
    1.4198767904999368e+01 -7.0781495039877199e-02
    1.3541386566673944e+01 -7.4254861532110361e-02
    1.3541386566673944e+01 -7.4254861532110361e-02
    2.0054986879841753e+01 -4.9987504685547732e-02
    2.2416556336823863e+01 -4.4699015626767417e-02
    1.4963067721862023e+01 -6.7132407525801685e-02
    1.5866757828995944e+01 -6.3277199716833266e-02 1. 0.
    1.1242021179530175e+01 -8.9667167932444058e-02
    1.8312190839256054e+01 -5.4772255750516606e-02
    5.6060645744136854e+00 -1.8444679058389990e-01
    6.6109638401973907e+00 -1.5489297133064672e-01
    5.6060645744136854e+00 -1.8444679058389990e-01
    1.5866757828995944e+01 -6.3277199716833266e-02 1. 0.
    1.0065290382967309e+01 -1.0035184828481861e-01
    1.0909103859096174e+01 -9.2450032704204863e-02
    6.4779482735021388e+00 -1.5823502761794853e-01
    1.2462512392675764e+01 -8.0764038437081215e-02
    1.6958034388522272e+01 -5.9175593579090677e-02
    1.0909103859096174e+01 -9.2450032704204863e-02
    1.8312190839256054e+01 -5.4772255750516606e-02
    1.1242021179530175e+01 -8.9667167932444058e-02
    4.4699348737505122e+00 -2.3619795444544081e-01
    4.3738595393498017e+00 -2.4202313502882750e-01
    1.3541386566673944e+01 -7.4254861532110361e-02
    1.2968141143619201e+01 -7.7576118506196612e-02
    1.5866757828995944e+01 -6.3277199716833266e-02
    1.2968141143619201e+01 -7.7576118506196612e-02
    1.2968141143619201e+01 -7.7576118506196612e-02
    1.8312190839256054e+01 -5.4772255750516606e-02
    1.6958034388522272e+01 -5.9175593579090677e-02
    1.2968141143619201e+01 -7.7576118506196612e-02
    1.8312190839256054e+01 -5.4772255750516606e-02
    1.5866757828995944e+01 -6.3277199716833266e-02
    1.4198767904999368e+01 -7.0781495039877199e-02
    1.1607793383580484e+01 -8.6798056208228933e-02
    1.4198767904999368e+01 -7.0781495039877199e-02
    1.4198767904999368e+01 -7.0781495039877199e-02
    1.6958034388522272e+01 -5.9175593579090677e-02
    1.0604409402243963e+01 -9.5154221954332652e-02
    1.5866757828995944e+01 -6.3277199716833266e-02
    1.0065290382967309e+01 -1.0035184828481861e-01
    4.5309881064758457e+00 -2.3264794365254840e-01
    1.1607793383580484e+01 -8.6798056208228933e-02
    1.2462512392675764e+01 -8.0764038437081215e-02
    1.2012191406989986e+01 -8.3833838333928115e-02
    1.4198767904999368e+01 -7.0781495039877199e-02
    1.1242021179530175e+01 -8.9667167932444058e-02
    1.4198767904999368e+01 -7.0781495039877199e-02
    6.3529064442863525e+00 -1.6151457061744962e-01
    1.0909103859096174e+01 -9.2450032704204863e-02
    1.1242021179530175e+01 -8.9667167932444058e-02
    1.4963067721862023e+01 -6.7132407525801685e-02
    1.2462512392675764e+01 -8.0764038437081215e-02
    8.8412090500664817e+00 -1.1459194182538808e-01
    9.8251915436238537e+00 -1.0285594337791670e-01
    8.1071187003698473e+00 -1.2528448639654299e-01
    6.9845035393091228e+00 -1.4623586672531561e-01
    1.4198767904999368e+01 -7.0781495039877199e-02
    1.2462512392675764e+01 -8.0764038437081215e-02
    9.3930287922664117e+00 -1.0769674088839852e-01
    1.0909103859096174e+01 -9.2450032704204863e-02
    1.2462512392675764e+01 -8.0764038437081215e-02
    1.3541386566673944e+01 -7.4254861532110361e-02
    1.0324171130043423e+01 -9.7786266934608693e-02
    1.1242021179530175e+01 -8.9667167932444058e-02
    7.7470795387236313e+00 -1.3130643285972257e-01
    1.2012191406989986e+01 -8.3833838333928115e-02
    1.0604409402243963e+01 -9.5154221954332652e-02
    1.0909103859096174e+01 -9.2450032704204863e-02
    4.2669938690353701e+00 -2.4887252376726735e-01
    1.3541386566673944e+01 -7.4254861532110361e-02
    1.2968141143619201e+01 -7.7576118506196612e-02
    1.1607793383580484e+01 -8.6798056208228933e-02
    1.4963067721862023e+01 -6.7132407525801685e-02
    1.0604409402243963e+01 -9.5154221954332652e-02
    9.8251915436238537e+00 -1.0285594337791670e-01
    1.3541386566673944e+01 -7.4254861532110361e-02
    1.3541386566673944e+01 -7.4254861532110361e-02
    1.8312190839256054e+01 -5.4772255750516606e-02
    1.0909103859096174e+01 -9.2450032704204863e-02
    1.4963067721862023e+01 -6.7132407525801685e-02
    1.4198767904999368e+01 -7.0781495039877199e-02
    1.0604409402243963e+01 -9.5154221954332652e-02
    1.1242021179530175e+01 -8.9667167932444058e-02
    1.4198767904999368e+01 -7.0781495039877199e-02
    1.6958034388522272e+01 -5.9175593579090677e-02
    8.6781299569933310e+00 -1.1680434139522429e-01
    1.0909103859096174e+01 -9.2450032704204863e-02
    8.8412090500664817e+00 -1.1459194182538808e-01
    1.0909103859096174e+01 -9.2450032704204863e-02
    9.0140235127796835e+00 -1.1233827907252845e-01
    1.1242021179530175e+01 -8.9667167932444058e-02
    1.3541386566673944e+01 -7.4254861532110361e-02
    1.5866757828995944e+01 -6.3277199716833266e-02
    1.2012191406989986e+01 -8.3833838333928115e-02
    1.2012191406989986e+01 -8.3833838333928115e-02
    1.3541386566673944e+01 -7.4254861532110361e-02
    1.6958034388522272e+01 -5.9175593579090677e-02
    1.5866757828995944e+01 -6.3277199716833266e-02
    6.9045686351696505e+00 -1.4800421301709618e-01
    9.8251915436238537e+00 -1.0285594337791670e-01
    1.2462512392675764e+01 -8.0764038437081215e-02
    1.4963067721862023e+01 -6.7132407525801685e-02
    1.4963067721862023e+01 -6.7132407525801685e-02
    7.0673682802187265e+00 -1.4444770662461007e-01
    1.8312190839256054e+01 -5.4772255750516606e-02
    1.2462512392675764e+01 -8.0764038437081215e-02
    1.2462512392675764e+01 -8.0764038437081215e-02
    6.7528309066313401e+00 -1.5148424267119157e-01
    1.1607793383580484e+01 -8.6798056208228933e-02
    1.1607793383580484e+01 -8.6798056208228933e-02
    1.1607793383580484e+01 -8.6798056208228933e-02
    1.0324171130043423e+01 -9.7786266934608693e-02
    7.8615904616149734e+00 -1.2932825784311769e-01
    2.2416556336823863e+01 -4.4699015626767417e-02
    7.9814604390183508e+00 -1.2732140281584606e-01
    1.2462512392675764e+01 -8.0764038437081215e-02
    1.2012191406989986e+01 -8.3833838333928115e-02
    5.6475681805868634e+00 -1.8299697494424033e-01
    9.6017137476335748e+00 -1.0530294239677898e-01
    1.8312190839256054e+01 -5.4772255750516606e-02
    1.4963067721862023e+01 -6.7132407525801685e-02
    1.2012191406989986e+01 -8.3833838333928115e-02
    7.5326287797751830e+00 -1.3518177271779988e-01
    1.2012191406989986e+01 -8.3833838333928115e-02
    1.2462512392675764e+01 -8.0764038437081215e-02
    2.5877947453769139e+01 -3.8700818724480265e-02
    8.8412090500664817e+00 -1.1459194182538808e-01
    9.8251915436238537e+00 -1.0285594337791670e-01 1. 0.
    1.4198767904999368e+01 -7.0781495039877199e-02
    3.1685974783869160e+01 -3.1591201180328175e-02
    1.6958034388522272e+01 -5.9175593579090677e-02
    1.6958034388522272e+01 -5.9175593579090677e-02
    3.1685974783869160e+01 -3.1591201180328175e-02
    1.6958034388522272e+01 -5.9175593579090677e-02
    3.1685974783869160e+01 -3.1591201180328175e-02
    2.2416556336823863e+01 -4.4699015626767417e-02
    1.8312190839256054e+01 -5.4772255750516606e-02
    1.0065290382967309e+01 -1.0035184828481861e-01
    8.6781299569933310e+00 -1.1680434139522429e-01
    8.5239083087336400e+00 -1.1897778297335090e-01
    1.0065290382967309e+01 -1.0035184828481861e-01
    3.1685974783869160e+01 -3.1591201180328175e-02</input_scale>
  <output_scale>
    5.2631578947368418e-01 4.9999999999999994e-01 5.2631578947368418e-01
    4.9999999999999994e-01</output_scale>
  <inv_output_scale>
    1.8999999999999999e+00 -9.4999999999999996e-01
    1.8999999999999999e+00 -9.4999999999999996e-01</inv_output_scale>
  <weights>
    <_>
      -2.4313448272350893e+01 -5.0768419700377567e+00
      1.4390199149473562e-01 2.0857980341717610e+00
      -3.5775177662931917e-01 -2.0265168287257029e-01
      -3.0972862705896242e-01 2.9092729755063546e-01
      3.5645227980256955e-01 2.3086859585397574e+00
      1.2245193816440940e+00 1.1831238676451111e-01
      2.1120786342002629e+00 -1.4438559134511240e+00
      2.0726535157377518e-01 -3.5485079379338141e-01
      -1.6553622009046587e+00 1.5936170651073969e+00
      -4.6819675529719476e+00 4.7448266093133062e+00
      9.5624911603436161e+01 2.3044339153346827e+00
      -2.1093327513270705e+00 -4.3058840333388391e+00
      5.5746449182697519e+00 2.0049663194687408e+00
      9.5376340852661079e-01 -1.5351628562335871e+00
      -9.7462381181437130e-01 -3.1619296894468185e+00
      -3.2516691688175601e+00 -8.4777381497395032e-01
      -4.4045907570927749e+00 2.8175308938817811e+00
      -8.0988576754108255e-01 5.0565500308433595e+00
      1.7354498349358913e+00 -1.2219074411052353e+00
      3.9126070034743012e+00 -1.9141490324263179e-02
      4.9721987804578653e+01 4.3711165088465389e+00
      1.4447322650644057e+00 -2.6802197668687842e+00
      3.3812768914024365e+00 -1.1853282948587183e+00
      -4.2390320645153873e-01 4.9824816784166148e-01
      3.5074956529914575e-01 -6.7418537058180739e-02
      -9.5353653261580318e-01 4.1224205633387377e-02
      -2.7332564265025612e+00 5.6735232720064899e-01
      1.7949302856943389e-01 -2.2333331593114996e+00
      -6.5610884732838812e-02 1.9099074799833768e-01
      -4.1381647552564162e+00 -2.4487515399465276e+00
      -4.8412930534993146e+00 -3.2503659765164272e+00
      1.1099378886446292e+00 2.0572037640518421e+00
      9.1394261581804359e-02 -7.9009044357440472e-01
      6.9381273500022239e-02 5.2435718134103559e-01
      -1.0204004745614242e-01 -1.0126960259043774e+00
      2.0111773327021938e+00 4.4735161674137425e-01
      3.2586115011954071e+00 -1.5541035616983168e+00
      3.5167135215481621e-01 2.4180816607189120e+00
      -9.7305916381939073e-01 7.6862531632619424e-01
      4.0456390614749740e+00 -2.8650495390583058e-01
      4.3153258516666529e-02 -3.2676282640669220e-02
      1.1025575913965954e-02 -9.4292648007927651e-02
      1.2381577517389769e-02 9.9117551567687780e-03
      2.7670561865632770e-02 6.2243724039514232e-03
      -2.2576137018638920e-02 -7.1796979214616852e-03
      1.0715955907342083e-02 -3.6157911605173627e-02
      2.3986566162491767e-02 4.3016377905718564e-02
      -3.5139200001233724e-02 -7.0408713548550817e-03
      5.1236434978200830e-02 -1.9780479271209409e-02
      -1.5554694479598077e-01 -5.7087763922000399e-02
      1.2236126207725961e-03 2.6340311076220626e-04
      9.2839392328749552e-04 1.1273987238945304e-03
      9.6015590369737298e-04 7.7532301577462915e-05
      5.7638844554589407e-04 -9.9315356161795753e-04
      1.1323118916055643e-03 1.5589217599374364e-04
      5.7144520239278262e-04 8.3754903868560597e-04
      -8.2163157607046745e-04 8.4064092940690336e-04
      -1.0873727806470959e-03 -5.4953867330511373e-04
      -1.0336254141011033e-03 1.0571705973050436e-03
      -1.4847345078318502e-04 1.8483917971242358e-04
      -4.4599492089626230e-01 3.2805218470498554e-02
      5.5290317247821179e-02 -5.7638938053262430e-02
      1.8444532819727522e-02 -4.9295133575983176e-02
      -3.9485757435363034e-02 5.3078522178449800e-02
      4.2161951961214507e-02 5.4545296905704227e-02
      2.1062282593796559e-02 7.3872813239093775e-03
      -5.5586100855985782e-02 -2.2395438022747374e-02
      1.4663313547639350e-02 -1.0533719502177648e-01
      -3.0927997932679693e-02 4.0350112865547065e-02
      -2.1730609166719841e-02 -5.1147529446237308e-02
      -1.2750652410988170e+00 -1.0521517597733716e-02
      9.1746936851487979e-02 2.1491221680234519e-02
      -3.2667951598290945e-02 -9.5301337340436401e-02
      -1.1317119334104714e-01 1.0375533183202489e-01
      1.1731415072490443e-01 1.4663825458456919e-01
      6.1167066048069207e-02 8.0545571478392794e-02
      4.8836759033641444e-03 -5.7102625029076398e-02
      8.5587676139846885e-02 -1.3500153192640005e-01
      -4.9169826518625281e-02 4.6426638984202115e-02
      3.4483618249648969e-02 5.3031346210207289e-02
      -8.0640249066829583e-01 9.3247936462300882e-03
      7.5827917070853068e-02 6.0500465430882798e-02
      -2.8207070614316394e-02 -7.2885897682664291e-02
      -5.8976933908382788e-02 5.9833118295535601e-02
      6.1638586254223339e-02 7.7173386239502054e-02
      6.7906152394155025e-02 3.8812815059071415e-02
      -6.6000705434440235e-04 -7.2439437189578931e-02
      4.0573438890806786e-02 -7.1914461840117211e-02
      -6.9399825057967768e-02 6.5844702665676935e-02
      7.7256420807730375e-02 8.2642399984901041e-02
      -1.6468785298935922e+00 7.4151613329905691e-02
      -5.3954440190413940e-04 -6.7993513393438995e-02
      3.7323826261936928e-02 5.9365571383984649e-03
      4.7560172888436669e-02 -1.0596771778503969e-02
      -4.8389848743171107e-02 -4.6522093444130656e-02
      -3.6137812407237700e-02 -6.4230373824089776e-02
      -9.4471545580518526e-02 3.4804972972958599e-02
      -5.9164200343981246e-02 3.7181785671928355e-02
      4.7135682495214687e-02 -4.7823960946804904e-02
      3.7608510679971653e-02 -5.9221172929066451e-02
      3.6405793947493809e-01 2.7742390775876452e-02
      -3.4436770111944906e-04 -4.4684029810845016e-02
      -4.5420841225824737e-02 1.7766023485497478e-03
      1.5856441521581867e-02 2.6737918387228997e-03
      -1.5836087462117648e-02 -1.8092061631111503e-02
      -1.7489743101214508e-02 -1.4752003995890117e-02
      -3.1587254611085205e-02 2.6846530909227534e-02
      -1.4227660565255753e-02 6.6135987081091654e-02
      2.6684511743558004e-02 -2.2512874585882296e-02
      9.4293895224047582e-03 -6.5852118611726948e-02
      9.1697645314580569e+00 7.6689582478350393e-02
      -3.1495177722981403e-02 -7.7131545299126247e-02
      4.0358405388354480e-02 3.7496608453344529e-02
      7.0242362482342058e-02 -3.6048709624702774e-02
      -6.9744074698029887e-02 -8.1663113906825152e-02
      -5.7522300105878263e-02 -7.6736165586833244e-02
      -8.8536886955114358e-02 6.1506726894868483e-02
      -7.5257268313890791e-02 7.1226147853718585e-02
      6.5298961172611497e-02 -5.6346749248248514e-02
      8.2077887981986425e-02 -6.1517889722375388e-02
      3.0077928399920171e+00 3.2456597252466468e-02
      -8.4459475419153496e-02 -2.5567364661245096e-02
      -1.2898147663928347e-01 9.8757273177566621e-02
      4.5563644447121500e-02 -1.5778270027534107e-02
      -3.9831473353841580e-02 -1.5960526705558492e-01
      -1.4773918423697087e-02 8.6362590963677838e-03
      -4.5899584129336708e-02 1.2861267243219416e-02
      -1.0823399085036165e-02 1.6341689392240188e-01
      1.9549318308444776e-02 -1.0087395411490431e-02
      6.6262360767167100e-02 -2.6450606806445484e-03
      9.7667940864253069e-05 1.0860159412336716e-03
      6.7883820489832852e-04 1.5906981698715129e-04
      -4.8030595207392191e-04 -8.1740609644861181e-04
      -4.0134215041008386e-04 -1.1942214735321045e-03
      -6.4358444301324609e-04 5.8633066338281899e-05
      -1.0634338170039716e-03 2.3566027610333210e-05
      -4.9862370615360468e-04 9.3739265592565689e-04
      -5.7313518618973670e-04 -7.4828996413172863e-04
      4.8712843988916934e-04 2.3899852033251937e-04
      2.9709150462634590e-04 -1.1260651826545060e-03
      9.1705179969281403e+00 7.6154340884336924e-02
      -3.1478910092512025e-02 -7.6462862712792901e-02
      3.9133809537539831e-02 3.9305476639847084e-02
      7.0438536103956381e-02 -3.7784131277672786e-02
      -7.1848564266581358e-02 -8.1398498821693449e-02
      -5.8433230948727044e-02 -7.6657707549073112e-02
      -8.8100139629994689e-02 6.1066174150828864e-02
      -7.5740604732244532e-02 7.1270149144760986e-02
      6.5575789461708417e-02 -5.7406401253729276e-02
      8.3704466895057339e-02 -6.1720234842443197e-02
      -8.0548421070707055e-01 8.8959161261525210e-03
      7.7345386015079121e-02 5.9391351364319230e-02
      -2.8483239432554579e-02 -7.2654738486084641e-02
      -5.9020172733072716e-02 6.0350976134361717e-02
      6.0395512685392831e-02 7.7049100097575665e-02
      6.7415522710058115e-02 3.8686456522259119e-02
      -2.4184738571835017e-03 -7.2439701697772196e-02
      3.9770768521087969e-02 -7.2528722049619021e-02
      -6.8906334773710637e-02 6.7388727212050720e-02
      7.5949259765972110e-02 8.2743168335333725e-02
      -1.5778565696392082e+00 -5.1852512932204185e-02
      1.6587363114352155e-01 7.7365432190592109e-02
      -2.5295335366792286e-02 -1.7820122907332062e-01
      -2.2999325882447988e-01 1.8998432753836425e-01
      2.3910058758644201e-01 2.8921024150437857e-01
      1.3990027290684218e-01 1.8983807679032796e-01
      5.0391334514123247e-02 -1.2974371666596199e-01
      1.8944782129039481e-01 -2.5935894640903817e-01
      -1.2097349749518604e-01 1.1629206179808801e-01
      4.6120983255514815e-02 1.0679489645791231e-01
      2.6883977316139012e+00 1.5797491588961188e-03
      -5.5745211662576746e-02 -2.2478783570763033e-02
      -9.8464218861636602e-02 5.4207812070993837e-02
      5.0486884956747510e-02 -3.2460636716754372e-02
      -4.8589855674148377e-02 -1.2405361096191581e-01
      -1.4706024283195106e-02 1.5518811745833819e-02
      -8.8428950602232100e-03 2.1915924911731946e-03
      -3.2404847433243372e-02 1.5848354435634401e-01
      2.1604825607879140e-03 -4.3299784020927077e-04
      4.3870966562680982e-02 6.4186100595699392e-03
      7.9842706652913497e-03 -9.9584482612576769e-02
      3.3666926412583231e-02 3.0585092909913597e-02
      -2.1750370379524105e-02 -2.3674140353501773e-02
      2.7225538786739761e-02 1.4146244590708981e-02
      -3.0258851138754806e-02 -1.2006687562623609e-02
      8.2491853043195357e-03 -2.6360009034594570e-02
      4.2681874811598471e-02 -3.7411287360950646e-02
      -2.6111340987520392e-02 2.5859051331256971e-02
      -4.0078251277492136e-02 3.7543775266638151e-02
      2.8249256433155720e-02 8.8181974121520124e-02
      -1.0206081116624450e+00 4.8911962127101007e-02
      9.8859483952613875e-02 -1.4854218416933821e-02
      2.1640832968062379e-01 -8.3459957464442916e-02
      -8.9314163131080274e-02 8.8817245795626720e-02
      9.1328110179508315e-02 1.2408511438616059e-01
      8.0497588710948628e-02 5.6906585162395523e-02
      -2.4317961204891488e-02 -5.9685985429361155e-02
      6.5585775947539490e-02 -1.0966547431683636e-01
      -4.0098267352046052e-02 6.1038196066798091e-02
      1.4674673865771545e-01 5.3861800231342336e-02
      -1.5167225015397008e+00 5.8614344876070104e-02
      -1.8601984531049155e-02 -6.0919103217361679e-02
      3.4077327085712796e-02 2.3615846887883929e-02
      4.5639652798938259e-02 -2.1804040078524621e-02
      -4.5785166408520470e-02 -5.4689461166377913e-02
      -3.9153686761123178e-02 -5.4361302322462481e-02
      -6.5562402608913717e-02 4.3845701385422542e-02
      -5.1037576372095404e-02 4.5784840907856665e-02
      4.5566207120375533e-02 -4.1337190509554485e-02
      8.5319356675774422e-02 -4.4578137313992378e-02
      5.1303131158391384e+00 6.3040893479749588e-02
      -2.4138497833860684e-02 -6.7010857874565968e-02
      2.7720445412555396e-02 2.9378441421520952e-02
      5.8181530215443734e-02 -2.8635784832810644e-02
      -5.9368180628556373e-02 -6.7715767530948892e-02
      -5.0702919801655720e-02 -6.6850577425899629e-02
      -7.7579709563253621e-02 5.3427978411168940e-02
      -6.3147426000975213e-02 5.9624837394252714e-02
      5.6376634885785294e-02 -4.7794756327156379e-02
      6.9401422637389978e-02 -5.3012531159939910e-02
      2.4748974116799163e+00 -2.6766721092568975e-03
      -1.8083151632468566e-02 -3.3699177931549528e-03
      -5.9637553076827450e-02 3.8623007138111912e-02
      2.1093965167904509e-02 -1.5637279937721862e-02
      -1.8889714184818617e-02 -1.6746007225203313e-01
      -9.9230190586962960e-03 -2.5849181301708366e-03
      -2.4656819551667816e-03 5.2079709613030677e-04
      -8.4725966220241603e-03 1.9285595896653460e-01
      2.7196263734505791e-04 9.1535878667789432e-03
      -1.1218521523998744e-01 1.7359137633637337e-03
      -1.2106944539194719e-01 -1.6403304840474777e-02
      3.7837020570771103e-02 5.0467310621181141e-03
      3.7270023518545109e-02 -2.5664167804166645e-02
      -3.1144628193227414e-02 3.8868523302625670e-02
      3.3428366896777681e-02 -1.1960325413653338e-02
      3.3379178662538790e-02 2.6825590853285172e-02
      2.3977092760605393e-02 3.1337118128230111e-03
      2.7802361048473653e-02 -6.3651011758562040e-02
      -4.1700796136961850e-02 4.9233550360413131e-02
      1.3174984106234700e-01 2.8065099087402390e-02
      1.4697413421807515e+00 -4.6670034995774157e-02
      3.1092885208023176e-02 1.5910234634989522e-02
      -1.1556959995821985e-01 -3.7896574459531589e-02
      1.2386653735989765e-03 3.2014244613293226e-02
      -3.9548174270094601e-03 -7.5193311392374382e-02
      1.3809943146260578e-02 2.2783434850537600e-02
      4.2509076887263429e-02 -3.1017782225759603e-02
      1.7407046842961175e-02 1.0888019199333472e-01
      -4.6347626949353495e-02 4.3649647787215307e-02
      -2.8094662754509843e-02 5.0043349408221520e-02
      2.3525603576628482e+00 -6.4565684181394231e-02
      5.2637093645040961e-02 5.3215197308485819e-02
      -9.2835841430488814e-02 -9.2852439877278597e-04
      1.7537524222664997e-04 -9.1021603883382034e-03
      4.5254640446022330e-04 -3.2013484457444459e-02
      6.3678683086717633e-02 3.1585779133734754e-02
      5.6659559818101203e-02 -6.8591892189740086e-02
      2.7860434923850718e-02 7.5295660226555566e-02
      -6.6561636368168572e-02 5.6307341332413829e-02
      -7.2193908238262550e-02 9.1288672184996478e-02
      2.5166801711426792e+00 2.1655744011372265e-02
      -9.0168058909573297e-03 -2.4856116929444939e-02
      -9.6730143968288846e-03 9.3173175968988640e-03
      2.1076397382877327e-02 -8.8615315800281372e-03
      -2.1128724107805967e-02 -2.4137098857948732e-02
      -1.6784686615532916e-02 -2.4059024420158497e-02
      -2.6059810386580711e-02 1.7480510727846271e-02
      -2.1091950762664808e-02 2.0426036767858126e-02
      1.9005324419072180e-02 -1.7860867499637615e-02
      2.4805610509367044e-02 -1.8059345500102315e-02
      1.4600899264075571e+00 -8.0257117507920528e-02
      8.2363284472549439e-02 5.9664521531796091e-02
      -1.2508069513845127e-01 -7.5775173377986837e-02
      -9.4462363429754573e-03 7.3471779043932803e-02
      4.0581311033331862e-03 -7.3600922752581566e-02
      7.8922258931811345e-02 2.4932791712596599e-02
      7.1362211445737622e-02 -7.3748176972939117e-02
      2.0903350177370033e-02 8.4478098082164332e-02
      -6.5645345754081472e-02 7.4822605234176928e-02
      -1.3162520233743726e-02 7.2257486975994697e-02
      6.0377262401712199e-02 -5.9304510219973638e-03
      2.2658721456883454e-02 -1.0821188068772223e-02
      -5.8313181442619696e-02 -2.6034827630978110e-02
      -3.7422724313811726e-03 1.7377343144955565e-02
      4.3358890834231363e-03 2.2060558007442208e-02
      8.9344532029052726e-03 -1.9355892315018591e-02
      -1.6461597732807911e-03 -1.4702348330987465e-02
      -1.1733868468220960e-02 -4.9679127424262927e-02
      -7.3179288276360730e-03 3.8111813074667498e-03
      -2.0976218131534366e-01 2.7355569023245856e-02
      -1.0526958575564040e+00 -6.2516683610992232e-02
      1.7837658592911942e-01 9.0512595139845567e-02
      -5.1585539888593372e-02 -2.0326572988569863e-01
      -2.7882330292488267e-01 2.0145592875314910e-01
      2.7497953482779464e-01 3.6240414232123142e-01
      1.7106834769536139e-01 2.3420342091549570e-01
      7.8302873104490966e-02 -1.6046859291310722e-01
      2.3299779203067825e-01 -3.0862250737961550e-01
      -1.5031748462742484e-01 1.2426444732215103e-01
      2.5254275114132724e-02 1.2902066881434340e-01
      -1.0559679056494726e+00 1.8019138563637533e-02
      9.9248794584341937e-02 2.8648432713606155e-02
      1.4814011381541177e-02 -1.1202493322970566e-01
      -1.0514705315183653e-01 1.0239642840255984e-01
      1.0228675099184890e-01 1.2274488476588630e-01
      6.4993981334784096e-02 6.2151734563494848e-02
      -1.5418027748997604e-02 -6.9070221811677102e-02
      7.5691734335440866e-02 -6.2684442376087335e-02
      -6.1901560714789854e-02 4.3104016625920533e-02
      -1.7644720438662286e-02 1.4299147300907323e-02
      4.5431759756892838e+00 1.0681056078853560e-02
      3.5683905824149195e-02 -1.2685314050926686e-02
      2.2580706949041365e-02 -3.4423099615104417e-02
      -1.6746673753984170e-02 3.1668620098711305e-02
      1.6457997009455150e-02 2.2429794636344997e-02
      1.9949307510590854e-02 -2.0245412933046179e-03
      -1.6694495263341266e-02 -1.8095091436948894e-02
      2.1585850359544371e-03 -2.7826823746360495e-02
      -1.0530322815411637e-02 1.0914065150198823e-02
      6.2927068776910617e-03 1.8850211050250275e-02
      -1.4254781786007937e+00 -5.3702882434328643e-02
      1.2945246553924405e-01 8.1420157368649285e-02
      -2.4864482441608646e-02 -1.3214373122919992e-01
      -1.6162610990844811e-01 1.4108847085162574e-01
      1.6887697138621066e-01 2.0253907317743008e-01
      1.1082848211212935e-01 1.2939521595454442e-01
      3.5919477012905411e-02 -1.0950365416256884e-01
      1.3022929561872196e-01 -1.8311359989730780e-01
      -1.0555711611003775e-01 1.0313919798970310e-01
      8.0617080458541657e-02 9.8376180756090045e-02
      9.5771078103305460e-04 7.1886233199114065e-04
      6.8368142343753113e-04 -5.6321055983890101e-04
      1.3067146628238167e-04 1.2364034378421818e-03
      -9.4410048342854472e-05 9.7429285146779685e-04
      -6.6782448827763742e-04 -9.1630289465662257e-04
      7.5011341488593643e-04 7.8185677674139553e-05
      -1.2327735244158108e-03 -6.0743474532163721e-04
      8.6023294118386809e-04 9.8191665983138224e-04
      -1.1997062722192565e-03 7.1106642442665007e-04
      -2.9177241194229536e-04 -6.0769146417760376e-05
      1.5670902129556419e+00 -1.0716154001157331e-01
      -6.5946864057973661e-02 8.6668807122613933e-02
      -1.9183135854502870e-01 6.0953523095584598e-02
      6.6210248499111238e-02 -1.5873503242453159e-02
      -7.5544209690335803e-02 -3.0528492819397246e-01
      -2.3385058070735945e-02 -3.5026093882252744e-02
      8.2280509734643306e-02 -9.9231892452421464e-02
      -4.1701790809809382e-02 3.0562833587249583e-01
      -5.8318837706285633e-02 4.1428097870150289e-02
      2.2786601466906149e-02 6.5570417287312985e-02
      2.2661557494611633e+00 -2.8699010190292345e-02
      -3.8931013822807989e-02 1.0495171508814129e-02
      -5.9140015991346093e-02 4.1172092309728257e-02
      4.4116899662793342e-02 -1.7537683263830092e-02
      -4.1912275638245039e-02 -1.1524604335937949e-01
      6.0082677028361845e-03 6.2659667146993609e-03
      1.2107448899506105e-02 -2.0492769732767306e-02
      -3.6207880119687112e-02 1.4404206317829366e-01
      -1.4937347707957616e-02 2.0169756044447110e-02
      -1.2083234514475577e-02 4.0217516433833943e-02
      -5.4572685436315060e-01 5.3885786990993390e-02
      -1.6997006760104717e-02 -5.6706797629782188e-02
      2.1505713931942748e-02 2.1259514837991531e-02
      4.5952591949873896e-02 -1.9853362183749588e-02
      -4.6738105684709152e-02 -5.4398393759877726e-02
      -3.8421085362627297e-02 -5.1904281805084954e-02
      -6.3748226706970251e-02 3.9879428660214621e-02
      -4.9076072738127627e-02 4.6458319000800101e-02
      4.3213859836431986e-02 -3.8913851982551387e-02
      1.0029370246959114e-01 -4.1724829431246509e-02
      1.3059954991818157e-01 -4.4367749589083981e-02
      1.6313364231555719e-02 -1.7414340016994875e-02
      2.1067466392488451e-02 -1.9091897485323167e-02
      2.5056246809773322e-02 5.6975694122131416e-03
      -2.6507945534715721e-02 -1.4350579515112953e-02
      1.4899678220278286e-03 -3.0654274617176049e-02
      3.4410931118385002e-02 -1.4362722388112016e-02
      -2.7065242242792029e-02 3.4573781887937007e-02
      -3.7757796917520289e-03 6.4004742105713648e-03
      -9.2738242997536281e-03 -6.8123793341927030e-02
      -3.3167834188239389e-04 8.6954122762855841e-04
      4.6157935416377724e-04 -3.3529723715703503e-04
      9.5888427999125643e-04 -1.1108280814548994e-03
      1.0954577700025433e-03 6.9161254803928450e-04
      -1.1852362365783440e-03 -7.5180608393163087e-05
      -7.6651056875747469e-04 2.1698853526633491e-04
      -4.8551762841139798e-04 1.0782919671687059e-03
      3.6360029035078850e-04 8.2303030262755256e-04
      -4.3953828428119375e-04 5.0258553585499574e-04
      -1.1184546518552844e-03 9.0163471862098250e-04
      -1.6430265471831301e-01 2.5397212366177317e-02
      8.3928144831416206e-03 -3.0387100593267553e-02
      -4.0560651766846326e-02 -1.5184433329245782e-02
      -3.5794816368921505e-02 2.8229636031929493e-02
      3.8020099052826876e-02 1.6051099118913642e-02
      4.9612845489869399e-03 2.3630151323409575e-02
      -4.4069180050487336e-02 5.0366052718801638e-03
      2.6622181069910707e-02 -5.5461020588159354e-03
      1.7992698734707279e-02 -2.2589813574874357e-02
      9.3246394857896195e-02 -3.8043989230760983e-03
      -4.6286313576852095e-01 5.2935938615733411e-02
      5.7722142945753403e-02 1.7261812207498745e-02
      2.6525755424501724e-02 -5.8382163938692860e-02
      -5.6058279229589787e-02 6.4689826183236571e-02
      5.5977459515304986e-02 5.8462437287390964e-02
      3.9109673056466815e-02 3.7620483401449495e-02
      -4.4935293499510316e-02 -3.7278544738210122e-02
      4.2973460659005008e-02 -6.7401039588708050e-02
      -3.1714290688666061e-02 3.4287699773682741e-02
      6.3423114135140554e-02 7.2398967689814797e-02
      -5.2960877272723007e-02 1.2822060444970199e-02
      1.6847828731360166e-02 -4.6473659413498937e-02
      -3.7003391148213859e-03 -1.3936984407939364e-02
      7.5863342820166810e-03 1.3977225553482811e-02
      -7.0515187886791356e-03 6.9216543485070281e-03
      5.0275322425029972e-03 -2.2398909171564417e-02
      -2.3653918952534551e-02 -2.7773021987603308e-03
      -1.9338786810937897e-02 -1.8621658931168284e-02
      9.2214274508900659e-04 5.2330040913223918e-03
      -2.8409609171142461e-03 -2.2735198623013438e-02
      9.3781521893099384e-01 -1.5837823740804245e-02
      -1.2393151517816120e-02 -1.1975195694130697e-02
      -1.1802961089378107e-01 9.3777945754103791e-03
      9.5666858802214252e-04 1.9273320344623760e-02
      -9.6926005034878666e-04 -4.9332530766359108e-02
      2.4371548685508164e-02 6.9024026643098643e-03
      -2.0280658027616544e-02 -2.8711600310965396e-02
      5.1407483721476145e-03 9.1373124750671275e-02
      -1.1866197208807928e-02 1.1876697468305613e-02
      -4.9119150545111852e-02 3.3829799834776117e-02
      -1.9267289006128019e-01 -3.7193108830331438e-02
      2.6896664109358911e-02 4.7374090690294648e-02
      -9.1548815630949493e-03 -5.0725442719193749e-02
      -5.6472902823434007e-02 4.0769831616879235e-02
      5.7395160115646243e-02 6.5508956160268250e-02
      5.1942068868796445e-02 4.5544658986436108e-02
      -5.8816026807087009e-02 -5.3174002452313400e-02
      4.6433988081993637e-02 -3.8537947392846605e-02
      -4.5749903855668198e-02 3.5905053994618415e-02
      -1.3709657028272185e-02 4.4740239212962184e-02
      9.6869015107963785e-01 -3.1056920093180632e-02
      -1.3716950065461730e-02 5.3263414390065291e-03
      -5.4744286970575401e-02 1.3639152558360526e-02
      1.2984682152849116e-02 -1.8564301259401310e-03
      -1.3179130964714528e-02 -7.7009747256602618e-02
      1.0073296761289935e-02 -3.1308817063483325e-03
      2.2371289207646510e-02 -1.3815151761568395e-02
      -5.0453485855580030e-03 9.6272280618985157e-02
      -7.3391929533222593e-03 7.5658634415683591e-03
      -6.9750521843383304e-02 3.6541176732412889e-02
      -5.6548214476460402e-04 1.0145292711350746e-03
      -1.3196758368548420e-04 -4.9349484619585777e-04
      -9.5223426696057901e-04 -5.5466386663209275e-04
      1.9466163617455908e-04 -3.9121181200017709e-04
      9.5740985473064812e-04 6.0355419728600021e-04
      -1.2142502675074055e-04 -5.2983766019914659e-05
      -6.8085487378018910e-04 -7.0421200875575715e-04
      -8.4060423260503159e-04 4.3275631662010553e-04
      1.0384930686008552e-03 -1.2082556680243000e-03
      -5.7932576879207210e-04 1.1171140008469406e-03
      9.7096772007393117e-01 -3.0642251552245616e-02
      -1.2311819398199914e-02 7.1266716382860154e-03
      -5.3902247403743109e-02 1.2762080105147535e-02
      1.1709753288264173e-02 4.9486137592547097e-05
      -1.4968719563798472e-02 -7.7063892157961694e-02
      9.9143777908863393e-03 -2.0128184422241158e-03
      2.0389692935141413e-02 -1.4758473007793628e-02
      -4.9319070894401611e-03 9.6739354120540244e-02
      -5.7059231204231713e-03 9.0810518563394609e-03
      -6.9163386867481316e-02 3.5555474360561640e-02
      4.1477167039201007e-01 6.0233693454389541e-03
      -1.5135456681089165e-03 -2.2339270515726151e-02
      -7.6300262230735716e-02 2.1574394605734137e-02
      1.8531697245416548e-02 1.1959068200464169e-02
      -1.6584070999958782e-02 -5.6600407518694246e-02
      -1.0504215669157796e-02 -2.4103700391554302e-02
      -2.4960512767337725e-02 1.0507470377889920e-02
      -2.2666340606263824e-02 6.9652718816614209e-02
      3.9366061232061593e-02 -2.4593950141233285e-02
      1.4410795209487212e-01 1.6078551743886851e-02
      1.8832868712503653e-01 -4.9952720848520683e-02
      4.0656719098502624e-02 3.3457392717920045e-02
      -4.5345089585552938e-02 -4.0992449283815589e-02
      -2.2252094782058508e-02 3.9448287986192924e-02
      2.3786758664903183e-02 1.4490200191735966e-02
      3.6356313198791075e-02 2.4019050430719769e-02
      4.8503009691052965e-02 -3.7013757450273695e-02
      2.5455906811070527e-02 -2.4013733876259678e-02
      -3.6652132319308153e-02 3.6364003455841995e-02
      -1.2041004822808793e-02 4.2690497012135668e-02
      -2.1657715643892836e+00 9.6175903512032354e-02
      -3.2473496294502455e-02 -9.0621338751155231e-02
      2.0156617973009092e-02 2.8424025747344411e-02
      5.7158947111032019e-02 -2.8703782050162271e-02
      -5.7319175333659413e-02 -6.4211425448237783e-02
      -6.3618720605528867e-02 -9.7424650223703696e-02
      -1.0026517000652344e-01 6.5367956609719641e-02
      -6.4474695455868591e-02 4.3829322535202837e-02
      7.1357550836450456e-02 -6.9149179814548017e-02
      1.2719216123557925e-01 -5.0331313231726051e-02
      4.6834435938534764e-02 6.0861053711277778e-02
      2.2881676282132203e-02 -1.0936486567080407e-02
      -5.8262921011029797e-02 -3.1795103597589539e-02
