<?xml version="1.0"?>
<opencv_storage>
<my_nn type_id="opencv-ml-ann-mlp">
  <layer_sizes type_id="opencv-matrix">
    <rows>1</rows>
    <cols>3</cols>
    <dt>i</dt>
    <data>
      1558 80 2</data></layer_sizes>
  <activation_function>SIGMOID_SYM</activation_function>
  <f_param1>5.9999999999999998e-01</f_param1>
  <f_param2>1.</f_param2>
  <min_val>-9.4999999999999996e-01</min_val>
  <max_val>9.4999999999999996e-01</max_val>
  <min_val1>-9.7999999999999998e-01</min_val1>
  <max_val1>9.7999999999999998e-01</max_val1>
  <training_params>
    <train_method>BACKPROP</train_method>
    <dw_scale>1.0000000000000001e-01</dw_scale>
    <moment_scale>1.0000000000000001e-01</moment_scale>
    <term_criteria><epsilon>9.9999999747524271e-07</epsilon>
      <iterations>1000</iterations></term_criteria></training_params>
  <input_scale>
    1.0000005743097333e+00 1.5041262846588251e-08 1.0000001568092487e+00
    3.8797878509001138e-08 1.0000007043502981e+00
    -1.2741479080352331e-06 1.0000063937955073e+00
    4.6709422071770955e-08 9.9999753192570628e-01
    -2.7280348664126659e-09 1. 0. 1.0000153304482384e+00
    -2.2693791294081319e-09 1.0000196224283657e+00
    5.6010448691301467e-09 1.0000033347941897e+00 3.1867494866200490e-09
    1.0000063006899327e+00 -1.1669926088209613e-08
    9.9999009402192784e-01 -3.5061208431227337e-09
    1.0000047683617721e+00 -1.2628162922012757e-09
    9.9999532570525662e-01 1.9016348128642191e-09 1. 0.
    1.0000047683617721e+00 -1.2628162922012757e-09
    1.0000033347941897e+00 3.1867494866200490e-09 1.0000030121454575e+00
    1.8607936802678566e-09 1.0000116979495690e+00
    -4.2787483808388713e-09 1.0000133438338952e+00
    -3.3353492794505955e-09 1.0000087902214279e+00
    6.8340921256658791e-10 9.9999470000608304e-01
    -5.9574615845776401e-09 1.0000053968138298e+00
    -2.0427923447039523e-10 9.9999770162186719e-01
    2.5516137117277539e-09 9.9999572024981054e-01
    -3.4764275138788133e-09 9.9999490255144230e-01
    -6.5220103874176106e-09 9.9999647002311709e-01
    2.9713077952329235e-10 9.9999364071964802e-01
    -1.5747886758900516e-09 9.9999161543850101e-01
    -7.4282334267922318e-11 1.0000057428176836e+00
    -8.3197389734394950e-10 9.9999243707724106e-01
    1.2999419177793580e-09 1.0000127409778565e+00
    -3.9519036680862564e-09 1.0000145091964556e+00
    -2.2656630639608495e-09 1.0000067583972070e+00
    3.3854686499260524e-09 1. 0. 1.0000045264146598e+00
    -9.6568281333433542e-09 9.9999762450094054e-01
    3.7735652564535663e-09 9.9999470000608215e-01
    -5.9574615845776351e-09 1.0000075125696239e+00
    7.9297652426715133e-09 1. 0. 1.0000123280864603e+00
    7.8703763300109476e-09 9.9999887369703822e-01
    -2.4513348232833848e-10 9.9999762450093543e-01
    3.7735652564535465e-09 9.9999358156317841e-01
    -1.5599320866670252e-09 9.9999683979557341e-01
    -6.4774533887991933e-09 1.0000155625892644e+00
    -8.9883776891045069e-10 1. 0. 1.0000155625892644e+00
    -8.9883776891045069e-10 9.9999448197315677e-01
    1.6045030195760127e-09 1.0000007336151031e+00 2.6054766316260068e-09
    9.9999500076464098e-01 -4.1895378357336728e-09
    9.9999344045551564e-01 1.9573430801676102e-09 9.9999412720225522e-01
    -9.6567277103909991e-10 9.9998600367188484e-01
    -1.7530532508595634e-09 1. 0. 1.0000068754194718e+00
    5.3224104696207024e-09 1.0000191744244720e+00 4.8470558883658905e-10
    1.0000055342063949e+00 2.6593445813867511e-09 1.0000060008134903e+00
    8.0226075084604737e-10 1.0000048924461424e+00 7.0903429439500683e-09
    9.9999503740677809e-01 -4.4272422723259646e-09
    9.9999601517921977e-01 -7.4654074399141744e-10 1. 0. 1. 0.
    1.0000045386589989e+00 3.1718966641742269e-09 1.0000018695895136e+00
    -4.0410004211260652e-09 9.9999683979556475e-01
    -6.4774533887991379e-09 9.9999537480773337e-01
    -2.8970219274744436e-09 9.9999458913078398e-01
    2.4290395538163206e-09 1. 0. 1.0000047683617721e+00
    -1.2628162922012757e-09 1.0000004068218091e+00
    2.5330498675394161e-09 9.9999745726565337e-01 3.7141384108059029e-10
    9.9999887369703822e-01 -2.4513348232833848e-10
    9.9999717798324883e-01 -4.5869596562845522e-09
    9.9999610343399759e-01 -6.7745792896343319e-09
    9.9999470000608504e-01 -5.9574615845776517e-09
    9.9999976360732912e-01 1.0102479777167704e-09 1. 0. 1. 0.
    1.0000098696732527e+00 2.4662185161824467e-09 9.9999344045551564e-01
    1.9573430801676102e-09 1. 0. 1. 0. 9.9999631355326135e-01
    -5.7940492941068018e-09 1.0000056458583613e+00
    -8.3903073744324227e-09 9.9999659975976440e-01
    -4.2489706984321679e-09 1.0000040429172599e+00
    3.6138804733756688e-09 1.0000155625892644e+00
    -8.9883776891045069e-10 1.0000066499130935e+00
    -3.9147378715551875e-09 1.0000094245751585e+00
    8.3420547016797180e-09 9.9999243707724106e-01 1.2999419177793580e-09
    9.9999723949435915e-01 2.4810439181167066e-09 1. 0.
    9.9999067011740861e-01 -2.0836175065092665e-09
    1.0000085750385712e+00 4.8655754120544218e-09 1.0000087874225672e+00
    5.7346946807039410e-09 9.9999731661522306e-01 1.2590927441707897e-09
    9.9999067011740861e-01 -2.0836175065092665e-09
    9.9999743644872585e-01 -5.0140867502098209e-11
    9.9999161543850101e-01 -7.4282334267922318e-11
    1.0000096609477125e+00 -1.5153869647308614e-09
    1.0000118548083459e+00 -5.6455716658204791e-10
    1.0000059764201923e+00 -2.0502218688174132e-09
    9.9999564504345884e-01 -6.1208890085489100e-09
    1.0000003892610039e+00 -7.2054496433000807e-10
    1.0000055342063949e+00 2.6593445813867511e-09 1.0000119505605007e+00
    1.4299640128026601e-09 9.9999745726565337e-01 3.7141384108059029e-10
    9.9999810385920185e-01 -2.1542016711629675e-10
    1.0000021309322997e+00 3.2016022733045627e-09 9.9999802518784342e-01
    1.1365269991667833e-09 1. 0. 9.9999690021303222e-01
    9.3596235814118631e-10 9.9999373147062143e-01 6.7002807290647086e-09
    1.0000118548083459e+00 -5.6455716658204791e-10 1. 0. 1. 0.
    9.9999161543850101e-01 -7.4282334267922318e-11
    9.9998438212188800e-01 -4.7763195442563128e-09
    9.9999745726565337e-01 3.7141384108059029e-10 1.0000065372361673e+00
    -1.0993949520070374e-08 1. 0. 1.0000094245751585e+00
    8.3420547016797180e-09 1.0000037072691765e+00 1.6936577006548452e-09
    1.0000033347941897e+00 3.1867494866200490e-09 1. 0.
    9.9999188654250104e-01 -2.3770353410025320e-09
    9.9999601517921977e-01 -7.4654074399141744e-10
    1.0000092878275282e+00 -5.2035694741179396e-09
    1.0000098696732527e+00 2.4662185161824467e-09 1.0000064732261658e+00
    -3.6324601156731413e-09 1.0000060008134903e+00
    8.0226075084604737e-10 9.9999745726565625e-01 3.7141384108059138e-10
    1.0000045264146598e+00 -9.6568281333433542e-09
    1.0000053968138298e+00 -2.0427923447039523e-10
    9.9999762450094054e-01 3.7735652564535663e-09 9.9999762721694663e-01
    -1.6899332641237113e-09 9.9999601517921977e-01
    -7.4654074399141744e-10 1.0000092878275282e+00
    -5.2035694741179396e-09 1.0000054783169949e+00
    2.3287834627646887e-09 1.0000099189430374e+00 4.1970287057095968e-10
    9.9999770162186230e-01 2.5516137117277415e-09 9.9999188654250104e-01
    -2.3770353410025320e-09 1.0000094245751585e+00
    8.3420547016797180e-09 9.9999572024981054e-01
    -3.4764275138788133e-09 1.0000027911179037e+00
    -4.2787102711931094e-09 1. 0. 1.0000104464080317e+00
    -1.5005314083780867e-09 9.9999618499064669e-01
    -5.1552175553191216e-09 9.9999577989902932e-01
    -4.0261192840069872e-09 9.9999647002311709e-01
    2.9713077952329235e-10 9.9999690021303222e-01 9.3596235814118631e-10
    1.0000034761986190e+00 6.2360759261356017e-09 9.9999717798324883e-01
    -4.5869596562845522e-09 9.9999537480773337e-01
    -2.8970219274744436e-09 1.0000177645860604e+00
    -3.0530837725314663e-09 9.9999555627045278e-01
    3.8515542101871169e-09 1.0000109432184499e+00
    -3.0827764546916990e-09 1.0000004068218091e+00
    2.5330498675394161e-09 9.9999733812738423e-01 1.5822227744995301e-09
    1.0000007336151031e+00 2.6054766316260068e-09 1. 0. 1. 0.
    9.9999731661522306e-01 1.2590927441707897e-09 1. 0.
    1.0000071899070380e+00 -1.3891012851688589e-09
    9.9999246264005370e-01 -9.5452880402718200e-10
    1.0000015120031165e+00 -4.6092644571391387e-09
    1.0000085750385712e+00 4.8655754120544218e-09 9.9999762450093543e-01
    3.7735652564535465e-09 1. 0. 1.0000016360789992e+00
    -2.5181963655817657e-09 1.0000065447144875e+00
    1.0681959140599612e-08 9.9999426246347933e-01
    -2.5033212912209882e-09 1.0000070193990616e+00
    -1.5599530489129394e-09 9.9997622736858305e-01
    3.9554734312181399e-10 9.9999557735330535e-01
    -3.4615704913932108e-09 9.9999675978359581e-01
    -5.7346257064728169e-09 9.9998600367188484e-01
    -1.7530532508595634e-09 1. 0. 9.9999463231608321e-01
    -3.2981455916506590e-09 9.9999470000608237e-01
    -5.9574615845776359e-09 1.0000155625892644e+00
    -8.9883776891045069e-10 9.9999022208451260e-01
    2.1235432720078103e-09 1. 0. 1. 0. 9.9998516193568787e-01
    -2.3324502433152017e-09 9.9999023458407266e-01
    -1.7590032465132586e-08 9.9999577989902844e-01
    -4.0261192840069839e-09 1.0000177645860604e+00
    -3.0530837725314663e-09 1.0000015120031165e+00
    -4.6092644571391387e-09 9.9999490255145962e-01
    -6.5220103874177239e-09 9.9999450743651319e-01
    7.7253851057850053e-10 1.0000123990650971e+00 5.6901450653068473e-09
    1.0000137351807910e+00 1.8422426392171887e-09 9.9999164052976386e-01
    -3.2461380889585909e-09 9.9999243707724106e-01
    1.2999419177793580e-09 9.9999557735330535e-01
    -3.4615704913932108e-09 1.0000099189430374e+00
    4.1970287057095968e-10 9.9999542580362666e-01 4.9917918834410915e-09
    1.0000133438338952e+00 -3.3353492794505955e-09
    1.0000182081388660e+00 1.5525420717339617e-09 9.9998832354743472e-01
    -1.1068031370741402e-09 1. 0. 1.0000105833656907e+00
    -1.3965343733189073e-09 1.0000118323370120e+00
    8.3123612527559379e-09 9.9999683979557341e-01
    -6.4774533887991933e-09 1. 0. 1.0000010096712568e+00
    -1.0176775397605620e-09 1.0000034761986190e+00
    6.2360759261356017e-09 9.9999161543850101e-01
    -7.4282334267922318e-11 9.9999564504345884e-01
    -6.1208890085489100e-09 9.9999835496930689e-01
    -2.6370406389571012e-09 9.9999295522528064e-01
    2.6741676164848631e-10 1.0000087902214279e+00 6.8340921256658791e-10
    1.0000027680763919e+00 5.8089433246136246e-09 1.0000060008134903e+00
    8.0226075084604737e-10 1.0000121157009780e+00 7.0012535305478080e-09
    9.9999690021303222e-01 9.3596235814118631e-10 1. 0.
    1.0000109432184499e+00 -3.0827764546916990e-09
    9.9999703747501467e-01 -2.6741785331818098e-10
    9.9999618499064669e-01 -5.1552175553191216e-09
    1.0000075125696239e+00 7.9297652426715133e-09 9.9999793238685242e-01
    6.2880393170813507e-09 1.0000060008134903e+00 8.0226075084604737e-10
    9.9999909544591925e-01 -3.8664244195548575e-09
    9.9999246264005370e-01 -9.5452880402718200e-10
    9.9998927064712217e-01 -3.8032465966021085e-09
    9.9999745726565625e-01 3.7141384108059138e-10 1.0000121157009780e+00
    7.0012535305478080e-09 1.0000057453197735e+00
    -8.9882894491516895e-09 9.9999601517921977e-01
    -7.4654074399141744e-10 9.9999690021303222e-01
    9.3596235814118631e-10 1.0000064222959069e+00
    -8.7951586051449704e-09 1.0000080390511523e+00
    6.3883856665695224e-09 1.0000133438338952e+00
    -3.3353492794505955e-09 9.9999743644872585e-01
    -5.0140867502098209e-11 9.9999745726565625e-01
    3.7141384108059138e-10 9.9998922886137376e-01
    -3.4244074370507263e-09 9.9999490255145962e-01
    -6.5220103874177239e-09 9.9999467533542474e-01
    -3.8181236644982713e-09 1. 0. 1.0000087379127351e+00
    4.5164432554972293e-09 1. 0. 9.9999414883433380e-01
    -1.1216660890864500e-09 9.9999326425188451e-01
    5.6826079411191954e-10 1.0000016360789992e+00
    -2.5181963655817657e-09 9.9999470000608237e-01
    -5.9574615845776359e-09 1. 0. 9.9999188654250104e-01
    -2.3770353410025320e-09 1.0000018163485951e+00
    1.4522344490240239e-09 9.9999380703627783e-01
    -1.0770962074611463e-10 1.0000035386131261e+00
    3.1273235601725011e-09 9.9999762450093543e-01 3.7735652564535465e-09
    1. 0. 1.0000104464080317e+00 -1.5005314083780867e-09
    1.0000105833656907e+00 -1.3965343733189073e-09
    9.9999743644872585e-01 -5.0140867502098209e-11
    1.0000056917754570e+00 -8.4683053085836433e-10
    9.9999557735330535e-01 -3.4615704913932108e-09 1. 0.
    9.9999762450094121e-01 3.7735652564535688e-09 9.9999161543850101e-01
    -7.4282334267922318e-11 1.0000058055817214e+00
    -6.2695179770541689e-09 9.9999452503670194e-01
    2.4513241632488616e-09 1. 0. 1.0000177645860604e+00
    -3.0530837725314663e-09 1.0000177645860604e+00
    -3.0530837725314663e-09 1.0000087874225672e+00
    5.7346946807039410e-09 9.9999683979556475e-01
    -6.4774533887991379e-09 1.0000027680763919e+00
    5.8089433246136246e-09 1.0000139572955131e+00 2.1839494202815702e-09
    9.9999762721694996e-01 -1.6899332641237169e-09
    9.9999450743651319e-01 7.7253851057850053e-10 9.9999358156317841e-01
    -1.5599320866670252e-09 1.0000056917754570e+00
    -8.4683053085836433e-10 1. 0. 9.9999723949435981e-01
    2.4810439181167083e-09 1. 0. 1. 0. 9.9999762450094365e-01
    3.7735652564535779e-09 9.9998438212188800e-01
    -4.7763195442563128e-09 1. 0. 9.9999781779949348e-01
    3.8627053398771674e-10 9.9999715922319843e-01
    -2.0502037917153513e-09 9.9999762450094609e-01
    3.7735652564535870e-09 1.0000004068218091e+00 2.5330498675394161e-09
    9.9999246264005370e-01 -9.5452880402718200e-10 1. 0.
    9.9999131044561340e-01 -3.7995402389614079e-09
    9.9999490255143986e-01 -6.5220103874175948e-09
    1.0000153735727018e+00 3.0382196528785829e-09 9.9999503740677809e-01
    -4.4272422723259646e-09 9.9999706234047847e-01
    -2.6593220519007147e-09 9.9999572687484994e-01
    6.8934289620787042e-09 1.0000085750385712e+00 4.8655754120544218e-09
    1.0000112288846301e+00 -4.9027302200381783e-09
    9.9999103902455611e-01 -6.3882770647163389e-10
    9.9999690021303222e-01 9.3596235814118631e-10 1.0000038305352617e+00
    2.7447657786508734e-09 9.9999228533144979e-01 9.6567099238416945e-11
    9.9999577989902932e-01 -4.0261192840069872e-09
    9.9999690021303222e-01 9.3596235814118631e-10 1.0000047683617721e+00
    -1.2628162922012757e-09 9.9999719409810661e-01
    1.4113722246778350e-09 9.9999557735330535e-01
    -3.4615704913932108e-09 9.9999022208451260e-01
    2.1235432720078103e-09 1. 0. 9.9999577989902844e-01
    -4.0261192840069839e-09 9.9999500076464098e-01
    -4.1895378357336728e-09 9.9999887369703822e-01
    -2.4513348232833848e-10 9.9999793238685242e-01
    6.2880393170813507e-09 9.9999683979557341e-01
    -6.4774533887991933e-09 1. 0. 9.9999564504345861e-01
    -6.1208890085489084e-09 1.0000007336151031e+00
    2.6054766316260068e-09 1.0000049643159730e+00 6.5777885050814175e-09
    9.9999743644872607e-01 -5.0140867502098222e-11
    1.0000055342063949e+00 2.6593445813867511e-09 1.0000099189430374e+00
    4.1970287057095968e-10 9.9999723949436070e-01 2.4810439181167104e-09
    9.9999295522528064e-01 2.6741676164848631e-10 9.9999295522528064e-01
    2.6741676164848631e-10 1.0000116199516726e+00 7.4432387902840648e-09
    9.9999703747501467e-01 -2.6741785331818098e-10
    9.9999762450093543e-01 3.7735652564535465e-09 1.0000137351807910e+00
    1.8422426392171887e-09 1.0000099189430374e+00 4.1970287057095968e-10
    1.0000004068218091e+00 2.5330498675394161e-09 1.0000122685323911e+00
    -5.6492881949235784e-09 1.0000153304482384e+00
    -2.2693791294081319e-09 1.0000075125696239e+00
    7.9297652426715133e-09 1.0000075125696239e+00 7.9297652426715133e-09
    9.9999762450094121e-01 3.7735652564535688e-09 1. 0.
    1.0000065447144875e+00 1.0681959140599612e-08 9.9999564504345884e-01
    -6.1208890085489100e-09 9.9999164052976386e-01
    -3.2461380889585909e-09 9.9999762450093543e-01
    3.7735652564535465e-09 9.9999219383405979e-01 4.8580674710287050e-09
    9.9999683979556475e-01 -6.4774533887991379e-09
    1.0000030121454575e+00 1.8607936802678566e-09 1.0000120679554145e+00
    -5.3781509963943739e-09 9.9999367906951375e-01
    -1.2479457910170100e-09 1. 0. 1.0000027911178959e+00
    -4.2787102711930763e-09 9.9999467533542474e-01
    -3.8181236644982713e-09 9.9998898750677112e-01
    -3.7958173058322398e-09 9.9999810385920185e-01
    -2.1542016711629675e-10 9.9999500076464098e-01
    -4.1895378357336728e-09 9.9999126866785892e-01
    1.2835982910316078e-08 1.0000196224283657e+00 5.6010448691301467e-09
    1. 0. 9.9999857882723986e-01 1.1365276283941477e-09
    9.9999470000608215e-01 -5.9574615845776351e-09
    1.0000063934278891e+00 -4.5610027260693856e-09
    9.9999708416750033e-01 1.1402400666947088e-09 1.0000153735727018e+00
    3.0382196528785829e-09 1.0000065447144875e+00 1.0681959140599612e-08
    1.0000112532534602e+00 5.9278466832264970e-09 1.0000055342063949e+00
    2.6593445813867511e-09 9.9999890689821558e-01 6.9454488965669237e-10
    1.0000058804577940e+00 -5.8535314405601919e-09
    1.0000196224283657e+00 5.6010448691301467e-09 1.0000080792928050e+00
    5.3075601656343404e-09 1.0000052274319602e+00
    -4.4421440553414987e-09 9.9999500076464098e-01
    -4.1895378357336728e-09 1. 0. 1.0000087874225525e+00
    5.7346946807038574e-09 9.9999005170403732e-01 2.0436895257266755e-09
    1.0000055342063949e+00 2.6593445813867511e-09 9.9999022208451260e-01
    2.1235432720078103e-09 9.9999412720225522e-01
    -9.6567277103909991e-10 9.9999510509683320e-01
    -7.0865594189519629e-09 9.9999557735331024e-01
    -3.4615704913932277e-09 9.9999161543850101e-01
    -7.4282334267922318e-11 1.0000057573556398e+00
    -7.4803368464745865e-09 1.0000065560272020e+00
    -3.8961666429942194e-09 9.9999671371012677e-01
    -1.3519453762835889e-09 9.9999564504345906e-01
    -6.1208890085489108e-09 9.9999652488160529e-01
    -1.3965147403704278e-09 1. 0. 9.9999762450093543e-01
    3.7735652564535465e-09 9.9999414883433380e-01
    -1.1216660890864500e-09 1.0000066499130935e+00
    -3.9147378715551875e-09 9.9999152425059989e-01
    -1.8867711183530707e-09 1. 0. 1. 0. 1.0000059764201923e+00
    -2.0502218688174132e-09 1. 0. 1.0000117705950413e+00
    1.6751003992550230e-09 9.9998910818405851e-01
    -3.6101123938520996e-09 1.0000130126253222e+00
    -2.2805164580269524e-09 9.9999762721694996e-01
    -1.6899332641237169e-09 9.9999483486141305e-01
    -3.8626938176411721e-09 9.9999490255143986e-01
    -6.5220103874175948e-09 9.9999548083477818e-01
    -8.6464971310750214e-09 9.9999220806053235e-01
    5.9425902631711405e-11 1.0000100318592726e+00
    -3.4913340078234712e-10 9.9999490255144230e-01
    -6.5220103874176106e-09 9.9999601517921977e-01
    -7.4654074399141744e-10 1.0000056458583613e+00
    -8.3903073744324227e-09 1.0000025448398269e+00
    5.2741033756682208e-10 1.0000085750385712e+00 4.8655754120544218e-09
    1.0000098667965174e+00 3.4541915865236579e-10 1.0000037033112552e+00
    -3.3427454485884991e-10 1.0000064789229239e+00
    -4.3455811447326356e-09 9.9999161543850101e-01
    -7.4282334267922318e-11 9.9999762450094054e-01
    3.7735652564535663e-09 9.9999601517921977e-01
    -7.4654074399141744e-10 9.9999164052976386e-01
    -3.2461380889585909e-09 1.0000099189430374e+00
    4.1970287057095968e-10 1. 0. 1. 0. 9.9999388164800185e-01
    -1.9573439437383348e-09 1.0000033347941897e+00
    3.1867494866200490e-09 9.9999022198778698e-01
    -2.3658890496513046e-09 9.9999537480772338e-01
    -2.8970219274744146e-09 9.9999762450093543e-01
    3.7735652564535465e-09 1.0000018687303496e+00 8.3642765997768682e-09
    1. 0. 9.9999483486141305e-01 -3.8626938176411721e-09
    1.0000140953229861e+00 -2.0409530137524652e-09
    9.9999577989903177e-01 -4.0261192840069971e-09
    1.0000112532534602e+00 5.9278466832264970e-09 9.9997622736858305e-01
    3.9554734312181399e-10 1.0000177645860604e+00
    -3.0530837725314663e-09 1.0000007336151211e+00
    2.6054766316260535e-09 1.0000015552508676e+00 1.8630194614745740e-08
    1.0000177645860604e+00 -3.0530837725314663e-09
    9.9999857882723986e-01 1.1365276283941477e-09 1.0000177645860604e+00
    -3.0530837725314663e-09 1.0000151979010605e+00 0.
    1.0000055342063949e+00 2.6593445813867511e-09 9.9999524079968638e-01
    -6.4180169484887571e-09 9.9999601517921977e-01
    -7.4654074399141744e-10 9.9999557735330535e-01
    -3.4615704913932108e-09 1. 0. 1.0000118548083459e+00
    -5.6455716658204791e-10 1.0000177645860604e+00
    -3.0530837725314663e-09 9.9999233957244282e-01
    -6.5368501491684919e-10 1.0000094245751585e+00
    8.3420547016797180e-09 9.9999577989902844e-01
    -4.0261192840069839e-09 9.9999483486141305e-01
    -3.8626938176411721e-09 9.9999537480772072e-01
    -2.8970219274744068e-09 9.9999537480773337e-01
    -2.8970219274744436e-09 1. 0. 1.0000021309322997e+00
    3.2016022733045627e-09 9.9999675978359581e-01
    -5.7346257064728169e-09 9.9999762450093344e-01
    3.7735652564535390e-09 9.9999103902455611e-01
    -6.3882770647163389e-10 9.9999214247510981e-01
    -9.6567085443088161e-11 9.9999510509683320e-01
    -7.0865594189519629e-09 1. 0. 1.0000018695895136e+00
    -4.0410004211260652e-09 9.9999189331597205e-01
    -8.9881649440473922e-10 1.0000036481070058e+00
    4.4867069766432873e-09 1.0000094245751585e+00 8.3420547016797180e-09
    9.9999067011740905e-01 -2.0836175065092678e-09 1. 0.
    9.9999165436832438e-01 1.4057932307481690e-09 1. 0.
    1.0000100696972885e+00 3.5210476219692318e-09 9.9999478051889223e-01
    -2.3027596507630504e-09 9.9999104177399645e-01
    -5.4894613532621218e-09 1. 0. 1. 0. 1.0000033347941897e+00
    3.1867494866200490e-09 1. 0. 9.9999723949436359e-01
    2.4810439181167178e-09 9.9999572024981054e-01
    -3.4764275138788133e-09 9.9999523995227169e-01
    -4.9917909557055623e-09 9.9999537480772627e-01
    -2.8970219274744229e-09 9.9998538589870500e-01
    -1.5896320505126974e-09 9.9999214247511048e-01
    -9.6567085443088226e-11 1.0000040429172645e+00
    3.6138804733756858e-09 9.9999723949436004e-01 2.4810439181167087e-09
    1.0000110478868762e+00 -3.5563358606263055e-09
    9.9999490255145962e-01 -6.5220103874177239e-09
    9.9999537480773337e-01 -2.8970219274744436e-09
    9.9999762450093277e-01 3.7735652564535365e-09 9.9999470000608215e-01
    -5.9574615845776351e-09 1.0000122200853472e+00
    -6.6855478357818018e-11 9.9999810385920185e-01
    -2.1542016711629675e-10 9.9999557735330824e-01
    -3.4615704913932207e-09 1. 0. 1. 0. 9.9999733812738423e-01
    1.5822227744995301e-09 9.9999444736845178e-01
    -1.8236364707169101e-09 9.9999214247511048e-01
    -9.6567085443088226e-11 9.9999601517921977e-01
    -7.4654074399141744e-10 9.9999810385920185e-01
    -2.1542016711629675e-10 9.9999161543850101e-01
    -7.4282334267922318e-11 1. 0. 1.0000083770118076e+00
    -2.3027909603817478e-09 1.0000023777120524e+00
    -1.2331000197756851e-09 9.9998898750677112e-01
    -3.7958173058322398e-09 1. 0. 9.9999604029695977e-01
    -6.4477351448840252e-09 9.9999212467164478e-01
    5.0066318792209350e-09 9.9999161543850101e-01
    -7.4282334267922318e-11 9.9999548083477818e-01
    -8.6464971310750214e-09 9.9999412720225522e-01
    -9.6567277103909991e-10 1. 0. 9.9999478051889223e-01
    -2.3027596507630504e-09 1.0000052728751387e+00
    2.5553471981249538e-09 9.9999478051889223e-01
    -2.3027596507630504e-09 9.9999724586632577e-01
    -2.1263437906774936e-09 1.0000119507801688e+00
    -2.2823711326240457e-09 9.9999601517921977e-01
    -7.4654074399141744e-10 9.9999731661522306e-01
    1.2590927441707897e-09 1.0000118548083459e+00
    -5.6455716658204791e-10 9.9999344045551564e-01
    1.9573430801676102e-09 9.9999295522528064e-01 2.6741676164848631e-10
    1. 0. 9.9999214247511048e-01 -9.6567085443088226e-11
    9.9998600367188484e-01 -1.7530532508595634e-09
    9.9999523995227169e-01 -4.9917909557055623e-09
    9.9999483486141305e-01 -3.8626938176411721e-09
    1.0000055223951603e+00 -1.1231645138449426e-08
    1.0000055342063949e+00 2.6593445813867511e-09 9.9999577989902844e-01
    -4.0261192840069839e-09 9.9999699107338924e-01
    -5.1255086174324887e-10 1.0000033347941897e+00
    3.1867494866200490e-09 9.9999511101559102e-01
    -2.0353430736744744e-09 9.9998922886137376e-01
    -3.4244074370507263e-09 9.9999165436832438e-01
    1.4057932307481690e-09 1.0000177645860604e+00
    -3.0530837725314663e-09 9.9999190250982151e-01
    -6.6854120033186021e-09 1.0000055342063949e+00
    2.6593445813867511e-09 9.9999099028140925e-01
    -2.9415785980444342e-09 1. 0. 9.9999523995227169e-01
    -4.9917909557055623e-09 1.0000023777120524e+00
    -1.2331000197756851e-09 1.0000023777120524e+00
    -1.2331000197756851e-09 9.9999548083477818e-01
    -8.6464971310750214e-09 1.0000085750385712e+00
    4.8655754120544218e-09 9.9999164052976386e-01
    -3.2461380889585909e-09 1.0000098696732527e+00
    2.4662185161824467e-09 1.0000065447144875e+00 1.0681959140599612e-08
    9.9999380703627783e-01 -1.0770962074611463e-10
    9.9999463231607566e-01 -3.2981455916506342e-09 1. 0.
    1.0000021309322997e+00 3.2016022733045627e-09 9.9999007160674391e-01
    -8.1599018216906262e-09 9.9999564504345884e-01
    -6.1208890085489100e-09 9.9999601517921977e-01
    -7.4654074399141744e-10 1.0000028171748196e+00
    3.4913088192029731e-09 1.0000056551709673e+00 7.9111796697516625e-10
    9.9999164052976386e-01 -3.2461380889585909e-09
    1.0000063479127139e+00 -5.4152619478321060e-09 1. 0.
    9.9999717798324883e-01 -4.5869596562845522e-09
    9.9999429598634548e-01 -4.3083869364426865e-09
    9.9999770162186719e-01 2.5516137117277539e-09 1.0000065447144875e+00
    1.0681959140599612e-08 9.9999733812738423e-01 1.5822227744995301e-09
    9.9998945261474959e-01 -8.8395786592304280e-09
    9.9999295522528064e-01 2.6741676164848631e-10 1.0000119507801688e+00
    -2.2823711326240457e-09 9.9999548083477818e-01
    -8.6464971310750214e-09 1.0000056551709673e+00
    7.9111796697516625e-10 9.9999435790893676e-01 7.5768188746470771e-10
    9.9999094628666230e-01 -7.6213623959939963e-09
    9.9999099028140925e-01 -2.9415785980444342e-09
    9.9998277149201398e-01 5.1922892442083972e-09 9.9999507803499632e-01
    6.7597158246644610e-10 1. 0. 1. 0. 9.9999753192570651e-01
    -2.7280348664126667e-09 9.9999344045551564e-01
    1.9573430801676102e-09 9.9999503740677809e-01
    -4.4272422723259646e-09 1.0000040090840505e+00
    -8.6762841728529554e-09 1. 0. 1.0000099913004998e+00
    5.7198448446593930e-09 9.9999723949436004e-01 2.4810439181167087e-09
    1. 0. 1. 0. 9.9999358156317841e-01 -1.5599320866670252e-09
    9.9999734115751693e-01 -1.0882424280119932e-09 1. 0.
    1.0000128073933761e+00 -1.7085298947869340e-10
    9.9999444736845178e-01 -1.8236364707169101e-09
    9.9999890621523724e-01 8.0819768923035097e-09 9.9999675978359581e-01
    -5.7346257064728169e-09 9.9999723949436004e-01
    2.4810439181167087e-09 1.0000083770118076e+00
    -2.3027909603817478e-09 9.9998898750677112e-01
    -3.7958173058322398e-09 9.9999542580362666e-01
    4.9917918834410915e-09 1. 0. 9.9999358156317841e-01
    -1.5599320866670252e-09 9.9998600367188484e-01
    -1.7530532508595634e-09 1.0000155625892644e+00
    -8.9883776891045069e-10 1.0000100696972885e+00
    3.5210476219692318e-09 1. 0. 9.9999165436832438e-01
    1.4057932307481690e-09 9.9999537480773337e-01
    -2.8970219274744436e-09 9.9999810385920185e-01
    -2.1542016711629675e-10 9.9998898750677112e-01
    -3.7958173058322398e-09 9.9999745726565625e-01
    3.7141384108059138e-10 1.0000005097694091e+00
    -6.3883375670006278e-10 1.0000056697917146e+00
    1.8481704512789575e-08 9.9999537480773337e-01
    -2.8970219274744436e-09 9.9999717798324883e-01
    -4.5869596562845522e-09 1.0000007336151031e+00
    2.6054766316260068e-09 1. 0. 1.0000100696972885e+00
    3.5210476219692318e-09 9.9999171166619782e-01
    -5.3186156453856146e-09 9.9999572024981254e-01
    -3.4764275138788203e-09 1.0000099913004998e+00
    5.7198448446593930e-09 9.9999699107338924e-01
    -5.1255086174324887e-10 9.9999435790893676e-01
    7.5768188746470771e-10 9.9999577989902844e-01
    -4.0261192840069839e-09 1.0000023777120524e+00
    -1.2331000197756851e-09 1.0000007336151031e+00
    2.6054766316260068e-09 9.9999557735330824e-01
    -3.4615704913932207e-09 9.9999212467164478e-01
    5.0066318792209350e-09 1.0000153304482384e+00
    -2.2693791294081319e-09 1.0000121157009780e+00
    7.0012535305478080e-09 9.9999510509683320e-01
    -7.0865594189519629e-09 1.0000068754194718e+00
    5.3224104696207024e-09 1.0000034930395403e+00
    -1.5339484221963282e-09 9.9999762450093543e-01
    3.7735652564535465e-09 9.9998448205505019e-01
    -3.4169630014388520e-10 1.0000179937510780e+00
    3.8776401325485549e-09 9.9999753173995332e-01 9.8796089085224750e-10
    9.9998627556770248e-01 1.7679101150353876e-09 9.9999770162185853e-01
    2.5516137117277320e-09 1. 0. 1.0000055342063949e+00
    2.6593445813867511e-09 1. 0. 1. 0. 1.0000100696972885e+00
    3.5210476219692318e-09 1.0000023777120524e+00
    -1.2331000197756851e-09 9.9999444736845178e-01
    -1.8236364707169101e-09 1.0000063176885869e+00
    1.6342353806797634e-09 9.9999564504345906e-01
    -6.1208890085489108e-09 9.9999126667410554e-01
    -1.3370815504920905e-10 1.0000057428176836e+00
    -8.3197389734394950e-10 9.9999380703628560e-01
    -1.0770962074611547e-10 9.9999601517921977e-01
    -7.4654074399141744e-10 1.0000007584267363e+00
    5.0512449136565115e-10 9.9998913353226382e-01
    -9.3224098130257672e-10 9.9999548083477818e-01
    -8.6464971310750214e-09 9.9999212467164478e-01
    5.0066318792209350e-09 1.0000013995331440e+00 4.6055497856831063e-09
    9.9998448205505019e-01 -3.4169630014388520e-10
    1.0000045264146598e+00 -9.6568281333433542e-09
    1.0000117720656265e+00 -5.9798484407241216e-09
    9.9999458913078398e-01 2.4290395538163206e-09 1.0000055342063949e+00
    2.6593445813867511e-09 1.0000045542260116e+00
    -3.3427482929693948e-10 1. 0. 9.9999770162186719e-01
    2.5516137117277539e-09 1.0000077631111155e+00 3.3427590194157468e-11
    9.9999772630251094e-01 2.8227459516369133e-10 9.9998945261474959e-01
    -8.8395786592304280e-09 1.0000117705950413e+00
    1.6751003992550230e-09 9.9999733812738423e-01 1.5822227744995301e-09
    1.0000023777120524e+00 -1.2331000197756851e-09
    1.0000001503397913e+00 1.8867873939469692e-09 9.9999703747501467e-01
    -2.6741785331818098e-10 9.9999723949435915e-01
    2.4810439181167066e-09 1.0000057425266760e+00 3.1570438059668037e-09
    1.0000118548083459e+00 -5.6455716658204791e-10
    9.9999503740677809e-01 -4.4272422723259646e-09 1. 0.
    9.9999537480773337e-01 -2.8970219274744436e-09
    1.0000099913004998e+00 5.7198448446593930e-09 9.9999520730988933e-01
    -5.1254994747097886e-10 1.0000118548083459e+00
    -5.6455716658204791e-10 1.0000091507532274e+00
    5.7569818553289236e-10 1.0000083770118076e+00
    -2.3027909603817478e-09 9.9999683979557341e-01
    -6.4774533887991933e-09 9.9999810385920185e-01
    -2.1542016711629675e-10 1.0000049643159836e+00
    6.5777885050814878e-09 1.0000118548083459e+00
    -5.6455716658204791e-10 9.9999557735330824e-01
    -3.4615704913932207e-09 1.0000052728751387e+00
    2.5553471981249538e-09 9.9999164052976386e-01
    -3.2461380889585909e-09 1.0000119507801688e+00
    -2.2823711326240457e-09 1.0000088861439627e+00
    1.1142542578049277e-09 9.9999523995227169e-01
    -4.9917909557055623e-09 9.9999444736845178e-01
    -1.8236364707169101e-09 9.9999123654807254e-01
    -6.3139960204397755e-10 1.0000056551709673e+00
    7.9111796697516625e-10 9.9999490255143986e-01
    -6.5220103874175948e-09 9.9999723949436004e-01
    2.4810439181167087e-09 9.9998832354743472e-01
    -1.1068031370741402e-09 1.0000133438338952e+00
    -3.3353492794505955e-09 1.0000022448663328e+00
    1.0919619206428328e-09 1. 0. 9.9999675978359581e-01
    -5.7346257064728169e-09 9.9999740778658952e-01
    3.6621402918548774e-09 1.0000196224283657e+00 5.6010448691301467e-09
    9.9998277149201398e-01 5.1922892442083972e-09 9.9999890621523724e-01
    8.0819768923035097e-09 9.9999483486141305e-01
    -3.8626938176411721e-09 9.9999295522528064e-01
    2.6741676164848631e-10 9.9999557121394866e-01 8.6762109637876397e-09
    9.9999562677639831e-01 3.8032707707885192e-09 9.9999478051889223e-01
    -2.3027596507630504e-09 1.0000177645860604e+00
    -3.0530837725314663e-09 9.9999470000608237e-01
    -5.9574615845776359e-09 1. 0. 1.0000153304482384e+00
    -2.2693791294081319e-09 9.9999564504345884e-01
    -6.1208890085489100e-09 1.0000155625892644e+00
    -8.9883776891045069e-10 9.9999463231607566e-01
    -3.2981455916506342e-09 9.9999601517921977e-01
    -7.4654074399141744e-10 9.9999463231607566e-01
    -3.2981455916506342e-09 1.0000021309322997e+00
    3.2016022733045627e-09 9.9998898750677112e-01
    -3.7958173058322398e-09 9.9999683979557341e-01
    -6.4774533887991933e-09 9.9999164052976386e-01
    -3.2461380889585909e-09 9.9999802518784342e-01
    1.1365269991667833e-09 9.9999190250982151e-01
    -6.6854120033186021e-09 1. 0. 9.9999490255145962e-01
    -6.5220103874177239e-09 9.9999723949436004e-01
    2.4810439181167087e-09 9.9999762450094232e-01 3.7735652564535729e-09
    1.0000100696972885e+00 3.5210476219692318e-09 9.9999731661522306e-01
    1.2590927441707897e-09 9.9999762450094054e-01 3.7735652564535663e-09
    9.9999557121394866e-01 8.6762109637876397e-09 9.9999703747501467e-01
    -2.6741785331818098e-10 1.0000057428176836e+00
    -8.3197389734394950e-10 9.9999762450093277e-01
    3.7735652564535365e-09 9.9999523995227169e-01
    -4.9917909557055623e-09 1.0000023777120524e+00
    -1.2331000197756851e-09 9.9999601517921977e-01
    -7.4654074399141744e-10 1. 0. 1. 0. 9.9999564023803089e-01
    -2.7336009033031390e-09 1. 0. 1.0000057425266760e+00
    3.1570438059668037e-09 1. 0. 9.9999793708517204e-01
    4.4198268295825813e-10 1. 0. 9.9999490255143986e-01
    -6.5220103874175948e-09 1.0000040429172645e+00
    3.6138804733756858e-09 9.9999444736845178e-01
    -1.8236364707169101e-09 1.0000083770118076e+00
    -2.3027909603817478e-09 9.9999449746084645e-01
    -5.3929130104324882e-09 1. 0. 9.9999444736845178e-01
    -1.8236364707169101e-09 9.9999705537651162e-01
    8.8396458651498984e-10 1. 0. 9.9998277149201398e-01
    5.1922892442083972e-09 1.0000085750385712e+00 4.8655754120544218e-09
    9.9999762450093543e-01 3.7735652564535465e-09 1.0000119507801688e+00
    -2.2823711326240457e-09 9.9999435790893676e-01
    7.5768188746470771e-10 1. 0. 1. 0. 1.0000034761986190e+00
    6.2360759261356017e-09 9.9999123654807254e-01
    -6.3139960204397755e-10 9.9999562677639831e-01
    3.8032707707885192e-09 1.0000045264146598e+00
    -9.6568281333433542e-09 1.0000075125696239e+00
    7.9297652426715133e-09 9.9999699107338924e-01
    -5.1255086174324887e-10 9.9999723949436004e-01
    2.4810439181167087e-09 9.9999745726565625e-01 3.7141384108059138e-10
    9.9998448205505019e-01 -3.4169630014388520e-10
    1.0000141811174064e+00 -1.8199582575753683e-09
    9.9999604029695977e-01 -6.4477351448840252e-09
    9.9999380703628560e-01 -1.0770962074611547e-10
    9.9999601517921977e-01 -7.4654074399141744e-10
    9.9999770162185853e-01 2.5516137117277320e-09 1. 0.
    9.9999414883433380e-01 -1.1216660890864500e-09
    9.9999723949436004e-01 2.4810439181167087e-09 9.9999503740677809e-01
    -4.4272422723259646e-09 9.9999503740677809e-01
    -4.4272422723259646e-09 9.9999577989902844e-01
    -4.0261192840069839e-09 9.9999537480772627e-01
    -2.8970219274744229e-09 9.9999380703629048e-01
    -1.0770962074611600e-10 1.0000075125696239e+00
    7.9297652426715133e-09 9.9999483486141305e-01
    -3.8626938176411721e-09 9.9998945261474959e-01
    -8.8395786592304280e-09 1.0000098696732527e+00
    2.4662185161824467e-09 1. 0. 9.9999503740677809e-01
    -4.4272422723259646e-09 1. 0. 1. 0. 1.0000021309322997e+00
    3.2016022733045627e-09 1.0000118548083459e+00
    -5.6455716658204791e-10 9.9999695228361585e-01
    -3.0734479829011296e-10 9.9999164052976386e-01
    -3.2461380889585909e-09 9.9999490255143986e-01
    -6.5220103874175948e-09 1.0000034761986190e+00
    6.2360759261356017e-09 1. 0. 9.9999426246347933e-01
    -2.5033212912209882e-09 1.0000137351807910e+00
    1.8422426392171887e-09 9.9999557735330824e-01
    -3.4615704913932207e-09 9.9999577989902844e-01
    -4.0261192840069839e-09 9.9999414883433380e-01
    -1.1216660890864500e-09 9.9999192593382469e-01
    1.0603806509204831e-09 1.0000118548083459e+00
    -5.6455716658204791e-10 9.9999557735330735e-01
    -3.4615704913932178e-09 1.0000123280864552e+00
    7.8703763300109079e-09 1.0000007336151031e+00 2.6054766316260068e-09
    1.0000103920978727e+00 1.2776801397237238e-09 1.0000021309322997e+00
    3.2016022733045627e-09 9.9999099028140925e-01
    -2.9415785980444342e-09 1.0000088861439627e+00
    1.1142542578049277e-09 9.9998700202912649e-01
    -3.6101047903132601e-09 9.9999745726565625e-01
    3.7141384108059138e-10 1.0000013995331440e+00 4.6055497856831063e-09
    1.0000117720656265e+00 -5.9798484407241216e-09
    9.9999490255143986e-01 -6.5220103874175948e-09
    1.0000177645860604e+00 -3.0530837725314663e-09
    9.9999723949436004e-01 2.4810439181167087e-09 1. 0.
    9.9998772016223869e-01 -2.0353280306787500e-09
    1.0000100696972885e+00 3.5210476219692318e-09 9.9999380703628560e-01
    -1.0770962074611547e-10 1.0000052728751387e+00
    2.5553471981249538e-09 9.9998418892903562e-01
    -3.0752657998403068e-09 1.0000007336151031e+00
    2.6054766316260068e-09 1.0000023777120524e+00
    -1.2331000197756851e-09 9.9999753192570651e-01
    -2.7280348664126667e-09 9.9999171166619782e-01
    -5.3186156453856146e-09 9.9999510509683320e-01
    -7.0865594189519629e-09 9.9999470000608237e-01
    -5.9574615845776359e-09 9.9999770162185853e-01
    2.5516137117277320e-09 1.0000075125696239e+00 7.9297652426715133e-09
    9.9999099028140948e-01 -2.9415785980444347e-09
    1.0000083770118076e+00 -2.3027909603817478e-09
    1.0000016360789992e+00 -2.5181963655817657e-09
    9.9999444736845422e-01 -1.8236364707169147e-09
    1.0000100696972885e+00 3.5210476219692318e-09 9.9999745726565625e-01
    3.7141384108059138e-10 1.0000055624155775e+00
    -7.3169119736262814e-10 9.9999161543850101e-01
    -7.4282334267922318e-11 9.9999246264005370e-01
    -9.5452880402718200e-10 9.9999762450094054e-01
    3.7735652564535663e-09 9.9999537480772627e-01
    -2.8970219274744229e-09 9.9999753192570651e-01
    -2.7280348664126667e-09 9.9999723949436004e-01
    2.4810439181167087e-09 1.0000055624155775e+00
    -7.3169119736262814e-10 9.9999478051889223e-01
    -2.3027596507630504e-09 9.9999770162186719e-01
    2.5516137117277539e-09 1.0000007336151031e+00 2.6054766316260068e-09
    9.9999762450093277e-01 3.7735652564535365e-09 1.0000088861439627e+00
    1.1142542578049277e-09 1. 0. 9.9999054215143035e-01
    -3.2238498470787448e-09 1.0000110478868762e+00
    -3.5563358606263055e-09 9.9999295522528064e-01
    2.6741676164848631e-10 9.9999562677639831e-01 3.8032707707885192e-09
    9.9999705537651162e-01 8.8396458651498984e-10 9.9999810385920185e-01
    -2.1542016711629675e-10 9.9999705537651162e-01
    8.8396458651498984e-10 9.9999577989902844e-01
    -4.0261192840069839e-09 1.0000133438338952e+00
    -3.3353492794505955e-09 9.9999171166619782e-01
    -5.3186156453856146e-09 1.0000016360789992e+00
    -2.5181963655817657e-09 9.9999246264005370e-01
    -9.5452880402718200e-10 9.9998945369528069e-01
    -1.7902003858625668e-09 1.0000057425266760e+00
    3.1570438059668037e-09 1. 0. 1.0000177645860604e+00
    -3.0530837725314663e-09 1.0000137351807910e+00
    1.8422426392171887e-09 9.9999802518784342e-01 1.1365269991667833e-09
    1.0000055624155775e+00 -7.3169119736262814e-10
    1.0000117720656265e+00 -5.9798484407241216e-09
    1.0000117720656265e+00 -5.9798484407241216e-09
    9.9999711001704461e-01 1.6713617044829525e-09 9.9999523995227169e-01
    -4.9917909557055623e-09 9.9999171166619782e-01
    -5.3186156453856146e-09 9.9999762450094609e-01
    3.7735652564535870e-09 9.9999470000608215e-01
    -5.9574615845776351e-09 1.0000106516986744e+00
    -7.7515091390306574e-09 1. 0. 1.0000117720656265e+00
    -5.9798484407241216e-09 9.9999601517921977e-01
    -7.4654074399141744e-10 1.0000060008134903e+00
    8.0226075084604737e-10 1.0000060008134903e+00 8.0226075084604737e-10
    9.9998448205505019e-01 -3.4169630014388520e-10
    1.0000143211573560e+00 -3.5786327076216477e-09
    1.0000119507801688e+00 -2.2823711326240457e-09
    9.9999067011740905e-01 -2.0836175065092678e-09
    1.0000062013519007e+00 4.8135654703750654e-09 9.9999295522528064e-01
    2.6741676164848631e-10 9.9999733812738423e-01 1.5822227744995301e-09
    1.0000117720656265e+00 -5.9798484407241216e-09
    1.0000034622929801e+00 -4.9769753572494577e-10
    1.0000119507801688e+00 -2.2823711326240457e-09
    9.9999500076464098e-01 -4.1895378357336728e-09
    9.9999572024981054e-01 -3.4764275138788133e-09
    1.0000036293434842e+00 4.3678537297430734e-09 1. 0.
    9.9999601517921977e-01 -7.4654074399141744e-10
    9.9999099028140948e-01 -2.9415785980444347e-09
    9.9999161543850101e-01 -7.4282334267922318e-11
    9.9999753192570651e-01 -2.7280348664126667e-09
    9.9999444736845422e-01 -1.8236364707169147e-09
    9.9999478051889223e-01 -2.3027596507630504e-09
    9.9999537480773337e-01 -2.8970219274744436e-09
    9.9999683979557341e-01 -6.4774533887991933e-09
    9.9999295522528064e-01 2.6741676164848631e-10 9.9999601517921977e-01
    -7.4654074399141744e-10 1. 0. 1. 0. 1.0000063176885869e+00
    1.6342353806797634e-09 1.0000060008134903e+00 8.0226075084604737e-10
    9.9999190250982151e-01 -6.6854120033186021e-09
    9.9999548083477818e-01 -8.6464971310750214e-09
    1.0000023777120524e+00 -1.2331000197756851e-09
    9.9999246264005370e-01 -9.5452880402718200e-10
    9.9999753192570651e-01 -2.7280348664126667e-09
    1.0000121157009780e+00 7.0012535305478080e-09 1.0000065447144875e+00
    1.0681959140599612e-08 1.0000141811174064e+00
    -1.8199582575753683e-09 1.0000064222959069e+00
    -8.7951586051449704e-09 1.0000028171748196e+00
    3.4913088192029731e-09 9.9999412720225522e-01
    -9.6567277103909991e-10 9.9999557121394866e-01
    8.6762109637876397e-09 9.9999890621523724e-01 8.0819768923035097e-09
    9.9999164052976386e-01 -3.2461380889585909e-09 1. 0.
    1.0000073625309518e+00 -7.4283504008515268e-10
    1.0000117720656265e+00 -5.9798484407241216e-09
    1.0000120447223733e+00 9.1814840844007138e-09 9.9999171166619782e-01
    -5.3186156453856146e-09 1.0000177645860604e+00
    -3.0530837725314663e-09 1.0000016932292817e+00
    2.4903403534186556e-09 9.9999171166619782e-01
    -5.3186156453856146e-09 9.9999723949436004e-01
    2.4810439181167087e-09 1.0000007336151031e+00 2.6054766316260068e-09
    9.9999610343399759e-01 -6.7745792896343319e-09 1. 0.
    9.9999762450094054e-01 3.7735652564535663e-09 1.0000056551709673e+00
    7.9111796697516625e-10 9.9999380703628560e-01
    -1.0770962074611547e-10 9.9999770162186719e-01
    2.5516137117277539e-09 1.0000056697917146e+00 1.8481704512789575e-08
    9.9999753173995332e-01 9.8796089085224750e-10 1. 0.
    9.9999548083477818e-01 -8.6464971310750214e-09
    9.9999449746084645e-01 -5.3929130104324882e-09
    9.9999470000608215e-01 -5.9574615845776351e-09
    9.9999449746084645e-01 -5.3929130104324882e-09
    9.9999261635448500e-01 -4.0855324740406782e-10
    1.0000034761986190e+00 6.2360759261356017e-09 1.0000066710819373e+00
    1.2063632709651577e-08 9.9999449746085534e-01
    -5.3929130104325362e-09 9.9998277149201398e-01
    5.1922892442083972e-09 1.0000077616231720e+00 7.3689265385031410e-09
    1.0000152321648441e+00 -1.1142613288228811e-11
    1.0000196224283657e+00 5.6010448691301467e-09 1.0000045542260116e+00
    -3.3427482929693948e-10 9.9998959089344486e-01
    -2.8672922977189306e-09 9.9999523995227169e-01
    -4.9917909557055623e-09 1.0000092878275282e+00
    -5.2035694741179396e-09 1. 0. 9.9999809942811124e-01
    -9.0625035419770127e-10 1.0000153304482384e+00
    -2.2693791294081319e-09 9.9999658510211531e-01
    3.5135718722026444e-09 1.0000196224283657e+00 5.6010448691301467e-09
    9.9998982403994074e-01 -9.7235401367579763e-09
    9.9999537480771694e-01 -2.8970219274743960e-09
    1.0000033347941881e+00 3.1867494866200440e-09 9.9999700552004012e-01
    -2.3770475090917772e-09 1. 0. 9.9999658510211531e-01
    3.5135718722026444e-09 1.0000077237373517e+00
    -5.2295605711356327e-09 9.9999731624793198e-01
    -9.4339102330948985e-10 9.9999829462767886e-01
    -1.8552136896856907e-09 1.0000148050878692e+00
    -1.6639628737457928e-09 9.9999456494472294e-01
    -5.0066440968661399e-09 1.0000061087610557e+00
    1.3668147600959493e-09 1.0000182822558885e+00
    -1.4856863031594852e-10 1.0000034854991695e+00
    -6.0912237129126365e-10 9.9999503740677809e-01
    -4.4272422723259646e-09 1.0000055342063949e+00
    2.6593445813867511e-09 9.9999762450094121e-01 3.7735652564535688e-09
    9.9999610798603600e-01 -2.5998933795673346e-10 1. 0.
    1.0000047596675536e+00 -5.6083899548394478e-10
    1.0000041433431743e+00 1.1885322380436432e-10 1.0000059915253490e+00
    5.4449733787798865e-09 9.9999762450094054e-01 3.7735652564535663e-09
    9.9999809942811124e-01 -9.0625035419770127e-10
    9.9999470000608215e-01 -5.9574615845776351e-09
    9.9999508077629962e-01 -4.9323640877818336e-09 1. 0.
    1.0000092430899377e+00 -2.0502285661751374e-09
    9.9998951101827582e-01 -1.0094947982775106e-08
    1.0000060811242697e+00 4.2861526890200337e-09 1.0000128815095972e+00
    -1.8719546321591437e-09 9.9999699107339857e-01
    -5.1255086174325363e-10 1.0000105833656907e+00
    -1.3965343733189073e-09 9.9999320945771064e-01
    1.6676410625847959e-09 1.0000041843219007e+00 6.6632091325808571e-09
    1.0000052913764119e+00 -1.4689532493552967e-09
    9.9999800984087839e-01 -1.4811992167050135e-08
    1.0000155625892644e+00 -8.9883776891045069e-10
    9.9999587703260218e-01 -1.1112684564427422e-08
    1.0000007336151031e+00 2.6054766316260068e-09 9.9999500076464098e-01
    -4.1895378357336728e-09 9.9999572024981809e-01
    -3.4764275138788398e-09 1. 0. 1.0000068754194718e+00
    5.3224104696207024e-09 9.9999460018604991e-01
    -6.8339951505092729e-10 9.9999637852155143e-01
    1.6973594227152006e-09 1.0000048924461424e+00 7.0903429439500683e-09
    9.9999254773372770e-01 -2.0279096161388245e-09
    9.9999470000608215e-01 -5.9574615845776351e-09
    9.9999141474925313e-01 2.6825202578927502e-09 1. 0.
    1.0000037110058033e+00 1.8700803847941584e-09 9.9998887760120481e-01
    -3.2127021611340104e-09 9.9999603811294813e-01
    -2.3399038781136441e-09 1.0000123990650971e+00
    5.6901450653068473e-09 9.9999503740677809e-01
    -4.4272422723259646e-09 9.9999377809806289e-01
    4.7095101777168642e-09 9.9998783989957885e-01 4.9026155514419518e-10
    1. 0. 1.0000157279177373e+00 -4.5313316502651605e-10
    1.0000063006899338e+00 -1.1669926088209626e-08
    1.0000045949247311e+00 3.4987433557016866e-09 9.9999731661522306e-01
    1.2590927441707897e-09 1.0000132515162756e+00
    -2.9713576583903771e-09 9.9999603811294813e-01
    -2.3399038781136441e-09 9.9999574594919038e-01
    -8.1710905203917722e-10 9.9999717798324883e-01
    -4.5869596562845522e-09 1.0000054040719351e+00
    1.4745246667885047e-09 1.0000054040719351e+00 1.4745246667885047e-09
    9.9999711001704594e-01 1.6713617044829548e-09 9.9999703747501489e-01
    -2.6741785331818103e-10 1. 0. 1. 0. 9.9998903210292978e-01
    -6.0019971035054472e-09 9.9999572024981809e-01
    -3.4764275138788398e-09 1. 0. 9.9999700552004012e-01
    -2.3770475090917772e-09 1.0000039127519773e+00
    3.9741537545571464e-09 1.0000015120031165e+00
    -4.6092644571391387e-09 1.0000061087610557e+00
    1.3668147600959493e-09 9.9999503740677809e-01
    -4.4272422723259646e-09 1.0000145209237550e+00
    -7.1015538181876318e-09 1.0000155625892644e+00
    -8.9883776891045069e-10 9.9999731661522306e-01
    1.2590927441707897e-09 9.9999414595383629e-01 1.2628028781154351e-10
    9.9998815339276104e-01 -3.0158523301352427e-09
    9.9999470000608215e-01 -5.9574615845776351e-09
    1.0000104397019411e+00 2.4216496824299527e-09 9.9999099477557951e-01
    -3.6546885776316618e-09 9.9999327180303044e-01
    -9.1367422488320459e-10 9.9998693225880819e-01
    -3.2424087058137696e-09 1.0000058998336163e+00
    1.0993942512544715e-09 1.0000107355909402e+00 3.0233488109739971e-09
    1.0000123990650971e+00 5.6901450653068473e-09 9.9999671138133561e-01
    6.6854441528662756e-10 9.9999683979556475e-01
    -6.4774533887991379e-09 1.0000073825163109e+00
    -9.0774443712552125e-09 9.9998890811721985e-01
    -8.4978760335144960e-09 9.9999889813971587e-01
    1.9016416063617081e-09 1. 0. 1.0000055342063949e+00
    2.6593445813867511e-09 1.0000084516933385e+00
    -7.2240786329563363e-10 9.9999810385920185e-01
    -2.1542016711629675e-10 9.9999470000608215e-01
    -5.9574615845776351e-09 1.0000021309322997e+00
    3.2016022733045627e-09 9.9999802518784342e-01 1.1365269991667833e-09
    1. 0. 1. 0. 1. 0. 1.0000039064005903e+00 4.5424205709843863e-09
    9.9999809942811124e-01 -9.0625035419770127e-10
    9.9999500076464098e-01 -4.1895378357336728e-09
    1.0000060084505775e+00 7.0123532831709338e-09 1.0000119197232289e+00
    -1.9759502113042160e-09 1. 0. 9.9999557735330979e-01
    -3.4615704913932261e-09 9.9999141474925313e-01
    2.6825202578927502e-09 9.9999537480772072e-01
    -2.8970219274744068e-09 9.9999126667411065e-01
    -1.3370815504920975e-10 9.9999564504345884e-01
    -6.1208890085489100e-09 1.0000047596675536e+00
    -5.6083899548394478e-10 1.0000064732261658e+00
    -3.6324601156731413e-09 1.0000057425979942e+00
    2.8803382020021918e-09 9.9999762450094054e-01 3.7735652564535663e-09
    1.0000068884731259e+00 2.6073497546728442e-09 9.9999141474925313e-01
    2.6825202578927502e-09 1.0000061087610559e+00 1.3668147600959497e-09
    1.0000098312618968e+00 -2.9564907582473756e-09
    9.9999734115751693e-01 -1.0882424280119932e-09
    9.9999734115751693e-01 -1.0882424280119932e-09
    9.9999503740677809e-01 -4.4272422723259646e-09
    1.0000034854991695e+00 -6.0912237129126365e-10
    9.9999791327654453e-01 -2.2916244444751281e-09 1. 0.
    9.9999492453596295e-01 -3.0901553312226322e-09
    9.9999731624793198e-01 -9.4339102330948985e-10
    1.0000034761986190e+00 6.2360759261356017e-09 9.9999717798324883e-01
    -4.5869596562845522e-09 9.9999500076464098e-01
    -4.1895378357336728e-09 9.9999017837822290e-01
    -6.8339649317328508e-09 1.0000078468458469e+00
    -8.9883083381677985e-10 9.9999080876012314e-01
    -1.6342100356002737e-09 1.0000021309322997e+00
    3.2016022733045627e-09 1.0000007336151031e+00 2.6054766316260068e-09
    1. 0. 1. 0. 1.0000092290357989e+00 6.2398259832732391e-09
    1.0000113861970537e+00 1.5618169559374238e-09 9.9999500076464098e-01
    -4.1895378357336728e-09 9.9999557735330891e-01
    -3.4615704913932232e-09 1.0000076324420406e+00
    -7.3243554721492770e-09 9.9998862547508705e-01
    -4.3529317728454620e-09 1. 0. 9.9999829462767198e-01
    -1.8552136896856779e-09 1.0000109432184499e+00
    -3.0827764546916990e-09 9.9999412720225123e-01
    -9.6567277103909598e-10 1.0000092290357989e+00
    6.2398259832732391e-09 1.0000092878275282e+00
    -5.2035694741179396e-09 1. 0. 9.9999887369703822e-01
    -2.4513348232833848e-10 1.0000053526853536e+00
    -4.0410144962915062e-09 1.0000037324606690e+00
    5.7198090454243349e-10 9.9999254773372659e-01
    -2.0279096161388221e-09 1.0000163125021038e+00
    3.1570771756506309e-10 1.0000129556258395e+00
    -3.5730565269948712e-09 1. 0. 1.0000123990650971e+00
    5.6901450653068473e-09 9.9999470000608237e-01
    -5.9574615845776359e-09 9.9999449746084956e-01
    -5.3929130104325047e-09 9.9999731624793198e-01
    -9.4339102330948985e-10 1.0000074668932433e+00
    1.2479629975823620e-09 9.9999188654250104e-01
    -2.3770353410025320e-09 1.0000070971438368e+00
    1.0789676093816156e-09 1.0000076324420406e+00
    -7.3243554721492770e-09 1.0000070575394497e+00
    5.2295570872402607e-09 1.0000191744244720e+00 4.8470558883658905e-10
    1.0000137351807910e+00 1.8422426392171887e-09 1.0000027911179028e+00
    -4.2787102711931060e-09 1.0000087819988501e+00
    1.0117427607197361e-08 9.9999723949436070e-01 2.4810439181167104e-09
    1. 0. 1.0000004259021165e+00 -6.8934613546277743e-09
    9.9999542580362666e-01 4.9917918834410915e-09 1.0000098696732527e+00
    2.4662185161824467e-09 1.0000015120031165e+00
    -4.6092644571391387e-09 1.0000148050878692e+00
    -1.6639628737457928e-09 9.9998832354743472e-01
    -1.1068031370741402e-09 1.0000076324420406e+00
    -7.3243554721492770e-09 9.9998982403994074e-01
    -9.7235401367579763e-09 1. 0. 1.0000041843219007e+00
    6.6632091325808571e-09 9.9999490214491005e-01
    -1.2583468783364379e-08 1.0000121024812527e+00
    -1.1647708637427090e-08 1.0000034761986190e+00
    6.2360759261356017e-09 1.0000039064005903e+00 4.5424205709843863e-09
    9.9999503740677809e-01 -4.4272422723259646e-09
    1.0000042552993433e+00 4.4829955372677371e-09 9.9999295522528064e-01
    2.6741676164848631e-10 1.0000070193990647e+00
    -1.5599530489129444e-09 1.0000027680763919e+00
    5.8089433246136246e-09 9.9999537480772072e-01
    -2.8970219274744068e-09 1.0000121157009780e+00
    7.0012535305478080e-09 1.0000168608331212e+00 1.7122510305997444e-09
    1.0000087819988501e+00 1.0117427607197361e-08 9.9998995292583415e-01
    -2.3101767549956785e-09 1.0000033531587853e+00
    2.2024970632516659e-09 9.9999564504345861e-01
    -6.1208890085489084e-09 9.9999793238685242e-01
    6.2880393170813507e-09 9.9999537480772072e-01
    -2.8970219274744068e-09 9.9998862547508705e-01
    -4.3529317728454620e-09 9.9999764417563697e-01
    -3.7029966877021660e-09 9.9999126667411065e-01
    -1.3370815504920975e-10 9.9999470000608215e-01
    -5.9574615845776351e-09 1.0000121157009780e+00
    7.0012535305478080e-09 9.9999734115751693e-01
    -1.0882424280119932e-09 9.9999470000608237e-01
    -5.9574615845776359e-09 1.0000076324420406e+00
    -7.3243554721492770e-09 9.9999903579636773e-01
    3.9537065793561719e-09 9.9998518728263908e-01
    -4.9323152892289482e-09 1. 0. 9.9999266802205611e-01
    1.2479445292766153e-09 1.0000148050878692e+00
    -1.6639628737457928e-09 1.0000055342063949e+00
    2.6593445813867511e-09 9.9999503740677809e-01
    -4.4272422723259646e-09 9.9999126667411065e-01
    -1.3370815504920975e-10 1.0000092878275282e+00
    -5.2035694741179396e-09 9.9999658510211531e-01
    3.5135718722026444e-09 1.0000057476278661e+00 1.5153810345942681e-09
    1.0000076324420406e+00 -7.3243554721492770e-09
    9.9999091834680476e-01 -8.2453333559337637e-10 1. 0. 1. 0.
    9.9999470000608259e-01 -5.9574615845776376e-09
    9.9999377809806267e-01 4.7095101777168634e-09 1. 0.
    9.9999587703261217e-01 -1.1112684564427533e-08
    1.0000121024812527e+00 -1.1647708637427090e-08
    9.9999887369703822e-01 -2.4513348232833848e-10
    9.9999470000608237e-01 -5.9574615845776359e-09
    1.0000119197232289e+00 -1.9759502113042160e-09 1. 0.
    1.0000099495981039e+00 8.1712065801864884e-11 9.9999731624793198e-01
    -9.4339102330948985e-10 9.9998958083501888e-01
    -2.3993145151493607e-09 9.9999819915055566e-01
    8.2268226833016096e-10 1.0000062380911219e+00
    -3.5656041831263816e-10 9.9999580026157342e-01
    -4.2192542433246487e-09 9.9999327180303044e-01
    -9.1367422488320459e-10 1. 0. 1.0000027158286537e+00
    9.5825274900668877e-10 1. 0. 9.9999142446367761e-01
    -4.3380874927740664e-09 9.9999762450094121e-01
    3.7735652564535688e-09 9.9999161543850101e-01
    -7.4282334267922318e-11 9.9999411655186510e-01
    3.8626910430169903e-10 1.0000064732261658e+00
    -3.6324601156731413e-09 1.0000121024812527e+00
    -1.1647708637427090e-08 9.9999537480771694e-01
    -2.8970219274743960e-09 9.9999503740677809e-01
    -4.4272422723259646e-09 9.9999542580362621e-01
    4.9917918834410890e-09 1. 0. 1.0000076324420406e+00
    -7.3243554721492770e-09 1.0000128073933898e+00
    -1.7085298947869575e-10 1.0000098696732527e+00
    2.4662185161824467e-09 9.9999523995227124e-01
    -4.9917909557055607e-09 1.0000177645860604e+00
    -3.0530837725314663e-09 1.0000117705950426e+00
    1.6751003992550253e-09 1.0000097475697722e+00 1.0964271341614744e-08
    9.9999564504345884e-01 -6.1208890085489100e-09
    9.9999067011740861e-01 -2.0836175065092665e-09
    1.0000107355909402e+00 3.0233488109739971e-09 1.0000073711640671e+00
    4.8804262554924254e-09 9.9999503740677809e-01
    -4.4272422723259646e-09 9.9999731624793198e-01
    -9.4339102330948985e-10 9.9999793238685042e-01
    6.2880393170813383e-09 1.0000070971438382e+00 1.0789676093816169e-09
    1.0000027680763919e+00 5.8089433246136246e-09 9.9999393500304767e-01
    1.0325268413513010e-09 1.0000059519233702e+00
    -2.1750179292908067e-08 9.9999320945771064e-01
    1.6676410625847959e-09 1. 0. 9.9998600201651511e-01
    -1.6817426073626871e-08 1. 0. 1.0000070971438368e+00
    1.0789676093816156e-09 1. 0. 9.9999169652337672e-01
    1.6119267843178828e-09 1.0000196224283657e+00 5.6010448691301467e-09
    1. 0. 9.9999671138134028e-01 6.6854441528663067e-10
    9.9998862547508705e-01 -4.3529317728454620e-09
    9.9999214247510981e-01 -9.6567085443088161e-11
    9.9999469206455815e-01 -1.2888024647327449e-08
    9.9999264283312650e-01 -3.4095626458897445e-09
    9.9999490255143986e-01 -6.5220103874175948e-09
    1.0000033347941881e+00 3.1867494866200440e-09 9.9999503740677809e-01
    -4.4272422723259646e-09 1.0000061087610559e+00
    1.3668147600959497e-09 1.0000021309322997e+00 3.2016022733045627e-09
    1.0000168608331212e+00 1.7122510305997444e-09 9.9999412720225123e-01
    -9.6567277103909598e-10 1.0000129021248281e+00
    6.1655649869921497e-10 9.9999407641792204e-01 6.7151395437382972e-09
    1.0000063904251548e+00 -3.3687536320221599e-09
    1.0000049634237118e+00 4.9101278350980890e-09 9.9999503740677809e-01
    -4.4272422723259646e-09 9.9999493955523078e-01
    -1.0102431042267415e-09 1. 0. 9.9999188654250104e-01
    -2.3770353410025320e-09 9.9999793238685242e-01
    6.2880393170813507e-09 9.9998954324729949e-01
    -7.6659210110294032e-09 1.0000041843219007e+00
    6.6632091325808571e-09 1.0000063178920084e+00
    -2.0799359394700728e-09 1. 0. 1.0000064789229239e+00
    -4.3455811447326356e-09 9.9999734115751693e-01
    -1.0882424280119932e-09 1.0000007336151031e+00
    2.6054766316260068e-09 1.0000066451231850e+00
    -2.0933076412147793e-08 9.9999295522528064e-01
    2.6741676164848631e-10 9.9999295522528064e-01 2.6741676164848631e-10
    9.9999762450093543e-01 3.7735652564535465e-09 1.0000137351807910e+00
    1.8422426392171887e-09 1.0000004068218091e+00 2.5330498675394161e-09
    1.0000076324420406e+00 -7.3243554721492770e-09
    1.0000153304482384e+00 -2.2693791294081319e-09 1. 0.
    9.9999564504345861e-01 -6.1208890085489084e-09
    9.9999658510211531e-01 3.5135718722026444e-09 1.0000053526853536e+00
    -4.0410144962915062e-09 9.9999671138133561e-01
    6.6854441528662756e-10 1.0000061270172373e+00
    -9.8276954381484706e-09 9.9999562527030250e-01
    -1.0028155337561610e-09 9.9999482366173198e-01
    1.1885211613476951e-09 9.9999444736845555e-01
    -1.8236364707169171e-09 9.9999173129481578e-01
    -1.1959457202725591e-09 9.9999683979556475e-01
    -6.4774533887991379e-09 9.9999557735330979e-01
    -3.4615704913932261e-09 9.9999829462767886e-01
    -1.8552136896856907e-09 1.0000098329546501e+00
    -2.4587900568753536e-09 9.9999564504345817e-01
    -6.1208890085489059e-09 1. 0. 9.9999754738003688e-01
    4.9955166127029435e-09 1.0000057476278661e+00 1.5153810345942681e-09
    9.9998898750677112e-01 -3.7958173058322398e-09
    9.9999810385920185e-01 -2.1542016711629675e-10
    1.0000125859617803e+00 2.2285167606121022e-09 9.9998995292583415e-01
    -2.3101767549956785e-09 9.9999791327654453e-01
    -2.2916244444751281e-09 1.0000015120031165e+00
    -4.6092644571391387e-09 1.0000092878275282e+00
    -5.2035694741179396e-09 9.9999470000608215e-01
    -5.9574615845776351e-09 1.0000076324420406e+00
    -7.3243554721492770e-09 1.0000053526853536e+00
    -4.0410144962915062e-09 9.9999604029695977e-01
    -6.4477351448840252e-09 1.0000084598131376e+00
    -2.5664978796427815e-09 9.9999574594919038e-01
    -8.1710905203917722e-10 9.9999723949436359e-01
    2.4810439181167178e-09 1.0000147364125263e+00 4.3084750022101464e-10
    9.9999460018604991e-01 -6.8339951505092729e-10
    1.0000196224283657e+00 5.6010448691301467e-09 9.9999731624793198e-01
    -9.4339102330948985e-10 9.9999542580362621e-01
    4.9917918834410890e-09 9.9999574594919038e-01
    -8.1710905203917722e-10 9.9999500076464098e-01
    -4.1895378357336728e-09 9.9999557735330891e-01
    -3.4615704913932232e-09 9.9999349971509122e-01
    2.0427680415328847e-09 1.0000073825163109e+00
    -9.0774443712552125e-09 1.0000007603165932e+00
    -4.5164072254517664e-09 9.9998699610096686e-01
    -3.1495564239065075e-09 1.0000052911567512e+00
    2.2433571742495746e-09 1.0000039064005903e+00 4.5424205709843863e-09
    1. 0. 9.9999661785635607e-01 2.8895972580439853e-09
    1.0000191744244720e+00 4.8470558883658905e-10 1.0000015120031247e+00
    -4.6092644571391767e-09 9.9999269269077262e-01
    -4.4198036502196928e-10 9.9999470000608215e-01
    -5.9574615845776351e-09 9.9999524079967372e-01
    -6.4180169484886761e-09 1.0000102808046494e+00
    -9.7311674230334832e-10 1. 0. 9.9999081350997454e-01
    -6.0020077956226402e-09 9.9999699107339857e-01
    -5.1255086174325363e-10 9.9999587703261217e-01
    -1.1112684564427533e-08 9.9999858311489576e-01
    -2.8821746516841265e-09 9.9999470000608237e-01
    -5.9574615845776359e-09 9.9999580026157342e-01
    -4.2192542433246487e-09 1. 0. 9.9999683979556475e-01
    -6.4774533887991379e-09 1.0000068754194718e+00
    5.3224104696207024e-09 9.9999242537227717e-01
    -4.4755142645399464e-09 1.0000019630552592e+00
    5.4598080645828118e-09 9.9998918187206243e-01
    -8.7652941124584942e-10 1.0000048482085757e+00
    -1.4188113592307889e-09 9.9999327180303044e-01
    -9.1367422488320459e-10 1.0000080458064722e+00
    -1.2479637200392561e-09 9.9999483486141305e-01
    -3.8626938176411721e-09 9.9999503740677809e-01
    -4.4272422723259646e-09 9.9999828031000992e-01
    -2.8970303448171806e-10 9.9999661797564021e-01
    2.5627533525555034e-10 9.9999490255143986e-01
    -6.5220103874175948e-09 1.0000168608331212e+00
    1.7122510305997444e-09 1.0000070940768793e+00
    -4.0707349268690195e-09 9.9998488355724291e-01
    4.7317528387868782e-09 9.9999141474925313e-01 2.6825202578927502e-09
    1.0000056458583613e+00 -8.3903073744324227e-09
    1.0000055342063949e+00 2.6593445813867511e-09 9.9999337903983521e-01
    -9.7458594438759277e-09 1.0000068754194706e+00
    5.3224104696206966e-09 9.9999161543850101e-01
    -7.4282334267922318e-11 1.0000116979495690e+00
    -4.2787483808388713e-09 9.9999141474925313e-01
    2.6825202578927502e-09 9.9999411655186510e-01 3.8626910430169903e-10
    1.0000098312618968e+00 -2.9564907582473756e-09
    1.0000132515162756e+00 -2.9713576583903771e-09
    9.9999523995227124e-01 -4.9917909557055607e-09
    9.9999472356343910e-01 -1.9016336678050243e-09 1. 0. 1. 0.
    1.0000033347941897e+00 3.1867494866200490e-09 9.9999574594919038e-01
    -8.1710905203917722e-10 9.9999762450093543e-01
    3.7735652564535465e-09 1.0000058398377152e+00 2.7262004459697714e-09
    9.9999503740677809e-01 -4.4272422723259646e-09
    9.9999483486141305e-01 -3.8626938176411721e-09
    9.9999165337041129e-01 -7.4579466433959257e-09
    1.0000134180401561e+00 -1.1402586912850614e-09
    1.0000033347941881e+00 3.1867494866200440e-09 9.9999604029695977e-01
    -6.4477351448840252e-09 1.0000037110058033e+00
    1.8700803847941584e-09 9.9999557735330979e-01
    -3.4615704913932261e-09 1.0000015120031165e+00
    -4.6092644571391387e-09 1.0000080083148475e+00
    7.4877820395086696e-09 1.0000177645860604e+00
    -3.0530837725314663e-09 9.9998755948240392e-01
    1.7233431651246221e-09 9.9999503740677809e-01
    -4.4272422723259646e-09 1.0000030956570389e+00
    4.6111288362841514e-09 9.9999555627045233e-01 3.8515542101871152e-09
    1.0000076324420406e+00 -7.3243554721492770e-09
    1.0000089616871515e+00 6.0615436203630377e-09 9.9999793238685042e-01
    6.2880393170813383e-09 1.0000132515162756e+00
    -2.9713576583903771e-09 9.9999449746088220e-01
    -5.3929130104326809e-09 1.0000041433431743e+00
    1.1885322380436432e-10 9.9999671106960064e-01 1.9090657186122452e-09
    9.9999141474925313e-01 2.6825202578927502e-09 1. 0. 1. 0.
    9.9999470000609059e-01 -5.9574615845776847e-09 1. 0.
    1.0000168608331212e+00 1.7122510305997444e-09 9.9999537480771694e-01
    -2.8970219274743960e-09 9.9999483486141305e-01
    -3.8626938176411721e-09 1.0000168608331212e+00
    1.7122510305997444e-09 1.0000021309322997e+00 3.2016022733045627e-09
    9.9999753192570628e-01 -2.7280348664126659e-09
    1.0000129021248281e+00 6.1655649869921497e-10 9.9999214247510981e-01
    -9.6567085443088161e-11 9.9998699610096686e-01
    -3.1495564239065075e-09 1. 0. 1.0000105833656907e+00
    -1.3965343733189073e-09 1.0000115413119006e+00
    8.9140577304865459e-10 1.0000121024812527e+00
    -1.1647708637427090e-08 1.0000073825163109e+00
    -9.0774443712552125e-09 1.0000121024812527e+00
    -1.1647708637427090e-08 9.9999079766907395e-01
    -1.0102389198936386e-09 1. 0. 9.9998951101827582e-01
    -1.0094947982775106e-08 9.9999158895410400e-01
    2.1467594034868487e-09 9.9998983439732714e-01 1.5227851403218030e-09
    9.9999762450093566e-01 3.7735652564535481e-09 1.0000256079538035e+00
    4.9213719307766800e-09 9.9999828949588165e-01 3.2201606820883613e-09
    1.0000083026061402e+00 2.3176475038105007e-09 1.0000094712591856e+00
    3.1941974079966205e-09 1.0000015585845310e+00 4.5164108307521077e-09
    9.9999514858017535e-01 8.1933704182307529e-09 1.0000052467837610e+00
    3.5990281546188090e-09 1.0000129556258288e+00
    -3.5730565269948331e-09 9.9998452152853079e-01
    4.1746375708957540e-09 1.0000074802470926e+00 3.8107442042195787e-09
    1.0000168027903373e+00 -3.1570787235031733e-09
    1.0000074670966661e+00 -2.4662125909620624e-09
    1.0000191744244720e+00 4.8470558883658905e-10 1.0000082943683459e+00
    -8.9140287873782927e-11 1.0000130040257462e+00
    -9.5083421536551744e-10 9.9998971157087468e-01
    -2.6815871616324846e-09 9.9999557735331179e-01
    -3.4615704913932331e-09 1.0000092878275282e+00
    -5.2035694741179396e-09 9.9999523995227080e-01
    -4.9917909557055582e-09 9.9999503740677831e-01
    -4.4272422723259654e-09 1.0000061942593050e+00
    -1.9499397021783697e-10 9.9998146717837655e-01
    -8.7503701740827732e-09 9.9999435790893254e-01
    7.5768188746470451e-10 9.9999362586022222e-01
    -6.9379839689865269e-09 1.0000086152868830e+00
    4.4198740254823563e-09 1.0000092878275282e+00
    -5.2035694741179396e-09 9.9999762450094121e-01
    3.7735652564535688e-09 9.9999604029695977e-01
    -6.4477351448840252e-09 9.9999483486141305e-01
    -3.8626938176411721e-09 1.0000105833656907e+00
    -1.3965343733189073e-09 9.9999557735331313e-01
    -3.4615704913932377e-09 9.9998920716902318e-01
    -5.0511865654689937e-09 9.9999441025987579e-01
    2.2099056207966785e-09 1.0000023738510737e+00 9.6568073465008475e-11
    9.9999131044561451e-01 -3.7995402389614120e-09
    9.9999762450094121e-01 3.7735652564535688e-09 9.9999543882687159e-01
    -1.7233567441079858e-09 9.9999732933888719e-01
    7.4282758713339579e-10 9.9999059540979418e-01 5.5043153546405681e-09
    1.0000054192895678e+00 4.3381482040738560e-09 9.9999577989901511e-01
    -4.0261192840069301e-09 9.9999762450093899e-01
    3.7735652564535605e-09 1.0000045534327915e+00 7.0309139039685893e-09
    1.0000002298081778e+00 -3.6621506265206301e-09
    9.9999770162185875e-01 2.5516137117277324e-09 1.0000178523425520e+00
    8.2826975793355470e-10 9.9999671106960286e-01 1.9090657186122493e-09
    1.0000105833656907e+00 -1.3965343733189073e-09
    1.0000012390171669e+00 5.5563720753581007e-09 9.9999643973599850e-01
    -2.7633161658734367e-09 9.9998636690223475e-01
    -4.4420602745894561e-09 9.9999238255140976e-01
    1.0102405210181918e-09 1.0000072576861627e+00 2.7759742537538926e-08
    1.0000047510413030e+00 4.0410120650521900e-09 1.0000091820320456e+00
    1.7159520647446937e-09 1.0000092878275282e+00
    -5.2035694741179396e-09 9.9999086231536660e-01
    -4.0818111938878011e-09 9.9998881678216245e-01
    -2.2878894923639710e-09 9.9998830553156348e-01
    -3.5506838254362203e-09 1.0000249338237657e+00
    5.0996521554316436e-09 1.0000075125696213e+00 7.9297652426714934e-09
    1.0000081982436477e+00 3.2684769078599266e-10 9.9999502765736470e-01
    -3.1570099788492659e-10 9.9999188654250104e-01
    -2.3770353410025320e-09 9.9999510509683409e-01
    -7.0865594189519687e-09 9.9999017837822290e-01
    -6.8339649317328508e-09 1.0000065644179770e+00
    -4.1301595265611814e-09 9.9999544249778904e-01
    -5.5563398677796015e-09 1.0000191744244720e+00
    4.8470558883658905e-10 1.0000014003917050e+00
    -2.7447591085015523e-09 1.0000036678879103e+00
    1.2628149025115803e-09 9.9999620484441654e-01
    -1.0800700971544960e-08 9.9999608556706776e-01
    6.3140266373947249e-10 9.9998783989957885e-01 4.9026155514419518e-10
    1.0000105833656907e+00 -1.3965343733189073e-09
    1.0000070878027905e+00 6.1915283581346020e-09 9.9999339248136121e-01
    -7.2796816946482452e-10 9.9999596028515936e-01
    -5.7049080588272828e-09 9.9999683979557319e-01
    -6.4774533887991925e-09 1.0000056005714126e+00
    7.5174773602449822e-09 1.0000194000414526e+00 2.6593814552160111e-09
    9.9999327180303044e-01 -9.1367422488320459e-10
    9.9999390219231488e-01 -2.5181768901682887e-09
    9.9998977738679629e-01 -8.6204490467993425e-09
    9.9999731661522373e-01 1.2590927441707905e-09 9.9999156637792541e-01
    -1.5190736612517548e-09 9.9999214247510981e-01
    -9.6567085443088161e-11 1.0000199563190106e+00
    -7.7255817092826672e-10 1.0000100788057895e+00
    -9.8054491631504107e-10 9.9999762450094121e-01
    3.7735652564535688e-09 9.9999723949436203e-01 2.4810439181167137e-09
    1.0000052274319611e+00 -4.4421440553415029e-09
    1.0000056458583613e+00 -8.3903073744324227e-09
    1.0000092878275282e+00 -5.2035694741179396e-09
    1.0000064732261658e+00 -3.6324601156731413e-09
    9.9999699107339923e-01 -5.1255086174325404e-10
    1.0000061774849132e+00 -1.2702464132544299e-08
    1.0000021596131647e+00 1.0065362424013727e-09 9.9998903375868098e-01
    8.8395749566802108e-09 9.9999731661522351e-01 1.2590927441707903e-09
    9.9999524079968172e-01 -6.4180169484887274e-09
    9.9998843280802074e-01 -2.3695989215017331e-09
    9.9999542580362621e-01 4.9917918834410890e-09 1.0000057954716661e+00
    -8.9140065123261093e-10 9.9999009402192807e-01
    -3.5061208431227345e-09 9.9999604029695865e-01
    -6.4477351448840186e-09 9.9999914807130319e-01
    1.0548170921610949e-09 9.9999683979556697e-01
    -6.4774533887991519e-09 9.9999770162186230e-01
    2.5516137117277415e-09 9.9999254011669481e-01 2.1579038058646226e-09
    9.9999434668507703e-01 -7.6659578341890378e-09
    9.9999497555021499e-01 -2.9415903211314823e-09 1. 0.
    9.9999449746088465e-01 -5.3929130104326942e-09
    9.9999153179707889e-01 -1.1439478520437686e-09
    1.0000222219100954e+00 2.0001130652072095e-09 1.0000103703884462e+00
    1.0566860228491422e-09 9.9999520730989511e-01
    -5.1254994747098186e-10 1.0000116122498779e+00
    -3.6881916476186252e-09 1.0000037033112492e+00
    -3.3427454485884789e-10 1.0000167387801919e+00
    7.4284200504035311e-10 1.0000071536029931e+00
    -1.0102554434467100e-09 9.9999295522528064e-01
    2.6741676164848631e-10 1.0000015120031123e+00
    -4.6092644571391196e-09 9.9999051883438195e-01
    -8.3344687651614514e-09 9.9998903210292334e-01
    -6.0019971035054083e-09 1.0000043058575205e+00
    7.4283276949773903e-11</input_scale>
  <output_scale>
    5.2631578947368418e-01 4.9999999999999994e-01 5.2631578947368418e-01
    4.9999999999999994e-01</output_scale>
  <inv_output_scale>
    1.8999999999999999e+00 -9.4999999999999996e-01
    1.8999999999999999e+00 -9.4999999999999996e-01</inv_output_scale>
  <weights>
    <_>
      7.9816169464054543e-01 5.8034936598996845e-01
      -2.0768627908644630e-01 -4.3058954592493750e+00
      -1.0726713126231897e+00 6.0888909011733157e+00
      -1.4078294128463584e-01 2.0146497415629097e+00
      1.7117704242490623e+00 2.6416979554381992e-01
      -2.8053957658666462e-01 2.8170739620886542e-01
      6.6219179767758274e-01 6.3032181634394502e-01
      -1.0122439919916275e+00 4.1364521646597602e-01
      1.0985577277025447e+00 6.4886953567474392e-01
      1.1776531584117964e+00 -5.8509644889215388e-02
      -5.4726859037999664e-01 1.0573070643504665e+00
      -6.3477093089252923e-02 -6.0817767515243859e-01
      1.1872898782515275e+00 -6.8044787624190683e-01
      -1.6174292813727253e-01 1.0475633104110281e-02
      -9.4332173530575991e-01 -1.4746312706428510e+00
      -1.8912602273784196e+00 -4.4389133518671059e-01
      3.7752485625252263e-01 4.4985868454708322e-01
      1.1157993438751304e+00 1.6241978865003295e-01
      -3.5690354207918745e-01 -6.8851918480272389e-01
      2.2346501641504557e+00 2.6425007998134620e-01
      -2.7957676497491106e+00 -1.1180055957842350e+00
      -5.1813824553193444e-01 -1.0287720941012783e+00
      -6.3417151525120330e-01 -1.8576229414834056e+00
      1.5880666611209717e+00 1.1299202007364872e+00
      -3.9615766320018994e-02 1.6982326409966050e-01
      -2.6044141100589097e-01 6.9256305668424911e-01
      7.4656768291079778e-01 -1.3903544542935593e+00
      1.9041184679547238e+00 1.6250328087904937e+00
      5.4493404355833996e-01 -6.4027750568675615e-02
      6.4554992759895991e-01 1.1387948429810624e+00
      5.0262926793801066e-01 1.8724196752207919e-01
      1.0702991318889208e+00 2.5687080865672085e-01
      -6.4249207002854813e-01 -7.0095025168619896e-01
      -6.9508471587079701e-01 -1.0533738230422978e+00
      -6.0589082771164116e-01 -1.3999459636549996e+00
      -1.3381095942389559e-01 -1.9621066956192224e-01
      -1.6011818368083772e-01 2.1112772516215510e+00
      1.7035413238667779e-01 1.1564519239760424e-01
      5.5125667533494849e-01 -2.2143377884676996e+00
      3.9102286978692646e-01 -2.2788668258751268e+00
      -8.1351621874326536e+00 -2.6685066480727575e+00
      -2.0534083727026445e-01 1.4813836045865481e+00
      1.9041815490235126e+00 -3.6391078674895000e-01
      6.7625924689284467e-01 -1.2584510946868848e+00
      -1.8520426067850220e+00 -2.7875750451220754e-01
      1.5328338526093834e+00 -1.2063887470674166e+00
      -1.2295442120808617e+00 -2.5663037502376680e+00
      5.3209033359759483e-01 -2.7664728690080840e+00
      -8.5819109763066592e-01 -3.1223848104544536e+00
      -9.2446310298171197e-01 -2.4080620731244218e+00
      1.5490311194227533e+00 -1.3488163767570749e+00
      6.9892967644977122e-01 3.4096399301515405e+00
      -1.4670561405077556e+00 2.8115217401628961e-01
      9.3456656852661113e-01 -1.5485385479213196e+00
      2.6120708993057269e+00 6.9125763106880334e-01
      1.0988027112066805e+00 6.2665911009611025e-02
      -1.1082730078038021e+00 -9.0221364621399702e-01
      -8.8556261143098058e-01 8.4716337936520739e-02
      2.4015767625820672e+00 8.3844685315370837e-01
      -1.7607579167437526e+00 3.9957132426780291e-02
      8.0003157962186433e-01 8.3022654950052777e-01
      1.2066152595568578e+00 6.5410363601972565e-01
      2.0966805711962597e+00 1.1427759956442440e+00
      -7.9390869846492806e-01 -3.1305974264953358e+00
      -1.3548336323745089e-01 6.5195230623977377e-02
      -1.0366342398405148e-01 -2.6173198011030563e-01
      -2.4285911379390130e+00 2.3017827142776803e+00
      -1.0986090065159719e+00 -2.8894973638792010e+00
      -3.5598987724359068e+00 -1.1932836414373081e-01
      -8.9906365793671761e-01 -3.0569404531035325e+00
      -9.5909848662083935e-02 1.8429587959747482e+00
      -6.9953778159286895e-01 8.1497757609763338e-03
      3.1528183188357342e+00 5.0281445464673358e-01
      5.1792652972521114e-01 5.9002686365419077e-01
      2.1295047300908757e-01 6.6204566167315848e-01
      -8.2376334220703923e-02 4.6450958318594326e-01
      -2.2091935006813710e+00 -1.3018329687000720e+00
      -3.8806835875940554e-01 9.1184262804456809e-02
      -8.0433332106350663e-01 1.1036954281858606e+00
      -2.4525311336797464e+00 1.8320233497026470e+00
      -7.1530493906389507e+00 -8.3454753055002273e-01
      -6.3991066852668110e-01 3.8007777704127315e+00
      8.1988970519460824e-01 -5.3004944107105416e+00
      3.2089190791196492e-01 1.6415240570392466e+00
      -1.1266918904780996e+00 5.3495878933275620e-01
      -1.0903892097522125e+00 1.5493688956576937e-01
      -2.1993759283612366e-01 -9.2459859328526550e-01
      -7.6781739206739608e-01 -8.0500645203757926e-01
      1.4719307685973290e-01 -1.1427264510432236e+00
      1.3177693424193946e+00 4.4318166238681495e-01
      2.6961846871523321e-01 -5.9209626520616232e-01
      4.3218364085446481e-01 1.2490006021450089e+00
      -6.5460190069669888e-01 -6.2533689345399046e-01
      -8.1150846362224316e-01 1.1463095541370483e+00
      1.1139551721037095e+00 -1.2108066234040993e+00
      -2.0534432887409002e+00 -5.0216010576796211e-01
      2.1045113023100560e-02 3.5790250005262814e-02
      5.3518867087654531e-01 3.8621760870124422e-01
      5.9753822148267455e-01 -2.7324601728271775e-01
      -1.5177486340904474e+00 3.6293436840952337e-01
      1.4406850961862196e+00 -1.2889060240061141e+00
      8.9729582010993111e-02 -1.1501576609646054e+00
      6.0211728389563068e-01 -1.9794876857592110e+00
      1.2634611874706299e+00 -1.4808131176761778e+00
      -2.1043968448441508e-01 2.3304161342424098e-01
      -5.3157860882722718e-01 6.2864176615121226e-01
      -9.2764634344542540e-01 1.4228051223114513e+00
      1.9820234236840444e+00 -1.7947525633384274e+00
      -1.1092969461240558e+00 -1.3108520213265605e-02
      1.6838253930351554e-01 -1.5133543801722020e+00
      9.0717588929510029e-01 -1.9844726914977728e+00
      1.3178985293652559e+00 4.9791368882589926e-01
      1.0696848963002770e+00 -5.5454944898520486e-01
      -5.3279687141957166e-01 -7.4658904525200964e-01
      -6.1816069384198591e-01 -1.1909204049572093e+00
      -1.7849571177475079e-01 -3.8739196335607434e-01
      1.7282817078513821e+00 1.8504715073664237e+00
      3.8218563934752181e-01 3.0100182772764494e-01
      8.9003221834692592e-01 -2.0337880922914335e+00
      -6.5979030047648601e-01 1.5755567292873014e+00
      3.1235974561233690e+00 9.9257879067359456e-01
      3.1592455213616566e-01 2.6053767935574079e-01
      -2.4812876773053397e-01 -1.2594876378293536e+00
      5.3091860301872670e-02 -1.5745619399492781e+00
      -8.5010210776096107e-02 -3.1976365860110802e-02
      1.7871742254998194e-01 1.5314971852520717e-01
      1.2744937283054261e-01 9.5501869512779081e-01
      3.6933497246470592e-01 1.2214701520838049e+00
      -3.5233837144829522e-01 1.1714922220994468e+00
      -1.4397531408674784e+00 7.8242019268960117e-01
      -5.3632443765095761e-01 5.0832921997367338e-02
      5.9669706854270442e-02 -1.3805011026862652e+00
      -1.3497786799419459e-01 -2.0455548918102729e-04
      -8.5584351544292198e-02 2.4127553101374566e-01
      -7.8156553997485567e-01 1.0620299033009968e+00
      1.8237492402836664e+00 -9.3445378351627750e-02
      2.6698414649217134e-01 3.5881889071826756e-01
      -2.5561303029924870e-01 -3.9108027553199275e-02
      -1.0161890760574417e+00 2.8892553102200864e-02
      -3.9231549766010321e-01 1.6859002562187983e-01
      1.0164293808690896e+00 1.4049721281997651e+00
      -4.2539593883656807e-01 9.7052208669511597e-01
      -7.1658931239748724e-01 2.1286437388915784e+00
      -1.1622550979077511e+00 1.0263155989609143e+00
      -2.5399886531294069e-03 1.5061131658687668e-01
      1.7616514349839513e-01 -5.6866677452381213e-02
      7.8836206103319106e-01 -5.2819462867420541e-01
      -2.1400204916223404e+00 8.8044732524885128e-01
      1.6861657118695825e+00 -1.0517119128724350e-01
      8.4823072305318312e-03 1.0343916085384175e+00
      -5.2725874618120827e-01 7.0791697152368438e-02
      -1.5061008319471696e+00 -1.0430647725982876e-01
      -1.6088238168994249e+00 6.2341640103937730e-02
      8.4732523122407907e-02 3.4334671898023017e-01
      3.5126652763778500e-02 1.0978363413040118e+00
      -1.2991959880799778e-01 -1.2581961571030656e-02
      -6.0948578163535563e-02 -1.7877598748863965e+00
      -5.2903926431832329e-03 -5.6491437608350171e-03
      1.8174598104990505e-01 1.9925133975721605e+00
      1.0798451143885319e+00 3.2705759261394912e-01
      -3.8952134556121365e-01 -3.2505666769503450e-02
      1.8386715223693055e-02 4.6964165592020088e-02
      1.2204451445353254e-02 -4.8054307721334261e-02
      -3.0871024947738798e-03 -1.1640730804314643e-02
      1.6401532922755910e-02 -1.3938325411211296e-02
      6.6853165425089633e-03 -9.1452882540127844e-03
      3.4287588324510544e-02 -2.0869037603365614e-02
      -1.2010322511888635e-01 -2.8215528057083085e-02
      1.4589293262415795e-02 -3.4087435541574840e-02
      -7.6750348688288880e-03 -1.2568901301275545e-02
      2.1529232171272433e-02 6.0321924440989759e-03
      -4.2906477196660454e-03 4.1014261080851322e-02
      -5.8264424302304132e-03 -1.1866403008511785e-01
      1.0324149519274654e-02 -9.7367284377495398e-03
      3.2799877231387574e-02 -1.7943468128870200e-02
      7.6308253068024280e-03 -7.3955414593525531e-02
      -1.3351917658942716e-02 -2.1190097414868877e-02
      6.9180951557005946e-02 1.4265873251948061e-02
      2.3334426325450242e-02 -2.9728887425198157e-02
      -1.7491663375694581e-02 5.1996054305249048e-02
      6.4946734323771639e-03 8.4661378971535046e-03
      2.2733604632992729e-02 8.7497796652622629e-03
      2.8977319012186545e-02 7.3484051064184408e-04
      2.1089966411972100e-02 -4.4456963144381099e-02
      -7.3808997059333853e-03 2.7664246205688893e-02
      -8.5829545206602964e-03 8.7239162367183723e-02
      -2.0787266061494926e-02 3.4267139526138454e-02
      -1.0535849811907729e-03 -4.7449794146992581e-02
      -3.0186300756611373e-02 -3.0411064372385294e-02
      2.4302386942927096e-02 -4.7427984084512986e-02
      -1.7851806490800995e-02 1.6986217856482856e-03
      -6.7032800135038905e-03 1.0698816590419226e-02
      2.2666100923170011e-02 -5.5995507004822066e-02
      -4.9636936616630087e-02 -8.5050633166949691e-02
      -7.2090262951706952e-02 -1.8626959976892614e-02
      -3.0851073432410572e-02 1.7927933599835629e-02
      -7.8523029505677220e-03 -9.1147862735544063e-03
      -1.7746694547329266e-02 8.6661802402123456e-03
      1.7423119630610787e-02 7.9156933989082325e-03
      -2.4384386831701219e-02 6.7421831792359685e-05
      1.4798811469336840e-04 9.1154703726458732e-04
      4.3377362184050534e-05 -1.2232703600913309e-03
      -3.1912995338298955e-04 3.9064819885090076e-04
      5.9714194860342274e-04 -8.2512228199991525e-04
      7.4277410081973849e-04 7.6272935206717378e-04
      2.8881363914438012e-04 1.0304679967034435e-03
      7.5808411454171166e-05 -1.2086631943593025e-03
      -8.7662480402988401e-04 7.6103063100628585e-04
      5.2135721876594564e-04 -6.8444501091039747e-04
      -4.2095388960990398e-04 -3.1770791203813796e-04
      -1.0177618396181908e-03 -7.6066917353299077e-04
      4.1776401134176845e-04 -2.3095128633525766e-04
      8.9684185321551267e-04 1.7269596837316475e-04
      3.1828916634606233e-04 -1.8620114859811335e-04
      1.2675065457033213e-03 4.6994711844466046e-04
      9.3454729518060965e-04 -1.2056996317487039e-04
      -9.9016252686446541e-04 6.6811274410553284e-04
      -3.6680380876801628e-04 -5.3242725614066763e-04
      -4.1844980354025006e-04 7.0280736843788432e-04
      -8.6899103297213083e-04 -1.2840553767425543e-03
      6.6745960469393112e-04 8.4317790586989480e-04
      4.7493330994074275e-04 1.1929943386376198e-05
      -4.4892130451533414e-04 -1.1313053865042680e-04
      4.6973047676130471e-05 -1.3777759726246272e-04
      -1.6261862246086262e-04 1.1975720136530692e-03
      -1.0767473407932346e-03 4.4940750905482848e-04
      1.1750525042184057e-03 -8.2268451308514312e-04
      7.9062266209990717e-04 6.8797751596992443e-06
      1.0317361959116715e-03 1.3965878159850087e-04
      1.0432528788079554e-03 3.4490352750005517e-04
      -1.2539185460271724e-03 -9.5087843958967244e-04
      -8.9162159222542050e-04 6.5622483781884085e-04
      1.9086386747130279e-04 -3.3009159757573962e-04
      -8.9100507469703821e-04 -1.1646915068231852e-03
      -3.8303098390296997e-04 1.1614485849740070e-03
      -2.6435712230453299e-04 3.5642411288226419e-05
      3.7350315505474949e-04 9.4191165106023722e-04
      -4.2245867963314681e-04 1.2605314526573667e-03
      -2.2404232686861411e-04 5.7012841162896262e-04
      1.2066769214665314e-03 -1.1224495608813515e-04
      -1.1567141302755726e-01 3.4395831145761252e-02
      -3.0715011779125071e-03 1.4339505046043042e-02
      -4.6586568662675409e-03 -1.4092446957177636e-02
      -8.8626435138084367e-02 8.1243671639266421e-02
      9.8651805005425846e-05 4.4737116837504892e-02
      -9.4482669573863975e-02 1.0173899142745066e-01
      2.3275008037126014e-02 3.7600688807104721e-03
      -2.2376139319979706e-02 3.9916002365321258e-02
      1.2674425693846818e-02 1.3502363697342706e-03
      6.3942252226547008e-02 1.4372769413872340e-02
      -5.8990174199178499e-02 1.5225532293289190e-02
      -9.0072424309029481e-02 -1.0515462827749699e-03
      8.1900299667784296e-03 -2.9976653513820607e-02
      -4.0058487840782218e-02 3.2171774435945794e-02
      2.1777507251393743e-03 2.0131550039198982e-03
      -7.2175926529703296e-02 -2.9456729664186602e-02
      7.9873479460815633e-02 7.0406625429000419e-02
      1.4334601781624707e-02 -2.2202450176738425e-02
      -4.7970372033929093e-02 -1.8134707310291695e-02
      -7.3675930287190640e-03 2.5303584792592551e-02
      -1.2273483515494166e-02 -6.0376540255696144e-02
      -6.3078590478241367e-02 -6.9832645216775999e-02
      -5.0207228411022570e-02 -6.1261978323170256e-02
      -8.9486334171161343e-03 -3.8601883193015120e-03
      3.8809099486356115e-02 1.4346544928016321e-02
      3.0578904259162997e-02 2.4293403827003790e-02
      4.2799282374343037e-03 6.1353160762149432e-03
      6.1172763684394629e-02 -1.1960159717313098e-02
      6.8862663641957901e-03 -1.4722611167558101e-02
      1.8294136689865566e-02 -7.8938311940395856e-04
      2.9887656887666290e-02 -2.7810357390932131e-02
      3.7765452623380276e-02 -1.5442398213802055e-02
      -5.0906232398875966e-03 -1.9598872287605623e-02
      -2.0003510011459356e-02 -1.9473576468349005e-02
      -2.5519913310186135e-02 1.7082883186978995e-02
      -1.6151543313828572e-02 -3.7460598771604112e-02
      6.6113619991744046e-02 7.8698600906429841e-02
      3.3481409570228909e-02 -2.9015462983535481e-02
      1.0971405056729635e-02 -7.9816831080654904e-02
      4.2417279973462903e-02 4.5817936564634832e-03
      -3.3531726229572822e-01 -1.8750778219892733e-03
      3.4106753215277258e-02 -2.0089583473740409e-02
      -2.2312397406247735e-02 3.9846560395968803e-02
      3.3149576097510187e-02 -5.8762409191099728e-02
      4.0134899932856363e-02 -7.0018318048364180e-03
      5.1970691224139810e-02 -4.4277411644342637e-02
      3.4977448236346187e-02 8.8377044007464899e-03
      -5.3340965700124518e-02 -7.7076104819441011e-03
      2.4652930694000187e-02 -2.1722556811334780e-04
      -5.1414644993469830e-02 2.6177228129265682e-02
      5.1329104299311645e-02 1.1367814359935589e-02
      3.4662602636195500e-02 5.0021706647411200e-03
      1.6497450293434628e-02 -4.1669213036700931e-02
      1.6102372819963580e-02 -3.1593717465895330e-02
      -3.3994871422560542e-03 5.7084560981716735e-02
      4.1930605110125349e-02 -3.1809955109978569e-02
      -5.0013476787473012e-02 -6.0813755249251616e-02
      5.7302483776863693e-02 -1.1291360480948752e-02
      1.3327561846523946e-02 -3.9355522200386447e-02
      2.2165070737004782e-02 2.4742323300568581e-02
      -3.8517214402152396e-02 5.1795903378858761e-02
      5.6564098614305142e-02 3.6194629834525746e-02
      1.0125724104469125e-02 3.1200689004671295e-02
      -6.1728812818974473e-02 -4.4114604030352752e-03
      7.2618870874654419e-03 1.4791361298461902e-02
      3.6765595318309252e-02 4.1019808935752189e-02
      9.9538272851057309e-03 -5.9186646479642254e-03
      -2.9360363514206522e-02 -6.3655712170052909e-03
      1.8959201056310785e-03 -7.2601117216480058e-03
      3.6085265564431403e-02 -5.9028932476470368e-03
      -5.3580105495259524e-02 3.8252291693841832e-02
      -5.1347854967907489e-02 -3.2756015232133534e-02
      -5.4529060854688182e-03 -4.3496386080310728e-02
      -4.2806991358390674e-02 -5.6673450476685719e-02
      -3.4911870089148686e-02 6.3278767835011060e-02
      -1.1970891436378892e-02 -2.5117605510316516e-02
      -3.0044518846441950e-02 -5.6259457065945477e-02
      2.6578019045351023e-02 -1.6720391845049729e-02
      -3.2316655406985285e-02 4.8439827010096935e-02
      -8.6969046724298029e-03 -3.4080394538601282e-02
      -7.2820512073587015e-02 5.0079996832500577e-02
      2.7935912406251900e-02 -2.4212847064716141e-02
      -3.8077699647194888e-02 4.9712722878771473e-02
      -7.3889500660617113e-02 3.0998059625509208e-02
      3.1165979119518874e-02 1.4793292975955540e-02
      -2.0972121131634380e-02 5.9644165958494900e-02
      3.1145970479702918e-02 2.4090470468005137e-02
      -3.2849643016209983e-02 4.2221389213442859e-02
      2.4054658332156826e-02 2.9619566011125122e-02
      1.0037155188876172e-02 -3.7659148252901226e-04
      -6.3732574556716631e-02 1.5982783641648995e-02
      -7.8342908487327861e-02 -3.2242377980400479e-02
      2.3394980278734528e-02 -2.5009114829446281e-02
      -1.6367143003368372e-02 1.1085868306523252e-02
      -3.8779800005775605e-02 4.4898777068832349e-03
      -2.4631650240200146e-02 -1.6704448075208496e-02
      5.7533409582894067e-02 6.3431311818508793e-02
      3.8256292326700005e-02 -4.7998901257473728e-03
      -4.6578964643387066e-02 -3.5180388071378958e-02
      3.3094671790413574e-02 1.3249215456067885e-02
      -2.4056234846019622e-02 -6.2153324933074709e-03
      -6.3221092013612382e-02 -1.1712489548065386e-02
      -6.1964035414742921e-02 -3.2592843366509527e-03
      -6.7514759213303660e-03 4.1981142903562349e-02
      1.3860867633534455e-02 1.6588949427431901e-02
      1.6831129959668609e-02 2.4140907468018901e-02
      3.3154532049221162e-02 -4.1713961751834679e-02
      1.7162486662292932e-03 3.7043891709158235e-02
      6.6168944337499239e-03 -2.3294304085969754e-02
      3.7201913804160540e-02 4.5663250616249207e-02
      -3.2264345683428088e-03 -1.2053510410552902e-02
      -1.5167157244972234e-02 -1.2380079588869709e-02
      -1.5345761502822913e-03 -3.1826744903977945e-02
      -3.2244481366074725e-02 -3.7714209831809856e-02
      -1.9135264075598901e-02 8.7719703547115054e-03
      -1.9324315830982736e-02 -4.3466480221780630e-03
      2.1178141041179221e-02 2.9959037669405313e-02
      3.7409309327385730e-03 -5.3520843649458028e-03
      -5.5826969470727569e-03 -2.7234503283175133e-02
      4.1712256394119920e-02 -2.7729929194734805e-02
      -7.1608085565206023e-02 -8.6514155114302299e-02
      -1.9119813802951451e-02 1.4355521539673394e-01
      9.6176198971866661e-02 -1.4399418029425542e-01
      1.1467514333815829e-03 -4.7952375939564820e-02
      -1.1313791938046178e-01 2.6229329008798506e-02
      2.7370203176145230e-02 -1.1886398764354586e-02
      -4.5012870839804035e-02 -8.4450036661856159e-02
      8.3357261713313549e-02 -7.9752536063128043e-02
      -5.8887185801451525e-02 -1.0706358109164792e-01
      2.6878950434311058e-02 -4.3507662634242703e-02
      5.6984996341084691e-02 -3.8566033198214271e-02
      4.0405010465039987e-03 1.1803081531048704e-01
      -7.2076908988600807e-02 7.8677530894971176e-02
      -4.8117115788429948e-02 1.8242084048570360e-03
      1.0909346749972430e-01 -3.5261904022448977e-02
      -5.9446831264058121e-02 4.4913690893382159e-02
      -2.9082427337055194e-02 -5.7793602433657276e-02
      -9.3434790597506756e-02 -3.3288683929691025e-02
      6.3587041008329750e-02 6.8176384663261161e-02
      -1.2340522117618594e-01 -3.9454801195709134e-02
      5.5430892243794723e-02 -2.6717234016655853e-02
      5.8413320618775563e-02 -2.2438772060545259e-02
      7.6132498325050202e-02 -2.6224114581315815e-02
      3.1746817741121272e-02 -1.2847840981825032e-01
      2.5189801966067874e-03 -4.1921901368879570e-02
      -1.8283475751702589e-02 -6.2405506960084095e-02
      -9.2320658829065649e-02 1.1814669044793090e-01
      2.8358964678977850e-02 -1.3659325628722196e-01
      -8.8649330544549390e-02 1.9140804235728993e-02
      -6.0520548164870722e-02 -1.3143296219442602e-01
      9.5650538985192369e-03 -5.8850059386450666e-02
      2.3541883164170916e-02 2.2682484333453969e-02
      7.5739844363746742e-02 6.6134942827516599e-02
      6.7173808393368728e-02 8.1925590441145377e-02
      4.5068138484669791e-02 -2.8506831530227178e-02
      3.5357082340301112e-02 5.0512554179881736e-02
      -3.2028518604731715e-02 -4.9587102316022695e-02
      -5.0929421887550667e-02 -3.5818811333102496e-02
      4.2639475802735589e-02 -5.8940171157051510e-02
      -6.6779818163506796e-02 1.2372426627209188e-01
      -1.3611355689494398e-01 5.5217816532137615e-02
      -1.1025321264062674e-02 -1.7777333539235871e-02
      -3.5701135954679289e-02 2.4976968385438832e-02
      -5.6386339957702689e-02 3.0697344094816687e-02
      6.3549637027835674e-03 3.0864055659972602e-02
      -4.0497449483234471e-02 4.1276936969323906e-02
      4.3588941783498203e-02 5.5406151802376555e-02
      8.3012494843317363e-03 4.7835709754243227e-02
      4.4762326239944326e-02 5.6451922289035145e-02
      2.5517087443230130e-02 5.0383461271881584e-02
      -5.2171278820638205e-02 5.1970306901717049e-02
      -5.8109482678925323e-02 -5.5334598043023708e-02
      5.6349273189742921e-02 1.7617813999035264e-02
      -4.4346472931439833e-02 5.3143855086866573e-02
      -4.8469160641498005e-02 1.4924157225731947e-02
      -3.1798632424385416e-02 9.1993672637263584e-03
      4.3352014387754607e-02 3.9465439678345517e-02
      -3.0680305096056361e-03 -2.9374175643649660e-02
      -4.6029391723482645e-02 -3.1488339502025176e-02
      1.0326699660123831e-02 -1.6257905860222962e-02
      -6.0187779890162878e-02 -2.3928896142569205e-02
      -4.6446987662469720e-02 -2.6687456808865317e-02
      -5.2625455598196168e-02 -2.9197214412266366e-02
      -2.2214992747191173e-02 4.2617755754832828e-02
      3.7262795960663127e-02 -2.2875254114750457e-02
      3.7886296305029411e-02 1.9468812794768756e-03
      5.0976205940553472e-02 -3.6383729293447187e-02
      2.8211858821460534e-02 3.7560215787896957e-02
      4.9913255704044514e-02 1.2648582090862866e-02
      3.8722805066621901e-02 4.4197535456268679e-02
      1.5017784287884431e-02 -5.3848596258665615e-02
      1.7917190416621778e-02 -3.3115491658855384e-02
      -5.1650454259340610e-02 -1.7080835486412385e-02
      -2.2580002178181489e-02 -2.0599370563828641e-03
      -8.6502974547647479e-03 2.9098667339890694e-02
      1.8905146562195874e-02 -2.3194016636716278e-02
      3.6197272074725263e-02 3.1841358761387155e-02
      2.1910399244540208e-02 -3.2464880960254607e-02
      1.3490675085504238e-02 -3.3023515089241007e-02
      4.8159575787854417e-02 8.6615940700085188e-04
      -1.7434873283702013e-01 -5.8275514052310268e-02
      -7.6415564454640041e-03 9.8280628748710339e-02
      6.9021031622820070e-02 -9.8018644557028703e-02
      -8.6881168798438012e-03 -2.0920939112536632e-02
      -7.9603243177530383e-02 -1.9110773486328139e-02
      1.1558959078149991e-02 -1.4711852461845247e-02
      -3.1918128455377136e-02 -5.7082246422531971e-02
      6.1408430644955082e-02 -5.1841340457459216e-02
      -3.9597614225522090e-02 -7.4362637365232548e-02
      6.5295102625840488e-04 -2.3173753856451193e-02
      4.0758816143999226e-02 -1.4959159179438035e-02
      -1.0044604985945546e-02 7.9066633763482969e-02
      -4.7908080016801406e-02 5.8426753015160204e-02
      1.0310152305868681e-02 -1.1982580546069623e-02
      7.5591635522479286e-02 -1.2532721747341932e-02
      8.2529052901406698e-03 3.7825030526188859e-02
      -2.1158348691796731e-02 -3.8959098960674010e-02
      -6.7245307204166549e-02 -4.0498458854300217e-03
      4.2733379546755441e-02 4.8091571686133469e-02
      -8.7556412923049304e-02 -3.4806204186184221e-02
      3.4105355713429882e-02 -1.0120313290809816e-02
      4.0122117437452823e-02 9.6841750036739862e-03
      5.2120516265498622e-02 -3.2728566919252779e-02
      9.0169952554946149e-03 -8.8673813134819549e-02
      2.5059282398592897e-03 -3.7776606159839091e-02
      1.1571772259919362e-03 -4.5985898187457325e-02
      -6.3644843611446497e-02 8.0520802877019237e-02
      3.1886450082206502e-02 -9.4784929188050093e-02
      -5.6420281111231728e-02 2.1077908091947897e-02
      -4.4035307737567211e-02 -8.9309847826510039e-02
      -1.8606862316273211e-02 -5.4183074731941044e-03
      1.1285206931841686e-02 5.2606408565760614e-03
      4.7409070104194949e-02 4.8399776071107993e-02
      4.8114802908210665e-02 5.9905137588108150e-02
      3.5356702788465713e-02 -3.7598645080626440e-03
      3.2346941589026790e-02 2.1075933427329361e-02
      -1.3002509053240284e-02 -1.5941991003436646e-02
      -2.1033392351270008e-02 -4.3422324135807110e-03
      1.7786668323543871e-02 1.0110047482039001e-02
      -4.4982627326064881e-02 8.7537220956266593e-02
      -4.0464691181043427e-01 5.7909439179327522e-03
      8.4564777175388239e-02 -1.5455517436720948e-02
      -1.9581902997350072e-02 1.4813070130111938e-02
      1.5353673484480581e-02 -3.2780516093720513e-02
      3.2369249222247612e-02 -4.6170491406701313e-02
      -2.1719300814361367e-02 -2.4316244581682092e-02
      -4.6208387534033890e-02 4.3304184051136301e-03
      1.1870173373552195e-01 -1.0628128123118815e-04
      -9.9422168551298901e-02 1.1738281664294926e-02
      -2.0222349764516664e-01 -8.9120554054123724e-02
      2.7185926438834515e-03 -8.7695769797219561e-02
      -2.9456233285111533e-03 -9.7541071788883812e-03
      -1.0755259346988758e-01 9.0787112503518383e-02
      5.7596515411847543e-02 -7.2156706748807364e-02
      -2.0871496009373786e-02 9.4654177149296900e-02
      2.3005307614515041e-01 4.8193420068510497e-02
      -1.7033153785633318e-02 -1.4478431735197358e-02
      2.7608038826982713e-02 4.7458613380351221e-03
      1.4180856810568643e-03 2.6581352233307390e-02
      2.9471256603547120e-02 -2.8120306035051747e-02
      1.9925147531944798e-01 1.9802130078321228e-01
      4.4602326905034276e-03 1.8367127496589963e-01
      -6.1385621392532480e-03 2.4526534279024961e-01
      -8.2211873320834961e-02 2.4586357320718382e-02
      -1.0355086119485987e-02 -1.0879905571100894e-02
      2.6031894424214424e-02 -7.3821527761667213e-02
      1.3353175704972289e-02 -2.0767339722162107e-02
      -2.4666559380367989e-01 2.5295070828068075e-02
      -1.0216739803978027e-02 -3.0981434198162744e-03
      -3.1063737979204819e-02 1.8712718164582535e-02
      -9.3128404402992582e-02 6.7110433547665202e-02
      -2.1207658363350237e-01 -2.7530125136540382e-02
      1.2180975870201409e-02 3.6367209094398660e-02
      3.1610876593180508e-02 1.6008632712546961e-02
      6.0424399544264748e-02 6.9247700258809955e-02
      9.3242403749001640e-03 2.1681919151397916e-02
      -2.4470306615874703e-02 -5.0130295355393033e-02
      -2.2594635940122294e-02 1.2864154060678869e-02
      -6.1521519896184068e-02 2.5762073676538494e-01
      -3.5675217112248162e-03 -3.2264633056125341e-02
      -4.8761424160376725e-04 5.9459690665375671e-04
      1.0113771530152144e-03 8.7471534895712522e-04
      2.7006385559692411e-04 -9.1129345871009224e-04
