<?xml version="1.0"?>
<opencv_storage>
<my_svm type_id="opencv-ml-svm">
  <svm_type>C_SVC</svm_type>
  <kernel><type>LINEAR</type></kernel>
  <C>5.0000000000000000e-01</C>
  <term_criteria><epsilon>1.</epsilon>
    <iterations>100000</iterations></term_criteria>
  <var_all>1558</var_all>
  <var_count>1558</var_count>
  <class_count>2</class_count>
  <class_labels type_id="opencv-matrix">
    <rows>1</rows>
    <cols>2</cols>
    <dt>i</dt>
    <data>
      0 1</data></class_labels>
  <sv_total>1</sv_total>
  <support_vectors>
    <_>
      1.40356179e-03 -4.77270223e-03 1.39031624e-02 -8.37611035e-03 0.
      0. 2.36889860e-03 0. 4.89926804e-03 -9.14556067e-03 0. 0. 0. 0. 0.
      4.89926804e-03 0. 0. 6.83272816e-03 0. 0. 0. 0. 0. 0. 0. 0. 0. 0.
      0. 0. 3.46989930e-02 0. 0. 0. 0. -1.44611651e-04 0. 0. 0.
      5.77054545e-03 8.11091717e-03 3.25218053e-03 0. 0. 0. 0. 0. 0. 0.
      0. 0. 0. 0. 0. 0. 0. 0. 0. -3.38519952e-04 0. 0. 0. 2.93208379e-03
      1.06115239e-02 0. 0. 1.64770577e-02 0. 0. -3.24301375e-03 0.
      5.77054545e-03 0. 1.64770577e-02 3.77117860e-04 0. 0. 0. 0. 0. 0.
      0. 0. 0. 0. 0. 0. 0. 0. 0. 0. 0. 0. 0. -2.83471984e-03
      -1.56687223e-03 0. 0. 0. 0. 0. 0. 0. 0. 0. 8.64184927e-03 0. 0. 0.
      0. 0. 0. -1.52301967e-01 0. 0. 0. 0. 0. 0. -3.59849073e-02 0. 0.
      0. 4.89926804e-03 0. 0. 0. 0. 0. 0. 0. 0. 0. 0. 0. 0. 0. 0.
      -9.00094863e-03 0. 0. 0. 0. 0. 1.47291515e-02 0. 6.30007358e-04 0.
      0. 0. 0. 0. 0. 0. 0. 8.78261344e-04 5.30565716e-03 -3.24301375e-03
      0. 0. 0. 0. -1.56687223e-03 0. 0. 0. -9.14556067e-03 0.
      8.11091717e-03 0. 5.77054545e-03 3.93488910e-03 9.96247865e-03 0.
      -1.15977027e-05 0. 0. 0. 0. -2.83471984e-03 0. 0. -8.60475062e-04
      0. 0. 0. -1.04743820e-02 0. 0. -9.14556067e-03 0. -1.80122256e-02
      -1.56687223e-03 4.15390451e-03 0. 0. 0. 0. 0. 6.83272816e-03 0.
      9.92156658e-03 0. 0. 0. 0. 0. 0. 0. 0. 0. 0. 0. 0. 3.83729907e-03
      0. 5.68203069e-03 0. 0. 5.30565716e-03 0. 0. 0. 0. 0. 0. 0.
      3.25218053e-03 0. 5.68203069e-03 -2.26433575e-02 0. 0. 0.
      3.09836455e-02 6.83272816e-03 0. 0. 0. 0. -6.52525434e-03 0.
      1.23660624e-01 0. 2.44493829e-03 2.09571850e-02 5.77054545e-03 0.
      0. 0. 0. 9.96247865e-03 0. 8.11091717e-03 0. 6.30007358e-04 0. 0.
      0. 0. 0. 0. 0. 4.00892971e-03 0. 0. 0. 0. -2.83471984e-03 0.
      3.83729907e-03 5.05856005e-04 0. -1.80122256e-02 3.25218053e-03 0.
      0. -1.29461899e-01 0. 0. 0. 0. 0. 3.46989930e-02 4.42760484e-03 0.
      -3.24301375e-03 0. 0. 0. 5.69975178e-04 0. -3.38519952e-04
      3.16465390e-03 2.44493829e-03 0. 0. 0. 0. 0. 0. 0. 0. 0. 0. 0.
      -8.60475062e-04 0. 0. 0. 5.77054545e-03 0. 0. 0. 0. 0.
      -6.88469969e-04 0. 0. 0. 0. 0. 0. 6.83272816e-03 0. 8.11091717e-03
      4.15390451e-03 0. -3.24301375e-03 -1.56687223e-03 2.36889860e-03
      0. 0. 0. 0. 3.93488910e-03 0. 0. 8.11091717e-03 0. 0. 0. 0. 0. 0.
      -8.55478570e-02 -6.52525434e-03 0. 0. 0. -2.97142728e-03 0. 0.
      1.61746722e-02 -1.44611651e-04 -3.38519952e-04 -9.00094863e-03 0.
      3.93488910e-03 0. 0. 0. 0. 0. -6.52525434e-03 0. 0. 0.
      -2.83471984e-03 0. 0. -8.60475062e-04 0. 0. 0. 0. 2.44493829e-03
      8.11091717e-03 0. 0. -2.83471984e-03 0. 8.11091717e-03
      2.44493829e-03 0. -1.52301967e-01 0. 0. 0. 0. -1.74477557e-03 0.
      0. 0. 0. 5.69975178e-04 3.25218053e-03 -1.44084990e-01 0. 0. 0. 0.
      0. 0. 0. 0. 8.78261344e-04 0. 0. 0. 0. 0. 0. 0. 6.30007358e-04
      4.89926804e-03 -3.69925275e-02 1.64770577e-02 8.11091717e-03
      -6.02123095e-03 0. 0. 0. 5.93091478e-04 0. -1.15977027e-05 0.
      1.61746722e-02 6.60259370e-03 0. 1.61746722e-02 0. 0. 0.
      -5.72581813e-02 0. 0. 0. 0. 0. 0. 0. 0. 0. 0. 0. 0. 0. 0. 0. 0. 0.
      0. 0. 1.06115239e-02 0. -1.51209207e-02 0. 0. 0. 1.36145361e-04 0.
      0. 0. 7.19160482e-04 0. 0. 4.89926804e-03 0. 0. 0. -3.44669097e-04
      7.86570425e-04 0. 0. 0. -3.44669097e-04 0. 0. 0. 7.82245304e-04
      -1.44611651e-04 0. 0. 1.72279222e-04 0. 0. 0. 0. 0. 0. 0. 0. 0.
      1.28802599e-03 -6.60423283e-03 0. 0. 2.05050521e-02 7.50099891e-04
      0. 3.25218053e-03 0. 0. 0. 1.62933802e-03 0. -1.74477557e-03 0. 0.
      -1.01178307e-02 0. 0. 0. 0. 0. 0. -3.44669097e-04 0.
      4.33618426e-02 0. 0. 1.07927492e-03 4.89926804e-03 0. 0.
      1.36145361e-04 0. 0. 0. 0. 0. -3.44669097e-04 -6.60423283e-03
      -6.60423283e-03 3.25218053e-03 0. 0. 0. 3.93488910e-03
      9.96247865e-03 0. 0. 0. -1.68658737e-02 0. 0. -1.78760812e-02
      3.72405339e-04 0. 0. 0. 0. 4.02838783e-03 0. 3.93488910e-03 0.
      1.07703486e-03 0. 0. 3.25218053e-03 3.72405339e-04 1.27310443e-04
      7.19160482e-04 0. 8.97953432e-05 0. 0. 0. 1.22826193e-02 0.
      -3.38519952e-04 -3.63505125e-04 0. 7.80815084e-04 -3.44669097e-04
      0. 0. 3.25218053e-03 -9.45135485e-03 0. 8.97953432e-05 0.
      7.90083839e-04 0. -3.44669097e-04 1.28802599e-03 0. 0. 0.
      3.25218053e-03 0. 0. 0. 0. 1.36145361e-04 0. 0. 0. 0. 0.
      -2.49686651e-03 0. 0. 0. 0. 0. 7.13184010e-04 6.86674553e-04
      7.80815084e-04 1.07927492e-03 1.27310443e-04 0. -6.60423283e-03 0.
      1.72279222e-04 7.50099891e-04 2.36889860e-03 5.68203069e-03 0. 0.
      -5.58700971e-03 8.11091717e-03 0. -1.44611651e-04 0.
      -2.12093350e-03 7.95174506e-04 0. 0. 0. 0. 0. -6.60423283e-03 0.
      7.81121999e-02 0. -7.02462671e-03 0. 0. 0. 3.62929842e-03
      -1.44611651e-04 3.25218053e-03 7.50099891e-04 0. 0. 0.
      7.19160482e-04 1.64770577e-02 0. -6.52525434e-03 0. 0.
      4.35137161e-04 -3.58296838e-03 1.07703486e-03 -1.74477557e-03 0.
      -6.60423283e-03 -7.02462671e-03 0. 0. 8.17469729e-04 0.
      -3.38519952e-04 0. 0. 7.80815084e-04 -5.58700971e-03 0. 0.
      1.28802599e-03 0. 0. 0. 0. 1.72279222e-04 1.62933802e-03 0. 0.
      8.11868289e-04 -3.44669097e-04 0. 1.71681357e-04 3.72405339e-04
      5.69975178e-04 -3.44669097e-04 9.92156658e-03 6.83272816e-03
      1.22826193e-02 0. 0. 0. 0. 8.97953432e-05 7.90083839e-04 0. 0. 0.
      0. 0. 0. 0. 0. 2.36889860e-03 0. 0. 0. 0. 0. 0. 0. 0. 0. 0. 0. 0.
      0. -3.44669097e-04 1.71681357e-04 0. -1.01178307e-02 0. 0. 0. 0.
      7.82245304e-04 -3.44669097e-04 -6.60423283e-03 0. 0. 0.
      -3.44669097e-04 0. 8.17469729e-04 0. -3.44669097e-04 0.
      5.69975178e-04 0. 0. 1.28802599e-03 0. 0. 0. 1.07595266e-03 0.
      8.97953432e-05 0. 8.11091717e-03 0. 1.27310443e-04 0. 0. 0.
      1.71681357e-04 0. 0. 0. 1.07927492e-03 -3.44669097e-04 0. 0. 0.
      2.05050521e-02 0. 0. 7.95174506e-04 0. 2.44493829e-03
      -3.44669097e-04 -3.38519952e-04 -3.38519952e-04 0. 7.86570425e-04
      3.45897599e-04 0. 0. 1.07703486e-03 0. 0. -3.38519952e-04 0. 0. 0.
      0. 0. 0. 5.69975178e-04 0. 0. 9.96247865e-03 4.15390451e-03
      1.72279222e-04 0. 2.44493829e-03 0. 0. -1.61050757e-05 0. 0.
      3.72405339e-04 0. 0. 8.11868289e-04 -5.72581813e-02 0. 0.
      7.19160482e-04 5.69975178e-04 0. -3.44669097e-04 0. 3.45897599e-04
      0. 0. 1.62933802e-03 0. 0. -6.60423283e-03 1.22826193e-02
      7.13184010e-04 0. 0. 7.95174506e-04 0. 4.46174119e-04
      1.28802599e-03 5.77054545e-03 -9.45135485e-03 0. 0. 7.96125270e-04
      0. 0. 0. 7.86570425e-04 0. -3.44669097e-04 7.96125270e-04 0. 0. 0.
      7.82245304e-04 8.11868289e-04 0. 0. 0. 0. 0. 1.07595266e-03 0.
      1.07595266e-03 0. 6.83272816e-03 7.13184010e-04 5.77054545e-03 0.
      0. 8.17469729e-04 0. 0. 4.15390451e-03 0. 7.96125270e-04
      7.19160482e-04 7.19160482e-04 0. -3.44669097e-04 7.13184010e-04 0.
      -1.44611651e-04 -3.54625023e-04 0. 7.19160482e-04 0. 0. 0. 0.
      4.83964756e-03 0. 0. 0. 0. 0. 7.19160482e-04 0. 0. 0. 0.
      -9.45135485e-03 0. 0. 4.46174119e-04 0. 0. -9.45135485e-03 0. 0.
      0. 0. 0. 0. 0. 7.81121999e-02 0. 0. 3.25218053e-03 -6.60423283e-03
      0. 0. 5.68203069e-03 3.93488910e-03 0. 0. -1.78760812e-02 0. 0.
      7.90083839e-04 0. 0. 3.46989930e-02 7.19160482e-04 -1.52301967e-01
      7.13184010e-04 0. -6.60423283e-03 7.13184010e-04 -3.44669097e-04
      0. 1.64770577e-02 0. 0. 3.72405339e-04 0. 0. -2.49686651e-03 0. 0.
      3.25218053e-03 0. -1.44611651e-04 0. 0. 0. 4.33618426e-02
      -1.21318318e-01 8.97953432e-05 5.10186180e-02 0. 0.
      -6.52525434e-03 0. -3.44669097e-04 0. 0. 3.69158624e-05
      2.36889860e-03 -2.12093350e-03 0. 0. -3.44669097e-04 0. 0. 0.
      -2.12093350e-03 -7.83938542e-02 0. 0. 6.83272816e-03
      -2.12093350e-03 0. 0. 0. -3.38519952e-04 0. 0. 0. 0.
      5.93091478e-04 0. -1.56687223e-03 0. 3.69158624e-05
      -1.44611651e-04 -2.83471984e-03 0. 0. 0. 0. -4.39027790e-03 0. 0.
      3.25218053e-03 0. 0. -1.59346238e-02 0. 0. 0. 0. 0. 0. 0. 0. 0. 0.
      1.64770577e-02 -1.58222881e-03 0. 0. 0. -1.07649351e-02 0.
      -1.56687223e-03 -3.38519952e-04 2.84760934e-03 1.64770577e-02 0.
      2.05160473e-02 -8.39285459e-03 3.89798632e-04 -1.56687223e-03 0.
      0. 0. 0. 0. 0. 1.64770577e-02 0. 0. 0. 0. 0. 0. 0. 0.
      -9.14556067e-03 0. -3.38519952e-04 0. 0. -1.56687223e-03
      -5.14984084e-03 2.05050521e-02 -1.58222881e-03 0. 3.69158624e-05
      0. 0. 0. -2.83471984e-03 -1.56687223e-03 0. 0. 0. 1.61746722e-02
      -9.14556067e-03 0. 0. 1.09193593e-01 0. -1.58222881e-03 0. 0. 0.
      0. 0. 0. 3.69158624e-05 0. 9.69710425e-02 -1.56687223e-03 0. 0. 0.
      0. 0. -9.78370607e-02 5.93091478e-04 0. 0. 0. -1.68658737e-02 0.
      0. 2.05050521e-02 0. 0. -3.38519952e-04 0. 0. 0. -1.35540487e-02
      0. 0. 0. 0. 8.78261344e-04 -2.83471984e-03 0. 0. 0. 0. 0.
      2.05050521e-02 4.84720282e-02 0. 0. -3.24301375e-03 0. 0. 0.
      -1.52301967e-01 0. 2.05050521e-02 0. 0. 5.77054545e-03
      3.83729907e-03 0. 0. 0. 0. 0. -1.56687223e-03 0. 0. 0. 0. 0. 0.
      -3.24301375e-03 2.56357882e-02 0. 4.15390451e-03 0. 0. 0. 0.
      9.74011794e-03 0. 0. -9.14556067e-03 6.83272816e-03 0.
      -3.24301375e-03 0. 0. 0. 2.01665331e-02 2.05050521e-02 0. 0.
      -3.38519952e-04 0. 0. 0. 3.83729907e-03 0. 5.68203069e-03 0. 0. 0.
      -1.47983832e-02 0. 0. 0. 0. 3.14023299e-03 0. -1.44611651e-04
      5.68203069e-03 0. 0. -3.24301375e-03 -1.35540487e-02
      -5.14984084e-03 0. 5.93091478e-04 6.83272816e-03 0.
      -3.38519952e-04 0. 0. -2.12093350e-03 0. -3.24301375e-03 0. 0. 0.
      0. 0. 0. 2.44493829e-03 2.05050521e-02 5.77054545e-03 0.
      -1.56687223e-03 0. 0. 0. 5.40939101e-04 0. 2.05050521e-02
      -3.44669097e-04 0. 0. -1.11034550e-02 0. -6.82598213e-03 0. 0. 0.
      0. 2.05050521e-02 -3.44669097e-04 -3.38519952e-04 0. 0.
      -3.24301375e-03 -1.35540487e-02 0. 0. 0. 5.52782463e-03
      -5.72581813e-02 -3.58479121e-03 0. -2.83471984e-03 0.
      -3.38519952e-04 0. 0. 0. 3.83729907e-03 0. 2.03301311e-02
      3.25218053e-03 0. -1.65567130e-01 0. 0. 0. -1.90539216e-03 0. 0.
      0. 0. 0. 1.62588921e-03 -9.04797018e-03 5.69975178e-04 0.
      -3.38519952e-04 0. 0. 0. 0. 0. 6.16389116e-06 1.61746722e-02 0.
      -3.38519952e-04 0. 0. 0. 0. -1.07649351e-02 0. 0. 0.
      8.78261344e-04 -3.58296838e-03 0. 1.88556872e-02 0. 0.
      8.11091717e-03 4.15390451e-03 -3.24301375e-03 -3.24301375e-03
      2.36889860e-03 0. 0. -2.12093350e-03 3.83729907e-03 0.
      9.18894634e-03 0. -5.72581813e-02 0. 0. 0. 0. 0. 0. 0. 0.
      1.64770577e-02 0. 0. 0. -1.64615083e-02 0. 0. -9.14556067e-03 0.
      -1.44611651e-04 -3.24301375e-03 3.83729907e-03 2.05050521e-02
      1.38584070e-03 0. 0. 0. 0. 0. 0. 0. 0. 0. 0. 0. 0. 0. 0.
      -5.72581813e-02 0. 0. -1.07649351e-02 0. -4.40159207e-03 0.
      -1.44611651e-04 -1.56687223e-03 -1.56687223e-03 0. -2.48286575e-02
      0. 2.44493829e-03 -1.31796911e-01 0. -3.44669097e-04 0. 0. 0. 0.
      -3.58153367e-03 -1.40496595e-02 0. 0. -1.56687223e-03 0.
      -3.38519952e-04 0. -6.00929037e-02 5.69975178e-04 0.
      2.11449433e-02 2.36889860e-03 0. 0. 0. 0. 0. 0. 0. 0. 0.
      2.05050521e-02 0. 0. -1.52301967e-01 0. 0. 4.89926804e-03 0.
      8.11091717e-03 4.81216796e-02 -3.38519952e-04 0. -9.14556067e-03
      0. 0. 2.05050521e-02 0. 0. -9.14556067e-03 -3.24301375e-03 0.
      1.76067092e-02 -3.38519952e-04 0. 8.78261344e-04 -3.24301375e-03
      -1.15319856e-01 0. 0. 0. 0. -5.72581813e-02 0. 0. 0. 0. 0. 0.
      -3.44669097e-04 0. 0. 0. 0. 0. 0. 0. 0. 0. 0. 2.05050521e-02 0.
      2.05050521e-02 0. 0. 0. -5.58700971e-03 2.90349070e-02
      3.14023299e-03 7.30340253e-04 0. 0. -8.53686966e-03
      -2.37007532e-02 3.04941870e-02 -1.47826262e-02 0. -1.43761712e-03
      0. 1.63855846e-03 2.78969556e-02 0. 0. -4.64481721e-03 0. 0. 0. 0.
      0. 0. 0. 0. 1.05189066e-03 -2.37007532e-02 0. 0. 3.53719890e-02 0.
      0. -1.97632192e-03 9.49234760e-04 5.30565716e-03 0.
      -1.74477557e-03 0. 0. 3.73483114e-02 0. -3.61753963e-02 0. 0. 0.
      0. 0. -9.45135485e-03 0. 0. -3.91870039e-03 0. 0. 1.47331634e-03
      4.19620331e-03 -6.18972408e-05 -9.45135485e-03 0. 0.
      -3.44669097e-04 -5.07353579e-05 2.86619994e-04 0. 0.
      3.73483114e-02 -4.85666934e-03 0. 8.78261344e-04 7.79473048e-05
      2.84760934e-03 0. -1.57809455e-03 0. 4.42760484e-03 0. 0. 0. 0.
      1.61008939e-01 0. 0. 0. 0. 0. -1.08268326e-02 -5.58700971e-03
      -1.38750346e-03 0. 0. 2.84760934e-03 2.84760934e-03 0. 0.
      3.17423325e-03 0. 0. 0. -1.79720786e-03 -1.47826262e-02 0.
      9.75899820e-05 0. 0. 8.49879580e-04 2.84760934e-03 0.
      -1.43761712e-03 -1.34995431e-02 4.23185201e-03 0. -7.56333163e-03
      0. 0. -9.28947609e-03 0. 0. 0. 4.81216796e-02 -1.97632192e-03 0.
      0. 0. -5.58700971e-03 0. 0. 0. -9.45135485e-03 -1.43761712e-03
      -1.43761712e-03</_></support_vectors>
  <decision_functions>
    <_>
      <sv_count>1</sv_count>
      <rho>-1.2017767032850331e+00</rho>
      <alpha>
        1.</alpha>
      <index>
        0</index></_></decision_functions></my_svm>
</opencv_storage>
